{"learner":{"attributes":{"best_iteration":"15","best_ntree_limit":"16","scikit_learn":"{\"objective\": \"reg:squarederror\", \"learning_rate\": 0.05, \"verbosity\": null, \"booster\": null, \"tree_method\": \"hist\", \"gamma\": null, \"min_child_weight\": 3.0, \"max_delta_step\": null, \"subsample\": 0.8, \"colsample_bytree\": 0.5, \"colsample_bylevel\": null, \"colsample_bynode\": null, \"reg_alpha\": null, \"reg_lambda\": null, \"scale_pos_weight\": null, \"base_score\": null, \"missing\": NaN, \"num_parallel_tree\": null, \"random_state\": 2020, \"n_jobs\": null, \"monotone_constraints\": null, \"interaction_constraints\": null, \"importance_type\": null, \"gpu_id\": null, \"validate_parameters\": null, \"predictor\": null, \"enable_categorical\": false, \"_estimator_type\": \"regressor\"}"},"feature_names":["FEATURE","DISPLAY","TPR_ONLY","STORE_NUM","UPC","PRICE","BASE_PRICE","STORE_ID","MSA_CODE","PARKING_SPACE_QTY","SALES_AREA_SIZE_NUM","AVG_WEEKLY_BASKETS"],"feature_types":["int","int","int","int","int","float","float","int","int","float","int","float"],"gradient_booster":{"model":{"gbtree_model_param":{"num_trees":"16","size_leaf_vector":"0"},"tree_info":[0,0,0,0,0,0,0,0,0,0,0,0,0,0,0,0],"trees":[{"base_weights":[2.2609528E1,8.5958433E-1,2.9154568E0],"categories":[],"categories_nodes":[],"categories_segments":[],"categories_sizes":[],"default_left":[false,false,false],"id":0,"left_children":[1,-1,-1],"loss_changes":[1.172445E6,0E0,0E0],"parents":[2147483647,0,0],"right_children":[2,-1,-1],"split_conditions":[1E0,8.5958433E-1,2.9154568E0],"split_indices":[1,0,0],"split_type":[0,0,0],"sum_hessian":[6.066E3,5.268E3,7.98E2],"tree_param":{"num_deleted":"0","num_feature":"12","num_nodes":"3","size_leaf_vector":"0"}},{"base_weights":[2.0910666E1,1.6062063E1,5.4598015E1,2.2211195E1,7.1227875E0,7.2933044E1,3.234641E1,2.831067E0,2.1249115E1,1.1979039E1,6.2892995E0,6.7980965E1,1.22757935E2,4.507651E1,2.4277702E1,1.9445496E1,2.7334976E1,1.0492869E1,1.5493744E1,5.7916284E0,9.382119E0,8.367971E1,5.363535E1,1.5814888E2,6.642301E1,3.850924E1,7.7057976E1,1.866569E1,3.711401E1,2.2899141E1,1.6345047E1,2.5780752E1,3.5263065E1,6.334799E0,1.0951002E1,9.919576E-1,1.3001054E1,7.2146773E0,4.6080537E0,1.2846943E1,4.750769E0,4.7442384E0,7.638985E1,6.325192E1,4.0644714E1,5.539901E0,1.2189338E1,1.9759797E0,8.8386475E1,4.9188324E1,2.7350327E1,5.4726253E0,1.7356609E0,8.742319E0,1.1425054E0,2.0067844E0,6.926464E-1,9.968776E-1,1.9528137E0,4.2453232E-1,9.169593E-1,1.7631676E0,1.2254136E0,2.0990028E0,1.3963712E0,3.4875652E-1,1.8458925E-1,6.8091244E-1,4.680359E-1,6.0555613E-1,9.131606E-1,2.0302652E-1,5.008011E-1,1.3624863E-1,3.18683E-1,6.054642E-1,9.265527E-1,3.503804E-1,1.4421092E-1,3.3946934E0,4.29434E0,2.614709E0,5.384717E0,9.5928234E-1,2.2009256E0,5.4969206E0,2.6733818E0,1.8275048E0,4.6767917E0,1.5180882E0,5.3623285E-2,7.24441E-1,4.6883013E-2],"categories":[],"categories_nodes":[],"categories_segments":[],"categories_sizes":[],"default_left":[false,false,false,false,false,false,false,false,false,false,false,false,false,false,false,false,false,false,false,false,false,false,false,false,false,false,false,false,false,false,false,false,false,false,false,false,false,false,false,false,false,false,false,false,false,false,false,false,false,false,false,false,false,false,false,false,false,false,false,false,false,false,false,false,false,false,false,false,false,false,false,false,false,false,false,false,false,false,false,false,false,false,false,false,false,false,false,false,false,false,false,false,false],"id":1,"left_children":[1,3,5,7,9,11,13,-1,15,17,19,21,23,25,27,29,31,33,35,37,39,41,43,45,47,49,51,53,55,57,59,61,63,65,67,-1,69,71,73,75,77,-1,79,81,83,-1,-1,-1,85,87,89,-1,-1,91,-1,-1,-1,-1,-1,-1,-1,-1,-1,-1,-1,-1,-1,-1,-1,-1,-1,-1,-1,-1,-1,-1,-1,-1,-1,-1,-1,-1,-1,-1,-1,-1,-1,-1,-1,-1,-1,-1,-1],"loss_changes":[1.00315275E6,2.95299E5,3.1301225E5,1.04204125E5,8.7970625E3,9.602425E4,3.495878E4,0E0,3.3484875E4,1.5089336E3,2.8286016E3,8.2667375E4,6.3263875E4,2.538675E4,1.4939383E4,2.526025E4,7.79025E3,3.6495508E2,7.494238E2,2.6885586E3,4.079045E3,7.69975E3,2.3038875E4,6.21995E4,5.9612812E3,1.2239719E4,2.637879E4,6.15334E3,4.0126953E3,5.329275E4,1.9657688E4,6.3032188E3,4.3955156E3,1.6559448E1,7.378242E2,0E0,6.915527E1,6.427176E3,2.9250625E3,3.919629E2,4.5158887E2,0E0,3.528375E3,5.0858875E4,5.6713438E3,0E0,0E0,0E0,1.4240234E2,2.8528266E4,4.5572188E3,0E0,0E0,2.0943396E3,0E0,0E0,0E0,0E0,0E0,0E0,0E0,0E0,0E0,0E0,0E0,0E0,0E0,0E0,0E0,0E0,0E0,0E0,0E0,0E0,0E0,0E0,0E0,0E0,0E0,0E0,0E0,0E0,0E0,0E0,0E0,0E0,0E0,0E0,0E0,0E0,0E0,0E0,0E0],"parents":[2147483647,0,0,1,1,2,2,3,3,4,4,5,5,6,6,8,8,9,9,10,10,11,11,12,12,13,13,14,14,15,15,16,16,17,17,18,18,19,19,20,20,21,21,22,22,23,23,24,24,25,25,26,26,27,27,28,28,29,29,30,30,31,31,32,32,33,33,34,34,36,36,37,37,38,38,39,39,40,40,42,42,43,43,44,44,48,48,49,49,50,50,53,53],"right_children":[2,4,6,8,10,12,14,-1,16,18,20,22,24,26,28,30,32,34,36,38,40,42,44,46,48,50,52,54,56,58,60,62,64,66,68,-1,70,72,74,76,78,-1,80,82,84,-1,-1,-1,86,88,90,-1,-1,92,-1,-1,-1,-1,-1,-1,-1,-1,-1,-1,-1,-1,-1,-1,-1,-1,-1,-1,-1,-1,-1,-1,-1,-1,-1,-1,-1,-1,-1,-1,-1,-1,-1,-1,-1,-1,-1,-1,-1],"split_conditions":[1E0,3.46E0,3.29E0,1.5E0,3.99E0,3.02E0,4.81E0,2.831067E0,3.02E0,3.89E0,6.99E0,1.55E0,3.2E0,4.29E0,6.99E0,2.47E0,1E0,3.49E0,3.91E0,4.81E0,7.09E0,1.47E0,2.89E0,3.13E0,3.23E0,3.46E0,4.69E0,5.64E0,7.49E0,2.3E0,2.55E0,3.09E0,3.25E0,1E0,3.58E0,9.919576E-1,1E0,4.5E0,5.64E0,1E0,7.49E0,4.7442384E0,1.53E0,2.6E0,2.9E0,5.539901E0,1.2189338E1,1.9759797E0,3.25E0,3.31E0,4.19E0,5.4726253E0,1.7356609E0,5.49E0,1.1425054E0,2.0067844E0,6.926464E-1,9.968776E-1,1.9528137E0,4.2453232E-1,9.169593E-1,1.7631676E0,1.2254136E0,2.0990028E0,1.3963712E0,3.4875652E-1,1.8458925E-1,6.8091244E-1,4.680359E-1,6.0555613E-1,9.131606E-1,2.0302652E-1,5.008011E-1,1.3624863E-1,3.18683E-1,6.054642E-1,9.265527E-1,3.503804E-1,1.4421092E-1,3.3946934E0,4.29434E0,2.614709E0,5.384717E0,9.5928234E-1,2.2009256E0,5.4969206E0,2.6733818E0,1.8275048E0,4.6767917E0,1.5180882E0,5.3623285E-2,7.24441E-1,4.6883013E-2],"split_indices":[1,6,6,6,6,6,6,0,6,6,6,6,6,6,6,6,2,6,6,6,6,6,6,6,6,6,6,6,6,6,6,6,6,2,6,0,2,6,6,2,6,0,6,6,6,0,0,0,6,6,6,0,0,6,0,0,0,0,0,0,0,0,0,0,0,0,0,0,0,0,0,0,0,0,0,0,0,0,0,0,0,0,0,0,0,0,0,0,0,0,0,0,0],"split_type":[0,0,0,0,0,0,0,0,0,0,0,0,0,0,0,0,0,0,0,0,0,0,0,0,0,0,0,0,0,0,0,0,0,0,0,0,0,0,0,0,0,0,0,0,0,0,0,0,0,0,0,0,0,0,0,0,0,0,0,0,0,0,0,0,0,0,0,0,0,0,0,0,0,0,0,0,0,0,0,0,0,0,0,0,0,0,0,0,0,0,0,0,0],"sum_hessian":[6.146E3,5.374E3,7.72E2,3.183E3,2.191E3,4.22E2,3.5E2,8.5E1,3.098E3,3.19E2,1.872E3,3.86E2,3.6E1,1.34E2,2.16E2,2.393E3,7.05E2,2.27E2,9.2E1,1.615E3,2.57E2,1.82E2,2.04E2,2.1E1,1.5E1,1.13E2,2.1E1,1.52E2,6.4E1,1.129E3,1.264E3,5.93E2,1.12E2,2.4E1,2.03E2,3.1E1,6.1E1,7.31E2,8.84E2,1.46E2,1.11E2,6.7E1,1.15E2,1.15E2,8.9E1,1.5E1,6E0,8E0,7E0,5.6E1,5.7E1,1.1E1,1E1,4.6E1,1.06E2,5.6E1,8E0,9.56E2,1.73E2,2.57E2,1.007E3,6.7E1,5.26E2,5.6E1,5.6E1,1.8E1,6E0,7.3E1,1.3E2,5.5E1,6E0,3.45E2,3.86E2,4.29E2,4.55E2,1.32E2,1.4E1,4.9E1,6.2E1,6.5E1,5E1,9.4E1,2.1E1,1.3E1,7.6E1,3E0,4E0,4.5E1,1.1E1,5.1E1,6E0,2.6E1,2E1],"tree_param":{"num_deleted":"0","num_feature":"12","num_nodes":"93","size_leaf_vector":"0"}},{"base_weights":[2.0542568E1,1.7229805E1,6.271566E1,6.3959583E1,1.4216836E1,9.915174E1,2.7126879E1,4.825789E0,6.11056E1,1.9539415E1,5.8231955E0,1.2589576E2,8.0710945E1,2.2318243E1,3.602647E1,7.4474236E1,5.7524746E1,2.538466E1,1.7441288E1,1.0440425E1,5.2472644E0,9.4945526E1,1.9230386E2,6.010587E1,9.1639626E1,3.5403154E0,2.0847015E1,4.0144684E1,6.1736804E-1,4.9072453E1,4.376356E0,5.2200146E1,6.492731E1,2.0935404E1,4.7577877E1,6.370664E0,1.83976E1,7.2846575E0,1.5507485E1,4.1182404E0,7.0396733E0,6.203806E-1,1.1250454E2,1.5538829E1,1.3529958E2,7.158209E1,3.6364475E1,1.106778E2,7.04703E1,1.5684048E1,2.497495E1,2.1534736E0,4.6700674E-1,5.678506E-1,2.6959782E0,2.8431509E0,1.8980951E0,3.810196E0,2.4934995E0,6.1178905E-1,1.3376954E0,1.9109186E0,3.0127754E0,2.4856131E-1,4.142615E-1,2.2390676E0,8.915049E-1,1.4684586E-1,4.725248E-1,1.0006679E0,5.623442E-1,2.4952804E-1,8.1441216E-2,8.5102E-1,2.5442892E-1,3.8637662E0,6.251842E0,8.361829E0,3.884182E0,2.3636887E0,4.2863E0,8.439787E-1,2.128012E0,6.9794984E0,4.94595E0,2.0642958E0,4.2315145E0,1.2431129E0,4.5167324E-1,1.3322663E0,9.680042E-1],"categories":[],"categories_nodes":[],"categories_segments":[],"categories_sizes":[],"default_left":[false,false,false,false,false,false,false,false,false,false,false,false,false,false,false,false,false,false,false,false,false,false,false,false,false,false,false,false,false,false,false,false,false,false,false,false,false,false,false,false,false,false,false,false,false,false,false,false,false,false,false,false,false,false,false,false,false,false,false,false,false,false,false,false,false,false,false,false,false,false,false,false,false,false,false,false,false,false,false,false,false,false,false,false,false,false,false,false,false,false,false],"id":2,"left_children":[1,3,5,7,9,11,13,-1,15,17,19,21,23,25,27,29,31,33,35,37,39,41,43,45,47,-1,49,51,-1,53,-1,55,57,59,61,63,65,67,69,71,73,-1,75,-1,77,79,81,83,85,87,89,-1,-1,-1,-1,-1,-1,-1,-1,-1,-1,-1,-1,-1,-1,-1,-1,-1,-1,-1,-1,-1,-1,-1,-1,-1,-1,-1,-1,-1,-1,-1,-1,-1,-1,-1,-1,-1,-1,-1,-1],"loss_changes":[8.551985E5,7.99372E5,5.7564575E5,2.6065E4,2.3849975E5,9.83385E4,8.910391E3,0E0,1.098675E4,3.963625E4,5.4604062E3,1.6261212E5,2.4441688E4,9.224445E3,7.1105312E3,1.6925094E4,6.7011875E3,8.402194E4,2.537625E4,3.5488496E3,3.706711E3,8.845969E4,1.4029531E5,1.07475625E4,2.6457688E4,0E0,2.7412148E3,5.5441094E3,0E0,3.7750977E3,0E0,8.0655938E3,1.3688656E4,3.606753E4,1.4664969E4,4.7591992E2,3.2381438E4,1.3188042E3,1.4451133E3,2.4565996E3,1.377841E4,0E0,1.28544375E4,0E0,2.3810031E4,6.9495E3,1.4546289E3,8.106875E2,1.4275734E4,3.9261582E3,2.3445703E2,0E0,0E0,0E0,0E0,0E0,0E0,0E0,0E0,0E0,0E0,0E0,0E0,0E0,0E0,0E0,0E0,0E0,0E0,0E0,0E0,0E0,0E0,0E0,0E0,0E0,0E0,0E0,0E0,0E0,0E0,0E0,0E0,0E0,0E0,0E0,0E0,0E0,0E0,0E0,0E0],"parents":[2147483647,0,0,1,1,2,2,3,3,4,4,5,5,6,6,8,8,9,9,10,10,11,11,12,12,13,13,14,14,15,15,16,16,17,17,18,18,19,19,20,20,21,21,22,22,23,23,24,24,26,26,27,27,29,29,31,31,32,32,33,33,34,34,35,35,36,36,37,37,38,38,39,39,40,40,42,42,44,44,45,45,46,46,47,47,48,48,49,49,50,50],"right_children":[2,4,6,8,10,12,14,-1,16,18,20,22,24,26,28,30,32,34,36,38,40,42,44,46,48,-1,50,52,-1,54,-1,56,58,60,62,64,66,68,70,72,74,-1,76,-1,78,80,82,84,86,88,90,-1,-1,-1,-1,-1,-1,-1,-1,-1,-1,-1,-1,-1,-1,-1,-1,-1,-1,-1,-1,-1,-1,-1,-1,-1,-1,-1,-1,-1,-1,-1,-1,-1,-1,-1,-1,-1,-1,-1,-1],"split_conditions":[1E0,1.55E0,2.99E0,1.32E0,3.46E0,1.99E0,6.99E0,4.825789E0,1.46E0,2E0,3.99E0,3.02E0,3.02E0,3.31E0,7.49E0,1.46E0,1.51E0,1.94E0,2.3E0,3.87E0,5.64E0,1.1E0,1.82E0,2.99E0,2.5E0,3.5403154E0,6.29E0,5.23E0,6.1736804E-1,1.38E0,4.376356E0,1.5E0,1.54E0,1.62E0,2.33E0,2.06E0,2.39E0,3.5E0,3.91E0,4.89E0,5.99E0,6.203806E-1,2.39E0,1.5538829E1,3.38E0,2.6E0,2E0,3.09E0,2.51E0,3.46E0,5.23E0,2.1534736E0,4.6700674E-1,5.678506E-1,2.6959782E0,2.8431509E0,1.8980951E0,3.810196E0,2.4934995E0,6.1178905E-1,1.3376954E0,1.9109186E0,3.0127754E0,2.4856131E-1,4.142615E-1,2.2390676E0,8.915049E-1,1.4684586E-1,4.725248E-1,1.0006679E0,5.623442E-1,2.4952804E-1,8.1441216E-2,8.5102E-1,2.5442892E-1,3.8637662E0,6.251842E0,8.361829E0,3.884182E0,2.3636887E0,4.2863E0,8.439787E-1,2.128012E0,6.9794984E0,4.94595E0,2.0642958E0,4.2315145E0,1.2431129E0,4.5167324E-1,1.3322663E0,9.680042E-1],"split_indices":[0,6,5,5,5,5,6,0,6,5,6,6,6,6,6,5,5,5,6,6,6,5,5,6,5,0,6,5,0,6,0,6,6,5,6,5,6,5,5,5,5,0,6,0,6,6,5,6,5,5,5,0,0,0,0,0,0,0,0,0,0,0,0,0,0,0,0,0,0,0,0,0,0,0,0,0,0,0,0,0,0,0,0,0,0,0,0,0,0,0,0],"split_type":[0,0,0,0,0,0,0,0,0,0,0,0,0,0,0,0,0,0,0,0,0,0,0,0,0,0,0,0,0,0,0,0,0,0,0,0,0,0,0,0,0,0,0,0,0,0,0,0,0,0,0,0,0,0,0,0,0,0,0,0,0,0,0,0,0,0,0,0,0,0,0,0,0,0,0,0,0,0,0,0,0,0,0,0,0,0,0,0,0,0,0],"sum_hessian":[6.128E3,5.683E3,4.45E2,3.43E2,5.34E3,2.19E2,2.26E2,2.5E1,3.18E2,3.267E3,2.073E3,8.7E1,1.32E2,1.49E2,7.7E1,6.3E1,2.55E2,8.6E2,2.407E3,2.28E2,1.845E3,6.1E1,2.6E1,4.8E1,8.4E1,3E0,1.46E2,6.5E1,1.2E1,2.3E1,4E1,1.53E2,1.02E2,7.18E2,1.42E2,1.92E2,2.215E3,1.42E2,8.6E1,1.134E3,7.11E2,1.1E1,5E1,7E0,1.9E1,3.1E1,1.7E1,4.2E1,4.2E1,6.7E1,7.9E1,5.9E1,6E0,3E0,2E1,1.13E2,4E1,5.6E1,4.6E1,2.89E2,4.29E2,8.4E1,5.8E1,1.13E2,7.9E1,4.5E1,2.17E3,4.8E1,9.4E1,4E1,4.6E1,8.39E2,2.95E2,1.15E2,5.96E2,1.5E1,3.5E1,1.1E1,8E0,1.3E1,1.8E1,5E0,1.2E1,9E0,3.3E1,1.5E1,2.7E1,2.7E1,4E1,5.8E1,2.1E1],"tree_param":{"num_deleted":"0","num_feature":"12","num_nodes":"91","size_leaf_vector":"0"}},{"base_weights":[1.9166237E1,1.4721595E1,4.9446438E1,2.03265E1,5.836324E0,7.82389E1,2.6217577E1,1.8687277E1,6.516933E1,5.3167696E0,2.267302E1,7.149118E1,1.2537739E2,4.2677788E1,1.8966728E1,4.140152E1,1.7401623E1,7.798521E1,1.8793068E1,1.0305471E1,4.6485796E0,1.2629079E1,3.8718266E1,7.657447E1,5.1923275E1,1.7717323E2,5.95433E1,2.858913E1,7.906205E1,1.201954E1,2.7651749E1,4.6912373E1,3.4512054E1,5.4124856E0,1.8020638E1,5.8525056E-1,8.4386894E1,1.1958156E1,2.3008125E1,1.4980255E-1,1.2225286E1,3.0151274E0,5.1978207E0,8.90306E0,2.0270699E1,2.6969316E0,2.2861168E1,7.163221E1,6.004461E0,2.7083397E-1,5.4051895E1,1.3732799E1,6.330566E0,2.6023691E1,7.972107E1,2.549718E1,3.5359414E0,6.686247E1,1.0070995E2,1.0161636E1,2.6152382E1,2.8767838E1,5.523538E-1,8.0831945E-2,2.4227858E0,1.2524824E0,1.9952097E0,9.7152394E-1,1.2596479E-1,1.2537421E0,7.913436E-1,4.8742237E0,3.0642416E0,8.107548E-1,1.3777106E-1,6.143305E-1,1.4395312E0,1.3708085E0,5.108904E-1,5.476221E-2,1.8182683E-1,3.886047E-1,2.1624124E-1,2.993465E-1,5.9036463E-1,1.449605E0,7.0711106E-1,1.3759991E0,4.951535E-1,3.856549E0,2.2617188E0,2.2748842E0,3.0458493E0,1.9288591E0,3.4376502E-2,1.8657852E0,4.8129644E0,1.3800265E0,1.6333112E-1,3.803764E0,1.1736964E0,6.2950454E0,2.2650313E0,7.9677796E-1,3.0897692E-1,8.3961505E-1,1.4590352E0,1.2133288E0,1.7936438E0],"categories":[],"categories_nodes":[],"categories_segments":[],"categories_sizes":[],"default_left":[false,false,false,false,false,false,false,false,false,false,false,false,false,false,false,false,false,false,false,false,false,false,false,false,false,false,false,false,false,false,false,false,false,false,false,false,false,false,false,false,false,false,false,false,false,false,false,false,false,false,false,false,false,false,false,false,false,false,false,false,false,false,false,false,false,false,false,false,false,false,false,false,false,false,false,false,false,false,false,false,false,false,false,false,false,false,false,false,false,false,false,false,false,false,false,false,false,false,false,false,false,false,false,false,false,false,false,false,false],"id":3,"left_children":[1,3,5,7,9,11,13,15,17,19,21,23,25,27,29,31,33,35,37,39,41,43,45,47,49,51,53,55,57,59,61,63,65,67,69,-1,71,73,75,-1,77,79,81,83,85,-1,87,89,-1,-1,91,-1,-1,93,95,97,-1,99,101,103,105,107,-1,-1,-1,-1,-1,-1,-1,-1,-1,-1,-1,-1,-1,-1,-1,-1,-1,-1,-1,-1,-1,-1,-1,-1,-1,-1,-1,-1,-1,-1,-1,-1,-1,-1,-1,-1,-1,-1,-1,-1,-1,-1,-1,-1,-1,-1,-1],"loss_changes":[8.1566225E5,2.63379E5,5.1695E5,2.3724025E5,1.7794508E4,1.010915E5,5.0630594E4,9.0713E4,6.6290625E4,6.5788906E3,9.341631E3,2.6362125E4,1.3266769E5,6.4891E4,1.7828922E4,4.7214062E3,2.1907062E4,3.6775375E4,4.7391406E2,3.2470312E3,1.5588438E3,9.2996875E2,4.3179688E3,4.30125E4,6.240875E3,7.85905E4,1.1452383E4,1.0702102E4,2.7737188E3,4.17176E3,2.1469922E3,6.2132656E3,2.9801797E3,5.912886E3,4.3227938E4,0E0,1.853475E4,4.2542627E2,5.7621826E2,0E0,5.36151E3,5.257239E2,2.9148867E3,1.664458E2,2.3137451E2,0E0,5.1227E2,2.8155E4,0E0,0E0,9.28125E2,0E0,0E0,2.8359927E3,4.8237344E3,4.164875E3,0E0,8.6071875E3,9.6505625E3,3.3733672E3,4.854883E1,3.095211E3,0E0,0E0,0E0,0E0,0E0,0E0,0E0,0E0,0E0,0E0,0E0,0E0,0E0,0E0,0E0,0E0,0E0,0E0,0E0,0E0,0E0,0E0,0E0,0E0,0E0,0E0,0E0,0E0,0E0,0E0,0E0,0E0,0E0,0E0,0E0,0E0,0E0,0E0,0E0,0E0,0E0,0E0,0E0,0E0,0E0,0E0,0E0],"parents":[2147483647,0,0,1,1,2,2,3,3,4,4,5,5,6,6,7,7,8,8,9,9,10,10,11,11,12,12,13,13,14,14,15,15,16,16,17,17,18,18,19,19,20,20,21,21,22,22,23,23,24,24,25,25,26,26,27,27,28,28,29,29,30,30,31,31,32,32,33,33,34,34,36,36,37,37,38,38,40,40,41,41,42,42,43,43,44,44,46,46,47,47,50,50,53,53,54,54,55,55,57,57,58,58,59,59,60,60,61,61],"right_children":[2,4,6,8,10,12,14,16,18,20,22,24,26,28,30,32,34,36,38,40,42,44,46,48,50,52,54,56,58,60,62,64,66,68,70,-1,72,74,76,-1,78,80,82,84,86,-1,88,90,-1,-1,92,-1,-1,94,96,98,-1,100,102,104,106,108,-1,-1,-1,-1,-1,-1,-1,-1,-1,-1,-1,-1,-1,-1,-1,-1,-1,-1,-1,-1,-1,-1,-1,-1,-1,-1,-1,-1,-1,-1,-1,-1,-1,-1,-1,-1,-1,-1,-1,-1,-1,-1,-1,-1,-1,-1,-1],"split_conditions":[1E0,3.46E0,2.49E0,1E0,1E0,3.02E0,2.99E0,1.55E0,2.99E0,3.99E0,6.99E0,1.99E0,3.38E0,1E0,1E0,1.5E0,1.59E0,1.1E0,3.04E0,3.5E0,4.5E0,6.38E0,4.83E0,2.5E0,2.3E0,1.98E0,3.57E0,4E0,3.73E0,6.89E0,7.49E0,1.38E0,1.52E0,1.56E0,2E0,5.8525056E-1,2.45E0,4E0,3.89E0,1.4980255E-1,3.58E0,4E0,4.83E0,6.04E0,4.49E0,2.6969316E0,7.49E0,1.55E0,6.004461E0,2.7083397E-1,1E0,1.3732799E1,6.330566E0,3.49E0,1E0,3.38E0,3.5359414E0,3.38E0,2.71E0,3.49E0,6.99E0,6.99E0,5.523538E-1,8.0831945E-2,2.4227858E0,1.2524824E0,1.9952097E0,9.7152394E-1,1.2596479E-1,1.2537421E0,7.913436E-1,4.8742237E0,3.0642416E0,8.107548E-1,1.3777106E-1,6.143305E-1,1.4395312E0,1.3708085E0,5.108904E-1,5.476221E-2,1.8182683E-1,3.886047E-1,2.1624124E-1,2.993465E-1,5.9036463E-1,1.449605E0,7.0711106E-1,1.3759991E0,4.951535E-1,3.856549E0,2.2617188E0,2.2748842E0,3.0458493E0,1.9288591E0,3.4376502E-2,1.8657852E0,4.8129644E0,1.3800265E0,1.6333112E-1,3.803764E0,1.1736964E0,6.2950454E0,2.2650313E0,7.9677796E-1,3.0897692E-1,8.3961505E-1,1.4590352E0,1.2133288E0,1.7936438E0],"split_indices":[1,5,5,0,0,6,5,6,5,6,6,5,6,0,0,5,6,5,5,5,5,6,5,6,6,5,6,6,6,6,6,6,5,6,5,0,5,6,6,0,6,6,5,6,5,0,6,6,0,0,0,0,0,6,0,6,0,6,5,5,6,6,0,0,0,0,0,0,0,0,0,0,0,0,0,0,0,0,0,0,0,0,0,0,0,0,0,0,0,0,0,0,0,0,0,0,0,0,0,0,0,0,0,0,0,0,0,0,0],"split_type":[0,0,0,0,0,0,0,0,0,0,0,0,0,0,0,0,0,0,0,0,0,0,0,0,0,0,0,0,0,0,0,0,0,0,0,0,0,0,0,0,0,0,0,0,0,0,0,0,0,0,0,0,0,0,0,0,0,0,0,0,0,0,0,0,0,0,0,0,0,0,0,0,0,0,0,0,0,0,0,0,0,0,0,0,0,0,0,0,0,0,0,0,0,0,0,0,0,0,0,0,0,0,0,0,0,0,0,0,0],"sum_hessian":[6.065E3,5.29E3,7.75E2,3.243E3,2.047E3,3.45E2,4.3E2,3.13E3,1.13E2,1.987E3,6E1,3.04E2,4.1E1,1.3E2,3E2,1.66E2,2.964E3,8.8E1,2.5E1,2.33E2,1.754E3,3.8E1,2.2E1,2.39E2,6.5E1,2.2E1,1.9E1,9.5E1,3.5E1,1.68E2,1.32E2,8.9E1,7.7E1,1.46E2,2.818E3,8E0,8E1,1.1E1,1.4E1,4.9E1,1.84E2,4.43E2,1.311E3,2.7E1,1.1E1,1E1,1.2E1,2.17E2,2.2E1,3E0,6.2E1,6E0,1.6E1,8E0,1.1E1,9E1,5E0,2.5E1,1E1,1.5E2,1.8E1,1.23E2,9E0,3E0,8.6E1,3E1,4.7E1,2.4E1,1.22E2,6.66E2,2.152E3,4.9E1,3.1E1,7E0,4E0,6E0,8E0,2E1,1.64E2,1.09E2,3.34E2,3.3E2,9.81E2,1.5E1,1.2E1,3E0,8E0,8E0,4E0,1.78E2,3.9E1,3.1E1,3.1E1,5E0,3E0,4E0,7E0,8.2E1,8E0,2E1,5E0,6E0,4E0,6E1,9E1,6E0,1.2E1,7.8E1,4.5E1],"tree_param":{"num_deleted":"0","num_feature":"12","num_nodes":"109","size_leaf_vector":"0"}},{"base_weights":[1.8147272E1,1.399871E1,4.669209E1,2.542194E1,9.367317E0,7.250057E1,2.5438917E1,3.207923E1,1.2031699E1,8.412211E0,3.853936E1,6.53328E1,9.433541E1,1.7535864E1,3.7471367E1,1.6231724E1,4.549895E1,6.8244286E0,2.542092E1,1.1814745E1,3.0683267E0,8.945668E0,2.958184E1,7.1555984E1,3.4812954E1,7.833268E1,1.1916806E2,2.6310223E1,1.1851925E1,7.408222E1,2.582869E1,4.2736256E1,1.0323515E0,4.167441E1,1.2491216E2,-1.0805051E0,8.062951E0,2.0632493E0,2.0100155E1,6.3204875E0,1.3002485E1,1.4439223E0,4.781679E0,4.639977E1,1.6647594E1,6.902079E1,1.0160224E2,4.2776833E1,1.9605774E1,9.577412E1,6.525613E1,7.385293E0,4.348888E0,4.519688E1,1.8808378E1,1.2722007E1,1.9316447E0,9.5931175E1,5.551912E1,3.0313189E1,1.7888422E1,2.336621E0,1.6440998E0,2.625775E-1,-1.3446373E-2,1.5646626E0,2.3803031E0,2.2048395E0,8.380738E0,-7.3305346E-2,7.970813E-3,6.665368E-1,3.385403E-1,4.9650413E-1,1.0147154E0,3.460444E-1,1.5254317E-1,1.0232351E0,5.133145E-1,5.251916E-1,6.775343E-2,3.0982485E-1,1.3287672E-1,1.0880334E0,3.55794E0,1.0869879E0,3.9886788E-1,3.5918643E0,1.418411E0,6.7556787E0,1.4408162E0,1.7493479E0,3.4052582E0,3.0058154E-1,1.0961913E0,2.7852447E0,6.7139893E0,4.7544265E0,2.233085E0,1.654343E0,3.5668035E0,1.0117232E0,7.2589415E-1,4.0721875E-1,7.955657E-1,2.3164701E-1,-4.19231E-3,1.8178071E0,6.699905E0,9.2785865E-1,3.6420135E0,1.7501185E0,8.8589734E-1,1.1904249E0,6.299031E-1],"categories":[],"categories_nodes":[],"categories_segments":[],"categories_sizes":[],"default_left":[false,false,false,false,false,false,false,false,false,false,false,false,false,false,false,false,false,false,false,false,false,false,false,false,false,false,false,false,false,false,false,false,false,false,false,false,false,false,false,false,false,false,false,false,false,false,false,false,false,false,false,false,false,false,false,false,false,false,false,false,false,false,false,false,false,false,false,false,false,false,false,false,false,false,false,false,false,false,false,false,false,false,false,false,false,false,false,false,false,false,false,false,false,false,false,false,false,false,false,false,false,false,false,false,false,false,false,false,false,false,false,false,false,false,false],"id":4,"left_children":[1,3,5,7,9,11,13,15,17,19,21,23,25,27,29,31,33,35,37,39,41,-1,43,45,47,49,51,53,55,57,59,61,63,65,67,69,71,-1,73,75,77,79,81,83,85,87,89,91,93,95,97,-1,-1,99,101,103,105,107,109,111,113,-1,-1,-1,-1,-1,-1,-1,-1,-1,-1,-1,-1,-1,-1,-1,-1,-1,-1,-1,-1,-1,-1,-1,-1,-1,-1,-1,-1,-1,-1,-1,-1,-1,-1,-1,-1,-1,-1,-1,-1,-1,-1,-1,-1,-1,-1,-1,-1,-1,-1,-1,-1,-1,-1],"loss_changes":[7.220634E5,2.8174794E5,4.2270412E5,1.3662644E5,1.0538569E5,4.845775E4,3.9852562E4,2.1745988E5,3.552382E4,6.678533E4,1.4559577E5,4.8030375E4,2.4046E4,1.2605266E4,6.969628E4,1.9010216E5,1.6335825E5,3.6311738E3,1.1225828E4,1.4568156E4,3.9758223E3,0E0,2.4025656E4,9.745375E3,4.8534062E3,6.0661562E3,1.563075E4,1.3460078E4,1.3478281E3,1.0897344E4,4.0511953E3,5.2365625E3,1.6540088E3,3.1207875E4,7.888441E4,2.4617638E1,2.0878984E3,0E0,1.3699219E1,7.66083E2,3.746128E4,5.782521E2,2.075205E3,2.8343516E4,2.7404902E3,2.1548688E4,3.2693812E4,3.5363438E3,4.354165E2,2.4920703E4,1.6642156E4,0E0,0E0,6.503004E3,1.5901562E2,2.0019355E3,7.6610565E1,3.3681594E4,1.4013656E4,4.1638047E3,1.234707E3,0E0,0E0,0E0,0E0,0E0,0E0,0E0,0E0,0E0,0E0,0E0,0E0,0E0,0E0,0E0,0E0,0E0,0E0,0E0,0E0,0E0,0E0,0E0,0E0,0E0,0E0,0E0,0E0,0E0,0E0,0E0,0E0,0E0,0E0,0E0,0E0,0E0,0E0,0E0,0E0,0E0,0E0,0E0,0E0,0E0,0E0,0E0,0E0,0E0,0E0,0E0,0E0,0E0,0E0],"parents":[2147483647,0,0,1,1,2,2,3,3,4,4,5,5,6,6,7,7,8,8,9,9,10,10,11,11,12,12,13,13,14,14,15,15,16,16,17,17,18,18,19,19,20,20,22,22,23,23,24,24,25,25,26,26,27,27,28,28,29,29,30,30,31,31,32,32,33,33,34,34,35,35,36,36,38,38,39,39,40,40,41,41,42,42,43,43,44,44,45,45,46,46,47,47,48,48,49,49,50,50,53,53,54,54,55,55,56,56,57,57,58,58,59,59,60,60],"right_children":[2,4,6,8,10,12,14,16,18,20,22,24,26,28,30,32,34,36,38,40,42,-1,44,46,48,50,52,54,56,58,60,62,64,66,68,70,72,-1,74,76,78,80,82,84,86,88,90,92,94,96,98,-1,-1,100,102,104,106,108,110,112,114,-1,-1,-1,-1,-1,-1,-1,-1,-1,-1,-1,-1,-1,-1,-1,-1,-1,-1,-1,-1,-1,-1,-1,-1,-1,-1,-1,-1,-1,-1,-1,-1,-1,-1,-1,-1,-1,-1,-1,-1,-1,-1,-1,-1,-1,-1,-1,-1,-1,-1,-1,-1,-1,-1],"split_conditions":[1E0,2.0662006E9,2.49E0,3.17E0,1E0,1E0,1E0,1.1110853E9,1.6000275E9,3.91E0,1.75E0,1.99E0,3.7000315E9,2.97E0,3.32E0,1.1110354E9,1E0,1.1110381E9,3.73E0,3.0000067E9,5.04E0,8.945668E0,2.74E0,1.1110874E9,3.8000392E9,2.0662006E9,1.99E0,4.1167094E9,3.1254743E10,2.0662006E9,7.218063E9,1.54E0,1.24E0,1.91E0,1.6000275E9,3.3E0,3.49E0,2.0632493E0,4.19E0,3E0,3.8000392E9,2.8400023E9,7.218063E9,3.7000315E9,7.218064E9,1.1110354E9,3.5000689E9,2.39E0,2E0,1.67E0,1.99E0,7.385293E0,4.348888E0,3.7000315E9,2.63E0,3.8000317E9,3.57E0,1.6000275E9,3.7000315E9,5.23E0,4.69E0,2.336621E0,1.6440998E0,2.625775E-1,-1.3446373E-2,1.5646626E0,2.3803031E0,2.2048395E0,8.380738E0,-7.3305346E-2,7.970813E-3,6.665368E-1,3.385403E-1,4.9650413E-1,1.0147154E0,3.460444E-1,1.5254317E-1,1.0232351E0,5.133145E-1,5.251916E-1,6.775343E-2,3.0982485E-1,1.3287672E-1,1.0880334E0,3.55794E0,1.0869879E0,3.9886788E-1,3.5918643E0,1.418411E0,6.7556787E0,1.4408162E0,1.7493479E0,3.4052582E0,3.0058154E-1,1.0961913E0,2.7852447E0,6.7139893E0,4.7544265E0,2.233085E0,1.654343E0,3.5668035E0,1.0117232E0,7.2589415E-1,4.0721875E-1,7.955657E-1,2.3164701E-1,-4.19231E-3,1.8178071E0,6.699905E0,9.2785865E-1,3.6420135E0,1.7501185E0,8.8589734E-1,1.1904249E0,6.299031E-1],"split_indices":[1,4,5,5,0,0,0,4,4,5,5,5,4,5,5,4,0,4,5,4,5,0,5,4,4,4,5,4,4,4,4,5,5,5,4,5,5,0,5,5,4,4,4,4,4,4,4,5,5,5,5,0,0,4,5,4,5,4,4,5,5,0,0,0,0,0,0,0,0,0,0,0,0,0,0,0,0,0,0,0,0,0,0,0,0,0,0,0,0,0,0,0,0,0,0,0,0,0,0,0,0,0,0,0,0,0,0,0,0,0,0,0,0,0,0],"split_type":[0,0,0,0,0,0,0,0,0,0,0,0,0,0,0,0,0,0,0,0,0,0,0,0,0,0,0,0,0,0,0,0,0,0,0,0,0,0,0,0,0,0,0,0,0,0,0,0,0,0,0,0,0,0,0,0,0,0,0,0,0,0,0,0,0,0,0,0,0,0,0,0,0,0,0,0,0,0,0,0,0,0,0,0,0,0,0,0,0,0,0,0,0,0,0,0,0,0,0,0,0,0,0,0,0,0,0,0,0,0,0,0,0,0,0],"sum_hessian":[6.102E3,5.329E3,7.73E2,1.536E3,3.793E3,3.48E2,4.25E2,1.025E3,5.11E2,3.674E3,1.19E2,2.65E2,8.3E1,2.58E2,1.67E2,4.71E2,5.54E2,3.69E2,1.42E2,2.244E3,1.43E3,6E0,1.13E2,2.19E2,4.6E1,5.3E1,3E1,1E2,1.58E2,3.9E1,1.28E2,1.71E2,3E2,5.3E2,2.4E1,5E1,3.19E2,3.4E1,1.08E2,4E2,1.844E3,7.35E2,6.95E2,4.8E1,6.5E1,2.05E2,1.4E1,2.9E1,1.7E1,2E1,3.3E1,1.4E1,1.6E1,2.7E1,7.3E1,1.45E2,1.3E1,1.6E1,2.3E1,8E1,4.8E1,1.19E2,5.2E1,7E1,2.3E2,1.95E2,3.35E2,9E0,1.5E1,3.8E1,1.2E1,6.1E1,2.58E2,3E0,1.05E2,3.37E2,6.3E1,4.93E2,1.351E3,6E0,7.29E2,4.16E2,2.79E2,2.5E1,2.3E1,4E1,2.5E1,1.91E2,1.4E1,9E0,5E0,2.4E1,5E0,3E0,1.4E1,1.1E1,9E0,1.2E1,2.1E1,2E1,7E0,5.2E1,2.1E1,6.1E1,8.4E1,5E0,8E0,7E0,9E0,8E0,1.5E1,5.7E1,2.3E1,2.1E1,2.7E1],"tree_param":{"num_deleted":"0","num_feature":"12","num_nodes":"115","size_leaf_vector":"0"}},{"base_weights":[1.715349E1,1.3070011E1,4.490556E1,2.359001E1,8.861344E0,6.080261E1,2.2049889E1,1.9507732E1,1.8682213E0,1.234842E1,6.850284E0,5.7132687E1,4.961814E0,2.045716E1,3.275523E0,2.0399203E0,1.568484E1,6.4967475E0,3.1231411E1,5.4452896E0,1.6860277E1,6.381501E1,6.888738E-1,1.4328357E0,1.6080307E1,2.812288E-1,2.3282925E1,8.699117E0,1.139414E0,1.7427906E0,2.313288E1,8.5596815E-2,6.30443E0,7.070965E-1,2.2520092E1,6.875639E1,4.4425354E1,7.638489E-2,-7.684612E-2,1.4866076E1,1.6528412E0,-7.6299064E-2,5.561316E-2,1.8908987E0,4.029296E-1,2.809484E-1,9.562314E-1,3.3595897E-2,1.08434476E-1,1.1053504E0,1.5809585E0,-2.795642E-3,4.8181508E-2,5.6333524E-1,2.569439E-1,9.798462E-1,1.9016465E0,3.0286639E0,6.9037375E0,1.0992626E0,2.7721145E0,1.2227327E-2,-1.0770904E-2,8.213932E-1,1.8952122E-2],"categories":[],"categories_nodes":[],"categories_segments":[],"categories_sizes":[],"default_left":[false,false,false,false,false,false,false,false,false,false,false,false,false,false,false,false,false,false,false,false,false,false,false,false,false,false,false,false,false,false,false,false,false,false,false,false,false,false,false,false,false,false,false,false,false,false,false,false,false,false,false,false,false,false,false,false,false,false,false,false,false,false,false,false,false],"id":5,"left_children":[1,3,5,7,9,11,13,15,-1,17,19,21,-1,23,-1,-1,25,27,29,31,33,35,37,-1,39,41,43,45,47,-1,49,51,53,-1,55,57,59,-1,61,63,-1,-1,-1,-1,-1,-1,-1,-1,-1,-1,-1,-1,-1,-1,-1,-1,-1,-1,-1,-1,-1,-1,-1,-1,-1],"loss_changes":[6.942086E5,2.3648606E5,2.8424275E5,8.513575E4,2.6704E4,5.9635875E4,2.108739E4,9.540259E4,0E0,1.5405105E5,3.401335E4,1.6025575E5,0E0,1.0808094E4,0E0,0E0,1.1726547E5,1.25794375E4,8.8799375E3,9.798332E3,4.2663594E3,3.3354E4,2.9663385E1,0E0,3.7755508E3,5.0031274E2,1.4817844E5,2.4169305E4,1.4867172E2,0E0,2.1510547E2,3.6707684E1,1.054957E4,0E0,3.5626016E3,1.6237562E5,1.8558781E4,0E0,1.1660799E0,4.4057812E3,0E0,0E0,0E0,0E0,0E0,0E0,0E0,0E0,0E0,0E0,0E0,0E0,0E0,0E0,0E0,0E0,0E0,0E0,0E0,0E0,0E0,0E0,0E0,0E0,0E0],"parents":[2147483647,0,0,1,1,2,2,3,3,4,4,5,5,6,6,7,7,9,9,10,10,11,11,13,13,16,16,17,17,18,18,19,19,20,20,21,21,22,22,24,24,25,25,26,26,27,27,28,28,30,30,31,31,32,32,34,34,35,35,36,36,38,38,39,39],"right_children":[2,4,6,8,10,12,14,16,-1,18,20,22,-1,24,-1,-1,26,28,30,32,34,36,38,-1,40,42,44,46,48,-1,50,52,54,-1,56,58,60,-1,62,64,-1,-1,-1,-1,-1,-1,-1,-1,-1,-1,-1,-1,-1,-1,-1,-1,-1,-1,-1,-1,-1,-1,-1,-1,-1],"split_conditions":[1E0,2.0662006E9,4.1167094E9,1.6000275E9,4.1167094E9,3.8000317E9,8.849121E10,1.1110354E9,1.8682213E0,3.8000317E9,8.8491205E10,3.5000689E9,4.961814E0,7.218063E9,3.275523E0,2.0399203E0,1.1110853E9,3.5000689E9,3.8000392E9,7.0273126E9,8.849121E10,2.0662006E9,3.7000315E9,1.4328357E0,8.8491205E10,1.1110381E9,1.1110874E9,3.0000067E9,3.700045E9,1.7427906E0,1E0,1E0,7.11041E9,7.070965E-1,1E0,1.6000275E9,3.0000064E9,7.638489E-2,3.700045E9,3.1254743E10,1.6528412E0,-7.6299064E-2,5.561316E-2,1.8908987E0,4.029296E-1,2.809484E-1,9.562314E-1,3.3595897E-2,1.08434476E-1,1.1053504E0,1.5809585E0,-2.795642E-3,4.8181508E-2,5.6333524E-1,2.569439E-1,9.798462E-1,1.9016465E0,3.0286639E0,6.9037375E0,1.0992626E0,2.7721145E0,1.2227327E-2,-1.0770904E-2,8.213932E-1,1.8952122E-2],"split_indices":[1,4,4,4,4,4,4,4,0,4,4,4,0,4,0,0,4,4,4,4,4,4,4,0,4,4,4,4,4,0,2,2,4,0,2,4,4,0,4,4,0,0,0,0,0,0,0,0,0,0,0,0,0,0,0,0,0,0,0,0,0,0,0,0,0],"split_type":[0,0,0,0,0,0,0,0,0,0,0,0,0,0,0,0,0,0,0,0,0,0,0,0,0,0,0,0,0,0,0,0,0,0,0,0,0,0,0,0,0,0,0,0,0,0,0,0,0,0,0,0,0,0,0,0,0,0,0,0,0,0,0,0,0],"sum_hessian":[6.13E3,5.345E3,7.85E2,1.526E3,3.819E3,4.62E2,3.23E2,1.179E3,3.47E2,1.395E3,2.424E3,4.24E2,3.8E1,3.13E2,1E1,1.78E2,1.001E3,1.066E3,3.29E2,2.127E3,2.97E2,3.79E2,4.5E1,1.07E2,2.06E2,3.31E2,6.7E2,7.55E2,3.11E2,2.25E2,1.04E2,2.94E2,1.833E3,2.03E2,9.4E1,3E2,7.9E1,2.1E1,2.4E1,1.94E2,1.2E1,1.04E2,2.27E2,3.42E2,3.28E2,5.84E2,1.71E2,2.15E2,9.6E1,9.6E1,8E0,2.54E2,4E1,3.47E2,1.486E3,8.1E1,1.3E1,2.7E2,3E1,2.7E1,5.2E1,7E0,1.7E1,1.75E2,1.9E1],"tree_param":{"num_deleted":"0","num_feature":"12","num_nodes":"65","size_leaf_vector":"0"}},{"base_weights":[1.6446077E1,1.2754009E1,4.1373623E1,1.7740377E1,4.796356E0,6.542891E1,2.135248E1,2.4424664E1,1.4663236E1,8.595265E0,4.2759533E0,6.01015E1,1.0732671E2,3.63637E1,1.7339725E1,2.1533934E1,6.840738E1,1.1686914E1,1.9777132E1,1.9708172E0,1.0191239E1,3.7796123E0,7.264438E0,6.601694E1,3.6425407E1,1.5928879E2,4.9998314E1,3.121134E1,5.1647425E0,1.4311655E1,2.9785723E1,1.8952776E1,4.3477795E1,8.7420166E1,3.6011135E1,3.4317627E0,1.2762941E1,3.5071518E1,1.59756775E1,1.2385074E-1,8.251635E-2,1.3625783E0,8.333809E0,7.3947424E-1,4.013605E0,2.4310291E1,4.3646154E0,6.2266033E1,5.1370816E0,2.2903658E1,2.0324602E0,1.1668803E1,6.309048E0,2.3691055E1,6.234137E1,2.1744364E1,4.621151E1,2.3348055E1,1.2458266E1,3.3650837E1,4.7942367E-1,1.7664655E0,7.51217E-1,1.7453717E0,2.7113008E0,3.2405403E0,8.346506E0,5.2734804E-1,4.005445E0,2.2196913E-1,3.6429323E-2,1.6680355E0,5.814041E-1,2.1317382E0,8.813034E-1,1.1170095E0,6.9408125E-1,2.0062473E-1,6.2118125E-1,1.0342143E-2,3.812152E-2,2.3982623E-1,1.623319E-1,1.3150533E0,3.1545624E-1,3.5257804E-1,7.564308E-2,3.722435E0,2.6967275E0,1.6301485E0,6.88373E-1,1.5343746E0,6.6778475E-1,1.7190895E0,3.5473828E0,8.088078E-1,1.2993373E0,3.6774921E0,1.1817645E0,8.840081E-1,1.9887486E0,4.1687366E-1,8.7691575E-1,1.7983099E0,7.776151E-1],"categories":[],"categories_nodes":[],"categories_segments":[],"categories_sizes":[],"default_left":[false,false,false,false,false,false,false,false,false,false,false,false,false,false,false,false,false,false,false,false,false,false,false,false,false,false,false,false,false,false,false,false,false,false,false,false,false,false,false,false,false,false,false,false,false,false,false,false,false,false,false,false,false,false,false,false,false,false,false,false,false,false,false,false,false,false,false,false,false,false,false,false,false,false,false,false,false,false,false,false,false,false,false,false,false,false,false,false,false,false,false,false,false,false,false,false,false,false,false,false,false,false,false,false,false],"id":6,"left_children":[1,3,5,7,9,11,13,15,17,19,21,23,25,27,29,31,33,35,37,39,41,43,45,47,49,51,53,55,-1,57,59,61,63,65,67,69,71,73,75,-1,-1,-1,77,79,81,83,85,87,-1,89,-1,-1,-1,91,93,95,97,99,101,103,-1,-1,-1,-1,-1,-1,-1,-1,-1,-1,-1,-1,-1,-1,-1,-1,-1,-1,-1,-1,-1,-1,-1,-1,-1,-1,-1,-1,-1,-1,-1,-1,-1,-1,-1,-1,-1,-1,-1,-1,-1,-1,-1,-1,-1],"loss_changes":[5.612491E5,2.1093194E5,3.7763338E5,6.688019E4,4.0160273E3,7.3234375E4,2.5331328E4,1.2935619E5,3.387825E4,2.5807363E3,2.6499102E3,4.227275E4,1.0821306E5,2.7812828E4,1.2462789E4,5.3947375E4,3.565628E4,1.2560844E4,4.7289688E4,3.8614502E0,6.0471875E3,1.0996562E3,1.2547962E4,2.859125E4,2.838461E3,1.9609719E4,5.0173086E3,1.10656875E4,0E0,4.3483086E3,4.8296094E3,5.5246938E4,7.4108438E3,5.929022E4,2.7227918E4,4.46188E2,2.8948422E4,2.0755406E4,8.499422E3,0E0,0E0,0E0,3.1313594E3,1.2117424E0,8.485078E2,1.1600059E3,1.675084E3,1.9634125E4,0E0,1.146207E3,0E0,0E0,0E0,1.6863281E2,6.888594E2,8.5524805E2,1.8011914E4,3.5796484E3,4.710426E3,1.7453984E3,0E0,0E0,0E0,0E0,0E0,0E0,0E0,0E0,0E0,0E0,0E0,0E0,0E0,0E0,0E0,0E0,0E0,0E0,0E0,0E0,0E0,0E0,0E0,0E0,0E0,0E0,0E0,0E0,0E0,0E0,0E0,0E0,0E0,0E0,0E0,0E0,0E0,0E0,0E0,0E0,0E0,0E0,0E0,0E0,0E0],"parents":[2147483647,0,0,1,1,2,2,3,3,4,4,5,5,6,6,7,7,8,8,9,9,10,10,11,11,12,12,13,13,14,14,15,15,16,16,17,17,18,18,19,19,20,20,21,21,22,22,23,23,24,24,25,25,26,26,27,27,29,29,30,30,31,31,32,32,33,33,34,34,35,35,36,36,37,37,38,38,42,42,43,43,44,44,45,45,46,46,47,47,49,49,53,53,54,54,55,55,56,56,57,57,58,58,59,59],"right_children":[2,4,6,8,10,12,14,16,18,20,22,24,26,28,30,32,34,36,38,40,42,44,46,48,50,52,54,56,-1,58,60,62,64,66,68,70,72,74,76,-1,-1,-1,78,80,82,84,86,88,-1,90,-1,-1,-1,92,94,96,98,100,102,104,-1,-1,-1,-1,-1,-1,-1,-1,-1,-1,-1,-1,-1,-1,-1,-1,-1,-1,-1,-1,-1,-1,-1,-1,-1,-1,-1,-1,-1,-1,-1,-1,-1,-1,-1,-1,-1,-1,-1,-1,-1,-1,-1,-1,-1],"split_conditions":[1E0,3.46E0,2.49E0,2E0,3.99E0,3.02E0,2.58E0,2.6E0,3.02E0,3.5E0,6.99E0,1.99E0,3.38E0,3.84E0,6.99E0,1.95E0,3.23E0,2.26E0,2.99E0,3.49E0,3.58E0,4E0,5.64E0,2.5E0,2.5E0,1.82E0,3.57E0,3.02E0,5.1647425E0,2.99E0,7.49E0,1.55E0,2.33E0,3.12E0,1.98E0,2.18E0,2.39E0,3.46E0,3.17E0,1.2385074E-1,8.251635E-2,1.3625783E0,3.86E0,3.57E0,4.83E0,7.49E0,7.09E0,1.49E0,5.1370816E0,2.12E0,2.0324602E0,1.1668803E1,6.309048E0,2.18E0,1.94E0,2.5E0,3.28E0,4E0,5.64E0,5.04E0,4.7942367E-1,1.7664655E0,7.51217E-1,1.7453717E0,2.7113008E0,3.2405403E0,8.346506E0,5.2734804E-1,4.005445E0,2.2196913E-1,3.6429323E-2,1.6680355E0,5.814041E-1,2.1317382E0,8.813034E-1,1.1170095E0,6.9408125E-1,2.0062473E-1,6.2118125E-1,1.0342143E-2,3.812152E-2,2.3982623E-1,1.623319E-1,1.3150533E0,3.1545624E-1,3.5257804E-1,7.564308E-2,3.722435E0,2.6967275E0,1.6301485E0,6.88373E-1,1.5343746E0,6.6778475E-1,1.7190895E0,3.5473828E0,8.088078E-1,1.2993373E0,3.6774921E0,1.1817645E0,8.840081E-1,1.9887486E0,4.1687366E-1,8.7691575E-1,1.7983099E0,7.776151E-1],"split_indices":[1,5,5,5,6,6,5,6,6,5,6,5,6,6,6,5,6,6,5,5,6,6,5,6,6,5,6,6,0,5,6,6,6,6,5,5,6,6,6,0,0,0,5,5,5,6,6,6,0,5,0,0,0,5,5,5,6,6,6,5,0,0,0,0,0,0,0,0,0,0,0,0,0,0,0,0,0,0,0,0,0,0,0,0,0,0,0,0,0,0,0,0,0,0,0,0,0,0,0,0,0,0,0,0,0],"split_type":[0,0,0,0,0,0,0,0,0,0,0,0,0,0,0,0,0,0,0,0,0,0,0,0,0,0,0,0,0,0,0,0,0,0,0,0,0,0,0,0,0,0,0,0,0,0,0,0,0,0,0,0,0,0,0,0,0,0,0,0,0,0,0,0,0,0,0,0,0,0,0,0,0,0,0,0,0,0,0,0,0,0,0,0,0,0,0,0,0,0,0,0,0,0,0,0,0,0,0,0,0,0,0,0,0],"sum_hessian":[6.103E3,5.317E3,7.86E2,3.268E3,2.049E3,3.56E2,4.3E2,1.028E3,2.24E3,2.45E2,1.804E3,3.18E2,3.8E1,8.9E1,3.41E2,9.66E2,6.2E1,1.418E3,8.22E2,4.8E1,1.97E2,1.549E3,2.55E2,2.53E2,6.5E1,1.9E1,1.9E1,8.4E1,5E0,2.76E2,6.5E1,8.66E2,1E2,3.8E1,2.4E1,1.64E2,1.254E3,1.62E2,6.6E2,1.6E1,3.2E1,1.8E1,1.79E2,1.11E2,1.438E3,3.6E1,2.19E2,2.32E2,2.1E1,1.7E1,4.8E1,4E0,1.5E1,7E0,1.2E1,5.3E1,3.1E1,4.5E1,2.31E2,5.4E1,1.1E1,1.66E2,7E2,5.8E1,4.2E1,3.1E1,7E0,1.6E1,8E0,1.19E2,4.5E1,6.4E1,1.19E3,1.12E2,5E1,1.61E2,4.99E2,8.8E1,9.1E1,5E0,1.06E2,7.09E2,7.29E2,3.2E1,4E0,1.12E2,1.07E2,9.1E1,1.41E2,7E0,1E1,3E0,4E0,4E0,8E0,2.5E1,2.8E1,1.3E1,1.8E1,3.5E1,1E1,1.29E2,1.02E2,4.7E1,7E0],"tree_param":{"num_deleted":"0","num_feature":"12","num_nodes":"105","size_leaf_vector":"0"}},{"base_weights":[1.5574285E1,1.1890409E1,2.0168264E0,5.636839E-1,7.3266834E-1],"categories":[],"categories_nodes":[],"categories_segments":[],"categories_sizes":[],"default_left":[false,false,false,false,false],"id":7,"left_children":[1,3,-1,-1,-1],"loss_changes":[5.548739E5,8.86775E3,0E0,0E0,0E0],"parents":[2147483647,0,0,1,1],"right_children":[2,4,-1,-1,-1],"split_conditions":[1E0,1E0,2.0168264E0,5.636839E-1,7.3266834E-1],"split_indices":[1,2,0,0,0],"split_type":[0,0,0,0,0],"sum_hessian":[6.087E3,5.3E3,7.87E2,4.337E3,9.63E2],"tree_param":{"num_deleted":"0","num_feature":"12","num_nodes":"5","size_leaf_vector":"0"}},{"base_weights":[1.4978023E1,4.9694195E1,1.2734858E1,6.027461E1,4.2701866E1,1.767175E1,6.295405E0,3.229194E0,5.316523E1,4.4414745E1,6.856915E-1,2.3262766E1,9.334102E0,1.30348425E1,4.6344995E0,1.8075494E0,2.792253E0,1.7869333E0,5.1422062E1,-1.1354806E0,2.8164364E1,4.957793E0,1.6507923E1,7.8934455E0,2.717229E1,2.5403135E0,8.271307E0,3.5554001E0,4.1551147E1,-3.0802402E-1,-7.490222E-1,4.1360214E1,1.9419775E1,9.468599E0,1.5859015E0,1.7393378E0,1.458565E1,6.507465E0,1.1383163E1,3.0942007E1,7.576987E-1,9.3197365E0,1.0137955E0,1.11779785E1,4.589714E0,2.243641E0,1.7314999E0,1.1252328E-2,-1.5413745E-1,1.3096058E0,2.435349E0,3.3908585E-1,1.4981291E0,5.5043715E-1,3.3857843E-1,-2.8890554E-2,3.479428E-1,6.2696004E-1,8.5896444E-1,4.526003E-1,1.9266514E-1,8.130069E-1,4.026564E-1,1.4200311E0,3.2588239E0,1.7944913E-2,9.4587153E-1,3.1160977E-1,1.6663332E-2,1.1471225E-1,6.283719E-1,2.47034E-1,1.2667519E-1],"categories":[],"categories_nodes":[],"categories_segments":[],"categories_sizes":[],"default_left":[false,false,false,false,false,false,false,false,false,false,false,false,false,false,false,false,false,false,false,false,false,false,false,false,false,false,false,false,false,false,false,false,false,false,false,false,false,false,false,false,false,false,false,false,false,false,false,false,false,false,false,false,false,false,false,false,false,false,false,false,false,false,false,false,false,false,false,false,false,false,false,false,false],"id":8,"left_children":[1,3,5,7,9,11,13,-1,15,17,-1,19,21,23,25,-1,-1,-1,27,29,31,33,35,37,39,41,43,-1,45,-1,47,49,51,53,55,-1,57,59,61,63,-1,65,67,69,71,-1,-1,-1,-1,-1,-1,-1,-1,-1,-1,-1,-1,-1,-1,-1,-1,-1,-1,-1,-1,-1,-1,-1,-1,-1,-1,-1,-1],"loss_changes":[4.7198512E5,2.4651438E4,1.8116038E5,9.78E2,1.0562844E4,1.5021256E5,2.7654875E4,0E0,7.168594E2,1.1051E4,0E0,2.30961E5,4.063729E4,3.5329086E4,1.5119902E4,0E0,0E0,0E0,1.9391969E4,6.245786E2,1.8474762E5,1.2259414E4,1.6744844E4,1.6671309E3,5.4208438E3,1.3061227E4,7.71775E3,0E0,2.6225E2,0E0,6.872033E2,7.0043625E4,1.2890694E5,1.3585176E3,5.3866416E3,0E0,2.1518438E3,1.7210625E3,1.5093457E3,6.6752344E3,0E0,1.9945996E4,3.6628354E3,4.970324E3,2.1985693E2,0E0,0E0,0E0,0E0,0E0,0E0,0E0,0E0,0E0,0E0,0E0,0E0,0E0,0E0,0E0,0E0,0E0,0E0,0E0,0E0,0E0,0E0,0E0,0E0,0E0,0E0,0E0,0E0],"parents":[2147483647,0,0,1,1,2,2,3,3,4,4,5,5,6,6,8,8,9,9,11,11,12,12,13,13,14,14,18,18,19,19,20,20,21,21,22,22,23,23,24,24,25,25,26,26,28,28,30,30,31,31,32,32,33,33,34,34,36,36,37,37,38,38,39,39,41,41,42,42,43,43,44,44],"right_children":[2,4,6,8,10,12,14,-1,16,18,-1,20,22,24,26,-1,-1,-1,28,30,32,34,36,38,40,42,44,-1,46,-1,48,50,52,54,56,-1,58,60,62,64,-1,66,68,70,72,-1,-1,-1,-1,-1,-1,-1,-1,-1,-1,-1,-1,-1,-1,-1,-1,-1,-1,-1,-1,-1,-1,-1,-1,-1,-1,-1,-1],"split_conditions":[1.1110354E9,1.49E0,3.46E0,1.47E0,1.63E0,4.1167094E9,2.0662006E9,3.229194E0,1.48E0,1.53E0,6.856915E-1,1.1110853E9,7.797508E9,1.6000275E9,6.04E0,1.8075494E0,2.792253E0,1.7869333E0,1.54E0,1.55E0,2.0662006E9,7.11041E9,2.64E0,4.77E0,4.69E0,3.91E0,7.218063E9,3.5554001E0,1.55E0,-3.0802402E-1,2.95E0,1.96E0,3.0000067E9,2.19E0,7.1921004E9,1.7393378E0,3.1254743E10,4E0,4.81E0,4.66E0,7.576987E-1,3.700045E9,3.0000067E9,3.7000195E9,7.19E0,2.243641E0,1.7314999E0,1.1252328E-2,-1.5413745E-1,1.3096058E0,2.435349E0,3.3908585E-1,1.4981291E0,5.5043715E-1,3.3857843E-1,-2.8890554E-2,3.479428E-1,6.2696004E-1,8.5896444E-1,4.526003E-1,1.9266514E-1,8.130069E-1,4.026564E-1,1.4200311E0,3.2588239E0,1.7944913E-2,9.4587153E-1,3.1160977E-1,1.6663332E-2,1.1471225E-1,6.283719E-1,2.47034E-1,1.2667519E-1],"split_indices":[4,6,6,6,6,4,4,0,6,6,0,4,4,4,6,0,0,0,6,6,4,4,6,6,6,6,4,0,6,0,6,6,4,6,4,0,4,6,6,6,0,4,4,4,6,0,0,0,0,0,0,0,0,0,0,0,0,0,0,0,0,0,0,0,0,0,0,0,0,0,0,0,0],"split_type":[0,0,0,0,0,0,0,0,0,0,0,0,0,0,0,0,0,0,0,0,0,0,0,0,0,0,0,0,0,0,0,0,0,0,0,0,0,0,0,0,0,0,0,0,0,0,0,0,0,0,0,0,0,0,0,0,0,0,0,0,0,0,0,0,0,0,0,0,0,0,0,0,0],"sum_hessian":[6.068E3,3.67E2,5.701E3,1.43E2,2.24E2,3.226E3,2.475E3,8.4E1,5.9E1,2.11E2,1.3E1,1.93E3,1.296E3,4.88E2,1.987E3,1E1,4.9E1,9.7E1,1.14E2,3.23E2,1.607E3,8.06E2,4.9E2,3.59E2,1.29E2,1.262E3,7.25E2,3.6E1,7.8E1,2.2E1,3.01E2,6.39E2,9.68E2,3.44E2,4.62E2,4.5E1,4.45E2,2.59E2,1E2,9.7E1,3.2E1,2.31E2,1.031E3,4.04E2,3.21E2,4.9E1,2.9E1,2.13E2,8.8E1,2.1E2,4.29E2,4.41E2,5.27E2,2.17E2,1.27E2,3.3E2,1.32E2,2.52E2,1.93E2,1.31E2,1.28E2,3.9E1,6.1E1,9.2E1,5E0,1.2E2,1.11E2,1.18E2,9.13E2,5.5E1,3.49E2,2.73E2,4.8E1],"tree_param":{"num_deleted":"0","num_feature":"12","num_nodes":"73","size_leaf_vector":"0"}},{"base_weights":[1.4238388E1,1.06498375E1,3.856043E1,9.6608E0,4.1793842E1,6.131593E1,1.9330194E1,1.3629982E1,3.3116357E0,6.149339E1,1.8737303E1,5.351753E1,8.250603E1,1.2703073E1,2.93131E1,1.9408178E1,1.1010009E1,5.8891E0,2.8654542E0,3.7460235E-1,6.679987E1,1.9996208E1,3.5018843E-1,5.830385E1,2.9358952E1,5.303507E0,5.9176933E1,2.1314146E1,7.1532526E0,6.170849E1,2.0457197E1,1.6732834E1,3.7336033E1,1.4078586E-1,1.1653526E1,3.533567E0,1.0540074E1,1.838191E-2,3.13011E0,9.87737E1,2.5235217E0,1.3798366E1,2.4409975E1,6.0026684E1,4.5808193E1,2.4509342E1,2.2183306E0,4.4409904E1,4.2614994E0,1.985692E1,1.9022944E0,6.16067E-1,6.233404E0,5.23274E1,3.805502E0,2.206665E1,1.2094036E1,9.571328E-2,9.017603E-1,1.6784772E0,2.2000372E0,8.832409E-1,5.5600506E-1,5.3974148E-2,2.2785854E-1,6.814074E-1,3.7731183E-1,1.660205E-1,1.6620904E-2,5.8897243E0,3.8486073E0,9.291339E-1,5.317616E-1,1.4267062E0,8.349064E-1,2.8883839E0,6.002567E0,1.3125052E0,3.0185366E0,1.4816318E0,6.9879436E-1,2.7517402E0,1.1506584E0,1.113903E0,6.4670616E-1,1.9550233E-1,4.1690373E-1,3.543842E0,1.9714514E0,1.2185038E0,9.6181864E-1,4.977831E-1,8.42494E-1],"categories":[],"categories_nodes":[],"categories_segments":[],"categories_sizes":[],"default_left":[false,false,false,false,false,false,false,false,false,false,false,false,false,false,false,false,false,false,false,false,false,false,false,false,false,false,false,false,false,false,false,false,false,false,false,false,false,false,false,false,false,false,false,false,false,false,false,false,false,false,false,false,false,false,false,false,false,false,false,false,false,false,false,false,false,false,false,false,false,false,false,false,false,false,false,false,false,false,false,false,false,false,false,false,false,false,false,false,false,false,false,false,false],"id":9,"left_children":[1,3,5,7,9,11,13,15,17,19,21,23,25,27,29,31,33,35,37,-1,39,41,-1,43,45,-1,47,49,51,53,55,57,59,-1,61,63,65,-1,67,69,-1,71,73,75,77,79,-1,81,-1,83,-1,-1,85,87,-1,89,91,-1,-1,-1,-1,-1,-1,-1,-1,-1,-1,-1,-1,-1,-1,-1,-1,-1,-1,-1,-1,-1,-1,-1,-1,-1,-1,-1,-1,-1,-1,-1,-1,-1,-1,-1,-1],"loss_changes":[5.340976E5,1.6402044E5,3.4320088E5,1.3036994E5,7.3337125E4,5.5074125E4,2.7943234E4,4.7988E4,2.273959E3,2.4716562E4,9.973496E2,2.9046E4,4.5947375E4,1.2225121E4,4.7509E4,4.695478E4,1.153125E4,3.1727246E3,1.1226543E3,0E0,3.678403E4,1.5507344E3,0E0,2.008E3,2.260543E3,0E0,1.545125E4,1.7070977E3,6.790596E2,8.8103125E2,1.5502422E3,1.6659344E4,1.7360469E3,0E0,6.3225312E3,4.8743457E2,8.031875E2,0E0,8.171953E2,1.7148594E3,0E0,2.7150488E2,7.639219E2,1.896375E4,7.244543E3,1.5825996E3,0E0,6.4629766E3,0E0,1.3041562E3,0E0,0E0,6.3731445E2,3.186836E3,0E0,2.613711E2,7.6322754E1,0E0,0E0,0E0,0E0,0E0,0E0,0E0,0E0,0E0,0E0,0E0,0E0,0E0,0E0,0E0,0E0,0E0,0E0,0E0,0E0,0E0,0E0,0E0,0E0,0E0,0E0,0E0,0E0,0E0,0E0,0E0,0E0,0E0,0E0,0E0,0E0],"parents":[2147483647,0,0,1,1,2,2,3,3,4,4,5,5,6,6,7,7,8,8,9,9,10,10,11,11,12,12,13,13,14,14,15,15,16,16,17,17,18,18,20,20,21,21,23,23,24,24,26,26,27,27,28,28,29,29,30,30,31,31,32,32,34,34,35,35,36,36,38,38,39,39,41,41,42,42,43,43,44,44,45,45,47,47,49,49,52,52,53,53,55,55,56,56],"right_children":[2,4,6,8,10,12,14,16,18,20,22,24,26,28,30,32,34,36,38,-1,40,42,-1,44,46,-1,48,50,52,54,56,58,60,-1,62,64,66,-1,68,70,-1,72,74,76,78,80,-1,82,-1,84,-1,-1,86,88,-1,90,92,-1,-1,-1,-1,-1,-1,-1,-1,-1,-1,-1,-1,-1,-1,-1,-1,-1,-1,-1,-1,-1,-1,-1,-1,-1,-1,-1,-1,-1,-1,-1,-1,-1,-1,-1,-1],"split_conditions":[1E0,1E0,2.49E0,3.46E0,2.99E0,1E0,1E0,2E0,3.99E0,1.1E0,5.23E0,1.99E0,1.99E0,2.97E0,3.04E0,1.94E0,2.06E0,3.86E0,4E0,3.7460235E-1,1.99E0,4.04E0,3.5018843E-1,1.64E0,2.39E0,5.303507E0,2.32E0,2.87E0,3.17E0,2.53E0,5.23E0,1.24E0,1.98E0,1.4078586E-1,2.39E0,3.5E0,3.91E0,1.838191E-2,7.09E0,1.87E0,2.5235217E0,3.3E0,4.89E0,1.63E0,1.87E0,2.27E0,2.2183306E0,2.12E0,4.2614994E0,2.58E0,1.9022944E0,6.16067E-1,4.47E0,2.5E0,3.805502E0,4.77E0,5.79E0,9.571328E-2,9.017603E-1,1.6784772E0,2.2000372E0,8.832409E-1,5.5600506E-1,5.3974148E-2,2.2785854E-1,6.814074E-1,3.7731183E-1,1.660205E-1,1.6620904E-2,5.8897243E0,3.8486073E0,9.291339E-1,5.317616E-1,1.4267062E0,8.349064E-1,2.8883839E0,6.002567E0,1.3125052E0,3.0185366E0,1.4816318E0,6.9879436E-1,2.7517402E0,1.1506584E0,1.113903E0,6.4670616E-1,1.9550233E-1,4.1690373E-1,3.543842E0,1.9714514E0,1.2185038E0,9.6181864E-1,4.977831E-1,8.42494E-1],"split_indices":[1,0,5,5,5,0,0,5,5,5,5,5,5,5,5,5,5,5,5,0,5,5,0,5,5,0,5,5,5,5,5,5,5,0,5,5,5,0,5,5,0,5,5,5,5,5,0,5,0,5,0,0,5,5,0,5,5,0,0,0,0,0,0,0,0,0,0,0,0,0,0,0,0,0,0,0,0,0,0,0,0,0,0,0,0,0,0,0,0,0,0,0,0],"split_type":[0,0,0,0,0,0,0,0,0,0,0,0,0,0,0,0,0,0,0,0,0,0,0,0,0,0,0,0,0,0,0,0,0,0,0,0,0,0,0,0,0,0,0,0,0,0,0,0,0,0,0,0,0,0,0,0,0,0,0,0,0,0,0,0,0,0,0,0,0,0,0,0,0,0,0,0,0,0,0,0,0,0,0,0,0,0,0,0,0,0,0,0,0],"sum_hessian":[6.123E3,5.337E3,7.86E2,5.174E3,1.63E2,3.59E2,4.27E2,3.183E3,1.991E3,8.7E1,7.6E1,2.65E2,9.4E1,2.58E2,1.69E2,9.91E2,2.192E3,2.92E2,1.699E3,8E0,7.9E1,6.8E1,8E0,2.2E2,4.5E1,4.5E1,4.9E1,1E2,1.58E2,3.5E1,1.34E2,8.64E2,1.27E2,1.6E2,2.032E3,1.95E2,9.7E1,1.63E2,1.536E3,2.5E1,5.4E1,3E1,3.8E1,1.9E2,3E1,3.6E1,9E0,3.3E1,1.6E1,9.4E1,6E0,2.2E1,1.36E2,2.4E1,1.1E1,1.11E2,2.3E1,7E1,7.94E2,8.5E1,4.2E1,1.63E2,1.869E3,5.8E1,1.37E2,4.6E1,5.1E1,1.438E3,9.8E1,1.1E1,1.4E1,1E1,2E1,2.3E1,1.5E1,1.85E2,5E0,1.4E1,1.6E1,2.3E1,1.3E1,2.1E1,1.2E1,6.8E1,2.6E1,6.6E1,7E1,8E0,1.6E1,5.7E1,5.4E1,1.8E1,5E0],"tree_param":{"num_deleted":"0","num_feature":"12","num_nodes":"93","size_leaf_vector":"0"}},{"base_weights":[1.3496749E1,2.6534702E1,8.117579E0,1.8810734E1,5.6800777E1,1.2351106E1,4.286066E0,3.4601727E0,1.9641314E1,6.0909485E1,4.482456E1,1.1340631E1,2.1735132E1,3.4298153E0,1.1703226E1,3.9140692E-1,2.7349446E0,2.2389248E1,1.3342144E1,5.425778E1,7.569649E1,3.7498756E1,3.4601238E0,5.5370526E0,1.2345478E1,2.8767239E1,1.5608682E1,6.2627788E0,2.9583955E0,2.634216E0,1.3559546E1,2.149999E0,2.5696442E-1,1.930548E1,4.1856804E1,6.879862E0,2.4423689E1,3.300289E0,5.12157E1,5.5516505E0,6.512747E1,4.0476067E1,1.356924E0,3.1392822E0,1.0859841E1,1.6845587E1,1.0882874E1,2.4275454E1,2.3445873E0,1.9310764E1,1.0199118E1,4.54236E0,1.0205104E1,1.2154602E0,3.4172456E0,1.0808974E-1,5.5535154E0,1.5510212E1,7.9344544E0,5.9981413E-2,1.1964855E-1,1.5179223E0,8.503472E-1,2.2101274E0,1.5992136E0,2.268182E-1,5.3037655E-1,1.7179607E0,8.1524104E-1,1.7679287E0,2.6534035E0,1.6649498E0,3.7095654E0,1.8603925E0,3.1027324E0,1.0799283E-1,2.4807651E-1,6.661739E-1,4.5994002E-1,6.5946275E-1,1.1035705E0,3.87938E-1,6.697038E-1,2.0603194E0,1.1370614E0,6.0865057E-1,1.2336584E0,3.8344285E-1,8.77639E-1,6.344141E-2,2.830633E-1,7.1036357E-1,3.550735E-1,2.5161609E-2,9.237922E-2,2.7203557E-1,1.2914366E-1,2.8752726E-1,-6.912279E-2,3.929613E-1,-1.237159E-1,8.4563905E-1,7.0065236E-1,2.3299375E-1,4.6959123E-1],"categories":[],"categories_nodes":[],"categories_segments":[],"categories_sizes":[],"default_left":[false,false,false,false,false,false,false,false,false,false,false,false,false,false,false,false,false,false,false,false,false,false,false,false,false,false,false,false,false,false,false,false,false,false,false,false,false,false,false,false,false,false,false,false,false,false,false,false,false,false,false,false,false,false,false,false,false,false,false,false,false,false,false,false,false,false,false,false,false,false,false,false,false,false,false,false,false,false,false,false,false,false,false,false,false,false,false,false,false,false,false,false,false,false,false,false,false,false,false,false,false,false,false,false,false],"id":10,"left_children":[1,3,5,7,9,11,13,15,17,19,21,23,25,27,29,-1,31,33,35,37,39,41,-1,43,45,47,49,51,53,55,57,59,-1,61,63,65,67,-1,69,-1,71,73,-1,75,77,79,81,83,-1,85,87,89,91,93,95,97,99,101,103,-1,-1,-1,-1,-1,-1,-1,-1,-1,-1,-1,-1,-1,-1,-1,-1,-1,-1,-1,-1,-1,-1,-1,-1,-1,-1,-1,-1,-1,-1,-1,-1,-1,-1,-1,-1,-1,-1,-1,-1,-1,-1,-1,-1,-1,-1],"loss_changes":[4.268265E5,4.1458212E5,6.989122E4,1.8011375E4,1.50335E4,1.9173312E4,1.4344758E4,2.1300555E2,2.2982844E4,2.2056375E4,1.4549406E4,1.0726125E4,8.0811875E3,2.6952383E3,3.903668E3,0E0,8.036719E1,5.532322E4,2.9264531E4,3.3025E3,2.26465E4,1.2458203E3,0E0,3.4756846E3,1.0196297E4,6.270117E3,1.9659258E3,1.9137725E3,1.3906025E3,3.0175507E2,2.0056367E3,9.598633E0,0E0,2.0036844E4,1.5273281E3,2.231919E3,1.1620227E4,0E0,2.6176875E3,0E0,1.5992719E4,1.7109219E3,0E0,3.3017224E2,2.2527734E2,7.0652266E3,9.2555E3,1.0111094E3,0E0,2.1110117E3,7.2129785E2,7.3636035E2,9.7975684E2,1.6339929E2,2.315835E3,2.0138762E2,3.7113348E2,6.3285156E1,2.0439355E2,0E0,0E0,0E0,0E0,0E0,0E0,0E0,0E0,0E0,0E0,0E0,0E0,0E0,0E0,0E0,0E0,0E0,0E0,0E0,0E0,0E0,0E0,0E0,0E0,0E0,0E0,0E0,0E0,0E0,0E0,0E0,0E0,0E0,0E0,0E0,0E0,0E0,0E0,0E0,0E0,0E0,0E0,0E0,0E0,0E0,0E0],"parents":[2147483647,0,0,1,1,2,2,3,3,4,4,5,5,6,6,7,7,8,8,9,9,10,10,11,11,12,12,13,13,14,14,16,16,17,17,18,18,19,19,20,20,21,21,23,23,24,24,25,25,26,26,27,27,28,28,29,29,30,30,31,31,33,33,34,34,35,35,36,36,38,38,40,40,41,41,43,43,44,44,45,45,46,46,47,47,49,49,50,50,51,51,52,52,53,53,54,54,55,55,56,56,57,57,58,58],"right_children":[2,4,6,8,10,12,14,16,18,20,22,24,26,28,30,-1,32,34,36,38,40,42,-1,44,46,48,50,52,54,56,58,60,-1,62,64,66,68,-1,70,-1,72,74,-1,76,78,80,82,84,-1,86,88,90,92,94,96,98,100,102,104,-1,-1,-1,-1,-1,-1,-1,-1,-1,-1,-1,-1,-1,-1,-1,-1,-1,-1,-1,-1,-1,-1,-1,-1,-1,-1,-1,-1,-1,-1,-1,-1,-1,-1,-1,-1,-1,-1,-1,-1,-1,-1,-1,-1,-1,-1],"split_conditions":[2.48E0,1E0,3.46E0,1.24E0,1.99E0,1E0,1E0,1E0,2E0,1.62E0,2.32E0,2.51E0,2.58E0,3.99E0,4.24E0,3.9140692E-1,1.1E0,1.95E0,2.27E0,1.39E0,1.64E0,2.29E0,3.4601238E0,1E0,2.89E0,2.51E0,3.17E0,3.89E0,4.4E0,3.89E0,5.23E0,9.9E-1,2.5696442E-1,1.5E0,1.99E0,2.06E0,2.39E0,3.300289E0,1.48E0,5.5516505E0,1.69E0,2.21E0,1.356924E0,2.5E0,2.5E0,2.66E0,3E0,2.49E0,2.3445873E0,2.79E0,3.3E0,3.5E0,3.91E0,4E0,4.83E0,3.49E0,4.19E0,4.89E0,5.64E0,5.9981413E-2,1.1964855E-1,1.5179223E0,8.503472E-1,2.2101274E0,1.5992136E0,2.268182E-1,5.3037655E-1,1.7179607E0,8.1524104E-1,1.7679287E0,2.6534035E0,1.6649498E0,3.7095654E0,1.8603925E0,3.1027324E0,1.0799283E-1,2.4807651E-1,6.661739E-1,4.5994002E-1,6.5946275E-1,1.1035705E0,3.87938E-1,6.697038E-1,2.0603194E0,1.1370614E0,6.0865057E-1,1.2336584E0,3.8344285E-1,8.77639E-1,6.344141E-2,2.830633E-1,7.1036357E-1,3.550735E-1,2.5161609E-2,9.237922E-2,2.7203557E-1,1.2914366E-1,2.8752726E-1,-6.912279E-2,3.929613E-1,-1.237159E-1,8.4563905E-1,7.0065236E-1,2.3299375E-1,4.6959123E-1],"split_indices":[5,1,5,5,5,1,1,2,5,5,5,5,5,5,5,0,5,5,5,5,5,5,0,2,5,5,5,5,5,5,5,5,0,5,5,5,5,0,5,0,5,5,0,5,5,5,5,5,0,5,5,5,5,5,5,5,5,5,5,0,0,0,0,0,0,0,0,0,0,0,0,0,0,0,0,0,0,0,0,0,0,0,0,0,0,0,0,0,0,0,0,0,0,0,0,0,0,0,0,0,0,0,0,0,0],"split_type":[0,0,0,0,0,0,0,0,0,0,0,0,0,0,0,0,0,0,0,0,0,0,0,0,0,0,0,0,0,0,0,0,0,0,0,0,0,0,0,0,0,0,0,0,0,0,0,0,0,0,0,0,0,0,0,0,0,0,0,0,0,0,0,0,0,0,0,0,0,0,0,0,0,0,0,0,0,0,0,0,0,0,0,0,0,0,0,0,0,0,0,0,0,0,0,0,0,0,0,0,0,0,0,0,0],"sum_hessian":[6.088E3,1.777E3,4.311E3,1.417E3,3.6E2,2.047E3,2.264E3,7.3E1,1.344E3,2.65E2,9.5E1,1.85E3,1.97E2,2.031E3,2.33E2,9E0,6.4E1,9.34E2,4.1E2,1.86E2,7.9E1,7.5E1,2E1,2.74E2,1.576E3,9E1,1.07E2,2.88E2,1.743E3,4E1,1.93E2,5.3E1,1.1E1,8.08E2,1.26E2,2.6E2,1.5E2,3.4E1,1.52E2,1.6E1,6.3E1,5.6E1,1.9E1,1.9E2,8.4E1,3.84E2,1.192E3,7.4E1,1.6E1,6.2E1,4.5E1,2.02E2,8.6E1,3.64E2,1.379E3,2.2E1,1.8E1,1.42E2,5.1E1,1.2E1,4.1E1,1.37E2,6.71E2,9.9E1,2.7E1,1.61E2,9.9E1,6.6E1,8.4E1,1.8E1,1.34E2,1.5E1,4.8E1,5.1E1,5E0,1.25E2,6.5E1,3.1E1,5.3E1,2.28E2,1.56E2,5.33E2,6.59E2,4E0,7E1,2.8E1,3.4E1,3.5E1,1E1,5.2E1,1.5E2,3.6E1,5E1,1.72E2,1.92E2,4.01E2,9.78E2,4E0,1.8E1,1.4E1,4E0,6.8E1,7.4E1,1.7E1,3.4E1],"tree_param":{"num_deleted":"0","num_feature":"12","num_nodes":"105","size_leaf_vector":"0"}},{"base_weights":[1.2548302E1,9.6466E0,3.25108E1,1.3755277E1,3.7059608E0,4.3885685E1,1.8645164E1,1.2665525E1,5.894134E1,3.0752845E0,1.6812195E1,3.8297527E1,6.645017E1,1.0167855E1,2.7818853E1,3.086505E1,1.1631728E1,3.3562397E1,8.4797935E1,5.990027E0,2.5760386E0,1.3714504E1,2.6586437E1,5.0924873E1,2.2469646E1,2.9609342E0,8.626842E1,8.868654E0,1.2107137E0,6.402392E1,1.8154703E1,3.6253754E1,1.1874243E0,1.6701035E0,1.2144649E1,8.253529E0,3.884079E1,5.1038575E0,3.2935352E0,3.9680245E0,1.1238509E1,1.2248083E0,2.882504E0,1.9388622E1,6.556128E0,1.5117264E0,3.7032026E-1,2.9797199E0,4.6259995E1,1.876031E1,5.8223003E1,5.2700324E0,2.2197502E0,1.2309085E1,3.5269914E0,5.3667706E1,4.0870204E0,1.8982885E1,2.9934672E-1,1.4830965E-1,1.8866558E0,6.164751E-1,-2.2897987E-2,8.70261E-1,5.5402225E-1,2.4110214E-1,5.239752E-1,2.60546E0,9.029657E-1,1.100949E-1,2.5491285E-1,7.312653E-1,4.061389E-1,1.3782877E-2,8.781431E-2,2.2592118E-1,1.1405676E-1,5.8771473E-1,2.848585E0,1.0332286E-1,4.8323163E-1,1.8145764E0,2.7397048E0,1.2498477E0,6.915985E-1,6.174947E0,1.4596651E0,3.8754988E-1,1.4869118E0,-4.3460887E-2,3.2216284E-1,3.339688E0,5.186512E-1,7.620298E-1,1.2539272E0],"categories":[],"categories_nodes":[],"categories_segments":[],"categories_sizes":[],"default_left":[false,false,false,false,false,false,false,false,false,false,false,false,false,false,false,false,false,false,false,false,false,false,false,false,false,false,false,false,false,false,false,false,false,false,false,false,false,false,false,false,false,false,false,false,false,false,false,false,false,false,false,false,false,false,false,false,false,false,false,false,false,false,false,false,false,false,false,false,false,false,false,false,false,false,false,false,false,false,false,false,false,false,false,false,false,false,false,false,false,false,false,false,false,false,false],"id":11,"left_children":[1,3,5,7,9,11,13,15,17,19,21,23,25,27,29,31,33,35,37,39,41,43,45,47,49,-1,51,53,-1,55,57,59,-1,61,63,65,67,-1,-1,69,71,73,75,77,79,-1,-1,-1,81,83,85,-1,-1,87,89,91,-1,93,-1,-1,-1,-1,-1,-1,-1,-1,-1,-1,-1,-1,-1,-1,-1,-1,-1,-1,-1,-1,-1,-1,-1,-1,-1,-1,-1,-1,-1,-1,-1,-1,-1,-1,-1,-1,-1],"loss_changes":[3.5360944E5,1.3019097E5,1.2141475E5,1.5456138E5,1.7992518E4,5.1045E4,2.7013781E4,5.7608812E4,4.571375E4,3.0171504E3,2.6631367E3,6.740916E4,6.7864688E3,3.1430898E3,5.7619375E4,5.466625E3,1.4884219E4,4.8894414E3,5.049828E3,3.181588E3,7.339912E2,3.0410479E3,1.3853916E3,4.9271875E3,1.933139E4,0E0,1.1343375E4,3.0807832E3,0E0,2.0348281E3,1.2366875E3,4.4185625E3,0E0,3.2721243E3,1.5336875E4,1.0574585E1,7.882535E3,0E0,0E0,4.2991992E2,7.675996E2,1.6648969E2,1.4171738E3,1.1667963E4,4.8245032E2,0E0,0E0,0E0,8.900656E3,3.9880625E3,2.2923832E4,0E0,0E0,7.9521895E3,8.773954E2,1.3514359E4,0E0,2.469254E3,0E0,0E0,0E0,0E0,0E0,0E0,0E0,0E0,0E0,0E0,0E0,0E0,0E0,0E0,0E0,0E0,0E0,0E0,0E0,0E0,0E0,0E0,0E0,0E0,0E0,0E0,0E0,0E0,0E0,0E0,0E0,0E0,0E0,0E0,0E0,0E0,0E0],"parents":[2147483647,0,0,1,1,2,2,3,3,4,4,5,5,6,6,7,7,8,8,9,9,10,10,11,11,12,12,13,13,14,14,15,15,16,16,17,17,18,18,19,19,20,20,21,21,22,22,23,23,24,24,26,26,27,27,29,29,30,30,31,31,33,33,34,34,35,35,36,36,39,39,40,40,41,41,42,42,43,43,44,44,48,48,49,49,50,50,53,53,54,54,55,55,57,57],"right_children":[2,4,6,8,10,12,14,16,18,20,22,24,26,28,30,32,34,36,38,40,42,44,46,48,50,-1,52,54,-1,56,58,60,-1,62,64,66,68,-1,-1,70,72,74,76,78,80,-1,-1,-1,82,84,86,-1,-1,88,90,92,-1,94,-1,-1,-1,-1,-1,-1,-1,-1,-1,-1,-1,-1,-1,-1,-1,-1,-1,-1,-1,-1,-1,-1,-1,-1,-1,-1,-1,-1,-1,-1,-1,-1,-1,-1,-1,-1,-1],"split_conditions":[1E0,3.46E0,3.29E0,1E0,1E0,1E0,1E0,1.55E0,3.02E0,3.99E0,6.99E0,1.63E0,3.02E0,6.99E0,4.66E0,1.5E0,1.59E0,1.89E0,3.23E0,3.89E0,4.5E0,4.81E0,7.49E0,1.47E0,3.02E0,2.9609342E0,3.2E0,4.97E0,1.2107137E0,3.93E0,7.49E0,1.38E0,1.1874243E0,1.56E0,2E0,1.59E0,2.99E0,5.1038575E0,3.2935352E0,3.57E0,3.91E0,4E0,4.81E0,4.4E0,6.04E0,1.5117264E0,3.7032026E-1,2.9797199E0,1.53E0,2.79E0,3.2E0,5.2700324E0,2.2197502E0,4.59E0,5.64E0,3.69E0,4.0870204E0,6.99E0,2.9934672E-1,1.4830965E-1,1.8866558E0,6.164751E-1,-2.2897987E-2,8.70261E-1,5.5402225E-1,2.4110214E-1,5.239752E-1,2.60546E0,9.029657E-1,1.100949E-1,2.5491285E-1,7.312653E-1,4.061389E-1,1.3782877E-2,8.781431E-2,2.2592118E-1,1.1405676E-1,5.8771473E-1,2.848585E0,1.0332286E-1,4.8323163E-1,1.8145764E0,2.7397048E0,1.2498477E0,6.915985E-1,6.174947E0,1.4596651E0,3.8754988E-1,1.4869118E0,-4.3460887E-2,3.2216284E-1,3.339688E0,5.186512E-1,7.620298E-1,1.2539272E0],"split_indices":[1,6,6,0,0,0,0,6,6,6,6,6,6,6,6,6,6,6,6,6,6,6,6,6,6,0,6,6,0,6,6,6,0,6,6,6,6,0,0,6,6,6,6,6,6,0,0,0,6,6,6,0,0,6,6,6,0,6,0,0,0,0,0,0,0,0,0,0,0,0,0,0,0,0,0,0,0,0,0,0,0,0,0,0,0,0,0,0,0,0,0,0,0,0,0],"split_type":[0,0,0,0,0,0,0,0,0,0,0,0,0,0,0,0,0,0,0,0,0,0,0,0,0,0,0,0,0,0,0,0,0,0,0,0,0,0,0,0,0,0,0,0,0,0,0,0,0,0,0,0,0,0,0,0,0,0,0,0,0,0,0,0,0,0,0,0,0,0,0,0,0,0,0,0,0,0,0,0,0,0,0,0,0,0,0,0,0,0,0,0,0,0,0],"sum_hessian":[6.109E3,5.335E3,7.74E2,3.153E3,2.182E3,4.24E2,3.5E2,3.08E3,7.3E1,2.083E3,9.9E1,3.42E2,8.2E1,1.83E2,1.67E2,1.64E2,2.916E3,3.8E1,3.5E1,3.03E2,1.78E3,7.7E1,2.2E1,1.89E2,1.53E2,6.3E1,1.9E1,1.69E2,1.4E1,3.4E1,1.33E2,9.1E1,7.3E1,1.43E2,2.773E3,7E0,3.1E1,1.6E1,1.9E1,2.2E2,8.3E1,3.3E2,1.45E3,4.2E1,3.5E1,1.8E1,4E0,6.2E1,1.27E2,1.4E2,1.3E1,1.2E1,7E0,1.02E2,6.7E1,2.4E1,1E1,1.24E2,9E0,4E0,8.7E1,2.3E1,1.2E2,4.64E2,2.309E3,4E0,3E0,1.8E1,1.3E1,8.7E1,1.33E2,3.8E1,4.5E1,1.19E2,2.11E2,3.88E2,1.062E3,3.6E1,6E0,1.5E1,2E1,6.1E1,6.6E1,6E1,8E1,3E0,1E1,8.2E1,2E1,2.7E1,4E1,1.8E1,6E0,7.9E1,4.5E1],"tree_param":{"num_deleted":"0","num_feature":"12","num_nodes":"95","size_leaf_vector":"0"}},{"base_weights":[1.22360935E1,1.004415E1,4.0507736E1,4.1693443E1,7.808601E0,5.6696705E1,2.1909996E1,2.0983326E0,1.3005518E0,1.52382E1,5.233947E0,2.769334E1,6.65956E1,1.8650757E1,2.9622047E0,-2.7667053E0,2.131359E1,7.6282353E0,3.8956726E0,3.9198806E0,2.0736553E1,6.7347E0,4.834822E1,1.2009238E0,1.2671899E1,-3.679169E0,-3.1050685E-1,2.8885841E1,1.7208344E1,3.9831004E0,2.0154434E1,2.8990633E0,1.1411229E1,-6.289927E-3,2.5955E1,2.918031E1,4.241985E0,9.613276E0,1.6130806E0,-2.1881877E-1,-1.6191496E-1,-9.432262E-2,-3.9459122E-3,1.2920871E0,1.8591912E0,2.5877818E-1,1.454028E0,2.9842257E-1,-3.2774758E-2,1.2287539E0,5.2504164E-1,-6.253283E-2,1.7851786E-1,4.911047E-1,7.197964E-1,2.0295393E0,8.071012E-1,1.9824114E0,-1.9736408E-1,6.293195E-1,-4.2020897E-3],"categories":[],"categories_nodes":[],"categories_segments":[],"categories_sizes":[],"default_left":[false,false,false,false,false,false,false,false,false,false,false,false,false,false,false,false,false,false,false,false,false,false,false,false,false,false,false,false,false,false,false,false,false,false,false,false,false,false,false,false,false,false,false,false,false,false,false,false,false,false,false,false,false,false,false,false,false,false,false,false,false],"id":12,"left_children":[1,3,5,7,9,11,13,-1,-1,15,17,19,21,23,-1,25,27,29,31,-1,33,-1,35,-1,37,39,41,43,45,47,49,51,53,-1,55,57,-1,59,-1,-1,-1,-1,-1,-1,-1,-1,-1,-1,-1,-1,-1,-1,-1,-1,-1,-1,-1,-1,-1,-1,-1],"loss_changes":[3.7624588E5,3.98866E5,1.3032894E5,5.023125E2,1.00747375E5,6.5050312E4,2.383961E4,0E0,0E0,1.483875E5,1.2517992E4,1.9891375E4,2.0846056E5,5.7932734E3,0E0,7.675864E2,3.1024062E4,6.3980258E4,1.8796965E4,0E0,5.9910645E3,0E0,9.405059E4,0E0,5.2022744E3,6.2672363E1,3.41584E1,8.0063438E3,9.41343E4,1.0023566E4,1.3227289E4,6.191467E3,1.2530703E3,0E0,5.664092E3,3.2059977E4,0E0,2.3363882E3,0E0,0E0,0E0,0E0,0E0,0E0,0E0,0E0,0E0,0E0,0E0,0E0,0E0,0E0,0E0,0E0,0E0,0E0,0E0,0E0,0E0,0E0,0E0],"parents":[2147483647,0,0,1,1,2,2,3,3,4,4,5,5,6,6,9,9,10,10,11,11,12,12,13,13,15,15,16,16,17,17,18,18,20,20,22,22,24,24,25,25,26,26,27,27,28,28,29,29,30,30,31,31,32,32,34,34,35,35,37,37],"right_children":[2,4,6,8,10,12,14,-1,-1,16,18,20,22,24,-1,26,28,30,32,-1,34,-1,36,-1,38,40,42,44,46,48,50,52,54,-1,56,58,-1,60,-1,-1,-1,-1,-1,-1,-1,-1,-1,-1,-1,-1,-1,-1,-1,-1,-1,-1,-1,-1,-1,-1,-1],"split_conditions":[1E0,1.1110354E9,4.1167094E9,1E0,2.0662006E9,1.6000275E9,8.849121E10,2.0983326E0,1.3005518E0,1.1110853E9,4.1167094E9,1.1110354E9,2.0662006E9,7.218063E9,2.9622047E0,1E0,1.1110874E9,3.8000317E9,8.8491205E10,3.9198806E0,1.1110853E9,6.7347E0,3.8000317E9,1.2009238E0,8.8491205E10,1.1110381E9,1.1110381E9,1E0,1.6000275E9,3.5000689E9,3.8000392E9,7.0273126E9,8.849121E10,-6.289927E-3,1.1110874E9,3.5000689E9,4.241985E0,7.7975025E9,1.6130806E0,-2.1881877E-1,-1.6191496E-1,-9.432262E-2,-3.9459122E-3,1.2920871E0,1.8591912E0,2.5877818E-1,1.454028E0,2.9842257E-1,-3.2774758E-2,1.2287539E0,5.2504164E-1,-6.253283E-2,1.7851786E-1,4.911047E-1,7.197964E-1,2.0295393E0,8.071012E-1,1.9824114E0,-1.9736408E-1,6.293195E-1,-4.2020897E-3],"split_indices":[0,4,4,2,4,4,4,0,0,4,4,4,4,4,0,2,4,4,4,0,4,0,4,0,4,4,4,2,4,4,4,4,4,0,4,4,0,4,0,0,0,0,0,0,0,0,0,0,0,0,0,0,0,0,0,0,0,0,0,0,0],"split_type":[0,0,0,0,0,0,0,0,0,0,0,0,0,0,0,0,0,0,0,0,0,0,0,0,0,0,0,0,0,0,0,0,0,0,0,0,0,0,0,0,0,0,0,0,0,0,0,0,0,0,0,0,0,0,0,0,0,0,0,0,0],"sum_hessian":[6.077E3,5.641E3,4.36E2,3.71E2,5.27E3,2.32E2,2.04E2,3.63E2,8E0,1.355E3,3.915E3,6E1,1.72E2,1.89E2,1.5E1,3.42E2,1.013E3,1.402E3,2.513E3,6E0,5.4E1,3.5E1,1.37E2,9.8E1,9.1E1,2.49E2,9.3E1,3.54E2,6.59E2,1.087E3,3.15E2,2.22E3,2.93E2,1.1E1,4.3E1,9.1E1,4.6E1,8E1,1.1E1,9.3E1,1.56E2,1.1E1,8.2E1,2.62E2,9.2E1,3.28E2,3.31E2,7.61E2,3.26E2,2.15E2,1E2,3.09E2,1.911E3,1.94E2,9.9E1,1.6E1,2.7E1,6.9E1,2.2E1,6.1E1,1.9E1],"tree_param":{"num_deleted":"0","num_feature":"12","num_nodes":"61","size_leaf_vector":"0"}},{"base_weights":[1.1710362E1,8.830327E0,3.1348408E1,7.9427686E0,3.6626347E1,4.241922E1,1.7618328E1,1.14301E1,2.7340999E0,5.4345314E1,2.1453583E1,3.634809E1,6.3733597E1,9.097927E0,2.6639477E1,2.713215E1,1.0521224E1,5.4545765E0,2.2865548E0,3.210599E1,8.1677E1,1.2093614E1,2.5485607E1,4.774202E1,2.26614E1,5.4621635E1,9.4716774E1,1.1566688E1,6.173601E0,6.2727108E1,1.674549E1,3.4979496E1,1.1338233E0,3.219006E-1,1.1031809E1,3.6488068E0,8.392717E0,1.6894846E0,3.300002E0,3.3024874E-1,3.8661995E1,1.1380123E2,2.600849E0,1.9201572E1,5.118299E0,5.1843038E0,1.8304781E1,4.366118E1,5.599684E1,1.9966541E1,5.3111256E1,4.1302047E0,5.144283E1,1.218775E2,1.9370493E0,8.1550455E0,3.5052906E1,3.0333493E0,8.461098E-1,4.8084636E0,4.9737587E1,1.7408262E1,2.8030294E-1,1.305715E0,1.8973011E0,2.3393276E-1,-4.0453088E-2,4.912915E-1,7.6489586E-1,-2.6673788E-2,2.1136025E-1,4.811513E-1,3.4439942E-1,1.1926196E-1,1.4014711E-2,1.3941884E-1,4.6623203E-1,2.5240636E0,7.8430754E-1,3.6751754E0,6.6249657E0,9.36191E-2,1.2973006E0,3.896822E-1,-3.197747E-2,5.338049E-1,1.3641655E0,2.585571E0,1.2757024E0,3.3600597E0,1.9483608E0,1.15786E0,8.4035206E-1,5.891676E0,9.222278E-1,5.631803E-1,2.7180126E0,3.9437253E0,9.945781E0,5.842717E-1,1.3384469E-1,3.4357831E0,8.098456E-1,2.1623256E-2,2.8499717E-1,1.5786934E0,4.560008E0,5.758203E-1,9.5647526E-1],"categories":[],"categories_nodes":[],"categories_segments":[],"categories_sizes":[],"default_left":[false,false,false,false,false,false,false,false,false,false,false,false,false,false,false,false,false,false,false,false,false,false,false,false,false,false,false,false,false,false,false,false,false,false,false,false,false,false,false,false,false,false,false,false,false,false,false,false,false,false,false,false,false,false,false,false,false,false,false,false,false,false,false,false,false,false,false,false,false,false,false,false,false,false,false,false,false,false,false,false,false,false,false,false,false,false,false,false,false,false,false,false,false,false,false,false,false,false,false,false,false,false,false,false,false,false,false,false,false],"id":13,"left_children":[1,3,5,7,9,11,13,15,17,19,21,23,25,27,29,31,33,35,37,39,41,43,45,47,49,51,53,55,57,59,61,63,-1,65,67,69,71,73,75,-1,77,79,-1,81,83,-1,85,87,89,91,93,-1,95,97,-1,99,101,103,-1,-1,105,107,-1,-1,-1,-1,-1,-1,-1,-1,-1,-1,-1,-1,-1,-1,-1,-1,-1,-1,-1,-1,-1,-1,-1,-1,-1,-1,-1,-1,-1,-1,-1,-1,-1,-1,-1,-1,-1,-1,-1,-1,-1,-1,-1,-1,-1,-1,-1],"loss_changes":[3.4393675E5,1.3068531E5,1.17511125E5,9.344253E4,4.2924812E4,5.3326375E4,2.6583102E4,4.3698438E4,2.5017383E3,4.2965562E4,3.0883516E3,5.1471594E4,2.1364281E4,1.2353135E3,5.9291133E4,5.080961E3,1.51766875E4,1.5133086E3,1.0684756E3,6.933586E3,2.5522969E4,1.3395479E3,3.2917773E4,3.7197812E3,1.1658547E4,2.4219219E3,2.5685203E4,7.486421E3,2.817699E3,1.0855078E4,8.9172266E2,5.606953E2,0E0,6.9361084E2,1.4131719E4,4.4251758E2,1.3735742E2,1.0964553E3,1.9991079E3,0E0,8.441105E3,1.5631875E3,0E0,1.5876787E3,2.5145209E2,0E0,3.6813926E3,1.7233922E4,8.257297E3,1.0624453E3,2.4751102E4,0E0,7.5930938E3,2.7377938E4,0E0,1.63196E3,6.503954E3,4.6221362E2,0E0,0E0,1.8207672E4,1.0575039E3,0E0,0E0,0E0,0E0,0E0,0E0,0E0,0E0,0E0,0E0,0E0,0E0,0E0,0E0,0E0,0E0,0E0,0E0,0E0,0E0,0E0,0E0,0E0,0E0,0E0,0E0,0E0,0E0,0E0,0E0,0E0,0E0,0E0,0E0,0E0,0E0,0E0,0E0,0E0,0E0,0E0,0E0,0E0,0E0,0E0,0E0,0E0],"parents":[2147483647,0,0,1,1,2,2,3,3,4,4,5,5,6,6,7,7,8,8,9,9,10,10,11,11,12,12,13,13,14,14,15,15,16,16,17,17,18,18,19,19,20,20,21,21,22,22,23,23,24,24,25,25,26,26,27,27,28,28,29,29,30,30,31,31,33,33,34,34,35,35,36,36,37,37,38,38,40,40,41,41,43,43,44,44,46,46,47,47,48,48,49,49,50,50,52,52,53,53,55,55,56,56,57,57,60,60,61,61],"right_children":[2,4,6,8,10,12,14,16,18,20,22,24,26,28,30,32,34,36,38,40,42,44,46,48,50,52,54,56,58,60,62,64,-1,66,68,70,72,74,76,-1,78,80,-1,82,84,-1,86,88,90,92,94,-1,96,98,-1,100,102,104,-1,-1,106,108,-1,-1,-1,-1,-1,-1,-1,-1,-1,-1,-1,-1,-1,-1,-1,-1,-1,-1,-1,-1,-1,-1,-1,-1,-1,-1,-1,-1,-1,-1,-1,-1,-1,-1,-1,-1,-1,-1,-1,-1,-1,-1,-1,-1,-1,-1,-1],"split_conditions":[1E0,1E0,3.29E0,3.46E0,3.4E0,1E0,1E0,1.55E0,3.99E0,3.02E0,4.4E0,1.55E0,3.07E0,4.81E0,4.69E0,1.49E0,1.59E0,3.84E0,5.64E0,1.89E0,3.23E0,3.93E0,4.69E0,1.53E0,3.09E0,1.49E0,3.2E0,4.59E0,6.89E0,3.38E0,7.49E0,1.46E0,1.1338233E0,1.58E0,1E0,3.49E0,3.91E0,4.89E0,1E0,3.3024874E-1,2.99E0,3.12E0,2.600849E0,3.49E0,4.09E0,5.1843038E0,6.99E0,1.49E0,1.54E0,2.79E0,3.2E0,4.1302047E0,1.89E0,3.13E0,1.9370493E0,3.49E0,4.69E0,5.64E0,8.461098E-1,4.8084636E0,4.19E0,6.38E0,2.8030294E-1,1.305715E0,1.8973011E0,2.3393276E-1,-4.0453088E-2,4.912915E-1,7.6489586E-1,-2.6673788E-2,2.1136025E-1,4.811513E-1,3.4439942E-1,1.1926196E-1,1.4014711E-2,1.3941884E-1,4.6623203E-1,2.5240636E0,7.8430754E-1,3.6751754E0,6.6249657E0,9.36191E-2,1.2973006E0,3.896822E-1,-3.197747E-2,5.338049E-1,1.3641655E0,2.585571E0,1.2757024E0,3.3600597E0,1.9483608E0,1.15786E0,8.4035206E-1,5.891676E0,9.222278E-1,5.631803E-1,2.7180126E0,3.9437253E0,9.945781E0,5.842717E-1,1.3384469E-1,3.4357831E0,8.098456E-1,2.1623256E-2,2.8499717E-1,1.5786934E0,4.560008E0,5.758203E-1,9.5647526E-1],"split_indices":[1,0,6,6,6,0,0,6,6,6,6,6,6,6,6,6,6,6,6,6,6,6,6,6,6,6,6,6,6,6,6,6,0,6,2,6,6,6,2,0,6,6,0,6,6,0,6,6,6,6,6,0,6,6,0,6,6,6,0,0,6,6,0,0,0,0,0,0,0,0,0,0,0,0,0,0,0,0,0,0,0,0,0,0,0,0,0,0,0,0,0,0,0,0,0,0,0,0,0,0,0,0,0,0,0,0,0,0,0],"split_type":[0,0,0,0,0,0,0,0,0,0,0,0,0,0,0,0,0,0,0,0,0,0,0,0,0,0,0,0,0,0,0,0,0,0,0,0,0,0,0,0,0,0,0,0,0,0,0,0,0,0,0,0,0,0,0,0,0,0,0,0,0,0,0,0,0,0,0,0,0,0,0,0,0,0,0,0,0,0,0,0,0,0,0,0,0,0,0,0,0,0,0,0,0,0,0,0,0,0,0,0,0,0,0,0,0,0,0,0,0],"sum_hessian":[6.085E3,5.308E3,7.77E2,5.145E3,1.63E2,4.29E2,3.48E2,3.081E3,2.064E3,7.4E1,8.9E1,3.36E2,9.3E1,1.8E2,1.68E2,1.67E2,2.914E3,2.9E2,1.774E3,4.2E1,3.2E1,2.8E1,6.1E1,1.82E2,1.54E2,7.4E1,1.9E1,9.6E1,8.4E1,3.5E1,1.33E2,5.8E1,1.09E2,1.39E2,2.775E3,1.81E2,1.09E2,1.118E3,6.56E2,9E0,3.3E1,1.4E1,1.8E1,1.3E1,1.5E1,4E0,5.7E1,1.26E2,5.6E1,1.43E2,1.1E1,5E0,6.9E1,1.2E1,7E0,8.5E1,1.1E1,6.6E1,1.8E1,8E0,2.7E1,1.25E2,8E0,1.7E1,4.1E1,2.8E1,1.11E2,2.166E3,6.09E2,2.2E1,1.59E2,5.7E1,5.2E1,7.48E2,3.7E2,6.06E2,5E1,2.1E1,1.2E1,6E0,8E0,4E0,9E0,1E1,5E0,3.2E1,2.5E1,8.6E1,4E1,3.2E1,2.4E1,6.8E1,7.5E1,3E0,8E0,5E0,6.4E1,9E0,3E0,5.1E1,3.4E1,3E0,8E0,3.4E1,3.2E1,2E1,7E0,3E1,9.5E1],"tree_param":{"num_deleted":"0","num_feature":"12","num_nodes":"109","size_leaf_vector":"0"}},{"base_weights":[1.1207129E1,8.389944E0,3.0238457E1,1.7072609E1,4.9068723E0,4.19496E1,1.2908101E1,1.3166641E1,2.9702951E1,7.121663E0,1.6141465E0,4.9350254E1,1.7122217E1,1.1219186E1,2.313812E0,2.008652E1,2.3310444E0,3.6101692E1,1.7184206E1,2.5864122E0,9.338388E0,-3.0380177E-1,3.8690581E0,4.321245E1,8.7424644E1,2.9649858E1,5.839669E-1,1.7829395E1,7.4328156E0,1.5127705E1,3.6343903E1,-3.683316E0,4.887853E0,1.3314688E0,1.8573824E0,2.8685495E-1,1.7825521E1,6.486195E0,-8.4837514E-1,3.6787314E0,1.3614829E1,3.5138779E0,-4.0301603E-1,5.926179E0,1.0672268E0,2.6786005E0,3.8903458E1,1.14663284E2,6.63514E1,4.4396465E1,1.5345371E1,8.730641E0,-1.691816E-1,1.2505833E1,1.1193314E0,6.571785E0,2.1238073E1,1.4197563E0,4.595526E-1,-1.287586E-1,1.9042233E0,-2.1912913E-1,-4.760697E-2,2.6545012E-1,1.257946E-1,1.4832317E0,8.276235E-1,6.889176E-1,2.9647264E-1,-1.3118066E-1,1.8182513E-1,6.7906696E-1,5.7913136E-2,1.2503766E0,4.6785378E-1,6.827258E-2,3.4171945E-1,-4.1959375E-2,6.122212E-3,6.7101486E-2,4.2027974E-1,8.1786446E-2,-4.0391676E-2,1.8802912E0,4.410934E0,3.834934E0,8.710601E0,8.2873136E-1,3.782189E0,3.675768E-1,3.1275675E0,1.0240581E0,2.3254879E-1,-2.4844216E-1,6.13714E-1,7.487729E-1,5.342647E-1,4.043553E-1,-2.2264786E-1,1.3533771E0,5.9344643E-1],"categories":[],"categories_nodes":[],"categories_segments":[],"categories_sizes":[],"default_left":[false,false,false,false,false,false,false,false,false,false,false,false,false,false,false,false,false,false,false,false,false,false,false,false,false,false,false,false,false,false,false,false,false,false,false,false,false,false,false,false,false,false,false,false,false,false,false,false,false,false,false,false,false,false,false,false,false,false,false,false,false,false,false,false,false,false,false,false,false,false,false,false,false,false,false,false,false,false,false,false,false,false,false,false,false,false,false,false,false,false,false,false,false,false,false,false,false,false,false,false,false],"id":14,"left_children":[1,3,5,7,9,11,13,15,17,19,21,23,25,27,-1,29,31,33,35,37,39,41,43,45,47,49,51,53,55,57,59,61,63,-1,-1,-1,65,67,69,71,73,75,77,79,81,-1,83,85,87,89,91,93,-1,95,-1,97,99,-1,-1,-1,-1,-1,-1,-1,-1,-1,-1,-1,-1,-1,-1,-1,-1,-1,-1,-1,-1,-1,-1,-1,-1,-1,-1,-1,-1,-1,-1,-1,-1,-1,-1,-1,-1,-1,-1,-1,-1,-1,-1,-1,-1],"loss_changes":[3.2631388E5,1.6041234E5,1.5878075E5,7.454681E4,2.762054E4,8.514481E4,1.7402008E4,8.708114E4,2.8056938E4,2.274682E4,6.596501E3,8.035169E4,2.2565875E4,7.476203E3,0E0,5.6607906E4,6.99942E3,1.349E3,8.007031E2,9.984722E3,3.6762953E4,3.138999E2,4.0340332E3,1.18433125E4,2.051825E4,1.2397164E4,1.5810326E3,2.3887148E3,2.1783438E3,4.2665445E4,1.1275344E4,2.5556262E2,3.053081E2,0E0,0E0,0E0,1.2573086E3,1.3351904E3,3.1703457E3,1.6357513E4,4.177333E4,1.4047931E2,1.846013E2,4.58059E3,3.1898218E2,0E0,1.1016906E4,3.1853062E4,1.26225625E4,1.9716543E4,1.7172402E3,8.377252E2,0E0,7.827344E1,0E0,3.126626E3,2.7952588E2,0E0,0E0,0E0,0E0,0E0,0E0,0E0,0E0,0E0,0E0,0E0,0E0,0E0,0E0,0E0,0E0,0E0,0E0,0E0,0E0,0E0,0E0,0E0,0E0,0E0,0E0,0E0,0E0,0E0,0E0,0E0,0E0,0E0,0E0,0E0,0E0,0E0,0E0,0E0,0E0,0E0,0E0,0E0,0E0],"parents":[2147483647,0,0,1,1,2,2,3,3,4,4,5,5,6,6,7,7,8,8,9,9,10,10,11,11,12,12,13,13,15,15,16,16,17,17,18,18,19,19,20,20,21,21,22,22,23,23,24,24,25,25,26,26,27,27,28,28,29,29,30,30,31,31,32,32,36,36,37,37,38,38,39,39,40,40,41,41,42,42,43,43,44,44,46,46,47,47,48,48,49,49,50,50,51,51,53,53,55,55,56,56],"right_children":[2,4,6,8,10,12,14,16,18,20,22,24,26,28,-1,30,32,34,36,38,40,42,44,46,48,50,52,54,56,58,60,62,64,-1,-1,-1,66,68,70,72,74,76,78,80,82,-1,84,86,88,90,92,94,-1,96,-1,98,100,-1,-1,-1,-1,-1,-1,-1,-1,-1,-1,-1,-1,-1,-1,-1,-1,-1,-1,-1,-1,-1,-1,-1,-1,-1,-1,-1,-1,-1,-1,-1,-1,-1,-1,-1,-1,-1,-1,-1,-1,-1,-1,-1,-1],"split_conditions":[1E0,2.0662006E9,4.1167094E9,1.6000275E9,3.91E0,3.38E0,8.849121E10,2.49E0,3.31E0,2.55E0,5.64E0,3.05E0,3.0000067E9,7.218063E9,2.313812E0,1.91E0,1.1110853E9,2.83E0,4.4E0,7.11041E9,3.700045E9,3.0000067E9,7.218063E9,1.49E0,3.2E0,4.69E0,3.58E0,6.89E0,8.8491205E10,1.1110354E9,1.1110853E9,1.1110381E9,4.89E0,1.3314688E0,1.8573824E0,2.8685495E-1,4.59E0,3.5000689E9,7.1921004E9,2.69E0,3.8000392E9,4.19E0,4.81E0,3.7000195E9,6.99E0,2.6786005E0,3.8000392E9,3.13E0,3.23E0,1.6000275E9,5.24E0,3.49E0,-1.691816E-1,6.38E0,1.1193314E0,3.1254743E10,3.31E0,1.4197563E0,4.595526E-1,-1.287586E-1,1.9042233E0,-2.1912913E-1,-4.760697E-2,2.6545012E-1,1.257946E-1,1.4832317E0,8.276235E-1,6.889176E-1,2.9647264E-1,-1.3118066E-1,1.8182513E-1,6.7906696E-1,5.7913136E-2,1.2503766E0,4.6785378E-1,6.827258E-2,3.4171945E-1,-4.1959375E-2,6.122212E-3,6.7101486E-2,4.2027974E-1,8.1786446E-2,-4.0391676E-2,1.8802912E0,4.410934E0,3.834934E0,8.710601E0,8.2873136E-1,3.782189E0,3.675768E-1,3.1275675E0,1.0240581E0,2.3254879E-1,-2.4844216E-1,6.13714E-1,7.487729E-1,5.342647E-1,4.043553E-1,-2.2264786E-1,1.3533771E0,5.9344643E-1],"split_indices":[1,4,4,4,6,6,4,6,6,6,6,6,4,4,0,6,4,6,6,4,4,4,4,6,6,6,6,6,4,4,4,4,6,0,0,0,6,4,4,6,4,6,6,4,6,0,4,6,6,4,6,6,0,6,0,4,6,0,0,0,0,0,0,0,0,0,0,0,0,0,0,0,0,0,0,0,0,0,0,0,0,0,0,0,0,0,0,0,0,0,0,0,0,0,0,0,0,0,0,0,0],"split_type":[0,0,0,0,0,0,0,0,0,0,0,0,0,0,0,0,0,0,0,0,0,0,0,0,0,0,0,0,0,0,0,0,0,0,0,0,0,0,0,0,0,0,0,0,0,0,0,0,0,0,0,0,0,0,0,0,0,0,0,0,0,0,0,0,0,0,0,0,0,0,0,0,0,0,0,0,0,0,0,0,0,0,0,0,0,0,0,0,0,0,0,0,0,0,0,0,0,0,0,0,0],"sum_hessian":[6.09E3,5.306E3,7.84E2,1.518E3,3.788E3,4.67E2,3.17E2,1.161E3,3.57E2,2.264E3,1.524E3,3.59E2,1.08E2,3.03E2,1.4E1,7.08E2,4.53E2,2.35E2,1.22E2,7.44E2,1.52E3,8.24E2,7E2,3.11E2,4.8E1,6.1E1,4.7E1,1.09E2,1.94E2,5.44E2,1.64E2,1.35E2,3.18E2,2.6E1,2.09E2,7E0,1.15E2,3.48E2,3.96E2,6.55E2,8.65E2,2E1,8.04E2,4.03E2,2.97E2,8.8E1,2.23E2,1.9E1,2.9E1,2.9E1,3.2E1,1.5E1,3.2E1,5.2E1,5.7E1,1.84E2,1E1,1.67E2,3.77E2,7E0,1.57E2,1.07E2,2.8E1,2.69E2,4.9E1,9E0,1.06E2,2.3E1,3.25E2,2.84E2,1.12E2,1.32E2,5.23E2,2.34E2,6.31E2,1.3E1,7E0,4.39E2,3.65E2,1.42E2,2.61E2,2.28E2,6.9E1,2.19E2,4E0,1.3E1,6E0,5E0,2.4E1,1E1,1.9E1,2.1E1,1.1E1,3E0,1.2E1,1.9E1,3.3E1,1.62E2,2.2E1,5E0,5E0],"tree_param":{"num_deleted":"0","num_feature":"12","num_nodes":"101","size_leaf_vector":"0"}},{"base_weights":[1.0303779E1,2.0361204E1,6.213122E0,2.877688E1,4.867321E0,9.512626E0,3.179761E0,2.3146868E1,5.6275177E1,2.9119494E0,4.89768E1,1.8590885E1,7.1494474E0,4.0815983E0,7.5724214E-1,3.473307E1,1.5870455E1,1.4470197E2,4.450068E1,5.242965E0,-3.3683744E-1,4.4423466E0,3.5253105E1,2.9746883E0,3.3542633E1,1.6939929E0,8.953177E0,2.2224214E0,8.532773E0,1.0895987E0,-1.091369E0,5.739221E1,3.250598E1,-2.6542528E0,2.68497E1,2.058746E2,3.3466537E1,6.7188705E1,3.6289864E1,5.5742865E0,8.0558985E-1,-2.192756E0,8.275531E0,2.0590522E0,1.0236285E0,-4.615363E0,1.0756928E1,3.4990451E0,3.124604E1,2.2759876E0,-1.5107718E0,1.3481621E1,5.9014077E0,5.973792E0,3.0935797E-1,2.1756529E1,4.531771E0,3.5738225E0,1.3428062E-1,-3.303691E-2,-7.992731E-2,3.1905737E0,-9.4534576E-2,1.6625413E0,9.262409E-1,3.0526146E-2,-2.063202E-1,8.9788073E-1,1.8255888E0,1.4127558E1,6.594097E0,2.7515762E0,6.7560613E-1,2.561767E0,3.6836853E0,3.3156803E0,1.3364309E0,1.1517993E-1,3.0446097E-1,6.7835085E-2,-7.83741E-3,-2.201763E-2,-2.9251E-1,7.220778E-1,2.2941113E-1,-2.3548567E-1,-1.4354283E-1,1.604864E0,3.0826315E-1,1.661603E0,1.0140064E0,2.8647566E-1,1.0111194E-1,-1.1860342E-1,-5.118228E-2,3.0152446E-1,9.282242E-1,-6.9707654E-2,4.6519637E-1,1.7354086E-1,6.215425E-1,1.9062172E-1,-1.9863056E-2,1.2163194E0,5.9715796E-1,3.951689E-1,1.7396285E-1,6.785055E-1,8.2208306E-2,-6.0701272E-3,1.19576216E-1],"categories":[],"categories_nodes":[],"categories_segments":[],"categories_sizes":[],"default_left":[false,false,false,false,false,false,false,false,false,false,false,false,false,false,false,false,false,false,false,false,false,false,false,false,false,false,false,false,false,false,false,false,false,false,false,false,false,false,false,false,false,false,false,false,false,false,false,false,false,false,false,false,false,false,false,false,false,false,false,false,false,false,false,false,false,false,false,false,false,false,false,false,false,false,false,false,false,false,false,false,false,false,false,false,false,false,false,false,false,false,false,false,false,false,false,false,false,false,false,false,false,false,false,false,false,false,false,false,false,false,false],"id":15,"left_children":[1,3,5,7,9,11,13,15,17,19,21,23,25,27,29,31,33,35,37,39,41,-1,43,45,47,49,51,53,55,57,59,61,63,65,67,69,71,73,75,77,79,81,83,-1,-1,85,87,-1,89,91,93,95,97,99,101,103,105,107,109,-1,-1,-1,-1,-1,-1,-1,-1,-1,-1,-1,-1,-1,-1,-1,-1,-1,-1,-1,-1,-1,-1,-1,-1,-1,-1,-1,-1,-1,-1,-1,-1,-1,-1,-1,-1,-1,-1,-1,-1,-1,-1,-1,-1,-1,-1,-1,-1,-1,-1,-1,-1],"loss_changes":[2.4766856E5,2.2687156E5,4.2836516E4,1.733295E5,5.2815137E4,4.3868297E4,4.875383E3,7.852781E4,1.9242619E5,4.4622476E3,1.1094172E4,9.8666266E4,1.6014461E4,1.3445307E4,3.7412872E2,1.6351906E4,1.1762914E5,1.4281047E5,2.9230531E4,4.997871E2,3.966158E3,0E0,9.969004E2,1.2335709E4,1.5889094E4,7.606918E2,1.6835836E4,8.244076E3,2.5244469E4,1.2217305E3,1.9255547E1,1.1917773E4,2.831E3,1.0406677E3,3.053186E4,4.2165625E4,3.1292578E3,7.774531E2,3.468472E4,5.232285E2,1.347156E1,1.3049246E3,9.341245E2,0E0,0E0,3.9262695E0,9.894849E3,0E0,3.7906406E3,2.8987036E2,2.4004135E1,1.852161E4,1.8208441E4,6.2276533E3,1.8877241E3,2.5087695E3,1.281959E3,2.7360723E3,2.1556326E2,0E0,0E0,0E0,0E0,0E0,0E0,0E0,0E0,0E0,0E0,0E0,0E0,0E0,0E0,0E0,0E0,0E0,0E0,0E0,0E0,0E0,0E0,0E0,0E0,0E0,0E0,0E0,0E0,0E0,0E0,0E0,0E0,0E0,0E0,0E0,0E0,0E0,0E0,0E0,0E0,0E0,0E0,0E0,0E0,0E0,0E0,0E0,0E0,0E0,0E0,0E0,0E0],"parents":[2147483647,0,0,1,1,2,2,3,3,4,4,5,5,6,6,7,7,8,8,9,9,10,10,11,11,12,12,13,13,14,14,15,15,16,16,17,17,18,18,19,19,20,20,22,22,23,23,24,24,25,25,26,26,27,27,28,28,29,29,30,30,31,31,32,32,33,33,34,34,35,35,36,36,37,37,38,38,39,39,40,40,41,41,42,42,45,45,46,46,48,48,49,49,50,50,51,51,52,52,53,53,54,54,55,55,56,56,57,57,58,58],"right_children":[2,4,6,8,10,12,14,16,18,20,22,24,26,28,30,32,34,36,38,40,42,-1,44,46,48,50,52,54,56,58,60,62,64,66,68,70,72,74,76,78,80,82,84,-1,-1,86,88,-1,90,92,94,96,98,100,102,104,106,108,110,-1,-1,-1,-1,-1,-1,-1,-1,-1,-1,-1,-1,-1,-1,-1,-1,-1,-1,-1,-1,-1,-1,-1,-1,-1,-1,-1,-1,-1,-1,-1,-1,-1,-1,-1,-1,-1,-1,-1,-1,-1,-1,-1,-1,-1,-1,-1,-1,-1,-1,-1,-1],"split_conditions":[2.48E0,4.1167094E9,3.46E0,1.1110874E9,8.849121E10,2.0662006E9,7.218064E9,1.1110354E9,1.82E0,7.11041E9,1.91E0,1.6000275E9,3.0000067E9,7.0273126E9,6.59E0,1.32E0,1.1110853E9,1E0,1.99E0,2.18E0,7.1921004E9,4.4423466E0,2.06E0,1.1110853E9,2.53E0,3E0,4.1167094E9,2.0662006E9,5.23E0,7.7975025E9,6.99E0,1E0,1.63E0,1.24E0,1.91E0,2.0662006E9,1.32E0,3.0000067E9,2.0662006E9,1.44E0,2.29E0,2.18E0,2.19E0,2.0590522E0,1.0236285E0,1E0,3.04E0,3.4990451E0,1E0,2.71E0,2.8400049E9,3.700045E9,7.797508E9,1.6000275E9,3.91E0,7.218063E9,6.27E0,4.77E0,8.8491205E10,-3.303691E-2,-7.992731E-2,3.1905737E0,-9.4534576E-2,1.6625413E0,9.262409E-1,3.0526146E-2,-2.063202E-1,8.9788073E-1,1.8255888E0,1.4127558E1,6.594097E0,2.7515762E0,6.7560613E-1,2.561767E0,3.6836853E0,3.3156803E0,1.3364309E0,1.1517993E-1,3.0446097E-1,6.7835085E-2,-7.83741E-3,-2.201763E-2,-2.9251E-1,7.220778E-1,2.2941113E-1,-2.3548567E-1,-1.4354283E-1,1.604864E0,3.0826315E-1,1.661603E0,1.0140064E0,2.8647566E-1,1.0111194E-1,-1.1860342E-1,-5.118228E-2,3.0152446E-1,9.282242E-1,-6.9707654E-2,4.6519637E-1,1.7354086E-1,6.215425E-1,1.9062172E-1,-1.9863056E-2,1.2163194E0,5.9715796E-1,3.951689E-1,1.7396285E-1,6.785055E-1,8.2208306E-2,-6.0701272E-3,1.19576216E-1],"split_indices":[5,4,5,4,4,4,4,4,5,4,5,4,4,4,5,5,4,2,5,5,4,0,5,4,5,5,4,4,5,4,5,2,5,5,5,4,5,4,4,5,5,5,5,0,0,2,5,0,2,5,4,4,4,4,5,4,5,5,4,0,0,0,0,0,0,0,0,0,0,0,0,0,0,0,0,0,0,0,0,0,0,0,0,0,0,0,0,0,0,0,0,0,0,0,0,0,0,0,0,0,0,0,0,0,0,0,0,0,0,0,0],"split_type":[0,0,0,0,0,0,0,0,0,0,0,0,0,0,0,0,0,0,0,0,0,0,0,0,0,0,0,0,0,0,0,0,0,0,0,0,0,0,0,0,0,0,0,0,0,0,0,0,0,0,0,0,0,0,0,0,0,0,0,0,0,0,0,0,0,0,0,0,0,0,0,0,0,0,0,0,0,0,0,0,0,0,0,0,0,0,0,0,0,0,0,0,0,0,0,0,0,0,0,0,0,0,0,0,0,0,0,0,0,0,0],"sum_hessian":[6.022E3,1.74E3,4.282E3,1.127E3,6.13E2,2.05E3,2.232E3,9.37E2,1.9E2,5.88E2,2.5E1,4.22E2,1.628E3,1.626E3,6.06E2,3.6E2,5.77E2,2.1E1,1.69E2,3.42E2,2.46E2,5E0,2E1,2.07E2,2.15E2,4.05E2,1.223E3,1.148E3,4.78E2,5.14E2,9.2E1,3E1,3.3E2,2.15E2,3.62E2,1.3E1,8E0,4.3E1,1.26E2,3.18E2,2.4E1,2.03E2,4.3E1,1.3E1,7E0,1.05E2,1.02E2,1.1E1,2.04E2,3.43E2,6.2E1,4.91E2,7.32E2,3.87E2,7.61E2,1.1E2,3.68E2,1.42E2,3.72E2,5.1E1,4.1E1,2.7E1,3E0,3.12E2,1.8E1,6.7E1,1.48E2,1.9E2,1.72E2,5E0,8E0,3E0,5E0,1.5E1,2.8E1,2.9E1,9.7E1,4.4E1,2.74E2,1.5E1,9E0,1.38E2,6.5E1,1.5E1,2.8E1,9.8E1,7E0,1.7E1,8.5E1,1.71E2,3.3E1,2.2E1,3.21E2,2.1E1,4.1E1,2E2,2.91E2,2.33E2,4.99E2,2.8E2,1.07E2,1.27E2,6.34E2,8.6E1,2.4E1,8.6E1,2.82E2,2.2E1,1.2E2,3.35E2,3.7E1],"tree_param":{"num_deleted":"0","num_feature":"12","num_nodes":"111","size_leaf_vector":"0"}}]},"name":"gbtree"},"learner_model_param":{"base_score":"5E-1","num_class":"0","num_feature":"12"},"objective":{"name":"reg:squarederror","reg_loss_param":{"scale_pos_weight":"1"}}},"version":[1,5,2]}