{"learner":{"attributes":{"best_iteration":"4","best_ntree_limit":"5","scikit_learn":"{\"objective\": \"reg:squarederror\", \"learning_rate\": 0.24, \"verbosity\": null, \"booster\": null, \"tree_method\": \"hist\", \"gamma\": null, \"min_child_weight\": 1.0, \"max_delta_step\": null, \"subsample\": 0.5, \"colsample_bytree\": 1.0, \"colsample_bylevel\": null, \"colsample_bynode\": null, \"reg_alpha\": null, \"reg_lambda\": null, \"scale_pos_weight\": null, \"base_score\": null, \"missing\": NaN, \"num_parallel_tree\": null, \"random_state\": 2020, \"n_jobs\": null, \"monotone_constraints\": null, \"interaction_constraints\": null, \"importance_type\": null, \"gpu_id\": null, \"validate_parameters\": null, \"predictor\": null, \"enable_categorical\": false, \"_estimator_type\": \"regressor\"}"},"feature_names":["FEATURE","DISPLAY","TPR_ONLY","STORE_NUM","UPC","PRICE","BASE_PRICE","STORE_ID","MSA_CODE","PARKING_SPACE_QTY","SALES_AREA_SIZE_NUM","AVG_WEEKLY_BASKETS"],"feature_types":["int","int","int","int","int","float","float","int","int","float","int","float"],"gradient_booster":{"model":{"gbtree_model_param":{"num_trees":"5","size_leaf_vector":"0"},"tree_info":[0,0,0,0,0],"trees":[{"base_weights":[3.495752E1,5.816622E1,2.556108E1,4.421913E1,1.138817E2,2.2418158E1,6.506127E1,6.1830154E1,1.2622291E1,9.27399E1,2.647037E2,3.0191916E1,1.2004541E1,9.972839E1,4.189113E1,5.7000973E1,9.964844E1,1.04359865E1,3.0314285E1,8.034E1,8.981218E1,6.505384E1,1.194E1,2.6946554E1,4.087683E1,1.0989141E1,2.3426966E1,7.260465E1,1.2707692E2,2.3854166E1,4.5762375E1,7.436244E1,4.290035E1,2.7004137E1,2.0763332E1,7.8239994E0,1.0010527E1,4.7041668E1,4.9649997E0,2.5109524E1,1.5034999E1,3.3059593E1,9.409863E0,3.466576E1,4.7851265E1,8.32234E0,1.3272978E1,1.7668919E1,1.1662499E1,1.19475E2,3.0520834E1,1.38625E2,8.9541664E1,1.3714286E1,2.6472221E1,4.7462765E1,4.815E0,1.9537098E1,1.5430303E1,1.8307087E1,6.2153126E1,1.144266E1,5.272059E0,3.1428572E1,1.378E1,2.397738E1,4.2063095E1,4.4436936E0,2.4383562E1,4.9787235E1,2.9264492E1,5.60625E1,3.7E1,1.2766233E1,4.0104165E0,1.825872E1,1.0938337E1,1.6652174E1,6.3399997E0,3.1759998E1,1.6179998E1,4.8866663E0,5.2285713E1,4.3454998E1,2.7805714E1,2.406E1,5.7599998E0,3.984E0,1.04E0,6.5223527E0,1.74E0,4.011321E1,5.5607143E1,2.6514286E1,1.5021505E1,1.085625E1,6.586822E1,1.1023474E1,5.8599997E0,2.9047618E0,6.1979165E0,8.22E0,1.74E0,3.5531467E1,1.7947842E1,5.9634617E1,3.406873E1,1.4034146E0,3.5957446E0,1.0613333E1,2.1261538E1,2.0960001E1,1.1082666E1,3.130625E1,6.24E0,1.3681395E1,2.4799998E0,3.77971E1,1.52E0,1.6144144E1,9.561983E0,1.3742857E0,3.6281407E0,6.737647E0,1.5726619E1,1.3903226E1,6.7707005E0,4.399091E0,3.1615384E0,1.665E1,5.31E0,2.9099998E0,9.971999E0,6.010811E1,4.46E0,8.16E0,5.5288887E0,1.872E0,3.6620224E0,1.7637274E1,1.4688837E1,1.967647E0,2.9432876E0,7.26E-1,6E-2,1.8927273E0,1.1022222E0,2.114E1,7.9173913E0,4.967678E0,1.5403637E0,2.19E1,1.3282051E1,6.4264746E0,9.712941E0,9.014173E-1,4.8E-1,6.24E0,4.6040816E0,1.0275E1,7.107945E0,9.1747055E0,1.02E0,4.2913637E0,2.185E0,2.3142856E-1,2.541111E0,8.759391E-1,2.4E-1,3.9495234E0,1.9285713E0,3.0046928E0,4.7753844E0,1.9024137E0,8.2E-1,2.1E0,1.471E1],"categories":[],"categories_nodes":[],"categories_segments":[],"categories_sizes":[],"default_left":[false,false,false,false,false,false,false,false,false,false,false,false,false,false,false,false,false,false,false,false,false,false,false,false,false,false,false,false,false,false,false,false,false,false,false,false,false,false,false,false,false,false,false,false,false,false,false,false,false,false,false,false,false,false,false,false,false,false,false,false,false,false,false,false,false,false,false,false,false,false,false,false,false,false,false,false,false,false,false,false,false,false,false,false,false,false,false,false,false,false,false,false,false,false,false,false,false,false,false,false,false,false,false,false,false,false,false,false,false,false,false,false,false,false,false,false,false,false,false,false,false,false,false,false,false,false,false,false,false,false,false,false,false,false,false,false,false,false,false,false,false,false,false,false,false,false,false,false,false,false,false,false,false,false,false,false,false,false,false,false,false,false,false,false,false,false,false,false,false,false,false,false,false,false,false,false,false],"id":0,"left_children":[1,3,5,7,9,11,13,15,17,19,21,23,25,27,29,31,33,35,37,-1,39,-1,-1,41,43,45,47,49,51,53,55,57,59,-1,-1,-1,61,63,-1,-1,-1,65,67,69,71,73,75,77,-1,79,81,83,85,87,89,91,-1,-1,-1,93,95,97,99,101,-1,103,105,107,109,111,113,115,117,119,121,123,125,127,-1,-1,-1,-1,129,-1,-1,-1,-1,-1,-1,-1,-1,131,133,135,137,-1,139,141,-1,143,145,-1,-1,147,149,151,153,-1,155,-1,157,-1,-1,159,-1,-1,-1,161,-1,163,165,-1,167,-1,169,171,173,-1,-1,-1,-1,-1,-1,175,-1,-1,-1,-1,-1,-1,-1,-1,-1,-1,-1,-1,-1,-1,-1,-1,-1,-1,-1,-1,-1,-1,-1,-1,-1,-1,-1,-1,-1,-1,-1,-1,-1,-1,-1,-1,-1,-1,-1,-1,-1,-1,-1],"loss_changes":[8.481495E5,8.668355E5,3.4304688E5,4.9947062E5,6.897085E5,2.078485E5,1.5968375E5,9.969825E4,1.2177309E4,1.1022575E5,2.3391875E4,4.994225E4,1.2512328E4,5.0859E4,7.56675E3,1.22641E5,1.0833125E3,2.3988984E3,4.66291E3,0E0,7.2709875E4,0E0,0E0,1.21042125E5,1.3112875E4,6.059258E3,1.2038523E4,8.117028E4,4.4921875E3,2.7407422E2,3.4614531E3,1.1004875E4,1.3427994E5,0E0,0E0,0E0,1.8737188E3,1.3930469E2,0E0,0E0,0E0,6.7597875E4,2.1754053E4,1.3571219E4,1.2003844E4,8.954818E3,6.1323906E3,2.1827734E2,0E0,4.4661875E3,4.24241E3,6.0765625E3,6.0161016E3,1.1756201E2,4.6640625E1,3.3960312E3,0E0,0E0,0E0,3.0263242E3,7.07725E3,9.164414E2,1.310376E2,2.2921436E2,0E0,2.8621938E4,5.6967062E4,2.4324463E2,3.5811523E3,2.3366328E3,1.0584375E2,3.207E3,1.4961797E3,2.3458984E3,1.3664038E2,3.8330586E3,4.514867E3,1.6120898E2,0E0,0E0,0E0,0E0,2.0730527E3,0E0,0E0,0E0,0E0,0E0,0E0,0E0,0E0,1.6275078E3,5.882E3,1.277793E2,4.009961E1,0E0,8.78125E1,6.4571484E2,0E0,5.9470215E0,9.3885376E1,0E0,0E0,1.6199672E4,8.684203E3,1.2593219E4,1.2500406E4,0E0,2.8524292E1,0E0,1.4120703E2,0E0,0E0,2.8751562E2,0E0,0E0,0E0,8.348125E2,0E0,1.1942051E3,1.0571387E3,0E0,7.6499023E0,0E0,6.478711E2,1.5506953E3,5.8165967E2,0E0,0E0,0E0,0E0,0E0,0E0,1.71275E3,0E0,0E0,0E0,0E0,0E0,0E0,0E0,0E0,0E0,0E0,0E0,0E0,0E0,0E0,0E0,0E0,0E0,0E0,0E0,0E0,0E0,0E0,0E0,0E0,0E0,0E0,0E0,0E0,0E0,0E0,0E0,0E0,0E0,0E0,0E0,0E0,0E0,0E0,0E0,0E0,0E0,0E0,0E0],"parents":[2147483647,0,0,1,1,2,2,3,3,4,4,5,5,6,6,7,7,8,8,9,9,10,10,11,11,12,12,13,13,14,14,15,15,16,16,17,17,18,18,20,20,23,23,24,24,25,25,26,26,27,27,28,28,29,29,30,30,31,31,32,32,36,36,37,37,41,41,42,42,43,43,44,44,45,45,46,46,47,47,49,49,50,50,51,51,52,52,53,53,54,54,55,55,59,59,60,60,61,61,62,62,63,63,65,65,66,66,67,67,68,68,69,69,70,70,71,71,72,72,73,73,74,74,75,75,76,76,77,77,82,82,91,91,92,92,93,93,94,94,96,96,97,97,99,99,100,100,103,103,104,104,105,105,106,106,108,108,110,110,113,113,117,117,119,119,120,120,122,122,124,124,125,125,126,126,133,133],"right_children":[2,4,6,8,10,12,14,16,18,20,22,24,26,28,30,32,34,36,38,-1,40,-1,-1,42,44,46,48,50,52,54,56,58,60,-1,-1,-1,62,64,-1,-1,-1,66,68,70,72,74,76,78,-1,80,82,84,86,88,90,92,-1,-1,-1,94,96,98,100,102,-1,104,106,108,110,112,114,116,118,120,122,124,126,128,-1,-1,-1,-1,130,-1,-1,-1,-1,-1,-1,-1,-1,132,134,136,138,-1,140,142,-1,144,146,-1,-1,148,150,152,154,-1,156,-1,158,-1,-1,160,-1,-1,-1,162,-1,164,166,-1,168,-1,170,172,174,-1,-1,-1,-1,-1,-1,176,-1,-1,-1,-1,-1,-1,-1,-1,-1,-1,-1,-1,-1,-1,-1,-1,-1,-1,-1,-1,-1,-1,-1,-1,-1,-1,-1,-1,-1,-1,-1,-1,-1,-1,-1,-1,-1,-1,-1,-1,-1,-1,-1],"split_conditions":[2.0662006E9,1.6000275E9,1E0,2.49E0,1E0,3.9E0,2.83E0,2E0,1E0,1.65E0,3E0,7.797508E9,1E0,3.7000315E9,5.79E0,1.1110354E9,2.01E0,1.23E0,3.05E0,8.034E1,3.32E0,6.505384E1,1.194E1,7.11041E9,3.11E0,7.0273126E9,6.59E0,2.98E0,8.849121E10,3.700045E9,7.49E0,1.5E0,1.1110853E9,2.7004137E1,2.0763332E1,7.8239994E0,4.07E0,2.97E0,4.9649997E0,2.5109524E1,1.5034999E1,3.700045E9,7.1921004E9,2.54E0,3.29E0,3.8000317E9,7.218063E9,5.79E0,1.1662499E1,2E0,1E0,2.06E0,2.06E0,3E0,4.59E0,6.9E0,4.815E0,1.9537098E1,1.5430303E1,1.23E0,1.86E0,1E0,4.59E0,2.96E0,1.378E1,2.89E0,3.8000392E9,2.01E0,2.06E0,2.01E0,8.849121E10,3.81E0,3.77E0,3.0000067E9,4.42E0,6.29E0,6.11E0,4.83E0,6.3399997E0,3.1759998E1,1.6179998E1,4.8866663E0,3.0000067E9,4.3454998E1,2.7805714E1,2.406E1,5.7599998E0,3.984E0,1.04E0,6.5223527E0,1.74E0,2.8400023E9,5.1E0,1E0,1.55E0,1.085625E1,1.86E0,1.1110381E9,5.8599997E0,4.55E0,4.79E0,8.22E0,1.74E0,1.99E0,3.0000067E9,2.57E0,7.027316E9,1.4034146E0,2.59E0,1.0613333E1,2.47E0,2.0960001E1,1.1082666E1,2.91E0,6.24E0,1.3681395E1,2.4799998E0,8.849121E10,1.52E0,6.11E0,3.7000195E9,1.3742857E0,1E0,6.737647E0,7.49E0,1E0,6.9E0,4.399091E0,3.1615384E0,1.665E1,5.31E0,2.9099998E0,9.971999E0,4.48E0,4.46E0,8.16E0,5.5288887E0,1.872E0,3.6620224E0,1.7637274E1,1.4688837E1,1.967647E0,2.9432876E0,7.26E-1,6E-2,1.8927273E0,1.1022222E0,2.114E1,7.9173913E0,4.967678E0,1.5403637E0,2.19E1,1.3282051E1,6.4264746E0,9.712941E0,9.014173E-1,4.8E-1,6.24E0,4.6040816E0,1.0275E1,7.107945E0,9.1747055E0,1.02E0,4.2913637E0,2.185E0,2.3142856E-1,2.541111E0,8.759391E-1,2.4E-1,3.9495234E0,1.9285713E0,3.0046928E0,4.7753844E0,1.9024137E0,8.2E-1,2.1E0,1.471E1],"split_indices":[4,4,0,6,0,6,5,6,1,5,5,4,1,4,6,4,5,5,5,0,5,0,0,4,6,4,6,6,4,4,6,5,4,0,0,0,5,5,0,0,0,4,4,5,5,4,4,6,0,5,1,5,5,5,5,6,0,0,0,5,6,0,5,5,0,5,4,5,5,5,4,6,5,4,5,5,5,5,0,0,0,0,4,0,0,0,0,0,0,0,0,4,5,2,6,0,5,4,0,5,5,0,0,5,4,5,4,0,5,0,5,0,0,5,0,0,0,4,0,5,4,0,2,0,5,2,6,0,0,0,0,0,0,5,0,0,0,0,0,0,0,0,0,0,0,0,0,0,0,0,0,0,0,0,0,0,0,0,0,0,0,0,0,0,0,0,0,0,0,0,0,0,0,0,0,0,0],"split_type":[0,0,0,0,0,0,0,0,0,0,0,0,0,0,0,0,0,0,0,0,0,0,0,0,0,0,0,0,0,0,0,0,0,0,0,0,0,0,0,0,0,0,0,0,0,0,0,0,0,0,0,0,0,0,0,0,0,0,0,0,0,0,0,0,0,0,0,0,0,0,0,0,0,0,0,0,0,0,0,0,0,0,0,0,0,0,0,0,0,0,0,0,0,0,0,0,0,0,0,0,0,0,0,0,0,0,0,0,0,0,0,0,0,0,0,0,0,0,0,0,0,0,0,0,0,0,0,0,0,0,0,0,0,0,0,0,0,0,0,0,0,0,0,0,0,0,0,0,0,0,0,0,0,0,0,0,0,0,0,0,0,0,0,0,0,0,0,0,0,0,0,0,0,0,0,0,0],"sum_hessian":[3.895E3,1.121E3,2.774E3,8.98E2,2.23E2,2.571E3,2.03E2,5.76E2,3.22E2,1.97E2,2.6E1,1.471E3,1.1E3,8E1,1.23E2,5.13E2,6.3E1,2.88E2,3.4E1,1E0,1.96E2,2.5E1,1E0,1.131E3,3.4E2,1.012E3,8.8E1,4.2E1,3.8E1,2.3E1,1E2,2.28E2,2.85E2,2.8E1,3.5E1,4E0,2.84E2,1.1E1,2.3E1,1.25E2,7.1E1,8.38E2,2.93E2,1.83E2,1.57E2,4.69E2,5.43E2,7.3E1,1.5E1,1.9E1,2.3E1,2.7E1,1.1E1,6E0,1.7E1,9.3E1,7E0,1.3E2,9.8E1,1.26E2,1.59E2,2.17E2,6.7E1,6E0,5E0,4.19E2,4.19E2,2.21E2,7.2E1,4.6E1,1.37E2,8.7E1,7E1,2.3E2,2.39E2,1.71E2,3.72E2,6.8E1,5E0,1.4E1,5E0,1.7E1,6E0,7E0,2E1,9E0,2E0,4E0,2E0,1.6E1,1E0,5.2E1,4.1E1,3.4E1,9.2E1,3.1E1,1.28E2,2.12E2,5E0,2E1,4.7E1,5E0,1E0,1.42E2,2.77E2,1.29E2,2.9E2,8.1E1,1.4E2,8E0,6.4E1,2E0,4.4E1,7.9E1,5.8E1,8.5E1,2E0,6.8E1,2E0,1.1E2,1.2E2,4.1E1,1.98E2,3.3E1,1.38E2,2.16E2,1.56E2,4.3E1,2.5E1,3E0,3E0,3E0,4.9E1,3.6E1,5E0,8E0,2.6E1,4E0,8.8E1,4.3E1,8.5E1,6.7E1,1.45E2,1.9E1,1E0,2.1E1,2.6E1,5E0,1.37E2,2.23E2,5.4E1,1.3E1,1.16E2,1.38E2,1.52E2,1.26E2,1.4E1,1.6E1,4.8E1,7E0,7.2E1,6.7E1,1E0,8.7E1,2.3E1,1.3E1,1.07E2,1.96E2,2E0,1.25E2,1.3E1,1.78E2,3.8E1,1.15E2,4.1E1,1E0,3.5E1],"tree_param":{"num_deleted":"0","num_feature":"12","num_nodes":"177","size_leaf_vector":"0"}},{"base_weights":[2.7754362E1,2.4350039E1,7.3642235E1,4.0558517E1,1.7228786E1,1.1255821E2,3.5868076E1,3.2960373E1,7.20198E1,2.3108505E1,8.917994E0,1.6571654E2,8.193571E1,2.556615E1,4.243167E1,4.7537567E1,8.582638E0,7.06992E1,6.963666E1,2.1300928E1,4.450672E1,8.152708E0,1.7418352E1,7.006415E1,2.3153737E2,5.1102524E1,1.07089424E2,1.7247864E1,3.1093151E1,4.829614E1,2.8977875E1,4.378893E1,7.913532E1,7.5258737E0,2.3563637E1,8.109989E1,1.1660567E1,1.9171125E1,2.9913746E1,4.935301E1,1.7167622E1,5.8659244E0,9.989046E0,1.3858669E1,3.4989643E1,9.742032E0,2.3621893E1,1.08311386E2,1.9727516E2,7.959053E1,2.5347101E1,1.3517065E2,1.9010296E1,1.8701765E1,3.5200056E-1,3.2409805E1,1.7095999E0,5.483794E1,3.4470287E1,1.3980841E1,3.243248E1,5.6236145E1,3.30321E1,2.371766E1,5.8164516E1,8.516452E0,5.0901203E0,8.433599E0,1.8091764E1,2.5545904E1,1.874173E1,2.3325373E1,7.286898E0,2.5788134E1,3.40626E1,6.545862E1,4.1635307E1,6.2902875E0,6.408951E0,1.206489E1,4.1369486E0,1.3879515E1,8.419146E0,9.012109E0,1.3019735E1,9.1636E0,2.5340002E0,4.9312614E1,1.5831385E1,2.2810629E1,3.0266666E1,2.7651403E1,2.76512E0,3.6432587E1,9.428E1,3.2901535E0,2.494511E1,3.033601E-1,-1.766399E-1,3.83905E1,2.44035E1,3.4285454E1,6.118014E1,5.3978395E0,3.8853428E1,5.9731764E-1,3.7155294E0,8.383661E0,4.0675197E0,1.4666872E1,5.0616917E1,1.4416939E1,4.6042664E1,-2.1915998E0,1.4570906E1,4.32168E0,8.308027E0,5.7620797E0,3.2764285E0,1.1442E0,4.4703746E0,1.6860956E1,3.0422901E1,3.3578463E0,2.0314074E1,8.934E0,5.198551E0,9.66459E0,2.9447407E1,3.990865E1,1.0045784E2,3.847546E1,2.0007349E1,3.2541928E0,1.9127418E0,3.19979E0,7.9824004E0,2.8257494E0,3.7529695E0,1.7489122E1,2.7787452E0,1.0841208E1,5.4400625E0,6.5614545E-1,1.3270969E1,8.79744E0,-2.015998E-1,1.5550556E1,7.4069715E0,2.5393372E1,8.630401E0,6.48318E0,1.0079999E0,4.096512E0,1.0578079E1,7.1248E0,7.09664E0,3.5163E0,9.55605E0,3.0400494E1,5.0874306E1,1.0375775E1,5.357952E0,3.8511515E0,1.2260827E1,4.861763E0,2.908151E0,8.790731E0,1.1719007E1,1.4721135E0,2.232989E0,1.4860798E-1,1.4577203E0,6.029333E-1,9.0510213E-1,5.5511374E0,2.4883115E0,9.947679E0,5.8408113E0,1.1077944E0,6.555843E-1,8.509155E0,4.238439E0,7.166632E0,2.130977E0,1.2678806E1,2.4512796E0,2.8474413E1,1.2304658E1,4.734705E0,9.525296E0,4.127345E-1,1.1270466E0,1.435875E0,2.49204E0,1.3078969E0,6.575531E-1,5.770094E0,3.8683887E0,2.4818513E0,7.0991263E0,1.4389589E0,6.606E-1,1.6601818E0,3.2753973E0,4.6411204E0,-4.0639994E-1,2.7033598E0,7.857601E-1,3.1654117E0,1.2858678E1],"categories":[],"categories_nodes":[],"categories_segments":[],"categories_sizes":[],"default_left":[false,false,false,false,false,false,false,false,false,false,false,false,false,false,false,false,false,false,false,false,false,false,false,false,false,false,false,false,false,false,false,false,false,false,false,false,false,false,false,false,false,false,false,false,false,false,false,false,false,false,false,false,false,false,false,false,false,false,false,false,false,false,false,false,false,false,false,false,false,false,false,false,false,false,false,false,false,false,false,false,false,false,false,false,false,false,false,false,false,false,false,false,false,false,false,false,false,false,false,false,false,false,false,false,false,false,false,false,false,false,false,false,false,false,false,false,false,false,false,false,false,false,false,false,false,false,false,false,false,false,false,false,false,false,false,false,false,false,false,false,false,false,false,false,false,false,false,false,false,false,false,false,false,false,false,false,false,false,false,false,false,false,false,false,false,false,false,false,false,false,false,false,false,false,false,false,false,false,false,false,false,false,false,false,false,false,false,false,false,false,false,false,false,false,false,false,false,false,false,false,false,false,false,false,false,false,false,false,false,false,false],"id":1,"left_children":[1,3,5,7,9,11,13,15,17,19,21,23,25,27,29,31,33,-1,35,37,39,41,43,45,47,49,51,53,55,57,59,61,63,65,67,69,-1,71,73,75,77,79,81,83,85,-1,-1,-1,87,89,91,93,-1,95,97,99,-1,101,103,105,107,109,111,-1,113,115,117,-1,119,-1,-1,121,123,125,127,129,131,-1,133,135,137,139,141,-1,143,-1,-1,-1,-1,-1,145,147,-1,-1,149,-1,151,-1,-1,153,155,157,159,-1,161,-1,-1,-1,-1,-1,163,165,167,-1,-1,-1,169,171,173,-1,-1,175,177,179,181,-1,-1,-1,183,185,187,189,-1,191,-1,-1,193,-1,195,197,-1,199,201,-1,203,-1,-1,205,-1,-1,-1,-1,-1,-1,-1,207,-1,-1,-1,-1,209,-1,-1,-1,-1,-1,-1,-1,-1,-1,-1,-1,-1,-1,-1,-1,-1,-1,-1,-1,-1,-1,-1,-1,-1,-1,-1,-1,-1,-1,-1,-1,-1,-1,-1,-1,-1,-1,-1,-1,-1,-1,-1,-1,-1,-1,-1,-1,-1,-1,-1],"loss_changes":[6.1682675E5,4.2498725E5,3.9727775E5,2.665545E5,1.25084125E5,2.045525E5,8.381656E3,3.2225794E5,9.5111625E4,5.7109E4,6.7795234E3,2.8598175E5,6.2002E4,2.084293E3,5.2280312E3,6.38135E4,5.221164E3,0E0,4.84245E4,2.485075E4,1.4521922E4,4.0483281E3,4.9567812E3,1.35575625E4,1.2179525E5,2.8065164E4,2.6089562E4,6.0754004E2,8.1061523E2,3.2651406E3,9.972168E2,6.642769E4,1.8611812E4,7.2875E2,7.5783203E2,2.28825E3,0E0,5.482825E4,3.7944062E3,9.455844E3,1.6803242E3,4.6445127E3,3.1873828E3,9.81917E2,6.8866016E2,0E0,0E0,0E0,1.442175E4,1.1605867E4,4.1416992E2,6.499375E2,0E0,3.7497803E2,3.9070716E0,5.475176E2,0E0,2.725289E3,2.2879492E2,8.217847E1,2.594297E2,3.3453125E3,6.618166E4,0E0,5.8691484E3,2.9743945E2,9.690015E1,0E0,3.2335938E1,0E0,0E0,3.7339188E4,1.4775279E4,5.8496875E3,2.623875E3,2.2817742E4,5.8906094E3,0E0,2.3304565E1,3.8518457E2,9.645757E2,1.0768145E3,2.7406484E3,0E0,1.5236035E2,0E0,0E0,0E0,0E0,0E0,1.2232959E3,2.5832812E2,0E0,0E0,2.2448438E3,0E0,2.7267822E2,0E0,0E0,1.1870508E3,1.2174658E3,6.1128906E2,1.17785E4,0E0,4.8140625E1,0E0,0E0,0E0,0E0,0E0,1.0482188E3,1.299084E3,2.4614062E3,0E0,0E0,0E0,4.2588672E2,1.0526465E2,1.1140442E0,0E0,0E0,1.742536E4,2.5296375E4,1.6385718E2,2.0660684E3,0E0,0E0,0E0,4.153672E2,6.749793E3,4.6514375E3,7.1825E2,0E0,2.9863434E0,0E0,0E0,5.7907715E1,0E0,5.505991E2,1.3349805E2,0E0,1.6904043E3,2.4630225E2,0E0,7.544336E1,0E0,0E0,4.246073E2,0E0,0E0,0E0,0E0,0E0,0E0,0E0,4.281781E1,0E0,0E0,0E0,0E0,1.8404141E3,0E0,0E0,0E0,0E0,0E0,0E0,0E0,0E0,0E0,0E0,0E0,0E0,0E0,0E0,0E0,0E0,0E0,0E0,0E0,0E0,0E0,0E0,0E0,0E0,0E0,0E0,0E0,0E0,0E0,0E0,0E0,0E0,0E0,0E0,0E0,0E0,0E0,0E0,0E0,0E0,0E0,0E0,0E0,0E0,0E0,0E0,0E0,0E0,0E0,0E0],"parents":[2147483647,0,0,1,1,2,2,3,3,4,4,5,5,6,6,7,7,8,8,9,9,10,10,11,11,12,12,13,13,14,14,15,15,16,16,18,18,19,19,20,20,21,21,22,22,23,23,24,24,25,25,26,26,27,27,28,28,29,29,30,30,31,31,32,32,33,33,34,34,35,35,37,37,38,38,39,39,40,40,41,41,42,42,43,43,44,44,48,48,49,49,50,50,51,51,53,53,54,54,55,55,57,57,58,58,59,59,60,60,61,61,62,62,64,64,65,65,66,66,68,68,71,71,72,72,73,73,74,74,75,75,76,76,78,78,79,79,80,80,81,81,82,82,84,84,90,90,91,91,94,94,96,96,99,99,100,100,101,101,102,102,104,104,110,110,111,111,112,112,116,116,117,117,118,118,121,121,122,122,123,123,124,124,128,128,129,129,130,130,131,131,133,133,136,136,138,138,139,139,141,141,142,142,144,144,147,147,155,155,160,160],"right_children":[2,4,6,8,10,12,14,16,18,20,22,24,26,28,30,32,34,-1,36,38,40,42,44,46,48,50,52,54,56,58,60,62,64,66,68,70,-1,72,74,76,78,80,82,84,86,-1,-1,-1,88,90,92,94,-1,96,98,100,-1,102,104,106,108,110,112,-1,114,116,118,-1,120,-1,-1,122,124,126,128,130,132,-1,134,136,138,140,142,-1,144,-1,-1,-1,-1,-1,146,148,-1,-1,150,-1,152,-1,-1,154,156,158,160,-1,162,-1,-1,-1,-1,-1,164,166,168,-1,-1,-1,170,172,174,-1,-1,176,178,180,182,-1,-1,-1,184,186,188,190,-1,192,-1,-1,194,-1,196,198,-1,200,202,-1,204,-1,-1,206,-1,-1,-1,-1,-1,-1,-1,208,-1,-1,-1,-1,210,-1,-1,-1,-1,-1,-1,-1,-1,-1,-1,-1,-1,-1,-1,-1,-1,-1,-1,-1,-1,-1,-1,-1,-1,-1,-1,-1,-1,-1,-1,-1,-1,-1,-1,-1,-1,-1,-1,-1,-1,-1,-1,-1,-1,-1,-1,-1,-1,-1,-1],"split_conditions":[1E0,2.0662006E9,2.83E0,1.6000275E9,3.9E0,2.0662006E9,1E0,2.49E0,1.65E0,1E0,1E0,1.1110874E9,3.7000315E9,4.77E0,7.218063E9,2E0,1E0,7.06992E1,3.31E0,7.797508E9,2.75E0,7.0273126E9,6.46E0,1.61E0,1.79E0,2.98E0,2.19E0,4.55E0,7.49E0,4.97E0,4E0,1.1110354E9,2.01E0,4E0,3.02E0,2.54E0,1.1660567E1,7.11041E9,3.01E0,4.1167094E9,3E0,2.8400023E9,7.218063E9,1.99E0,7.09E0,9.742032E0,2.3621893E1,1.08311386E2,2.75E0,2E0,2.47E0,4.1167094E9,1.9010296E1,5.03E0,7.218064E9,5.1E0,1.7095999E0,1.6000275E9,6.46E0,3.89E0,6.9E0,1.5E0,1.1110853E9,2.371766E1,1.1110853E9,1.23E0,4.79E0,8.433599E0,3.27E0,2.5545904E1,1.874173E1,3.700045E9,7.1921004E9,2.6E0,3.28E0,3.7000315E9,3.1254743E10,6.2902875E0,3.17E0,6.11E0,3.6E0,6.49E0,5.99E0,9.012109E0,3E0,9.1636E0,2.5340002E0,4.9312614E1,1.5831385E1,2.2810629E1,2.32E0,2E0,2.76512E0,3.6432587E1,3.01E0,3.2901535E0,6.9E0,3.033601E-1,-1.766399E-1,6.29E0,5.49E0,3.99E0,2.0662006E9,5.3978395E0,5.1E0,5.9731764E-1,3.7155294E0,8.383661E0,4.0675197E0,1.4666872E1,1.49E0,1.23E0,1.86E0,-2.1915998E0,1.4570906E1,4.32168E0,3.07E0,1.1110381E9,4.83E0,1.1442E0,4.4703746E0,2.98E0,3.8000392E9,2.02E0,2.01E0,8.934E0,5.198551E0,9.66459E0,8.849121E10,2.92E0,2.5E0,7.027316E9,2.0007349E1,3.7000315E9,1.9127418E0,3.19979E0,6.59E0,2.8257494E0,3.8000317E9,5.29E0,2.7787452E0,6.46E0,7.19E0,6.5614545E-1,3.700045E9,8.79744E0,-2.015998E-1,3.0000064E9,7.4069715E0,2.5393372E1,8.630401E0,6.48318E0,1.0079999E0,4.096512E0,1.0578079E1,6.3E0,7.09664E0,3.5163E0,9.55605E0,3.0400494E1,3.8000317E9,1.0375775E1,5.357952E0,3.8511515E0,1.2260827E1,4.861763E0,2.908151E0,8.790731E0,1.1719007E1,1.4721135E0,2.232989E0,1.4860798E-1,1.4577203E0,6.029333E-1,9.0510213E-1,5.5511374E0,2.4883115E0,9.947679E0,5.8408113E0,1.1077944E0,6.555843E-1,8.509155E0,4.238439E0,7.166632E0,2.130977E0,1.2678806E1,2.4512796E0,2.8474413E1,1.2304658E1,4.734705E0,9.525296E0,4.127345E-1,1.1270466E0,1.435875E0,2.49204E0,1.3078969E0,6.575531E-1,5.770094E0,3.8683887E0,2.4818513E0,7.0991263E0,1.4389589E0,6.606E-1,1.6601818E0,3.2753973E0,4.6411204E0,-4.0639994E-1,2.7033598E0,7.857601E-1,3.1654117E0,1.2858678E1],"split_indices":[0,4,5,4,6,4,1,6,5,1,1,4,4,5,4,6,1,0,5,4,5,4,6,5,5,6,5,5,6,5,5,4,5,5,5,5,0,4,6,4,5,4,4,5,6,0,0,0,5,5,5,4,0,6,4,5,0,4,6,6,6,5,4,0,4,5,5,0,5,0,0,4,4,5,6,4,4,0,6,5,5,5,5,0,5,0,0,0,0,0,5,5,0,0,6,0,6,0,0,6,5,6,4,0,5,0,0,0,0,0,6,5,6,0,0,0,5,4,5,0,0,6,4,6,5,0,0,0,4,6,5,4,0,4,0,0,5,0,4,5,0,6,6,0,4,0,0,4,0,0,0,0,0,0,0,6,0,0,0,0,4,0,0,0,0,0,0,0,0,0,0,0,0,0,0,0,0,0,0,0,0,0,0,0,0,0,0,0,0,0,0,0,0,0,0,0,0,0,0,0,0,0,0,0,0,0,0,0,0,0,0],"split_type":[0,0,0,0,0,0,0,0,0,0,0,0,0,0,0,0,0,0,0,0,0,0,0,0,0,0,0,0,0,0,0,0,0,0,0,0,0,0,0,0,0,0,0,0,0,0,0,0,0,0,0,0,0,0,0,0,0,0,0,0,0,0,0,0,0,0,0,0,0,0,0,0,0,0,0,0,0,0,0,0,0,0,0,0,0,0,0,0,0,0,0,0,0,0,0,0,0,0,0,0,0,0,0,0,0,0,0,0,0,0,0,0,0,0,0,0,0,0,0,0,0,0,0,0,0,0,0,0,0,0,0,0,0,0,0,0,0,0,0,0,0,0,0,0,0,0,0,0,0,0,0,0,0,0,0,0,0,0,0,0,0,0,0,0,0,0,0,0,0,0,0,0,0,0,0,0,0,0,0,0,0,0,0,0,0,0,0,0,0,0,0,0,0,0,0,0,0,0,0,0,0,0,0,0,0,0,0,0,0,0,0],"sum_hessian":[3.959E3,3.687E3,2.72E2,1.124E3,2.563E3,1.33E2,1.39E2,9.07E2,2.17E2,1.5E3,1.063E3,4.7E1,8.6E1,5.6E1,8.3E1,5.67E2,3.4E2,1E0,2.16E2,1.385E3,1.15E2,9.77E2,8.6E1,2E1,2.7E1,4E1,4.6E1,2.4E1,3.2E1,5.6E1,2.7E1,5.09E2,5.8E1,3.19E2,2.1E1,1.38E2,7.8E1,1.113E3,2.72E2,9.7E1,1.8E1,4.37E2,5.4E2,7.3E1,1.3E1,1.1E1,9E0,2E0,2.5E1,1.8E1,2.2E1,2.1E1,2.5E1,2.2E1,2E0,3E1,2E0,3.6E1,2E1,6E0,2.1E1,2.34E2,2.75E2,2.8E1,3E1,2.25E2,9.4E1,5E0,1.6E1,1.1E1,1.27E2,8.24E2,2.89E2,1.4E2,1.32E2,2.9E1,6.8E1,9E0,9E0,9.4E1,3.43E2,1.53E2,3.87E2,1E0,7.2E1,1.1E1,2E0,2.3E1,2E0,1.3E1,5E0,1.8E1,4E0,1.3E1,8E0,1.4E1,8E0,1E0,1E0,1.5E1,1.5E1,1E1,2.6E1,7E0,1.3E1,1E0,5E0,1.7E1,4E0,1.2E2,1.14E2,1.14E2,1.61E2,1E0,2.9E1,3E0,2.22E2,6.7E1,2.7E1,1E0,1.5E1,4.33E2,3.91E2,2.23E2,6.6E1,3.5E1,1.05E2,5.3E1,7.9E1,1.8E1,1.1E1,6.5E1,3E0,4E0,5E0,7E1,2.4E1,1.5E1,3.28E2,5.7E1,9.6E1,2.12E2,1.75E2,2E0,7E1,4E0,1E0,5E0,1.3E1,6E0,2E0,7E0,1E0,4E0,1.1E1,4E0,1.1E1,3E0,7E0,2E0,2.4E1,9E0,4E0,2E0,1.12E2,3E1,8.4E1,4E1,1.21E2,7.2E1,1.5E2,4E0,6.3E1,1.3E1,1.4E1,2.19E2,2.14E2,1.37E2,2.54E2,7.2E1,1.51E2,8E0,5.8E1,7.7E1,2E0,1.2E1,6E0,7E0,4E0,5E0,6E1,3E0,1E0,1.5E1,9E0,1.21E2,2.07E2,7E0,5E1,2.08E2,4E0,1.44E2,3.1E1,5E0,6.5E1,4E0,1E0,1E0,3E0,2E0,2.2E1],"tree_param":{"num_deleted":"0","num_feature":"12","num_nodes":"211","size_leaf_vector":"0"}},{"base_weights":[2.1289173E1,2.9172531E1,9.761333E0,2.6144384E1,7.2374756E1,8.512191E0,2.4191202E1,3.7437866E1,1.871934E1,4.125181E1,8.01364E1,1.3840649E1,7.3923664E0,1.1469277E1,2.6843418E1,3.1838808E1,6.783391E1,1.7218683E1,3.473326E1,6.5916084E1,1.703624E1,3.450208E1,6.7860596E1,6.1137023E0,3.545437E1,1.1626305E1,6.69961E0,1.6198161E-1,1.1909252E1,3.678098E1,2.2623026E1,3.629842E1,9.851891E0,6.2215298E1,6.4495926E1,1.5923935E1,2.7680065E1,3.737751E1,1.6201143E1,6.49881E0,1.838531E1,4.7843103E0,2.3121185E0,8.548091E1,4.75277E1,9.395106E0,4.3996015E0,3.4087095E0,8.611958E0,3.6969194E0,1.4819576E1,4.1214695E0,7.7390127E0,1.36554E1,7.675756E0,1.4528184E0,9.031635E0,2.6155098E1,1.5113444E1,4.55816E1,2.9885475E1,8.042522E0,3.576093E1,1.68729E1,1.2771975E1,1.9031025E1,1.0113313E1,1.7741404E1,3.2673668E1,3.569729E1,1.6406027E1,4.6038175E0,2.3106024E0,2.6710781E1,2.2438818E1,2.8003296E1,5.9220757E1,8.432573E0,1.9258978E1,3.895524E0,2.389959E0,2.638176E0,6.917987E0,2.9033978E1,9.06313E0,5.910814E0,1.9475644E0,9.207852E0,5.877894E0,1.0357434E1,4.3631625E0,1.0715808E0,2.244346E0,1.9899206E1,7.2515435E0,5.139592E0,3.989896E0,4.6268314E1,6.3342047E0,1.0947324E1,4.1549213E1,5.869597E0,7.116198E0,9.785279E0,3.316434E0,1.2785355E1,2.2438349E1,2.7686048E0,1.721783E1,3.683309E0,9.514359E0,8.870585E0,2.8838692E1,4.3418854E1,2.8613403E1,1.5155542E0,7.789673E0,4.6130844E1,3.191845E0,6.3482624E1,1.4582485E1,6.452609E0,2.603936E0,8.7884676E-1,5.33827E0,4.149518E0,1.2849528E0,2.111164E0,1.6448385E0,4.256282E-1,1.7338678E0,2.8327415E0,7.7260766E0,5.202196E0,1.4348709E1,5.393833E0,9.948048E0,1.7549202E0,4.0647297E0,7.961191E0,1.9765203E1,7.981464E0,3.987085E0,1.4292632E1,4.695997E0,8.389017E0,4.0322175E0,1.9274247E-1,1.8630944E0,1.068696E1,1.4017137E1,3.5540504E0,2.215987E0,8.052206E0,1.2934226E1,1.2536169E0,3.1420429E0,5.994864E0,2.8332813E0,5.5315466E0,1.6973733E0,8.328747E-1,5.546484E-1,3.514759E0,5.852793E0,7.092572E0,-8.2151824E-1,8.391614E0,1.9945965E1,7.2853904E0,3.0784447E0,1.4404239E1,5.5242853E0,1.0691392E1,1.7547441E1,4.315969E0,5.2563953E-1,1.6561913E0,1.0419091E0,9.15509E-1,1.4701532E0,8.9912105E-1,1.7294745E-1,1.6870416E0,3.910289E-1,1.3774961E0,8.2997245E-1,3.5036879E0,6.418827E-1,-9.0868264E-2,1.3042965E0,3.2882676E0,1.3381158E0,6.974027E-1,3.558984E-1,7.367657E-1,1.6816148E0,1.6779149E0,2.5544307E0,5.3665595E0,2.0890965E0,4.2903906E-1,2.2867272E0,1.186799E0,7.4337655E-1,3.8753805E0,6.022441E-1,1.4038157E-1,1.2962946E0],"categories":[],"categories_nodes":[],"categories_segments":[],"categories_sizes":[],"default_left":[false,false,false,false,false,false,false,false,false,false,false,false,false,false,false,false,false,false,false,false,false,false,false,false,false,false,false,false,false,false,false,false,false,false,false,false,false,false,false,false,false,false,false,false,false,false,false,false,false,false,false,false,false,false,false,false,false,false,false,false,false,false,false,false,false,false,false,false,false,false,false,false,false,false,false,false,false,false,false,false,false,false,false,false,false,false,false,false,false,false,false,false,false,false,false,false,false,false,false,false,false,false,false,false,false,false,false,false,false,false,false,false,false,false,false,false,false,false,false,false,false,false,false,false,false,false,false,false,false,false,false,false,false,false,false,false,false,false,false,false,false,false,false,false,false,false,false,false,false,false,false,false,false,false,false,false,false,false,false,false,false,false,false,false,false,false,false,false,false,false,false,false,false,false,false,false,false,false,false,false,false,false,false,false,false,false,false,false,false,false,false,false,false,false,false,false,false,false,false,false,false,false,false,false,false,false,false,false,false],"id":2,"left_children":[1,3,5,7,9,11,13,15,17,19,21,23,25,27,29,31,33,35,37,39,41,-1,43,45,47,49,51,-1,53,55,57,59,61,-1,63,65,67,69,71,-1,-1,-1,-1,73,75,77,79,-1,-1,81,83,85,87,89,91,-1,-1,93,95,97,99,101,103,-1,-1,105,107,109,111,113,-1,-1,-1,115,-1,117,119,121,123,125,-1,127,129,131,133,135,137,139,141,143,-1,-1,-1,145,-1,147,-1,149,-1,151,153,-1,155,-1,-1,157,159,161,163,-1,-1,-1,165,167,169,-1,-1,171,-1,173,175,177,-1,-1,-1,179,181,183,-1,-1,-1,-1,-1,185,187,189,191,193,195,197,199,201,203,205,207,-1,-1,-1,-1,-1,-1,-1,-1,-1,-1,-1,-1,-1,-1,-1,-1,-1,-1,-1,-1,-1,-1,-1,-1,-1,-1,-1,-1,-1,-1,-1,-1,-1,-1,-1,-1,-1,-1,-1,-1,-1,-1,-1,-1,-1,-1,-1,-1,-1,-1,-1,-1,-1,-1,-1,-1,-1,-1,-1,-1,-1,-1,-1,-1],"loss_changes":[3.6322775E5,3.0881175E5,2.910264E4,1.8554025E5,3.4136875E4,8.836156E3,4.0447578E3,1.4760675E5,3.1652062E4,1.8586598E4,8.630919E4,4.303833E4,3.5591328E3,1.0594409E2,3.6135781E3,7.269194E4,7.0168E4,1.6205844E4,4.980828E3,4.5680625E3,1.9414453E2,0E0,3.3555812E4,1.0385991E3,1.0999219E2,4.3256914E3,2.8300508E3,0E0,6.520776E1,5.5652344E2,1.6470859E3,3.5488438E4,5.6660244E3,0E0,5.1023125E3,1.9594844E4,6.070711E3,2.7132188E3,1.2890088E2,0E0,0E0,0E0,0E0,2.3407344E4,9.984922E3,4.5472656E2,3.198567E2,0E0,0E0,1.5567365E2,9.801264E3,1.1904565E3,2.0234805E3,3.552539E1,6.669739E0,0E0,0E0,6.939883E2,3.2149268E2,2.0864062E3,8.105341E4,1.6505381E3,3.1623438E2,0E0,0E0,1.4886469E4,1.9989688E4,1.8562256E3,3.8090625E2,4.008711E3,0E0,0E0,0E0,7.326333E2,0E0,4.983965E3,4.9717812E3,2.2193018E2,1.5124438E2,7.357324E1,0E0,7.439209E1,6.1071167E0,1.5245703E3,1.741602E3,2.9907422E2,5.037494E1,5.4099336E3,1.3125547E3,1.7794946E2,0E0,0E0,0E0,4.8557227E2,0E0,5.0645386E1,0E0,2.4865625E3,0E0,8.0306836E2,2.0701594E4,0E0,1.2323433E3,0E0,0E0,2.7403086E3,4.1470156E3,5.2985107E1,3.239707E3,0E0,0E0,0E0,1.2754297E3,1.1857242E4,1.0684727E3,0E0,0E0,1.5072148E3,0E0,1.8495312E3,1.2918494E2,4.1073E0,0E0,0E0,0E0,4.8107056E1,1.39689865E1,7.6235535E1,0E0,0E0,0E0,0E0,0E0,2.9820923E1,6.893848E1,3.7799316E1,2.1899915E2,3.670218E1,1.0686401E1,9.141504E2,1.0684883E3,1.5060488E3,1.3808618E2,9.061316E1,1.4236221E1,0E0,0E0,0E0,0E0,0E0,0E0,0E0,0E0,0E0,0E0,0E0,0E0,0E0,0E0,0E0,0E0,0E0,0E0,0E0,0E0,0E0,0E0,0E0,0E0,0E0,0E0,0E0,0E0,0E0,0E0,0E0,0E0,0E0,0E0,0E0,0E0,0E0,0E0,0E0,0E0,0E0,0E0,0E0,0E0,0E0,0E0,0E0,0E0,0E0,0E0,0E0,0E0,0E0,0E0,0E0,0E0,0E0,0E0,0E0,0E0,0E0,0E0,0E0,0E0],"parents":[2147483647,0,0,1,1,2,2,3,3,4,4,5,5,6,6,7,7,8,8,9,9,10,10,11,11,12,12,13,13,14,14,15,15,16,16,17,17,18,18,19,19,20,20,22,22,23,23,24,24,25,25,26,26,28,28,29,29,30,30,31,31,32,32,34,34,35,35,36,36,37,37,38,38,43,43,44,44,45,45,46,46,49,49,50,50,51,51,52,52,53,53,54,54,57,57,58,58,59,59,60,60,61,61,62,62,65,65,66,66,67,67,68,68,69,69,73,73,75,75,76,76,77,77,78,78,79,79,81,81,82,82,83,83,84,84,85,85,86,86,87,87,88,88,89,89,93,93,95,95,97,97,99,99,100,100,102,102,105,105,106,106,107,107,108,108,112,112,113,113,114,114,117,117,119,119,120,120,121,121,125,125,126,126,127,127,133,133,134,134,135,135,136,136,137,137,138,138,139,139,140,140,141,141,142,142,143,143,144,144],"right_children":[2,4,6,8,10,12,14,16,18,20,22,24,26,28,30,32,34,36,38,40,42,-1,44,46,48,50,52,-1,54,56,58,60,62,-1,64,66,68,70,72,-1,-1,-1,-1,74,76,78,80,-1,-1,82,84,86,88,90,92,-1,-1,94,96,98,100,102,104,-1,-1,106,108,110,112,114,-1,-1,-1,116,-1,118,120,122,124,126,-1,128,130,132,134,136,138,140,142,144,-1,-1,-1,146,-1,148,-1,150,-1,152,154,-1,156,-1,-1,158,160,162,164,-1,-1,-1,166,168,170,-1,-1,172,-1,174,176,178,-1,-1,-1,180,182,184,-1,-1,-1,-1,-1,186,188,190,192,194,196,198,200,202,204,206,208,-1,-1,-1,-1,-1,-1,-1,-1,-1,-1,-1,-1,-1,-1,-1,-1,-1,-1,-1,-1,-1,-1,-1,-1,-1,-1,-1,-1,-1,-1,-1,-1,-1,-1,-1,-1,-1,-1,-1,-1,-1,-1,-1,-1,-1,-1,-1,-1,-1,-1,-1,-1,-1,-1,-1,-1,-1,-1,-1,-1,-1,-1,-1,-1],"split_conditions":[3.32E0,1E0,1E0,2.0662006E9,1.6000275E9,2.0662006E9,5.79E0,1.6000275E9,1E0,2.44E0,2.0662006E9,1.6000275E9,3.93E0,3.32E0,4.55E0,2.49E0,1.65E0,8.8491205E10,2.75E0,1.23E0,3.24E0,3.450208E1,2.24E0,3.99E0,4.42E0,3.700045E9,4.83E0,1.6198161E-1,3.94E0,2.8400023E9,7.218063E9,1.1110354E9,4.46E0,6.2215298E1,3.13E0,7.11041E9,3.06E0,3.1254743E10,3E0,6.49881E0,1.838531E1,4.7843103E0,2.3121185E0,3.0000064E9,3.700045E9,1E0,1E0,3.4087095E0,8.611958E0,1E0,3.8000392E9,4.59E0,6.11E0,3.87E0,4E0,1.4528184E0,9.031635E0,1E0,4.77E0,1.63E0,1.1110853E9,1.23E0,3.02E0,1.68729E1,1.2771975E1,3.0000067E9,7.1921004E9,1E0,3.13E0,2.29E0,1.6406027E1,4.6038175E0,2.3106024E0,2E0,2.2438818E1,2.98E0,2.83E0,3.94E0,3.81E0,4.87E0,2.389959E0,3.7000315E9,3.17E0,3.38E0,8.8491205E10,4.38E0,4.1167096E9,6.46E0,7.218063E9,3.99E0,4.3631625E0,1.0715808E0,2.244346E0,5.99E0,7.2515435E0,1E0,3.989896E0,1.56E0,6.3342047E0,1.23E0,1.97E0,5.869597E0,3.26E0,9.785279E0,3.316434E0,2.52E0,3.46E0,2.01E0,1E0,3.683309E0,9.514359E0,8.870585E0,8.849121E10,2.6E0,3.37E0,1.5155542E0,7.789673E0,3.0000067E9,3.191845E0,2.51E0,3.02E0,3.93E0,2.603936E0,8.7884676E-1,5.33827E0,4.99E0,4.89E0,3.0000067E9,1.6448385E0,4.256282E-1,1.7338678E0,2.8327415E0,7.7260766E0,3.38E0,8.849121E10,3.46E0,4.42E0,4E0,7.0273126E9,5.53E0,5.29E0,3.7000195E9,6.49E0,3.38E0,3.38E0,8.389017E0,4.0322175E0,1.9274247E-1,1.8630944E0,1.068696E1,1.4017137E1,3.5540504E0,2.215987E0,8.052206E0,1.2934226E1,1.2536169E0,3.1420429E0,5.994864E0,2.8332813E0,5.5315466E0,1.6973733E0,8.328747E-1,5.546484E-1,3.514759E0,5.852793E0,7.092572E0,-8.2151824E-1,8.391614E0,1.9945965E1,7.2853904E0,3.0784447E0,1.4404239E1,5.5242853E0,1.0691392E1,1.7547441E1,4.315969E0,5.2563953E-1,1.6561913E0,1.0419091E0,9.15509E-1,1.4701532E0,8.9912105E-1,1.7294745E-1,1.6870416E0,3.910289E-1,1.3774961E0,8.2997245E-1,3.5036879E0,6.418827E-1,-9.0868264E-2,1.3042965E0,3.2882676E0,1.3381158E0,6.974027E-1,3.558984E-1,7.367657E-1,1.6816148E0,1.6779149E0,2.5544307E0,5.3665595E0,2.0890965E0,4.2903906E-1,2.2867272E0,1.186799E0,7.4337655E-1,3.8753805E0,6.022441E-1,1.4038157E-1,1.2962946E0],"split_indices":[5,0,0,4,4,4,6,4,1,6,4,4,6,6,5,6,5,4,5,5,5,0,5,6,5,4,6,0,5,4,4,4,6,0,6,4,6,4,5,0,0,0,0,4,4,2,1,0,0,1,4,6,5,5,5,0,0,1,5,5,4,5,5,0,0,4,4,2,5,5,0,0,0,5,0,6,5,5,6,5,0,4,6,5,4,6,4,6,4,6,0,0,0,6,0,1,0,6,0,5,6,0,6,0,0,5,6,5,2,0,0,0,4,6,6,0,0,4,0,5,5,6,0,0,0,6,6,4,0,0,0,0,0,5,4,5,5,5,4,5,5,4,5,5,5,0,0,0,0,0,0,0,0,0,0,0,0,0,0,0,0,0,0,0,0,0,0,0,0,0,0,0,0,0,0,0,0,0,0,0,0,0,0,0,0,0,0,0,0,0,0,0,0,0,0,0,0,0,0,0,0,0,0,0,0,0,0,0,0],"split_type":[0,0,0,0,0,0,0,0,0,0,0,0,0,0,0,0,0,0,0,0,0,0,0,0,0,0,0,0,0,0,0,0,0,0,0,0,0,0,0,0,0,0,0,0,0,0,0,0,0,0,0,0,0,0,0,0,0,0,0,0,0,0,0,0,0,0,0,0,0,0,0,0,0,0,0,0,0,0,0,0,0,0,0,0,0,0,0,0,0,0,0,0,0,0,0,0,0,0,0,0,0,0,0,0,0,0,0,0,0,0,0,0,0,0,0,0,0,0,0,0,0,0,0,0,0,0,0,0,0,0,0,0,0,0,0,0,0,0,0,0,0,0,0,0,0,0,0,0,0,0,0,0,0,0,0,0,0,0,0,0,0,0,0,0,0,0,0,0,0,0,0,0,0,0,0,0,0,0,0,0,0,0,0,0,0,0,0,0,0,0,0,0,0,0,0,0,0,0,0,0,0,0,0,0,0,0,0,0,0],"sum_hessian":[3.999E3,2.374E3,1.625E3,2.22E3,1.54E2,1.497E3,1.28E2,8.79E2,1.341E3,3.2E1,1.22E2,2.58E2,1.239E3,2.3E1,1.05E2,7.44E2,1.35E2,1.228E3,1.13E2,1.5E1,1.7E1,1.8E1,1.04E2,1.91E2,6.7E1,1.72E2,1.067E3,1E0,2.2E1,2.9E1,7.6E1,6.18E2,1.26E2,1E0,1.34E2,1.095E3,1.33E2,9.8E1,1.5E1,4E0,1.1E1,1.1E1,6E0,5.4E1,5E1,6.4E1,1.27E2,2E0,6.5E1,5E1,1.22E2,3.08E2,7.59E2,1.4E1,8E0,1E0,2.8E1,5E1,2.6E1,2.5E2,3.68E2,1.19E2,7E0,8.5E1,4.9E1,7.12E2,3.83E2,4.6E1,8.7E1,9.5E1,3E0,9E0,6E0,7E0,4.7E1,2E1,3E1,6E1,4E0,1.18E2,9E0,3.9E1,1.1E1,3.4E1,8.8E1,1.68E2,1.4E2,4.22E2,3.37E2,1E1,4E0,4E0,4E0,2.2E1,2.8E1,4E0,2.2E1,2.4E2,1E1,1.41E2,2.27E2,5E0,1.14E2,5E0,2E0,2.53E2,4.59E2,1.89E2,1.94E2,4.3E1,3E0,3.7E1,5E1,4.3E1,5.2E1,2E0,5E0,8E0,1.2E1,2.7E1,3E0,3.5E1,2.5E1,1E0,3E0,1.07E2,1.1E1,3.6E1,3E0,1E0,1E1,6E0,2.8E1,5.2E1,3.6E1,1.51E2,1.7E1,1.3E2,1E1,3.79E2,4.3E1,1.58E2,1.79E2,5E0,5E0,2E0,2E1,2E0,2E0,2.14E2,2.6E1,4.1E1,1E2,1.4E2,8.7E1,8.8E1,2.6E1,1.7E1,2.36E2,4.41E2,1.8E1,7.2E1,1.17E2,1.45E2,4.9E1,4.9E1,1E0,3.7E1,6E0,4.6E1,6E0,4E0,4E0,1.1E1,1.6E1,2E0,1E0,2.7E1,8E0,9.4E1,1.3E1,1E0,1E1,2E0,3.4E1,3.8E1,1.4E1,3.5E1,1E0,1E0,1.5E2,8E0,9E0,2.3E1,1.07E2,9E0,1E0,2.81E2,9.8E1,3.4E1,9E0,3.2E1,1.26E2,8.4E1,9.5E1,4E0,1E0,1E0,4E0],"tree_param":{"num_deleted":"0","num_feature":"12","num_nodes":"209","size_leaf_vector":"0"}},{"base_weights":[1.6169554E1,1.4125385E1,4.523658E1,2.3859917E1,1.0082029E1,6.463228E1,2.4526972E1,1.9596815E1,4.197067E1,1.3602698E1,5.7321115E0,8.7097725E1,5.3175674E1,2.8322758E1,1.7068115E1,2.634756E1,6.2387357E0,4.956967E1,6.7621317E0,1.258012E1,2.5222633E1,5.3402824E0,1.0822807E1,3.7558044E1,1.5106407E2,2.8654812E1,4.7748062E1,4.4235584E1,2.594028E1,2.4063803E1,9.634495E0,2.3422247E1,3.9396564E1,4.7902102E0,1.8960442E1,9.825514E0,5.266269E1,1.1036218E1,1.8689016E1,2.7756594E1,1.4210496E1,4.0296564E0,6.5158844E0,8.11325E0,6.1202073E0,2.5105959E1,5.112379E1,8.546123E1,2.4763317E1,3.469712E1,5.700629E1,3.920001E0,2.2702951E1,9.749352E0,2.8700132E1,8.980972E-1,6.218129E0,4.8549223E0,1.0692436E1,3.241708E1,1.6302061E1,3.697014E1,1.8978043E1,5.8615575E0,2.4884558E0,3.0624804E1,1.0130841E1,1.2974077E1,8.661382E0,1.3729037E1,4.3531437E0,1.501601E1,2.3055832E1,2.4878468E1,3.9513023E1,1.6364092E1,7.643352E-1,6.2953553E0,1.1538662E0,9.273212E0,5.332615E0,2.6182923E-1,8.4159155E0,7.5270996E0,3.7705817E0,1.5303083E1,3.135535E0,1.653806E1,4.7745068E1,6.1756824E1,2.6127825E1,9.244966E-1,1.0543602E1,3.7624847E1,5.7040634E0,-2.1713637E-1,1.9106243E0,4.3059053E0,2.8038437E0,3.757245E1,2.885831E1,8.518899E0,2.4447138E1,-2.1945262E0,3.7539806E1,3.9065416E0,7.4873443E0,1.4104184E0,2.8482366E0,2.9958246E0,8.468459E0,2.9426825E0,2.139733E0,9.63671E0,1.5738831E1,1.9811721E0,1.0987511E1,2.6844135E1,1.2031497E1,1.2958008E1,2.674836E1,2.730401E1,1.7341166E1,6.0452795E0,1.3039603E1,7.420944E-2,1.7238852E1,5.242041E0,6.224135E0,1.3800515E0,1.1772333E-1,1.3810881E1,7.5090117E0,7.5972624E0,2.7294495E0,9.253651E0,4.6433535E0,2.3858992E1,5.319636E0,-1.0062968E0,5.2929752E1,7.685627E1,4.4435596E1,9.495236E0,1.0153733E1,3.4282506E0,6.899787E0,1.1344934E1,9.98283E0,-7.0146674E-1,1.8455342E0,8.080625E0,1.0309303E1,6.3453183E0,8.994886E0,1.9096572E0,5.1694436E0,8.017807E0,4.786422E0,7.8112936E0,9.713397E0,2.113359E0,8.1693715E-1,2.918939E0,1.4780613E0,4.1913837E-1,-1.4931454E-1,8.647571E-1,5.191017E-1,-8.7904E-1,1.0814399E0,2.9376647E0,1.7779473E0,4.6047587E0,3.0515387E0,6.571007E-1,3.6065274E-1,4.30387E0,2.0272677E0,1.3054663E1,5.4318695E0,3.4995377E0,2.237012E0,3.4496539E0,5.174923E-1,7.0305905E0,5.5717587E0,9.263473E0,5.4934363E0,1.3526207E0,5.469893E0,4.296634E0,7.145288E-1,1.8852501E0,8.334672E-1,3.211023E-1,9.946312E-1,6.75084E-1,3.359258E0,1.9918736E0,9.0722585E-1,4.9457145E0,1.7378763E0,7.0474344E-1,-3.8363132E-1,1.807216E0,2.8130546E0,6.1623994E-2,1.2847329E0,1.8520417E0,8.000228E0,3.4297097E0,4.7918302E-1,-5.341133E0,4.9788666E0,1.8658424E1,7.6743555E0,7.8573294E0,2.0601465E1,7.8281384E0,1.2531445E1,1.103873E0,3.8844936E0,7.3161966E-1,2.1662908E0,-1.967562E-1,3.76155E0],"categories":[],"categories_nodes":[],"categories_segments":[],"categories_sizes":[],"default_left":[false,false,false,false,false,false,false,false,false,false,false,false,false,false,false,false,false,false,false,false,false,false,false,false,false,false,false,false,false,false,false,false,false,false,false,false,false,false,false,false,false,false,false,false,false,false,false,false,false,false,false,false,false,false,false,false,false,false,false,false,false,false,false,false,false,false,false,false,false,false,false,false,false,false,false,false,false,false,false,false,false,false,false,false,false,false,false,false,false,false,false,false,false,false,false,false,false,false,false,false,false,false,false,false,false,false,false,false,false,false,false,false,false,false,false,false,false,false,false,false,false,false,false,false,false,false,false,false,false,false,false,false,false,false,false,false,false,false,false,false,false,false,false,false,false,false,false,false,false,false,false,false,false,false,false,false,false,false,false,false,false,false,false,false,false,false,false,false,false,false,false,false,false,false,false,false,false,false,false,false,false,false,false,false,false,false,false,false,false,false,false,false,false,false,false,false,false,false,false,false,false,false,false,false,false,false,false,false,false,false,false,false,false,false,false,false,false,false,false,false,false,false,false,false,false,false,false],"id":3,"left_children":[1,3,5,7,9,11,13,15,17,19,21,23,25,27,29,31,33,35,-1,37,39,41,43,45,47,-1,49,51,53,55,57,59,61,63,65,-1,67,69,71,73,75,77,79,81,-1,83,85,-1,-1,87,89,-1,-1,91,93,-1,-1,95,97,99,101,103,-1,105,107,109,111,-1,-1,113,115,117,119,121,123,125,-1,127,129,131,133,-1,135,-1,-1,-1,-1,137,139,141,143,-1,145,147,-1,-1,-1,149,-1,151,153,155,157,-1,159,161,163,165,167,-1,-1,-1,169,171,173,175,177,179,181,183,185,187,189,-1,-1,-1,191,193,-1,195,-1,197,199,201,203,205,207,209,211,213,215,217,219,-1,221,-1,223,225,-1,-1,-1,-1,-1,-1,-1,-1,-1,-1,-1,-1,-1,-1,-1,-1,-1,-1,-1,-1,-1,-1,-1,-1,-1,-1,-1,-1,-1,-1,-1,-1,-1,-1,-1,-1,-1,-1,-1,-1,-1,-1,-1,-1,-1,-1,-1,-1,-1,-1,-1,-1,-1,-1,-1,-1,-1,-1,-1,-1,-1,-1,-1,-1,-1,-1,-1,-1,-1,-1,-1,-1,-1,-1,-1,-1,-1,-1,-1],"loss_changes":[2.2675338E5,1.4055081E5,9.923575E4,8.016869E4,3.8652703E4,2.857025E4,2.9989922E3,7.657625E4,1.9464312E4,1.6282266E4,2.2021758E3,1.2741894E5,2.5927469E4,1.8854648E3,2.0563018E3,2.0644688E4,5.1979307E3,1.2340312E3,0E0,1.1922703E4,2.7308516E3,1.5977207E3,2.974788E3,2.9395352E3,1.3997003E5,0E0,8.050828E3,1.1101363E4,2.9374766E3,7.279375E2,6.438867E1,2.918836E4,6.8968438E3,6.2410254E2,2.676503E3,0E0,1.3132812E2,1.8458438E4,3.7919375E3,2.0622578E3,4.940205E2,3.2570889E3,1.7580625E3,1.3747168E2,0E0,3.890459E2,4.458291E3,0E0,0E0,7.9771133E3,5.280828E3,0E0,0E0,1.5592285E1,1.7914492E3,0E0,0E0,1.1453995E2,6.353174E1,2.6584688E3,1.6337695E4,2.9176875E3,0E0,5.3015576E2,2.8562805E1,5.741572E2,2.8019177E2,0E0,0E0,5.8770625E3,4.651982E3,4.7250977E3,3.9786328E3,8.9766797E2,2.0277402E3,2.6150928E2,0E0,5.656009E3,3.263205E1,1.2171787E3,2.278412E3,0E0,1.6561865E2,0E0,0E0,0E0,0E0,1.2692773E3,5.3612344E3,7.0464688E3,1.3152627E3,0E0,3.7747803E1,1.6148789E3,0E0,0E0,0E0,1.2031763E2,0E0,2.3458594E2,1.6162188E3,8.1646387E2,4.458828E3,0E0,1.0303125E2,1.7194958E2,5.1521875E2,1.6793762E1,2.4282623E1,0E0,0E0,0E0,8.51541E1,1.3250781E3,4.8648047E3,7.554059E1,1.2248262E3,2.0175703E3,6.658594E2,4.7359326E2,7.536719E1,1.8587461E3,1.21123E3,0E0,0E0,0E0,1.1710156E2,1.2071626E3,0E0,1.3668579E1,0E0,5.2695312E1,3.2528174E2,8.144365E2,1.6862488E2,1.371377E2,4.220981E1,1.2722808E3,2.0995091E2,1.8482406E3,7.392672E3,5.116E3,2.2748438E2,0E0,9.3062805E1,0E0,2.981192E1,2.2345453E2,0E0,0E0,0E0,0E0,0E0,0E0,0E0,0E0,0E0,0E0,0E0,0E0,0E0,0E0,0E0,0E0,0E0,0E0,0E0,0E0,0E0,0E0,0E0,0E0,0E0,0E0,0E0,0E0,0E0,0E0,0E0,0E0,0E0,0E0,0E0,0E0,0E0,0E0,0E0,0E0,0E0,0E0,0E0,0E0,0E0,0E0,0E0,0E0,0E0,0E0,0E0,0E0,0E0,0E0,0E0,0E0,0E0,0E0,0E0,0E0,0E0,0E0,0E0,0E0,0E0,0E0,0E0,0E0,0E0,0E0,0E0,0E0,0E0,0E0,0E0,0E0,0E0,0E0,0E0],"parents":[2147483647,0,0,1,1,2,2,3,3,4,4,5,5,6,6,7,7,8,8,9,9,10,10,11,11,12,12,13,13,14,14,15,15,16,16,17,17,19,19,20,20,21,21,22,22,23,23,24,24,26,26,27,27,28,28,29,29,30,30,31,31,32,32,33,33,34,34,36,36,37,37,38,38,39,39,40,40,41,41,42,42,43,43,45,45,46,46,49,49,50,50,53,53,54,54,57,57,58,58,59,59,60,60,61,61,63,63,64,64,65,65,66,66,69,69,70,70,71,71,72,72,73,73,74,74,75,75,77,77,78,78,79,79,80,80,82,82,87,87,88,88,89,89,90,90,92,92,93,93,97,97,99,99,100,100,101,101,102,102,104,104,105,105,106,106,107,107,108,108,112,112,113,113,114,114,115,115,116,116,117,117,118,118,119,119,120,120,121,121,122,122,126,126,127,127,129,129,131,131,132,132,133,133,134,134,135,135,136,136,137,137,138,138,139,139,140,140,141,141,142,142,144,144,146,146,147,147],"right_children":[2,4,6,8,10,12,14,16,18,20,22,24,26,28,30,32,34,36,-1,38,40,42,44,46,48,-1,50,52,54,56,58,60,62,64,66,-1,68,70,72,74,76,78,80,82,-1,84,86,-1,-1,88,90,-1,-1,92,94,-1,-1,96,98,100,102,104,-1,106,108,110,112,-1,-1,114,116,118,120,122,124,126,-1,128,130,132,134,-1,136,-1,-1,-1,-1,138,140,142,144,-1,146,148,-1,-1,-1,150,-1,152,154,156,158,-1,160,162,164,166,168,-1,-1,-1,170,172,174,176,178,180,182,184,186,188,190,-1,-1,-1,192,194,-1,196,-1,198,200,202,204,206,208,210,212,214,216,218,220,-1,222,-1,224,226,-1,-1,-1,-1,-1,-1,-1,-1,-1,-1,-1,-1,-1,-1,-1,-1,-1,-1,-1,-1,-1,-1,-1,-1,-1,-1,-1,-1,-1,-1,-1,-1,-1,-1,-1,-1,-1,-1,-1,-1,-1,-1,-1,-1,-1,-1,-1,-1,-1,-1,-1,-1,-1,-1,-1,-1,-1,-1,-1,-1,-1,-1,-1,-1,-1,-1,-1,-1,-1,-1,-1,-1,-1,-1,-1,-1,-1,-1,-1],"split_conditions":[1E0,2.0662006E9,3E0,1.6000275E9,3.46E0,2.0662006E9,7.218063E9,2.49E0,3.28E0,1E0,1E0,1.6000275E9,1.7E0,3.38E0,4.5E0,1.92E0,1E0,2.95E0,6.7621317E0,7.797508E9,2.59E0,7.0273126E9,6.59E0,1.61E0,1.68E0,2.8654812E1,3.700045E9,1.6000275E9,3.8000317E9,3.89E0,4.77E0,1.1110354E9,1E0,3.99E0,3.05E0,9.825514E0,3.19E0,7.11041E9,3.11E0,2.51E0,3.3E0,3.8000392E9,7.218063E9,3.17E0,6.1202073E0,1.58E0,1.1110874E9,8.546123E1,2.4763317E1,1E0,8.849121E10,3.920001E0,2.2702951E1,3.5E0,4.79E0,8.980972E-1,6.218129E0,1E0,7.218064E9,1.49E0,1.1110853E9,1.1110853E9,1.8978043E1,1.1110853E9,4.46E0,1.1110853E9,3.46E0,1.2974077E1,8.661382E0,3.0000067E9,7.1921004E9,2.57E0,8.8491205E10,2.49E0,3.01E0,2.44E0,7.643352E-1,3.8000317E9,4.97E0,6.29E0,5.02E0,2.6182923E-1,5.02E0,7.5270996E0,3.7705817E0,1.5303083E1,3.135535E0,3.01E0,1.89E0,2.47E0,2.64E0,9.244966E-1,1.6000275E9,4.48E0,5.7040634E0,-2.1713637E-1,1.9106243E0,5.02E0,2.8038437E0,1.48E0,1.56E0,1E0,1.66E0,-2.1945262E0,1.99E0,1.65E0,3.46E0,4.38E0,4.78E0,2.9958246E0,8.468459E0,2.9426825E0,3.6E0,2.98E0,3.8000392E9,2.01E0,2.32E0,2.01E0,8.849121E10,3.1254743E10,3.24E0,4.1167094E9,3.7000315E9,6.0452795E0,1.3039603E1,7.420944E-2,3E0,3.0000067E9,6.224135E0,4.83E0,1.1772333E-1,4.97E0,7.09E0,7.7975025E9,1E0,5.03E0,5.29E0,2.8400049E9,3.0000067E9,2.6E0,2.01E0,1.99E0,1E0,9.495236E0,3.01E0,3.4282506E0,4.55E0,1E0,9.98283E0,-7.0146674E-1,1.8455342E0,8.080625E0,1.0309303E1,6.3453183E0,8.994886E0,1.9096572E0,5.1694436E0,8.017807E0,4.786422E0,7.8112936E0,9.713397E0,2.113359E0,8.1693715E-1,2.918939E0,1.4780613E0,4.1913837E-1,-1.4931454E-1,8.647571E-1,5.191017E-1,-8.7904E-1,1.0814399E0,2.9376647E0,1.7779473E0,4.6047587E0,3.0515387E0,6.571007E-1,3.6065274E-1,4.30387E0,2.0272677E0,1.3054663E1,5.4318695E0,3.4995377E0,2.237012E0,3.4496539E0,5.174923E-1,7.0305905E0,5.5717587E0,9.263473E0,5.4934363E0,1.3526207E0,5.469893E0,4.296634E0,7.145288E-1,1.8852501E0,8.334672E-1,3.211023E-1,9.946312E-1,6.75084E-1,3.359258E0,1.9918736E0,9.0722585E-1,4.9457145E0,1.7378763E0,7.0474344E-1,-3.8363132E-1,1.807216E0,2.8130546E0,6.1623994E-2,1.2847329E0,1.8520417E0,8.000228E0,3.4297097E0,4.7918302E-1,-5.341133E0,4.9788666E0,1.8658424E1,7.6743555E0,7.8573294E0,2.0601465E1,7.8281384E0,1.2531445E1,1.103873E0,3.8844936E0,7.3161966E-1,2.1662908E0,-1.967562E-1,3.76155E0],"split_indices":[0,4,5,4,5,4,4,6,6,1,1,4,5,5,5,5,1,6,0,4,5,4,6,5,5,0,4,4,4,6,5,4,1,5,5,0,5,4,6,5,6,4,4,6,0,6,4,0,0,1,4,0,0,5,5,0,0,1,4,5,4,4,0,4,6,4,5,0,0,4,4,5,4,5,6,6,0,4,5,5,5,0,5,0,0,0,0,6,5,5,6,0,4,5,0,0,0,5,0,5,5,1,5,0,6,5,5,6,6,0,0,0,5,6,4,5,5,5,4,4,5,4,4,0,0,0,5,4,0,5,0,5,5,4,2,6,5,4,4,6,5,5,1,0,6,0,5,1,0,0,0,0,0,0,0,0,0,0,0,0,0,0,0,0,0,0,0,0,0,0,0,0,0,0,0,0,0,0,0,0,0,0,0,0,0,0,0,0,0,0,0,0,0,0,0,0,0,0,0,0,0,0,0,0,0,0,0,0,0,0,0,0,0,0,0,0,0,0,0,0,0,0,0,0,0,0,0],"split_type":[0,0,0,0,0,0,0,0,0,0,0,0,0,0,0,0,0,0,0,0,0,0,0,0,0,0,0,0,0,0,0,0,0,0,0,0,0,0,0,0,0,0,0,0,0,0,0,0,0,0,0,0,0,0,0,0,0,0,0,0,0,0,0,0,0,0,0,0,0,0,0,0,0,0,0,0,0,0,0,0,0,0,0,0,0,0,0,0,0,0,0,0,0,0,0,0,0,0,0,0,0,0,0,0,0,0,0,0,0,0,0,0,0,0,0,0,0,0,0,0,0,0,0,0,0,0,0,0,0,0,0,0,0,0,0,0,0,0,0,0,0,0,0,0,0,0,0,0,0,0,0,0,0,0,0,0,0,0,0,0,0,0,0,0,0,0,0,0,0,0,0,0,0,0,0,0,0,0,0,0,0,0,0,0,0,0,0,0,0,0,0,0,0,0,0,0,0,0,0,0,0,0,0,0,0,0,0,0,0,0,0,0,0,0,0,0,0,0,0,0,0,0,0,0,0,0,0],"sum_hessian":[3.826E3,3.576E3,2.5E2,1.048E3,2.528E3,1.28E2,1.22E2,8.5E2,1.98E2,1.396E3,1.132E3,4.1E1,8.7E1,7.9E1,4.3E1,5.64E2,2.86E2,1.26E2,7.2E1,1.285E3,1.11E2,1.053E3,7.9E1,2.4E1,1.7E1,5E0,8.2E1,8E0,7.1E1,2.1E1,2.2E1,4.63E2,1.01E2,2.58E2,2.8E1,3.7E1,8.9E1,1.028E3,2.57E2,8.9E1,2.2E1,5E2,5.53E2,6.8E1,1.1E1,1.4E1,1E1,2E0,1.5E1,3.6E1,4.6E1,6E0,2E0,1.1E1,6E1,2E0,1.9E1,5E0,1.7E1,2.03E2,2.6E2,9.7E1,4E0,1.75E2,8.3E1,1.1E1,1.7E1,8E1,9E0,7.32E2,2.96E2,1.42E2,1.15E2,7.4E1,1.5E1,1.8E1,4E0,2.79E2,2.21E2,1.64E2,3.89E2,3E0,6.5E1,7E0,7E0,7E0,3E0,1.6E1,2E1,3.9E1,7E0,2E0,9E0,1.9E1,4.1E1,2E0,3E0,3E0,1.4E1,7.9E1,1.24E2,1.34E2,1.26E2,1E0,9.6E1,8.1E1,9.4E1,2.2E1,6.1E1,3E0,8E0,1.3E1,4E0,2.43E2,4.89E2,2.19E2,7.7E1,2.7E1,1.15E2,3.2E1,8.3E1,5.4E1,2E1,9E0,6E0,1E0,1.7E1,2.66E2,1.3E1,1.64E2,5.7E1,4.4E1,1.2E2,2.07E2,1.82E2,5.2E1,1.3E1,9E0,7E0,2E0,1.8E1,1.9E1,2E1,3E0,4E0,3E0,6E0,3E0,1.6E1,1E0,2E0,5E1,2.9E1,1E2,2.4E1,1.3E2,4E0,4E1,8.6E1,4E1,5.6E1,6E0,7.5E1,1.9E1,7.5E1,1.9E1,3E0,2.7E1,3.4E1,1E0,3E0,1.1E2,1.33E2,2.26E2,2.63E2,8.3E1,1.36E2,1.9E1,5.8E1,2E0,2.5E1,5.7E1,5.8E1,2.8E1,4E0,4.4E1,3.9E1,1.3E1,4.1E1,7E0,1.3E1,1.6E1,1E0,1.06E2,1.6E2,1.63E2,1E0,1E0,4.3E1,9.8E1,2.2E1,4E0,2.03E2,1.74E2,8E0,3.3E1,1.9E1,2E0,1.1E1,4E0,5E0,1E0,6E0,1E0,1E0,7E0,1.1E1,4E0,1.5E1,1E1,1E1,3E0,1E0,3E0,3E0,1E0,2E0],"tree_param":{"num_deleted":"0","num_feature":"12","num_nodes":"227","size_leaf_vector":"0"}},{"base_weights":[1.21436E1,1.6224058E1,5.878535E0,1.4593345E1,4.1406384E1,5.043488E0,1.7116888E1,2.1443743E1,1.0319738E1,4.642203E1,1.3766942E1,7.190249E0,4.3122854E0,1.8977175E1,8.417722E0,1.8192854E1,3.69103E1,9.46635E0,2.0190655E1,3.260815E1,5.768745E1,7.783335E0,1.6838217E1,3.2674654E0,1.1289063E1,8.500282E0,3.6989608E0,3.9405591E0,2.0413624E1,2.5813596E0,1.3488837E1,2.085566E1,4.8606606E0,-1.3047429E1,3.7881226E1,8.572081E0,1.6505875E1,2.6366602E1,1.5414345E1,5.2360218E1,2.5133396E1,1.4822054E1,6.017379E1,8.671864E0,-2.5610276E-2,8.527166E0,2.0141026E1,9.262794E0,2.8519325E0,1.9009523E1,4.9091945E0,7.6575655E-1,1.1695734E1,2.3278441E0,4.55806E0,7.9995127E0,-6.8438516E0,1.733118E1,1.8863462E1,-1.6840734E0,6.4165664E0,3.3756185E0,9.2717284E-1,2.6527794E1,1.727177E1,3.7293289E0,2.2914062E1,3.6382957E1,2.38005E1,1.0296157E1,5.4738593E0,1.48714E1,3.0737642E1,2.0296297E1,5.34223E1,1.3816796E1,1.0517938E1,1.9958128E1,2.3432878E1,5.668508E1,1.763213E1,3.9076316E0,1.0779691E0,2.2559181E1,5.0372414E1,2.3525743E0,7.544017E-1,3.1598835E0,6.9986725E-1,5.0969496E0,1.2329566E0,3.0925646E0,1.3228306E1,4.0585847E0,2.2047298E0,4.749819E0,1.2802179E1,5.0587E0,-3.9861268E-1,-1.3964391E0,1.3155802E0,1.7784771E1,8.087905E0,3.8795474E0,1.0647411E0,5.733349E0,3.1005328E0,2.2826674E0,6.7528117E-1,-2.6008184E0,1.3703184E-1,8.893081E0,2.0324059E1,3.0215514E-1,-2.52448E0,2.1931326E0,6.6511434E-1,3.262441E1,2.4402596E1,6.0034995E0,2.4094282E1,1.1947612E1,3.2515E0,3.0589E0,3.0244349E1,4.0518543E1,3.2152065E1,7.2191143E0,1.3732664E1,1.6678089E0,1.0176117E1,9.789206E0,4.4098577E0,1.197256E1,2.0980394E1,2.8217075E1,1.7761068E1,1.8300306E1,5.873917E0,6.099589E0,1.4990043E1,2.2800245E1,-6.7451084E-1,1.611302E1,4.0524116E0,5.0253687E0,2.5999224E1,7.640559E1,4.130315E1,5.497775E0,-1.0720184E0,4.3719E0,4.933282E0,4.2151613E0,-6.5911305E-1,2.2774274E0,-7.735552E-1,7.484113E0,3.7275932E0,1.2214942E0,2.4414001E-1,3.1702486E-1,-4.6350944E-1,1.6839174E0,-1.1575588E0,1.1991622E0,1.8007393E1,4.7829313E0,2.6984189E0,4.3338437E0,-2.3495991E0,1.4152877E0,3.7333786E-1,9.663722E0,4.698471E0,4.3832836E0,2.1096323E0,2.1532688E0,3.6657634E0,8.481112E0,1.9106184E1,-1.0792847E0,-2.1770164E-1,9.736258E0,7.1623216E0,5.7173343E0,1.04166975E1,2.0999818E0,8.407956E-1,5.399764E0,1.0961399E1,3.537825E0,-2.422824E-1,6.403287E-1,1.3177443E0,2.050602E0,-9.493979E-1,1.8711195E0,8.137744E0,2.472053E0,9.898838E0,1.0326567E1,6.638426E0,7.646945E0,1.5894576E0,4.9519725E0,2.579375E0,6.160837E-1,3.115244E-1,2.083392E0,3.578943E0,2.4123847E0,-5.5711895E-1,2.1052213E0,5.4525084E0,2.220274E0,7.919327E0,3.4218435E0,5.6332054E0,9.507766E-2,1.7942225E0,3.9589567E0,2.002984E0,3.3146503E0,7.340157E0,1.8818129E0,-1.2915385E0,-1.8003497E0,6.7084093E0,2.2818045E1,1.005363E1,7.572543E0,1.2100753E1,-3.901689E-1,1.8444169E0,-9.5201844E-1,2.213329E0,3.0315245E-2,1.0443901E0,6.6277087E-1,4.040355E-1,2.7162666E0,-2.931427E-2,-4.2293552E-1,5.370645E-1,1.035475E0,3.2206357E-1,-6.339374E-2,-3.1557077E-1,3.409379E0,4.9106665E0,1.364846E0,5.124511E-1,-1.3269593E-1,1.1476703E0,-3.7719566E-1,-9.982964E-1,4.677735E-1,2.993802E-1,8.481517E-1,5.5322055E-2,2.0708716E0,4.1527815E0,1.037937E0,3.8233159E0,2.712628E0,9.8328674E-1,6.2277853E-1,1.274884E-1,1.0862544E0,-1.8188152E-1,-3.2044038E-1,4.992862E0],"categories":[],"categories_nodes":[],"categories_segments":[],"categories_sizes":[],"default_left":[false,false,false,false,false,false,false,false,false,false,false,false,false,false,false,false,false,false,false,false,false,false,false,false,false,false,false,false,false,false,false,false,false,false,false,false,false,false,false,false,false,false,false,false,false,false,false,false,false,false,false,false,false,false,false,false,false,false,false,false,false,false,false,false,false,false,false,false,false,false,false,false,false,false,false,false,false,false,false,false,false,false,false,false,false,false,false,false,false,false,false,false,false,false,false,false,false,false,false,false,false,false,false,false,false,false,false,false,false,false,false,false,false,false,false,false,false,false,false,false,false,false,false,false,false,false,false,false,false,false,false,false,false,false,false,false,false,false,false,false,false,false,false,false,false,false,false,false,false,false,false,false,false,false,false,false,false,false,false,false,false,false,false,false,false,false,false,false,false,false,false,false,false,false,false,false,false,false,false,false,false,false,false,false,false,false,false,false,false,false,false,false,false,false,false,false,false,false,false,false,false,false,false,false,false,false,false,false,false,false,false,false,false,false,false,false,false,false,false,false,false,false,false,false,false,false,false,false,false,false,false,false,false,false,false,false,false,false,false,false,false,false,false,false,false,false,false,false,false,false,false,false,false,false,false,false,false,false,false,false,false,false,false,false,false,false,false,false,false,false,false,false,false],"id":4,"left_children":[1,3,5,7,9,11,13,15,17,19,21,23,25,27,29,31,33,35,37,39,41,43,45,47,49,51,53,55,57,59,61,63,65,-1,67,69,71,73,75,77,79,81,83,85,-1,87,89,91,93,95,97,99,101,103,105,107,109,-1,111,113,115,-1,-1,117,119,121,123,125,-1,127,129,131,133,135,137,139,-1,141,-1,143,145,-1,-1,-1,147,-1,-1,-1,-1,-1,-1,149,151,153,155,-1,157,159,-1,161,163,165,167,169,171,173,175,-1,-1,-1,-1,177,179,-1,181,-1,-1,183,185,187,189,191,193,195,197,199,201,203,205,207,209,211,-1,-1,213,215,217,-1,-1,219,221,223,-1,-1,-1,225,227,229,231,233,-1,-1,235,237,-1,239,-1,241,-1,-1,-1,243,-1,245,247,-1,249,251,-1,253,255,257,259,261,263,265,267,269,-1,-1,271,-1,-1,-1,-1,-1,-1,-1,-1,-1,-1,-1,-1,-1,-1,-1,-1,-1,-1,-1,-1,-1,-1,-1,-1,-1,-1,-1,-1,-1,-1,-1,-1,-1,-1,-1,-1,-1,-1,-1,-1,-1,-1,-1,-1,-1,-1,-1,-1,-1,-1,-1,-1,-1,-1,-1,-1,-1,-1,-1,-1,-1,-1,-1,-1,-1,-1,-1,-1,-1,-1,-1,-1,-1,-1,-1,-1,-1,-1,-1,-1,-1,-1,-1,-1,-1,-1,-1,-1,-1,-1,-1,-1],"loss_changes":[1.0234094E5,9.901975E4,1.4760027E4,6.652781E4,1.9739484E4,2.2827578E3,1.6041973E3,4.3323562E4,1.1652625E4,1.7415688E4,3.0999805E2,5.960492E3,2.7991582E3,1.8418984E3,5.867145E2,2.563689E4,1.5441141E4,8.017125E3,2.8678828E3,7.2472344E3,6.2488438E3,7.103064E1,2.4000098E2,4.5190405E2,8.871184E3,3.4511865E3,1.1237314E3,4.4870825E2,5.1419297E3,1.9075296E2,6.67688E0,1.1820094E4,2.406321E3,0E0,1.0165719E4,6.097125E3,2.9158008E3,6.63483E3,2.3446367E3,2.0057281E4,9.414334E3,2.269287E0,1.6150297E4,2.5439148E1,0E0,1.17784485E2,5.537793E1,2.5270813E2,1.3240369E2,1.4436133E2,1.07610596E2,5.176783E1,2.0310107E3,7.269347E2,9.946162E2,2.8111328E1,9.500711E1,0E0,9.842715E2,1.8018436E1,3.419873E1,0E0,0E0,2.2097812E3,2.853082E4,4.1667664E2,9.262937E2,1.2868438E3,0E0,7.715258E3,7.3923994E3,2.1701191E3,1.5690273E3,3.0207422E2,3.420537E3,4.7898047E2,0E0,7.1118896E2,0E0,2.194459E3,3.7721768E3,0E0,0E0,0E0,8.885398E3,0E0,0E0,0E0,0E0,0E0,0E0,1.3364749E2,1.9976001E2,7.763641E1,5.469171E1,0E0,5.7944702E1,7.1694336E0,0E0,8.860289E0,3.29215E1,1.2516602E1,6.136709E2,4.8277246E2,4.964203E1,1.2805859E3,3.2885986E2,0E0,0E0,0E0,0E0,4.8318646E2,5.8649414E2,0E0,1.1872627E1,0E0,0E0,4.8671875E1,9.0683594E2,9.443994E2,6.9585312E3,2.3204187E2,1.3036511E2,1.4923235E2,1.4677441E2,1.1341172E3,2.6202656E3,5.5500254E3,6.947047E3,7.3147095E1,1.1807266E3,2.0128857E2,0E0,0E0,3.417383E1,4.2001416E2,3.2556348E2,0E0,0E0,7.5536865E1,4.0253027E2,2.0733008E2,0E0,0E0,0E0,5.1100278E2,1.6486875E3,3.7499688E3,1.9649609E3,9.039943E1,0E0,0E0,1.8926822E2,3.3487183E1,0E0,2.9568298E1,0E0,1.7634137E2,0E0,0E0,0E0,1.5924621E1,0E0,2.1198708E1,3.554473E-1,0E0,3.5820312E1,6.683771E1,0E0,3.4425684E2,1.0359413E1,9.844452E0,3.1236935E1,3.8050635E2,1.02252734E3,1.814729E2,1.1505029E2,5.17822E1,0E0,0E0,2.3177988E3,0E0,0E0,0E0,0E0,0E0,0E0,0E0,0E0,0E0,0E0,0E0,0E0,0E0,0E0,0E0,0E0,0E0,0E0,0E0,0E0,0E0,0E0,0E0,0E0,0E0,0E0,0E0,0E0,0E0,0E0,0E0,0E0,0E0,0E0,0E0,0E0,0E0,0E0,0E0,0E0,0E0,0E0,0E0,0E0,0E0,0E0,0E0,0E0,0E0,0E0,0E0,0E0,0E0,0E0,0E0,0E0,0E0,0E0,0E0,0E0,0E0,0E0,0E0,0E0,0E0,0E0,0E0,0E0,0E0,0E0,0E0,0E0,0E0,0E0,0E0,0E0,0E0,0E0,0E0,0E0,0E0,0E0,0E0,0E0,0E0,0E0,0E0,0E0,0E0,0E0,0E0,0E0],"parents":[2147483647,0,0,1,1,2,2,3,3,4,4,5,5,6,6,7,7,8,8,9,9,10,10,11,11,12,12,13,13,14,14,15,15,16,16,17,17,18,18,19,19,20,20,21,21,22,22,23,23,24,24,25,25,26,26,27,27,28,28,29,29,30,30,31,31,32,32,34,34,35,35,36,36,37,37,38,38,39,39,40,40,41,41,42,42,43,43,45,45,46,46,47,47,48,48,49,49,50,50,51,51,52,52,53,53,54,54,55,55,56,56,58,58,59,59,60,60,63,63,64,64,65,65,66,66,67,67,69,69,70,70,71,71,72,72,73,73,74,74,75,75,77,77,79,79,80,80,84,84,91,91,92,92,93,93,94,94,96,96,97,97,99,99,100,100,101,101,102,102,103,103,104,104,105,105,106,106,111,111,112,112,114,114,117,117,118,118,119,119,120,120,121,121,122,122,123,123,124,124,125,125,126,126,127,127,128,128,129,129,130,130,131,131,134,134,135,135,136,136,139,139,140,140,141,141,145,145,146,146,147,147,148,148,149,149,152,152,153,153,155,155,157,157,161,161,163,163,164,164,166,166,167,167,169,169,170,170,171,171,172,172,173,173,174,174,175,175,176,176,177,177,180,180],"right_children":[2,4,6,8,10,12,14,16,18,20,22,24,26,28,30,32,34,36,38,40,42,44,46,48,50,52,54,56,58,60,62,64,66,-1,68,70,72,74,76,78,80,82,84,86,-1,88,90,92,94,96,98,100,102,104,106,108,110,-1,112,114,116,-1,-1,118,120,122,124,126,-1,128,130,132,134,136,138,140,-1,142,-1,144,146,-1,-1,-1,148,-1,-1,-1,-1,-1,-1,150,152,154,156,-1,158,160,-1,162,164,166,168,170,172,174,176,-1,-1,-1,-1,178,180,-1,182,-1,-1,184,186,188,190,192,194,196,198,200,202,204,206,208,210,212,-1,-1,214,216,218,-1,-1,220,222,224,-1,-1,-1,226,228,230,232,234,-1,-1,236,238,-1,240,-1,242,-1,-1,-1,244,-1,246,248,-1,250,252,-1,254,256,258,260,262,264,266,268,270,-1,-1,272,-1,-1,-1,-1,-1,-1,-1,-1,-1,-1,-1,-1,-1,-1,-1,-1,-1,-1,-1,-1,-1,-1,-1,-1,-1,-1,-1,-1,-1,-1,-1,-1,-1,-1,-1,-1,-1,-1,-1,-1,-1,-1,-1,-1,-1,-1,-1,-1,-1,-1,-1,-1,-1,-1,-1,-1,-1,-1,-1,-1,-1,-1,-1,-1,-1,-1,-1,-1,-1,-1,-1,-1,-1,-1,-1,-1,-1,-1,-1,-1,-1,-1,-1,-1,-1,-1,-1,-1,-1,-1,-1,-1],"split_conditions":[3.32E0,1E0,1E0,2.0662006E9,2.79E0,2.8400023E9,5.1E0,1.6000275E9,1E0,1E0,3.97E0,1.6000275E9,3.93E0,4.38E0,1E0,2.49E0,1.65E0,8.8491205E10,2.44E0,2.0662006E9,1.1110853E9,3.22E0,1E0,3.46E0,5.1E0,3.7000315E9,7.0273126E9,4.29E0,2.0662006E9,5.53E0,6.89E0,1.1110354E9,4.46E0,-1.3047429E1,3.3E0,7.11041E9,1E0,2.69E0,8.8491205E10,1.1110874E9,1.99E0,2.58E0,1.97E0,3.8000392E9,-2.5610276E-2,4.29E0,4.99E0,3.93E0,3.99E0,6.03E0,6.89E0,3.49E0,3.8000392E9,3.8000317E9,6.38E0,3.38E0,3.38E0,1.733118E1,6.3E0,5.29E0,5.64E0,3.3756185E0,9.2717284E-1,1.48E0,1.1110853E9,1.23E0,1E0,3.06E0,2.38005E1,3.700045E9,7.1921004E9,3.11E0,3.28E0,1.7E0,1.99E0,2.73E0,1.0517938E1,2.44E0,2.3432878E1,2.89E0,2.32E0,3.9076316E0,1.0779691E0,2.2559181E1,2.0662006E9,2.3525743E0,7.544017E-1,3.1598835E0,6.9986725E-1,5.0969496E0,1.2329566E0,3.81E0,3.38E0,1E0,1E0,4.749819E0,4.5E0,1E0,-3.9861268E-1,3.46E0,3.6E0,3.700045E9,4.1167094E9,5.79E0,4.83E0,7.218063E9,7.218063E9,2.2826674E0,6.7528117E-1,-2.6008184E0,1.3703184E-1,1E0,4.19E0,3.0215514E-1,5.49E0,2.1931326E0,6.6511434E-1,1.4E0,1.68E0,1.58E0,1E0,2.58E0,3.22E0,3.27E0,2.91E0,2.69E0,2.69E0,2.06E0,3.8000392E9,2.02E0,1E0,3.07E0,4.4098577E0,1.197256E1,3.19E0,1.53E0,2E0,1.8300306E1,5.873917E0,2.54E0,3.57E0,1.1110853E9,-6.7451084E-1,1.611302E1,4.0524116E0,3.01E0,2.6E0,2.39E0,2.39E0,3.37E0,-1.0720184E0,4.3719E0,3.99E0,3.73E0,-6.5911305E-1,4.42E0,-7.735552E-1,1E0,3.7275932E0,1.2214942E0,2.4414001E-1,3.38E0,-4.6350944E-1,3.0000067E9,3.0000067E9,1.1991622E0,3.46E0,3.38E0,2.6984189E0,4.19E0,1E0,4.42E0,3.5E0,1E0,6.46E0,6.41E0,7.19E0,7.7975025E9,3.6657634E0,8.481112E0,4.49E0,-1.0792847E0,-2.1770164E-1,9.736258E0,7.1623216E0,5.7173343E0,1.04166975E1,2.0999818E0,8.407956E-1,5.399764E0,1.0961399E1,3.537825E0,-2.422824E-1,6.403287E-1,1.3177443E0,2.050602E0,-9.493979E-1,1.8711195E0,8.137744E0,2.472053E0,9.898838E0,1.0326567E1,6.638426E0,7.646945E0,1.5894576E0,4.9519725E0,2.579375E0,6.160837E-1,3.115244E-1,2.083392E0,3.578943E0,2.4123847E0,-5.5711895E-1,2.1052213E0,5.4525084E0,2.220274E0,7.919327E0,3.4218435E0,5.6332054E0,9.507766E-2,1.7942225E0,3.9589567E0,2.002984E0,3.3146503E0,7.340157E0,1.8818129E0,-1.2915385E0,-1.8003497E0,6.7084093E0,2.2818045E1,1.005363E1,7.572543E0,1.2100753E1,-3.901689E-1,1.8444169E0,-9.5201844E-1,2.213329E0,3.0315245E-2,1.0443901E0,6.6277087E-1,4.040355E-1,2.7162666E0,-2.931427E-2,-4.2293552E-1,5.370645E-1,1.035475E0,3.2206357E-1,-6.339374E-2,-3.1557077E-1,3.409379E0,4.9106665E0,1.364846E0,5.124511E-1,-1.3269593E-1,1.1476703E0,-3.7719566E-1,-9.982964E-1,4.677735E-1,2.993802E-1,8.481517E-1,5.5322055E-2,2.0708716E0,4.1527815E0,1.037937E0,3.8233159E0,2.712628E0,9.8328674E-1,6.2277853E-1,1.274884E-1,1.0862544E0,-1.8188152E-1,-3.2044038E-1,4.992862E0],"split_indices":[5,0,0,4,5,4,5,4,1,1,6,4,6,6,1,6,5,4,5,4,4,5,1,5,5,4,4,6,4,5,6,4,6,0,6,4,2,6,4,4,5,6,5,4,0,6,6,6,6,6,5,5,4,4,5,5,5,0,6,5,5,0,0,6,4,5,1,6,0,4,4,5,6,5,5,6,0,6,0,6,5,0,0,0,4,0,0,0,0,0,0,6,5,2,1,0,5,2,0,5,5,4,4,6,6,4,4,0,0,0,0,1,5,0,5,0,0,5,6,6,1,6,5,5,5,6,5,5,4,6,2,5,0,0,5,5,5,0,0,5,6,4,0,0,0,6,6,5,5,6,0,0,6,6,0,5,0,1,0,0,0,5,0,4,4,0,5,5,0,6,2,5,5,1,6,5,6,4,0,0,5,0,0,0,0,0,0,0,0,0,0,0,0,0,0,0,0,0,0,0,0,0,0,0,0,0,0,0,0,0,0,0,0,0,0,0,0,0,0,0,0,0,0,0,0,0,0,0,0,0,0,0,0,0,0,0,0,0,0,0,0,0,0,0,0,0,0,0,0,0,0,0,0,0,0,0,0,0,0,0,0,0,0,0,0,0,0,0,0,0,0,0,0],"split_type":[0,0,0,0,0,0,0,0,0,0,0,0,0,0,0,0,0,0,0,0,0,0,0,0,0,0,0,0,0,0,0,0,0,0,0,0,0,0,0,0,0,0,0,0,0,0,0,0,0,0,0,0,0,0,0,0,0,0,0,0,0,0,0,0,0,0,0,0,0,0,0,0,0,0,0,0,0,0,0,0,0,0,0,0,0,0,0,0,0,0,0,0,0,0,0,0,0,0,0,0,0,0,0,0,0,0,0,0,0,0,0,0,0,0,0,0,0,0,0,0,0,0,0,0,0,0,0,0,0,0,0,0,0,0,0,0,0,0,0,0,0,0,0,0,0,0,0,0,0,0,0,0,0,0,0,0,0,0,0,0,0,0,0,0,0,0,0,0,0,0,0,0,0,0,0,0,0,0,0,0,0,0,0,0,0,0,0,0,0,0,0,0,0,0,0,0,0,0,0,0,0,0,0,0,0,0,0,0,0,0,0,0,0,0,0,0,0,0,0,0,0,0,0,0,0,0,0,0,0,0,0,0,0,0,0,0,0,0,0,0,0,0,0,0,0,0,0,0,0,0,0,0,0,0,0,0,0,0,0,0,0,0,0,0,0,0,0,0,0,0,0,0,0],"sum_hessian":[4.006E3,2.425E3,1.581E3,2.279E3,1.46E2,1.473E3,1.08E2,8.74E2,1.405E3,1.23E2,2.3E1,3.72E2,1.101E3,8.8E1,2E1,7.24E2,1.5E2,1.295E3,1.1E2,5.7E1,6.6E1,9E0,1.4E1,1.91E2,1.81E2,1.39E2,9.62E2,8E0,8E1,1E1,1E1,6.03E2,1.21E2,1E0,1.49E2,1.151E3,1.44E2,4.6E1,6.4E1,1.4E1,4.3E1,4E0,6.2E1,8E0,1E0,5E0,9E0,1.1E1,1.8E2,8.1E1,1E2,4.1E1,9.8E1,3.72E2,5.9E2,6E0,2E0,1E0,7.9E1,5E0,5E0,9E0,1E0,2.31E2,3.72E2,1.15E2,6E0,1.47E2,2E0,7.38E2,4.13E2,1.31E2,1.3E1,3.9E1,7E0,6.2E1,2E0,9E0,5E0,7E0,3.6E1,3E0,1E0,1.2E1,5E1,6E0,2E0,2E0,3E0,8E0,1E0,5E0,6E0,6.1E1,1.19E2,7E1,1.1E1,9.8E1,2E0,8E0,3.3E1,3.5E1,6.3E1,1.66E2,2.06E2,3.25E2,2.65E2,4E0,2E0,1E0,1E0,1.1E1,6.8E1,1E0,4E0,2E0,3E0,5.6E1,1.75E2,1.41E2,2.31E2,5E0,1.1E2,2E0,4E0,7E1,7.7E1,3.91E2,3.47E2,2.29E2,1.84E2,5.5E1,7.6E1,3E0,1E1,7E0,3.2E1,3E0,4E0,9E0,5.3E1,8E0,1E0,5E0,2E0,1.5E1,2.1E1,1.1E1,3.9E1,4E0,1E0,3E0,3E0,6E1,1E0,1.18E2,1E0,5E0,6E0,9.7E1,1E0,2E0,6E0,2.9E1,4E0,1E0,3.4E1,3.2E1,3.1E1,1.55E2,1.1E1,1.36E2,7E1,6.6E1,2.59E2,1.14E2,1.51E2,6E0,5E0,3E0,6.5E1,1E0,3E0,1.1E1,4.5E1,1.72E2,3E0,6.6E1,7.5E1,2.17E2,1.4E1,4E0,1E0,8.9E1,2.1E1,1E0,1E0,1E0,3E0,2E0,6.8E1,2E1,5.7E1,8E0,3.83E2,1.03E2,2.44E2,6.5E1,1.64E2,1.42E2,4.2E1,5.4E1,1E0,2E0,8E0,2E0,5E0,2.2E1,1E1,2E0,7E0,4.2E1,1.1E1,5E0,3E0,1.2E1,3E0,1E0,2E1,6E0,5E0,2.1E1,1.8E1,1E0,3E0,1E0,2E0,2E0,5.8E1,6.3E1,5.5E1,3E0,2E0,1E0,1E0,2E0,2.7E1,1E0,3E0,1.6E1,1.8E1,2.3E1,9E0,1.3E1,1.42E2,9E0,2E0,3E1,1.06E2,2E0,6.8E1,6E1,6E0,2.52E2,7E0,3E0,1.11E2,1.15E2,3.6E1,3E0,3E0,5E0,6E1],"tree_param":{"num_deleted":"0","num_feature":"12","num_nodes":"273","size_leaf_vector":"0"}}]},"name":"gbtree"},"learner_model_param":{"base_score":"5E-1","num_class":"0","num_feature":"12"},"objective":{"name":"reg:squarederror","reg_loss_param":{"scale_pos_weight":"1"}}},"version":[1,5,2]}