{"learner":{"attributes":{"best_iteration":"16","best_ntree_limit":"17","scikit_learn":"{\"objective\": \"reg:squarederror\", \"learning_rate\": 0.04, \"verbosity\": null, \"booster\": null, \"tree_method\": \"hist\", \"gamma\": null, \"min_child_weight\": 2.0, \"max_delta_step\": null, \"subsample\": 0.30000000000000004, \"colsample_bytree\": 1.0, \"colsample_bylevel\": null, \"colsample_bynode\": null, \"reg_alpha\": null, \"reg_lambda\": null, \"scale_pos_weight\": null, \"base_score\": null, \"missing\": NaN, \"num_parallel_tree\": null, \"random_state\": 2020, \"n_jobs\": null, \"monotone_constraints\": null, \"interaction_constraints\": null, \"importance_type\": null, \"gpu_id\": null, \"validate_parameters\": null, \"predictor\": null, \"enable_categorical\": false, \"_estimator_type\": \"regressor\"}"},"feature_names":["FEATURE","DISPLAY","TPR_ONLY","STORE_NUM","UPC","PRICE","BASE_PRICE","STORE_ID","MSA_CODE","PARKING_SPACE_QTY","SALES_AREA_SIZE_NUM","AVG_WEEKLY_BASKETS"],"feature_types":["int","int","int","int","int","float","float","int","int","float","int","float"],"gradient_booster":{"model":{"gbtree_model_param":{"num_trees":"17","size_leaf_vector":"0"},"tree_info":[0,0,0,0,0,0,0,0,0,0,0,0,0,0,0,0,0],"trees":[{"base_weights":[1.3261344E1,1.043284E1,3.685215E1,1.3464388E1,4.078373E0,1.9643618E1,5.384946E1,1.2384409E1,2.1455645E1,1.0801724E1,3.196868E0,2.5644068E1,9.263889E0,6.9620964E1,2.1609375E1,5.4325694E-1,1.0137255E-1,8.1950414E-1,1.8149999E0,2.4E-2,4.6185184E-1,7.8901954E-2,1.9191709E-1,8.166666E-1,2.7366664E0,6.4E-1,2.9533333E-1,2.131282E0,3.7308333E0,9.712E-1,4.2249998E-1],"categories":[],"categories_nodes":[],"categories_segments":[],"categories_sizes":[],"default_left":[false,false,false,false,false,false,false,false,false,false,false,false,false,false,false,false,false,false,false,false,false,false,false,false,false,false,false,false,false,false,false],"id":0,"left_children":[1,3,5,7,9,11,13,15,17,19,21,23,25,27,29,-1,-1,-1,-1,-1,-1,-1,-1,-1,-1,-1,-1,-1,-1,-1,-1],"loss_changes":[1.1578666E5,2.9919656E4,5.334697E4,8.822078E3,2.9525088E3,5.617043E3,4.5783688E4,1.0930953E4,1.9415898E3,4.3363525E2,8.66749E2,1.1794941E4,3.3790137E2,1.8987969E4,6.876084E2,0E0,0E0,0E0,0E0,0E0,0E0,0E0,0E0,0E0,0E0,0E0,0E0,0E0,0E0,0E0,0E0],"parents":[2147483647,0,0,1,1,2,2,3,3,4,4,5,5,6,6,7,7,8,8,9,9,10,10,11,11,12,12,13,13,14,14],"right_children":[2,4,6,8,10,12,14,16,18,20,22,24,26,28,30,-1,-1,-1,-1,-1,-1,-1,-1,-1,-1,-1,-1,-1,-1,-1,-1],"split_conditions":[1E0,3.46E0,1E0,3.1254743E10,2.8400023E9,2.46E0,2.98E0,4.1167094E9,1E0,1.1110381E9,5.64E0,3.01E0,2.8400023E9,3.04E0,5.27E0,5.4325694E-1,1.0137255E-1,8.1950414E-1,1.8149999E0,2.4E-2,4.6185184E-1,7.8901954E-2,1.9191709E-1,8.166666E-1,2.7366664E0,6.4E-1,2.9533333E-1,2.131282E0,3.7308333E0,9.712E-1,4.2249998E-1],"split_indices":[1,6,0,4,4,5,5,4,0,4,6,6,4,6,5,0,0,0,0,0,0,0,0,0,0,0,0,0,0,0,0],"split_type":[0,0,0,0,0,0,0,0,0,0,0,0,0,0,0,0,0,0,0,0,0,0,0,0,0,0,0,0,0,0,0],"sum_hessian":[1.74E3,1.555E3,1.85E2,1.052E3,5.03E2,9.3E1,9.2E1,9.29E2,1.23E2,5.7E1,4.46E2,5.8E1,3.5E1,6.1E1,3.1E1,8.28E2,1.01E2,1.2E2,3E0,4E0,5.3E1,2.54E2,1.92E2,5.3E1,5E0,6E0,2.9E1,3.8E1,2.3E1,2.4E1,7E0],"tree_param":{"num_deleted":"0","num_feature":"12","num_nodes":"31","size_leaf_vector":"0"}},{"base_weights":[1.2318033E1,9.666796E0,3.5480473E1,1.2383951E1,3.9976583E0,4.5054035E1,1.7441742E1,1.1874943E1,2.926047E1,1.0140171E1,3.2226508E0,3.2619198E1,7.919877E1,2.9454182E1,1.4037753E1,4.427574E-1,7.7347267E-1,7.483778E-1,1.5425678E0,3.1232001E-2,4.3380427E-1,8.257039E-2,1.9106321E-1,8.645851E-1,1.8921168E0,5.2091947E0,2.4405894E0,1.6048917E0,8.896608E-1,2.7703235E-1,7.514101E-1],"categories":[],"categories_nodes":[],"categories_segments":[],"categories_sizes":[],"default_left":[false,false,false,false,false,false,false,false,false,false,false,false,false,false,false,false,false,false,false,false,false,false,false,false,false,false,false,false,false,false,false],"id":1,"left_children":[1,3,5,7,9,11,13,15,17,19,21,23,25,27,29,-1,-1,-1,-1,-1,-1,-1,-1,-1,-1,-1,-1,-1,-1,-1,-1],"loss_changes":[1.0571059E5,2.3841984E4,2.9781172E4,8.655156E3,2.3666104E3,4.6243766E4,2.1626152E3,5.9145625E3,2.2234004E3,3.6100684E2,7.983657E2,1.2874133E4,1.9892594E4,1.0791016E2,1.5918594E3,0E0,0E0,0E0,0E0,0E0,0E0,0E0,0E0,0E0,0E0,0E0,0E0,0E0,0E0,0E0,0E0],"parents":[2147483647,0,0,1,1,2,2,3,3,4,4,5,5,6,6,7,7,8,8,9,9,10,10,11,11,12,12,13,13,14,14],"right_children":[2,4,6,8,10,12,14,16,18,20,22,24,26,28,30,-1,-1,-1,-1,-1,-1,-1,-1,-1,-1,-1,-1,-1,-1,-1,-1],"split_conditions":[1E0,3.46E0,2.84E0,1E0,2.8400023E9,2.99E0,2.8400023E9,3.1254743E10,1.6000275E9,1.1110381E9,5.48E0,1E0,2E0,2.94E0,5.8E0,4.427574E-1,7.7347267E-1,7.483778E-1,1.5425678E0,3.1232001E-2,4.3380427E-1,8.257039E-2,1.9106321E-1,8.645851E-1,1.8921168E0,5.2091947E0,2.4405894E0,1.6048917E0,8.896608E-1,2.7703235E-1,7.514101E-1],"split_indices":[1,6,5,0,4,6,4,4,4,4,6,0,5,5,6,0,0,0,0,0,0,0,0,0,0,0,0,0,0,0,0],"split_type":[0,0,0,0,0,0,0,0,0,0,0,0,0,0,0,0,0,0,0,0,0,0,0,0,0,0,0,0,0,0,0],"sum_hessian":[1.726E3,1.55E3,1.76E2,1.047E3,5.03E2,1.14E2,6.2E1,1.018E3,2.9E1,5.5E1,4.48E2,8.5E1,2.9E1,1.2E1,5E1,9.21E2,9.7E1,1.5E1,1.4E1,4E0,5.1E1,2.58E2,1.9E2,5E1,3.5E1,6E0,2.3E1,3E0,9E0,2.1E1,2.9E1],"tree_param":{"num_deleted":"0","num_feature":"12","num_nodes":"31","size_leaf_vector":"0"}},{"base_weights":[1.2115906E1,9.762267E0,3.5236523E1,1.1880809E1,3.8793495E0,5.2684605E1,1.3596368E1,1.4219799E1,9.376156E0,1.06562195E1,2.7149653E0,3.6123135E1,8.0698E1,1.585579E1,4.273763E0,4.915843E-1,1.087386E0,2.7880785E-1,7.267066E-1,3.2392047E-2,4.671391E-1,6.798077E-2,1.664059E-1,6.5117776E-1,1.8352786E0,4.014164E0,1.0181419E0,4.595904E-1,8.174076E-1,3.0166414E-1,8.411122E-2],"categories":[],"categories_nodes":[],"categories_segments":[],"categories_sizes":[],"default_left":[false,false,false,false,false,false,false,false,false,false,false,false,false,false,false,false,false,false,false,false,false,false,false,false,false,false,false,false,false,false,false],"id":2,"left_children":[1,3,5,7,9,11,13,15,17,19,21,23,25,27,29,-1,-1,-1,-1,-1,-1,-1,-1,-1,-1,-1,-1,-1,-1,-1,-1],"loss_changes":[9.706353E4,2.0219094E4,6.158422E4,6.8674062E3,3.3799287E3,3.9303766E4,1.5120137E3,1.5081094E4,1.2141543E4,6.246743E2,5.359065E2,1.0678484E4,3.328003E4,9.64833E2,9.7652466E1,0E0,0E0,0E0,0E0,0E0,0E0,0E0,0E0,0E0,0E0,0E0,0E0,0E0,0E0,0E0,0E0],"parents":[2147483647,0,0,1,1,2,2,3,3,4,4,5,5,6,6,7,7,8,8,9,9,10,10,11,11,12,12,13,13,14,14],"right_children":[2,4,6,8,10,12,14,16,18,20,22,24,26,28,30,-1,-1,-1,-1,-1,-1,-1,-1,-1,-1,-1,-1,-1,-1,-1,-1],"split_conditions":[1E0,3.59E0,2.98E0,2.8400023E9,2.8400023E9,3.7000315E9,7.218064E9,1.6000275E9,3.1254743E10,1.1110381E9,5.64E0,1E0,4.1167094E9,1E0,4.5E0,4.915843E-1,1.087386E0,2.7880785E-1,7.267066E-1,3.2392047E-2,4.671391E-1,6.798077E-2,1.664059E-1,6.5117776E-1,1.8352786E0,4.014164E0,1.0181419E0,4.595904E-1,8.174076E-1,3.0166414E-1,8.411122E-2],"split_indices":[0,6,5,4,4,4,4,4,4,4,6,1,4,1,5,0,0,0,0,0,0,0,0,0,0,0,0,0,0,0,0],"split_type":[0,0,0,0,0,0,0,0,0,0,0,0,0,0,0,0,0,0,0,0,0,0,0,0,0,0,0,0,0,0,0],"sum_hessian":[1.789E3,1.625E3,1.64E2,1.194E3,4.31E2,9E1,7.4E1,6.15E2,5.79E2,6.2E1,3.69E2,5.8E1,3.2E1,5.9E1,1.5E1,5.37E2,7.8E1,4.56E2,1.23E2,6E0,5.6E1,2.18E2,1.51E2,2E1,3.8E1,2.3E1,9E0,3.2E1,2.7E1,5E0,1E1],"tree_param":{"num_deleted":"0","num_feature":"12","num_nodes":"31","size_leaf_vector":"0"}},{"base_weights":[1.1349192E1,9.030452E0,3.0138578E1,1.1655723E1,3.4227417E0,4.8299717E1,1.9417427E1,1.1082243E1,2.665416E1,8.581842E0,2.7089431E0,3.6712112E1,1.2018378E2,1.0812746E1,2.7555075E1,4.1164044E-1,7.5450546E-1,6.778287E-1,1.8187174E0,1.943316E-2,3.8734138E-1,8.296912E-2,2.966051E-1,8.6795133E-1,2.7186902E0,6.676582E0,2.7599719E0,2.7163675E-1,7.568934E-1,1.6322494E0,7.963735E-1],"categories":[],"categories_nodes":[],"categories_segments":[],"categories_sizes":[],"default_left":[false,false,false,false,false,false,false,false,false,false,false,false,false,false,false,false,false,false,false,false,false,false,false,false,false,false,false,false,false,false,false],"id":3,"left_children":[1,3,5,7,9,11,13,15,17,19,21,23,25,27,29,-1,-1,-1,-1,-1,-1,-1,-1,-1,-1,-1,-1,-1,-1,-1,-1],"loss_changes":[7.327014E4,2.2101633E4,3.5083188E4,8.512344E3,1.7480635E3,5.2229344E4,7.964633E3,5.8881094E3,5.9876543E3,5.1261523E2,1.251144E3,2.6679812E4,1.0010023E4,1.7958066E3,5.2664688E3,0E0,0E0,0E0,0E0,0E0,0E0,0E0,0E0,0E0,0E0,0E0,0E0,0E0,0E0,0E0,0E0],"parents":[2147483647,0,0,1,1,2,2,3,3,4,4,5,5,6,6,7,7,8,8,9,9,10,10,11,11,12,12,13,13,14,14],"right_children":[2,4,6,8,10,12,14,16,18,20,22,24,26,28,30,-1,-1,-1,-1,-1,-1,-1,-1,-1,-1,-1,-1,-1,-1,-1,-1],"split_conditions":[1E0,3.59E0,2.03E0,1E0,2.8400023E9,2.99E0,1E0,3.1254743E10,3.21E0,1.1110381E9,1E0,3.0000067E9,2.8400023E9,3.01E0,2.98E0,4.1164044E-1,7.5450546E-1,6.778287E-1,1.8187174E0,1.943316E-2,3.8734138E-1,8.296912E-2,2.966051E-1,8.6795133E-1,2.7186902E0,6.676582E0,2.7599719E0,2.7163675E-1,7.568934E-1,1.6322494E0,7.963735E-1],"split_indices":[1,6,5,0,4,6,0,4,6,4,0,4,4,6,5,0,0,0,0,0,0,0,0,0,0,0,0,0,0,0,0],"split_type":[0,0,0,0,0,0,0,0,0,0,0,0,0,0,0,0,0,0,0,0,0,0,0,0,0,0,0,0,0,0,0],"sum_hessian":[1.687E3,1.503E3,1.84E2,1.023E3,4.8E2,6.7E1,1.17E2,9.87E2,3.6E1,5.7E1,4.23E2,5.9E1,8E0,5.8E1,5.9E1,8.98E2,8.9E1,2.5E1,1.1E1,7E0,5E1,3.74E2,4.9E1,4.1E1,1.8E1,3E0,5E0,4E1,1.8E1,2E1,3.9E1],"tree_param":{"num_deleted":"0","num_feature":"12","num_nodes":"31","size_leaf_vector":"0"}},{"base_weights":[1.0933095E1,8.751382E0,3.0360006E1,1.1016965E1,3.5668762E0,1.655402E1,4.5962597E1,9.983392E0,1.8976631E1,1.3124462E0,3.37785E0,2.2190632E1,1.2308081E1,6.403384E1,2.1765003E1,4.5051157E-1,5.166041E-2,7.213999E-1,1.5262867E0,3.1874228E-1,1.10285126E-1,6.6779447E-1,1.5706207E0,8.925314E-1,2.8472635E-1,1.5213922E0,3.7764769E0,9.2079526E-1,-5.210476E-3],"categories":[],"categories_nodes":[],"categories_segments":[],"categories_sizes":[],"default_left":[false,false,false,false,true,false,false,false,false,false,false,false,false,false,false,false,false,false,false,false,false,false,false,false,false,false,false,false,false],"id":4,"left_children":[1,3,5,7,9,11,13,15,17,-1,19,21,23,25,27,-1,-1,-1,-1,-1,-1,-1,-1,-1,-1,-1,-1,-1,-1],"loss_changes":[7.4626766E4,1.8636719E4,3.7581953E4,8.9095E3,2.5702192E3,2.024416E3,3.490058E4,1.0894547E4,1.5875273E3,0E0,1.3543628E3,3.0980527E3,2.8009658E3,3.3529703E4,1.0196074E3,0E0,0E0,0E0,0E0,0E0,0E0,0E0,0E0,0E0,0E0,0E0,0E0,0E0,0E0],"parents":[2147483647,0,0,1,1,2,2,3,3,4,4,5,5,6,6,7,7,8,8,10,10,11,11,12,12,13,13,14,14],"right_children":[2,4,6,8,10,12,14,16,18,-1,20,22,24,26,28,-1,-1,-1,-1,-1,-1,-1,-1,-1,-1,-1,-1,-1,-1],"split_conditions":[1E0,3.59E0,1E0,3.1254743E10,2.5E0,1.99E0,2.79E0,4.1167094E9,1E0,1.3124462E0,2.8400023E9,1.1110874E9,2.8400023E9,3.5000689E9,7.29E0,4.5051157E-1,5.166041E-2,7.213999E-1,1.5262867E0,3.1874228E-1,1.10285126E-1,6.6779447E-1,1.5706207E0,8.925314E-1,2.8472635E-1,1.5213922E0,3.7764769E0,9.2079526E-1,-5.210476E-3],"split_indices":[1,6,0,4,5,5,5,4,0,0,4,4,4,4,6,0,0,0,0,0,0,0,0,0,0,0,0,0,0],"split_type":[0,0,0,0,0,0,0,0,0,0,0,0,0,0,0,0,0,0,0,0,0,0,0,0,0,0,0,0,0],"sum_hessian":[1.766E3,1.589E3,1.77E2,1.105E3,4.84E2,9.5E1,8.2E1,9.8E2,1.25E2,2E0,4.82E2,3.9E1,5.6E1,4.6E1,3.6E1,8.54E2,1.26E2,1.21E2,4E0,5.6E1,4.26E2,3.1E1,8E0,1.8E1,3.8E1,2.6E1,2E1,3.4E1,2E0],"tree_param":{"num_deleted":"0","num_feature":"12","num_nodes":"29","size_leaf_vector":"0"}},{"base_weights":[1.0599772E1,8.5135355E0,2.8819416E1,1.0733248E1,3.064639E0,5.5274654E1,1.8259327E1,1.2811763E1,8.492789E0,8.376445E0,2.1093554E0,3.1021511E1,1.0790538E2,4.329401E1,1.3707107E1,2.9719514E-1,6.5943396E-1,2.6107067E-1,6.5476143E-1,2.5440194E-3,3.657122E-1,4.334551E-2,1.0696301E-1,8.6391944E-1,5.224885E0,4.664316E0,1.2530048E0,8.2504034E-1,2.1565297E0,7.952548E-2,6.4119893E-1],"categories":[],"categories_nodes":[],"categories_segments":[],"categories_sizes":[],"default_left":[false,false,false,false,false,false,false,false,false,false,false,false,false,false,false,false,false,false,false,false,false,false,false,false,false,false,false,false,false,false,false],"id":5,"left_children":[1,3,5,7,9,11,13,15,17,19,21,23,25,27,29,-1,-1,-1,-1,-1,-1,-1,-1,-1,-1,-1,-1,-1,-1,-1,-1],"loss_changes":[6.798347E4,1.9464219E4,5.039475E4,5.2232656E3,2.3570947E3,6.3028547E4,1.4563691E4,1.158343E4,8.471785E3,4.517339E2,2.2764111E2,3.1906613E4,7.010328E3,3.7023203E3,3.0713926E3,0E0,0E0,0E0,0E0,0E0,0E0,0E0,0E0,0E0,0E0,0E0,0E0,0E0,0E0,0E0,0E0],"parents":[2147483647,0,0,1,1,2,2,3,3,4,4,5,5,6,6,7,7,8,8,9,9,10,10,11,11,12,12,13,13,14,14],"right_children":[2,4,6,8,10,12,14,16,18,20,22,24,26,28,30,-1,-1,-1,-1,-1,-1,-1,-1,-1,-1,-1,-1,-1,-1,-1,-1],"split_conditions":[1E0,3.59E0,2.29E0,2.8400023E9,2.8400023E9,3.0000067E9,2.8400023E9,1.1110853E9,3.1254743E10,1.1110381E9,7.1921004E9,3.17E0,2.03E0,1.6000275E9,3.8000317E9,2.9719514E-1,6.5943396E-1,2.6107067E-1,6.5476143E-1,2.5440194E-3,3.657122E-1,4.334551E-2,1.0696301E-1,8.6391944E-1,5.224885E0,4.664316E0,1.2530048E0,8.2504034E-1,2.1565297E0,7.952548E-2,6.4119893E-1],"split_indices":[0,6,5,4,4,4,4,4,4,4,4,6,5,4,4,0,0,0,0,0,0,0,0,0,0,0,0,0,0,0,0],"split_type":[0,0,0,0,0,0,0,0,0,0,0,0,0,0,0,0,0,0,0,0,0,0,0,0,0,0,0,0,0,0,0],"sum_hessian":[1.794E3,1.611E3,1.83E2,1.144E3,4.67E2,5.1E1,1.32E2,5.91E2,5.53E2,7E1,3.97E2,3.6E1,1.5E1,1.9E1,1.13E2,2.41E2,3.5E2,4.44E2,1.09E2,6E0,6.4E1,1.42E2,2.55E2,3.4E1,2E0,1.3E1,2E0,7E0,1.2E1,1.9E1,9.4E1],"tree_param":{"num_deleted":"0","num_feature":"12","num_nodes":"31","size_leaf_vector":"0"}},{"base_weights":[1.0536667E1,8.436443E0,2.8790403E1,1.0520164E1,2.9781363E0,4.690858E1,9.924794E0,1.2263526E1,8.728972E0,7.8702383E0,2.316149E0,6.0743195E1,3.6365383E1,9.1526645E-1,7.546606E0,3.1661138E-1,6.1836827E-1,7.324927E-2,4.3221655E-1,3.2530716E-1,4.191084E-2,5.4629155E-2,1.4260218E-1,9.579299E-1,3.9300737E0,9.0332854E-1,1.7881683E0,2.2148944E-1,4.739512E-1],"categories":[],"categories_nodes":[],"categories_segments":[],"categories_sizes":[],"default_left":[false,false,false,false,false,false,false,false,false,false,false,false,false,false,false,false,false,false,false,false,false,false,false,false,false,false,false,false,false],"id":6,"left_children":[1,3,5,7,9,11,13,15,17,19,21,23,25,-1,27,-1,-1,-1,-1,-1,-1,-1,-1,-1,-1,-1,-1,-1,-1],"loss_changes":[6.4929875E4,1.7324758E4,5.935128E4,3.3404062E3,1.3516611E3,1.0772672E4,2.508128E3,7.6174766E3,7.829082E3,8.100342E1,4.3906348E2,4.8711812E4,5.0815703E3,0E0,5.8273926E2,0E0,0E0,0E0,0E0,0E0,0E0,0E0,0E0,0E0,0E0,0E0,0E0,0E0,0E0],"parents":[2147483647,0,0,1,1,2,2,3,3,4,4,5,5,6,6,7,7,8,8,9,9,10,10,11,11,12,12,14,14],"right_children":[2,4,6,8,10,12,14,16,18,20,22,24,26,-1,28,-1,-1,-1,-1,-1,-1,-1,-1,-1,-1,-1,-1,-1,-1],"split_conditions":[1E0,3.59E0,2.66E0,2.8400023E9,2.8400023E9,1.99E0,2.8400023E9,1.1110853E9,3.0000067E9,1E0,5.48E0,1.1110874E9,1E0,9.1526645E-1,1E0,3.1661138E-1,6.1836827E-1,7.324927E-2,4.3221655E-1,3.2530716E-1,4.191084E-2,5.4629155E-2,1.4260218E-1,9.579299E-1,3.9300737E0,9.0332854E-1,1.7881683E0,2.2148944E-1,4.739512E-1],"split_indices":[0,6,5,4,4,5,4,4,4,2,6,4,1,0,1,0,0,0,0,0,0,0,0,0,0,0,0,0,0],"split_type":[0,0,0,0,0,0,0,0,0,0,0,0,0,0,0,0,0,0,0,0,0,0,0,0,0,0,0,0,0],"sum_hessian":[1.699E3,1.525E3,1.74E2,1.103E3,4.22E2,8.8E1,8.6E1,5.56E2,5.47E2,4.9E1,3.73E2,3.6E1,5.2E1,1.2E1,7.4E1,2.37E2,3.19E2,1.27E2,4.2E2,4.7E1,2E0,2.13E2,1.6E2,1.9E1,1.7E1,2.1E1,3.1E1,5.2E1,2.2E1],"tree_param":{"num_deleted":"0","num_feature":"12","num_nodes":"29","size_leaf_vector":"0"}},{"base_weights":[9.571379E0,7.501899E0,2.8456907E1,9.585749E0,3.0026383E0,3.636992E1,1.213164E1,5.4472985E0,1.0728218E1,7.8471856E0,2.3778155E0,1.981622E1,5.376723E1,1.4567173E1,6.0453644E0,4.812098E-1,5.658252E-2,6.011442E-1,3.0962697E-1,-1.3153085E-3,3.3815908E-1,8.524078E-2,5.5729556E-1,1.0344031E0,3.587654E-1,1.435196E0,2.789372E0,1.0921298E-1,6.63029E-1,2.7856806E-1,-3.480887E-2],"categories":[],"categories_nodes":[],"categories_segments":[],"categories_sizes":[],"default_left":[false,false,false,false,false,false,false,false,false,false,false,false,false,false,false,false,false,false,false,false,false,false,false,false,false,false,false,false,false,false,false],"id":7,"left_children":[1,3,5,7,9,11,13,15,17,19,21,23,25,27,29,-1,-1,-1,-1,-1,-1,-1,-1,-1,-1,-1,-1,-1,-1,-1,-1],"loss_changes":[6.720508E4,1.455993E4,2.1519719E4,4.9674844E3,1.4766714E3,3.176539E4,7.568662E2,6.141953E3,1.0572859E4,2.6804517E2,1.2221711E3,3.7015527E3,1.3206391E4,9.0573926E2,1.20437744E2,0E0,0E0,0E0,0E0,0E0,0E0,0E0,0E0,0E0,0E0,0E0,0E0,0E0,0E0,0E0,0E0],"parents":[2147483647,0,0,1,1,2,2,3,3,4,4,5,5,6,6,7,7,8,8,9,9,10,10,11,11,12,12,13,13,14,14],"right_children":[2,4,6,8,10,12,14,16,18,20,22,24,26,28,30,-1,-1,-1,-1,-1,-1,-1,-1,-1,-1,-1,-1,-1,-1,-1,-1],"split_conditions":[1E0,3.46E0,2.84E0,1.1110853E9,2.8400023E9,1E0,7.218063E9,1.25E0,2.8400023E9,1.1110381E9,8.8491205E10,2.68E0,2.99E0,2.91E0,7.49E0,4.812098E-1,5.658252E-2,6.011442E-1,3.0962697E-1,-1.3153085E-3,3.3815908E-1,8.524078E-2,5.5729556E-1,1.0344031E0,3.587654E-1,1.435196E0,2.789372E0,1.0921298E-1,6.63029E-1,2.7856806E-1,-3.480887E-2],"split_indices":[1,6,5,4,4,0,4,6,4,4,4,6,6,6,6,0,0,0,0,0,0,0,0,0,0,0,0,0,0,0,0],"split_type":[0,0,0,0,0,0,0,0,0,0,0,0,0,0,0,0,0,0,0,0,0,0,0,0,0,0,0,0,0,0,0],"sum_hessian":[1.724E3,1.555E3,1.69E2,1.062E3,4.93E2,1.13E2,5.6E1,2.31E2,8.31E2,5.5E1,4.38E2,5.9E1,5.4E1,3.9E1,1.7E1,8.7E1,1.44E2,3.39E2,4.92E2,4E0,5.1E1,4.3E2,8E0,3.7E1,2.2E1,2.7E1,2.7E1,6E0,3.3E1,1.5E1,2E0],"tree_param":{"num_deleted":"0","num_feature":"12","num_nodes":"31","size_leaf_vector":"0"}},{"base_weights":[8.875774E0,7.2926064E0,2.2349266E1,8.864611E0,2.766651E0,1.3951095E1,3.0685738E1,8.393192E0,1.9719233E1,7.2325735E0,2.2084794E0,1.8053747E1,8.856125E0,3.9332848E1,1.3783694E1,3.105852E-1,5.663918E-1,1.1667783E0,2.2011814E-1,-3.5403888E-3,3.1867576E-1,3.9558854E-2,1.3884465E-1,4.8650503E-1,1.1924887E0,6.7326015E-1,1.7702177E-1,1.191097E0,2.44755E0,6.8961805E-1,1.7819121E-1],"categories":[],"categories_nodes":[],"categories_segments":[],"categories_sizes":[],"default_left":[false,false,false,false,false,false,false,false,false,false,false,false,false,false,false,false,false,false,false,false,false,false,false,false,false,false,false,false,false,false,false],"id":8,"left_children":[1,3,5,7,9,11,13,15,17,19,21,23,25,27,29,-1,-1,-1,-1,-1,-1,-1,-1,-1,-1,-1,-1,-1,-1,-1,-1],"loss_changes":[3.665397E4,1.0974992E4,1.2243906E4,5.7037734E3,9.8112744E2,1.7631816E3,1.2611703E4,3.8808203E3,6.153795E3,2.3725E2,5.462743E2,3.1009336E3,1.4449402E3,1.0499656E4,9.5512695E2,0E0,0E0,0E0,0E0,0E0,0E0,0E0,0E0,0E0,0E0,0E0,0E0,0E0,0E0,0E0,0E0],"parents":[2147483647,0,0,1,1,2,2,3,3,4,4,5,5,6,6,7,7,8,8,9,9,10,10,11,11,12,12,13,13,14,14],"right_children":[2,4,6,8,10,12,14,16,18,20,22,24,26,28,30,-1,-1,-1,-1,-1,-1,-1,-1,-1,-1,-1,-1,-1,-1,-1,-1],"split_conditions":[1E0,3.79E0,1E0,1E0,2.8400023E9,2.46E0,2.84E0,8.8491205E10,2.49E0,1.1110381E9,5.48E0,3.0000067E9,2.8400023E9,3.04E0,7.218063E9,3.105852E-1,5.663918E-1,1.1667783E0,2.2011814E-1,-3.5403888E-3,3.1867576E-1,3.9558854E-2,1.3884465E-1,4.8650503E-1,1.1924887E0,6.7326015E-1,1.7702177E-1,1.191097E0,2.44755E0,6.8961805E-1,1.7819121E-1],"split_indices":[1,5,0,0,4,5,5,4,5,4,6,4,4,6,4,0,0,0,0,0,0,0,0,0,0,0,0,0,0,0,0],"split_type":[0,0,0,0,0,0,0,0,0,0,0,0,0,0,0,0,0,0,0,0,0,0,0,0,0,0,0,0,0,0,0],"sum_hessian":[1.725E3,1.545E3,1.8E2,1.146E3,3.99E2,9.1E1,8.9E1,1.1E3,4.6E1,4.3E1,3.56E2,4.9E1,4.2E1,5.8E1,3.1E1,9.94E2,1.06E2,2.7E1,1.9E1,4E0,3.9E1,1.82E2,1.74E2,3.4E1,1.5E1,1.4E1,2.8E1,4.2E1,1.6E1,2.2E1,9E0],"tree_param":{"num_deleted":"0","num_feature":"12","num_nodes":"31","size_leaf_vector":"0"}},{"base_weights":[9.876018E0,7.6990094E0,2.8380163E1,9.714452E0,2.8294804E0,4.3809937E1,1.0920635E1,5.74753E0,1.0789515E1,7.052014E0,2.0785391E0,3.210471E1,6.2872757E1,1.4364153E1,3.9034853E0,4.2476898E-1,1.3082037E-2,5.8724743E-1,3.26223E-1,2.5018623E-1,5.859044E-1,7.426698E-2,5.7458E-1,4.6119526E-1,1.7664545E0,4.5288696E0,1.7058207E0,3.752938E-1,7.3720145E-1,2.2268781E-1,-3.127753E-2],"categories":[],"categories_nodes":[],"categories_segments":[],"categories_sizes":[],"default_left":[false,false,false,false,false,false,false,false,false,false,false,false,false,false,false,false,false,false,false,false,false,false,false,false,false,false,false,false,false,false,false],"id":9,"left_children":[1,3,5,7,9,11,13,15,17,19,21,23,25,27,29,-1,-1,-1,-1,-1,-1,-1,-1,-1,-1,-1,-1,-1,-1,-1,-1],"loss_changes":[7.225181E4,1.5783281E4,5.0437516E4,4.795461E3,1.485166E3,2.0294953E4,2.1186602E3,6.466221E3,9.054406E3,3.3838916E2,1.0718354E3,1.5366891E4,3.285317E4,1.0424102E3,2.4600397E2,0E0,0E0,0E0,0E0,0E0,0E0,0E0,0E0,0E0,0E0,0E0,0E0,0E0,0E0,0E0,0E0],"parents":[2147483647,0,0,1,1,2,2,3,3,4,4,5,5,6,6,7,7,8,8,9,9,10,10,11,11,12,12,13,13,14,14],"right_children":[2,4,6,8,10,12,14,16,18,20,22,24,26,28,30,-1,-1,-1,-1,-1,-1,-1,-1,-1,-1,-1,-1,-1,-1,-1,-1],"split_conditions":[1E0,3.46E0,2.81E0,1.1110853E9,2.8400023E9,3.7000315E9,7.218063E9,1.1110354E9,2.8400023E9,1E0,8.8491205E10,1E0,2E0,1E0,4.97E0,4.2476898E-1,1.3082037E-2,5.8724743E-1,3.26223E-1,2.5018623E-1,5.859044E-1,7.426698E-2,5.7458E-1,4.6119526E-1,1.7664545E0,4.5288696E0,1.7058207E0,3.752938E-1,7.3720145E-1,2.2268781E-1,-3.127753E-2],"split_indices":[0,6,5,4,4,4,4,4,4,1,4,1,5,1,5,0,0,0,0,0,0,0,0,0,0,0,0,0,0,0,0],"split_type":[0,0,0,0,0,0,0,0,0,0,0,0,0,0,0,0,0,0,0,0,0,0,0,0,0,0,0,0,0,0,0],"sum_hessian":[1.798E3,1.61E3,1.88E2,1.138E3,4.72E2,9.9E1,8.9E1,2.44E2,8.94E2,7E1,4.02E2,6.3E1,3.6E1,5.9E1,3E1,1.28E2,1.16E2,3.59E2,5.35E2,6.5E1,5E0,3.96E2,6E0,2.4E1,3.9E1,9E0,2.7E1,2.8E1,3.1E1,2.2E1,8E0],"tree_param":{"num_deleted":"0","num_feature":"12","num_nodes":"31","size_leaf_vector":"0"}},{"base_weights":[8.673743E0,7.032599E0,2.1800411E1,8.873321E0,2.841887E0,3.427381E1,8.962394E0,8.25139E0,1.438026E1,7.6876907E0,2.0715683E0,2.6163374E1,5.097432E1,1.58709135E1,7.555016E0,3.8112357E-1,-2.3787046E-2,1.6077043E0,5.395532E-1,-5.2767266E-3,3.2323477E-1,7.39107E-2,5.1227343E-1,8.1042784E-1,2.041481E0,3.0718355E0,9.4322807E-1,7.183159E-2,7.159272E-1,2.1064577E-1,4.5594734E-1],"categories":[],"categories_nodes":[],"categories_segments":[],"categories_sizes":[],"default_left":[false,false,false,false,false,false,false,false,false,false,false,false,false,false,false,false,false,false,false,false,false,false,false,false,false,false,false,false,false,false,false],"id":10,"left_children":[1,3,5,7,9,11,13,15,17,19,21,23,25,27,29,-1,-1,-1,-1,-1,-1,-1,-1,-1,-1,-1,-1,-1,-1,-1,-1],"loss_changes":[3.6383203E4,1.1615109E4,2.979796E4,3.4706719E3,1.7086343E3,1.1533945E4,7.940469E2,1.0666977E4,1.8738906E3,1.9475977E2,9.373605E2,8.656152E3,1.9409484E4,3.958694E2,6.4378564E2,0E0,0E0,0E0,0E0,0E0,0E0,0E0,0E0,0E0,0E0,0E0,0E0,0E0,0E0,0E0,0E0],"parents":[2147483647,0,0,1,1,2,2,3,3,4,4,5,5,6,6,7,7,8,8,9,9,10,10,11,11,12,12,13,13,14,14],"right_children":[2,4,6,8,10,12,14,16,18,20,22,24,26,28,30,-1,-1,-1,-1,-1,-1,-1,-1,-1,-1,-1,-1,-1,-1,-1,-1],"split_conditions":[1E0,3.46E0,2.66E0,3.1254743E10,2.8400023E9,3.7000315E9,3.37E0,4.1167094E9,2.39E0,1.1110381E9,8.8491205E10,3.06E0,4.1167094E9,3.21E0,1E0,3.8112357E-1,-2.3787046E-2,1.6077043E0,5.395532E-1,-5.2767266E-3,3.2323477E-1,7.39107E-2,5.1227343E-1,8.1042784E-1,2.041481E0,3.0718355E0,9.4322807E-1,7.183159E-2,7.159272E-1,2.1064577E-1,4.5594734E-1],"split_indices":[0,6,5,4,4,4,6,4,5,4,4,6,4,6,1,0,0,0,0,0,0,0,0,0,0,0,0,0,0,0,0],"split_type":[0,0,0,0,0,0,0,0,0,0,0,0,0,0,0,0,0,0,0,0,0,0,0,0,0,0,0,0,0,0,0],"sum_hessian":[1.695E3,1.508E3,1.87E2,1.047E3,4.61E2,9.4E1,9.3E1,9.43E2,1.04E2,6.2E1,3.99E2,6.5E1,2.9E1,1.4E1,7.9E1,8.24E2,1.19E2,2E0,1.02E2,3E0,5.9E1,3.92E2,7E0,5.4E1,1.1E1,1.4E1,1.5E1,2E0,1.2E1,5.1E1,2.8E1],"tree_param":{"num_deleted":"0","num_feature":"12","num_nodes":"31","size_leaf_vector":"0"}},{"base_weights":[8.352932E0,6.6884065E0,2.2007513E1,8.598455E0,2.6716192E0,1.2791667E1,3.0976084E1,4.3983274E0,9.783409E0,6.9376526E0,2.007972E0,1.6234674E1,8.168117E0,4.4504635E1,1.4777358E1,3.34676E-1,-6.094622E-3,9.5199E-1,3.526909E-1,-5.425719E-3,2.9174313E-1,7.2675794E-2,4.5434386E-1,5.345344E-1,1.8365579E0,4.0168312E-1,-2.3319589E-2,1.1692799E0,3.0462253E0,8.018062E-1,3.821668E-1],"categories":[],"categories_nodes":[],"categories_segments":[],"categories_sizes":[],"default_left":[false,false,false,false,false,false,false,false,false,false,false,false,false,false,false,false,false,false,false,false,false,false,false,false,false,false,false,false,false,false,false],"id":11,"left_children":[1,3,5,7,9,11,13,15,17,19,21,23,25,27,29,-1,-1,-1,-1,-1,-1,-1,-1,-1,-1,-1,-1,-1,-1,-1,-1],"loss_changes":[3.6968273E4,1.115552E4,1.4233344E4,4.8692266E3,1.3195366E3,1.2841768E3,1.8846266E4,3.9563618E3,1.0203711E4,1.5959595E2,7.1011865E2,3.6473613E3,6.618237E2,2.0976742E4,9.6410254E2,0E0,0E0,0E0,0E0,0E0,0E0,0E0,0E0,0E0,0E0,0E0,0E0,0E0,0E0,0E0,0E0],"parents":[2147483647,0,0,1,1,2,2,3,3,4,4,5,5,6,6,7,7,8,8,9,9,10,10,11,11,12,12,13,13,14,14],"right_children":[2,4,6,8,10,12,14,16,18,20,22,24,26,28,30,-1,-1,-1,-1,-1,-1,-1,-1,-1,-1,-1,-1,-1,-1,-1,-1],"split_conditions":[1E0,3.46E0,1E0,1.1110853E9,2.8400023E9,2.46E0,2.68E0,1.1110354E9,1.76E0,1.1110381E9,8.8491205E10,3.5000689E9,7.218063E9,3.5000689E9,4.59E0,3.34676E-1,-6.094622E-3,9.5199E-1,3.526909E-1,-5.425719E-3,2.9174313E-1,7.2675794E-2,4.5434386E-1,5.345344E-1,1.8365579E0,4.0168312E-1,-2.3319589E-2,1.1692799E0,3.0462253E0,8.018062E-1,3.821668E-1],"split_indices":[1,6,0,4,4,5,5,4,5,4,4,4,4,4,5,0,0,0,0,0,0,0,0,0,0,0,0,0,0,0,0],"split_type":[0,0,0,0,0,0,0,0,0,0,0,0,0,0,0,0,0,0,0,0,0,0,0,0,0,0,0,0,0,0,0],"sum_hessian":[1.632E3,1.456E3,1.76E2,9.86E2,4.7E2,8.8E1,8.8E1,2.18E2,7.68E2,6.2E1,4.08E2,4.9E1,3.9E1,4.7E1,4.1E1,1.16E2,1.02E2,4.8E1,7.2E2,3E0,5.9E1,4.01E2,7E0,4.6E1,3E0,3.2E1,7E0,3.3E1,1.4E1,1.9E1,2.2E1],"tree_param":{"num_deleted":"0","num_feature":"12","num_nodes":"31","size_leaf_vector":"0"}},{"base_weights":[8.587585E0,6.6396594E0,2.725835E1,8.426247E0,2.2740192E0,4.80859E1,1.4280961E1,7.855281E0,1.5007243E1,5.925015E0,1.6277084E0,2.8117682E1,7.985436E1,3.8496563E0,3.3543392E1,1.497389E-1,3.5534763E-1,4.1806906E-1,1.0281854E0,9.703477E-2,2.9449594E-1,2.7185367E-2,1.1870048E-1,8.182082E-1,3.045259E0,4.736619E0,1.0809062E0,-1.1534375E-1,2.1597335E-1,3.235715E0,9.1821533E-1],"categories":[],"categories_nodes":[],"categories_segments":[],"categories_sizes":[],"default_left":[false,false,false,false,false,false,false,false,false,false,false,false,false,false,false,false,false,false,false,false,false,false,false,false,false,false,false,false,false,false,false],"id":12,"left_children":[1,3,5,7,9,11,13,15,17,19,21,23,25,27,29,-1,-1,-1,-1,-1,-1,-1,-1,-1,-1,-1,-1,-1,-1,-1,-1],"loss_changes":[6.153765E4,1.1976617E4,4.2559242E4,3.9815781E3,1.0474915E3,3.6450625E4,1.99641E4,4.220746E3,3.9223066E3,3.1912427E2,4.8321234E2,1.2790994E4,4.3656844E4,7.042377E2,1.5689855E4,0E0,0E0,0E0,0E0,0E0,0E0,0E0,0E0,0E0,0E0,0E0,0E0,0E0,0E0,0E0,0E0],"parents":[2147483647,0,0,1,1,2,2,3,3,4,4,5,5,6,6,7,7,8,8,9,9,10,10,11,11,12,12,13,13,14,14],"right_children":[2,4,6,8,10,12,14,16,18,20,22,24,26,28,30,-1,-1,-1,-1,-1,-1,-1,-1,-1,-1,-1,-1,-1,-1,-1,-1],"split_conditions":[1E0,3.5E0,2.49E0,1E0,2.8400023E9,3.0000067E9,1E0,1.1110853E9,3.0000067E9,1.6000275E9,5.64E0,2.39E0,2E0,2.59E0,3.01E0,1.497389E-1,3.5534763E-1,4.1806906E-1,1.0281854E0,9.703477E-2,2.9449594E-1,2.7185367E-2,1.1870048E-1,8.182082E-1,3.045259E0,4.736619E0,1.0809062E0,-1.1534375E-1,2.1597335E-1,3.235715E0,9.1821533E-1],"split_indices":[0,5,5,1,4,4,1,4,4,4,6,5,5,5,6,0,0,0,0,0,0,0,0,0,0,0,0,0,0,0,0],"split_type":[0,0,0,0,0,0,0,0,0,0,0,0,0,0,0,0,0,0,0,0,0,0,0,0,0,0,0,0,0,0,0],"sum_hessian":[1.696E3,1.537E3,1.59E2,1.09E3,4.47E2,6E1,9.9E1,1.005E3,8.5E1,6.6E1,3.81E2,3.8E1,2.2E1,6.5E1,3.4E1,2.02E2,8.03E2,6.1E1,2.4E1,2E1,4.6E1,2.24E2,1.57E2,3.4E1,4E0,1.2E1,1E1,1.2E1,5.3E1,5E0,2.9E1],"tree_param":{"num_deleted":"0","num_feature":"12","num_nodes":"31","size_leaf_vector":"0"}},{"base_weights":[7.436707E0,6.209468E0,1.8416458E1,8.053908E0,2.4273863E0,1.2419062E1,2.500829E1,7.575186E0,2.1392147E1,6.5471563E0,1.7335329E0,1.9148056E1,7.453861E0,3.2254646E1,1.1152469E1,2.7414182E-1,5.6353515E-1,5.7985E-1,1.3360504E0,-1.0177613E-2,2.8234142E-1,3.7939183E-2,1.1550458E-1,5.127316E-1,1.8139476E0,1.24574296E-1,5.4497224E-1,8.99088E-1,2.2875164E0,5.0556463E-1,5.954979E-2],"categories":[],"categories_nodes":[],"categories_segments":[],"categories_sizes":[],"default_left":[false,false,false,false,false,false,false,false,false,false,false,false,false,false,false,false,false,false,false,false,false,false,false,false,false,false,false,false,false,false,false],"id":13,"left_children":[1,3,5,7,9,11,13,15,17,19,21,23,25,27,29,-1,-1,-1,-1,-1,-1,-1,-1,-1,-1,-1,-1,-1,-1,-1,-1],"loss_changes":[2.2738875E4,1.0632531E4,6.410168E3,6.3892734E3,1.4236257E3,2.8976553E3,7.672621E3,4.5660273E3,2.4142812E3,2.5222607E2,3.8775378E2,5.7207734E3,1.4035088E3,1.139132E4,3.9781323E2,0E0,0E0,0E0,0E0,0E0,0E0,0E0,0E0,0E0,0E0,0E0,0E0,0E0,0E0,0E0,0E0],"parents":[2147483647,0,0,1,1,2,2,3,3,4,4,5,5,6,6,7,7,8,8,9,9,10,10,11,11,12,12,13,13,14,14],"right_children":[2,4,6,8,10,12,14,16,18,20,22,24,26,28,30,-1,-1,-1,-1,-1,-1,-1,-1,-1,-1,-1,-1,-1,-1,-1,-1],"split_conditions":[1E0,3.52E0,1E0,1E0,2.8400023E9,1.93E0,2.9E0,3.1254743E10,3.7000315E9,1.1110381E9,5.64E0,1.1110874E9,3.01E0,3.5000689E9,7.218063E9,2.7414182E-1,5.6353515E-1,5.7985E-1,1.3360504E0,-1.0177613E-2,2.8234142E-1,3.7939183E-2,1.1550458E-1,5.127316E-1,1.8139476E0,1.24574296E-1,5.4497224E-1,8.99088E-1,2.2875164E0,5.0556463E-1,5.954979E-2],"split_indices":[1,6,0,0,4,5,5,4,4,4,6,4,6,4,4,0,0,0,0,0,0,0,0,0,0,0,0,0,0,0,0],"split_type":[0,0,0,0,0,0,0,0,0,0,0,0,0,0,0,0,0,0,0,0,0,0,0,0,0,0,0,0,0,0,0],"sum_hessian":[1.695E3,1.526E3,1.69E2,1.025E3,5.01E2,9E1,7.9E1,9.91E2,3.4E1,7.1E1,4.3E2,3.7E1,5.3E1,5.1E1,2.8E1,8.94E2,9.7E1,2.3E1,1.1E1,5E0,6.6E1,2.57E2,1.73E2,3.1E1,6E0,3.2E1,2.1E1,3.8E1,1.3E1,2.4E1,4E0],"tree_param":{"num_deleted":"0","num_feature":"12","num_nodes":"31","size_leaf_vector":"0"}},{"base_weights":[7.1528616E0,5.4537015E0,2.1692327E1,7.0915227E0,2.1580064E0,1.2968784E1,3.1836163E1,6.6831317E0,1.6607376E1,5.8101044E0,1.5730914E0,2.1563269E1,7.2613482E0,4.1263973E1,1.0753889E1,2.4650489E-1,4.6219534E-1,1.3257767E-1,1.6125478E0,2.5528485E-1,-1.3259755E-2,6.85096E-3,9.385667E-2,5.988975E-1,2.535457E0,3.7119013E-1,-7.01515E-2,1.2359549E0,2.4802034E0,5.162503E-1,1.6114917E-1],"categories":[],"categories_nodes":[],"categories_segments":[],"categories_sizes":[],"default_left":[false,false,false,false,false,false,false,false,false,false,false,false,false,false,false,false,false,false,false,false,false,false,false,false,false,false,false,false,false,false,false],"id":14,"left_children":[1,3,5,7,9,11,13,15,17,19,21,23,25,27,29,-1,-1,-1,-1,-1,-1,-1,-1,-1,-1,-1,-1,-1,-1,-1,-1],"loss_changes":[4.2695258E4,8.367418E3,1.5603844E4,3.9189844E3,1.0952583E3,4.699615E3,1.60533125E4,2.4544414E3,1.3101695E4,2.5154541E2,4.8417346E2,9.801275E3,1.1262429E3,1.033818E4,3.3882983E2,0E0,0E0,0E0,0E0,0E0,0E0,0E0,0E0,0E0,0E0,0E0,0E0,0E0,0E0,0E0,0E0],"parents":[2147483647,0,0,1,1,2,2,3,3,4,4,5,5,6,6,7,7,8,8,9,9,10,10,11,11,12,12,13,13,14,14],"right_children":[2,4,6,8,10,12,14,16,18,20,22,24,26,28,30,-1,-1,-1,-1,-1,-1,-1,-1,-1,-1,-1,-1,-1,-1,-1,-1],"split_conditions":[1E0,3.46E0,1E0,1E0,2.8400023E9,1.69E0,2.98E0,3.1254743E10,3.17E0,1E0,7.1921004E9,1.1110874E9,7.218063E9,3.5000689E9,5.07E0,2.4650489E-1,4.6219534E-1,1.3257767E-1,1.6125478E0,2.5528485E-1,-1.3259755E-2,6.85096E-3,9.385667E-2,5.988975E-1,2.535457E0,3.7119013E-1,-7.01515E-2,1.2359549E0,2.4802034E0,5.162503E-1,1.6114917E-1],"split_indices":[1,6,0,0,4,5,5,4,6,2,4,4,4,4,5,0,0,0,0,0,0,0,0,0,0,0,0,0,0,0,0],"split_type":[0,0,0,0,0,0,0,0,0,0,0,0,0,0,0,0,0,0,0,0,0,0,0,0,0,0,0,0,0,0,0],"sum_hessian":[1.732E3,1.552E3,1.8E2,1.036E3,5.16E2,9.8E1,8.2E1,9.95E2,4.1E1,7E1,4.46E2,3.8E1,6E1,5.6E1,2.6E1,9.01E2,9.4E1,2.7E1,1.4E1,6.4E1,6E0,1.59E2,2.87E2,3.4E1,4E0,4.9E1,1.1E1,3.9E1,1.7E1,1.9E1,7E0],"tree_param":{"num_deleted":"0","num_feature":"12","num_nodes":"31","size_leaf_vector":"0"}},{"base_weights":[7.2279534E0,5.4502573E0,2.1701525E1,7.0925665E0,2.0244827E0,2.9349442E1,1.1047547E1,6.6236544E0,1.9054325E1,1.8616695E0,5.3273076E-1,2.257902E1,5.2669327E1,9.110541E-2,1.3171254E1,3.327299E-1,1.967728E-1,4.7270286E-1,1.554366E0,2.0358448E-1,5.8956232E-2,6.0888773E-1,1.5345494E0,3.7111032E0,1.365824E0,9.436193E-1,4.6028113E-1],"categories":[],"categories_nodes":[],"categories_segments":[],"categories_sizes":[],"default_left":[false,false,false,false,false,false,false,false,false,false,false,false,false,false,false,false,false,false,false,false,false,false,false,false,false,false,false],"id":15,"left_children":[1,3,5,7,9,11,13,15,17,19,-1,21,23,-1,25,-1,-1,-1,-1,-1,-1,-1,-1,-1,-1,-1,-1],"loss_changes":[4.465125E4,8.711848E3,1.5157102E4,5.752039E3,9.019497E2,1.617818E4,1.4786025E3,2.8761133E3,5.1303604E3,6.158345E2,0E0,9.518934E3,1.4662953E4,0E0,8.556406E2,0E0,0E0,0E0,0E0,0E0,0E0,0E0,0E0,0E0,0E0,0E0,0E0],"parents":[2147483647,0,0,1,1,2,2,3,3,4,4,5,5,6,6,7,7,8,8,9,9,11,11,12,12,14,14],"right_children":[2,4,6,8,10,12,14,16,18,20,-1,22,24,-1,26,-1,-1,-1,-1,-1,-1,-1,-1,-1,-1,-1,-1],"split_conditions":[1E0,3.46E0,2.68E0,1E0,8.8491205E10,3.01E0,2.91E0,2.8400023E9,3.5000689E9,2.8400023E9,5.3273076E-1,3.0000067E9,2.03E0,9.110541E-2,2.92E0,3.327299E-1,1.967728E-1,4.7270286E-1,1.554366E0,2.0358448E-1,5.8956232E-2,6.0888773E-1,1.5345494E0,3.7111032E0,1.365824E0,9.436193E-1,4.6028113E-1],"split_indices":[1,6,5,0,4,6,6,4,4,4,0,4,5,0,5,0,0,0,0,0,0,0,0,0,0,0,0],"split_type":[0,0,0,0,0,0,0,0,0,0,0,0,0,0,0,0,0,0,0,0,0,0,0,0,0,0,0],"sum_hessian":[1.739E3,1.55E3,1.89E2,1.047E3,5.03E2,1.09E2,8E1,1.009E3,3.8E1,4.97E2,6E0,8.6E1,2.3E1,1.6E1,6.4E1,5.04E2,5.05E2,2.9E1,9E0,5.2E1,4.45E2,6E1,2.6E1,6E0,1.7E1,7E0,5.7E1],"tree_param":{"num_deleted":"0","num_feature":"12","num_nodes":"27","size_leaf_vector":"0"}},{"base_weights":[6.5867453E0,5.050723E0,1.9190979E1,6.66848E0,1.9337987E0,1.0488061E1,2.8631268E1,2.781473E0,7.6661186E0,5.3798223E0,1.4631208E0,2.287415E1,7.5615883E0,3.8268085E1,1.1066458E1,3.2615906E-1,-6.484673E-2,6.3538194E-1,2.4972562E-1,4.8292425E-2,2.4829681E-1,6.4070825E-3,9.033364E-2,5.281476E-1,1.148275E0,1.6786298E-1,5.3914905E-1,9.9108994E-1,2.3932393E0,5.8399117E-1,-1.4820772E-2],"categories":[],"categories_nodes":[],"categories_segments":[],"categories_sizes":[],"default_left":[false,false,false,false,false,false,false,false,false,false,false,false,false,false,false,false,false,false,false,false,false,false,false,false,false,false,false,false,false,false,false],"id":16,"left_children":[1,3,5,7,9,11,13,15,17,19,21,23,25,27,29,-1,-1,-1,-1,-1,-1,-1,-1,-1,-1,-1,-1,-1,-1,-1,-1],"loss_changes":[3.4364555E4,7.9944727E3,1.5556219E4,4.0310078E3,8.7447864E2,3.5242852E3,1.5149242E4,5.098658E3,9.619086E3,2.169613E2,4.9697925E2,6.9266113E2,1.6159805E3,1.5680742E4,1.3793667E3,0E0,0E0,0E0,0E0,0E0,0E0,0E0,0E0,0E0,0E0,0E0,0E0,0E0,0E0,0E0,0E0],"parents":[2147483647,0,0,1,1,2,2,3,3,4,4,5,5,6,6,7,7,8,8,9,9,10,10,11,11,12,12,13,13,14,14],"right_children":[2,4,6,8,10,12,14,16,18,20,22,24,26,28,30,-1,-1,-1,-1,-1,-1,-1,-1,-1,-1,-1,-1,-1,-1,-1,-1],"split_conditions":[1E0,3.46E0,1E0,1.1110853E9,2.8400023E9,1.22E0,2.9E0,1.1110354E9,2E0,3.71E0,7.1921004E9,9.9E-1,3.01E0,2.99E0,7.218063E9,3.2615906E-1,-6.484673E-2,6.3538194E-1,2.4972562E-1,4.8292425E-2,2.4829681E-1,6.4070825E-3,9.033364E-2,5.281476E-1,1.148275E0,1.6786298E-1,5.3914905E-1,9.9108994E-1,2.3932393E0,5.8399117E-1,-1.4820772E-2],"split_indices":[1,6,0,4,4,5,5,4,5,5,4,5,6,6,4,0,0,0,0,0,0,0,0,0,0,0,0,0,0,0,0],"split_type":[0,0,0,0,0,0,0,0,0,0,0,0,0,0,0,0,0,0,0,0,0,0,0,0,0,0,0,0,0,0,0],"sum_hessian":[1.779E3,1.587E3,1.92E2,1.044E3,5.43E2,1.01E2,9.1E1,2.14E2,8.3E2,6.4E1,4.79E2,1.8E1,8.3E1,5.8E1,3.3E1,9.6E1,1.18E2,1.21E2,7.09E2,1.1E1,5.3E1,1.82E2,2.97E2,8E0,1E1,5.4E1,2.9E1,3.7E1,2.1E1,2.5E1,8E0],"tree_param":{"num_deleted":"0","num_feature":"12","num_nodes":"31","size_leaf_vector":"0"}}]},"name":"gbtree"},"learner_model_param":{"base_score":"5E-1","num_class":"0","num_feature":"12"},"objective":{"name":"reg:squarederror","reg_loss_param":{"scale_pos_weight":"1"}}},"version":[1,5,2]}