{"learner":{"attributes":{"best_iteration":"85","best_ntree_limit":"86","scikit_learn":"{\"objective\": \"reg:squarederror\", \"learning_rate\": 0.17, \"verbosity\": null, \"booster\": null, \"tree_method\": \"hist\", \"gamma\": null, \"min_child_weight\": 2.0, \"max_delta_step\": null, \"subsample\": 0.6000000000000001, \"colsample_bytree\": 0.9, \"colsample_bylevel\": null, \"colsample_bynode\": null, \"reg_alpha\": null, \"reg_lambda\": null, \"scale_pos_weight\": null, \"base_score\": null, \"missing\": NaN, \"num_parallel_tree\": null, \"random_state\": 2020, \"n_jobs\": null, \"monotone_constraints\": null, \"interaction_constraints\": null, \"importance_type\": null, \"gpu_id\": null, \"validate_parameters\": null, \"predictor\": null, \"enable_categorical\": false, \"_estimator_type\": \"regressor\"}"},"feature_names":["FEATURE","DISPLAY","TPR_ONLY","STORE_NUM","UPC","PRICE","BASE_PRICE","STORE_ID","MSA_CODE","PARKING_SPACE_QTY","SALES_AREA_SIZE_NUM","AVG_WEEKLY_BASKETS"],"feature_types":["int","int","int","int","int","float","float","int","int","float","int","float"],"gradient_booster":{"model":{"gbtree_model_param":{"num_trees":"86","size_leaf_vector":"0"},"tree_info":[0,0,0,0,0,0,0,0,0,0,0,0,0,0,0,0,0,0,0,0,0,0,0,0,0,0,0,0,0,0,0,0,0,0,0,0,0,0,0,0,0,0,0,0,0,0,0,0,0,0,0,0,0,0,0,0,0,0,0,0,0,0,0,0,0,0,0,0,0,0,0,0,0,0,0,0,0,0,0,0,0,0,0,0,0,0],"trees":[{"base_weights":[1.3876531E1,1.972556E1,7.0925026E0,1.729458E1,4.7034286E1,6.4860873E0,1.8377659E1,2.6510288E1,1.5991629E1,2.9905882E1,6.2516483E1,5.605345E0,1.5705882E1,3.4215193E0,1.4609375E0,6.094681E0,2.4147207E1,3.2843602E0,1.7742773E1,2.0539474E1,3.6697918E1,3.164125E1,5.61875E1,8.305838E0,4.72574E0,8.263158E0,1.9917526E1,4.578961E0,2.2173553E1,6.413793E0,2.7704918E0,1.9871292E1,1.1225464E1,6.9700003E0,9.519231E0,1.532125E1,3.1133333E1,7.2683334E1,4.6847458E1,5.473039E0,1.1287958E1,3.163E0,5.808926E0,1.775E1,6.1145835E0,3.275E1,1.7541666E1,1.36E0,3.7985713E0,8.727273E0,4.736842E0,3.029197E0,1.9574468E0,1.798075E1,2.8115566E1,9.331018E0,1.3682098E1,8.354167E0,2.6633334E0,5.84375E0,1.635E1,2.4285715E0,1.4736876E1,2.615909E1,5.7592106E1,7.1549296E0,4.5410447E0,1.744697E1,7.9722223E0,9.793103E0,2.7489407E0,1.0334616E1,4.7984695E0,2.178125E0,4.25E0,1.3842858E0,4.375E0,6.22625E0,1.0766667E0,1.9330883E1,9.3529415E0,9.228571E-1,1.9720001E0,2.2857144E0,5.6923075E0,2.8177967E0,7.0125E-1,3.7984374E-1,2.1781251E-1,2.2146868E1,1.3864694E1,1.3610625E1,2.595122E1,1.0556292E1,6.3863635E0,1.634066E1,1.0131945E1,1.87E0,6.035E-1,1.4328572E0,4.44125E0,6.080769E0,1.105E1,6.4870964E1,2.21875E1,1.048868E0,1.6194737E0,8.2138616E-1,6.025E-1,2.6222221E1,2.6833622E0,4.50625E0,1.3702127E1,2.2666667E-1,2.2019048E0,2.0580986E0,3.7724867E0,6.160714E0,1.1368932E1,5.929972E0,3.036638E0,4.9130435E0,2.6916668E-1,3.3424616E0,1.55125E0,1.84875E0,8.075E-1,1.7E-1,4.42E-1,5.1E-1,1.1144444E0,6.0444444E-1,3.962838E-1,2.4071677E0,6.6386147E0,1.519375E1,2.2427342E0,5.1978083E0,3.9470675E0,1.9560367E0,1.5797857E0,7.7208334E-1,1.1343637E0,3.9666667E0,2.5102596E0,1.4472973E0,1.9573612E0,2.856E0,7.5083333E-1,1.2890249E1,7.0054164E0,1.7637501E0,4.624E0,3.0114284E0,6.3466663E0,1.198718E0,3.4607145E-1,2.8552272E0,1.7948078E0,5.063441E-1,2.722656E-1,1.36E0,6.103279E-1,7.426316E-1,1.5215E0,2.1970139E0,1.2776563E0,7.1940106E-1,1.3359338E0,6.941667E-1,4.4281438E-1,3.4E-1,8.661905E-1],"categories":[],"categories_nodes":[],"categories_segments":[],"categories_sizes":[],"default_left":[false,false,false,false,false,false,false,false,false,false,false,false,false,false,false,false,false,false,false,false,false,false,false,false,false,false,false,false,false,false,false,false,false,false,false,false,false,false,false,false,false,false,false,false,false,false,false,false,false,false,false,false,false,false,false,false,false,false,false,false,false,false,false,false,false,false,false,false,false,false,false,false,false,false,false,false,false,false,false,false,false,false,false,false,false,false,false,false,false,false,false,false,false,false,false,false,false,false,false,false,false,false,false,false,false,false,false,false,false,false,false,false,false,false,false,false,false,false,false,false,false,false,false,false,false,false,false,false,false,false,false,false,false,false,false,false,false,false,false,false,false,false,false,false,false,false,false,false,false,false,false,false,false,false,false,false,false,false,false,false,false,false,false,false,false,false,false,false,false,false,false,false,false],"id":0,"left_children":[1,3,5,7,9,11,13,15,17,19,21,23,25,-1,-1,-1,27,29,31,33,35,-1,37,39,41,43,45,-1,47,49,51,53,55,-1,57,-1,59,61,63,65,67,69,71,73,75,77,79,-1,-1,81,83,85,87,89,91,93,95,97,-1,-1,99,-1,-1,101,103,105,107,109,111,113,115,117,119,-1,-1,-1,121,-1,-1,123,125,-1,-1,127,129,131,-1,-1,-1,133,135,-1,137,139,141,143,145,-1,-1,-1,-1,-1,147,149,151,-1,-1,-1,-1,153,-1,155,157,-1,-1,159,161,163,165,167,169,171,-1,-1,-1,-1,-1,-1,-1,-1,-1,-1,-1,-1,-1,-1,-1,-1,-1,-1,-1,-1,-1,-1,-1,-1,-1,-1,-1,-1,-1,-1,-1,-1,-1,-1,-1,-1,-1,-1,-1,-1,-1,-1,-1,-1,-1,-1,-1,-1,-1,-1,-1],"loss_changes":[1.5861969E5,1.4178569E5,1.2568633E4,2.3279062E4,4.4537812E4,1.421175E4,1.4355E3,4.4980312E3,3.8482656E4,4.6536875E3,6.0732875E4,3.7827148E3,4.631375E3,0E0,0E0,0E0,4.8670312E2,3.2154346E2,2.0890438E4,8.17795E3,1.146448E4,0E0,1.0153281E4,3.2666328E3,2.039998E3,1.0533081E3,2.3828633E3,0E0,1.1448047E2,7.116846E1,3.25625E1,1.7356188E4,1.626875E3,0E0,5.533423E1,0E0,1.5944883E3,2.3295906E4,1.16085E4,2.8728174E2,3.7614453E3,1.3457075E3,3.2292598E3,3.765625E1,1.3373584E2,1.2011455E3,1.049916E3,0E0,0E0,4.1267517E1,3.148642E1,2.0113037E1,5.938324E0,1.5726281E4,2.1757688E4,7.119121E2,1.3634434E3,2.6601465E2,0E0,0E0,5.5412305E2,0E0,0E0,2.7991602E3,8.353477E3,1.0708716E2,2.170166E1,5.489531E2,2.4405757E3,7.5780615E2,3.259912E2,4.911875E2,1.1541807E3,0E0,0E0,0E0,3.4278076E1,0E0,0E0,5.00625E1,6.7444824E1,0E0,0E0,2.2856903E-1,1.0546997E1,3.4083008E1,0E0,0E0,0E0,6.1957453E4,2.2827336E4,0E0,1.881E3,7.427734E1,4.559326E0,6.573125E2,6.3010254E1,0E0,0E0,0E0,0E0,0E0,3.0721655E2,4.9106094E3,1.9148145E2,0E0,0E0,0E0,0E0,1.8946094E2,0E0,4.8865283E2,2.798369E2,0E0,0E0,1.1456482E2,1.16954834E2,1.0088074E2,5.199082E2,1.1358896E3,9.423071E1,2.0166016E0,0E0,0E0,0E0,0E0,0E0,0E0,0E0,0E0,0E0,0E0,0E0,0E0,0E0,0E0,0E0,0E0,0E0,0E0,0E0,0E0,0E0,0E0,0E0,0E0,0E0,0E0,0E0,0E0,0E0,0E0,0E0,0E0,0E0,0E0,0E0,0E0,0E0,0E0,0E0,0E0,0E0,0E0,0E0,0E0,0E0,0E0,0E0,0E0,0E0,0E0,0E0],"parents":[2147483647,0,0,1,1,2,2,3,3,4,4,5,5,6,6,7,7,8,8,9,9,10,10,11,11,12,12,16,16,17,17,18,18,19,19,20,20,22,22,23,23,24,24,25,25,26,26,28,28,29,29,30,30,31,31,32,32,34,34,36,36,37,37,38,38,39,39,40,40,41,41,42,42,43,43,44,44,45,45,46,46,49,49,50,50,51,51,52,52,53,53,54,54,55,55,56,56,57,57,60,60,63,63,64,64,65,65,66,66,67,67,68,68,69,69,70,70,71,71,72,72,76,76,79,79,80,80,83,83,84,84,85,85,89,89,90,90,92,92,93,93,94,94,95,95,96,96,102,102,103,103,104,104,109,109,111,111,112,112,115,115,116,116,117,117,118,118,119,119,120,120,121,121],"right_children":[2,4,6,8,10,12,14,16,18,20,22,24,26,-1,-1,-1,28,30,32,34,36,-1,38,40,42,44,46,-1,48,50,52,54,56,-1,58,-1,60,62,64,66,68,70,72,74,76,78,80,-1,-1,82,84,86,88,90,92,94,96,98,-1,-1,100,-1,-1,102,104,106,108,110,112,114,116,118,120,-1,-1,-1,122,-1,-1,124,126,-1,-1,128,130,132,-1,-1,-1,134,136,-1,138,140,142,144,146,-1,-1,-1,-1,-1,148,150,152,-1,-1,-1,-1,154,-1,156,158,-1,-1,160,162,164,166,168,170,172,-1,-1,-1,-1,-1,-1,-1,-1,-1,-1,-1,-1,-1,-1,-1,-1,-1,-1,-1,-1,-1,-1,-1,-1,-1,-1,-1,-1,-1,-1,-1,-1,-1,-1,-1,-1,-1,-1,-1,-1,-1,-1,-1,-1,-1,-1,-1,-1,-1,-1,-1],"split_conditions":[3.2E0,1E0,8.8491205E10,1.1110354E9,2.83E0,1E0,3.41E0,1E0,1.1110853E9,1.1110874E9,1.79E0,4.29E0,5.29E0,3.4215193E0,1.4609375E0,6.094681E0,1.2E0,1E0,4.1167094E9,1.2E0,2.0662006E9,3.164125E1,2.0662006E9,1.6000275E9,5.27E0,2.0662006E9,4.49E0,4.578961E0,1.21E0,1.53E0,2.96E0,3.700045E9,3.1254743E10,6.9700003E0,1.1110853E9,1.532125E1,2.54E0,1.6000275E9,3.7000315E9,3.33E0,2.0662006E9,2.0662006E9,5.29E0,1.6000275E9,4.29E0,7.218064E9,7.218063E9,1.36E0,3.7985713E0,9.8E-1,9.7E-1,2.86E0,3.03E0,2.0662006E9,2.5E0,2.75E0,8.849121E10,1.24E0,2.6633334E0,5.84375E0,3.5000689E9,2.4285715E0,1.4736876E1,2.26E0,4.1167094E9,3.3E0,3.49E0,3.41E0,3.700045E9,1.1110381E9,7.1921004E9,3.8000317E9,7.218063E9,2.178125E0,4.25E0,1.3842858E0,5.19E0,6.22625E0,1.0766667E0,5.69E0,5.05E0,9.228571E-1,1.9720001E0,9.5E-1,1.57E0,1.57E0,7.0125E-1,3.7984374E-1,2.1781251E-1,1.6000275E9,1.47E0,1.3610625E1,2.89E0,2.57E0,2.9E0,2.68E0,2.57E0,1.87E0,6.035E-1,1.4328572E0,4.44125E0,6.080769E0,3.5000689E9,2.51E0,2.5E0,1.048868E0,1.6194737E0,8.2138616E-1,6.025E-1,3.3E0,2.6833622E0,3.0000064E9,3.8000392E9,2.2666667E-1,2.2019048E0,3.8000317E9,3.99E0,6.14E0,7.218064E9,3.8000317E9,7.218064E9,3.700045E9,2.6916668E-1,3.3424616E0,1.55125E0,1.84875E0,8.075E-1,1.7E-1,4.42E-1,5.1E-1,1.1144444E0,6.0444444E-1,3.962838E-1,2.4071677E0,6.6386147E0,1.519375E1,2.2427342E0,5.1978083E0,3.9470675E0,1.9560367E0,1.5797857E0,7.7208334E-1,1.1343637E0,3.9666667E0,2.5102596E0,1.4472973E0,1.9573612E0,2.856E0,7.5083333E-1,1.2890249E1,7.0054164E0,1.7637501E0,4.624E0,3.0114284E0,6.3466663E0,1.198718E0,3.4607145E-1,2.8552272E0,1.7948078E0,5.063441E-1,2.722656E-1,1.36E0,6.103279E-1,7.426316E-1,1.5215E0,2.1970139E0,1.2776563E0,7.1940106E-1,1.3359338E0,6.941667E-1,4.4281438E-1,3.4E-1,8.661905E-1],"split_indices":[5,1,4,4,6,1,5,6,4,4,5,6,6,0,0,0,5,5,4,6,4,0,4,4,6,4,5,0,6,6,6,4,4,0,4,0,5,4,4,5,4,4,5,4,5,4,4,0,0,5,5,5,6,4,5,5,4,5,0,0,4,0,0,5,4,6,5,5,4,4,4,4,4,0,0,0,5,0,0,5,5,0,0,5,6,6,0,0,0,4,5,0,5,6,5,5,6,0,0,0,0,0,4,5,5,0,0,0,0,5,0,4,4,0,0,4,5,6,4,4,4,4,0,0,0,0,0,0,0,0,0,0,0,0,0,0,0,0,0,0,0,0,0,0,0,0,0,0,0,0,0,0,0,0,0,0,0,0,0,0,0,0,0,0,0,0,0,0,0,0,0,0,0],"split_type":[0,0,0,0,0,0,0,0,0,0,0,0,0,0,0,0,0,0,0,0,0,0,0,0,0,0,0,0,0,0,0,0,0,0,0,0,0,0,0,0,0,0,0,0,0,0,0,0,0,0,0,0,0,0,0,0,0,0,0,0,0,0,0,0,0,0,0,0,0,0,0,0,0,0,0,0,0,0,0,0,0,0,0,0,0,0,0,0,0,0,0,0,0,0,0,0,0,0,0,0,0,0,0,0,0,0,0,0,0,0,0,0,0,0,0,0,0,0,0,0,0,0,0,0,0,0,0,0,0,0,0,0,0,0,0,0,0,0,0,0,0,0,0,0,0,0,0,0,0,0,0,0,0,0,0,0,0,0,0,0,0,0,0,0,0,0,0,0,0,0,0,0,0],"sum_hessian":[4E3,2.147E3,1.853E3,1.973E3,1.74E2,1.76E3,9.3E1,2.42E2,1.731E3,8.4E1,9E1,1.608E3,1.52E2,7.8E1,1.5E1,4.6E1,1.96E2,2.1E2,1.521E3,3.7E1,4.7E1,3E0,8.7E1,3.93E2,1.215E3,5.6E1,9.6E1,7.6E1,1.2E2,2.8E1,1.82E2,1.145E3,3.76E2,1.2E1,2.5E1,3E0,4.4E1,2.9E1,5.8E1,2.03E2,1.9E2,4.99E2,7.16E2,9E0,4.7E1,1.3E1,8.3E1,2E0,1.18E2,1E1,1.8E1,1.36E2,4.6E1,9.34E2,2.11E2,2.15E2,1.61E2,2.3E1,2E0,3.5E1,9E0,6E0,2.3E1,2.1E1,3.7E1,7E1,1.33E2,6.5E1,1.25E2,2.8E1,4.71E2,1.29E2,5.87E2,7E0,2E0,2E1,2.7E1,1.1E1,2E0,6.7E1,1.6E1,6E0,4E0,6E0,1.2E1,1.17E2,1.9E1,3.1E1,1.5E1,4.62E2,4.72E2,7E0,2.04E2,1.5E2,6.5E1,9E1,7.1E1,1.4E1,9E0,6E0,3E0,1.2E1,9E0,3E1,7E0,5.2E1,1.8E1,1E2,3.3E1,8E0,5.7E1,7.9E1,4.6E1,8E0,2E1,2.83E2,1.88E2,2.7E1,1.02E2,3.56E2,2.31E2,2.2E1,5E0,6.4E1,3E0,1.1E1,5E0,2E0,4E0,4E0,8E0,4.4E1,7.3E1,3.15E2,1.47E2,3E0,4.69E2,7.2E1,1.32E2,8.1E1,6.9E1,1.1E1,5.4E1,1.4E1,7.6E1,3.6E1,3.5E1,4E0,5E0,1.9E1,1.1E1,3E0,4E0,6E0,2E0,3.8E1,4.1E1,2.1E1,2.5E1,9.2E1,1.91E2,6E0,1.82E2,1.8E1,9E0,7.1E1,3.1E1,1.91E2,1.65E2,6.5E1,1.66E2,2E0,2E1],"tree_param":{"num_deleted":"0","num_feature":"12","num_nodes":"173","size_leaf_vector":"0"}},{"base_weights":[1.1612884E1,1.6677937E1,5.6367974E0,1.4559466E1,4.1531277E1,5.060995E0,1.2926927E1,2.6721863E1,1.388323E1,2.6760937E1,5.7236153E1,7.984865E0,3.8313026E0,6.5220203E0,1.6056913E1,5.098126E0,3.9451058E0,1.113671E1,1.471478E1,1.7387281E1,3.496689E1,2.9361656E1,4.7494423E1,6.1405406E0,9.924185E0,2.5125198E0,4.6986184E0,1.2227345E1,4.5975595E0,4.0372877E0,1.4569082E1,1.815037E1,8.366253E0,2.0080502E1,1.3998484E1,2.8171906E1,6.315587E0,3.865403E1,1.2160321E1,5.0429173E1,1.5878571E1,7.302965E0,7.2486806E-1,1.5674602E1,6.7353697E0,3.8059535E0,1.9998202E0,8.219005E0,3.9364452E0,1.4121886E1,9.148429E-1,8.052524E-1,2.5282776E-1,3.7471035E0,1.3274935E1,2.5884092E0,3.2949145E0,5.0902705E0,1.1142294E1,1.5760913E1,3.1381983E1,1.4298679E1,4.932344E0,5.1004143E0,1.1182128E0,1.4440085E0,6.1382043E-1,4.5075912E1,4.240792E0,1.1663437E0,3.1799917E0,1.02107E1,4.215009E1,5.0579367E0,1.0701742E0,6.2039046E0,1.3449299E0,2.688666E0,1.0969096E0,3.4508796E0,2.018125E0,2.7796354E0,6.1162114E0,2.2504888E0,1.5403053E0,9.568737E0,5.7419815E0,4.520674E0,2.1615584E0,1.5130911E0,3.3757398E0,-4.0264394E-2,1.4334244E1,1.0597013E1,3.850171E0,1.2103541E1,4.929119E0,2.0476784E1,1.0477429E1,3.793729E1,2.0069845E1,1.22247715E1,1.4925198E1,-1.5679842E-1,5.906681E0,3.3104717E1,1.5084781E1,3.5601917E1,5.0156494E1,1.4042115E0,5.7463236E0,5.067025E-1,6.6120043E0,2.2953994E0,3.8736587E0,1.5016425E0,3.3682206E0,3.2063466E-1,6.204983E-1,1.9522007E-1,2.6100984E0,8.035739E0,1.04872E1,5.0082946E-1,1.2977554E0,3.8970213E0,6.138909E0,2.4168112E0,-2.4342055E-2,1.5780983E1,8.040106E0,3.3109858E0,9.9165356E-1,5.516819E-1,7.423282E-1,-3.270617E-2,2.0860705E0,1.2212034E0,5.460452E-1,2.8295074E0,5.869582E0,2.5699606E0,1.3337017E0,5.785554E0,1.0052367E1,3.8215477E0,9.202094E-1,2.2576916E0,1.6807758E0,3.4315417E0,2.3746703E0,1.253863E0,5.542782E-1,9.030878E0,4.6151643E0,8.176514E0,3.9494874E0,3.8310785E0,1.1753004E1,6.369681E-1,1.0490147E0,1.5196643E0,4.751399E-1,7.590409E-1,3.430436E-1,8.863391E-1,3.673949E-1,3.2600868E-1,7.1823525E-1,3.427175E-1,5.563073E-1,9.7331494E-1,1.4842473E0,2.0930176E0,1.413725E0,7.399638E-1,4.7768718E-1,1.0527773E0,5.055362E-1,4.4850057E-1,3.752387E-1,2.81436E0,1.2267625E0,1.9112277E0,9.579314E-1],"categories":[],"categories_nodes":[],"categories_segments":[],"categories_sizes":[],"default_left":[false,false,false,true,false,false,false,false,false,false,false,false,false,false,false,false,false,false,false,false,false,false,false,false,false,false,false,false,false,false,false,false,false,false,false,false,false,false,false,false,false,false,false,false,false,false,false,false,false,false,false,false,false,false,false,false,false,false,false,false,false,false,false,false,false,false,false,false,false,false,false,false,false,false,false,false,false,false,false,false,false,false,false,false,false,false,false,false,false,false,false,false,false,false,false,false,false,false,false,false,false,false,false,false,false,false,false,false,false,false,false,false,false,false,false,false,false,false,false,false,false,false,false,false,false,false,false,false,false,false,false,false,false,false,false,false,false,false,false,false,false,false,false,false,false,false,false,false,false,false,false,false,false,false,false,false,false,false,false,false,false,false,false,false,false,false,false,false,false,false,false,false,false,false,false,false,false,false,false,false,false,false,false,false,false],"id":1,"left_children":[1,3,5,7,9,11,13,15,17,19,21,23,25,27,29,-1,-1,31,33,35,37,-1,39,41,43,45,47,49,51,-1,53,55,57,59,61,63,65,67,69,71,73,75,-1,77,79,81,83,85,87,89,-1,-1,-1,-1,91,-1,-1,93,95,97,99,101,103,-1,-1,-1,-1,105,-1,-1,-1,-1,107,-1,-1,109,-1,-1,-1,111,-1,113,115,117,119,121,123,125,127,-1,-1,-1,129,131,133,135,137,139,141,143,145,147,149,-1,151,153,-1,155,157,-1,159,-1,161,163,165,-1,167,-1,-1,-1,169,171,173,-1,-1,175,177,179,-1,181,183,-1,-1,-1,-1,-1,-1,-1,-1,-1,-1,-1,-1,-1,-1,-1,-1,-1,-1,-1,-1,-1,-1,-1,-1,-1,-1,-1,-1,-1,-1,-1,-1,-1,-1,-1,-1,-1,-1,-1,-1,-1,-1,-1,-1,-1,-1,-1,-1,-1,-1,-1,-1,-1,-1],"loss_changes":[1.2207244E5,1.1438525E5,7.712867E3,1.61934375E4,3.8134562E4,6.150004E3,2.6016582E3,5.1E2,4.1982812E3,6.314801E3,8.404444E4,1.7560391E3,1.3744824E3,4.48849E2,6.8397656E2,0E0,0E0,8.553254E3,5.341875E3,5.0758564E3,3.4822344E3,0E0,6.343672E3,5.425742E2,4.405332E3,3.1268677E2,1.9263408E3,6.667261E1,8.544067E0,0E0,4.617168E2,1.5866797E2,2.8807324E3,7.8044062E3,3.4512656E3,6.7228516E2,1.0486432E2,2.3968398E3,1.4916455E2,3.0514688E3,8.7638696E2,5.857129E1,0E0,1.1146484E1,2.6580713E3,3.0546313E2,3.6618164E1,3.7634473E2,6.144668E2,6.283191E1,0E0,0E0,0E0,0E0,9.910029E2,0E0,0E0,9.8353613E2,9.795371E2,2.8999844E3,2.6497148E3,1.4443125E3,2.5073889E2,0E0,0E0,0E0,0E0,1.0651113E4,0E0,0E0,0E0,0E0,3.6385156E2,0E0,0E0,1.0868408E1,0E0,0E0,0E0,1.27466064E2,0E0,4.196588E1,2.763634E2,1.068418E2,4.983542E1,3.1184082E1,2.3140808E2,4.322422E2,8.9178345E1,0E0,0E0,0E0,4.5590137E2,1.028467E3,2.457373E1,3.112246E2,7.370264E1,2.9255117E3,6.2639307E2,3.0475E2,5.494116E2,5.9929297E2,4.5334375E3,0E0,1.19780396E2,1.1811367E3,0E0,2.9011875E3,6.829332E3,0E0,2.2696655E1,0E0,8.161218E1,3.2530945E1,5.299063E1,0E0,1.9236252E1,0E0,0E0,0E0,6.387726E0,6.222168E0,8.7773926E1,0E0,0E0,1.5075488E2,2.7382812E0,4.8632812E-1,0E0,2.1865137E2,4.4484436E1,0E0,0E0,0E0,0E0,0E0,0E0,0E0,0E0,0E0,0E0,0E0,0E0,0E0,0E0,0E0,0E0,0E0,0E0,0E0,0E0,0E0,0E0,0E0,0E0,0E0,0E0,0E0,0E0,0E0,0E0,0E0,0E0,0E0,0E0,0E0,0E0,0E0,0E0,0E0,0E0,0E0,0E0,0E0,0E0,0E0,0E0,0E0,0E0,0E0,0E0,0E0,0E0,0E0,0E0],"parents":[2147483647,0,0,1,1,2,2,3,3,4,4,5,5,6,6,7,7,8,8,9,9,10,10,11,11,12,12,13,13,14,14,17,17,18,18,19,19,20,20,22,22,23,23,24,24,25,25,26,26,27,27,28,28,30,30,31,31,32,32,33,33,34,34,35,35,36,36,37,37,38,38,39,39,40,40,41,41,43,43,44,44,45,45,46,46,47,47,48,48,49,49,54,54,57,57,58,58,59,59,60,60,61,61,62,62,67,67,72,72,75,75,79,79,81,81,82,82,83,83,84,84,85,85,86,86,87,87,88,88,92,92,93,93,94,94,95,95,96,96,97,97,98,98,99,99,100,100,101,101,102,102,104,104,105,105,107,107,108,108,110,110,112,112,113,113,114,114,116,116,120,120,121,121,122,122,125,125,126,126,127,127,129,129,130,130],"right_children":[2,4,6,8,10,12,14,16,18,20,22,24,26,28,30,-1,-1,32,34,36,38,-1,40,42,44,46,48,50,52,-1,54,56,58,60,62,64,66,68,70,72,74,76,-1,78,80,82,84,86,88,90,-1,-1,-1,-1,92,-1,-1,94,96,98,100,102,104,-1,-1,-1,-1,106,-1,-1,-1,-1,108,-1,-1,110,-1,-1,-1,112,-1,114,116,118,120,122,124,126,128,-1,-1,-1,130,132,134,136,138,140,142,144,146,148,150,-1,152,154,-1,156,158,-1,160,-1,162,164,166,-1,168,-1,-1,-1,170,172,174,-1,-1,176,178,180,-1,182,184,-1,-1,-1,-1,-1,-1,-1,-1,-1,-1,-1,-1,-1,-1,-1,-1,-1,-1,-1,-1,-1,-1,-1,-1,-1,-1,-1,-1,-1,-1,-1,-1,-1,-1,-1,-1,-1,-1,-1,-1,-1,-1,-1,-1,-1,-1,-1,-1,-1,-1,-1,-1,-1,-1],"split_conditions":[3.2E0,1E0,1E0,1.2E0,2.83E0,4.29E0,5.29E0,1E0,1.9E0,1.65E0,1.79E0,3.36E0,5.24E0,4.39E0,4.49E0,5.098126E0,3.9451058E0,1.25E0,2.31E0,2.57E0,2.54E0,2.9361656E1,2.99E0,3.33E0,3.41E0,4.49E0,5.29E0,3.33E0,5.24E0,4.0372877E0,5.69E0,1.23E0,1.6E0,2.71E0,3.43E0,1.53E0,9.9E-1,2.71E0,2.75E0,2.49E0,3.03E0,3.29E0,7.2486806E-1,3.43E0,4.15E0,4.35E0,4.99E0,1E0,6.79E0,3.34E0,9.148429E-1,8.052524E-1,2.5282776E-1,3.7471035E0,5.79E0,2.5884092E0,3.2949145E0,1.47E0,1.87E0,1E0,1E0,2.62E0,3.49E0,5.1004143E0,1.1182128E0,1.4440085E0,6.1382043E-1,2.62E0,4.240792E0,1.1663437E0,3.1799917E0,1.02107E1,3.28E0,5.0579367E0,1.0701742E0,3.23E0,1.3449299E0,2.688666E0,1.0969096E0,3.9E0,2.018125E0,4.79E0,4.37E0,4.87E0,5.08E0,6.59E0,6.14E0,6.59E0,7.99E0,1.5130911E0,3.3757398E0,-4.0264394E-2,5.29E0,9.9E-1,1.54E0,1.47E0,1.89E0,2.39E0,2.39E0,3.5E0,3.17E0,2.59E0,2.69E0,-1.5679842E-1,2.98E0,2.49E0,1.5084781E1,2.99E0,2.51E0,1.4042115E0,3.25E0,5.067025E-1,1E0,3.49E0,4.99E0,1.5016425E0,4.4E0,3.2063466E-1,6.204983E-1,1.9522007E-1,5.22E0,5.19E0,7.04E0,5.0082946E-1,1.2977554E0,6.49E0,6.62E0,7.29E0,-2.4342055E-2,7.04E0,6.45E0,3.3109858E0,9.9165356E-1,5.516819E-1,7.423282E-1,-3.270617E-2,2.0860705E0,1.2212034E0,5.460452E-1,2.8295074E0,5.869582E0,2.5699606E0,1.3337017E0,5.785554E0,1.0052367E1,3.8215477E0,9.202094E-1,2.2576916E0,1.6807758E0,3.4315417E0,2.3746703E0,1.253863E0,5.542782E-1,9.030878E0,4.6151643E0,8.176514E0,3.9494874E0,3.8310785E0,1.1753004E1,6.369681E-1,1.0490147E0,1.5196643E0,4.751399E-1,7.590409E-1,3.430436E-1,8.863391E-1,3.673949E-1,3.2600868E-1,7.1823525E-1,3.427175E-1,5.563073E-1,9.7331494E-1,1.4842473E0,2.0930176E0,1.413725E0,7.399638E-1,4.7768718E-1,1.0527773E0,5.055362E-1,4.4850057E-1,3.752387E-1,2.81436E0,1.2267625E0,1.9112277E0,9.579314E-1],"split_indices":[5,1,1,6,6,6,6,6,6,5,5,5,6,6,5,0,0,6,5,6,5,0,5,5,5,5,5,5,5,0,6,6,6,6,6,5,5,6,5,5,6,5,0,6,5,5,6,2,5,6,0,0,0,0,6,0,0,6,6,2,2,6,6,0,0,0,0,6,0,0,0,0,6,0,0,6,0,0,0,6,0,6,5,6,6,6,6,5,6,0,0,0,5,5,5,5,5,6,6,6,6,5,5,0,5,6,0,6,5,0,6,0,2,5,6,0,5,0,0,0,5,5,6,0,0,5,5,5,0,6,6,0,0,0,0,0,0,0,0,0,0,0,0,0,0,0,0,0,0,0,0,0,0,0,0,0,0,0,0,0,0,0,0,0,0,0,0,0,0,0,0,0,0,0,0,0,0,0,0,0,0,0,0,0,0],"split_type":[0,0,0,0,0,0,0,0,0,0,0,0,0,0,0,0,0,0,0,0,0,0,0,0,0,0,0,0,0,0,0,0,0,0,0,0,0,0,0,0,0,0,0,0,0,0,0,0,0,0,0,0,0,0,0,0,0,0,0,0,0,0,0,0,0,0,0,0,0,0,0,0,0,0,0,0,0,0,0,0,0,0,0,0,0,0,0,0,0,0,0,0,0,0,0,0,0,0,0,0,0,0,0,0,0,0,0,0,0,0,0,0,0,0,0,0,0,0,0,0,0,0,0,0,0,0,0,0,0,0,0,0,0,0,0,0,0,0,0,0,0,0,0,0,0,0,0,0,0,0,0,0,0,0,0,0,0,0,0,0,0,0,0,0,0,0,0,0,0,0,0,0,0,0,0,0,0,0,0,0,0,0,0,0,0],"sum_hessian":[4.035E3,2.183E3,1.852E3,2.013E3,1.7E2,1.718E3,1.34E2,1.04E2,1.909E3,8.9E1,8.1E1,5.07E2,1.211E3,4.5E1,8.9E1,5E1,5.4E1,4.47E2,1.462E3,4.3E1,4.6E1,5E0,7.6E1,2.62E2,2.45E2,4.82E2,7.29E2,1E1,3.5E1,1.2E1,7.7E1,1.25E2,3.22E2,1.69E2,1.293E3,2.1E1,2.2E1,3.9E1,7E0,6.9E1,7E0,1.6E2,1.02E2,8.6E1,1.59E2,1.35E2,3.47E2,1.28E2,6.01E2,7E0,3E0,3.3E1,2E0,9E0,6.8E1,4.1E1,8.4E1,1.49E2,1.73E2,1.24E2,4.5E1,1.251E3,4.2E1,1.9E1,2E0,1.1E1,1.1E1,2.5E1,1.4E1,5E0,2E0,2.9E1,4E1,2E0,5E0,6.1E1,9.9E1,8.4E1,2E0,9.8E1,6.1E1,9.5E1,4E1,2.22E2,1.25E2,8.1E1,4.7E1,4.51E2,1.5E2,5E0,2E0,5E0,6.3E1,2.6E1,1.23E2,1.49E2,2.4E1,6.4E1,6E1,2.7E1,1.8E1,2.95E2,9.56E2,6E0,3.6E1,2.1E1,4E0,2.5E1,1.5E1,8E0,5.3E1,8.7E1,1.1E1,6.8E1,2.7E1,1.9E1,2.1E1,1.78E2,4.4E1,9.3E1,3.2E1,3.4E1,4.7E1,2E1,2.7E1,3.28E2,1.23E2,1.35E2,1.5E1,5E1,1.3E1,8E0,1.8E1,6E1,6.3E1,2E0,1.47E2,9E0,1.5E1,5.2E1,1.2E1,2E1,4E1,2.5E1,2E0,1.5E1,3E0,2E2,9.5E1,1.44E2,8.12E2,2.2E1,1.4E1,3E0,1.8E1,1.1E1,1.4E1,7E0,8E0,1.1E1,4.2E1,6E0,5E0,6E0,6.2E1,1.4E1,1.3E1,9E0,1.2E1,1.9E1,1.3E1,1E1,2.4E1,2.3E1,2.4E1,2.29E2,9.9E1,1.2E2,3E0,6E1,7.5E1,4.5E1,5E0,4E0,9E0],"tree_param":{"num_deleted":"0","num_feature":"12","num_nodes":"185","size_leaf_vector":"0"}},{"base_weights":[9.6474495E0,8.096144E0,2.3873308E1,1.1739085E1,4.1075606E0,3.463499E1,1.1199938E1,1.8391668E1,1.0824152E1,3.7218146E0,1.1451425E1,2.4587713E1,4.787501E1,1.2172448E1,6.108955E0,2.1313618E1,1.5994466E1,2.3919954E0,1.2215407E1,6.2068663E0,3.1010158E0,2.2090468E0,1.155219E0,1.9551733E1,3.2920902E1,6.5128456E1,3.6828476E1,7.9980717E0,1.3270241E1,1.5307586E0,3.9214275E0,4.3402123E0,3.3955326E0,2.1288416E0,1.7118103E1,2.272969E0,1.5070248E0,1.3930633E1,6.388139E0,3.4681048E0,1.2368646E1,6.922452E0,2.790012E0,2.3783396E1,-6.531433E-1,4.6320263E1,1.4763556E1,2.3252651E1,9.193839E1,2.2205172E1,5.119034E1,1.16544075E1,2.3459969E0,1.749253E1,1.0917076E1,7.06422E-1,3.3092025E-1,2.946184E0,7.9668635E-1,2.4112167E0,-2.7395988E-1,1.2650079E1,1.9486538E1,5.332995E0,6.1438885E0,4.594163E0,2.5784354E0,1.928647E1,9.904132E0,5.5222735E0,1.98889E0,1.7351321E0,3.722944E0,1.4862437E1,3.4960426E1,-2.7735732E0,6.8442905E-1,9.841716E0,4.2971015E0,8.739091E0,4.8225946E0,8.490424E0,9.0064945E0,1.772596E1,1.0007076E1,1.5999394E1,2.7023125E1,7.549514E1,6.517181E0,7.9470544E0,5.312416E0,-5.630338E-2,3.717713E0,3.576149E0,1.0419352E1,1.1628182E1,6.683337E0,4.4830794E0,1.8776044E0,-4.47682E-2,-2.7965683E-1,1.50284605E1,5.9049206E0,3.493575E1,1.870174E1,5.1014466E0,7.8159842E0,5.070339E-1,4.9271517E0,5.622515E-1,2.829965E0,2.6664195E0,4.559687E0,1.7941018E0,1.3416992E0,4.6521434E-1,6.230538E0,1.3110096E0,2.5231907E0,4.685726E0,2.1837404E0,8.099748E0,8.640047E0,6.382544E1,2.4655405E1,-5.9872627E-2,-6.6235673E-1,-3.4544658E-2,1.9881539E-1,9.048094E-1,1.1490472E1,2.0089772E0,5.7119823E0,1.123752E0,2.8676498E0,4.9566097E0,2.266744E0,1.5531417E1,5.5797653E0,1.0595026E0,1.6993502E0,2.5325638E-1,4.0884876E0,1.9434947E0,3.7723652E-1,2.1238801E0,1.517583E0,1.8680856E0,8.585071E-1,6.211743E-1,1.072087E0,2.7653423E-1,5.2079153E-1,-1.5000771E-1,3.6350258E-2,1.7164476E0,3.2674768E0,3.9953104E-1,1.2625039E0,8.204827E0,3.4387317E0,3.3067675E0,1.9231474E0,1.231444E0,5.734555E-1,1.8205721E0,8.2378656E-1,9.614458E-1,6.208599E-1,2.6951993E-1,5.1483173E-2,4.2846614E-1,5.694815E-1,9.8410535E-1,1.4003631E0,2.830645E-1,1.6751124E-1,6.313075E-1,3.8786158E-1,5.633243E-1,1.0447993E0,3.5951138E-1,8.017929E-1,1.879691E0,1.1861166E-1,1.4500142E1,6.49037E0,6.368363E0,1.6651902E0,-6.6406064E-2,5.6618407E-2,2.541926E0,7.2935325E-1,2.1602838E-1,1.2298348E0,7.855713E-1,2.8230518E-1],"categories":[],"categories_nodes":[],"categories_segments":[],"categories_sizes":[],"default_left":[false,false,false,false,false,false,false,false,false,false,false,false,false,false,false,false,false,false,false,false,false,false,false,false,false,false,false,false,false,false,false,false,false,false,false,false,false,false,false,false,false,false,false,false,false,false,false,false,false,false,false,false,false,false,false,false,false,false,false,false,false,false,false,false,false,false,false,false,false,false,false,false,false,false,false,false,false,false,false,false,false,false,false,false,false,false,false,false,false,false,false,false,false,false,false,false,false,false,false,false,false,false,false,false,false,false,false,false,false,false,false,false,false,false,false,false,false,false,false,false,false,false,false,false,false,false,false,false,false,false,false,false,false,false,false,false,false,false,false,false,false,false,false,false,false,false,false,false,false,false,false,false,false,false,false,false,false,false,false,false,false,false,false,false,false,false,false,false,false,false,false,false,false,false,false,false,false,false,false,false,false,false,false,false,false,false,false,false,false,false,false,false,false,false,false,false,false],"id":2,"left_children":[1,3,5,7,9,11,13,15,17,19,21,23,25,27,29,31,33,35,37,39,41,-1,-1,43,45,47,49,51,53,-1,55,-1,-1,-1,57,-1,59,61,63,65,67,69,71,73,75,77,79,81,83,85,87,89,91,93,95,-1,-1,-1,-1,97,99,101,103,-1,105,107,109,111,113,115,-1,117,119,121,123,125,127,-1,-1,129,-1,-1,131,-1,-1,133,135,137,-1,139,-1,-1,141,-1,143,145,147,149,151,153,-1,155,157,159,161,163,165,-1,167,169,171,-1,-1,-1,-1,-1,173,175,177,179,181,-1,183,185,187,-1,-1,189,-1,-1,191,-1,193,-1,-1,-1,-1,-1,-1,-1,-1,-1,195,-1,-1,-1,-1,-1,-1,-1,-1,-1,-1,-1,-1,-1,-1,-1,-1,-1,-1,-1,-1,-1,-1,-1,-1,-1,-1,-1,-1,-1,-1,-1,-1,-1,-1,-1,-1,-1,-1,-1,-1,-1,-1,-1,-1,-1,-1,-1,-1,-1,-1,-1,-1,-1,-1],"loss_changes":[9.059716E4,5.3873266E4,5.471236E4,1.1602969E4,4.9800527E3,2.7822562E4,8.514824E2,1.2911562E3,1.9996094E4,2.5817715E3,5.4389746E2,4.6440312E3,1.5326359E4,6.0874805E2,1.6737769E2,6.639844E1,3.0058594E2,2.340734E3,1.4553781E4,5.6273203E3,1.5863252E3,0E0,0E0,6.9410527E3,1.0507805E4,3.715625E4,1.1254359E4,6.959646E2,1.0211953E3,0E0,1.1531677E0,0E0,0E0,0E0,1.7489844E2,0E0,3.6460016E2,7.8001562E3,1.8514219E3,2.2258008E2,1.5650381E3,6.109331E2,1.2246885E3,6.160961E3,4.4441742E1,4.8680586E3,1.4732632E3,5.253849E3,2.4271406E3,4.9451953E2,6.1657812E3,1.2772234E3,5.631652E1,8.335381E2,1.6614648E2,0E0,0E0,0E0,0E0,1.5741827E2,2.4122849E1,1.47025E4,1.8927969E3,0E0,5.405674E2,4.004248E1,6.585718E1,2.8492578E2,1.8612793E1,1.4079175E2,0E0,1.9355554E2,9.722793E2,7.5439307E3,7.052539E3,1.4937859E1,3.5279493E0,0E0,0E0,8.925256E1,0E0,0E0,3.4368835E1,0E0,0E0,1.9060059E1,7.851074E1,3.0948242E3,0E0,4.458496E0,0E0,0E0,2.1699524E0,0E0,1.07537964E2,4.740039E1,4.2954346E1,2.2308655E1,3.1023254E1,1.4701246E1,0E0,1.3884719E4,1.2914746E3,7.879668E2,8.9914844E2,7.456533E2,1.0308887E3,0E0,5.6431274E1,3.7665448E0,1.0549866E1,0E0,0E0,0E0,0E0,0E0,8.158447E0,4.2751526E1,5.0497437E1,7.950215E2,3.491687E1,0E0,6.449592E2,5.979238E2,4.009792E3,0E0,0E0,7.845602E-1,0E0,0E0,1.352666E2,0E0,3.8134354E1,0E0,0E0,0E0,0E0,0E0,0E0,0E0,0E0,0E0,2.6693726E0,0E0,0E0,0E0,0E0,0E0,0E0,0E0,0E0,0E0,0E0,0E0,0E0,0E0,0E0,0E0,0E0,0E0,0E0,0E0,0E0,0E0,0E0,0E0,0E0,0E0,0E0,0E0,0E0,0E0,0E0,0E0,0E0,0E0,0E0,0E0,0E0,0E0,0E0,0E0,0E0,0E0,0E0,0E0,0E0,0E0,0E0,0E0,0E0,0E0,0E0,0E0,0E0,0E0,0E0],"parents":[2147483647,0,0,1,1,2,2,3,3,4,4,5,5,6,6,7,7,8,8,9,9,10,10,11,11,12,12,13,13,14,14,15,15,16,16,17,17,18,18,19,19,20,20,23,23,24,24,25,25,26,26,27,27,28,28,30,30,34,34,36,36,37,37,38,38,39,39,40,40,41,41,42,42,43,43,44,44,45,45,46,46,47,47,48,48,49,49,50,50,51,51,52,52,53,53,54,54,59,59,60,60,61,61,62,62,64,64,65,65,66,66,67,67,68,68,69,69,71,71,72,72,73,73,74,74,75,75,76,76,79,79,82,82,85,85,86,86,87,87,89,89,92,92,94,94,95,95,96,96,97,97,98,98,99,99,101,101,102,102,103,103,104,104,105,105,106,106,108,108,109,109,110,110,116,116,117,117,118,118,119,119,120,120,122,122,123,123,124,124,127,127,130,130,132,132,142,142],"right_children":[2,4,6,8,10,12,14,16,18,20,22,24,26,28,30,32,34,36,38,40,42,-1,-1,44,46,48,50,52,54,-1,56,-1,-1,-1,58,-1,60,62,64,66,68,70,72,74,76,78,80,82,84,86,88,90,92,94,96,-1,-1,-1,-1,98,100,102,104,-1,106,108,110,112,114,116,-1,118,120,122,124,126,128,-1,-1,130,-1,-1,132,-1,-1,134,136,138,-1,140,-1,-1,142,-1,144,146,148,150,152,154,-1,156,158,160,162,164,166,-1,168,170,172,-1,-1,-1,-1,-1,174,176,178,180,182,-1,184,186,188,-1,-1,190,-1,-1,192,-1,194,-1,-1,-1,-1,-1,-1,-1,-1,-1,196,-1,-1,-1,-1,-1,-1,-1,-1,-1,-1,-1,-1,-1,-1,-1,-1,-1,-1,-1,-1,-1,-1,-1,-1,-1,-1,-1,-1,-1,-1,-1,-1,-1,-1,-1,-1,-1,-1,-1,-1,-1,-1,-1,-1,-1,-1,-1,-1,-1,-1,-1,-1,-1,-1],"split_conditions":[1E0,3.23E0,2.99E0,1.25E0,8.8491205E10,1E0,7.04E0,1.2E0,1.1110853E9,2.0662006E9,3.43E0,3.7000315E9,2.0662006E9,3.8000317E9,4.69E0,9.8E-1,1.22E0,1.1110354E9,4.1167094E9,1.6000275E9,3.37E0,2.2090468E0,1.155219E0,3.5000689E9,4.1167094E9,1.6000275E9,3.7000315E9,2.0662006E9,4.69E0,1.5307586E0,5.39E0,4.3402123E0,3.3955326E0,2.1288416E0,1E0,2.272969E0,1.63E0,3.7000315E9,1.53E0,3.34E0,3.41E0,3.3E0,5.24E0,1.6000275E9,2.26E0,2.51E0,2.51E0,1.1110354E9,3.3E0,3.0000067E9,3.8000392E9,1.6000275E9,3.41E0,7.7975025E9,7.218063E9,7.06422E-1,3.3092025E-1,2.946184E0,7.9668635E-1,9.9E-1,3.09E0,3.0000064E9,2.5E0,5.332995E0,3.1254743E10,3.27E0,1.1110381E9,3.3E0,4.26E0,2.8400049E9,1.98889E0,7.1921004E9,7.218063E9,1.2E0,2.0662006E9,1.76E0,3.49E0,9.841716E0,4.2971015E0,8.8491205E10,4.8225946E0,8.490424E0,9.9E-1,1.772596E1,1.0007076E1,1.89E0,2.86E0,2.01E0,6.517181E0,1E0,5.312416E0,-5.630338E-2,3.49E0,3.576149E0,4.15E0,5.39E0,4.97E0,9.8E-1,2.44E0,2.71E0,-2.7965683E-1,1.6000275E9,3.0000067E9,2.86E0,3.03E0,2.57E0,8.849121E10,5.070339E-1,3.33E0,3.03E0,3.43E0,2.6664195E0,4.559687E0,1.7941018E0,1.3416992E0,4.6521434E-1,1E0,3.8000317E9,4.15E0,3.8000317E9,1E0,8.099748E0,2E0,2.26E0,2.73E0,-5.9872627E-2,-6.6235673E-1,2.5E0,1.9881539E-1,9.048094E-1,8.849121E10,2.0089772E0,1.1110853E9,1.123752E0,2.8676498E0,4.9566097E0,2.266744E0,1.5531417E1,5.5797653E0,1.0595026E0,1.6993502E0,2.5325638E-1,5.49E0,1.9434947E0,3.7723652E-1,2.1238801E0,1.517583E0,1.8680856E0,8.585071E-1,6.211743E-1,1.072087E0,2.7653423E-1,5.2079153E-1,-1.5000771E-1,3.6350258E-2,1.7164476E0,3.2674768E0,3.9953104E-1,1.2625039E0,8.204827E0,3.4387317E0,3.3067675E0,1.9231474E0,1.231444E0,5.734555E-1,1.8205721E0,8.2378656E-1,9.614458E-1,6.208599E-1,2.6951993E-1,5.1483173E-2,4.2846614E-1,5.694815E-1,9.8410535E-1,1.4003631E0,2.830645E-1,1.6751124E-1,6.313075E-1,3.8786158E-1,5.633243E-1,1.0447993E0,3.5951138E-1,8.017929E-1,1.879691E0,1.1861166E-1,1.4500142E1,6.49037E0,6.368363E0,1.6651902E0,-6.6406064E-2,5.6618407E-2,2.541926E0,7.2935325E-1,2.1602838E-1,1.2298348E0,7.855713E-1,2.8230518E-1],"split_indices":[0,6,5,6,4,1,6,6,4,4,6,4,4,4,5,6,5,4,4,4,6,0,0,4,4,4,4,4,5,0,5,0,0,0,1,0,5,4,5,6,5,5,6,4,5,5,5,4,6,4,4,4,5,4,4,0,0,0,0,5,6,4,5,0,4,6,4,5,5,4,0,4,4,6,4,5,6,0,0,4,0,0,5,0,0,5,6,5,0,1,0,0,5,0,5,5,5,5,6,5,0,4,4,6,5,6,4,0,5,5,6,0,0,0,0,0,2,4,5,4,1,0,6,5,6,0,0,5,0,0,4,0,4,0,0,0,0,0,0,0,0,0,6,0,0,0,0,0,0,0,0,0,0,0,0,0,0,0,0,0,0,0,0,0,0,0,0,0,0,0,0,0,0,0,0,0,0,0,0,0,0,0,0,0,0,0,0,0,0,0,0,0,0,0,0,0,0],"split_type":[0,0,0,0,0,0,0,0,0,0,0,0,0,0,0,0,0,0,0,0,0,0,0,0,0,0,0,0,0,0,0,0,0,0,0,0,0,0,0,0,0,0,0,0,0,0,0,0,0,0,0,0,0,0,0,0,0,0,0,0,0,0,0,0,0,0,0,0,0,0,0,0,0,0,0,0,0,0,0,0,0,0,0,0,0,0,0,0,0,0,0,0,0,0,0,0,0,0,0,0,0,0,0,0,0,0,0,0,0,0,0,0,0,0,0,0,0,0,0,0,0,0,0,0,0,0,0,0,0,0,0,0,0,0,0,0,0,0,0,0,0,0,0,0,0,0,0,0,0,0,0,0,0,0,0,0,0,0,0,0,0,0,0,0,0,0,0,0,0,0,0,0,0,0,0,0,0,0,0,0,0,0,0,0,0,0,0,0,0,0,0,0,0,0,0,0,0],"sum_hessian":[4.113E3,3.71E3,4.03E2,1.938E3,1.772E3,2.17E2,1.86E2,2.32E2,1.706E3,1.685E3,8.7E1,1.25E2,9.2E1,1.55E2,3.1E1,1.01E2,1.31E2,2.42E2,1.464E3,3.35E2,1.35E3,6.4E1,2.3E1,8E1,4.5E1,3.4E1,5.8E1,3.4E1,1.21E2,1.2E1,1.9E1,2E1,8.1E1,3.5E1,9.6E1,1.7E1,2.25E2,1.13E3,3.34E2,2.33E2,1.02E2,1E2,1.25E3,6.6E1,1.4E1,2.5E1,2E1,1.4E1,2E1,3E1,2.8E1,2E1,1.4E1,4.1E1,8E1,1.6E1,3E0,9.4E1,2E0,1.49E2,7.6E1,9.21E2,2.09E2,2E0,3.32E2,1.01E2,1.32E2,2.5E1,7.7E1,7.9E1,2.1E1,5.88E2,6.62E2,3.8E1,2.8E1,5E0,9E0,1.5E1,1E1,1.5E1,5E0,4E0,1E1,1.3E1,7E0,1.5E1,1.5E1,8E0,2E1,1.8E1,2E0,5E0,9E0,2.6E1,1.5E1,6.7E1,1.3E1,2.9E1,1.2E2,6.6E1,1E1,6.8E2,2.41E2,8E0,2.01E2,2.07E2,1.25E2,1.9E1,8.2E1,1.5E1,1.17E2,1.9E1,6E0,5.5E1,2.2E1,1.7E1,6.2E1,3.84E2,2.04E2,4.06E2,2.56E2,5E0,3.3E1,6E0,2.2E1,2E0,3E0,4E0,5E0,8E0,7E0,4E0,6E0,2E0,1.3E1,1.2E1,3E0,5E0,3E0,1.2E1,6E0,2E0,7E0,1.3E1,2E0,4.8E1,1.9E1,2E0,1.1E1,2.2E1,7E0,1.01E2,1.9E1,1.5E1,5.1E1,3.14E2,3.66E2,7.3E1,1.68E2,3E0,5E0,1.81E2,2E1,9.1E1,1.16E2,6.2E1,6.3E1,5E1,3.2E1,2E0,1.3E1,7.7E1,4E1,5.4E1,8E0,1.82E2,2.02E2,3.2E1,1.72E2,2.11E2,1.95E2,2.51E2,5E0,2.5E1,8E0,2E0,4E0,1.1E1,1.1E1,2E0,2E0,4E0,3E0,2E0,4E0,5E0,2E0],"tree_param":{"num_deleted":"0","num_feature":"12","num_nodes":"197","size_leaf_vector":"0"}},{"base_weights":[7.7760305E0,6.5518765E0,2.015391E1,8.916397E0,2.6679504E0,3.0300377E1,9.245792E0,1.3954257E1,8.361086E0,6.114373E0,2.2912362E0,2.2778013E1,3.9179665E1,6.6431394E0,1.2119878E1,1.6494516E1,1.1555268E1,4.735928E0,1.0282677E1,2.1980577E0,8.984918E0,1.6029294E0,2.9285622E0,2.1635916E1,9.053392E0,6.5974396E1,3.326101E1,3.074582E0,7.8398175E0,1.3284243E1,5.598688E0,1.7398201E1,1.2906797E1,6.977569E0,1.2160052E1,1.1123995E0,6.420551E0,2.463235E1,8.253939E0,2.5327215E0,8.4478086E-1,1.6394205E0,1.2447194E0,1.4139925E0,9.9520206E-1,5.396806E0,2.5605972E0,2.4220737E1,4.027671E0,3.5641747E1,2.2592249E1,1.9858519E1,3.9821903E1,7.467677E-1,1.5199065E0,9.227097E0,4.664082E0,1.7864738E1,1.0705206E1,1.2767756E0,4.0829415E0,3.322574E0,1.5429682E1,1.2045816E0,2.5120687E0,1.4850345E0,1.363031E0,2.1485875E0,1.4519732E0,1.9742548E0,-2.9353407E-1,9.387598E0,3.0009766E0,5.9311657E1,2.3386885E1,7.9243193E0,1.6049858E1,5.925844E-1,3.7513617E-1,2.3897433E-1,6.1499614E-1,1.0206856E0,2.0954819E0,3.1811106E0,7.643758E0,2.9620383E0,1.4688398E0,2.0076504E1,3.071625E1,-2.6351178E-1,5.6897883E0,9.137727E0,2.9944906E0,6.5547853E0,1.4460723E1,4.262555E1,1.4026687E1,-8.26611E-2,2.4655547E0,2.6182973E0,8.610406E0,1.2521282E0,2.7323165E0,1.1679481E1,4.4520507E0,9.6429425E-1,1.1776116E1,2.6089716E0,9.5908105E-1,1.9566946E0,2.935422E0,3.630961E-1,2.309606E-2,1.4441023E0,4.585281E0,2.8307316E-1,-6.9479537E-1,8.148071E0,1.2012706E1,-1.7592597E-1,3.165868E0,4.535179E0,1.2269791E1,2.822648E1,1.9648823E1,2.923012E0,8.372113E0,1.2008761E1,2.5384274E1,1.17294796E-1,3.146319E-2,3.385237E-1,1.1790944E0,4.0851345E0,1.8738494E0,1.7532517E0,4.3464985E0,9.003364E0,3.2408547E0,3.2852843E0,1.4873316E0,1.7270827E0,-9.342932E-2,5.9762135E0,1.6441324E1,1.2580162E1,2.5363903E1,1.7307209E0,3.5606155E0,7.142815E-1,1.6627464E1,3.292659E1,4.8123703E1,1.272811E0,3.0719924E0,2.2755519E-1,5.269046E-1,6.673951E0,1.7293243E0,3.4638736E0,5.764275E-1,1.5956757E1,2.6041083E0,1.3041259E1,5.5598154E0,8.434891E-1,1.148418E-1,7.9704815E-1,2.2897434E-1,9.662962E-1,4.878725E-1,1.3858631E-1,-1.03934094E-1,-9.097387E-2,-3.0651295E-1,1.5770931E0,3.5133094E-1,2.3457363E0,1.7404672E0,6.526334E-1,-3.2993585E-1,3.5652357E-1,5.743647E-1,2.6822474E0,4.9626865E0,3.5049312E0,2.6089475E0,1.0194011E0,3.5792264E-1,1.041681E0,1.6817957E0,4.8210616E0,1.5101779E0,5.140046E0,1.1746966E0,1.1710926E-1,-3.115233E-1,2.7148712E-1,1.5484646E-1,7.666078E-1,4.5099276E-1,2.8899893E-1,5.29771E-1,-1.5127924E-2,3.9686725E-1,4.7475934E-1,8.481318E-1,1.5937544E0,4.3067652E-1,3.8946292E-1,7.3617375E-1,4.3146005E-1,6.792251E-1,3.3188275E-1,8.1498355E-2,5.3192425E-1,2.7028304E-1,1.2835783E0,4.9548635E0,1.4434326E0,4.968828E0,2.163099E-1,7.637504E-1,1.2204543E0,3.0836825E0,2.3200355E0,7.0429263E0,1.0818819E1,5.877102E0,1.2513624E0,4.6385276E-1,6.9691545E-1,2.2553009E-1,1.750149E-1,-1.169378E-2,1.6244324E0,4.7103424E0,6.287303E-1,4.7089748E-2,6.2820506E-1,2.3080645E0,1.0794007E0,3.6164847E-1],"categories":[],"categories_nodes":[],"categories_segments":[],"categories_sizes":[],"default_left":[false,false,false,false,false,false,false,false,false,false,false,true,false,false,false,false,false,false,false,false,false,false,false,true,false,false,false,false,false,false,false,false,false,false,false,false,false,false,false,false,false,false,false,false,false,false,false,false,false,false,false,false,false,false,false,false,false,false,false,false,false,false,false,false,false,false,false,false,false,false,false,false,false,false,false,false,false,false,false,false,false,false,false,false,false,false,false,false,false,false,false,false,false,false,false,false,false,false,false,false,false,false,false,false,false,false,false,false,false,false,false,false,false,false,false,false,false,false,false,false,false,false,false,false,false,false,false,false,false,false,false,false,false,false,false,false,false,false,false,false,false,false,false,false,false,false,false,false,false,false,false,false,false,false,false,false,false,false,false,false,false,false,false,false,false,false,false,false,false,false,false,false,false,false,false,false,false,false,false,false,false,false,false,false,false,false,false,false,false,false,false,false,false,false,false,false,false,false,false,false,false,false,false,false,false,false,false,false,false,false,false,false,false,false,false,false,false,false,false,false,false,false,false,false,false,false,false,false,false,false,false,false,false,false,false,false,false,false,false,false,false,false,false],"id":3,"left_children":[1,3,5,7,9,11,13,15,17,19,21,23,25,27,29,31,33,35,37,39,41,43,45,47,-1,49,51,53,55,57,59,61,63,65,67,69,71,73,75,77,79,-1,-1,81,-1,83,85,87,89,91,-1,93,95,-1,97,99,101,103,105,-1,107,-1,109,-1,-1,-1,111,-1,-1,113,115,117,119,121,123,125,127,-1,-1,-1,129,131,133,135,137,139,141,143,145,-1,147,-1,-1,-1,149,151,153,-1,155,-1,157,-1,159,161,-1,-1,163,165,-1,-1,-1,-1,-1,167,169,171,173,175,177,179,181,-1,-1,183,185,187,189,191,193,-1,-1,195,197,199,201,203,205,207,209,211,213,215,-1,-1,217,-1,219,-1,221,-1,223,225,227,-1,-1,-1,-1,229,-1,231,233,235,237,239,241,-1,-1,-1,-1,-1,-1,-1,-1,-1,-1,-1,-1,-1,-1,-1,-1,-1,-1,-1,-1,-1,-1,-1,-1,-1,-1,-1,-1,-1,-1,-1,-1,-1,-1,-1,-1,-1,-1,-1,-1,-1,-1,-1,-1,-1,-1,-1,-1,-1,-1,-1,-1,-1,-1,-1,-1,-1,-1,-1,-1,-1,-1,-1,-1,-1,-1,-1,-1,-1,-1,-1,-1,-1,-1,-1,-1,-1,-1],"loss_changes":[5.9886734E4,3.3092375E4,3.9121516E4,6.152703E3,1.7594902E3,1.1397516E4,1.2135684E3,1.1561875E3,1.4029734E4,1.4866729E3,5.361929E2,2.3981875E3,1.09685E4,3.7304443E2,5.406621E2,1.15875E2,2.3906836E2,4.2780635E3,3.8224188E4,2.4128174E1,1.3743652E1,4.6963135E2,5.665386E2,4.4538633E3,0E0,2.3681918E4,5.364461E3,4.455655E1,2.6095264E2,6.1205664E2,9.9036255E0,4.066797E1,1.6743848E2,1.4601233E2,6.876074E1,2.720029E2,4.8317793E3,5.6531562E3,2.8485078E3,6.6018677E0,8.1115246E-1,0E0,0E0,1.5090894E2,0E0,3.8392627E2,2.4020728E2,1.7252734E3,1.3861159E2,2.6442842E3,0E0,1.9657695E3,2.7288516E3,0E0,2.5861294E1,4.6353516E1,9.989911E1,8.782822E2,1.8113135E2,0E0,8.256027E0,0E0,1.3977246E2,0E0,0E0,0E0,4.451789E0,0E0,0E0,1.8578802E2,2.0094513E1,7.3511523E2,1.1789783E2,1.735039E2,2.3218047E3,2.4681562E3,1.4303447E3,0E0,0E0,0E0,2.2685862E-1,3.8934875E1,8.406726E1,6.3931946E1,2.1026978E2,1.8912769E2,8.017819E1,2.4913867E3,5.536635E3,0E0,6.8931854E1,0E0,0E0,0E0,3.9694092E2,6.018281E2,2.3373901E1,0E0,2.280674E0,0E0,6.823047E1,0E0,2.1660667E1,5.4071484E2,0E0,0E0,2.1847998E2,2.8490055E1,0E0,0E0,0E0,0E0,0E0,3.057965E1,2.7041473E1,1.7633434E1,8.05872E0,1.1960391E3,1.1225879E2,9.248121E1,4.1341553E1,0E0,0E0,3.449297E2,7.105078E1,2.210669E2,3.424625E3,1.4855083E3,9.561865E2,0E0,0E0,5.4506042E1,3.1612366E1,1.9146729E-1,3.552765E1,2.269503E1,9.028809E0,4.838867E1,1.4640198E0,1.665791E2,3.420958E1,2.098761E1,0E0,0E0,5.08895E3,0E0,1.7080137E3,0E0,1.3477646E1,0E0,1.1260986E2,2.3851738E3,2.8467578E3,0E0,0E0,0E0,0E0,4.225708E1,0E0,9.504715E0,1.532459E0,4.8745996E2,1.4254955E1,9.999707E1,8.17485E0,0E0,0E0,0E0,0E0,0E0,0E0,0E0,0E0,0E0,0E0,0E0,0E0,0E0,0E0,0E0,0E0,0E0,0E0,0E0,0E0,0E0,0E0,0E0,0E0,0E0,0E0,0E0,0E0,0E0,0E0,0E0,0E0,0E0,0E0,0E0,0E0,0E0,0E0,0E0,0E0,0E0,0E0,0E0,0E0,0E0,0E0,0E0,0E0,0E0,0E0,0E0,0E0,0E0,0E0,0E0,0E0,0E0,0E0,0E0,0E0,0E0,0E0,0E0,0E0,0E0,0E0,0E0,0E0,0E0,0E0,0E0,0E0,0E0,0E0,0E0,0E0,0E0,0E0],"parents":[2147483647,0,0,1,1,2,2,3,3,4,4,5,5,6,6,7,7,8,8,9,9,10,10,11,11,12,12,13,13,14,14,15,15,16,16,17,17,18,18,19,19,20,20,21,21,22,22,23,23,25,25,26,26,27,27,28,28,29,29,30,30,31,31,32,32,33,33,34,34,35,35,36,36,37,37,38,38,39,39,40,40,43,43,45,45,46,46,47,47,48,48,49,49,51,51,52,52,54,54,55,55,56,56,57,57,58,58,60,60,62,62,66,66,69,69,70,70,71,71,72,72,73,73,74,74,75,75,76,76,80,80,81,81,82,82,83,83,84,84,85,85,86,86,87,87,88,88,90,90,94,94,95,95,96,96,98,98,100,100,102,102,103,103,106,106,107,107,113,113,114,114,115,115,116,116,117,117,118,118,119,119,120,120,123,123,124,124,125,125,126,126,127,127,128,128,131,131,132,132,133,133,134,134,135,135,136,136,137,137,138,138,139,139,140,140,141,141,144,144,146,146,148,148,150,150,151,151,152,152,157,157,159,159,160,160,161,161,162,162,163,163,164,164],"right_children":[2,4,6,8,10,12,14,16,18,20,22,24,26,28,30,32,34,36,38,40,42,44,46,48,-1,50,52,54,56,58,60,62,64,66,68,70,72,74,76,78,80,-1,-1,82,-1,84,86,88,90,92,-1,94,96,-1,98,100,102,104,106,-1,108,-1,110,-1,-1,-1,112,-1,-1,114,116,118,120,122,124,126,128,-1,-1,-1,130,132,134,136,138,140,142,144,146,-1,148,-1,-1,-1,150,152,154,-1,156,-1,158,-1,160,162,-1,-1,164,166,-1,-1,-1,-1,-1,168,170,172,174,176,178,180,182,-1,-1,184,186,188,190,192,194,-1,-1,196,198,200,202,204,206,208,210,212,214,216,-1,-1,218,-1,220,-1,222,-1,224,226,228,-1,-1,-1,-1,230,-1,232,234,236,238,240,242,-1,-1,-1,-1,-1,-1,-1,-1,-1,-1,-1,-1,-1,-1,-1,-1,-1,-1,-1,-1,-1,-1,-1,-1,-1,-1,-1,-1,-1,-1,-1,-1,-1,-1,-1,-1,-1,-1,-1,-1,-1,-1,-1,-1,-1,-1,-1,-1,-1,-1,-1,-1,-1,-1,-1,-1,-1,-1,-1,-1,-1,-1,-1,-1,-1,-1,-1,-1,-1,-1,-1,-1,-1,-1,-1,-1,-1,-1],"split_conditions":[1E0,3.43E0,2.89E0,1.1110354E9,2.0662006E9,1E0,1E0,1.21E0,1.6000275E9,1.6000275E9,5.27E0,4.15E0,1.88E0,3.8000317E9,7.218064E9,1E0,1.22E0,1.1110853E9,2.0662006E9,4.59E0,4.26E0,8.8491205E10,5.29E0,3.46E0,9.053392E0,1.53E0,2.83E0,4.15E0,6.87E0,4.69E0,5.23E0,9.9E-1,9.8E-1,1E0,1.25E0,1.76E0,2.39E0,1.93E0,1E0,3.49E0,3.03E0,1.6394205E0,1.2447194E0,7.1921004E9,9.9520206E-1,6.14E0,6.62E0,2.26E0,2.26E0,1.18E0,2.2592249E1,2.0662006E9,4.1167094E9,7.467677E-1,3.41E0,4.49E0,4.77E0,3.8000317E9,4.79E0,1.2767756E0,5.05E0,3.322574E0,1.17E0,1.2045816E0,2.5120687E0,1.4850345E0,1E0,2.1485875E0,1.4519732E0,2.44E0,2.96E0,1.9E0,2.92E0,1E0,2.89E0,2.8400049E9,2.96E0,5.925844E-1,3.7513617E-1,2.3897433E-1,1E0,4.29E0,3.99E0,4.65E0,6.79E0,7.218064E9,7.99E0,1.2E0,2.31E0,-2.6351178E-1,2.44E0,9.137727E0,2.9944906E0,6.5547853E0,1.99E0,2.26E0,3.1254743E10,-8.26611E-2,3.700045E9,2.6182973E0,6.59E0,1.2521282E0,5.05E0,3.33E0,4.4520507E0,9.6429425E-1,6.79E0,3.99E0,9.5908105E-1,1.9566946E0,2.935422E0,3.630961E-1,2.309606E-2,9.5E-1,1.18E0,1.1110381E9,1E0,1.86E0,2E0,1.1110874E9,3.23E0,4.535179E0,1.2269791E1,2.44E0,3.23E0,2.88E0,2.75E0,1.93E0,4.1167094E9,1.17294796E-1,3.146319E-2,3.99E0,3.8000317E9,1E0,1E0,3.700045E9,3.8000317E9,7.218064E9,1E0,3.8000317E9,7.7975025E9,7.218063E9,-9.342932E-2,5.9762135E0,3.0000067E9,1.2580162E1,2.5E0,1.7307209E0,2.5E0,7.142815E-1,2.57E0,3.0000067E9,3.14E0,1.272811E0,3.0719924E0,2.2755519E-1,5.269046E-1,6.45E0,1.7293243E0,7.49E0,7.49E0,1.6000275E9,4.49E0,3.8000317E9,7.218063E9,8.434891E-1,1.148418E-1,7.9704815E-1,2.2897434E-1,9.662962E-1,4.878725E-1,1.3858631E-1,-1.03934094E-1,-9.097387E-2,-3.0651295E-1,1.5770931E0,3.5133094E-1,2.3457363E0,1.7404672E0,6.526334E-1,-3.2993585E-1,3.5652357E-1,5.743647E-1,2.6822474E0,4.9626865E0,3.5049312E0,2.6089475E0,1.0194011E0,3.5792264E-1,1.041681E0,1.6817957E0,4.8210616E0,1.5101779E0,5.140046E0,1.1746966E0,1.1710926E-1,-3.115233E-1,2.7148712E-1,1.5484646E-1,7.666078E-1,4.5099276E-1,2.8899893E-1,5.29771E-1,-1.5127924E-2,3.9686725E-1,4.7475934E-1,8.481318E-1,1.5937544E0,4.3067652E-1,3.8946292E-1,7.3617375E-1,4.3146005E-1,6.792251E-1,3.3188275E-1,8.1498355E-2,5.3192425E-1,2.7028304E-1,1.2835783E0,4.9548635E0,1.4434326E0,4.968828E0,2.163099E-1,7.637504E-1,1.2204543E0,3.0836825E0,2.3200355E0,7.0429263E0,1.0818819E1,5.877102E0,1.2513624E0,4.6385276E-1,6.9691545E-1,2.2553009E-1,1.750149E-1,-1.169378E-2,1.6244324E0,4.7103424E0,6.287303E-1,4.7089748E-2,6.2820506E-1,2.3080645E0,1.0794007E0,3.6164847E-1],"split_indices":[0,6,5,4,4,1,1,6,4,4,6,6,5,4,4,2,6,4,4,6,5,4,5,6,0,5,6,6,6,5,6,5,5,2,5,5,5,5,1,5,5,0,0,4,0,6,5,5,5,6,0,4,4,0,5,6,5,4,5,0,5,0,6,0,0,0,5,0,0,6,6,6,5,1,6,4,6,0,0,0,2,6,5,5,6,4,6,6,5,0,5,0,0,0,5,5,4,0,4,0,6,0,5,5,0,0,6,5,0,0,0,0,0,5,5,4,2,5,5,4,6,0,0,6,6,5,5,5,4,0,0,5,4,1,1,4,4,4,1,4,4,4,0,0,4,0,5,0,5,0,6,4,6,0,0,0,0,6,0,6,6,4,5,4,4,0,0,0,0,0,0,0,0,0,0,0,0,0,0,0,0,0,0,0,0,0,0,0,0,0,0,0,0,0,0,0,0,0,0,0,0,0,0,0,0,0,0,0,0,0,0,0,0,0,0,0,0,0,0,0,0,0,0,0,0,0,0,0,0,0,0,0,0,0,0,0,0,0,0,0,0,0,0],"split_type":[0,0,0,0,0,0,0,0,0,0,0,0,0,0,0,0,0,0,0,0,0,0,0,0,0,0,0,0,0,0,0,0,0,0,0,0,0,0,0,0,0,0,0,0,0,0,0,0,0,0,0,0,0,0,0,0,0,0,0,0,0,0,0,0,0,0,0,0,0,0,0,0,0,0,0,0,0,0,0,0,0,0,0,0,0,0,0,0,0,0,0,0,0,0,0,0,0,0,0,0,0,0,0,0,0,0,0,0,0,0,0,0,0,0,0,0,0,0,0,0,0,0,0,0,0,0,0,0,0,0,0,0,0,0,0,0,0,0,0,0,0,0,0,0,0,0,0,0,0,0,0,0,0,0,0,0,0,0,0,0,0,0,0,0,0,0,0,0,0,0,0,0,0,0,0,0,0,0,0,0,0,0,0,0,0,0,0,0,0,0,0,0,0,0,0,0,0,0,0,0,0,0,0,0,0,0,0,0,0,0,0,0,0,0,0,0,0,0,0,0,0,0,0,0,0,0,0,0,0,0,0,0,0,0,0,0,0,0,0,0,0,0,0],"sum_hessian":[3.96E3,3.605E3,3.55E2,2.24E3,1.365E3,1.83E2,1.72E2,2.2E2,2.02E3,1.33E2,1.232E3,1.01E2,8.2E1,9.2E1,8E1,1.04E2,1.16E2,7.01E2,1.319E3,5.7E1,7.6E1,5.94E2,6.38E2,9.9E1,2E0,1.3E1,6.9E1,2.4E1,6.8E1,6.7E1,1.3E1,8E1,2.4E1,1.5E1,1.01E2,2.23E2,4.78E2,1.62E2,1.157E3,4.5E1,1.2E1,5.1E1,2.5E1,5.7E2,2.4E1,8.1E1,5.57E2,8.6E1,1.3E1,1E1,3E0,2.4E1,4.5E1,1.2E1,1.2E1,4.6E1,2.2E1,2.2E1,4.5E1,4E0,9E0,3.4E1,4.6E1,7E0,1.7E1,1.1E1,4E0,8.7E1,1.4E1,1.38E2,8.5E1,2.55E2,2.23E2,4E0,1.58E2,1.112E3,4.5E1,9E0,3.6E1,2E0,1E1,3.63E2,2.07E2,4.2E1,3.9E1,4.06E2,1.51E2,5.5E1,3.1E1,3E0,1E1,4E0,6E0,4E0,2E1,4E1,5E0,4E0,8E0,2E0,4.4E1,8E0,1.4E1,1.4E1,8E0,9E0,3.6E1,6E0,3E0,1.7E1,2.9E1,2E0,2E0,1.16E2,2.2E1,3.5E1,5E1,1.76E2,7.9E1,1.1E1,2.12E2,2E0,2E0,6.6E1,9.2E1,9.2E1,1.02E3,3.3E1,1.2E1,8E0,2E0,6.9E1,2.94E2,1.9E1,1.88E2,2E1,2.2E1,2.9E1,1E1,3.32E2,7.4E1,1.34E2,1.7E1,9E0,4.6E1,2E0,2.9E1,2E0,8E0,4E0,1.6E1,1.7E1,2.3E1,3E0,2E0,4E0,4E0,2.2E1,2.2E1,1E1,4E0,9E0,5E0,2.9E1,7E0,2E0,4E0,2E0,1.14E2,1.2E1,1E1,2.2E1,1.3E1,4.5E1,5E0,1.48E2,2.8E1,3.6E1,4.3E1,3E0,8E0,3.7E1,1.75E2,6E0,6E1,7.2E1,2E1,1.8E1,7.4E1,4.14E2,6.06E2,4E0,2.9E1,9E0,3E0,6E1,9E0,1.13E2,1.81E2,1.3E1,6E0,1.67E2,2.1E1,5E0,1.5E1,8E0,1.4E1,2.7E1,2E0,7E0,3E0,1.64E2,1.68E2,5E1,2.4E1,1E1,1.24E2,2.8E1,1.8E1,6E0,2.3E1,3E0,5E0,3E0,1.3E1,6E0,1.1E1,9E0,1.4E1,1.8E1,4E0,7E0,3E0,2E0,2E0,7E0,2E0,3E0,2E0,2E0,2.7E1,5E0,2E0],"tree_param":{"num_deleted":"0","num_feature":"12","num_nodes":"243","size_leaf_vector":"0"}},{"base_weights":[6.8359632E0,5.709892E0,1.7252628E1,7.8669534E0,2.233557E0,2.4811255E1,8.375022E0,1.4966787E1,7.5515594E0,5.126039E0,1.9149489E0,1.758606E1,3.3924686E1,6.099499E0,1.0813955E1,1.4346886E1,3.5358005E0,5.070229E0,9.099313E0,1.8227681E0,6.998444E0,1.3984393E0,2.558124E0,1.9692993E1,2.396803E0,2.9506033E1,5.3621483E1,2.6373756E0,5.533841E0,1.1863768E1,3.8447468E0,1.6044205E1,1.229303E1,7.239433E0,1.6658494E0,2.1476105E1,7.241894E0,2.827781E-1,2.3288474E0,6.5870914E0,2.3957968E0,9.6872854E-1,2.0603256E0,2.317917E0,9.023898E0,1.1716186E1,2.42804E1,-2.8486466E0,5.040066E0,1.4292663E1,3.2286053E1,1.3207084E1,2.6270432E1,3.200868E0,6.161123E0,1.2597102E1,5.0048227E0,1.1396455E0,2.0737731E-1,2.932359E0,1.2057913E1,1.0698618E0,2.2814305E0,1.0119365E1,6.134326E0,4.6825045E-1,2.7170608E0,3.1062479E1,1.8680754E1,1.7265588E0,7.721666E0,-1.3706338E-1,5.314716E-1,3.9392729E0,2.7840748E-1,1.175285E0,8.921174E-1,8.4727544E-1,1.5560688E0,9.604648E-1,1.6691164E0,2.9399285E0,1.2679664E0,2.828728E0,6.7011566E0,5.277576E0,6.089773E0,1.1224065E1,2.129205E1,-2.322241E-2,-7.089881E-1,2.5070777E0,1.5038244E0,3.2382275E1,6.448472E-1,1.38835125E1,2.8638231E1,8.9887345E-1,5.3567343E0,5.3676516E-1,6.7198503E-1,6.452411E0,3.1161082E-1,1.7396812E1,1.0656085E1,1.0068339E0,4.0409395E-1,8.697477E-1,2.4349093E0,1.3242539E0,1.11302395E1,1.7989715E0,8.101009E0,2.8298392E0,-9.774887E-2,3.2622056E0,2.7029303E-1,1.6914442E0,3.3959885E1,2.1143658E1,1.5834476E1,6.225923E-1,2.0850225E-1,9.236908E0,5.472797E0,2.1189058E-1,4.485303E-2,1.8380487E-1,5.417997E0,9.350197E-1,-2.2964747E-1,2.3787487E-1,1.8928797E0,3.6328878E0,1.368331E0,2.2500246E0,3.7011168E0,1.7564892E0,1.0036055E0,1.293894E0,5.091441E-1,7.780304E0,-2.8143322E0,2.5244905E1,8.878571E0,1.0497145E-1,5.1578516E-1,7.4008293E0,2.7068582E0,1.2350457E0,-2.5529013E0,3.1695042E1,1.130648E1,1.5030919E-1,-1.7912097E-2,1.227541E0,4.841898E0,6.6190042E0,2.7439175E1,6.868018E-2,1.9584012E0,1.9176259E0,4.6288875E-1,6.63992E-1,2.1212168E-1,1.2018363E0,1.7866273E0,6.108948E-1,2.6431334E-1,4.5049682E-2,-2.6755393E-1,-2.2302298E-2,5.648015E-1,6.375996E0,4.186919E0,3.0987494E0,4.2449636E0,1.747521E0,2.8434436E0,1.0694039E0,2.3411875E0,7.741327E-1,1.8102515E0,4.727259E-1,1.1391281E0,2.1295963E-1,1.1483564E-1,7.3843845E-3,-1.2334253E-1,9.6198685E-2,-1.01472914E-1,3.423845E-1,3.5006583E-2,6.35765E-1,2.2392894E-1,2.5660166E-1,1.497687E-2,4.9807298E-1,1.311719E-1,9.7480094E-1,6.000391E-1,8.674659E-1,2.695424E-1,7.355745E-2,2.0351774E-1,8.4647024E-1,1.9816166E0,9.169645E-2,-7.86427E-1,2.7718472E0,5.578964E0,7.907546E-1,3.6471257E0,1.0778059E1,4.849202E0,1.0616866E0,3.1624064E0,1.0369267E0,5.460014E-1,1.3065062E0,2.6675245E-1,5.137304E0,2.0069363E0],"categories":[],"categories_nodes":[],"categories_segments":[],"categories_sizes":[],"default_left":[false,false,false,false,false,false,false,false,false,false,false,true,false,false,false,false,false,false,false,false,false,false,false,false,false,false,false,false,false,false,false,false,false,false,false,false,false,false,false,false,false,false,false,false,false,false,false,false,false,false,false,false,false,false,false,false,false,false,false,false,false,false,false,false,false,false,false,false,false,false,false,false,false,false,false,false,false,false,false,false,false,false,false,false,false,false,false,false,false,false,false,false,false,false,false,false,false,false,false,false,false,false,false,false,false,false,false,false,false,false,false,false,false,false,false,false,false,false,false,false,false,false,false,false,false,false,false,false,false,false,false,false,false,false,false,false,false,false,false,false,false,false,false,false,false,false,false,false,false,false,false,false,false,false,false,false,false,false,false,false,false,false,false,false,false,false,false,false,false,false,false,false,false,false,false,false,false,false,false,false,false,false,false,false,false,false,false,false,false,false,false,false,false,false,false,false,false,false,false,false,false,false,false,false,false,false,false,false,false,false,false,false,false,false,false,false,false,false,false,false,false,false,false],"id":4,"left_children":[1,3,5,7,9,11,13,15,17,19,21,23,25,27,29,31,-1,33,35,37,39,41,43,45,47,49,51,-1,53,55,57,59,61,63,65,67,69,71,73,75,-1,77,79,81,83,85,87,89,91,93,95,-1,97,99,101,103,105,-1,-1,-1,107,-1,-1,109,111,113,115,117,119,121,123,-1,125,127,-1,-1,-1,129,131,-1,133,135,137,-1,139,-1,141,-1,143,-1,-1,145,-1,147,149,-1,151,-1,-1,153,-1,155,-1,157,159,-1,-1,-1,-1,-1,161,163,165,167,169,171,-1,-1,173,175,177,-1,-1,179,181,-1,-1,-1,183,185,187,189,191,193,195,197,199,201,203,-1,-1,205,207,209,211,-1,-1,-1,-1,-1,-1,213,215,-1,-1,-1,217,219,221,-1,-1,-1,-1,-1,-1,-1,-1,-1,-1,-1,-1,-1,-1,-1,-1,-1,-1,-1,-1,-1,-1,-1,-1,-1,-1,-1,-1,-1,-1,-1,-1,-1,-1,-1,-1,-1,-1,-1,-1,-1,-1,-1,-1,-1,-1,-1,-1,-1,-1,-1,-1,-1,-1,-1,-1,-1,-1,-1,-1,-1,-1,-1,-1],"loss_changes":[4.7935453E4,2.7705E4,2.6566102E4,4.9946875E3,1.2960459E3,1.3560359E4,9.607617E2,4.866797E1,8.349172E3,8.531521E2,4.2098193E2,3.8571406E3,6.5989766E3,4.3603467E2,5.9822656E2,1.1651172E2,0E0,6.2059336E3,3.0764523E4,3.9868027E1,1.6690039E2,2.0022656E2,8.6125806E2,3.630957E3,2.36199E2,2.8797266E3,8.491316E3,0E0,1.1784155E2,3.1922656E2,8.938287E1,1.296582E1,2.1985938E2,1.5737988E3,4.129156E2,4.10925E3,3.0852578E3,4.2201986E0,3.6957855E1,1.3100586E0,0E0,2.9569336E1,3.823507E2,3.5481372E2,2.4228052E2,4.2696724E3,6.952082E3,2.0940136E1,8.386731E1,3.4354902E3,9.550125E3,0E0,8.2290186E2,4.1952286E1,8.020581E1,4.4812793E2,7.6264343E0,0E0,0E0,0E0,1.4685217E2,0E0,0E0,2.4534863E2,3.17425E3,2.0745854E2,1.0233911E2,1.9866602E3,6.3259766E2,8.747009E1,3.6194102E3,0E0,1.9672301E0,4.0631256E1,0E0,0E0,0E0,3.4326965E1,3.1960419E1,0E0,1.4446942E2,1.72323E2,2.4841309E1,0E0,3.4538757E1,0E0,5.186343E2,0E0,2.9162578E3,0E0,0E0,6.0923843E0,0E0,4.0816162E2,1.0422534E3,0E0,2.979375E3,0E0,0E0,1.431643E0,0E0,4.9190918E1,0E0,1.7666035E3,4.4705273E2,0E0,0E0,0E0,0E0,0E0,9.028223E1,1.321594E2,5.6412695E2,2.362413E1,6.7883766E1,2.431958E1,0E0,0E0,1.6815234E2,3.370332E2,1.6487695E2,0E0,0E0,8.491012E3,2.0255156E3,0E0,0E0,0E0,5.047653E0,2.6690125E1,3.8233314E0,4.7186627E0,1.143869E1,3.2432556E0,3.978592E1,1.8166486E2,3.623535E1,3.25233E1,1.4510666E1,0E0,0E0,2.4597424E2,3.895107E1,2.714412E3,8.038585E2,0E0,0E0,0E0,0E0,0E0,0E0,3.518879E3,2.90016E2,0E0,0E0,0E0,3.1663635E1,4.178882E1,3.4435547E1,0E0,0E0,0E0,0E0,0E0,0E0,0E0,0E0,0E0,0E0,0E0,0E0,0E0,0E0,0E0,0E0,0E0,0E0,0E0,0E0,0E0,0E0,0E0,0E0,0E0,0E0,0E0,0E0,0E0,0E0,0E0,0E0,0E0,0E0,0E0,0E0,0E0,0E0,0E0,0E0,0E0,0E0,0E0,0E0,0E0,0E0,0E0,0E0,0E0,0E0,0E0,0E0,0E0,0E0,0E0,0E0,0E0,0E0,0E0,0E0,0E0,0E0,0E0,0E0],"parents":[2147483647,0,0,1,1,2,2,3,3,4,4,5,5,6,6,7,7,8,8,9,9,10,10,11,11,12,12,13,13,14,14,15,15,17,17,18,18,19,19,20,20,21,21,22,22,23,23,24,24,25,25,26,26,28,28,29,29,30,30,31,31,32,32,33,33,34,34,35,35,36,36,37,37,38,38,39,39,41,41,42,42,43,43,44,44,45,45,46,46,47,47,48,48,49,49,50,50,52,52,53,53,54,54,55,55,56,56,60,60,63,63,64,64,65,65,66,66,67,67,68,68,69,69,70,70,72,72,73,73,77,77,78,78,80,80,81,81,82,82,84,84,86,86,88,88,91,91,93,93,94,94,96,96,99,99,101,101,103,103,104,104,110,110,111,111,112,112,113,113,114,114,115,115,118,118,119,119,120,120,123,123,124,124,128,128,129,129,130,130,131,131,132,132,133,133,134,134,135,135,136,136,137,137,138,138,141,141,142,142,143,143,144,144,151,151,152,152,156,156,157,157,158,158],"right_children":[2,4,6,8,10,12,14,16,18,20,22,24,26,28,30,32,-1,34,36,38,40,42,44,46,48,50,52,-1,54,56,58,60,62,64,66,68,70,72,74,76,-1,78,80,82,84,86,88,90,92,94,96,-1,98,100,102,104,106,-1,-1,-1,108,-1,-1,110,112,114,116,118,120,122,124,-1,126,128,-1,-1,-1,130,132,-1,134,136,138,-1,140,-1,142,-1,144,-1,-1,146,-1,148,150,-1,152,-1,-1,154,-1,156,-1,158,160,-1,-1,-1,-1,-1,162,164,166,168,170,172,-1,-1,174,176,178,-1,-1,180,182,-1,-1,-1,184,186,188,190,192,194,196,198,200,202,204,-1,-1,206,208,210,212,-1,-1,-1,-1,-1,-1,214,216,-1,-1,-1,218,220,222,-1,-1,-1,-1,-1,-1,-1,-1,-1,-1,-1,-1,-1,-1,-1,-1,-1,-1,-1,-1,-1,-1,-1,-1,-1,-1,-1,-1,-1,-1,-1,-1,-1,-1,-1,-1,-1,-1,-1,-1,-1,-1,-1,-1,-1,-1,-1,-1,-1,-1,-1,-1,-1,-1,-1,-1,-1,-1,-1,-1,-1,-1,-1,-1],"split_conditions":[1E0,3.43E0,2.83E0,1.2E0,2.0662006E9,1E0,1E0,1E0,1.6000275E9,1.6000275E9,5.99E0,3.46E0,3.19E0,3.03E0,5.39E0,9.9E-1,3.5358005E0,2.39E0,2.0662006E9,1.1110381E9,1E0,7.1921004E9,1E0,1.1110874E9,2.31E0,1.1110853E9,2.5E0,2.6373756E0,3.8000317E9,7.7975025E9,6.45E0,1E0,1E0,1.1110354E9,3.19E0,2.64E0,2.8400049E9,4.49E0,3.46E0,4.26E0,2.3957968E0,1E0,7.218063E9,7.218063E9,2.8400023E9,1.23E0,1.47E0,1.76E0,3.7000315E9,1.1110354E9,1.88E0,1.3207084E1,2.54E0,3.03E0,5.39E0,4.49E0,4.99E0,1.1396455E0,2.0737731E-1,2.932359E0,1.18E0,1.0698618E0,2.2814305E0,1.23E0,1.1110853E9,1.63E0,3.34E0,2.39E0,2.89E0,2.88E0,4.1167094E9,-1.3706338E-1,3.03E0,3.78E0,2.7840748E-1,1.175285E0,8.921174E-1,5.29E0,3.27E0,9.604648E-1,3.5E0,3.7000195E9,7.218064E9,2.828728E0,6.87E0,5.277576E0,2.35E0,1.1224065E1,4.1167094E9,-2.322241E-2,-7.089881E-1,2.5E0,1.5038244E0,1E0,1E0,1.38835125E1,4.1167094E9,8.9887345E-1,5.3567343E0,4.35E0,6.7198503E-1,7.04E0,3.1161082E-1,4.35E0,3.8000317E9,1.0068339E0,4.0409395E-1,8.697477E-1,2.4349093E0,1.3242539E0,1E0,1E0,1.9E0,1.18E0,3.14E0,2.88E0,2.7029303E-1,1.6914442E0,2.57E0,2.69E0,2.95E0,6.225923E-1,2.0850225E-1,3.7000315E9,3.3E0,2.1189058E-1,4.485303E-2,1.8380487E-1,3.27E0,3.8000317E9,5.69E0,2.88E0,5.49E0,4.69E0,5.49E0,6.39E0,5.27E0,5.05E0,6.79E0,1.293894E0,5.091441E-1,1.72E0,1.11E0,2.26E0,3.03E0,1.0497145E-1,5.1578516E-1,7.4008293E0,2.7068582E0,1.2350457E0,-2.5529013E0,2.49E0,2.5E0,1.5030919E-1,-1.7912097E-2,1.227541E0,4.77E0,3.29E0,7.218063E9,6.868018E-2,1.9584012E0,1.9176259E0,4.6288875E-1,6.63992E-1,2.1212168E-1,1.2018363E0,1.7866273E0,6.108948E-1,2.6431334E-1,4.5049682E-2,-2.6755393E-1,-2.2302298E-2,5.648015E-1,6.375996E0,4.186919E0,3.0987494E0,4.2449636E0,1.747521E0,2.8434436E0,1.0694039E0,2.3411875E0,7.741327E-1,1.8102515E0,4.727259E-1,1.1391281E0,2.1295963E-1,1.1483564E-1,7.3843845E-3,-1.2334253E-1,9.6198685E-2,-1.01472914E-1,3.423845E-1,3.5006583E-2,6.35765E-1,2.2392894E-1,2.5660166E-1,1.497687E-2,4.9807298E-1,1.311719E-1,9.7480094E-1,6.000391E-1,8.674659E-1,2.695424E-1,7.355745E-2,2.0351774E-1,8.4647024E-1,1.9816166E0,9.169645E-2,-7.86427E-1,2.7718472E0,5.578964E0,7.907546E-1,3.6471257E0,1.0778059E1,4.849202E0,1.0616866E0,3.1624064E0,1.0369267E0,5.460014E-1,1.3065062E0,2.6675245E-1,5.137304E0,2.0069363E0],"split_indices":[0,6,5,6,4,1,1,1,4,4,6,6,6,6,5,5,0,6,4,4,1,4,1,4,5,4,5,0,4,4,6,2,6,4,6,6,4,6,5,5,0,2,4,4,4,6,5,5,4,4,5,0,5,5,5,5,6,0,0,0,6,0,0,6,4,5,5,6,5,5,4,0,5,6,0,0,0,6,5,0,5,4,4,0,6,0,6,0,4,0,0,5,0,6,5,0,4,0,0,6,0,6,0,6,4,0,0,0,0,0,1,5,6,5,6,5,0,0,5,5,5,0,0,4,6,0,0,0,5,4,6,5,6,6,5,5,5,5,6,0,0,6,5,5,6,0,0,0,0,0,0,6,5,0,0,0,5,5,4,0,0,0,0,0,0,0,0,0,0,0,0,0,0,0,0,0,0,0,0,0,0,0,0,0,0,0,0,0,0,0,0,0,0,0,0,0,0,0,0,0,0,0,0,0,0,0,0,0,0,0,0,0,0,0,0,0,0,0,0,0,0,0,0],"split_type":[0,0,0,0,0,0,0,0,0,0,0,0,0,0,0,0,0,0,0,0,0,0,0,0,0,0,0,0,0,0,0,0,0,0,0,0,0,0,0,0,0,0,0,0,0,0,0,0,0,0,0,0,0,0,0,0,0,0,0,0,0,0,0,0,0,0,0,0,0,0,0,0,0,0,0,0,0,0,0,0,0,0,0,0,0,0,0,0,0,0,0,0,0,0,0,0,0,0,0,0,0,0,0,0,0,0,0,0,0,0,0,0,0,0,0,0,0,0,0,0,0,0,0,0,0,0,0,0,0,0,0,0,0,0,0,0,0,0,0,0,0,0,0,0,0,0,0,0,0,0,0,0,0,0,0,0,0,0,0,0,0,0,0,0,0,0,0,0,0,0,0,0,0,0,0,0,0,0,0,0,0,0,0,0,0,0,0,0,0,0,0,0,0,0,0,0,0,0,0,0,0,0,0,0,0,0,0,0,0,0,0,0,0,0,0,0,0,0,0,0,0,0,0],"sum_hessian":[4.094E3,3.696E3,3.98E2,2.28E3,1.416E3,2.14E2,1.84E2,9.5E1,2.185E3,1.39E2,1.277E3,1.21E2,9.3E1,9.7E1,8.7E1,8.9E1,6E0,8.41E2,1.344E3,5.1E1,8.8E1,7.1E2,5.67E2,1.06E2,1.5E1,7.8E1,1.5E1,4E0,9.3E1,7.5E1,1.2E1,4.5E1,4.4E1,5.13E2,3.28E2,1.74E2,1.17E3,1.3E1,3.8E1,8.5E1,3E0,4.32E2,2.78E2,5.48E2,1.9E1,4E1,6.6E1,5E0,1E1,1.3E1,6.5E1,7E0,8E0,2.1E1,7.2E1,6.7E1,8E0,5E0,7E0,3.2E1,1.3E1,8E0,3.6E1,1.4E2,3.73E2,1.54E2,1.74E2,3.7E1,1.37E2,9.4E1,1.076E3,2E0,1.1E1,1E1,2.8E1,6.5E1,2E1,3.6E2,7.2E1,2.6E1,2.52E2,3.43E2,2.05E2,3E0,1.6E1,8E0,3.2E1,3E0,6.3E1,2E0,3E0,7E0,3E0,5E0,8E0,3E0,6.2E1,2E0,6E0,5E0,1.6E1,6.7E1,5E0,1.7E1,5E1,5E0,3E0,4E0,9E0,4.5E1,9.5E1,1.17E2,2.56E2,2.9E1,1.25E2,1.16E2,5.8E1,5E0,3.2E1,7E1,6.7E1,1.8E1,7.6E1,6.41E2,4.35E2,2E0,9E0,4E0,6E0,3.33E2,2.7E1,1.5E1,5.7E1,3.2E1,2.2E2,1.82E2,1.61E2,7E1,1.35E2,1.2E1,4E0,2.7E1,5E0,4.7E1,1.6E1,2E0,5E0,2E0,3E0,6E0,2E0,5.2E1,1E1,3E0,2E0,4.3E1,2.4E1,9E0,8E0,4E0,4.6E1,9.3E1,2E0,2.3E1,9.4E1,1.82E2,7.4E1,1.7E1,1.2E1,1.01E2,2.4E1,2E0,1.14E2,2.1E1,1.1E1,4.3E1,2.7E1,1.1E1,5.6E1,3.9E2,2.51E2,3.71E2,6.4E1,3E0,3E0,1.48E2,1.85E2,1.8E1,9E0,1.1E1,4E0,5.3E1,4E0,3E1,2E0,1.98E2,2.2E1,1.24E2,5.8E1,1E1,1.51E2,2E0,6.8E1,3.5E1,1E2,1.7E1,1E1,2E0,3E0,2.3E1,2.4E1,1.3E1,3E0,3E0,4.9E1,7E0,3E0,1.2E1,1.2E1,7E0,2E0,6E0,2E0],"tree_param":{"num_deleted":"0","num_feature":"12","num_nodes":"223","size_leaf_vector":"0"}},{"base_weights":[5.7643194E0,4.8659735E0,1.4112304E1,6.1617403E0,2.5693479E0,1.952358E1,8.405137E0,5.5329785E0,1.2104663E1,1.8270652E0,6.0318704E0,1.6092514E1,6.2232156E0,7.4766755E0,1.5697863E1,7.0556016E0,3.3292243E0,1.106868E1,5.012388E0,6.4135736E-1,2.0961878E0,1.2653494E0,4.8954824E-1,1.9615477E1,2.867535E-1,5.4333935E0,9.457504E0,3.289794E0,9.743437E0,5.007011E0,1.48919E1,4.26573E0,7.9131377E-1,2.1904707E0,6.9181457E0,8.6481607E-1,2.1967162E-1,5.4175514E-1,1.7924972E0,1.0521585E1,2.6389046E1,-5.92719E-1,2.600152E0,1.1834064E0,7.1204174E-1,9.761397E0,8.901854E-1,3.9791507E-1,3.4446096E0,1.0215373E1,3.3079982E0,1.4210344E1,5.879388E0,2.3548036E0,5.473041E0,1.06074266E-1,2.0073736E0,1.1155525E0,1.8505794E0,1.363182E-1,1.9226825E-1,4.2572E-2,6.74479E-4,1.2883631E0,2.004464E0,5.9311423E0,3.8420157E0,7.6094565E0,1.4837787E1,1.2677686E-1,-7.177217E-1,5.338556E-1,2.617909E-1,1.5636743E0,2.7831523E0,1.6992586E0,2.4445236E0,8.750859E-1,4.4492397E0,2.335984E0,2.8458977E0,2.0965648E0,2.4626026E0,1.3400109E0,3.360266E0,-4.4557813E-1,6.081312E-1,2.8908014E-1,5.3294235E-1,1.2183734E0,5.890418E-1,3.688728E0,1.553349E0,-5.347457E-1,5.7886677E0,7.780491E0,2.1052963E1,3.3143707E-2,-1.29509885E-2,-1.9827887E-2,2.2756127E-1,1.2136009E0,2.779951E-1,3.38347E-1,6.2909675E-1,8.044981E-3,8.197747E-1,-1.2798545E-1,-5.6325473E-2,8.8515975E-2,1.4967094E-1,2.8174803E-1,1.7125313E-1,4.7950315E-1,1.1486533E0,2.4702677E-1,4.5291483E-1,1.3161598E-1,-3.298815E-1,1.2292726E0,6.31395E-1,2.1405369E-2,1.6469327E0,4.2154994E0,2.8312075E0],"categories":[],"categories_nodes":[],"categories_segments":[],"categories_sizes":[],"default_left":[false,false,false,false,false,false,false,false,false,false,false,false,false,false,false,false,false,false,false,false,false,false,false,false,false,false,false,false,false,false,false,false,false,false,false,false,false,false,false,false,false,false,false,false,false,false,false,false,false,false,false,false,false,false,false,false,false,false,false,false,false,false,false,false,false,false,false,false,false,false,false,false,false,false,false,false,false,false,false,false,false,false,false,false,false,false,false,false,false,false,false,false,false,false,false,false,false,false,false,false,false,false,false,false,false,false,false,false,false,false,false,false,false,false,false,false,false,false,false,false,false,false,false,false,false],"id":5,"left_children":[1,3,5,7,9,11,13,15,17,19,21,23,-1,25,27,29,31,33,-1,35,37,-1,-1,39,41,43,45,-1,47,49,51,53,55,-1,57,59,61,-1,63,65,67,69,71,-1,-1,73,-1,-1,-1,75,77,79,-1,81,83,85,87,-1,-1,-1,-1,-1,-1,89,91,-1,93,-1,95,97,-1,-1,-1,-1,-1,-1,-1,99,101,-1,-1,103,-1,-1,105,107,109,-1,-1,111,-1,113,115,117,119,121,123,-1,-1,-1,-1,-1,-1,-1,-1,-1,-1,-1,-1,-1,-1,-1,-1,-1,-1,-1,-1,-1,-1,-1,-1,-1,-1,-1,-1],"loss_changes":[3.0461297E4,1.0926523E4,1.2034711E4,8.714227E3,3.402166E3,1.1251102E4,1.196209E3,7.113633E3,3.7068398E3,3.480708E2,1.01959766E3,9.460504E3,0E0,6.528594E2,2.683379E2,2.010452E4,2.06679E3,1.516709E3,0E0,1.9032814E1,2.897246E2,0E0,0E0,8.284484E3,6.6647415E1,1.3821924E2,6.0486816E1,0E0,7.312664E2,8.797582E3,2.9981836E3,1.454417E3,1.9644405E2,0E0,2.3221436E1,1.3213882E0,4.766047E-1,0E0,7.221924E1,9.79458E3,1.6101621E4,6.3203445E1,3.183365E-1,0E0,0E0,1.4729785E2,0E0,0E0,0E0,8.044336E1,2.0896182E3,7.0359375E1,0E0,7.465437E2,1.9537051E3,4.2369022E1,2.4083984E1,0E0,0E0,0E0,0E0,0E0,0E0,2.7769531E1,3.6733032E2,0E0,4.2057684E2,0E0,2.0293154E3,3.054717E-1,0E0,0E0,0E0,0E0,0E0,0E0,0E0,1.1139682E2,3.8709316E3,0E0,0E0,3.4233643E1,0E0,0E0,1.0120249E3,2.3133698E0,1.4464741E0,0E0,0E0,1.7318176E1,0E0,2.5527661E2,3.9449158E1,3.0943068E1,7.488037E1,3.637787E2,1.5232422E1,0E0,0E0,0E0,0E0,0E0,0E0,0E0,0E0,0E0,0E0,0E0,0E0,0E0,0E0,0E0,0E0,0E0,0E0,0E0,0E0,0E0,0E0,0E0,0E0,0E0,0E0,0E0,0E0],"parents":[2147483647,0,0,1,1,2,2,3,3,4,4,5,5,6,6,7,7,8,8,9,9,10,10,11,11,13,13,14,14,15,15,16,16,17,17,19,19,20,20,23,23,24,24,25,25,26,26,28,28,29,29,30,30,31,31,32,32,34,34,35,35,36,36,38,38,39,39,40,40,41,41,42,42,45,45,49,49,50,50,51,51,53,53,54,54,55,55,56,56,63,63,64,64,66,66,68,68,69,69,77,77,78,78,81,81,84,84,85,85,86,86,89,89,91,91,92,92,93,93,94,94,95,95,96,96],"right_children":[2,4,6,8,10,12,14,16,18,20,22,24,-1,26,28,30,32,34,-1,36,38,-1,-1,40,42,44,46,-1,48,50,52,54,56,-1,58,60,62,-1,64,66,68,70,72,-1,-1,74,-1,-1,-1,76,78,80,-1,82,84,86,88,-1,-1,-1,-1,-1,-1,90,92,-1,94,-1,96,98,-1,-1,-1,-1,-1,-1,-1,100,102,-1,-1,104,-1,-1,106,108,110,-1,-1,112,-1,114,116,118,120,122,124,-1,-1,-1,-1,-1,-1,-1,-1,-1,-1,-1,-1,-1,-1,-1,-1,-1,-1,-1,-1,-1,-1,-1,-1,-1,-1,-1,-1],"split_conditions":[1E0,4.1167094E9,4.1167094E9,3.8000317E9,8.8491205E10,3.8000317E9,8.8491205E10,2.0662006E9,1E0,7.1921004E9,8.849121E10,3.5000689E9,6.2232156E0,1E0,8.849121E10,1.6000275E9,3.5000689E9,3.8000392E9,5.012388E0,4.1167096E9,7.218063E9,1.2653494E0,4.8954824E-1,1.6000275E9,3.700045E9,7.218064E9,3.1254743E10,3.289794E0,1E0,1.1110354E9,1E0,2.8400049E9,3.700045E9,2.1904707E0,1E0,1E0,1E0,5.4175514E-1,7.7975025E9,1.1110354E9,2.0662006E9,1E0,1E0,1.1834064E0,7.1204174E-1,7.7975025E9,8.901854E-1,3.9791507E-1,3.4446096E0,1E0,1.1110853E9,1E0,5.879388E0,1E0,3.0000064E9,3.7000315E9,1E0,1.1155525E0,1.8505794E0,1.363182E-1,1.9226825E-1,4.2572E-2,6.74479E-4,1E0,7.797508E9,5.9311423E0,1.1110853E9,7.6094565E0,3.0000067E9,3.7000315E9,-7.177217E-1,5.338556E-1,2.617909E-1,1.5636743E0,2.7831523E0,1.6992586E0,2.4445236E0,1.1110381E9,1.1110874E9,2.335984E0,2.8458977E0,1E0,2.4626026E0,1.3400109E0,3.0000067E9,3.7000195E9,1E0,2.8908014E-1,5.3294235E-1,7.218064E9,5.890418E-1,1E0,1E0,1E0,1.1110874E9,2.8400049E9,1E0,3.3143707E-2,-1.29509885E-2,-1.9827887E-2,2.2756127E-1,1.2136009E0,2.779951E-1,3.38347E-1,6.2909675E-1,8.044981E-3,8.197747E-1,-1.2798545E-1,-5.6325473E-2,8.8515975E-2,1.4967094E-1,2.8174803E-1,1.7125313E-1,4.7950315E-1,1.1486533E0,2.4702677E-1,4.5291483E-1,1.3161598E-1,-3.298815E-1,1.2292726E0,6.31395E-1,2.1405369E-2,1.6469327E0,4.2154994E0,2.8312075E0],"split_indices":[0,4,4,4,4,4,4,4,1,4,4,4,0,1,4,4,4,4,0,4,4,0,0,4,4,4,4,0,1,4,1,4,4,0,2,2,2,0,4,4,4,1,1,0,0,4,0,0,0,1,4,2,0,1,4,4,2,0,0,0,0,0,0,1,4,0,4,0,4,4,0,0,0,0,0,0,0,4,4,0,0,2,0,0,4,4,2,0,0,4,0,2,1,1,4,4,1,0,0,0,0,0,0,0,0,0,0,0,0,0,0,0,0,0,0,0,0,0,0,0,0,0,0,0,0],"split_type":[0,0,0,0,0,0,0,0,0,0,0,0,0,0,0,0,0,0,0,0,0,0,0,0,0,0,0,0,0,0,0,0,0,0,0,0,0,0,0,0,0,0,0,0,0,0,0,0,0,0,0,0,0,0,0,0,0,0,0,0,0,0,0,0,0,0,0,0,0,0,0,0,0,0,0,0,0,0,0,0,0,0,0,0,0,0,0,0,0,0,0,0,0,0,0,0,0,0,0,0,0,0,0,0,0,0,0,0,0,0,0,0,0,0,0,0,0,0,0,0,0,0,0,0,0],"sum_hessian":[4.07E3,3.676E3,3.94E2,2.349E3,1.327E3,2.01E2,1.93E2,2.126E3,2.23E2,1.094E3,2.33E2,1.69E2,3.2E1,1.73E2,2E1,1.256E3,8.7E2,2.12E2,1.1E1,2.03E2,8.91E2,1.6E2,7.3E1,1.38E2,3.1E1,8.7E1,8.6E1,1.1E1,9E0,9.97E2,2.59E2,6.35E2,2.35E2,1.46E2,6.6E1,1.32E2,7.1E1,1.92E2,6.99E2,6E1,7.8E1,2.3E1,8E0,3.7E1,5E1,7.9E1,7E0,6E0,3E0,2.44E2,7.53E2,2.52E2,7E0,2.47E2,3.88E2,1.51E2,8.4E1,6.3E1,3E0,1.1E2,2.2E1,6.2E1,9E0,2.09E2,4.9E2,1.2E1,4.8E1,2.9E1,4.9E1,2E1,3E0,4E0,4E0,7.5E1,4E0,2.35E2,9E0,2.41E2,5.12E2,2.18E2,3.4E1,2.43E2,4E0,1.8E2,2.08E2,7.2E1,7.9E1,6.8E1,1.6E1,2.04E2,5E0,1.02E2,3.88E2,1.5E1,3.3E1,2.4E1,2.5E1,1.5E1,5E0,7.7E1,1.64E2,2.61E2,2.51E2,2.3E2,1.3E1,6.4E1,1.44E2,1.8E1,5.4E1,6.2E1,1.7E1,6.4E1,1.4E2,8.1E1,2.1E1,3.58E2,3E1,8E0,7E0,1.8E1,1.5E1,5E0,1.9E1,1.1E1,1.4E1],"tree_param":{"num_deleted":"0","num_feature":"12","num_nodes":"125","size_leaf_vector":"0"}},{"base_weights":[4.821455E0,7.438986E0,2.4296405E0,6.1333833E0,1.8823986E1,2.145069E0,5.4543257E0,5.8413453E0,1.2203322E1,1.3374264E1,2.5275602E1,3.7125542E0,1.4687452E0,6.7644463E0,4.26234E0,8.868788E0,5.331968E0,6.4284353E0,1.5998385E1,1.0063315E1,1.9900566E1,3.767144E1,1.8124037E1,1.4200923E0,5.407206E0,2.2362225E0,1.246414E0,4.651373E0,9.380018E0,7.7198496E0,3.6427226E0,1.1516141E1,8.066753E0,7.86195E-1,5.909899E0,1.5067761E1,2.5608647E0,8.22898E0,1.185803E1,1.2315563E1,-6.297343E-1,9.98472E0,1.4590478E1,1.052004E1,5.820475E1,6.8452034E0,2.742664E1,-6.917961E-1,2.2452257E0,1.650504E0,4.5853953E0,2.569698E0,6.447665E-1,6.15928E-1,1.6456141E0,6.869476E0,2.7424574E0,1.1058966E1,4.406235E0,9.927335E0,2.993545E-1,4.3091726E0,2.567532E0,2.2192044E0,8.755586E0,3.7136438E0,8.628062E0,2.718299E0,4.304791E-1,8.240812E0,4.8731065E0,7.211302E-1,3.247239E0,1.630245E0,1.1570883E0,1.374022E1,2.1530655E-1,6.7315283E0,1.8047483E1,-1.1489711E0,9.549734E-1,2.2522503E1,6.729207E0,5.6863437E0,2.0003552E0,1.9647732E1,4.3810055E1,8.559511E0,4.794922E-1,4.5823162E1,1.560831E1,-3.1576732E-1,-1.1951766E0,2.626351E0,1.5305212E0,5.8697957E-1,5.479062E0,7.711127E-1,3.0822606E0,8.666786E-2,2.787052E-1,1.9436309E-1,8.21424E-1,2.7614427E0,1.1462939E0,4.498446E0,1.6650597E0,3.5080414E0,7.3644185E-1,2.069399E0,1.0433248E0,1.4986405E0,4.159709E-1,5.51018E-1,2.7140722E0,4.8077917E0,2.647979E0,1.5612413E0,4.621145E0,5.24205E0,2.641073E0,4.962446E0,1.5031706E-1,1.7871441E0,8.229907E0,2.3111534E0,8.3872E-1,1.3430111E0,3.0924205E-2,5.1519732E0,1.5902582E1,1.3935558E0,5.186912E0,3.4959648E0,4.4767323E-1,8.227163E0,2.127756E1,-2.8941464E-2,4.035755E-1,1.4242926E1,3.758164E0,8.481392E0,1.3991174E1,-5.819613E-1,3.631066E-1,1.1115485E1,6.745875E0,8.998297E0,-9.700859E-1,5.5186987E0,-2.437771E0,5.5447292E1,2.092685E1,2.4955866E0,5.895866E0,3.5387394E0,-8.1244427E-1,9.974369E0,2.73686E0,2.0698597E1,1.006571E1,-2.4567235E-1,-1.1821661E-1,-3.2269594E-1,-9.7864115E-1,2.6436496E-1,2.9987519E0,1.3430845E0,4.9158877E-1,9.292341E-1,-1.1895127E0,9.127469E0,3.9735057E0,1.994902E-1,5.390523E-1,3.8521667E0,2.1964262E0,4.2165455E-1,-1.2560242E-1,1.5523001E0,4.880378E-1,1.3986546E0,2.6071293E0,1.0712742E0,2.1932595E0,1.6133752E0,9.368898E0,2.3283322E0,9.983489E-1,5.0811464E-1,-3.3410755E-1,2.4322782E0,5.5693226E0,6.9875056E-1,1.7636709E-1,6.599611E-1,1.068297E0,5.654237E0,-3.1470824E-3,-3.3666623E-1,1.0905983E0,4.5264465E-1,1.0720313E0,4.921789E-1,-4.4745958E-1,-2.3076765E-1,1.4243774E0,5.903083E-1,3.2026678E-1,9.628347E-2,3.4396124E-1,7.205362E-2,-6.44321E-2,1.4629887E0,7.7962106E-1,4.042845E0,1.979103E0,7.1356833E-1,1.0362437E-1,1.0532099E0,5.736988E-1,3.0736884E-1,8.0441695E-1,-1.3937305E-1,2.1130008E-1,3.552739E0,6.028764E-1,5.238983E0,1.9538771E0,9.197708E-2,2.2369308E-2,1.263792E0,2.7894182E0,3.5336912E-1,1.3225976E0,5.446051E0,1.4748555E0,-1.7288893E-1,3.2651752E-2,1.0244124E0,3.1476643E0,1.0084842E0,2.266221E0,1.2375729E-2,-2.872334E-1,1.3103634E0,3.3144948E-1,-1.9049033E0,8.070459E-1,6.004019E0,1.5409416E1,4.391727E0,9.814386E-1,5.373485E-1,1.3558795E0,9.996436E-1,2.9991977E-3,4.0082593E0,1.0405133E0,4.9152485E-1,2.848896E0,-4.5315944E-2,1.3592961E-2,9.3176596E-2,-1.9298933E-1,4.2772058E-1,5.5868053E-1,2.3263276E-1,7.0356496E-2,1.3552847E-2,2.1007435E-1,-3.7108472E-1,-5.5935923E-2,2.6410146E0,6.508272E-1,1.0676692E-2,1.0138524E0,7.609327E-2,1.082583E-1,7.197029E-1,5.3001934E-1,3.8902646E-1,1.5865281E-1,5.7222407E-2,2.105477E-1,3.3863604E-1,6.796772E-2,1.0198357E-1,4.3635778E-2,8.004001E-1,3.734178E-1,2.7222124E-1,1.6454846E-1,5.299873E-1,2.3076083E-1,-5.3985506E-2,5.021109E-1,2.0640407E0,5.904805E-1,5.1600194E-1,1.2953794E-1,-1.4576598E-1,4.6368983E-2,-6.2807515E-2,5.263092E-1,3.4896255E-1,9.7934955E-1,8.2845174E-2,2.3213032E-1,1.1109055E0,4.963872E-1],"categories":[],"categories_nodes":[],"categories_segments":[],"categories_sizes":[],"default_left":[false,false,false,false,false,false,false,false,false,false,false,false,false,false,false,false,false,false,false,false,false,false,false,false,false,false,false,false,false,false,false,false,false,false,false,false,false,false,false,false,false,false,false,false,false,false,false,false,false,false,false,false,false,false,false,false,false,false,false,false,false,false,false,false,false,false,false,false,false,false,false,false,false,false,false,false,false,false,false,false,false,false,false,false,false,false,false,false,false,false,false,false,false,false,false,false,false,false,false,false,false,false,false,false,false,false,false,false,false,false,false,false,false,false,false,false,false,false,false,false,false,false,false,false,false,false,false,false,false,false,false,false,false,false,false,false,false,false,false,false,false,false,false,false,false,false,false,false,false,false,false,false,false,false,false,false,false,false,false,false,false,false,false,false,false,false,false,false,false,false,false,false,false,false,false,false,false,false,false,false,false,false,false,false,false,false,false,false,false,false,false,false,false,false,false,false,false,false,false,false,false,false,false,false,false,false,false,false,false,false,false,false,false,false,false,false,false,false,false,false,false,false,false,false,false,false,false,false,false,false,false,false,false,false,false,false,false,false,false,false,false,false,false,false,false,false,false,false,false,false,false,false,false,false,false,false,false,false,false,false,false,false,false,false,false,false,false,false,false,false,false,false,false,false,false,false,false,false,false,false,false,false,false,false,false,false,false,false,false,false,false,false,false,false,false,false,false,false,false,false,false,false,false,false,false,false,false,false,false,false,false],"id":6,"left_children":[1,3,5,7,9,11,13,15,17,19,21,23,25,27,29,31,33,35,37,39,41,43,45,47,49,51,53,55,57,59,61,63,65,67,69,71,73,-1,75,77,79,-1,81,83,85,87,89,91,93,-1,95,97,99,101,103,105,107,109,111,113,-1,115,117,-1,119,121,123,125,127,129,131,-1,-1,133,-1,135,137,139,141,-1,143,145,147,-1,149,-1,151,153,155,157,159,161,163,165,167,169,171,173,175,-1,-1,177,179,181,183,185,-1,187,189,-1,-1,-1,-1,-1,-1,191,193,195,197,199,-1,201,203,-1,205,207,-1,209,211,213,215,217,219,221,223,225,227,-1,229,231,233,-1,235,237,-1,239,-1,241,243,245,247,249,251,-1,253,255,-1,-1,-1,257,259,261,-1,-1,263,-1,265,267,-1,269,271,273,275,-1,277,279,281,283,-1,285,287,-1,289,291,293,295,297,299,-1,-1,301,303,305,-1,-1,-1,307,309,-1,-1,-1,-1,-1,-1,-1,-1,-1,-1,-1,-1,-1,-1,-1,-1,-1,-1,-1,-1,-1,-1,-1,-1,-1,-1,-1,-1,-1,-1,-1,-1,-1,-1,-1,-1,-1,-1,-1,-1,-1,-1,-1,-1,-1,-1,-1,-1,-1,-1,-1,-1,-1,-1,-1,-1,-1,-1,-1,-1,-1,-1,-1,-1,-1,-1,-1,-1,-1,-1,-1,-1,-1,-1,-1,-1,-1,-1,-1,-1,-1,-1,-1,-1,-1,-1,-1,-1,-1,-1,-1,-1,-1,-1,-1,-1,-1,-1,-1,-1,-1,-1,-1,-1,-1,-1,-1,-1,-1,-1,-1,-1,-1],"loss_changes":[2.541268E4,2.8706398E4,1.8165098E3,3.0148984E3,6.658703E3,2.054376E3,2.5538672E2,2.5172422E3,1.6285244E3,2.1766426E3,7.295707E3,2.265002E3,2.2910449E2,4.2615625E2,1.8182727E2,4.124414E2,3.741664E3,1.0640491E3,5.732371E3,1.8140098E3,6.566503E3,1.722795E4,6.0026855E3,4.372006E2,1.1432871E3,1.5967957E2,2.6477112E2,1.8863513E2,2.602483E2,1.6667871E2,4.984375E1,1.1072754E2,4.2243848E2,1.10169205E2,3.0169375E3,3.556482E2,8.372743E1,0E0,9.3933594E2,1.8629619E3,1.4242998E2,0E0,1.9061831E3,2.8633132E3,9.80152E3,3.0145386E2,6.2420977E3,1.3061874E1,4.5010864E1,0E0,1.0115869E3,2.2901697E2,6.4129944E0,3.5445236E1,3.5675708E2,1.085155E2,4.0418198E1,7.332471E1,7.346217E1,3.5194263E2,0E0,2.9512512E1,6.511389E1,0E0,4.426505E2,1.0160156E2,3.6538086E1,1.114679E1,5.0274185E1,9.100467E3,9.5146094E2,0E0,0E0,4.476824E1,0E0,1.3624355E3,5.7681656E-1,6.8349866E2,3.1769326E3,0E0,2.3023499E1,2.6906685E3,3.231961E2,0E0,2.0083154E2,0E0,3.1004219E3,2.7210632E2,1.2952292E2,3.638711E3,3.8413574E2,9.467721E-1,2.7092896E0,4.1613647E1,1.2699951E1,3.3329994E1,1.2380801E3,4.689621E0,1.2453076E2,0E0,0E0,2.9158306E1,6.64937E1,1.4640027E2,3.283777E1,1.8160681E2,0E0,4.2117325E1,2.270102E1,0E0,0E0,0E0,0E0,0E0,0E0,5.51969E1,2.8707169E1,2.445438E1,5.2829803E1,1.4828247E2,0E0,3.5741028E1,6.1081993E1,0E0,2.1107617E2,4.8690643E0,0E0,2.1044289E1,1.5784676E1,5.0395703E2,3.4494375E3,1.6011288E2,1.4502363E3,8.13327E0,1.5131215E1,1.2900685E3,1.0459141E3,0E0,1.1575556E-1,1.0715332E1,1.5269662E2,0E0,2.4077217E3,2.2157035E0,0E0,3.027235E2,0E0,1.068855E2,3.8748937E0,3.9667404E1,4.3116934E2,3.8835293E3,3.713545E2,0E0,7.149414E1,4.11198E1,0E0,0E0,0E0,2.7544385E2,5.277217E2,2.7302837E-1,0E0,0E0,6.5990276E0,0E0,3.532959E0,8.2310486E-1,0E0,1.1618267E1,6.974478E0,2.2155762E3,1.2917019E3,0E0,5.4667473E-2,1.5649902E1,8.667938E0,7.2254524E0,0E0,4.2781754E1,4.789261E0,0E0,1.5786841E2,2.145517E1,1.8172989E1,2.681672E1,3.9554474E1,1.4297592E1,0E0,0E0,2.457055E0,2.1597145E1,7.036133E0,0E0,0E0,0E0,3.1328888E0,2.5871582E0,0E0,0E0,0E0,0E0,0E0,0E0,0E0,0E0,0E0,0E0,0E0,0E0,0E0,0E0,0E0,0E0,0E0,0E0,0E0,0E0,0E0,0E0,0E0,0E0,0E0,0E0,0E0,0E0,0E0,0E0,0E0,0E0,0E0,0E0,0E0,0E0,0E0,0E0,0E0,0E0,0E0,0E0,0E0,0E0,0E0,0E0,0E0,0E0,0E0,0E0,0E0,0E0,0E0,0E0,0E0,0E0,0E0,0E0,0E0,0E0,0E0,0E0,0E0,0E0,0E0,0E0,0E0,0E0,0E0,0E0,0E0,0E0,0E0,0E0,0E0,0E0,0E0,0E0,0E0,0E0,0E0,0E0,0E0,0E0,0E0,0E0,0E0,0E0,0E0,0E0,0E0,0E0,0E0,0E0,0E0,0E0,0E0,0E0,0E0,0E0,0E0,0E0,0E0,0E0,0E0,0E0,0E0,0E0,0E0,0E0,0E0,0E0,0E0],"parents":[2147483647,0,0,1,1,2,2,3,3,4,4,5,5,6,6,7,7,8,8,9,9,10,10,11,11,12,12,13,13,14,14,15,15,16,16,17,17,18,18,19,19,20,20,21,21,22,22,23,23,24,24,25,25,26,26,27,27,28,28,29,29,30,30,31,31,32,32,33,33,34,34,35,35,36,36,38,38,39,39,40,40,42,42,43,43,44,44,45,45,46,46,47,47,48,48,50,50,51,51,52,52,53,53,54,54,55,55,56,56,57,57,58,58,59,59,61,61,62,62,64,64,65,65,66,66,67,67,68,68,69,69,70,70,73,73,75,75,76,76,77,77,78,78,80,80,81,81,82,82,84,84,86,86,87,87,88,88,89,89,90,90,91,91,92,92,93,93,94,94,95,95,96,96,97,97,98,98,101,101,102,102,103,103,104,104,105,105,107,107,108,108,115,115,116,116,117,117,118,118,119,119,121,121,122,122,124,124,125,125,127,127,128,128,129,129,130,130,131,131,132,132,133,133,134,134,135,135,136,136,138,138,139,139,140,140,142,142,143,143,145,145,147,147,148,148,149,149,150,150,151,151,152,152,154,154,155,155,159,159,160,160,161,161,164,164,166,166,167,167,169,169,170,170,171,171,172,172,174,174,175,175,176,176,177,177,179,179,180,180,182,182,183,183,184,184,185,185,186,186,187,187,190,190,191,191,192,192,196,196,197,197],"right_children":[2,4,6,8,10,12,14,16,18,20,22,24,26,28,30,32,34,36,38,40,42,44,46,48,50,52,54,56,58,60,62,64,66,68,70,72,74,-1,76,78,80,-1,82,84,86,88,90,92,94,-1,96,98,100,102,104,106,108,110,112,114,-1,116,118,-1,120,122,124,126,128,130,132,-1,-1,134,-1,136,138,140,142,-1,144,146,148,-1,150,-1,152,154,156,158,160,162,164,166,168,170,172,174,176,-1,-1,178,180,182,184,186,-1,188,190,-1,-1,-1,-1,-1,-1,192,194,196,198,200,-1,202,204,-1,206,208,-1,210,212,214,216,218,220,222,224,226,228,-1,230,232,234,-1,236,238,-1,240,-1,242,244,246,248,250,252,-1,254,256,-1,-1,-1,258,260,262,-1,-1,264,-1,266,268,-1,270,272,274,276,-1,278,280,282,284,-1,286,288,-1,290,292,294,296,298,300,-1,-1,302,304,306,-1,-1,-1,308,310,-1,-1,-1,-1,-1,-1,-1,-1,-1,-1,-1,-1,-1,-1,-1,-1,-1,-1,-1,-1,-1,-1,-1,-1,-1,-1,-1,-1,-1,-1,-1,-1,-1,-1,-1,-1,-1,-1,-1,-1,-1,-1,-1,-1,-1,-1,-1,-1,-1,-1,-1,-1,-1,-1,-1,-1,-1,-1,-1,-1,-1,-1,-1,-1,-1,-1,-1,-1,-1,-1,-1,-1,-1,-1,-1,-1,-1,-1,-1,-1,-1,-1,-1,-1,-1,-1,-1,-1,-1,-1,-1,-1,-1,-1,-1,-1,-1,-1,-1,-1,-1,-1,-1,-1,-1,-1,-1,-1,-1,-1,-1,-1,-1],"split_conditions":[2.99E0,1E0,1E0,1E0,1E0,3.46E0,4.77E0,1.1110354E9,1.6000275E9,3.7000315E9,2.0662006E9,1.6000275E9,2.8400023E9,5.99E0,5.69E0,9.9E-1,1.1110853E9,1.2E0,1.88E0,3.5000689E9,1.93E0,1.6000275E9,3.7000315E9,3.19E0,2.0662006E9,6.25E0,7.1921004E9,3.33E0,7.04E0,5.39E0,7.218063E9,1E0,1.11E0,1E0,2.0662006E9,1E0,1.1110853E9,8.22898E0,4.1167094E9,1.6000275E9,2.57E0,9.98472E0,4.1167094E9,1.1110354E9,1.76E0,2.26E0,3.8000392E9,1.1110381E9,3.34E0,1.650504E0,3.700045E9,1.6000275E9,6.79E0,3.700045E9,7.218063E9,1E0,4.15E0,4.59E0,4.15E0,5.49E0,2.993545E-1,5.29E0,7.49E0,2.2192044E0,1.22E0,1.21E0,1.2E0,1.6E0,1.57E0,1.6000275E9,2.8400049E9,7.211302E-1,3.247239E0,9.9E-1,1.1570883E0,3.7000315E9,2.44E0,1.2E0,1.47E0,-1.1489711E0,2.5E0,3.8000392E9,8.849121E10,5.6863437E0,1E0,1.9647732E1,3.3E0,2.62E0,2.62E0,2.49E0,4.1167094E9,3.08E0,3.03E0,3.27E0,3.43E0,3.0000064E9,3.8000392E9,3.79E0,5.05E0,8.666786E-2,2.787052E-1,4.69E0,3.8000317E9,4.49E0,1E0,3.700045E9,1.6650597E0,4.97E0,1E0,2.069399E0,1.0433248E0,1.4986405E0,4.159709E-1,5.51018E-1,2.7140722E0,4.79E0,6.45E0,4.97E0,5.69E0,9.7E-1,2.641073E0,1E0,1E0,1.7871441E0,1.21E0,9.5E-1,8.3872E-1,1.53E0,1.77E0,1.62E0,2.68E0,2.88E0,4.1167094E9,9.8E-1,1.47E0,1.93E0,2.54E0,-2.8941464E-2,2.5E0,9.9E-1,1.65E0,8.481392E0,2.0662006E9,2.26E0,3.631066E-1,2.71E0,6.745875E0,8.8491205E10,2.57E0,9.8E-1,2.83E0,2.68E0,2.69E0,2.4955866E0,2.01E0,2.37E0,-8.1244427E-1,9.974369E0,2.73686E0,2.51E0,2.5E0,1E0,-1.1821661E-1,-3.2269594E-1,3.09E0,2.6436496E-1,3.3E0,3.36E0,4.9158877E-1,2.8400049E9,3.49E0,3.03E0,3.19E0,1.994902E-1,4.29E0,4.26E0,6.14E0,1E0,-1.2560242E-1,5.24E0,4.1167096E9,1.3986546E0,5.69E0,7.218064E9,4.94E0,3.03E0,3.03E0,4.49E0,9.983489E-1,5.0811464E-1,4.87E0,1E0,6.45E0,6.9875056E-1,1.7636709E-1,6.599611E-1,7.218064E9,5.27E0,-3.1470824E-3,-3.3666623E-1,1.0905983E0,4.5264465E-1,1.0720313E0,4.921789E-1,-4.4745958E-1,-2.3076765E-1,1.4243774E0,5.903083E-1,3.2026678E-1,9.628347E-2,3.4396124E-1,7.205362E-2,-6.44321E-2,1.4629887E0,7.7962106E-1,4.042845E0,1.979103E0,7.1356833E-1,1.0362437E-1,1.0532099E0,5.736988E-1,3.0736884E-1,8.0441695E-1,-1.3937305E-1,2.1130008E-1,3.552739E0,6.028764E-1,5.238983E0,1.9538771E0,9.197708E-2,2.2369308E-2,1.263792E0,2.7894182E0,3.5336912E-1,1.3225976E0,5.446051E0,1.4748555E0,-1.7288893E-1,3.2651752E-2,1.0244124E0,3.1476643E0,1.0084842E0,2.266221E0,1.2375729E-2,-2.872334E-1,1.3103634E0,3.3144948E-1,-1.9049033E0,8.070459E-1,6.004019E0,1.5409416E1,4.391727E0,9.814386E-1,5.373485E-1,1.3558795E0,9.996436E-1,2.9991977E-3,4.0082593E0,1.0405133E0,4.9152485E-1,2.848896E0,-4.5315944E-2,1.3592961E-2,9.3176596E-2,-1.9298933E-1,4.2772058E-1,5.5868053E-1,2.3263276E-1,7.0356496E-2,1.3552847E-2,2.1007435E-1,-3.7108472E-1,-5.5935923E-2,2.6410146E0,6.508272E-1,1.0676692E-2,1.0138524E0,7.609327E-2,1.082583E-1,7.197029E-1,5.3001934E-1,3.8902646E-1,1.5865281E-1,5.7222407E-2,2.105477E-1,3.3863604E-1,6.796772E-2,1.0198357E-1,4.3635778E-2,8.004001E-1,3.734178E-1,2.7222124E-1,1.6454846E-1,5.299873E-1,2.3076083E-1,-5.3985506E-2,5.021109E-1,2.0640407E0,5.904805E-1,5.1600194E-1,1.2953794E-1,-1.4576598E-1,4.6368983E-2,-6.2807515E-2,5.263092E-1,3.4896255E-1,9.7934955E-1,8.2845174E-2,2.3213032E-1,1.1109055E0,4.963872E-1],"split_indices":[5,0,0,1,1,5,5,4,4,4,4,4,4,6,6,5,4,6,5,4,5,4,4,5,4,5,4,5,6,5,4,2,5,5,4,5,4,0,4,4,6,0,4,4,5,5,4,4,5,0,4,4,5,4,4,1,5,5,5,6,0,5,6,0,6,6,5,6,6,4,4,0,0,5,0,4,5,6,5,0,5,4,4,0,5,0,6,6,6,5,4,5,6,6,6,4,4,5,5,0,0,6,4,5,1,4,0,6,1,0,0,0,0,0,0,5,6,5,5,5,0,6,5,0,6,5,0,5,6,5,6,6,4,5,5,5,5,0,5,5,5,0,4,5,0,5,0,4,6,5,5,5,5,0,5,5,0,0,0,5,5,2,0,0,6,0,5,5,0,4,6,5,6,0,6,5,6,2,0,5,4,0,6,4,6,5,5,6,0,0,6,1,6,0,0,0,4,5,0,0,0,0,0,0,0,0,0,0,0,0,0,0,0,0,0,0,0,0,0,0,0,0,0,0,0,0,0,0,0,0,0,0,0,0,0,0,0,0,0,0,0,0,0,0,0,0,0,0,0,0,0,0,0,0,0,0,0,0,0,0,0,0,0,0,0,0,0,0,0,0,0,0,0,0,0,0,0,0,0,0,0,0,0,0,0,0,0,0,0,0,0,0,0,0,0,0,0,0,0,0,0,0,0,0,0,0,0,0,0,0,0],"split_type":[0,0,0,0,0,0,0,0,0,0,0,0,0,0,0,0,0,0,0,0,0,0,0,0,0,0,0,0,0,0,0,0,0,0,0,0,0,0,0,0,0,0,0,0,0,0,0,0,0,0,0,0,0,0,0,0,0,0,0,0,0,0,0,0,0,0,0,0,0,0,0,0,0,0,0,0,0,0,0,0,0,0,0,0,0,0,0,0,0,0,0,0,0,0,0,0,0,0,0,0,0,0,0,0,0,0,0,0,0,0,0,0,0,0,0,0,0,0,0,0,0,0,0,0,0,0,0,0,0,0,0,0,0,0,0,0,0,0,0,0,0,0,0,0,0,0,0,0,0,0,0,0,0,0,0,0,0,0,0,0,0,0,0,0,0,0,0,0,0,0,0,0,0,0,0,0,0,0,0,0,0,0,0,0,0,0,0,0,0,0,0,0,0,0,0,0,0,0,0,0,0,0,0,0,0,0,0,0,0,0,0,0,0,0,0,0,0,0,0,0,0,0,0,0,0,0,0,0,0,0,0,0,0,0,0,0,0,0,0,0,0,0,0,0,0,0,0,0,0,0,0,0,0,0,0,0,0,0,0,0,0,0,0,0,0,0,0,0,0,0,0,0,0,0,0,0,0,0,0,0,0,0,0,0,0,0,0,0,0,0,0,0,0,0,0,0,0,0,0,0,0,0,0,0,0,0,0,0,0,0,0],"sum_hessian":[4.061E3,1.938E3,2.123E3,1.74E3,1.98E2,1.942E3,1.81E2,1.662E3,7.8E1,1.09E2,8.9E1,5.84E2,1.358E3,8.4E1,9.7E1,2.37E2,1.425E3,3.2E1,4.6E1,7.4E1,3.5E1,3.1E1,5.8E1,2.49E2,3.35E2,3.03E2,1.055E3,4.8E1,3.6E1,1.3E1,8.4E1,5.2E1,1.85E2,1.61E2,1.264E3,9E0,2.3E1,4E0,4.2E1,6.1E1,1.3E1,3E0,3.2E1,1.4E1,1.7E1,2.7E1,3.1E1,7E1,1.79E2,5.2E1,2.83E2,2.5E2,5.3E1,4.1E2,6.45E2,2.1E1,2.7E1,2.6E1,1E1,9E0,4E0,5E1,3.4E1,3.1E1,2.1E1,2.2E1,1.63E2,2.4E1,1.37E2,3.87E2,8.77E2,3E0,6E0,2E1,3E0,3.6E1,6E0,3.2E1,2.9E1,2E0,1.1E1,1.5E1,1.7E1,3E0,1.1E1,2E0,1.5E1,2.1E1,6E0,1.1E1,2E1,4.1E1,2.9E1,1.15E2,6.4E1,5.2E1,2.31E2,5.6E1,1.94E2,4.8E1,5E0,1.35E2,2.75E2,1.98E2,4.47E2,1.3E1,8E0,1.9E1,8E0,2E1,6E0,2E0,8E0,5E0,4E0,3.7E1,1.3E1,2.4E1,1E1,1.5E1,6E0,1.6E1,6E0,2.4E1,1.39E2,2.2E1,2E0,4.1E1,9.6E1,2.77E2,1.1E2,7.3E1,8.04E2,7E0,1.3E1,2.2E1,1.4E1,2E0,4E0,8E0,2.4E1,2E0,2.7E1,5E0,6E0,1E1,5E0,1.3E1,4E0,6E0,5E0,9E0,6E0,5E0,1.6E1,4E0,2E0,7E0,4E0,9E0,1.1E1,3.6E1,5E0,5E0,2.4E1,3.1E1,8.4E1,5.8E1,6E0,4.4E1,8E0,6.6E1,1.65E2,1.9E1,3.7E1,1.02E2,9.2E1,1.09E2,2.6E1,8.5E1,1.9E2,4E0,1.94E2,4.19E2,2.8E1,9E0,4E0,1.4E1,5E0,2E0,6E0,1E1,2.7E1,6E0,7E0,3E0,2.1E1,8E0,2E0,2E0,1.3E1,7E0,9E0,3E0,3E0,2E0,1.37E2,4E0,1.8E1,2E1,2.1E1,4.9E1,4.7E1,3.7E1,2.4E2,3.7E1,7.3E1,1.5E1,5.8E1,5.15E2,2.89E2,4E0,3E0,5E0,8E0,5E0,1.7E1,6E0,8E0,2E0,2E0,3E0,5E0,1.8E1,6E0,5E0,2.2E1,3E0,2E0,7E0,3E0,9E0,4E0,2E0,2E0,3E0,3E0,2E0,3E0,7E0,2E0,4E0,2E0,8E0,8E0,2E0,2E0,7E0,2E0,6E0,5E0,3.4E1,2E0,2E0,2.2E1,3.5E1,4.9E1,5.6E1,2E0,1.2E1,3.2E1,3E0,5E0,2.9E1,3.7E1,5.6E1,1.09E2,2.2E1,1.5E1,6.4E1,3.8E1,8.5E1,7E0,1E2,9E0,6.1E1,2.4E1,1.27E2,6.3E1,3E1,1.64E2,6.6E1,3.53E2,1.2E1,1.6E1,4E0,5E0,2E0,2E0,9E0,5E0,3E0,3E0,2E0,8E0,2E0,2.5E1,8E0,1.3E1,5E0,3E0],"tree_param":{"num_deleted":"0","num_feature":"12","num_nodes":"311","size_leaf_vector":"0"}},{"base_weights":[3.8741145E0,3.2432933E0,1.0365333E1,4.4737377E0,1.3110285E0,1.5255005E1,4.681606E0,1.0767879E1,4.261113E0,1.213199E0,3.425385E0,5.954615E0,2.0079378E1,1.4939543E1,3.8625233E0,1.1345899E1,3.6971283E0,3.0140445E0,5.0732036E0,2.38974E0,1.091556E0,1.9998744E0,7.1650095E0,1.955412E1,3.2256827E0,4.6771717E1,1.3664859E1,4.3044524E0,6.5841227E0,5.290794E-1,4.8581476E0,1.8299687E0,2.7883527E0,-1.3459481E-1,1.2344905E0,4.2031574E0,8.576778E-1,1.2036749E1,4.0886345E0,1.3141173E0,3.2347593E0,6.294885E-1,1.4983132E0,2.7432344E0,1.3476361E0,1.7550311E0,3.210194E0,4.019144E0,1.6864383E0,5.285256E0,1.0548794E0,1.651247E1,3.7778393E1,3.950319E1,1.1659362E1,-8.841097E-1,1.1379152E1,-1.0608228E0,1.9335374E0,9.292604E0,4.0360274E0,5.506537E0,3.5849962E0,-4.1791433E-1,1.6966033E0,1.973556E1,9.930623E0,1.0543214E1,3.8958373E0,2.6568143E0,9.0609175E-1,9.3174285E-1,3.0550668E0,1.2128905E0,3.9014122E-1,2.5095534E0,1.0529261E0,1.9851787E-1,3.1625881E0,8.8398E-1,2.1767282E0,6.6884476E-1,3.1347468E-1,2.3628683E0,1.3353997E0,-3.4997184E0,3.6362317E0,1.0489842E1,2.9033327E1,9.643649E0,2.1085489E0,3.1746817E-1,1.2537982E1,9.9431103E-1,2.543164E0,-7.7598706E-2,-1.0116831E0,5.2049786E-1,2.6543665E0,3.8303137E0,1.2420397E1,2.6601956E0,4.9777036E0,9.876955E0,4.918468E0,1.2255304E0,4.6959624E0,2.1908326E0,-6.184431E-1,2.1316032E0,8.7339765E-1,2.3984236E1,1.2754952E1,1.0766268E1,4.1329284E0,8.630512E0,1.9528244E1,2.2967758E0,4.617094E0,4.5505753E-3,3.4431512E0,1.2122506E0,7.023987E-1,1.50142545E-2,3.1436303E0,1.4644382E0,7.0189434E-1,-4.2629665E-1,5.339312E-1,4.1735034E0,1.8742372E0,3.5921576E0,8.2991076E-1,2.1609788E-1,5.68139E-1,1.4463463E0,5.798244E-1,4.8046872E-1,1.1189544E-1,3.044884E0,-2.3462644E-1,1.2733943E0,-1.6119624E0,3.4067464E-1,1.0451798E0,1.8034798E1,7.4358563E0,-1.4030365E0,4.5498686E0,8.687327E0,1.4830447E1,9.2481065E-1,-8.040393E-1,1.24331765E-1,-1.2704492E-2,4.877829E0,6.549736E-1,-6.526317E-2,9.00836E-1,2.9260486E-1,2.4831474E0,2.1857305E0,7.246214E-1,5.3321457E0,1.5323355E0,1.3059288E0,2.0755718E0,8.717813E-1,-5.724329E-2,4.549707E-1,1.3423605E-1,6.4076775E-1,1.0953821E0,1.0456118E-1,4.340415E-1,-4.0245697E-2,-1.8297765E-1,-1.5821315E-1,3.7694857E-1,1.5109205E-1,7.0180595E-2,1.8427202E0,4.9033833E0,1.6006286E0,2.7531402E0,2.0202997E0,1.2861073E0,1.2705004E0,1.21225744E-1,1.8672221E0,5.2039856E-1,3.3077273E-1,5.2022295E0,1.1871574E0,3.043126E-1,1.4629549E0,6.9925797E-1,2.3306511E-1,6.4427024E-1,1.1519624E-1,2.9393023E-1,1.3127421E-1,8.254752E-2,5.756697E-1,3.695236E-1,1.810344E-1,6.2185407E-1,1.3057235E-1,-6.520022E-2,-2.1874711E-1,-4.0743757E-2,5.603226E-1,8.51746E-2,5.580958E-1,1.0150895E0,7.7618144E-2,3.213901E-1,4.869583E-1,7.02235E-1,1.8917528E-1,1.0903689E-1,9.428282E-2,2.981062E-1,-2.657847E-2,1.3511783E-1,3.460935E-1,9.740551E-1,3.8860044E-1,-9.765618E-3,5.868483E0,-7.147325E-1,-1.0155314E-1,1.2363814E0,2.201364E0,-1.5563786E-1,3.185718E0,1.379558E0,2.0608896E-1,-1.648231E-2,2.4046616E-1,1.0634968E0,2.1281667E-1,7.89949E-3,1.3966583E-1,5.957233E-1,8.248122E-1,1.1506693E0,-1.9855967E-1,6.544295E-1],"categories":[],"categories_nodes":[],"categories_segments":[],"categories_sizes":[],"default_left":[false,false,true,false,false,false,false,false,false,false,false,false,false,false,false,false,false,false,false,false,false,false,false,false,false,false,false,false,false,false,false,false,false,false,false,false,false,false,false,false,false,false,false,false,false,false,false,false,false,false,false,false,false,false,false,false,false,false,false,false,false,false,false,false,false,false,false,false,false,false,false,false,false,false,false,false,false,false,false,false,false,false,false,false,false,false,false,false,false,false,false,false,false,false,false,false,false,false,false,false,false,false,false,false,false,false,false,false,false,false,false,false,false,false,false,false,false,false,false,false,false,false,false,false,false,false,false,false,false,false,false,false,false,false,false,false,false,false,false,false,false,false,false,false,false,false,false,false,false,false,false,false,false,false,false,false,false,false,false,false,false,false,false,false,false,false,false,false,false,false,false,false,false,false,false,false,false,false,false,false,false,false,false,false,false,false,false,false,false,false,false,false,false,false,false,false,false,false,false,false,false,false,false,false,false,false,false,false,false,false,false,false,false,false,false,false,false,false,false,false,false,false,false,false,false,false,false,false,false,false,false,false,false,false,false,false,false,false,false,false,false,false,false,false,false,false,false,false,false],"id":7,"left_children":[1,3,5,7,9,11,13,15,17,19,21,23,25,27,29,31,33,35,37,39,41,43,45,47,49,51,53,-1,55,57,59,-1,-1,-1,-1,61,63,65,67,69,71,73,75,77,79,-1,81,-1,-1,83,85,-1,87,89,91,-1,93,95,97,99,101,103,105,107,109,111,113,115,117,119,121,-1,123,125,127,129,131,-1,133,135,137,-1,-1,139,-1,141,143,-1,145,-1,-1,147,149,-1,-1,151,-1,153,155,157,159,161,163,165,167,169,171,173,175,177,179,181,183,185,187,189,191,193,195,-1,197,199,201,-1,203,205,207,209,211,213,215,217,219,-1,-1,221,223,-1,-1,225,-1,227,-1,-1,-1,229,-1,-1,231,233,235,237,-1,-1,-1,239,241,-1,-1,-1,-1,243,-1,245,247,-1,-1,-1,-1,-1,-1,-1,-1,-1,-1,-1,-1,-1,-1,-1,-1,-1,-1,-1,-1,-1,-1,-1,-1,-1,-1,-1,-1,-1,-1,-1,-1,-1,-1,-1,-1,-1,-1,-1,-1,-1,-1,-1,-1,-1,-1,-1,-1,-1,-1,-1,-1,-1,-1,-1,-1,-1,-1,-1,-1,-1,-1,-1,-1,-1,-1,-1,-1,-1,-1,-1,-1,-1,-1,-1,-1,-1,-1,-1,-1,-1,-1,-1,-1],"loss_changes":[1.6538027E4,8.767273E3,9.877961E3,2.9706133E3,2.9308252E2,8.495195E3,1.3454456E3,2.5640723E2,2.1944922E3,1.9417871E2,3.21516E2,2.4234373E3,2.0934406E4,8.7411597E2,5.151714E2,2.0388672E1,1.1775572E2,2.209269E3,9.000824E3,1.1209119E2,2.3361755E2,1.9090973E1,1.792243E2,1.9867285E2,2.4926758E2,7.200289E3,4.876742E3,0E0,5.1124548E2,8.467032E1,3.999734E2,0E0,0E0,0E0,0E0,4.2822754E2,3.303081E2,2.447004E3,1.3999707E3,2.9368248E1,1.1911499E1,8.135332E1,2.959685E2,1.0181244E1,8.454983E0,0E0,1.6497498E0,0E0,0E0,1.9924768E2,3.536794E2,0E0,2.8117656E3,2.5638164E3,9.626455E2,0E0,3.1312988E1,8.608609E1,1.8989609E1,2.5995435E2,1.2020386E2,4.063296E2,9.90334E2,6.5699745E1,6.4743835E1,7.024658E2,5.853301E2,3.985891E2,1.2880488E3,2.6793175E1,2.017189E0,0E0,1.758899E1,2.0823898E1,4.9181576E1,2.05719E2,2.5864362E2,0E0,1.1811218E0,2.4112635E0,7.0170174E0,0E0,0E0,4.2494423E1,0E0,3.2617657E2,6.558046E1,0E0,2.12275E3,0E0,0E0,3.2774527E2,6.656367E2,0E0,0E0,7.898607E1,0E0,1.0587645E0,5.459764E1,5.1550377E1,2.321731E2,2.4133362E1,6.5100464E1,8.5979E0,1.7580933E2,7.567183E1,3.935298E2,3.56847E0,1.984496E1,3.383368E1,1.0057831E-1,9.648037E2,1.9834229E1,3.1442285E2,2.0030835E2,3.4643628E2,9.1392395E2,8.2337964E2,1.5219375E3,0E0,1.9879608E0,3.5249424E0,7.908726E-2,0E0,8.17395E0,9.513551E1,4.460808E0,9.808388E0,3.0612465E1,6.844855E1,2.5552368E0,2.6701355E0,2.2004303E1,0E0,0E0,6.712265E-1,2.3399887E0,0E0,0E0,2.3553741E1,0E0,9.563546E0,0E0,0E0,0E0,4.54466E3,0E0,0E0,8.843904E1,1.4851946E3,1.2917314E3,4.2298203E0,0E0,0E0,0E0,1.9786499E1,2.847514E0,0E0,0E0,0E0,0E0,6.187375E1,0E0,4.4176025E0,4.8297745E1,0E0,0E0,0E0,0E0,0E0,0E0,0E0,0E0,0E0,0E0,0E0,0E0,0E0,0E0,0E0,0E0,0E0,0E0,0E0,0E0,0E0,0E0,0E0,0E0,0E0,0E0,0E0,0E0,0E0,0E0,0E0,0E0,0E0,0E0,0E0,0E0,0E0,0E0,0E0,0E0,0E0,0E0,0E0,0E0,0E0,0E0,0E0,0E0,0E0,0E0,0E0,0E0,0E0,0E0,0E0,0E0,0E0,0E0,0E0,0E0,0E0,0E0,0E0,0E0,0E0,0E0,0E0,0E0,0E0,0E0,0E0,0E0,0E0,0E0,0E0,0E0,0E0,0E0,0E0,0E0,0E0,0E0,0E0,0E0],"parents":[2147483647,0,0,1,1,2,2,3,3,4,4,5,5,6,6,7,7,8,8,9,9,10,10,11,11,12,12,13,13,14,14,15,15,16,16,17,17,18,18,19,19,20,20,21,21,22,22,23,23,24,24,25,25,26,26,28,28,29,29,30,30,35,35,36,36,37,37,38,38,39,39,40,40,41,41,42,42,43,43,44,44,46,46,49,49,50,50,52,52,53,53,54,54,56,56,57,57,58,58,59,59,60,60,61,61,62,62,63,63,64,64,65,65,66,66,67,67,68,68,69,69,70,70,72,72,73,73,74,74,75,75,76,76,78,78,79,79,80,80,83,83,85,85,86,86,88,88,91,91,92,92,95,95,97,97,98,98,99,99,100,100,101,101,102,102,103,103,104,104,105,105,106,106,107,107,108,108,109,109,110,110,111,111,112,112,113,113,114,114,115,115,116,116,117,117,118,118,120,120,121,121,122,122,124,124,125,125,126,126,127,127,128,128,129,129,130,130,131,131,132,132,135,135,136,136,139,139,141,141,145,145,148,148,149,149,150,150,151,151,155,155,156,156,161,161,163,163,164,164],"right_children":[2,4,6,8,10,12,14,16,18,20,22,24,26,28,30,32,34,36,38,40,42,44,46,48,50,52,54,-1,56,58,60,-1,-1,-1,-1,62,64,66,68,70,72,74,76,78,80,-1,82,-1,-1,84,86,-1,88,90,92,-1,94,96,98,100,102,104,106,108,110,112,114,116,118,120,122,-1,124,126,128,130,132,-1,134,136,138,-1,-1,140,-1,142,144,-1,146,-1,-1,148,150,-1,-1,152,-1,154,156,158,160,162,164,166,168,170,172,174,176,178,180,182,184,186,188,190,192,194,196,-1,198,200,202,-1,204,206,208,210,212,214,216,218,220,-1,-1,222,224,-1,-1,226,-1,228,-1,-1,-1,230,-1,-1,232,234,236,238,-1,-1,-1,240,242,-1,-1,-1,-1,244,-1,246,248,-1,-1,-1,-1,-1,-1,-1,-1,-1,-1,-1,-1,-1,-1,-1,-1,-1,-1,-1,-1,-1,-1,-1,-1,-1,-1,-1,-1,-1,-1,-1,-1,-1,-1,-1,-1,-1,-1,-1,-1,-1,-1,-1,-1,-1,-1,-1,-1,-1,-1,-1,-1,-1,-1,-1,-1,-1,-1,-1,-1,-1,-1,-1,-1,-1,-1,-1,-1,-1,-1,-1,-1,-1,-1,-1,-1,-1,-1,-1,-1,-1,-1,-1,-1],"split_conditions":[1E0,3.43E0,3.46E0,1.18E0,1E0,1.6000275E9,2.0662006E9,1E0,1.6000275E9,2.0662006E9,5.79E0,1.2E0,2.0662006E9,2.69E0,4.97E0,1E0,1.17E0,2.62E0,2.0662006E9,1.6000275E9,7.1921004E9,4.29E0,4.59E0,9.9E-1,2.44E0,1.79E0,1.93E0,4.3044524E0,3.23E0,3.03E0,4.49E0,1.8299687E0,2.7883527E0,-1.3459481E-1,1.2344905E0,1.1110354E9,3.19E0,2.64E0,2E0,3.46E0,3.99E0,2.8400023E9,7.218063E9,3.59E0,5.23E0,1.7550311E0,7.218064E9,4.019144E0,1.6864383E0,1.72E0,2.83E0,1.651247E1,2.62E0,1E0,2.57E0,-8.841097E-1,1E0,3.700045E9,3.700045E9,1E0,1E0,9.9E-1,1.1110853E9,1.11E0,3.34E0,2.57E0,3.23E0,2.8E0,2.73E0,3.2E0,3.79E0,9.3174285E-1,4.15E0,6.45E0,3.7000315E9,6.04E0,3.79E0,1.9851787E-1,2.0662006E9,4.83E0,5.24E0,6.6884476E-1,3.1347468E-1,1.63E0,1.3353997E0,1.11E0,1E0,1.0489842E1,3.17E0,9.643649E0,2.1085489E0,3.7000315E9,3.5000689E9,9.9431103E-1,2.543164E0,1E0,-1.0116831E0,3.59E0,4.83E0,7.218063E9,5.19E0,5.29E0,7.218064E9,1.22E0,1E0,9.9E-1,1.9E0,1E0,1.1110381E9,2.95E0,3.36E0,2.44E0,2.62E0,3.08E0,1E0,1.99E0,3.0000064E9,3.0000064E9,2.89E0,4.5505753E-3,1E0,3.59E0,4.59E0,1.50142545E-2,4.26E0,6.04E0,6.99E0,2.51E0,4.15E0,5.49E0,6.25E0,3.23E0,5.19E0,2.1609788E-1,5.68139E-1,3.700045E9,4.99E0,4.8046872E-1,1.1189544E-1,1E0,-2.3462644E-1,9.8E-1,-1.6119624E0,3.4067464E-1,1.0451798E0,3.14E0,7.4358563E0,-1.4030365E0,1.99E0,2.86E0,4.1167094E9,3.7000315E9,-8.040393E-1,1.24331765E-1,-1.2704492E-2,3.79E0,4.15E0,-6.526317E-2,9.00836E-1,2.9260486E-1,2.4831474E0,6.79E0,7.246214E-1,5.39E0,6.59E0,1.3059288E0,2.0755718E0,8.717813E-1,-5.724329E-2,4.549707E-1,1.3423605E-1,6.4076775E-1,1.0953821E0,1.0456118E-1,4.340415E-1,-4.0245697E-2,-1.8297765E-1,-1.5821315E-1,3.7694857E-1,1.5109205E-1,7.0180595E-2,1.8427202E0,4.9033833E0,1.6006286E0,2.7531402E0,2.0202997E0,1.2861073E0,1.2705004E0,1.21225744E-1,1.8672221E0,5.2039856E-1,3.3077273E-1,5.2022295E0,1.1871574E0,3.043126E-1,1.4629549E0,6.9925797E-1,2.3306511E-1,6.4427024E-1,1.1519624E-1,2.9393023E-1,1.3127421E-1,8.254752E-2,5.756697E-1,3.695236E-1,1.810344E-1,6.2185407E-1,1.3057235E-1,-6.520022E-2,-2.1874711E-1,-4.0743757E-2,5.603226E-1,8.51746E-2,5.580958E-1,1.0150895E0,7.7618144E-2,3.213901E-1,4.869583E-1,7.02235E-1,1.8917528E-1,1.0903689E-1,9.428282E-2,2.981062E-1,-2.657847E-2,1.3511783E-1,3.460935E-1,9.740551E-1,3.8860044E-1,-9.765618E-3,5.868483E0,-7.147325E-1,-1.0155314E-1,1.2363814E0,2.201364E0,-1.5563786E-1,3.185718E0,1.379558E0,2.0608896E-1,-1.648231E-2,2.4046616E-1,1.0634968E0,2.1281667E-1,7.89949E-3,1.3966583E-1,5.957233E-1,8.248122E-1,1.1506693E0,-1.9855967E-1,6.544295E-1],"split_indices":[0,6,6,6,1,4,4,2,4,4,6,6,4,5,6,1,6,6,4,4,4,5,5,5,6,5,5,0,5,5,5,0,0,0,0,4,6,6,5,5,5,4,4,5,6,0,4,0,0,6,5,0,6,1,6,0,1,4,4,1,1,5,4,5,5,5,6,6,6,5,5,0,5,6,4,5,5,0,4,6,6,0,0,5,0,5,1,0,6,0,0,4,4,0,0,1,0,5,6,4,6,5,4,6,1,5,6,1,4,5,5,6,5,5,2,5,4,4,6,0,2,5,5,0,5,5,5,5,6,5,5,5,5,0,0,4,6,0,0,1,0,5,0,0,0,6,0,0,5,6,4,4,0,0,0,5,5,0,0,0,0,6,0,5,6,0,0,0,0,0,0,0,0,0,0,0,0,0,0,0,0,0,0,0,0,0,0,0,0,0,0,0,0,0,0,0,0,0,0,0,0,0,0,0,0,0,0,0,0,0,0,0,0,0,0,0,0,0,0,0,0,0,0,0,0,0,0,0,0,0,0,0,0,0,0,0,0,0,0,0,0,0,0,0,0,0,0,0,0],"split_type":[0,0,0,0,0,0,0,0,0,0,0,0,0,0,0,0,0,0,0,0,0,0,0,0,0,0,0,0,0,0,0,0,0,0,0,0,0,0,0,0,0,0,0,0,0,0,0,0,0,0,0,0,0,0,0,0,0,0,0,0,0,0,0,0,0,0,0,0,0,0,0,0,0,0,0,0,0,0,0,0,0,0,0,0,0,0,0,0,0,0,0,0,0,0,0,0,0,0,0,0,0,0,0,0,0,0,0,0,0,0,0,0,0,0,0,0,0,0,0,0,0,0,0,0,0,0,0,0,0,0,0,0,0,0,0,0,0,0,0,0,0,0,0,0,0,0,0,0,0,0,0,0,0,0,0,0,0,0,0,0,0,0,0,0,0,0,0,0,0,0,0,0,0,0,0,0,0,0,0,0,0,0,0,0,0,0,0,0,0,0,0,0,0,0,0,0,0,0,0,0,0,0,0,0,0,0,0,0,0,0,0,0,0,0,0,0,0,0,0,0,0,0,0,0,0,0,0,0,0,0,0,0,0,0,0,0,0,0,0,0,0,0,0,0,0,0,0,0,0],"sum_hessian":[4.046E3,3.689E3,3.57E2,2.253E3,1.436E3,1.91E2,1.66E2,7.2E1,2.181E3,1.374E3,6.2E1,6.6E1,1.25E2,1.1E1,1.55E2,6.6E1,6E0,8.62E2,1.319E3,1.27E2,1.247E3,4.6E1,1.6E1,1E1,5.6E1,2.3E1,1.02E2,4E0,7E0,3.6E1,1.19E2,6.2E1,4E0,3E0,3E0,5.55E2,3.07E2,1.62E2,1.157E3,5.7E1,7E1,5.85E2,6.62E2,2E1,2.6E1,8E0,8E0,6E0,4E0,2.8E1,2.8E1,2E0,2.1E1,6E0,9.6E1,2E0,5E0,1.7E1,1.9E1,1.7E1,1.02E2,1.76E2,3.79E2,1.22E2,1.85E2,3.3E1,1.29E2,3.2E1,1.125E3,1.2E1,4.5E1,3E0,6.7E1,1.69E2,4.16E2,2.01E2,4.61E2,5E0,1.5E1,1.8E1,8E0,4E0,4E0,1.4E1,1.4E1,1E1,1.8E1,4E0,1.7E1,3E0,3E0,7E0,8.9E1,3E0,2E0,1.5E1,2E0,7E0,1.2E1,7E0,1E1,4.3E1,5.9E1,1.9E1,1.57E2,1.22E2,2.57E2,8E0,1.14E2,1.2E2,6.5E1,1.9E1,1.4E1,1.12E2,1.7E1,2.8E1,4E0,3.51E2,7.74E2,3E0,9E0,1.6E1,2.9E1,2E0,6.5E1,1.12E2,5.7E1,6.2E1,3.54E2,5.4E1,1.47E2,3.6E1,4.25E2,2E0,1.3E1,5E0,1.3E1,5E0,3E0,1.2E1,2E0,6E0,4E0,1.2E1,6E0,1.1E1,6E0,2E0,5E0,3.5E1,5.4E1,1.3E1,2E0,5E0,2E0,5E0,7E0,2E0,5E0,2E0,8E0,3.5E1,8E0,5.3E1,6E0,1.2E1,7E0,1.51E2,6E0,2.7E1,9.5E1,1.7E2,8.7E1,2E0,6E0,6.3E1,5.1E1,3E0,1.17E2,6.2E1,3E0,6E0,1.3E1,9E0,5E0,8.1E1,3.1E1,8E0,9E0,1.9E1,9E0,2E0,2E0,3.3E1,3.18E2,8.5E1,6.89E2,2E0,7E0,9E0,7E0,2E1,9E0,5E1,1.5E1,9.6E1,1.6E1,5.4E1,3E0,1E1,5.2E1,3E0,3.51E2,3.8E1,1.6E1,2E0,1.45E2,1.8E1,1.8E1,1.68E2,2.57E2,2E0,3E0,3E0,1E1,1E1,2E0,3E0,3E0,6E0,5E0,2E0,3E0,2.4E1,1.1E1,3.3E1,2.1E1,1E1,3E0,2E0,3E0,3E0,4E0,1.8E1,1.7E1,4.3E1,1E1,3E0,3E0],"tree_param":{"num_deleted":"0","num_feature":"12","num_nodes":"249","size_leaf_vector":"0"}},{"base_weights":[3.2312474E0,2.6850798E0,9.603347E0,3.9161642E0,1.4087024E0,1.666035E1,4.439877E0,4.398013E0,1.6402594E0,1.202188E0,4.923901E0,1.2758467E1,3.316223E1,1.0973091E1,3.3504803E0,3.7399113E0,8.432106E0,1.3804832E0,9.9400246E-1,1.1090225E0,2.6299229E0,5.8107753E0,2.631272E0,5.8738413E0,1.616747E1,1.7044409E1,1.5607125E1,4.6510043E0,1.6059807E1,1.1061788E0,4.040458E0,4.247314E0,1.3662685E0,7.256982E0,7.9172907E0,3.2638664E0,7.964548E-1,1.6444632E0,8.6825514E-1,-5.816078E-1,2.841439E0,1.5758202E0,9.3942916E-1,6.481036E-1,3.8123468E-1,1.7989397E1,3.0400057E0,1.9654238E1,3.5255203E0,5.0000963E0,2.055349E1,5.1436105E0,2.2005576E-1,6.022262E0,9.880174E0,4.6029803E-1,3.8033378E-1,1.0915469E1,3.6533597E0,3.1045516E0,6.6460977E0,7.8822017E0,7.8845006E-1,9.961193E0,5.966112E0,-6.442866E-2,3.423128E0,-2.500014E-1,1.9076562E0,1.1522323E0,2.0465877E0,4.3062374E-1,1.185869E0,3.3663564E0,5.2096105E-1,8.0381143E-1,4.548034E0,6.092785E0,1.5805361E0,1.38054495E1,2.6096813E1,2.048946E0,1.5850652E0,1.391542E0,-3.9394826E-2,2.9063276E1,4.3632293E0,1.0133876E0,5.049678E-1,4.7703137E0,2.413147E0,-7.4543494E-1,1.4056957E0,-3.8642323E-1,3.0732622E0,-6.9535124E-1,3.8235998E0,7.177119E0,2.5391836E0,1.1658901E1,3.419374E0,2.382772E0,-1.7329099E0,-2.306223E-2,1.0262444E1,8.393683E0,4.35498E0,1.365713E0,3.027971E0,3.4064465E0,-4.9577752E-1,4.2609053E0,-4.0495507E-2,1.6104414E0,6.879881E-1,3.195557E0,1.237507E0,-1.8897256E-1,6.057646E-1,3.3683975E0,1.0020151E0,1.3492532E0,4.3687134E0,-4.4981444E-1,1.0782874E0,6.440572E-2,8.487489E0,3.025654E0,2.3616427E-1,6.330682E0,1.0097143E1,4.846534E0,1.744834E0,3.424906E0,6.0467714E-1,5.9595857E0,1.7257511E1,-1.9850276E-1,