{"learner":{"attributes":{"best_iteration":"4","best_ntree_limit":"5","scikit_learn":"{\"objective\": \"reg:squarederror\", \"learning_rate\": 0.12, \"verbosity\": null, \"booster\": null, \"tree_method\": \"hist\", \"gamma\": null, \"min_child_weight\": 2.0, \"max_delta_step\": null, \"subsample\": 0.6000000000000001, \"colsample_bytree\": 0.30000000000000004, \"colsample_bylevel\": null, \"colsample_bynode\": null, \"reg_alpha\": null, \"reg_lambda\": null, \"scale_pos_weight\": null, \"base_score\": null, \"missing\": NaN, \"num_parallel_tree\": null, \"random_state\": 2020, \"n_jobs\": null, \"monotone_constraints\": null, \"interaction_constraints\": null, \"importance_type\": null, \"gpu_id\": null, \"validate_parameters\": null, \"predictor\": null, \"enable_categorical\": false, \"_estimator_type\": \"regressor\"}"},"feature_names":["FEATURE","DISPLAY","TPR_ONLY","STORE_NUM","UPC","PRICE","BASE_PRICE","STORE_ID","MSA_CODE","PARKING_SPACE_QTY","SALES_AREA_SIZE_NUM","AVG_WEEKLY_BASKETS"],"feature_types":["int","int","int","int","int","float","float","int","int","float","int","float"],"gradient_booster":{"model":{"gbtree_model_param":{"num_trees":"5","size_leaf_vector":"0"},"tree_info":[0,0,0,0,0],"trees":[{"base_weights":[1.4795748E1,1.5051824E0,3.9071622E0],"categories":[],"categories_nodes":[],"categories_segments":[],"categories_sizes":[],"default_left":[false,false,false],"id":0,"left_children":[1,-1,-1],"loss_changes":[1.5768831E5,0E0,0E0],"parents":[2147483647,0,0],"right_children":[2,-1,-1],"split_conditions":[1E0,1.5051824E0,3.9071622E0],"split_indices":[1,0,0],"split_type":[0,0,0],"sum_hessian":[3.95E3,3.507E3,4.43E2],"tree_param":{"num_deleted":"0","num_feature":"12","num_nodes":"3","size_leaf_vector":"0"}},{"base_weights":[1.3424936E1,1.3830552E0,3.433423E0],"categories":[],"categories_nodes":[],"categories_segments":[],"categories_sizes":[],"default_left":[false,false,false],"id":1,"left_children":[1,-1,-1],"loss_changes":[1.1453975E5,0E0,0E0],"parents":[2147483647,0,0],"right_children":[2,-1,-1],"split_conditions":[1E0,1.3830552E0,3.433423E0],"split_indices":[1,0,0],"split_type":[0,0,0],"sum_hessian":[3.981E3,3.54E3,4.41E2],"tree_param":{"num_deleted":"0","num_feature":"12","num_nodes":"3","size_leaf_vector":"0"}},{"base_weights":[1.1706044E1,1.6781843E1,2.5094762E0,2.0482637E1,1.2218051E1,1.5972526E0,4.829817E0,1.4550174E1,3.8742985E1,1.1003733E1,2.0363941E1,5.7037206E0,6.103823E-1,1.2345481E1,1.5692676E0,2.020693E1,1.3055402E1,8.774147E1,3.375325E1,1.217372E1,3.5374985E0,2.7043216E0,1.6694027E1,1.8724781E0,1.3169643E1,-1.617307E-1,2.469133E0,1.8201187E1,6.6628585E0,3.836187E0,-7.406314E-1,3.206101E1,1.8437477E1,1.0898793E1,2.0659678E1,4.4264235E0,1.2524578E2,4.473666E1,2.9561258E1,1.00451565E1,1.4357612E1,5.087594E0,2.7740421E0,1.6025349E0,2.849333E0,4.670426E0,9.4890213E-1,1.6260222E0,4.8941E-2,3.2144076E-1,-1.3961767E0,6.496683E0,5.249824E-1,2.3662292E1,1.8356789E0,1.0204083E0,5.4963026E0,1.1258901E0,3.4409497E0,2.399306E0,-1.1583956E0,1.6343136E1,4.172084E0,1.2711464E1,2.457871E0,6.0834203E0,1.3255845E1,3.198029E1,1.6162197E1,1.433487E2,4.950847E1,3.6642406E1,5.817653E1,1.893838E1,3.68381E1,1.1287921E1,8.934939E0,1.8931353E1,9.780965E0,3.0451639E0,2.4981604E0,2.8615875E0,-1.07246816E-1,-9.722959E-2,7.447592E0,-6.637276E-1,1.4268036E0,7.989707E-1,-1.3575196E-1,-1.4967091E0,-1.2196542E0,7.2858214E0,4.085054E0,1.4422992E0,-5.659374E-1,1.990153E0,3.7585237E0,8.2417053E-1,4.064476E0,4.169629E-1,1.7505862E-1,1.1505862E0,3.6602924E0,-2.0553146E-1,-9.263562E-1,7.28941E-1,2.3950586E0,1.7083566E0,1.119741E0,1.3536828E1,3.3976707E0,1.5482959E1,9.760248E0,2.4993874E1,9.904988E0,1.4405097E1,3.8339183E0,2.6144348E1,1.032185E2,1.248941E0,8.652753E0,6.458172E0,2.862706E1,7.669873E0,4.150586E-1,2.3537624E1,2.9174666E0,3.18533E1,5.1295467E1,1.325886E0,1.9923124E0,4.03961E-1,1.0360139E1,1.507072E1,2.1418207E1,8.13797E0,1.8557513E0,9.028427E-1,1.3577787E0,4.091917E-1,2.9928327E-1,1.251025E0,2.38588E-1,-1.1733358E-1,2.863843E-2,2.9580371E0,4.795273E-1,-1.5080236E-1,1.41893E-1,7.036652E-1,-5.1842767E-1,-1.7452261E-1,-2.8915292E-1,-1.1474907E-1,-1.5955527E-1,1.0098021E0,7.848234E0,1.1049883E0,2.0365744E0,8.684784E-1,4.1231275E-1,-3.5826144E-1,-3.3759564E-2,2.5061852E-1,7.709295E-1,-8.970779E-2,4.8894098E-1,5.4117626E-1,8.8941E-2,-8.0453277E-1,-2.5076494E-1,9.686226E-1,2.6833217E0,3.297695E-1,9.9345875E-1,1.7827163E0,4.9340353E0,1.1140479E0,2.2542353E0,5.887815E-1,3.8777645E0,1.5000776E0,2.1999545E0,5.9050584E0,1.4078524E1,1.2269446E0,4.4167113E0,2.1838882E0,6.0592E0,1.2551696E0,-4.317526E-2,2.3077176E0,4.860108E0,6.933547E0,2.163741E0,2.2124565E0,1.0653307E0,2.406421E0,3.6847034E-1,4.17816E0,2.485304E0,1.367016E0,8.143865E-1,-3.2808005E-3,4.6543938E-1,2.5058797E-1,8.267292E-1,7.9924874E-2,-9.136157E-2,1.7521401E-1,-5.4923333E-2,3.1705555E-2,1.6529661E-1,-1.18887015E-1,6.1882094E-2,4.8941E-2,1.4505862E-1,1.3728218E0,7.859493E-1,2.8595924E-1,1.4415148E-1,-9.494137E-2,1.1425245E-1,5.5058625E-2,-6.1270792E-2,1.0729202E-2,-1.020417E-1],"categories":[],"categories_nodes":[],"categories_segments":[],"categories_sizes":[],"default_left":[false,false,false,false,false,false,false,false,false,false,false,false,false,false,false,false,false,false,false,false,false,false,false,false,false,false,false,false,true,false,false,false,false,false,false,false,false,false,false,false,false,false,false,false,false,false,false,false,false,false,false,false,false,false,false,false,false,false,false,false,false,false,false,false,false,false,false,false,false,false,false,false,false,false,false,false,false,false,false,false,false,false,false,false,false,false,false,false,false,false,false,false,false,false,false,false,false,false,false,false,false,false,false,false,false,false,false,false,false,false,false,false,false,false,false,false,false,false,false,false,false,false,false,false,false,false,false,false,false,false,false,false,false,false,false,false,false,false,false,false,false,false,false,false,false,false,false,false,false,false,false,false,false,false,false,false,false,false,false,false,false,false,false,false,false,false,false,false,false,false,false,false,false,false,false,false,false,false,false,false,false,false,false,false,false,false,false,false,false,false,false,false,false,false,false,false,false,false,false,false,false,false,false,false,false,false,false,false,false,false,false,false,false,false,false,false,false,false,false,false,false,false,false,false,false,false,false],"id":2,"left_children":[1,3,5,7,9,11,13,15,17,19,21,23,25,27,29,31,33,35,37,39,41,-1,43,45,47,49,51,53,55,57,59,61,63,65,67,-1,69,71,73,75,77,79,81,-1,-1,83,85,-1,-1,87,89,91,93,95,-1,-1,97,-1,99,101,103,105,-1,107,-1,109,111,113,115,117,119,121,123,125,127,129,131,133,135,137,-1,139,-1,-1,141,143,145,147,149,151,153,155,157,159,161,-1,-1,-1,163,-1,-1,165,167,-1,169,-1,-1,-1,-1,171,173,175,177,179,-1,181,-1,-1,183,-1,-1,-1,185,-1,-1,187,189,191,193,-1,-1,-1,195,197,199,201,-1,-1,203,-1,-1,-1,-1,-1,-1,205,207,209,-1,211,213,-1,-1,-1,-1,215,217,-1,219,221,-1,-1,-1,-1,-1,223,-1,-1,-1,225,-1,-1,-1,-1,-1,-1,-1,-1,-1,-1,-1,-1,-1,-1,-1,-1,-1,-1,-1,-1,-1,-1,-1,-1,-1,-1,-1,-1,-1,-1,-1,-1,-1,-1,-1,-1,-1,-1,-1,-1,-1,-1,-1,-1,-1,-1,-1,-1,-1,-1,-1,-1,-1,-1,-1,-1,-1],"loss_changes":[1.8933838E5,4.3899312E4,3.0487559E3,1.556465E5,1.1378891E4,4.203067E3,9.954241E3,8.95275E3,8.334325E4,8.89325E3,8.274531E2,5.724696E3,1.203068E3,3.9716465E3,1.4952021E3,4.1492812E3,1.3960344E4,5.6412656E4,1.35031875E4,3.9651016E3,1.5156702E2,0E0,1.095627E3,3.4183997E2,3.2470898E2,3.541431E2,1.9228098E3,5.8952734E2,9.0677246E1,2.833745E2,1.8904837E2,6.228613E2,2.0696172E3,7.5920234E3,9.156836E3,0E0,1.7582188E4,7.332625E3,1.7545375E4,5.2140625E2,8.899492E3,1.3823776E3,3.338269E1,0E0,0E0,5.0831866E2,7.9556175E1,0E0,0E0,9.333247E1,1.1381531E0,1.22485596E2,1.6793634E2,5.1046875E2,0E0,0E0,5.4579468E1,0E0,4.0266113E0,2.2557037E1,1.4621384E1,1.0152881E2,0E0,1.5065137E2,0E0,4.438036E3,3.3755312E3,1.66588E4,3.3678281E3,1.9379375E4,3.6674707E3,6.3064844E3,9.513836E3,7.152371E3,8.383391E3,8.188672E1,1.8936602E3,1.7509922E3,1.919209E3,2.996214E2,0E0,1.0441162E1,0E0,0E0,3.369016E2,7.034827E0,1.1317113E2,7.6298294E1,7.071297E1,4.393921E-1,6.4045715E-1,2.0032788E2,2.1213089E2,1.0111928E2,5.218456E1,0E0,0E0,0E0,9.3836426E1,0E0,0E0,3.663075E1,1.6495995E1,0E0,1.1215599E1,0E0,0E0,0E0,0E0,2.6647178E3,5.035946E2,3.8090312E3,5.954043E2,6.9001445E3,0E0,7.133574E2,0E0,0E0,2.6051719E3,0E0,0E0,0E0,5.79466E3,0E0,0E0,1.00178125E4,5.722778E2,1.079132E4,6.291578E3,0E0,0E0,0E0,2.1471484E3,5.2003086E3,5.0157422E2,6.790205E2,0E0,0E0,1.0834943E2,0E0,0E0,0E0,0E0,0E0,0E0,8.8199036E1,1.2079065E1,3.0825367E1,0E0,2.006736E1,7.4260574E1,0E0,0E0,0E0,0E0,2.2580433E-1,1.7696558E2,0E0,2.056656E0,1.0746113E1,0E0,0E0,0E0,0E0,0E0,2.0812008E0,0E0,0E0,0E0,3.5163116E0,0E0,0E0,0E0,0E0,0E0,0E0,0E0,0E0,0E0,0E0,0E0,0E0,0E0,0E0,0E0,0E0,0E0,0E0,0E0,0E0,0E0,0E0,0E0,0E0,0E0,0E0,0E0,0E0,0E0,0E0,0E0,0E0,0E0,0E0,0E0,0E0,0E0,0E0,0E0,0E0,0E0,0E0,0E0,0E0,0E0,0E0,0E0,0E0,0E0,0E0,0E0,0E0,0E0,0E0,0E0,0E0,0E0],"parents":[2147483647,0,0,1,1,2,2,3,3,4,4,5,5,6,6,7,7,8,8,9,9,10,10,11,11,12,12,13,13,14,14,15,15,16,16,17,17,18,18,19,19,20,20,22,22,23,23,24,24,25,25,26,26,27,27,28,28,29,29,30,30,31,31,32,32,33,33,34,34,36,36,37,37,38,38,39,39,40,40,41,41,42,42,45,45,46,46,49,49,50,50,51,51,52,52,53,53,56,56,58,58,59,59,60,60,61,61,63,63,65,65,66,66,67,67,68,68,69,69,70,70,71,71,72,72,73,73,74,74,75,75,76,76,77,77,78,78,79,79,81,81,84,84,85,85,86,86,87,87,88,88,89,89,90,90,91,91,92,92,93,93,94,94,98,98,101,101,102,102,104,104,109,109,110,110,111,111,112,112,113,113,115,115,118,118,122,122,125,125,126,126,127,127,128,128,132,132,133,133,134,134,135,135,138,138,145,145,146,146,147,147,149,149,150,150,155,155,156,156,158,158,159,159,165,165,169,169],"right_children":[2,4,6,8,10,12,14,16,18,20,22,24,26,28,30,32,34,36,38,40,42,-1,44,46,48,50,52,54,56,58,60,62,64,66,68,-1,70,72,74,76,78,80,82,-1,-1,84,86,-1,-1,88,90,92,94,96,-1,-1,98,-1,100,102,104,106,-1,108,-1,110,112,114,116,118,120,122,124,126,128,130,132,134,136,138,-1,140,-1,-1,142,144,146,148,150,152,154,156,158,160,162,-1,-1,-1,164,-1,-1,166,168,-1,170,-1,-1,-1,-1,172,174,176,178,180,-1,182,-1,-1,184,-1,-1,-1,186,-1,-1,188,190,192,194,-1,-1,-1,196,198,200,202,-1,-1,204,-1,-1,-1,-1,-1,-1,206,208,210,-1,212,214,-1,-1,-1,-1,216,218,-1,220,222,-1,-1,-1,-1,-1,224,-1,-1,-1,226,-1,-1,-1,-1,-1,-1,-1,-1,-1,-1,-1,-1,-1,-1,-1,-1,-1,-1,-1,-1,-1,-1,-1,-1,-1,-1,-1,-1,-1,-1,-1,-1,-1,-1,-1,-1,-1,-1,-1,-1,-1,-1,-1,-1,-1,-1,-1,-1,-1,-1,-1,-1,-1,-1,-1,-1,-1],"split_conditions":[3.46E0,2.84E0,6.59E0,2.74E0,3.36E0,4.46E0,5.29E0,1.25E0,1.99E0,3.33E0,3.38E0,4.39E0,5.64E0,6.79E0,6.79E0,9.9E-1,2.59E0,2.99E0,2.49E0,3.02E0,3.33E0,2.7043216E0,3.39E0,3.59E0,4.44E0,4.99E0,5.89E0,4.69E0,6.99E0,5.8E0,5.89E0,1.16E0,1.22E0,1.6E0,2.51E0,4.4264235E0,3.22E0,3.19E0,2.51E0,2.92E0,3.22E0,3.23E0,3.36E0,1.6025349E0,2.849333E0,3.49E0,3.69E0,1.6260222E0,4.8941E-2,4.69E0,5.16E0,5.99E0,6.49E0,4.5E0,1.8356789E0,1.0204083E0,4.97E0,1.1258901E0,6.63E0,5.62E0,6.99E0,9.8E-1,4.172084E0,1.21E0,2.457871E0,1.5E0,2.39E0,2.37E0,2.7E0,1.79E0,1.79E0,2.92E0,3.39E0,3.39E0,3.3E0,2.9E0,2.93E0,3.19E0,3.31E0,3.36E0,2.4981604E0,3.34E0,-1.07246816E-1,-9.722959E-2,3.5E0,3.66E0,4.25E0,4.59E0,4.2E0,5.19E0,5.29E0,4.87E0,4.59E0,6.16E0,6.49E0,1.990153E0,3.7585237E0,8.2417053E-1,7.49E0,4.169629E-1,1.7505862E-1,7.49E0,5.8E0,-2.0553146E-1,7.99E0,7.28941E-1,2.3950586E0,1.7083566E0,1.119741E0,1.38E0,1.61E0,2.5E0,2.51E0,1.22E0,9.904988E0,2.62E0,3.8339183E0,2.6144348E1,1.94E0,1.248941E0,8.652753E0,6.458172E0,2E0,7.669873E0,4.150586E-1,3.02E0,2.5E0,2.7E0,2.76E0,1.325886E0,1.9923124E0,4.03961E-1,2.98E0,3.16E0,3.13E0,3.27E0,1.8557513E0,9.028427E-1,3E0,4.091917E-1,2.9928327E-1,1.251025E0,2.38588E-1,-1.1733358E-1,2.863843E-2,4.14E0,4.39E0,4.49E0,1.41893E-1,5.16E0,4.87E0,-1.7452261E-1,-2.8915292E-1,-1.1474907E-1,-1.5955527E-1,4.5E0,5.62E0,1.1049883E0,5.09E0,5.99E0,4.1231275E-1,-3.5826144E-1,-3.3759564E-2,2.5061852E-1,7.709295E-1,5.48E0,4.8894098E-1,5.4117626E-1,8.8941E-2,7.29E0,-2.5076494E-1,9.686226E-1,2.6833217E0,3.297695E-1,9.9345875E-1,1.7827163E0,4.9340353E0,1.1140479E0,2.2542353E0,5.887815E-1,3.8777645E0,1.5000776E0,2.1999545E0,5.9050584E0,1.4078524E1,1.2269446E0,4.4167113E0,2.1838882E0,6.0592E0,1.2551696E0,-4.317526E-2,2.3077176E0,4.860108E0,6.933547E0,2.163741E0,2.2124565E0,1.0653307E0,2.406421E0,3.6847034E-1,4.17816E0,2.485304E0,1.367016E0,8.143865E-1,-3.2808005E-3,4.6543938E-1,2.5058797E-1,8.267292E-1,7.9924874E-2,-9.136157E-2,1.7521401E-1,-5.4923333E-2,3.1705555E-2,1.6529661E-1,-1.18887015E-1,6.1882094E-2,4.8941E-2,1.4505862E-1,1.3728218E0,7.859493E-1,2.8595924E-1,1.4415148E-1,-9.494137E-2,1.1425245E-1,5.5058625E-2,-6.1270792E-2,1.0729202E-2,-1.020417E-1],"split_indices":[5,5,6,6,5,6,5,6,5,6,6,5,6,6,6,5,6,6,5,6,5,0,5,6,5,5,5,5,6,5,5,6,6,5,5,0,6,6,5,6,6,5,6,0,0,6,6,0,0,6,6,6,6,5,0,0,5,0,6,5,6,5,0,6,0,6,5,5,5,5,5,6,6,6,6,6,6,6,6,6,0,5,0,0,5,5,6,5,5,5,5,5,5,6,5,0,0,0,6,0,0,6,5,0,6,0,0,0,0,5,6,6,5,5,0,5,0,0,5,0,0,0,5,0,0,6,5,5,5,0,0,0,5,6,5,5,0,0,5,0,0,0,0,0,0,6,6,6,0,6,5,0,0,0,0,5,5,0,5,5,0,0,0,0,0,5,0,0,0,6,0,0,0,0,0,0,0,0,0,0,0,0,0,0,0,0,0,0,0,0,0,0,0,0,0,0,0,0,0,0,0,0,0,0,0,0,0,0,0,0,0,0,0,0,0,0,0,0,0,0,0,0,0,0,0,0,0],"split_type":[0,0,0,0,0,0,0,0,0,0,0,0,0,0,0,0,0,0,0,0,0,0,0,0,0,0,0,0,0,0,0,0,0,0,0,0,0,0,0,0,0,0,0,0,0,0,0,0,0,0,0,0,0,0,0,0,0,0,0,0,0,0,0,0,0,0,0,0,0,0,0,0,0,0,0,0,0,0,0,0,0,0,0,0,0,0,0,0,0,0,0,0,0,0,0,0,0,0,0,0,0,0,0,0,0,0,0,0,0,0,0,0,0,0,0,0,0,0,0,0,0,0,0,0,0,0,0,0,0,0,0,0,0,0,0,0,0,0,0,0,0,0,0,0,0,0,0,0,0,0,0,0,0,0,0,0,0,0,0,0,0,0,0,0,0,0,0,0,0,0,0,0,0,0,0,0,0,0,0,0,0,0,0,0,0,0,0,0,0,0,0,0,0,0,0,0,0,0,0,0,0,0,0,0,0,0,0,0,0,0,0,0,0,0,0,0,0,0,0,0,0,0,0,0,0,0,0],"sum_hessian":[4.056E3,2.613E3,1.443E3,1.441E3,1.172E3,1.037E3,4.06E2,1.089E3,3.52E2,1.022E3,1.5E2,2E2,8.37E2,1.22E2,2.84E2,2.25E2,8.64E2,3.1E1,3.21E2,8.83E2,1.39E2,9.1E1,5.9E1,1.33E2,6.7E1,5.92E2,2.45E2,5.9E1,6.3E1,1.43E2,1.41E2,2.7E1,1.98E2,6.75E2,1.89E2,1.4E1,1.7E1,8.6E1,2.35E2,4.5E2,4.33E2,4.4E1,9.5E1,4.2E1,1.7E1,3.2E1,1.01E2,6.5E1,2E0,4.26E2,1.66E2,7.9E1,1.66E2,1.8E1,4.1E1,2.2E1,4.1E1,8E0,1.35E2,1.6E1,1.25E2,5E0,2.2E1,5.4E1,1.44E2,2.23E2,4.52E2,5.2E1,1.37E2,1.3E1,4E0,5.6E1,3E1,9.7E1,1.38E2,2.08E2,2.42E2,2.15E2,2.18E2,4E1,4E0,9.3E1,2E0,1.1E1,2.1E1,2.3E1,7.8E1,2.08E2,2.18E2,1.01E2,6.5E1,5.8E1,2.1E1,9E1,7.6E1,1.1E1,7E0,1.9E1,2.2E1,1.32E2,3E0,9E0,7E0,3.5E1,9E1,2E0,3E0,3.5E1,1.9E1,5.8E1,1.65E2,2.74E2,1.78E2,4.7E1,5E0,1.25E2,1.2E1,3E0,1E1,2E0,2E0,1.6E1,4E1,2.7E1,3E0,7.5E1,2.2E1,1.05E2,3.3E1,2.02E2,6E0,5E1,1.92E2,8.7E1,1.28E2,1.71E2,4.7E1,1E1,3E1,3.4E1,5.9E1,1.3E1,8E0,1.7E1,6E0,2.9E1,4.9E1,6E1,1.48E2,6.8E1,1.5E2,9.9E1,2E0,2.2E1,4.3E1,5E0,5.3E1,5E0,1.6E1,7.1E1,1.9E1,7E0,6.9E1,1.3E1,9E0,7E0,2E0,5E0,2E0,8.3E1,7E0,3.7E1,2.1E1,1.47E2,1.8E1,2.69E2,5E0,1.71E2,7E0,1.3E1,3.4E1,8.7E1,3.8E1,3E0,7E0,1.3E1,2.7E1,6.4E1,1.1E1,6E0,1.6E1,4.4E1,6.1E1,2.7E1,6E0,2.8E1,1.64E2,6.1E1,2.6E1,4E0,1.24E2,4.8E1,1.23E2,2E1,1E1,2.5E1,4E0,4.3E1,6E0,9E0,5.1E1,4.2E1,2.6E1,1.03E2,4.7E1,2E0,3E0,1.2E1,4.1E1,1E1,6E0,3E0,6.8E1,3E0,4E0,4E0,7.9E1],"tree_param":{"num_deleted":"0","num_feature":"12","num_nodes":"227","size_leaf_vector":"0"}},{"base_weights":[1.0363083E1,1.5020477E1,2.4752004E0,1.2985806E1,3.23516E1,1.7759327E0,7.387307E0,1.8315367E1,1.2418575E1,2.1437372E1,5.593655E1,4.4083033E0,1.2015467E0,3.127845E1,5.3524065E0,1.7491014E0,2.3496654E0,5.661411E0,1.3097505E1,1.4631667E1,2.4205938E1,1.0910057E1,3.357704E1,1.092988E0,1.6160089E0,5.1335633E-2,2.4194493E0,-3.226137E0,6.096735E0,-1.9916629E0,9.042224E0,1.044125E1,3.4886591E0,1.2560387E1,1.8926178E1,3.7968802E0,7.2784443E0,2.8405432E1,2.3711352E0,2.2051285E1,6.2193894E0,2.277755E0,4.4758573E-1,9.8030233E-1,-5.29074E-1,5.1648884E0,2.1223865E0,-5.0379276E-1,-2.0286006E-1,1.3141173E0,-3.7182292E-1,1.1763422E1,3.6470742E0,8.431074E-1,2.028261E0,1.6540308E0,4.7221675E0,1.3238362E1,3.1435742E0,2.0279495E1,2.0484586E0,1.2596638E0,1.2377415E1,2.3787872E1,1.07295685E1,2.9717676E1,4.8202726E-1,-9.935272E-2,4.393709E-1,7.0100206E-1,-1.0639173E-1,-4.1020113E-1,1.4713852E-1,-8.523147E-3,-8.300156E-1,5.107938E-1,7.4078685E-1,5.461775E-1,2.919008E0,3.2857803E-1,8.759157E-2,6.484922E0,1.8756878E0,6.595502E-1,9.3071216E-1,1.0928558E-1,2.2377863E0,7.5958323E-1,5.108455E-1,1.2940966E1,2.4967496E0,2.3774676E-1,4.393537E-1,1.9041584E0,2.5959098E0,-2.536284E-1,1.7808425E0,2.7443209E0,-1.7407669E-1,3.4164114E0,1.9507706E1,1.5872607E1,6.443172E0,4.669232E-2,8.5824263E-1,1.2928937E-1,-7.214931E-2,-1.05582975E-1,3.9136612E-1,-1.4379829E-1,-3.6768383E-1,1.1760842E0,-2.4605773E-2,5.988336E-1,1.1651335E0,1.2980496E0,5.1215878E0,-8.949039E-3,2.1991044E-1,2.1862586E-1,3.210192E-1,1.6339104E0,9.521285E-1,2.6960167E-1,1.1711274E-1,3.812576E-2,3.2988353E0,7.8339183E-1,2.008945E0,3.3792332E-1,6.627685E-2,2.1213653E-2,1.2959166E-1,-5.6766473E-2,-2.0714316E-3,1.2449709E-1,2.3193946E-1,1.7740603E-1,-2.2602767E-1,-4.5099583E-2,7.312801E-1],"categories":[],"categories_nodes":[],"categories_segments":[],"categories_sizes":[],"default_left":[false,false,false,false,false,false,false,false,false,false,false,false,false,false,true,false,false,false,false,false,false,false,false,false,false,false,false,false,false,false,false,false,false,false,false,false,false,false,false,false,false,false,false,false,false,false,false,false,false,false,false,false,false,false,false,false,false,false,false,false,false,false,false,false,false,false,false,false,false,false,false,false,false,false,false,false,false,false,false,false,false,false,false,false,false,false,false,false,false,false,false,false,false,false,false,false,false,false,false,false,false,false,false,false,false,false,false,false,false,false,false,false,false,false,false,false,false,false,false,false,false,false,false,false,false,false,false,false,false,false,false,false,false,false,false,false,false,false,false,false,false],"id":3,"left_children":[1,3,5,7,9,11,13,15,17,19,21,23,25,27,29,-1,-1,31,33,35,37,-1,39,41,-1,43,45,47,-1,49,51,53,55,57,59,-1,61,63,-1,65,-1,67,69,71,73,75,77,-1,-1,79,-1,81,83,-1,-1,85,87,89,91,93,-1,95,97,99,-1,101,-1,-1,-1,103,-1,105,-1,107,109,-1,-1,111,113,-1,-1,115,-1,-1,117,-1,119,-1,-1,121,-1,-1,-1,-1,-1,-1,123,-1,-1,-1,125,127,-1,-1,129,-1,-1,-1,131,-1,133,135,-1,-1,137,-1,139,-1,-1,-1,-1,-1,-1,-1,-1,-1,-1,-1,-1,-1,-1,-1,-1,-1,-1,-1,-1,-1,-1,-1,-1],"loss_changes":[1.4382484E5,8.639775E4,4.984629E3,6.4384688E3,6.521303E4,1.922499E3,8.6321E3,7.081406E2,9.0828125E3,2.999711E3,6.0301344E4,6.8324805E3,1.4679615E3,9.597028E3,4.5705195E3,0E0,0E0,1.8744883E3,5.4381875E3,6.523539E3,1.7728438E3,0E0,9.58543E3,1.2744191E2,0E0,2.916765E2,4.041621E2,1.8599014E0,0E0,2.1263713E2,1.6014004E3,1.1390293E3,2.8185706E2,1.0575594E4,3.3027344E1,0E0,1.1813022E3,1.5338855E4,0E0,4.443164E3,0E0,2.5656937E2,3.781293E1,7.160947E1,5.2159187E1,1.8599365E1,5.7725684E2,0E0,0E0,1.0479879E1,0E0,1.4092422E3,1.9078296E2,0E0,0E0,2.0959534E1,2.9884277E1,3.2215312E3,6.074475E1,1.4620703E2,0E0,3.7167023E1,3.0799167E3,6.270117E2,0E0,6.7824043E3,0E0,0E0,0E0,4.2270737E0,0E0,9.742125E0,0E0,4.3202164E1,3.5488144E1,0E0,0E0,7.406067E1,1.1058076E3,0E0,0E0,1.395033E2,0E0,0E0,1.5549606E1,0E0,4.0144348E-1,0E0,0E0,4.9438594E3,0E0,0E0,0E0,0E0,0E0,0E0,4.1816025E0,0E0,0E0,0E0,5.199586E3,2.0573242E1,0E0,0E0,3.4981014E1,0E0,0E0,0E0,1.2368356E1,0E0,3.4996128E0,6.910492E0,0E0,0E0,1.6227048E2,0E0,1.466258E2,0E0,0E0,0E0,0E0,0E0,0E0,0E0,0E0,0E0,0E0,0E0,0E0,0E0,0E0,0E0,0E0,0E0,0E0,0E0,0E0,0E0,0E0,0E0,0E0],"parents":[2147483647,0,0,1,1,2,2,3,3,4,4,5,5,6,6,7,7,8,8,9,9,10,10,11,11,12,12,13,13,14,14,17,17,18,18,19,19,20,20,22,22,23,23,25,25,26,26,27,27,29,29,30,30,31,31,32,32,33,33,34,34,36,36,37,37,39,39,41,41,42,42,43,43,44,44,45,45,46,46,49,49,51,51,52,52,55,55,56,56,57,57,58,58,59,59,61,61,62,62,63,63,65,65,69,69,71,71,73,73,74,74,77,77,78,78,81,81,84,84,86,86,89,89,96,96,100,100,101,101,104,104,108,108,110,110,111,111,114,114,116,116],"right_children":[2,4,6,8,10,12,14,16,18,20,22,24,26,28,30,-1,-1,32,34,36,38,-1,40,42,-1,44,46,48,-1,50,52,54,56,58,60,-1,62,64,-1,66,-1,68,70,72,74,76,78,-1,-1,80,-1,82,84,-1,-1,86,88,90,92,94,-1,96,98,100,-1,102,-1,-1,-1,104,-1,106,-1,108,110,-1,-1,112,114,-1,-1,116,-1,-1,118,-1,120,-1,-1,122,-1,-1,-1,-1,-1,-1,124,-1,-1,-1,126,128,-1,-1,130,-1,-1,-1,132,-1,134,136,-1,-1,138,-1,140,-1,-1,-1,-1,-1,-1,-1,-1,-1,-1,-1,-1,-1,-1,-1,-1,-1,-1,-1,-1,-1,-1,-1,-1],"split_conditions":[3.46E0,1E0,1E0,1.25E0,3.02E0,4.46E0,4.46E0,1.22E0,1.61E0,2.59E0,3.22E0,4.39E0,5.64E0,4.14E0,5.64E0,1.7491014E0,2.3496654E0,1.5E0,3.36E0,1.5E0,2.92E0,1.0910057E1,3.36E0,3.59E0,1.6160089E0,4.69E0,5.99E0,3.69E0,6.096735E0,4.69E0,6.63E0,1.42E0,1.56E0,3.33E0,3.38E0,3.7968802E0,1.61E0,2.9E0,2.3711352E0,3.33E0,6.2193894E0,3.49E0,4.29E0,4.52E0,4.99E0,5.73E0,6.59E0,-5.0379276E-1,-2.0286006E-1,4.49E0,-3.7182292E-1,6.59E0,6.99E0,8.431074E-1,2.028261E0,1.52E0,1.58E0,3.31E0,3.34E0,3.37E0,2.0484586E0,1.52E0,2.51E0,2.64E0,1.07295685E1,3.3E0,4.8202726E-1,-9.935272E-2,4.393709E-1,3.69E0,-1.0639173E-1,4.49E0,1.4713852E-1,4.74E0,5.16E0,5.107938E-1,7.4078685E-1,6.49E0,6.79E0,3.2857803E-1,8.759157E-2,5.99E0,1.8756878E0,6.595502E-1,7.49E0,1.0928558E-1,1.55E0,7.5958323E-1,5.108455E-1,3.22E0,2.4967496E0,2.3774676E-1,4.393537E-1,1.9041584E0,2.5959098E0,-2.536284E-1,1.56E0,2.7443209E0,-1.7407669E-1,3.4164114E0,2.74E0,3.26E0,6.443172E0,4.669232E-2,3.79E0,1.2928937E-1,-7.214931E-2,-1.05582975E-1,4.97E0,-1.4379829E-1,5.48E0,6.16E0,-2.4605773E-2,5.988336E-1,7.99E0,1.2980496E0,6.16E0,-8.949039E-3,2.1991044E-1,2.1862586E-1,3.210192E-1,1.6339104E0,9.521285E-1,2.6960167E-1,1.1711274E-1,3.812576E-2,3.2988353E0,7.8339183E-1,2.008945E0,3.3792332E-1,6.627685E-2,2.1213653E-2,1.2959166E-1,-5.6766473E-2,-2.0714316E-3,1.2449709E-1,2.3193946E-1,1.7740603E-1,-2.2602767E-1,-4.5099583E-2,7.312801E-1],"split_indices":[6,1,1,6,6,6,6,6,6,6,6,6,6,6,6,0,0,6,6,6,6,0,6,6,0,6,6,6,0,6,6,6,6,6,6,0,6,6,0,6,0,6,6,6,6,6,6,0,0,6,0,6,6,0,0,6,6,6,6,6,0,6,6,6,0,6,0,0,0,6,0,6,0,6,6,0,0,6,6,0,0,6,0,0,6,0,6,0,0,6,0,0,0,0,0,0,6,0,0,0,6,6,0,0,6,0,0,0,6,0,6,6,0,0,6,0,6,0,0,0,0,0,0,0,0,0,0,0,0,0,0,0,0,0,0,0,0,0,0,0,0],"split_type":[0,0,0,0,0,0,0,0,0,0,0,0,0,0,0,0,0,0,0,0,0,0,0,0,0,0,0,0,0,0,0,0,0,0,0,0,0,0,0,0,0,0,0,0,0,0,0,0,0,0,0,0,0,0,0,0,0,0,0,0,0,0,0,0,0,0,0,0,0,0,0,0,0,0,0,0,0,0,0,0,0,0,0,0,0,0,0,0,0,0,0,0,0,0,0,0,0,0,0,0,0,0,0,0,0,0,0,0,0,0,0,0,0,0,0,0,0,0,0,0,0,0,0,0,0,0,0,0,0,0,0,0,0,0,0,0,0,0,0,0,0],"sum_hessian":[3.915E3,2.461E3,1.454E3,2.204E3,2.57E2,1.274E3,1.8E2,2.09E2,1.995E3,1.77E2,8E1,2.27E2,1.047E3,1.3E1,1.67E2,5.6E1,1.53E2,1.83E2,1.812E3,5.3E1,1.24E2,3E1,5E1,1.67E2,6E1,5.39E2,5.08E2,5E0,8E0,5.6E1,1.11E2,5.6E1,1.27E2,1.662E3,1.5E2,1.5E1,3.8E1,6.1E1,6.3E1,3.2E1,1.8E1,5.8E1,1.09E2,2.07E2,3.32E2,4.8E1,4.6E2,2E0,3E0,1.4E1,4.2E1,7.3E1,3.8E1,3.8E1,1.8E1,5.2E1,7.5E1,1.55E3,1.12E2,8.1E1,6.9E1,1.8E1,2E1,5.8E1,3E0,2.2E1,1E1,1.8E1,4E1,9.2E1,1.7E1,3.1E1,1.76E2,1.22E2,2.1E2,2.8E1,2E1,1.55E2,3.05E2,3E0,1.1E1,3.2E1,4.1E1,2.2E1,1.6E1,2.4E1,2.8E1,1.4E1,6.1E1,1.494E3,5.6E1,3.6E1,7.6E1,2.2E1,5.9E1,2E0,1.6E1,1.1E1,9E0,2.5E1,3.3E1,1.5E1,7E0,3.2E1,6E1,3E0,2.8E1,3.8E1,8.4E1,1.16E2,9.4E1,8.4E1,7.1E1,1.39E2,1.66E2,6E0,2.6E1,8E0,8E0,1.7E1,1.1E1,1.315E3,1.79E2,9E0,7E0,1E1,2.3E1,2E0,1.3E1,7E0,5.3E1,6.5E1,1.9E1,7.2E1,2.2E1,7.3E1,1.1E1,1.51E2,1.5E1,4E0,2.2E1],"tree_param":{"num_deleted":"0","num_feature":"12","num_nodes":"141","size_leaf_vector":"0"}},{"base_weights":[9.259655E0,7.794713E0,2.1033974E1,1.1319118E1,5.8282394E0,3.1556519E1,8.167352E0,7.581217E0,3.369039E0,4.6047816E0,1.6595898E1,2.4328794E1,7.9093513E0,5.243442E0,3.974278E0,1.7896343E0,5.0304976E0,7.5304656E0,1.6519818E0,2.3645387E0,1.1141658E0,9.237822E0,3.3031006E1,1.3332378E0,2.338923E0,-5.046177E-1,7.3662276E0,3.8924387E0,1.9525885E1,-1.348007E0,2.369423E0,3.7625742E0,1.833336E0,1.0096592E1,1.53034725E1,3.621382E0,-1.522118E-1,-3.4365612E-1,8.6905055E-2,1.482692E0,2.4376954E-1,5.8669133E0,-6.845195E-1,2.511316E0,1.9572375E0,-1.8461175E-1,-1.1364464E-1,6.9410217E-1,1.2759768E0,1.00670606E-1,3.8485613E-1,1.95599E1,-5.3570205E-1,6.05967E-1,6.926333E-1,6.289145E-1,8.671256E0,-1.2166891E0,-4.3354613E-1,1.9248044E0,1.736133E-3,5.62815E-1,2.4114584E1,3.047678E-1,-1.2044978E-1,4.2075794E-3,1.4524975E-1,1.3839906E0,7.0444167E-1,-1.9533527E-1,-1.3660079E-1,-4.339331E-2,-6.0982626E-2,7.289533E-2,3.7291825E-1,2.4192073E0,3.248204E0],"categories":[],"categories_nodes":[],"categories_segments":[],"categories_sizes":[],"default_left":[false,false,false,false,false,false,false,false,false,false,false,false,false,false,false,false,false,false,false,false,false,false,false,false,false,false,false,false,false,false,false,false,false,false,false,false,false,false,false,false,false,false,false,false,false,false,false,false,false,false,false,false,false,false,false,false,false,false,false,false,false,false,false,false,false,false,false,false,false,false,false,false,false,false,false,false,false],"id":4,"left_children":[1,3,5,7,9,11,13,15,-1,17,19,21,-1,23,-1,-1,25,27,29,-1,-1,31,33,-1,35,37,39,41,43,45,47,-1,49,-1,51,53,-1,-1,-1,-1,-1,55,57,-1,-1,-1,-1,-1,59,-1,-1,61,-1,63,-1,65,67,69,71,73,-1,-1,75,-1,-1,-1,-1,-1,-1,-1,-1,-1,-1,-1,-1,-1,-1],"loss_changes":[6.945175E4,2.4822E4,6.012603E4,8.0270625E4,3.0315477E4,5.9231594E4,1.4563523E4,1.9600426E4,0E0,1.7896121E4,5.1580117E3,2.648514E4,0E0,3.0753745E3,0E0,0E0,1.011383E4,4.5352883E4,2.2265352E3,0E0,0E0,1.2388636E4,1.15587125E5,0E0,5.7362646E2,6.7754724E2,1.4614947E4,7.2336865E3,7.4946094E2,1.3813873E1,3.1066567E3,0E0,7.654471E1,0E0,8.248863E3,5.866227E2,0E0,0E0,0E0,0E0,0E0,8.205779E3,3.1794128E1,0E0,0E0,0E0,0E0,0E0,5.1808386E2,0E0,0E0,5.3050664E3,0E0,1.2394886E2,0E0,6.764119E1,2.8501914E3,6.271591E-1,7.075577E-1,6.494468E2,0E0,0E0,1.6682812E2,0E0,0E0,0E0,0E0,0E0,0E0,0E0,0E0,0E0,0E0,0E0,0E0,0E0,0E0],"parents":[2147483647,0,0,1,1,2,2,3,3,4,4,5,5,6,6,7,7,9,9,10,10,11,11,13,13,16,16,17,17,18,18,21,21,22,22,24,24,25,25,26,26,27,27,28,28,29,29,30,30,32,32,34,34,35,35,41,41,42,42,48,48,51,51,53,53,55,55,56,56,57,57,58,58,59,59,62,62],"right_children":[2,4,6,8,10,12,14,16,-1,18,20,22,-1,24,-1,-1,26,28,30,-1,-1,32,34,-1,36,38,40,42,44,46,48,-1,50,-1,52,54,-1,-1,-1,-1,-1,56,58,-1,-1,-1,-1,-1,60,-1,-1,62,-1,64,-1,66,68,70,72,74,-1,-1,76,-1,-1,-1,-1,-1,-1,-1,-1,-1,-1,-1,-1,-1,-1],"split_conditions":[1E0,2.0662006E9,4.1167094E9,1.6000275E9,8.8491205E10,3.8000317E9,8.8491205E10,1.1110354E9,3.369039E0,4.1167094E9,8.849121E10,1.6000275E9,7.9093513E0,7.218063E9,3.974278E0,1.7896343E0,1.1110853E9,3.8000317E9,7.1921004E9,2.3645387E0,1.1141658E0,1.1110354E9,2.0662006E9,1.3332378E0,3.1254743E10,1.1110381E9,1.1110874E9,3.5000689E9,3.8000392E9,4.1167096E9,7.218063E9,3.7625742E0,1.1110853E9,1.0096592E1,3.5000689E9,7.797508E9,-1.522118E-1,-3.4365612E-1,8.6905055E-2,1.482692E0,2.4376954E-1,2.8400049E9,3.7000315E9,2.511316E0,1.9572375E0,-1.8461175E-1,-1.1364464E-1,6.9410217E-1,3.1254743E10,1.00670606E-1,3.8485613E-1,2.8400023E9,-5.3570205E-1,7.218064E9,6.926333E-1,2.8400023E9,3.0000064E9,3.7000195E9,3.700045E9,7.7975025E9,1.736133E-3,5.62815E-1,3.0000067E9,3.047678E-1,-1.2044978E-1,4.2075794E-3,1.4524975E-1,1.3839906E0,7.0444167E-1,-1.9533527E-1,-1.3660079E-1,-4.339331E-2,-6.0982626E-2,7.289533E-2,3.7291825E-1,2.4192073E0,3.248204E0],"split_indices":[1,4,4,4,4,4,4,4,0,4,4,4,0,4,0,0,4,4,4,0,0,4,4,0,4,4,4,4,4,4,4,0,4,0,4,4,0,0,0,0,0,4,4,0,0,0,0,0,4,0,0,4,0,4,0,4,4,4,4,4,0,0,4,0,0,0,0,0,0,0,0,0,0,0,0,0,0],"split_type":[0,0,0,0,0,0,0,0,0,0,0,0,0,0,0,0,0,0,0,0,0,0,0,0,0,0,0,0,0,0,0,0,0,0,0,0,0,0,0,0,0,0,0,0,0,0,0,0,0,0,0,0,0,0,0,0,0,0,0,0,0,0,0,0,0,0,0,0,0,0,0,0,0,0,0,0,0],"sum_hessian":[4.035E3,3.59E3,4.45E2,1.284E3,2.306E3,2.44E2,2.01E2,1.051E3,2.33E2,2.072E3,2.34E2,2.03E2,4.1E1,1.81E2,2E1,2.7E2,7.81E2,1.04E3,1.032E3,1.63E2,7.1E1,7.5E1,1.28E2,5.9E1,1.22E2,2.32E2,5.49E2,7.99E2,2.41E2,1.99E2,8.33E2,1.8E1,5.7E1,3.2E1,9.6E1,9E1,3.2E1,7.9E1,1.53E2,2.83E2,2.66E2,5.58E2,2.41E2,1.64E2,7.7E1,1.33E2,6.6E1,2.01E2,6.32E2,3.4E1,2.3E1,7.9E1,1.7E1,3.8E1,5.2E1,1.95E2,3.63E2,7.6E1,1.65E2,4.17E2,2.15E2,1.9E1,6E1,1.7E1,2.1E1,9.7E1,9.8E1,1.78E2,1.85E2,9E0,6.7E1,8.7E1,7.8E1,1.98E2,2.19E2,2.9E1,3.1E1],"tree_param":{"num_deleted":"0","num_feature":"12","num_nodes":"77","size_leaf_vector":"0"}}]},"name":"gbtree"},"learner_model_param":{"base_score":"5E-1","num_class":"0","num_feature":"12"},"objective":{"name":"reg:squarederror","reg_loss_param":{"scale_pos_weight":"1"}}},"version":[1,5,2]}