{"learner":{"attributes":{"best_iteration":"17","best_ntree_limit":"18","scikit_learn":"{\"objective\": \"reg:squarederror\", \"max_leaves\": null, \"max_bin\": null, \"grow_policy\": null, \"learning_rate\": 0.4, \"verbosity\": null, \"booster\": null, \"tree_method\": \"hist\", \"gamma\": null, \"min_child_weight\": 2.0, \"max_delta_step\": null, \"subsample\": 0.5, \"sampling_method\": null, \"colsample_bytree\": 0.8, \"colsample_bylevel\": null, \"colsample_bynode\": null, \"reg_alpha\": null, \"reg_lambda\": null, \"scale_pos_weight\": null, \"base_score\": null, \"missing\": NaN, \"num_parallel_tree\": null, \"random_state\": 2020, \"n_jobs\": null, \"monotone_constraints\": null, \"interaction_constraints\": null, \"importance_type\": null, \"gpu_id\": null, \"validate_parameters\": null, \"predictor\": null, \"enable_categorical\": false, \"max_cat_to_onehot\": null, \"eval_metric\": null, \"early_stopping_rounds\": null, \"callbacks\": null, \"_estimator_type\": \"regressor\"}"},"feature_names":["FEATURE","DISPLAY","TPR_ONLY","PRICE","BASE_PRICE"],"feature_types":["int","int","int","float","float"],"gradient_booster":{"model":{"gbtree_model_param":{"num_parallel_tree":"1","num_trees":"18","size_leaf_vector":"0"},"tree_info":[0,0,0,0,0,0,0,0,0,0,0,0,0,0,0,0,0,0],"trees":[{"base_weights":[-1.21596396E-1,6.96879E-1,-4.778423E-1,5.2303016E-1,3.6224058E0,-1.8218087E-1,-7.36258E-1,1.1908783E0,3.4113127E-1,6.3119063E0,5.55779E-1,-2.4340287E-1,3.033241E0,-7.983155E-1,-1.5270527E-1,1.0503814E0,2.1332922E0,2.1390274E-1,1.3634515E0,5.5982842E0,5.394303E0,9.3981725E-1,-3.446832E-1,-4.0011203E-1,-4.2236424E-3,2.4726825E0,9.419459E-1,-3.9706603E-1,-8.2074076E-1,-4.642053E-1,5.55514E-1,4.532508E-1,1.1279114E0,2.3812923E0,7.857431E-1,3.9568803E-1,-3.0223587E-1,2.4583314E-1,2.6832817E0,3.9756386E0,6.0467196E0,1.1237998E-1,1.2430825E0,-1.9366698E-1,-5.7659927E-3,-8.019282E-1,-3.1869245E-1,8.7597966E-1,-1.7020683E-1,1.5282403E0,2.3790827E-1,-5.2300733E-1,3.6475908E-2,-7.8913033E-1,-3.757522E-1,-3.2298967E-1,-1.9987385E-1,7.7917486E-1,-3.51151E-1,-6.3030206E-2,2.052869E-1,1.3608967E0,8.157668E-1,4.724221E-1,1.0539933E0,6.1687987E-2,4.2517987E-1,-3.2896492E-1,6.731515E-1,-6.463332E-1,2.3543097E-1,-7.269905E-1,5.5585504E-1,2.227858E0,1.5170429E0,7.3414105E-1,1.8891796E0,6.642433E0,1.1724365E0,3.423039E-1,-1.4244954E-1,1.6794862E-1,1.4007565E0,-3.2544574E-1,-1.9748488E-1,-1.03494935E-1,-4.796373E-1,1.460679E0,-3.7523425E-1,-1.1700763E-1,-6.637326E-1,2.6482794E-1,7.6621145E-1,1.9403328E-1,-1.3429773E-1,-3.9068815E-1,-3.0126193E-1,-8.269122E-1,-8.399679E-3,-6.164981E-2,-3.2628682E-1,1.1707078E0,6.1367595E-1,-9.103685E-2,-1.794806E-1,1.244332E0,6.59713E-1,5.6162107E-1,4.6859708E-1,-5.100521E-1,2.4678081E-1,5.0046235E-1,1.6803155E0,-3.3133268E-1,-4.5373905E-1,6.4278096E-1,-9.3948126E-2,-3.1797466E-1,-9.4209746E-2,9.249528E-1,-5.560121E-2,1.8841249E0,1.032203E0,2.8238366E0,9.9262017E-1,6.301198E-1,3.225711E-1,-1.2304742E-2,-6.552327E-1,-4.96003E-1,1.8572243E-2,1.913087E0,8.9555496E-1,-3.06185E-1,7.3756164E-1,-1.0051183E-1,-5.938831E-1,-7.239377E-1,1.7618662E-2,-2.4399813E-1,5.2693407E-3,-7.6244414E-1,-8.98857E-1,2.7343884E-1,-5.90306E-1,1.3918379E-1,-2.2149041E-1,1.8067062E-1,7.826311E-1,7.376932E-2,2.828388E-1,1.3003794E0,6.053815E-1,2.4433628E-1,-1.5211461E-1,1.6289084E-1,-6.3159525E-1,4.5778587E-1,1.1681768E-2,8.000547E-1,3.6771643E-1,1.0848973E0,2.258855E0,-2.6022217E-1,-3.6062905E-1,7.5837415E-1,-8.098131E-2,-2.4841857E-1,7.7974015E-1,1.1810399E0,-8.282995E-2,-4.69981E-1,7.13362E-1,1.1352316E0,2.5847259E0,5.6364443E-2,1.470642E0,-2.5123605E-1,2.5829962E-1,-3.893476E-1,-4.192642E-1,-4.7273412E-1,-2.9791743E-1,1.4609449E-1,-3.064259E-1,8.7096304E-1,1.3066456E0,1.0379819E0,1.1825064E-1,7.3872954E-1,-7.5507976E-2,-1.2049206E-1,1.7923689E-1,-4.521331E-2,-2.714999E-1,-3.1721905E-1,-4.6494716E-1,-8.014503E-1,-6.563223E-2,-3.9009804E-1,-7.58597E-1,-4.176845E-2,4.2552656E-1,-2.537919E-1,-8.084708E-2,3.652362E-1,-2.8020483E-2,1.3740973E-1,-2.828885E-1,4.875011E-1,7.081754E-1,2.0959336E-2,3.706767E-1,1.6345412E-2,3.200328E-1,-2.639545E-1,8.7772645E-2,9.5944546E-2,3.3129475E-1,-9.434396E-2,3.736675E-2,3.3566436E-1,-1.6277727E-1,-8.595338E-2,1.8156861E-1,3.470473E-1,6.078487E-1,9.898473E-1,-1.7438571E-1,1.250321E-1,-3.0023268E-1,2.1828745E-1,3.6945257E-1,4.80193E-1,1.7644383E-1,6.513841E-1,3.2594207E-1,-1.12667285E-1,8.395909E-2,6.1687995E-2,-2.5033116E-1,6.1047323E-2,4.8929316E-1,8.1998646E-1,-2.9974458E-1,4.44751E-1,1.156145E0,1.0937336E-2,3.0508438E-2,7.016314E-1,3.1188098E-1,-1.0922402E-1,1.2213117E-1,2.0902598E-1,7.63065E-2,-1.441301E-1,-2.768328E-1,-2.4253671E-1,-1.7008032E-1,8.621664E-1,9.604042E-2,4.9080643E-1,1.9385023E-1,-1.8487986E-2,9.732174E-2,1.6858928E-1,-2.1892793E-1,-5.1430263E-2,1.7290929E-1,-2.844132E-2,1.1460028E-1,-1.0503409E-1,-2.2243635E-1,-3.4356558E-1,-2.9024082E-1,-1.9566527E-1,-3.3349267E-1,-1.3367228E-1,2.2139926E-1,2.243586E-1,-1.1600795E-1,7.9370655E-2,1.8359941E-1,1.00179445E-2,-8.53013E-2,-7.042539E-2,-1.6593488E-1],"categories":[],"categories_nodes":[],"categories_segments":[],"categories_sizes":[],"default_left":[0,0,0,0,0,0,0,0,0,0,0,0,0,0,0,0,0,0,0,0,0,0,0,0,0,0,0,1,0,0,0,0,0,0,0,0,0,0,0,0,0,0,0,0,0,0,0,0,0,0,0,0,0,0,0,0,0,0,0,0,0,0,0,0,0,0,0,0,0,0,0,0,0,0,0,0,0,0,0,0,0,0,0,0,0,0,0,0,0,0,0,0,0,0,0,0,0,0,0,0,0,0,0,0,0,0,0,0,0,0,0,0,0,0,0,0,0,0,0,0,0,0,0,0,0,0,0,0,0,0,0,0,0,0,0,0,0,0,0,0,0,0,0,0,0,0,0,0,0,0,0,0,0,0,0,0,0,0,0,0,0,0,0,0,0,0,0,0,0,0,0,0,0,0,0,0,0,0,0,0,0,0,0,0,0,0,0,0,0,0,0,0,0,0,0,0,0,0,0,0,0,0,0,0,0,0,0,0,0,0,0,0,0,0,0,0,0,0,0,0,0,0,0,0,0,0,0,0,0,0,0,0,0,0,0,0,0,0,0,0,0,0,0,0,0,0,0,0,0,0,0,0,0,0,0,0,0,0,0,0,0,0,0,0,0,0,0,0,0,0,0,0,0,0,0,0,0,0,0,0,0,0,0,0,0,0,0],"id":0,"left_children":[1,3,5,7,9,11,13,15,17,19,21,23,25,27,29,31,33,35,37,-1,39,41,43,45,47,-1,49,51,53,55,57,59,61,63,65,67,69,71,73,75,77,79,81,-1,-1,83,85,87,89,91,93,95,-1,97,-1,-1,99,101,103,-1,-1,105,107,-1,-1,-1,-1,109,111,113,115,117,119,-1,121,-1,-1,123,-1,-1,-1,-1,125,-1,-1,127,129,131,133,135,137,-1,-1,-1,-1,139,-1,141,143,145,-1,147,149,-1,-1,151,-1,153,-1,155,157,159,161,-1,163,165,167,-1,-1,169,171,173,175,-1,-1,-1,-1,177,179,181,183,185,187,-1,189,191,193,195,-1,-1,-1,197,199,201,203,205,207,-1,-1,-1,-1,209,211,-1,-1,213,215,217,219,221,223,225,227,229,-1,231,-1,-1,233,235,237,239,241,243,245,247,249,251,253,-1,255,257,-1,-1,-1,-1,259,261,263,-1,265,267,269,-1,-1,-1,271,273,-1,-1,275,277,279,-1,-1,281,283,-1,285,-1,-1,-1,-1,-1,-1,-1,-1,-1,-1,-1,-1,-1,-1,-1,-1,-1,-1,-1,-1,-1,-1,-1,-1,-1,-1,-1,-1,-1,-1,-1,-1,-1,-1,-1,-1,-1,-1,-1,-1,-1,-1,-1,-1,-1,-1,-1,-1,-1,-1,-1,-1,-1,-1,-1,-1,-1,-1,-1,-1,-1,-1,-1,-1,-1,-1,-1,-1,-1,-1,-1,-1,-1,-1,-1,-1,-1,-1],"loss_changes":[1.0998755E3,5.7994305E2,2.0065442E2,1.3091455E2,5.243444E2,2.4227887E2,5.0649963E1,2.8345062E1,1.1039648E2,1.6422632E2,1.1044109E1,4.5163612E1,1.4561768E2,1.1074707E1,3.0260874E1,8.88678E0,7.820511E0,7.1240005E1,1.379966E2,0E0,5.578308E0,5.380829E0,4.536928E-1,2.3561462E1,6.998439E1,0E0,5.82802E0,4.2906113E0,3.75531E0,8.458599E0,8.790599E0,9.965973E-1,1.1907623E1,4.1956787E0,8.86446E-1,1.1301874E2,3.6784096E1,1.6087124E1,1.3629675E2,1.212468E1,1.7650879E1,2.7426903E0,1.4886436E0,0E0,0E0,3.7734985E-2,2.0973759E1,5.6148483E1,1.0503177E1,1.4154472E0,1.2972041E0,1.380662E0,0E0,2.8104187E1,0E0,0E0,4.6315494E0,1.4847069E0,6.3581467E-3,0E0,0E0,1.342926E0,6.4841576E0,0E0,0E0,0E0,0E0,1.6390455E1,6.977315E1,3.865425E0,1.0525848E1,2.468853E-1,9.078913E0,0E0,3.7504349E0,0E0,0E0,1.0253235E1,0E0,0E0,0E0,0E0,7.82032E-2,0E0,0E0,1.312365E1,2.838501E0,1.158139E1,1.1420687E1,2.8115592E0,1.6937523E0,0E0,0E0,0E0,0E0,3.2851162E0,0E0,3.5307007E0,7.541576E0,1.5074906E0,0E0,4.2018433E0,9.122257E-1,0E0,0E0,1.9344482E0,0E0,2.45759E0,0E0,9.836086E0,1.8797219E0,1.3545647E1,1.7873276E1,0E0,5.051856E0,3.5731535E0,2.0747116E1,0E0,0E0,6.5498314E0,5.4335523E0,5.985214E0,6.762638E0,0E0,0E0,0E0,0E0,1.4612462E1,2.3694963E0,1.5930405E0,3.5438588E0,1.643158E0,2.6449852E0,0E0,6.4528017E0,2.00026E0,4.1297626E-1,2.7563286E-1,0E0,0E0,0E0,1.12117E1,3.803009E0,1.5038872E0,1.2897635E-1,8.039696E-1,9.991404E-1,0E0,0E0,0E0,0E0,4.8976135E-1,1.3728759E0,0E0,0E0,1.4446454E0,2.5765114E0,1.415945E0,4.0645736E-1,5.3448105E0,1.2301746E1,1.6096992E0,1.7940674E1,1.2593297E1,0E0,5.853863E-1,0E0,0E0,1.8925514E0,1.9498119E0,4.0835428E-1,1.1665928E0,1.5287535E0,1.8775185E1,3.8752365E-1,1.3807733E-3,7.865524E-1,1.5409465E0,1.7920656E0,0E0,1.2045574E-1,1.7109375E0,0E0,0E0,0E0,0E0,9.4402485E0,1.6020241E0,1.1408383E-1,0E0,1.4030886E0,1.5345969E0,6.6482973E-1,0E0,0E0,0E0,3.841901E-2,1.3642273E0,0E0,0E0,2.7097168E0,2.0996642E0,2.1968048E0,0E0,0E0,4.968655E-2,1.3312362E-1,0E0,2.6525247E-1,0E0,0E0,0E0,0E0,0E0,0E0,0E0,0E0,0E0,0E0,0E0,0E0,0E0,0E0,0E0,0E0,0E0,0E0,0E0,0E0,0E0,0E0,0E0,0E0,0E0,0E0,0E0,0E0,0E0,0E0,0E0,0E0,0E0,0E0,0E0,0E0,0E0,0E0,0E0,0E0,0E0,0E0,0E0,0E0,0E0,0E0,0E0,0E0,0E0,0E0,0E0,0E0,0E0,0E0,0E0,0E0,0E0,0E0,0E0,0E0,0E0,0E0,0E0,0E0,0E0,0E0,0E0,0E0,0E0,0E0,0E0,0E0,0E0,0E0,0E0,0E0,0E0,0E0],"parents":[2147483647,0,0,1,1,2,2,3,3,4,4,5,5,6,6,7,7,8,8,9,9,10,10,11,11,12,12,13,13,14,14,15,15,16,16,17,17,18,18,20,20,21,21,22,22,23,23,24,24,26,26,27,27,28,28,29,29,30,30,31,31,32,32,33,33,34,34,35,35,36,36,37,37,38,38,39,39,40,40,41,41,42,42,45,45,46,46,47,47,48,48,49,49,50,50,51,51,53,53,56,56,57,57,58,58,61,61,62,62,67,67,68,68,69,69,70,70,71,71,72,72,74,74,77,77,82,82,85,85,86,86,87,87,88,88,89,89,90,90,95,95,97,97,98,98,99,99,101,101,102,102,105,105,107,107,109,109,110,110,111,111,112,112,114,114,115,115,116,116,119,119,120,120,121,121,122,122,127,127,128,128,129,129,130,130,131,131,132,132,134,134,135,135,136,136,137,137,141,141,142,142,143,143,144,144,145,145,146,146,151,151,152,152,155,155,156,156,157,157,158,158,159,159,160,160,161,161,162,162,163,163,165,165,168,168,169,169,170,170,171,171,172,172,173,173,174,174,175,175,176,176,177,177,178,178,180,180,181,181,186,186,187,187,188,188,190,190,191,191,192,192,196,196,197,197,200,200,201,201,202,202,205,205,206,206,208,208],"right_children":[2,4,6,8,10,12,14,16,18,20,22,24,26,28,30,32,34,36,38,-1,40,42,44,46,48,-1,50,52,54,56,58,60,62,64,66,68,70,72,74,76,78,80,82,-1,-1,84,86,88,90,92,94,96,-1,98,-1,-1,100,102,104,-1,-1,106,108,-1,-1,-1,-1,110,112,114,116,118,120,-1,122,-1,-1,124,-1,-1,-1,-1,126,-1,-1,128,130,132,134,136,138,-1,-1,-1,-1,140,-1,142,144,146,-1,148,150,-1,-1,152,-1,154,-1,156,158,160,162,-1,164,166,168,-1,-1,170,172,174,176,-1,-1,-1,-1,178,180,182,184,186,188,-1,190,192,194,196,-1,-1,-1,198,200,202,204,206,208,-1,-1,-1,-1,210,212,-1,-1,214,216,218,220,222,224,226,228,230,-1,232,-1,-1,234,236,238,240,242,244,246,248,250,252,254,-1,256,258,-1,-1,-1,-1,260,262,264,-1,266,268,270,-1,-1,-1,272,274,-1,-1,276,278,280,-1,-1,282,284,-1,286,-1,-1,-1,-1,-1,-1,-1,-1,-1,-1,-1,-1,-1,-1,-1,-1,-1,-1,-1,-1,-1,-1,-1,-1,-1,-1,-1,-1,-1,-1,-1,-1,-1,-1,-1,-1,-1,-1,-1,-1,-1,-1,-1,-1,-1,-1,-1,-1,-1,-1,-1,-1,-1,-1,-1,-1,-1,-1,-1,-1,-1,-1,-1,-1,-1,-1,-1,-1,-1,-1,-1,-1,-1,-1,-1,-1,-1,-1],"split_conditions":[-5.7857573E-1,-3.3875012E-1,3.0671246E-2,-1.2580227E0,1E0,5.74394E-1,1E0,1E0,-6.2066036E-1,-1.0980389E0,-1.05867736E-1,-3.3875012E-1,-3.7976882E-1,-1.3940475E-2,2.0758724E0,-1.3683354E0,-1.2886652E0,-8.8640577E-1,1E0,5.5982842E0,1E0,-2.652083E-1,2.8958913E-2,-6.2066036E-1,-3.6052942E-1,2.4726825E0,7.5212E-1,1.0121563E-1,1.9225434E0,1.3404545E0,2.3822968E0,-1.3738034E0,-1.2886652E0,-1.313179E0,-1.4186952E0,-1.1365176E0,-7.004251E-1,-9.569501E-1,-8.9281887E-1,-2.345659E-1,-7.004251E-1,-7.773826E-1,-1.1365176E0,-1.9366698E-1,-5.7659927E-3,-5.3368384E-1,-3.1563756E-1,-6.9096826E-2,-6.9096826E-2,1E0,1E0,6.915E-2,3.6475908E-2,1.8307332E0,-3.757522E-1,-3.2298967E-1,1.6724315E0,7.29702E-1,1.0760107E0,-6.3030206E-2,2.052869E-1,-1.2134752E0,-1.1814096E0,4.724221E-1,1.0539933E0,6.1687987E-2,4.2517987E-1,-1.159967E0,-9.248845E-1,-9.4547004E-1,-6.362938E-1,-1.149344E0,-7.773826E-1,2.227858E0,-7.773826E-1,7.3414105E-1,1.8891796E0,-1.3651015E-1,1.1724365E0,3.423039E-1,-1.4244954E-1,1.6794862E-1,-7.260776E-1,-3.2544574E-1,-1.9748488E-1,1E0,-2.3226692E-1,1E0,-5.593363E-1,1E0,-3.3460014E-2,2.6482794E-1,7.6621145E-1,1.9403328E-1,-1.3429773E-1,6.273688E-2,-3.0126193E-1,7.5212E-1,1.1850339E0,9.9264014E-1,-3.2628682E-1,7.0404947E-1,7.7459383E-1,-9.103685E-2,-1.794806E-1,-1.2947936E0,6.59713E-1,1E0,4.6859708E-1,-1.2518942E0,-1.0067549E0,-1.0980389E0,-8.045149E-1,-3.3133268E-1,-6.758167E-1,1E0,-6.1705446E-1,-3.1797466E-1,-9.4209746E-2,-4.122919E-1,-6.747726E-1,-5.77761E-1,-7.260776E-1,2.8238366E0,9.9262017E-1,6.301198E-1,3.225711E-1,-5.4711854E-1,-4.9196222E-1,1E0,1E0,-5.080313E-1,-1.7328106E-1,-3.06185E-1,-5.3368384E-1,1E0,-8.476502E-2,-8.476502E-2,1.7618662E-2,-2.4399813E-1,5.2693407E-3,9.0285635E-1,1.3465829E0,2.0758724E0,1.550582E0,2.0145876E0,1.4630241E0,1.8067062E-1,7.826311E-1,7.376932E-2,2.828388E-1,1E0,-1.3738034E0,2.4433628E-1,-1.5211461E-1,1E0,-1.149344E0,-1.0557828E0,-1.2904327E0,-9.822409E-1,-1.159967E0,-8.9923203E-1,-6.880737E-1,-7.6455635E-1,-3.6062905E-1,-6.747726E-1,-8.098131E-2,-2.4841857E-1,-5.978151E-1,1E0,-8.8640577E-1,-5.90018E-1,-4.613198E-1,-5.90018E-1,-8.8640577E-1,-7.6455635E-1,-6.1705446E-1,1E0,-4.980907E-1,-3.893476E-1,-4.9520507E-1,-3.028113E-1,-2.9791743E-1,1.4609449E-1,-3.064259E-1,8.7096304E-1,1E0,-4.2466068E-1,-5.6574947E-1,7.3872954E-1,-5.016182E-1,1.1431869E-2,-3.1563756E-1,-4.521331E-2,-2.714999E-1,-3.1721905E-1,2.3119888E-1,6.2709194E-1,-6.563223E-2,-3.9009804E-1,1.6724315E0,8.83617E-1,2.1371574E0,-2.537919E-1,-8.084708E-2,7.29702E-1,7.7459383E-1,1.3740973E-1,1.1850339E0,4.875011E-1,7.081754E-1,2.0959336E-2,3.706767E-1,1.6345412E-2,3.200328E-1,-2.639545E-1,8.7772645E-2,9.5944546E-2,3.3129475E-1,-9.434396E-2,3.736675E-2,3.3566436E-1,-1.6277727E-1,-8.595338E-2,1.8156861E-1,3.470473E-1,6.078487E-1,9.898473E-1,-1.7438571E-1,1.250321E-1,-3.0023268E-1,2.1828745E-1,3.6945257E-1,4.80193E-1,1.7644383E-1,6.513841E-1,3.2594207E-1,-1.12667285E-1,8.395909E-2,6.1687995E-2,-2.5033116E-1,6.1047323E-2,4.8929316E-1,8.1998646E-1,-2.9974458E-1,4.44751E-1,1.156145E0,1.0937336E-2,3.0508438E-2,7.016314E-1,3.1188098E-1,-1.0922402E-1,1.2213117E-1,2.0902598E-1,7.63065E-2,-1.441301E-1,-2.768328E-1,-2.4253671E-1,-1.7008032E-1,8.621664E-1,9.604042E-2,4.9080643E-1,1.9385023E-1,-1.8487986E-2,9.732174E-2,1.6858928E-1,-2.1892793E-1,-5.1430263E-2,1.7290929E-1,-2.844132E-2,1.1460028E-1,-1.0503409E-1,-2.2243635E-1,-3.4356558E-1,-2.9024082E-1,-1.9566527E-1,-3.3349267E-1,-1.3367228E-1,2.2139926E-1,2.243586E-1,-1.1600795E-1,7.9370655E-2,1.8359941E-1,1.00179445E-2,-8.53013E-2,-7.042539E-2,-1.6593488E-1],"split_indices":[3,4,3,4,2,4,1,1,4,3,4,4,3,4,4,4,4,3,1,0,1,4,4,4,3,0,4,3,3,4,4,3,4,4,3,3,3,3,3,4,3,3,3,0,0,3,3,4,4,1,2,3,0,4,0,0,3,3,3,0,0,3,3,0,0,0,0,4,3,4,3,3,3,0,3,0,0,4,0,0,0,0,3,0,0,2,3,2,3,1,3,0,0,0,0,3,0,4,3,3,0,3,3,0,0,4,0,2,0,4,4,3,4,0,4,1,3,0,0,4,3,4,3,0,0,0,0,4,4,1,1,3,4,0,3,2,3,3,0,0,0,3,4,4,3,4,4,0,0,0,0,2,3,0,0,1,3,4,3,4,4,3,4,3,0,3,0,0,3,2,3,4,4,4,3,3,3,1,4,0,3,3,0,0,0,0,1,3,3,0,3,3,3,0,0,0,4,3,0,0,3,3,4,0,0,3,3,0,3,0,0,0,0,0,0,0,0,0,0,0,0,0,0,0,0,0,0,0,0,0,0,0,0,0,0,0,0,0,0,0,0,0,0,0,0,0,0,0,0,0,0,0,0,0,0,0,0,0,0,0,0,0,0,0,0,0,0,0,0,0,0,0,0,0,0,0,0,0,0,0,0,0,0,0,0,0,0],"split_type":[0,0,0,0,0,0,0,0,0,0,0,0,0,0,0,0,0,0,0,0,0,0,0,0,0,0,0,0,0,0,0,0,0,0,0,0,0,0,0,0,0,0,0,0,0,0,0,0,0,0,0,0,0,0,0,0,0,0,0,0,0,0,0,0,0,0,0,0,0,0,0,0,0,0,0,0,0,0,0,0,0,0,0,0,0,0,0,0,0,0,0,0,0,0,0,0,0,0,0,0,0,0,0,0,0,0,0,0,0,0,0,0,0,0,0,0,0,0,0,0,0,0,0,0,0,0,0,0,0,0,0,0,0,0,0,0,0,0,0,0,0,0,0,0,0,0,0,0,0,0,0,0,0,0,0,0,0,0,0,0,0,0,0,0,0,0,0,0,0,0,0,0,0,0,0,0,0,0,0,0,0,0,0,0,0,0,0,0,0,0,0,0,0,0,0,0,0,0,0,0,0,0,0,0,0,0,0,0,0,0,0,0,0,0,0,0,0,0,0,0,0,0,0,0,0,0,0,0,0,0,0,0,0,0,0,0,0,0,0,0,0,0,0,0,0,0,0,0,0,0,0,0,0,0,0,0,0,0,0,0,0,0,0,0,0,0,0,0,0,0,0,0,0,0,0,0,0,0,0,0,0,0,0,0,0,0,0],"sum_hessian":[3.77E3,1.143E3,2.627E3,1.08E3,6.3E1,1.226E3,1.401E3,2.3E2,8.5E2,3.3E1,3E1,1.204E3,2.2E1,1.266E3,1.35E2,2.02E2,2.8E1,7.57E2,9.3E1,2E0,3.1E1,2.1E1,9E0,7.27E2,4.77E2,8E0,1.4E1,6.8E1,1.198E3,9.4E1,4.1E1,2.4E1,1.78E2,2.3E1,5E0,5.6E2,1.97E2,5.1E1,4.2E1,1.2E1,1.9E1,6E0,1.5E1,6E0,3E0,1.21E2,6.06E2,7.5E1,4.02E2,7E0,7E0,5.4E1,1.4E1,9.52E2,2.46E2,4E1,5.4E1,3.3E1,8E0,2E0,2.2E1,1E2,7.8E1,5E0,1.8E1,2E0,3E0,1.55E2,4.05E2,1.2E2,7.7E1,1.2E1,3.9E1,1.1E1,3.1E1,4E0,8E0,1.5E1,4E0,2E0,4E0,3E0,1.2E1,1.15E2,6E0,2.6E2,3.46E2,5.1E1,2.4E1,3.64E2,3.8E1,3E0,4E0,5E0,2E0,3.6E1,1.8E1,9.08E2,4.4E1,4.5E1,9E0,8E0,2.5E1,5E0,3E0,7.5E1,2.5E1,4.7E1,3.1E1,1.18E2,3.7E1,3.47E2,5.8E1,6E1,6E1,3.4E1,4.3E1,1E1,2E0,2.4E1,1.5E1,1.6E1,1.5E1,1.3E1,2E0,8E0,4E0,2.24E2,3.6E1,3.35E2,1.1E1,2.7E1,2.4E1,1.8E1,6E0,3.53E2,1.1E1,3.5E1,3E0,2.3E1,1.3E1,4.85E2,4.23E2,3E1,1.4E1,2E1,2.5E1,5E0,3E0,5E0,2E1,6.8E1,7E0,4.5E1,2E0,1.8E1,1E2,1.9E1,1.8E1,1.05E2,2.42E2,3E1,2.8E1,4.3E1,1.7E1,3E1,4E0,2.7E1,1.6E1,1.9E1,5E0,1E1,5E0,9E0,7E0,5E0,1E1,1.19E2,1.05E2,1.4E1,2.2E1,3.09E2,2.6E1,8E0,3E0,1.7E1,1E1,2E1,4E0,2E0,4E0,3.3E2,2.3E1,2E0,9E0,2.6E1,9E0,4.55E2,3E1,2.7E2,1.53E2,1E1,2E1,1.2E1,2E0,8E0,1.2E1,2E0,2.3E1,6.1E1,7E0,3E0,4E0,1.6E1,2E0,9.7E1,3E0,1.3E1,6E0,4E0,1.4E1,1.02E2,3E0,3.1E1,2.11E2,2.2E1,8E0,2.6E1,2E0,2E1,2.3E1,1.5E1,1.5E1,6E0,1E1,7E0,1.2E1,3E0,2E0,2E0,8E0,3E0,2E0,6E0,3E0,2E0,5E0,3E0,2E0,6E0,4E0,1.15E2,4E0,2E1,8.5E1,2E1,2E0,7.8E1,2.31E2,5E0,5E0,1.4E1,6E0,2E0,2E0,2E0,2E0,3.26E2,4E0,7E0,1.6E1,4E0,5E0,2.53E2,2.02E2,3.5E1,1.18E2,7E0,3E0,1.7E1,3E0,4E0,4E0,1E1,2E0,1.4E1,9E0],"tree_param":{"num_deleted":"0","num_feature":"5","num_nodes":"287","size_leaf_vector":"0"}},{"base_weights":[-6.1497133E-2,4.2784008E-1,-2.7840427E-1,2.748023E-1,2.1100132E0,-3.2591927E-1,4.1807064E-1,4.0306363E-1,-1.11474544E-1,8.841286E-1,2.807557E0,-1.4307033E-1,-4.9697953E-1,1.7945584E0,4.7910426E-2,3.411414E-1,1.319137E0,-1.8935351E-1,9.418198E-2,5.2675056E-1,9.361995E-1,-2.3919553E-1,3.0790126E0,-2.0257865E-1,-9.5918495E-3,-3.4929895E-1,-5.280266E-1,6.883087E-1,3.949699E0,1.3647652E-1,-8.339436E-2,5.344848E-1,2.4090865E-1,9.623318E-1,2.8773022E0,1.5883848E-2,5.362567E-1,8.77954E-1,-4.331692E-1,-2.7143335E-1,6.0057696E-2,2.652402E0,1.6025711E0,-1.17470294E-1,-3.1493586E-1,1.6978317E-1,-7.890565E-2,-3.9102688E-1,-2.0914654E-1,-2.6208547E-1,-5.115339E-1,7.3201936E-1,4.9502913E-2,2.8276827E0,2.5492747E0,-7.583836E-2,3.1673762E-1,-1.0909881E-1,1.4470837E-1,-2.388977E-1,6.406855E-1,-3.6425382E-1,3.9574862E-1,1.1758769E0,-3.0388293E-1,1.3629869E0,5.450917E-1,1.3158181E-1,-1.5036587E-1,3.186733E-1,-1.4928865E-1,1.1353742E0,2.6556328E-1,1.3134823E0,1.1552434E0,-3.0040383E-1,1.5515862E-2,-4.7088683E-1,-2.753961E-1,1.0470036E-1,2.4069859E-1,-3.050994E-1,-5.2300517E-2,-3.573064E-1,-2.2405353E-1,9.851828E-2,-3.5956228E-1,-4.3245947E-1,-5.588343E-1,5.754724E-1,6.335367E-1,1.3156507E0,2.6184177E-1,-1.7001374E-1,9.7748995E-2,1.8749899E-1,5.311865E-1,-6.422055E-2,-2.623744E-1,8.366618E-2,2.407538E-2,-1.533289E-1,-5.323074E-2,3.5384864E-1,5.635872E-1,-5.3659495E-2,-3.931232E-1,3.2787707E-1,6.639848E-1,3.9337265E-1,1.9799995E0,-3.400174E-2,-1.497734E-1,-8.641511E-2,5.1253873E-1,-3.8523436E-2,-8.219435E-2,1.1286626E-1,1.5199645E0,-1.2523799E-1,4.268639E-1,1.452981E0,1.9061685E-2,-4.0476245E-1,5.7769794E-2,-4.90677E-2,3.868867E-1,-1.9826625E-1,1.0239543E-1,-3.040583E-2,-3.7111497E-1,1.716158E-1,-2.448641E-1,1.2063455E-1,-4.361979E-2,-1.141438E-2,-1.679347E-1,-3.1056795E-1,-4.4723424E-1,-1.6710562E-1,-1.0479369E-1,-4.6762633E-1,-2.9205775E-2,-5.4667187E-1,-2.562717E-1,8.208711E-1,1.5706626E-1,-1.4778753E-1,-1.2602128E-1,1.580644E-1,-7.043825E-2,3.3815217E-1,-2.502346E-1,3.9534572E-1,2.9643026E-1,-3.351971E-2,3.5836168E-2,-2.1024373E-1,-9.796013E-2,6.4185363E-1,1.2696974E-1,-4.4476345E-1,-1.5898415E-1,5.2034694E-1,2.4381754E-1,4.8068258E-1,8.9784414E-1,-3.204298E-1,5.705932E-1,8.574075E-1,3.4872133E-1,2.2509213E-1,-3.5682356E-1,1.5367752E-1,2.4903548E-1,-1.497399E-2,1.1025833E-1,9.839264E-1,1.1254627E0,1.8989627E-1,6.470475E-1,-3.019757E-1,-2.2675617E-1,-2.129229E-2,4.749777E-2,-1.0240749E-1,3.069667E-1,8.492493E-1,1.662798E-1,-2.4695423E-1,5.0320923E-1,-3.583001E-1,-2.5803918E-1,2.027034E-1,2.910254E-2,1.3551745E-1,-1.05208226E-1,-3.9391473E-1,1.110062E-1,-2.437125E-1,-2.8668368E-1,-4.3887407E-1,-2.453976E-1,-5.969098E-1,-5.106438E-1,1.7330514E-1,4.803481E-1,7.717999E-3,1.2978263E-1,1.3756655E-1,-1.9021086E-1,6.488776E-2,1.1021365E-1,1.8272685E-1,1.00928284E-1,-1.1293798E-2,-1.8607043E-1,7.5624354E-2,2.2220726E-1,-2.2430817E-2,-5.0329585E-2,1.3039903E-1,2.79956E-1,8.7791435E-2,-2.4597619E-2,-2.1248984E-1,-1.6299449E-1,-1.339339E-1,-2.6237115E-2,1.8625438E-1,3.153565E-1,5.227324E-2,1.7058812E-1,1.04280494E-1,3.2824543E-1,5.270454E-1,1.1131807E-1,1.996971E-2,2.6855946E-1,1.07242465E-1,-7.011731E-2,-2.6667687E-1,8.300707E-3,2.3687974E-1,6.587755E-1,-1.4545889E-1,-4.441438E-3,1.0712413E-1,-4.748735E-2,1.7710872E-1,-9.000482E-3,1.9229864E-1,4.0778804E-1,-4.891899E-2,1.3977075E-1,1.0799625E-1,-1.2422818E-1,2.2983527E-1,9.9110544E-2,-1.3647E-1,-1.8391371E-1,9.295551E-2,2.8097033E-4,4.4529326E-3,1.3147847E-1,-3.1219123E-2,-1.5898754E-1,-1.3685401E-1,-2.2114359E-1,-1.3792692E-1,4.770226E-2,-2.0985606E-1,-1.39461E-1,-2.4264179E-1,-1.3694279E-1,-2.1131329E-1,-1.7405558E-1,-1.06651545E-1,-3.4851983E-2,7.209254E-2,-1.4394642E-3],"categories":[],"categories_nodes":[],"categories_segments":[],"categories_sizes":[],"default_left":[0,0,0,0,0,0,0,0,0,0,0,0,0,0,0,0,0,0,0,0,0,0,0,0,0,0,0,0,0,0,0,0,0,0,0,0,0,0,0,0,0,0,0,0,0,0,0,0,0,0,0,0,0,0,0,0,0,0,0,0,0,0,0,0,0,0,0,0,0,0,0,0,0,0,0,0,0,0,0,0,0,0,0,0,0,0,0,0,0,0,0,0,0,0,0,0,0,0,0,0,0,0,0,0,0,0,0,0,0,0,0,0,0,0,0,0,0,0,0,0,0,0,0,0,0,0,0,0,0,0,0,0,0,0,0,0,0,0,0,0,0,0,0,0,0,0,0,0,0,0,0,0,0,0,0,0,0,0,0,0,0,0,0,0,0,0,0,0,0,0,0,0,0,0,0,0,0,0,0,0,0,0,0,0,0,0,0,0,0,0,0,0,0,0,0,0,0,0,0,0,0,0,0,0,0,0,0,0,0,0,0,0,0,0,0,0,0,0,0,0,0,0,0,0,0,0,0,0,0,0,0,0,0,0,0,0,0,0,0,0,0,0,0,0,0,0,0,0,0,0,0,0,0,0,0,0,0,0,0,0,0,0,0,0,0,0,0,0,0,0,0,0,0,0,0,0,0,0,0,0,0],"id":1,"left_children":[1,3,5,7,9,11,13,15,17,19,21,23,25,27,29,31,33,-1,35,37,-1,39,41,43,45,47,49,51,53,55,57,59,61,63,65,67,69,71,-1,-1,-1,73,-1,75,77,79,81,83,85,-1,87,89,-1,91,-1,93,95,97,99,101,103,105,107,109,111,-1,-1,113,-1,-1,115,117,119,-1,121,123,125,127,129,131,133,-1,135,137,-1,-1,139,141,143,145,-1,-1,-1,147,149,151,153,155,157,-1,-1,-1,-1,-1,159,-1,161,163,165,167,169,-1,-1,171,173,-1,-1,175,177,-1,-1,179,-1,181,183,185,187,-1,-1,189,191,193,-1,-1,-1,195,-1,197,199,-1,-1,201,-1,203,-1,205,207,-1,209,211,-1,213,215,-1,217,-1,-1,-1,219,221,223,225,227,229,231,233,235,-1,237,-1,-1,239,241,-1,-1,-1,-1,-1,243,-1,-1,245,-1,-1,-1,247,249,251,253,255,257,259,-1,261,-1,263,265,267,-1,-1,269,271,-1,273,275,-1,-1,-1,-1,-1,277,279,-1,-1,-1,-1,-1,-1,-1,-1,-1,-1,-1,-1,-1,-1,-1,-1,-1,-1,-1,-1,-1,-1,-1,-1,-1,-1,-1,-1,-1,-1,-1,-1,-1,-1,-1,-1,-1,-1,-1,-1,-1,-1,-1,-1,-1,-1,-1,-1,-1,-1,-1,-1,-1,-1,-1,-1,-1,-1,-1,-1,-1,-1,-1,-1,-1,-1,-1,-1,-1],"loss_changes":[4.067442E2,3.0242242E2,8.7998215E1,5.355287E1,8.131839E1,7.768649E1,8.65326E1,4.5554184E1,2.0140411E1,1.80247E1,5.2014038E1,9.553581E0,5.702759E0,8.310983E1,1.5813168E0,1.4618912E1,2.5585114E1,0E0,5.979638E0,1.8475767E1,0E0,1.1283122E0,1.192511E1,7.919037E0,4.6385336E0,1.2399273E0,1.886261E0,5.2633095E-1,1.4608978E1,3.1240623E0,3.3826643E-1,2.1425705E1,4.7276936E1,1.1984276E1,2.5833054E0,6.758347E0,4.7608266E0,3.7971706E0,0E0,0E0,0E0,3.590335E1,0E0,1.1560284E1,2.0778427E0,4.5479774E-1,4.8542204E0,7.8637123E-1,3.7878654E0,0E0,3.2816467E0,2.1555977E0,0E0,7.8744583E0,0E0,6.3782954E-1,1.1198664E0,3.2708728E-1,2.0098105E-2,4.3804884E-1,3.789444E0,6.314907E-1,7.082741E0,2.250261E1,7.6265514E-2,0E0,0E0,9.594746E0,0E0,0E0,4.0286034E-3,6.906887E0,4.5087757E0,0E0,4.547552E0,7.4990845E0,6.638692E0,1.4056749E0,6.7423706E0,2.7913227E0,1.0763614E0,0E0,3.902263E0,4.7895813E-1,0E0,0E0,1.2340021E-1,4.478531E0,2.33078E-1,2.0272722E0,0E0,0E0,0E0,1.7280209E-1,2.590731E-1,1.99705E0,1.4242244E0,1.2796453E-1,4.245866E-1,0E0,0E0,0E0,0E0,0E0,5.932865E0,0E0,1.0295715E0,5.0827446E0,2.997776E0,4.6906977E0,1.393074E0,0E0,0E0,6.313648E0,3.540287E-1,0E0,0E0,1.571146E-1,2.0516167E0,0E0,0E0,1.0036583E0,0E0,2.411827E0,3.1765878E-1,4.5132647E0,4.0408025E0,0E0,0E0,9.599655E0,4.9565125E-1,1.4506388E-1,0E0,0E0,0E0,3.2528632E0,0E0,5.010804E0,1.0741329E0,0E0,0E0,1.093811E0,0E0,6.309509E-1,0E0,1.3944883E0,2.0129378E-1,0E0,7.290488E-1,1.1346641E-1,0E0,1.0880971E-1,3.6860222E-1,0E0,2.287904E-1,0E0,0E0,0E0,2.280347E-3,2.5031776E0,5.016645E-1,2.2037506E-2,2.7365E-1,1.055399E0,4.6144037E0,3.3006535E0,8.47562E0,0E0,9.112339E-1,0E0,0E0,6.497741E-1,4.6937847E0,0E0,0E0,0E0,0E0,0E0,2.0836086E0,0E0,0E0,1.7360001E0,0E0,0E0,0E0,1.2757406E0,1.3970087E0,3.2534218E-1,1.5754445E0,2.0241294E0,2.9521132E-1,1.907177E-1,0E0,2.336992E-1,0E0,2.2069678E0,1.112039E0,5.350952E-1,0E0,0E0,6.5468836E-1,1.9450226E0,0E0,3.1056213E-1,1.80336E-1,0E0,0E0,0E0,0E0,0E0,1.3431334E-1,6.3844346E-2,0E0,0E0,0E0,0E0,0E0,0E0,0E0,0E0,0E0,0E0,0E0,0E0,0E0,0E0,0E0,0E0,0E0,0E0,0E0,0E0,0E0,0E0,0E0,0E0,0E0,0E0,0E0,0E0,0E0,0E0,0E0,0E0,0E0,0E0,0E0,0E0,0E0,0E0,0E0,0E0,0E0,0E0,0E0,0E0,0E0,0E0,0E0,0E0,0E0,0E0,0E0,0E0,0E0,0E0,0E0,0E0,0E0,0E0,0E0,0E0,0E0,0E0,0E0,0E0,0E0,0E0,0E0,0E0,0E0],"parents":[2147483647,0,0,1,1,2,2,3,3,4,4,5,5,6,6,7,7,8,8,9,9,10,10,11,11,12,12,13,13,14,14,15,15,16,16,18,18,19,19,21,21,22,22,23,23,24,24,25,25,26,26,27,27,28,28,29,29,30,30,31,31,32,32,33,33,34,34,35,35,36,36,37,37,41,41,43,43,44,44,45,45,46,46,47,47,48,48,50,50,51,51,53,53,55,55,56,56,57,57,58,58,59,59,60,60,61,61,62,62,63,63,64,64,67,67,70,70,71,71,72,72,74,74,75,75,76,76,77,77,78,78,79,79,80,80,82,82,83,83,86,86,87,87,88,88,89,89,93,93,94,94,95,95,96,96,97,97,98,98,104,104,106,106,107,107,108,108,109,109,110,110,113,113,114,114,117,117,118,118,121,121,123,123,124,124,125,125,126,126,129,129,130,130,131,131,135,135,137,137,138,138,141,141,143,143,145,145,146,146,148,148,149,149,151,151,152,152,154,154,158,158,159,159,160,160,161,161,162,162,163,163,164,164,165,165,166,166,168,168,171,171,172,172,178,178,181,181,185,185,186,186,187,187,188,188,189,189,190,190,191,191,193,193,195,195,196,196,197,197,200,200,201,201,203,203,204,204,210,210,211,211],"right_children":[2,4,6,8,10,12,14,16,18,20,22,24,26,28,30,32,34,-1,36,38,-1,40,42,44,46,48,50,52,54,56,58,60,62,64,66,68,70,72,-1,-1,-1,74,-1,76,78,80,82,84,86,-1,88,90,-1,92,-1,94,96,98,100,102,104,106,108,110,112,-1,-1,114,-1,-1,116,118,120,-1,122,124,126,128,130,132,134,-1,136,138,-1,-1,140,142,144,146,-1,-1,-1,148,150,152,154,156,158,-1,-1,-1,-1,-1,160,-1,162,164,166,168,170,-1,-1,172,174,-1,-1,176,178,-1,-1,180,-1,182,184,186,188,-1,-1,190,192,194,-1,-1,-1,196,-1,198,200,-1,-1,202,-1,204,-1,206,208,-1,210,212,-1,214,216,-1,218,-1,-1,-1,220,222,224,226,228,230,232,234,236,-1,238,-1,-1,240,242,-1,-1,-1,-1,-1,244,-1,-1,246,-1,-1,-1,248,250,252,254,256,258,260,-1,262,-1,264,266,268,-1,-1,270,272,-1,274,276,-1,-1,-1,-1,-1,278,280,-1,-1,-1,-1,-1,-1,-1,-1,-1,-1,-1,-1,-1,-1,-1,-1,-1,-1,-1,-1,-1,-1,-1,-1,-1,-1,-1,-1,-1,-1,-1,-1,-1,-1,-1,-1,-1,-1,-1,-1,-1,-1,-1,-1,-1,-1,-1,-1,-1,-1,-1,-1,-1,-1,-1,-1,-1,-1,-1,-1,-1,-1,-1,-1,-1,-1,-1,-1,-1],"split_conditions":[-5.7857573E-1,1E0,1E0,-8.8640577E-1,1E0,-1.394383E-3,-2.515063E-1,1E0,-8.799926E-1,-7.6455635E-1,-1.4186952E0,-2.3226692E-1,3.898063E-1,1E0,9.5416135E-1,-1.1749964E0,-9.8901576E-1,-1.8935351E-1,-6.1705446E-1,-8.415139E-1,9.361995E-1,-1.5277183E0,-7.260776E-1,-3.1563756E-1,-1.3607003E-1,3.192619E-1,3.9621943E-1,-3.6052942E-1,-4.9520507E-1,4.4752443E-1,1.447972E0,-1.4186952E0,-1.149344E0,-1.1749964E0,-8.9281887E-1,-6.362938E-1,1E0,-8.9281887E-1,-4.331692E-1,-2.7143335E-1,6.0057696E-2,-8.8640577E-1,1.6025711E0,-5.593363E-1,-3.028113E-1,-1.6813566E-1,-1.296569E-1,1E0,3.3208817E-1,-2.6208547E-1,9.285089E-1,-3.9900818E-1,4.9502913E-2,-5.3368384E-1,2.5492747E0,1E0,8.707907E-1,1.1850339E0,1.550582E0,-1.5277183E0,-1.2904327E0,-1.1685833E0,-9.569501E-1,-1.2904327E0,-1.0852127E0,1.3629869E0,5.450917E-1,-7.004251E-1,-1.5036587E-1,3.186733E-1,-5.978151E-1,-1.0980389E0,-8.8640577E-1,1.3134823E0,-8.415139E-1,1E0,1E0,1E0,-2.515063E-1,1E0,1E0,-3.050994E-1,1E0,1.2686813E-1,-2.2405353E-1,9.851828E-2,3.641538E-1,9.0285635E-1,2.3778753E0,-5.3368384E-1,6.335367E-1,1.3156507E0,2.6184177E-1,-2.3226692E-1,3.9621943E-1,7.29702E-1,1E0,1.0760107E0,1.3517752E0,8.366618E-2,2.407538E-2,-1.533289E-1,-5.323074E-2,3.5384864E-1,1E0,-5.3659495E-2,1E0,-1.0980389E0,1E0,-1.5341314E0,-1.207062E0,-3.400174E-2,-1.497734E-1,-7.6455635E-1,-6.747726E-1,-3.8523436E-2,-8.219435E-2,-1.149344E0,-1.0210814E0,-1.2523799E-1,4.268639E-1,-8.799926E-1,1.9061685E-2,-5.6574947E-1,-5.6574947E-1,-3.6052942E-1,-5.080313E-1,-1.9826625E-1,1.0239543E-1,-2.8357193E-1,1E0,-1.8737504E-1,-2.448641E-1,1.2063455E-1,-4.361979E-2,-5.9112515E-2,-1.679347E-1,1.0121563E-1,2.2947815E-1,-1.6710562E-1,-1.0479369E-1,8.387251E-1,-2.9205775E-2,1.447972E0,-2.562717E-1,-5.593363E-1,-4.6313944E-1,-1.4778753E-1,-1.6813566E-1,2.8078315E-1,-7.043825E-2,1E0,7.7459383E-1,3.9534572E-1,9.0285635E-1,-3.351971E-2,3.5836168E-2,-2.1024373E-1,1E0,-1.2327145E0,-1.2006489E0,-1.1621702E0,-1.1621702E0,-1.104452E0,-9.761895E-1,-9.1205823E-1,-9.0564513E-1,-3.204298E-1,-1.4186952E0,8.574075E-1,3.4872133E-1,1E0,1E0,1.5367752E-1,2.4903548E-1,-1.497399E-2,1.1025833E-1,9.839264E-1,-9.248845E-1,1.8989627E-1,6.470475E-1,1E0,-2.2675617E-1,-2.129229E-2,4.749777E-2,-5.465101E-1,-3.220507E-1,-5.3368384E-1,-4.2466068E-1,-2.9639816E-1,1E0,1E0,-2.5803918E-1,1E0,2.910254E-2,-9.759127E-2,1E0,6.915E-2,1.110062E-1,-2.437125E-1,1E0,7.29702E-1,-2.453976E-1,1E0,2.313744E0,1.7330514E-1,4.803481E-1,7.717999E-3,1.2978263E-1,1.3756655E-1,1.0121563E-1,-5.9112515E-2,1.1021365E-1,1.8272685E-1,1.00928284E-1,-1.1293798E-2,-1.8607043E-1,7.5624354E-2,2.2220726E-1,-2.2430817E-2,-5.0329585E-2,1.3039903E-1,2.79956E-1,8.7791435E-2,-2.4597619E-2,-2.1248984E-1,-1.6299449E-1,-1.339339E-1,-2.6237115E-2,1.8625438E-1,3.153565E-1,5.227324E-2,1.7058812E-1,1.04280494E-1,3.2824543E-1,5.270454E-1,1.1131807E-1,1.996971E-2,2.6855946E-1,1.07242465E-1,-7.011731E-2,-2.6667687E-1,8.300707E-3,2.3687974E-1,6.587755E-1,-1.4545889E-1,-4.441438E-3,1.0712413E-1,-4.748735E-2,1.7710872E-1,-9.000482E-3,1.9229864E-1,4.0778804E-1,-4.891899E-2,1.3977075E-1,1.0799625E-1,-1.2422818E-1,2.2983527E-1,9.9110544E-2,-1.3647E-1,-1.8391371E-1,9.295551E-2,2.8097033E-4,4.4529326E-3,1.3147847E-1,-3.1219123E-2,-1.5898754E-1,-1.3685401E-1,-2.2114359E-1,-1.3792692E-1,4.770226E-2,-2.0985606E-1,-1.39461E-1,-2.4264179E-1,-1.3694279E-1,-2.1131329E-1,-1.7405558E-1,-1.06651545E-1,-3.4851983E-2,7.209254E-2,-1.4394642E-3],"split_indices":[3,0,0,3,1,3,3,1,3,3,3,3,3,1,3,3,3,0,3,3,0,3,3,3,3,3,3,3,3,3,3,3,3,3,3,3,2,3,0,0,0,3,0,3,3,3,3,2,3,0,3,3,0,3,0,1,3,3,3,3,3,3,3,3,3,0,0,3,0,0,3,3,3,0,3,1,2,2,3,1,2,0,2,3,0,0,3,3,3,3,0,0,0,3,3,3,1,3,3,0,0,0,0,0,2,0,2,3,2,3,3,0,0,3,3,0,0,3,3,0,0,3,0,3,3,3,3,0,0,3,2,3,0,0,0,3,0,3,3,0,0,3,0,3,0,3,3,0,3,3,0,1,3,0,3,0,0,0,1,3,3,3,3,3,3,3,3,0,3,0,0,1,2,0,0,0,0,0,3,0,0,2,0,0,0,3,3,3,3,3,2,1,0,2,0,3,1,3,0,0,1,3,0,1,3,0,0,0,0,0,3,3,0,0,0,0,0,0,0,0,0,0,0,0,0,0,0,0,0,0,0,0,0,0,0,0,0,0,0,0,0,0,0,0,0,0,0,0,0,0,0,0,0,0,0,0,0,0,0,0,0,0,0,0,0,0,0,0,0,0,0,0,0,0,0,0,0,0,0,0,0],"split_type":[0,0,0,0,0,0,0,0,0,0,0,0,0,0,0,0,0,0,0,0,0,0,0,0,0,0,0,0,0,0,0,0,0,0,0,0,0,0,0,0,0,0,0,0,0,0,0,0,0,0,0,0,0,0,0,0,0,0,0,0,0,0,0,0,0,0,0,0,0,0,0,0,0,0,0,0,0,0,0,0,0,0,0,0,0,0,0,0,0,0,0,0,0,0,0,0,0,0,0,0,0,0,0,0,0,0,0,0,0,0,0,0,0,0,0,0,0,0,0,0,0,0,0,0,0,0,0,0,0,0,0,0,0,0,0,0,0,0,0,0,0,0,0,0,0,0,0,0,0,0,0,0,0,0,0,0,0,0,0,0,0,0,0,0,0,0,0,0,0,0,0,0,0,0,0,0,0,0,0,0,0,0,0,0,0,0,0,0,0,0,0,0,0,0,0,0,0,0,0,0,0,0,0,0,0,0,0,0,0,0,0,0,0,0,0,0,0,0,0,0,0,0,0,0,0,0,0,0,0,0,0,0,0,0,0,0,0,0,0,0,0,0,0,0,0,0,0,0,0,0,0,0,0,0,0,0,0,0,0,0,0,0,0,0,0,0,0,0,0,0,0,0,0,0,0,0,0,0,0,0,0],"sum_hessian":[3.83E3,1.176E3,2.654E3,1.079E3,9.7E1,2.485E3,1.69E2,8.1E2,2.69E2,3.6E1,6.1E1,1.202E3,1.283E3,3.5E1,1.34E2,7.6E2,5E1,9.7E1,1.72E2,3E1,6E0,5E0,5.6E1,8.31E2,3.71E2,2.25E2,1.058E3,2.4E1,1.1E1,8E1,5.4E1,2.58E2,5.02E2,4.2E1,8E0,1.47E2,2.5E1,2.5E1,5E0,2E0,3E0,4.1E1,1.5E1,4.74E2,3.57E2,1.03E2,2.68E2,1.72E2,5.3E1,1.17E2,9.41E2,2.2E1,2E0,9E0,2E0,3.7E1,4.3E1,4.9E1,5E0,3.1E1,2.27E2,1.02E2,4E2,3.6E1,6E0,5E0,3E0,1.14E2,3.3E1,1.8E1,7E0,1.7E1,8E0,2.8E1,1.3E1,1.99E2,2.75E2,7E1,2.87E2,5.5E1,4.8E1,9E0,2.59E2,1.46E2,2.6E1,1.3E1,4E1,3.56E2,5.85E2,2E1,2E0,7E0,2E0,2.4E1,1.3E1,2.8E1,1.5E1,3.9E1,1E1,2E0,3E0,1.2E1,1.9E1,5.2E1,1.75E2,1.2E1,9E1,3.21E2,7.9E1,1.9E1,1.7E1,2E0,4E0,7.3E1,4.1E1,5E0,2E0,5E0,1.2E1,5E0,3E0,1E1,3E0,1.54E2,4.5E1,2.35E2,4E1,6.8E1,2E0,8.1E1,2.06E2,5.1E1,4E0,4.1E1,7E0,2.34E2,2.5E1,9.9E1,4.7E1,2.3E1,1.7E1,3.24E2,3.2E1,5.16E2,6.9E1,1.2E1,8E0,3E0,2.1E1,1.1E1,2E0,2.1E1,7E0,4E0,1.1E1,3.5E1,4E0,3E0,7E0,1.48E2,2.7E1,7.3E1,1.7E1,9.6E1,2.25E2,4.6E1,3.3E1,2E0,1.7E1,1.4E1,3E0,3.4E1,3.9E1,2.1E1,2E1,3E0,2E0,2E0,1E1,2E0,8E0,9.6E1,5.8E1,1.6E1,2.9E1,2.05E2,3E1,1.2E1,2.8E1,5.8E1,2.3E1,1.99E2,7E0,3.8E1,1.3E1,9.1E1,1.43E2,8.7E1,1.2E1,2.2E1,2.5E1,2.74E2,5E1,2.09E2,3.07E2,7E0,5E0,5E0,3E0,2E0,1.9E1,7E0,4E0,7E0,1.4E1,4E0,3E0,9E0,2E0,4E0,3E0,2.4E1,1.24E2,1.8E1,9E0,1.8E1,5.5E1,5E0,1.2E1,8.2E1,1.4E1,1.4E2,8.5E1,2.9E1,1.7E1,1.9E1,1.4E1,3E0,1.4E1,3.1E1,3E0,2.1E1,1.8E1,6E0,4E0,7.9E1,1.7E1,8E0,1.97E2,2.1E1,9E0,5E0,7E0,1.1E1,1.7E1,6E0,5.2E1,1.7E1,6E0,1.74E2,2.5E1,3.3E1,5E0,5.6E1,3.5E1,1.32E2,1.1E1,6.8E1,1.9E1,2.2E1,3E0,1.38E2,1.36E2,2E2,9E0,2.44E2,6.3E1,1E1,9E0,2E0,5E0],"tree_param":{"num_deleted":"0","num_feature":"5","num_nodes":"281","size_leaf_vector":"0"}},{"base_weights":[-3.3250175E-2,-9.2015155E-2,7.4773115E-1,3.1052075E-2,-2.9554787E-1,1.7671337E0,1.2201404E-1,4.8715743E-1,-2.0999158E-2,-1.7486922E-1,-3.1811446E-1,1.0118294E0,3.4113455E0,-2.669123E-2,2.49769E-1,4.1056913E-1,1.1274332E0,-4.973697E-2,1.2922959E-1,-2.3487562E-1,-1.1210229E-2,-1.6259418E-1,-3.103506E-1,2.8124514E-1,1.5573627E0,4.8822937E0,1.4187847E0,-7.327028E-1,1.1069447E-1,7.85679E-1,1.06864095E-1,4.5063746E-1,1.3398432E-2,1.638581E0,4.7973686E-1,9.627826E-2,-8.758796E-2,-1.6390087E-1,1.8159865E-1,-2.139928E-1,-1.977968E-1,1.7128915E-1,-1.3256508E-1,-2.645057E-1,-3.4006545E-1,8.925939E-1,-5.6853145E-1,2.1694434E0,5.656345E-1,7.9641265E-1,2.226461E0,3.39924E-1,8.522448E-1,7.88222E-2,-8.187629E-1,3.584182E-1,-1.0981018E-2,4.712619E-1,7.38771E-1,-7.276528E-2,3.150497E-1,2.8839493E-1,5.1728284E-1,1.23706244E-1,-5.4196876E-2,2.9690775E-1,7.8178704E-1,2.9241434E-1,-8.224803E-2,-1.9748783E-1,2.037694E-1,-2.3483402E-1,-6.9874965E-2,2.82476E-1,6.870172E-2,-1.6397795E-1,-1.2590969E-1,8.789911E-2,-9.64682E-2,-1.6801707E-1,7.7222034E-2,-2.764902E-1,-2.4204498E-2,-3.8644093E-1,-3.2796493E-1,3.9862856E-1,6.087871E-1,7.141308E-2,-3.154026E-1,1.4451494E0,2.6353066E0,-1.8844277E-2,2.6018983E-1,-1.08652234E-1,2.9932034E-1,-1.4957614E-1,2.2890969E-1,1.0677924E0,-1.1134986E-1,-1.734208E-1,7.3616944E-2,1.8610913E-1,8.6797774E-4,-1.8540362E-2,3.1453332E-1,4.1699973E-1,4.7037673E-1,-8.245528E-2,-1.02211826E-1,2.0917943E-1,1.7743254E-1,-6.668843E-2,-2.9235455E-1,4.4922873E-1,-8.263828E-2,1.404343E-1,7.520475E-1,-1.6084033E-1,3.3198193E-1,-3.2638752E-1,-6.083586E-2,-7.773042E-2,2.8521825E-2,-2.9953435E-1,-1.8085752E-1,2.7194613E-1,-1.3409948E-1,-1.5650609E-1,-7.657608E-2,-3.39952E-1,-2.3893091E-1,1.3867252E-1,6.354725E-1,8.723945E-1,6.079823E-1,1.8040676E0,5.7373786E-1,2.2670595E-1,9.56274E-3,-1.6017558E-1,-9.943211E-2,2.5743857E-1,1.5526119E-1,5.5943245E-1,5.89603E-1,-2.1506743E-1,6.710977E-2,-1.1030887E-1,-2.3137389E-1,5.5885043E-2,9.9454485E-3,2.3598058E-2,-3.6923632E-2,3.418825E-1,8.163335E-2,2.3574126E-1,3.718753E-1,-2.5915903E-1,8.373279E-2,9.871175E-2,2.1973017E-1,-2.1794933E-1,8.327351E-2,-1.0763661E-1,-1.3628246E-1,5.128219E-1,-1.0914117E-1,-2.0851001E-1,-5.7661973E-2,3.4550667E-1,-7.381441E-2,4.155286E-1,4.0756115E-1,-1.2472355E-1,-1.05047144E-1,3.9325866E-1,-9.97995E-2,-6.4732134E-2,-5.788904E-1,1.800584E-1,-1.855701E-1,-2.7309433E-1,-1.5536572E-1,-8.280504E-3,-2.817584E-1,-1.7549169E-1,6.034645E-3,-3.321189E-1,-1.6719465E-1,-6.4768486E-2,-2.5185892E-1,-1.0666024E-1,1.4165275E-1,3.309855E-1,6.706404E-2,4.8487473E-1,-5.9287142E-2,5.451807E-2,-1.3664605E-1,-3.7777122E-2,2.2358987E-1,7.734159E-2,3.1572708E-1,7.5971545E-3,-1.5814435E-1,-2.2986937E-1,-6.1622296E-2,1.16072826E-1,2.2061773E-1,7.564876E-2,1.8524541E-1,-1.4857237E-1,6.9758855E-2,8.655515E-2,4.804282E-3,8.440772E-2,2.351352E-1,-4.434782E-2,-1.0850095E-1,1.3901833E-1,2.76182E-1,-6.089315E-2,-2.146865E-1,-3.4146085E-2,6.589885E-2,1.00086205E-1,2.3321179E-1,9.794857E-3,-1.14891045E-1,2.0808974E-1,1.0616328E-1,5.954031E-1,-7.602335E-2,2.5954598E-1,1.3059574E-1,-3.276326E-1,8.9088514E-2,-1.7097948E-1,-3.185136E-1,4.2689927E-2,1.0965055E-1,-9.5926784E-2,-1.8444179E-2,-1.3420878E-1,-8.799883E-2,-1.3537647E-1,-5.2285906E-2,-3.3273783E-2,5.5543013E-2,-1.3721251E-1,-1.1785679E-1,-1.1491888E-1,-8.283703E-2,-1.4860521E-1,-2.8894294E-2,1.0662683E-1,1.1206582E-2,-4.7041193E-2,-1.21173896E-1,5.5343714E-2,-5.3519245E-2],"categories":[],"categories_nodes":[],"categories_segments":[],"categories_sizes":[],"default_left":[0,0,0,0,0,0,0,0,0,0,0,0,0,0,0,0,0,0,0,0,0,0,0,0,0,0,0,0,0,0,0,0,0,0,0,0,0,0,0,0,0,0,0,0,0,0,0,0,0,0,0,0,0,0,0,0,0,0,0,0,0,0,0,0,0,0,0,0,0,0,0,0,0,0,0,0,0,0,0,0,0,0,0,0,0,0,0,0,0,0,0,0,0,0,0,0,0,0,0,0,0,0,0,0,0,0,0,0,0,0,0,0,0,0,0,0,0,0,0,0,0,0,0,0,0,0,0,0,0,0,0,0,0,0,0,0,0,0,0,0,0,0,0,0,0,0,0,0,0,0,0,0,0,0,0,0,0,0,0,0,0,0,0,0,0,0,0,0,0,0,0,0,0,0,0,0,0,0,0,0,0,0,0,0,0,0,0,0,0,0,0,0,0,0,0,0,0,0,0,0,0,0,0,0,0,0,0,0,0,0,0,0,0,0,0,0,0,0,0,0,0,0,0,0,0,0,0,0,0,0,0,0,0,0,0,0,0,0,0,0,0,0,0,0,0,0,0,0,0,0,0,0,0,0,0,0,0,0,0,0,0],"id":2,"left_children":[1,3,5,7,9,11,13,15,17,19,21,23,25,27,29,31,33,35,37,39,41,-1,43,45,47,49,51,53,55,57,59,61,63,65,67,69,71,-1,73,75,-1,77,79,81,83,85,87,89,91,-1,-1,-1,-1,93,-1,-1,95,97,-1,99,101,103,105,-1,-1,-1,-1,-1,-1,107,109,111,113,115,117,119,-1,-1,-1,121,-1,123,125,127,129,131,-1,-1,-1,133,135,-1,-1,-1,137,139,141,143,145,147,149,-1,151,-1,153,-1,155,157,-1,-1,159,161,163,165,167,169,171,173,175,177,179,-1,-1,181,183,-1,185,-1,-1,187,189,191,193,-1,195,-1,-1,-1,-1,-1,197,-1,199,-1,201,203,-1,205,-1,-1,-1,-1,-1,207,-1,-1,209,211,-1,213,215,217,-1,-1,-1,219,-1,221,223,225,227,-1,229,-1,231,233,235,-1,237,239,241,243,-1,-1,245,-1,247,249,-1,-1,251,-1,-1,-1,-1,-1,-1,-1,253,-1,255,-1,-1,-1,-1,257,259,-1,-1,-1,-1,-1,-1,-1,-1,-1,-1,-1,-1,-1,-1,-1,-1,-1,-1,-1,-1,-1,-1,-1,-1,-1,-1,-1,-1,-1,-1,-1,-1,-1,-1,-1,-1,-1,-1,-1,-1,-1,-1,-1,-1,-1,-1,-1,-1,-1,-1,-1,-1,-1,-1],"loss_changes":[1.7772585E2,9.020777E1,1.7264378E2,5.3308426E1,3.6399002E0,1.24461975E2,3.2173007E0,1.0815762E1,8.709995E0,2.1186137E0,6.573715E-1,2.8258171E1,8.6863556E1,7.7437816E0,6.8851976E0,3.2881546E0,7.1595573E0,9.365341E0,9.219624E0,7.5078297E-1,1.3293909E0,0E0,1.3458862E0,1.7131784E1,2.3660614E1,2.4507477E1,4.264559E0,1.4025969E1,6.4122233E0,5.469433E0,2.7528512E0,1.883606E0,9.229401E-1,2.2299843E0,2.2170694E0,1.1060703E1,3.4915771E0,0E0,3.3516617E0,6.9438744E-1,0E0,5.3269017E-1,4.4801623E-1,1.1999817E0,2.3016357E-1,5.300188E0,2.4414706E0,4.627136E0,9.1439486E-1,0E0,0E0,0E0,0E0,7.767723E-1,0E0,0E0,1.9958525E0,5.6796293E0,0E0,6.0213387E-1,1.604306E0,5.133128E-1,2.7615662E0,0E0,0E0,0E0,0E0,0E0,0E0,6.0653853E-1,2.0591936E0,1.3732471E0,8.000956E0,1.029939E1,8.5745735E0,1.6720216E0,0E0,0E0,0E0,2.216345E-1,0E0,8.2513046E-1,1.7160182E0,4.3628693E-2,4.6414185E-1,6.5070546E-1,0E0,0E0,0E0,6.0662193E0,2.5053802E1,0E0,0E0,0E0,4.2839748E-1,4.3819582E-1,5.719776E-1,4.4082928E-1,2.9663363E-1,5.496626E-1,5.1306747E-2,0E0,7.043921E-2,0E0,9.032488E-2,0E0,1.2223148E0,1.755727E0,0E0,0E0,7.7077866E-1,1.6253152E0,2.8672218E-2,1.47159E0,3.678811E0,5.341819E0,3.133047E0,6.0739446E-1,1.7854857E0,1.5268135E0,1.9264226E0,0E0,0E0,6.459236E-1,1.2869599E0,0E0,8.1373906E-1,0E0,0E0,1.3502121E-1,2.2935867E-2,7.057441E-1,4.0016246E-1,0E0,3.377965E0,0E0,0E0,0E0,0E0,0E0,3.0811146E-1,0E0,3.623553E-1,0E0,2.4306595E-1,3.0290583E-1,0E0,1.1389673E-1,0E0,0E0,0E0,0E0,0E0,2.8437567E-1,0E0,0E0,1.0796013E0,1.0869758E0,0E0,8.6462575E-1,3.6976242E-1,1.1261833E-1,0E0,0E0,0E0,5.527148E-1,0E0,3.5015726E0,6.058449E0,1.2574139E0,1.2657642E0,0E0,1.5020561E-1,0E0,8.004696E0,7.7801895E-1,2.2702773E0,0E0,1.5346575E-1,1.2250751E-1,3.0668223E-1,7.5486946E-1,0E0,0E0,3.7527776E-1,0E0,1.7745553E-1,6.742096E-2,0E0,0E0,2.4584293E-2,0E0,0E0,0E0,0E0,0E0,0E0,0E0,4.1187125E-1,0E0,1.2701494E-1,0E0,0E0,0E0,0E0,1.3590664E-2,2.6388735E-1,0E0,0E0,0E0,0E0,0E0,0E0,0E0,0E0,0E0,0E0,0E0,0E0,0E0,0E0,0E0,0E0,0E0,0E0,0E0,0E0,0E0,0E0,0E0,0E0,0E0,0E0,0E0,0E0,0E0,0E0,0E0,0E0,0E0,0E0,0E0,0E0,0E0,0E0,0E0,0E0,0E0,0E0,0E0,0E0,0E0,0E0,0E0,0E0,0E0,0E0,0E0,0E0,0E0,0E0],"parents":[2147483647,0,0,1,1,2,2,3,3,4,4,5,5,6,6,7,7,8,8,9,9,10,10,11,11,12,12,13,13,14,14,15,15,16,16,17,17,18,18,19,19,20,20,22,22,23,23,24,24,25,25,26,26,27,27,28,28,29,29,30,30,31,31,32,32,33,33,34,34,35,35,36,36,38,38,39,39,41,41,42,42,43,43,44,44,45,45,46,46,47,47,48,48,53,53,56,56,57,57,59,59,60,60,61,61,62,62,69,69,70,70,71,71,72,72,73,73,74,74,75,75,79,79,81,81,82,82,83,83,84,84,85,85,89,89,90,90,94,94,95,95,96,96,97,97,98,98,99,99,100,100,102,102,104,104,106,106,107,107,110,110,111,111,112,112,113,113,114,114,115,115,116,116,117,117,118,118,119,119,120,120,123,123,124,124,126,126,129,129,130,130,131,131,132,132,134,134,140,140,142,142,144,144,145,145,147,147,153,153,156,156,157,157,159,159,160,160,161,161,165,165,167,167,168,168,169,169,170,170,172,172,174,174,175,175,176,176,178,178,179,179,180,180,181,181,184,184,186,186,187,187,190,190,198,198,200,200,205,205,206,206],"right_children":[2,4,6,8,10,12,14,16,18,20,22,24,26,28,30,32,34,36,38,40,42,-1,44,46,48,50,52,54,56,58,60,62,64,66,68,70,72,-1,74,76,-1,78,80,82,84,86,88,90,92,-1,-1,-1,-1,94,-1,-1,96,98,-1,100,102,104,106,-1,-1,-1,-1,-1,-1,108,110,112,114,116,118,120,-1,-1,-1,122,-1,124,126,128,130,132,-1,-1,-1,134,136,-1,-1,-1,138,140,142,144,146,148,150,-1,152,-1,154,-1,156,158,-1,-1,160,162,164,166,168,170,172,174,176,178,180,-1,-1,182,184,-1,186,-1,-1,188,190,192,194,-1,196,-1,-1,-1,-1,-1,198,-1,200,-1,202,204,-1,206,-1,-1,-1,-1,-1,208,-1,-1,210,212,-1,214,216,218,-1,-1,-1,220,-1,222,224,226,228,-1,230,-1,232,234,236,-1,238,240,242,244,-1,-1,246,-1,248,250,-1,-1,252,-1,-1,-1,-1,-1,-1,-1,254,-1,256,-1,-1,-1,-1,258,260,-1,-1,-1,-1,-1,-1,-1,-1,-1,-1,-1,-1,-1,-1,-1,-1,-1,-1,-1,-1,-1,-1,-1,-1,-1,-1,-1,-1,-1,-1,-1,-1,-1,-1,-1,-1,-1,-1,-1,-1,-1,-1,-1,-1,-1,-1,-1,-1,-1,-1,-1,-1,-1,-1],"split_conditions":[1E0,-1.05867736E-1,-1.7328106E-1,-1.2518942E0,2.3732737E-1,-3.3875012E-1,1E0,1E0,1E0,1.7604253E-1,2.4345584E-1,-6.145319E-1,-2.2230893E-1,-7.5225316E-2,6.2955034E-1,1E0,-1.300922E0,-1.0373973E0,-1.159967E0,1E0,1.8829949E-1,-1.6259418E-1,8.5017574E-1,-6.2066036E-1,-3.8777798E-1,1E0,1E0,-8.748228E-2,-1.3940475E-2,4.211819E-1,2.0758724E0,-1.3070506E0,-1.300922E0,-1.313179E0,-1.2702796E0,-1.2151233E0,-8.2290035E-1,-1.6390087E-1,-6.758167E-1,-1.3940475E-2,-1.977968E-1,1E0,1E0,1E0,8.563042E-1,-1.0496542E0,1E0,-5.4711854E-1,1E0,7.9641265E-1,2.226461E0,3.39924E-1,8.522448E-1,-1.3651015E-1,-8.187629E-1,3.584182E-1,1.7265489E0,-3.2325927E-2,7.38771E-1,1.8307332E0,2.1371574E0,-1.4480057E0,-1.300922E0,1.23706244E-1,-5.4196876E-2,2.9690775E-1,7.8178704E-1,2.9241434E-1,-8.224803E-2,-1.2396373E0,-1.2028663E0,-9.822409E-1,-7.4323004E-1,-7.80001E-1,-3.3875012E-1,-7.5225316E-2,-1.2590969E-1,8.789911E-2,-9.64682E-2,2.3119888E-1,7.7222034E-2,7.2760606E-1,3.1086916E-1,1E0,1E0,1E0,6.087871E-1,7.141308E-2,-3.154026E-1,-5.90018E-1,-4.3680587E-1,-1.8844277E-2,2.6018983E-1,-1.08652234E-1,-1.05867736E-1,2.4345584E-1,2.0145876E0,-1.3651015E-1,2.4345584E-1,1.7265489E0,2.0145876E0,1.8610913E-1,2.3822968E0,-1.8540362E-2,-1.313179E0,4.1699973E-1,-1.2764082E0,-1.2457657E0,-1.02211826E-1,2.0917943E-1,-1.1170676E0,-9.944979E-1,-8.780567E-1,1E0,-6.2066036E-1,-1.0373973E0,-7.4323004E-1,-6.145319E-1,-1.7328106E-1,-8.748228E-2,-6.9096826E-2,-7.773042E-2,2.8521825E-2,6.2955034E-1,7.5212E-1,2.7194613E-1,5.74394E-1,-1.5650609E-1,-7.657608E-2,2.3822968E0,1.0340303E0,-1.1844809E0,-1.300922E0,8.723945E-1,1E0,1.8040676E0,5.7373786E-1,2.2670595E-1,9.56274E-3,-1.6017558E-1,4.211819E-1,2.5743857E-1,2.0758724E0,5.5943245E-1,-1.05867736E-1,2.0668495E-1,6.710977E-2,1.0340303E0,-2.3137389E-1,5.5885043E-2,9.9454485E-3,2.3598058E-2,-3.6923632E-2,-1.3193076E0,8.163335E-2,2.3574126E-1,-1.2641512E0,1E0,8.373279E-2,-1.1722239E0,1E0,-1.0190119E0,8.327351E-2,-1.0763661E-1,-1.3628246E-1,-7.738725E-1,-1.0914117E-1,1E0,1E0,-1.0557828E0,-8.780567E-1,4.155286E-1,-6.880737E-1,-1.2472355E-1,-5.90018E-1,-2.9585072E-1,-1.3651015E-1,-6.4732134E-2,1E0,1E0,-3.2325927E-2,5.74394E-1,-1.5536572E-1,-8.280504E-3,1E0,-1.7549169E-1,7.0922065E-1,2.0758724E0,-1.6719465E-1,-6.4768486E-2,1.8307332E0,-1.0666024E-1,1.4165275E-1,3.309855E-1,6.706404E-2,4.8487473E-1,-5.9287142E-2,5.451807E-2,5.3762305E-1,-3.7777122E-2,2.1371574E0,7.734159E-2,3.1572708E-1,7.5971545E-3,-1.5814435E-1,7.2760606E-1,1.6468786E0,1.16072826E-1,2.2061773E-1,7.564876E-2,1.8524541E-1,-1.4857237E-1,6.9758855E-2,8.655515E-2,4.804282E-3,8.440772E-2,2.351352E-1,-4.434782E-2,-1.0850095E-1,1.3901833E-1,2.76182E-1,-6.089315E-2,-2.146865E-1,-3.4146085E-2,6.589885E-2,1.00086205E-1,2.3321179E-1,9.794857E-3,-1.14891045E-1,2.0808974E-1,1.0616328E-1,5.954031E-1,-7.602335E-2,2.5954598E-1,1.3059574E-1,-3.276326E-1,8.9088514E-2,-1.7097948E-1,-3.185136E-1,4.2689927E-2,1.0965055E-1,-9.5926784E-2,-1.8444179E-2,-1.3420878E-1,-8.799883E-2,-1.3537647E-1,-5.2285906E-2,-3.3273783E-2,5.5543013E-2,-1.3721251E-1,-1.1785679E-1,-1.1491888E-1,-8.283703E-2,-1.4860521E-1,-2.8894294E-2,1.0662683E-1,1.1206582E-2,-4.7041193E-2,-1.21173896E-1,5.5343714E-2,-5.3519245E-2],"split_indices":[0,4,4,4,4,4,1,1,2,4,4,4,4,4,4,2,4,4,4,1,4,0,4,4,4,1,1,4,4,4,4,4,4,4,4,4,4,0,4,4,0,1,2,1,4,4,1,4,1,0,0,0,0,4,0,0,4,4,0,4,4,4,4,0,0,0,0,0,0,4,4,4,4,4,4,4,0,0,0,4,0,4,4,1,2,1,0,0,0,4,4,0,0,0,4,4,4,4,4,4,4,0,4,0,4,0,4,4,0,0,4,4,4,1,4,4,4,4,4,4,4,0,0,4,4,0,4,0,0,4,4,4,4,0,1,0,0,0,0,0,4,0,4,0,4,4,0,4,0,0,0,0,0,4,0,0,4,1,0,4,1,4,0,0,0,4,0,1,1,4,4,0,4,0,4,4,4,0,2,2,4,4,0,0,2,0,4,4,0,0,4,0,0,0,0,0,0,0,4,0,4,0,0,0,0,4,4,0,0,0,0,0,0,0,0,0,0,0,0,0,0,0,0,0,0,0,0,0,0,0,0,0,0,0,0,0,0,0,0,0,0,0,0,0,0,0,0,0,0,0,0,0,0,0,0,0,0,0,0,0,0],"split_type":[0,0,0,0,0,0,0,0,0,0,0,0,0,0,0,0,0,0,0,0,0,0,0,0,0,0,0,0,0,0,0,0,0,0,0,0,0,0,0,0,0,0,0,0,0,0,0,0,0,0,0,0,0,0,0,0,0,0,0,0,0,0,0,0,0,0,0,0,0,0,0,0,0,0,0,0,0,0,0,0,0,0,0,0,0,0,0,0,0,0,0,0,0,0,0,0,0,0,0,0,0,0,0,0,0,0,0,0,0,0,0,0,0,0,0,0,0,0,0,0,0,0,0,0,0,0,0,0,0,0,0,0,0,0,0,0,0,0,0,0,0,0,0,0,0,0,0,0,0,0,0,0,0,0,0,0,0,0,0,0,0,0,0,0,0,0,0,0,0,0,0,0,0,0,0,0,0,0,0,0,0,0,0,0,0,0,0,0,0,0,0,0,0,0,0,0,0,0,0,0,0,0,0,0,0,0,0,0,0,0,0,0,0,0,0,0,0,0,0,0,0,0,0,0,0,0,0,0,0,0,0,0,0,0,0,0,0,0,0,0,0,0,0,0,0,0,0,0,0,0,0,0,0,0,0,0,0,0,0,0,0],"sum_hessian":[3.87E3,3.6E3,2.7E2,2.244E3,1.356E3,1.02E2,1.68E2,2.29E2,2.015E3,2.15E2,1.141E3,7.1E1,3.1E1,7.8E1,9E1,2.06E2,2.3E1,1.692E3,3.23E2,1.57E2,5.8E1,8.8E1,1.053E3,3.1E1,4E1,1.7E1,1.4E1,1.2E1,6.6E1,1.8E1,7.2E1,1.87E2,1.9E1,1.2E1,1.1E1,3.48E2,1.344E3,2.8E1,2.95E2,1.47E2,1E1,2.3E1,3.5E1,4.18E2,6.35E2,1.8E1,1.3E1,2.4E1,1.6E1,4E0,1.3E1,9E0,5E0,8E0,4E0,8E0,5.8E1,1.5E1,3E0,3.9E1,3.3E1,5.6E1,1.31E2,6E0,1.3E1,4E0,8E0,8E0,3E0,9.3E1,2.55E2,1.43E2,1.201E3,1.55E2,1.4E2,1E2,4.7E1,2.1E1,2E0,3.2E1,3E0,3.98E2,2E1,1.25E2,5.1E2,1.1E1,7E0,3E0,1E1,1.1E1,1.3E1,2E0,1.4E1,3E0,5E0,3.7E1,2.1E1,7E0,8E0,2.3E1,1.6E1,2.2E1,1.1E1,4E0,5.2E1,9E0,1.22E2,3.2E1,6.1E1,1.8E1,2.37E2,3.7E1,1.06E2,2.8E1,1.173E3,1.2E2,3.5E1,7.5E1,6.5E1,3.8E1,6.2E1,2.9E1,3E0,3.19E2,7.9E1,2E0,1.8E1,1.21E2,4E0,4.47E2,6.3E1,6E0,5E0,5E0,6E0,4E0,9E0,2E0,3E0,5E0,3.2E1,2E0,1.9E1,3E0,4E0,6E0,2E0,2.1E1,2E0,6E0,1E1,7E0,4E0,4E1,1.2E1,5.3E1,6.9E1,2E1,1.2E1,8.4E1,1.53E2,2.4E1,1.3E1,7.6E1,3E1,2.6E1,2E0,1.93E2,9.8E2,6.1E1,5.9E1,1.8E1,1.7E1,1.9E1,5.6E1,5.7E1,8E0,2.4E1,1.4E1,2.1E1,4.1E1,2.49E2,7E1,3.1E1,4.8E1,5E0,1.3E1,4.11E2,3.6E1,1.1E1,5.2E1,2E0,4E0,3E0,2E0,3E0,3E0,4E0,2.8E1,4E0,1.5E1,2E0,2E0,3E0,3E0,5E0,1.6E1,3.4E1,6E0,2.4E1,4.5E1,1.6E1,4E0,3.5E1,4.9E1,1.51E2,2E0,9E0,1.5E1,1.5E1,1.1E1,1.66E2,2.7E1,8.72E2,1.08E2,4.5E1,1.6E1,4.1E1,1.8E1,8E0,9E0,2E0,5.4E1,1E1,4.7E1,2E0,6E0,1E1,4E0,1.3E1,8E0,2.9E1,1.2E1,1.12E2,1.37E2,3.4E1,1.4E1,8E0,5E0,3.12E2,9.9E1,2.6E1,2.6E1,5E0,2.3E1,1.2E1,3E0,3E0,2E0,4E0,1.2E1],"tree_param":{"num_deleted":"0","num_feature":"5","num_nodes":"261","size_leaf_vector":"0"}},{"base_weights":[-1.0291027E-2,1.3207528E-1,-1.3670413E-1,6.499145E-2,7.6195276E-1,-6.744008E-2,-1.7641254E-1,1.8833633E-1,-6.307715E-2,2.849754E-1,1.7825272E0,-1.7612316E-1,-1.6746432E-2,-1.9137274E-1,-3.9986037E-2,1.1200051E-1,1.4665928E0,-1.508621E-1,3.9680194E-2,7.7545536E-1,1.4011481E-1,3.0687122E0,9.1002995E-1,-1.4652015E-1,-2.229421E-1,4.725078E-1,-4.172224E-2,-2.4953093E-1,-1.8003248E-1,-1.4862294E-1,1.08350635E-1,3.520242E-1,1.719928E-2,8.915565E-1,3.162927E0,-1.3864E-1,-3.3647004E-1,4.3905735E-1,6.8836403E-3,1.2195584E0,1.5570524E-1,2.2093123E-1,-5.663947E-2,1.6905901E0,2.0311291E0,6.268827E-1,1.8721653E0,-1.7560928E-1,2.2079721E-1,-3.4310747E-2,-2.1010058E-1,-2.6198065E-1,-1.3024749E-1,-1.6338804E-1,-2.2507085E-1,1.2941682E-1,-2.2406179E-1,1.7176709E-1,-1.0793511E-1,4.9944875E-1,2.510123E-1,-1.8352833E-1,1.1974561E-1,4.16186E-1,5.595217E-1,3.4328267E-1,1.5679685E0,-7.942944E-2,-1.9171639E-1,-2.4952169E-1,-2.5203472E-1,-2.9130802E-1,6.6160494E-1,-4.880255E-1,3.8688462E-2,6.55165E-1,1.3652319E0,-2.8918478E-1,2.595171E-1,-1.4033386E-1,2.6489618E-1,-1.8442759E-1,1.790431E-1,2.6589653E0,-1.8497456E-2,1.4070985E0,1.5860258E-1,1.1853304E0,1.2518528E-1,-6.0811736E-2,-1.4250658E-1,3.3879706E-1,-1.6138713E-1,4.4186118E-1,-3.9456688E-2,-1.1590346E-1,-8.05453E-2,-1.6745111E-1,-2.6775795E-1,2.5017668E-2,-2.7248788E-1,-1.72613E-1,-9.746545E-2,-9.825836E-2,-2.052729E-1,-9.5351085E-2,3.739313E-1,-2.8889863E-2,-2.5080806E-1,3.5190873E-2,2.9549566E-1,3.565104E-1,9.5331967E-1,1.5249252E-1,3.5180297E-1,-1.9316848E-1,2.0022276E-1,-4.5792818E-1,1.33579E-1,3.5388517E-1,3.2710525E-1,-1.1978454E-1,3.061148E-1,-2.767323E-1,-7.906554E-2,-1.1212231E-1,-5.3855814E-2,2.4489552E-2,-2.2840516E-1,-3.220775E-2,9.4127727E-1,-2.9180592E-1,-6.010671E-1,7.4590904E-1,1.484747E-2,-6.1260384E-2,4.9803707E-1,6.975867E-1,8.996738E-1,2.0739174E-2,-4.3596748E-1,3.211445E-1,-8.952685E-2,3.324337E-2,-2.4899383E-1,-2.5580522E-1,2.6602098E-1,6.5992177E-1,1.5041023E0,7.3398095E-1,-8.115116E-2,4.488899E-1,-4.9678707E-1,2.0672002E-1,3.4786183E-2,-1.3555595E-1,4.3013006E-1,-1.2663838E-1,-2.4115266E-2,1.01313535E-2,-8.7687805E-2,-8.088195E-2,-1.8956933E-2,-3.2287574E-1,-2.4898121E-1,6.11138E-2,-5.1565904E-2,-7.0173025E-2,-1.7618911E-1,-1.34455E-1,-1.9396923E-1,-5.2071963E-2,-2.0196278E-1,-6.915204E-2,-9.441116E-2,4.8379764E-1,-6.278076E-2,-9.8720446E-2,1.0028867E-1,-1.2986079E-1,-1.1323894E-1,-1.15528144E-1,9.823357E-2,5.859268E-1,8.217521E-2,4.1251847E-1,2.3142895E-1,4.3308157E-1,1.264055E0,2.295703E-1,-1.478955E-1,3.0049604E-1,2.800441E-1,-1.7583461E-1,-1.23865895E-1,1.3276646E-1,7.153988E-4,1.2614557E0,1.1070517E-1,2.4905054E-1,-1.5645573E-1,-2.1351326E-1,-6.260303E-2,3.059043E-1,5.224709E-3,-2.4350688E-1,-1.3129918E-1,1.2610087E-1,-1.322959E-1,1.986158E-1,-2.2116123E-1,6.5487236E-1,6.3086957E-1,-4.6710032E-1,1.3663295E-1,2.700365E-1,-1.1635846E-2,5.193605E-1,4.9345526E-1,-2.6125023E-1,-2.939477E-2,1.8958312E-1,4.5564744E-1,-2.4254903E-1,1.1894687E-1,-7.995951E-3,3.0158198E-2,-1.1762112E-1,-5.596256E-2,-1.6854426E-1,-2.7074952E-2,-1.9936222E-1,6.6643506E-1,-5.119112E-2,-2.596789E-1,-1.0350781E-2,-1.7963378E-1,3.0759696E-2,-7.251141E-2,-1.9421187E-1,-3.9940345E-1,-1.461924E-1,-2.582688E-1,-1.0948627E-2,-2.9880464E-2,-1.9347481E-1,-9.657896E-2,-2.716925E-1,-1.8442328E-1,5.7679243E-2,-1.2778708E-1,5.6665093E-2,-9.460034E-2,1.6664283E-1,-1.989836E-1,1.4325503E-1,-8.1855886E-2,3.9001253E-2,3.1252888E-1,-5.4723777E-2,2.088023E-1,9.9957384E-2,1.9420049E-1,1.05812825E-1,3.7419263E-2,1.0463673E-1,2.755455E-1,2.9403424E-1,6.68204E-1,1.6875026E-1,6.414679E-2,1.4650135E-1,7.839785E-2,-7.6816276E-2,6.162405E-2,9.599158E-1,1.3046566E-1,3.3368077E-2,2.8653088E-1,-2.2137831E-1,-7.5088955E-2,8.021922E-2,-5.811109E-2,-1.4888941E-1,-8.719113E-2,-6.4283505E-2,9.796561E-2,4.6369982E-1,-1.3628489E-1,-2.7308378E-1,-4.0708594E-2,1.9240549E-1,-1.4723429E-1,5.316571E-2,4.375287E-1,-2.735842E-1,2.3444246E-4,3.3237725E-1,1.3863071E-2,4.201219E-2,1.7129469E-1,2.4491446E-1,1.8501753E-2,-4.0388405E-3,-1.6574548E-1,5.154595E-1,-2.6740426E-2,-3.602359E-2,6.785583E-2,1.4072887E-2,-7.037741E-2,-3.8209002E-2,4.980496E-3,-2.2819903E-2,-1.0283518E-1,-2.3003772E-1,-1.1631501E-1,-4.1287653E-2,-9.628233E-2,-1.0956843E-1,-8.093048E-2,-2.1697138E-2,-9.2028335E-2,9.260177E-3,-4.2506013E-2,-7.5865015E-2,-1.1575581E-1,-6.0095232E-2,-7.695854E-2,1.3520855E-1,-2.535812E-2,-2.9664785E-2,-1.5699595E-1,1.1665186E-2,9.943004E-2,-4.9567293E-2,-1.8317558E-1,8.275539E-2,2.2653593E-2,-7.592135E-2,8.774659E-3,5.454711E-2,1.13628246E-1],"categories":[],"categories_nodes":[],"categories_segments":[],"categories_sizes":[],"default_left":[0,0,0,0,0,0,0,0,0,0,0,0,0,0,0,0,0,0,0,0,0,0,0,0,0,0,0,0,0,0,0,0,0,0,0,0,0,0,0,0,0,0,0,0,0,0,0,0,0,0,0,0,0,0,0,0,0,0,0,0,0,0,0,0,0,0,0,0,0,0,0,0,0,0,0,0,0,0,0,0,0,0,0,0,0,0,0,0,0,0,0,0,0,0,0,0,0,0,0,0,0,0,0,0,0,0,0,0,0,0,0,0,0,0,0,0,0,0,0,0,0,0,0,0,0,0,0,0,0,0,0,0,0,0,0,0,0,0,0,0,0,0,0,0,0,0,0,0,0,0,0,0,0,0,0,0,0,0,0,0,0,0,0,0,0,0,0,0,0,0,0,0,0,0,0,0,0,0,0,0,0,0,0,0,0,0,0,0,0,0,0,0,0,0,0,0,0,0,0,0,0,0,0,0,0,0,0,0,0,0,0,0,0,0,0,0,0,0,0,0,0,0,0,0,0,0,0,0,0,0,0,0,0,0,0,0,0,0,0,0,0,0,0,0,0,0,0,0,0,0,0,0,0,0,0,0,0,0,0,0,0,0,0,0,0,0,0,0,0,0,0,0,0,0,0,0,0,0,0,0,0,0,0,0,0,0,0,0,0,0,0,0,0,0,0,0,0,0,0,0,0,0,0,0,0,0,0,0,0,0,0,0,0,0,0,0,0,0,0,0,0,0,0,0,0,0,0,0,0,0,0,0,0,0,0,0,0,0,0,0,0,0,0],"id":3,"left_children":[1,3,5,7,9,11,13,15,17,19,21,23,25,27,29,31,33,35,37,39,41,43,45,47,-1,-1,49,51,53,55,57,59,61,63,65,67,69,71,73,75,77,79,81,-1,83,85,87,89,91,93,95,97,99,101,103,105,107,109,-1,111,113,115,117,-1,119,-1,-1,121,123,-1,125,127,129,131,133,135,137,139,-1,-1,141,143,145,147,-1,149,151,-1,-1,-1,-1,153,-1,155,157,-1,159,161,163,165,167,169,171,-1,173,-1,175,177,179,181,183,185,187,189,191,193,195,-1,197,199,-1,201,203,205,207,-1,-1,-1,-1,209,211,213,-1,-1,215,-1,-1,-1,217,-1,219,221,223,225,227,229,-1,-1,-1,-1,-1,231,233,-1,-1,-1,-1,235,237,-1,-1,-1,-1,239,241,-1,243,-1,-1,245,247,249,251,-1,-1,-1,-1,-1,-1,-1,253,-1,255,257,259,261,263,265,267,269,-1,-1,271,273,-1,-1,-1,275,277,-1,-1,279,281,-1,-1,283,-1,-1,285,-1,-1,-1,287,289,291,293,295,297,-1,-1,-1,299,301,303,-1,-1,-1,-1,-1,-1,-1,-1,305,-1,-1,307,-1,309,311,313,315,317,319,-1,-1,321,323,325,327,329,331,-1,-1,333,335,337,-1,-1,-1,339,341,-1,-1,-1,-1,-1,-1,-1,-1,-1,-1,-1,-1,-1,-1,-1,-1,-1,-1,-1,-1,-1,-1,-1,-1,-1,-1,-1,-1,-1,-1,-1,-1,-1,-1,-1,-1,-1,-1,-1,-1,-1,-1,-1,-1,-1,-1,-1,-1,-1,-1,-1,-1,-1,-1,-1,-1,-1,-1,-1,-1,-1,-1,-1,-1,-1,-1,-1,-1,-1,-1,-1,-1,-1,-1,-1,-1,-1,-1,-1,-1,-1,-1],"loss_changes":[6.6426865E1,7.330446E1,5.3650665E0,2.481255E1,8.078611E1,3.9308627E0,2.5272331E0,7.789714E1,6.9608297E0,8.062238E0,5.668361E1,2.4801707E0,1.4650939E1,6.9308853E-1,2.0143435E0,1.7196377E1,4.1075478E1,8.970547E-1,4.659935E0,6.9661636E0,1.4436013E0,1.6642258E1,7.816431E0,2.3039818E0,0E0,0E0,5.9055245E-1,2.3318577E-1,6.6788864E-1,1.5391971E0,1.3174675E0,3.0614433E0,1.1199024E1,1.1483364E0,1.5827164E1,1.2167039E0,4.4930816E-1,4.58134E0,5.2132444E0,3.3880615E-1,2.8200576E0,1.7017455E0,8.461911E-1,0E0,1.7078213E1,9.641537E0,1.098197E1,7.850342E-1,1.3153044E0,1.1445965E0,1.8306369E-1,4.363537E-2,4.2643163E-1,4.0278816E-1,5.1818848E-2,1.5280342E0,2.9030108E-1,7.6692677E-1,0E0,5.2394295E0,1.2273073E0,7.193699E-1,6.450487E0,0E0,4.0095615E-1,0E0,0E0,2.94614E0,1.9510045E0,0E0,3.1956196E-2,7.2519386E-1,4.1051607E0,3.543366E0,1.3511901E1,2.5749264E0,3.7055206E-1,3.730079E-1,0E0,0E0,1.2248921E0,2.6125288E-1,2.2835276E0,4.910103E0,0E0,7.2606163E0,3.6475263E0,0E0,0E0,0E0,0E0,5.826311E-1,0E0,2.8373053E0,6.068421E-1,0E0,1.3769001E-1,4.048696E-2,7.588482E-2,1.0572687E-1,8.5765004E-2,4.661255E-1,4.021678E-1,0E0,9.269142E-2,0E0,4.6256943E0,5.493224E-1,4.7116876E-1,4.9818236E-1,1.4387686E0,3.7390423E-1,2.685686E0,2.7817934E0,1.5953984E0,3.0903006E-1,1.3006873E-1,0E0,9.070545E0,2.0455024E0,0E0,8.977568E-1,2.4093475E0,1.2032986E-1,1.9307773E0,0E0,0E0,0E0,0E0,2.2017517E0,2.2073593E0,1.4156742E0,0E0,0E0,2.0846834E0,0E0,0E0,0E0,2.4837494E-1,0E0,3.455817E-1,8.337774E-1,6.0495645E-1,1.272662E-2,2.7675271E-2,1.5834275E-1,0E0,0E0,0E0,0E0,0E0,3.0111883E0,2.5417888E-1,0E0,0E0,0E0,0E0,2.5451124E0,1.035312E0,0E0,0E0,0E0,0E0,2.6705337E-1,7.393837E-2,0E0,1.8735081E-3,0E0,0E0,4.731102E-1,2.355423E-1,5.2257985E-1,3.420756E-1,0E0,0E0,0E0,0E0,0E0,0E0,0E0,4.891282E-1,0E0,3.020316E-1,8.7817574E-1,2.7145326E-1,4.1277266E-1,8.0232024E-2,2.1457505E-1,1.3520603E0,7.175269E-1,0E0,0E0,3.2673788E-1,8.7964725E-1,0E0,0E0,0E0,6.6699934E0,5.7403007E0,0E0,0E0,4.5720387E-1,2.35702E0,0E0,0E0,1.6531467E-1,0E0,0E0,8.9676857E-1,0E0,0E0,0E0,6.5553427E0,9.5450616E-1,1.2199466E0,3.130434E0,2.3011944E0,7.2632647E-1,0E0,0E0,0E0,5.2002835E-1,1.5748491E0,2.753867E-1,0E0,0E0,0E0,0E0,0E0,0E0,0E0,0E0,5.105014E0,0E0,0E0,7.4695957E-1,0E0,1.7347929E-1,4.0589166E-1,1.1469644E-1,2.3350906E-1,2.3893178E-2,3.7395477E-2,0E0,0E0,4.2062354E-1,1.6018033E-1,3.1809807E-3,6.540108E-2,9.039287E-1,4.960968E-1,0E0,0E0,4.9071E-2,2.3483163E-1,8.749899E-2,0E0,0E0,0E0,8.700571E-2,4.8781335E-3,0E0,0E0,0E0,0E0,0E0,0E0,0E0,0E0,0E0,0E0,0E0,0E0,0E0,0E0,0E0,0E0,0E0,0E0,0E0,0E0,0E0,0E0,0E0,0E0,0E0,0E0,0E0,0E0,0E0,0E0,0E0,0E0,0E0,0E0,0E0,0E0,0E0,0E0,0E0,0E0,0E0,0E0,0E0,0E0,0E0,0E0,0E0,0E0,0E0,0E0,0E0,0E0,0E0,0E0,0E0,0E0,0E0,0E0,0E0,0E0,0E0,0E0,0E0,0E0,0E0,0E0,0E0,0E0,0E0,0E0,0E0,0E0,0E0,0E0,0E0,0E0,0E0,0E0,0E0,0E0,0E0,0E0],"parents":[2147483647,0,0,1,1,2,2,3,3,4,4,5,5,6,6,7,7,8,8,9,9,10,10,11,11,12,12,13,13,14,14,15,15,16,16,17,17,18,18,19,19,20,20,21,21,22,22,23,23,26,26,27,27,28,28,29,29,30,30,31,31,32,32,33,33,34,34,35,35,36,36,37,37,38,38,39,39,40,40,41,41,42,42,44,44,45,45,46,46,47,47,48,48,49,49,50,50,51,51,52,52,53,53,54,54,55,55,56,56,57,57,59,59,60,60,61,61,62,62,64,64,67,67,68,68,70,70,71,71,72,72,73,73,74,74,75,75,76,76,77,77,80,80,81,81,82,82,83,83,85,85,86,86,91,91,93,93,94,94,96,96,97,97,98,98,99,99,100,100,101,101,102,102,104,104,106,106,107,107,108,108,109,109,110,110,111,111,112,112,113,113,114,114,115,115,116,116,118,118,119,119,121,121,122,122,123,123,124,124,129,129,130,130,131,131,134,134,138,138,140,140,141,141,142,142,143,143,144,144,145,145,151,151,152,152,157,157,158,158,163,163,164,164,166,166,169,169,170,170,171,171,172,172,180,180,182,182,183,183,184,184,185,185,186,186,187,187,188,188,189,189,192,192,193,193,197,197,198,198,201,201,202,202,205,205,208,208,212,212,213,213,214,214,215,215,216,216,217,217,221,221,222,222,223,223,232,232,235,235,237,237,238,238,239,239,240,240,241,241,242,242,245,245,246,246,247,247,248,248,249,249,250,250,253,253,254,254,255,255,259,259,260,260],"right_children":[2,4,6,8,10,12,14,16,18,20,22,24,26,28,30,32,34,36,38,40,42,44,46,48,-1,-1,50,52,54,56,58,60,62,64,66,68,70,72,74,76,78,80,82,-1,84,86,88,90,92,94,96,98,100,102,104,106,108,110,-1,112,114,116,118,-1,120,-1,-1,122,124,-1,126,128,130,132,134,136,138,140,-1,-1,142,144,146,148,-1,150,152,-1,-1,-1,-1,154,-1,156,158,-1,160,162,164,166,168,170,172,-1,174,-1,176,178,180,182,184,186,188,190,192,194,196,-1,198,200,-1,202,204,206,208,-1,-1,-1,-1,210,212,214,-1,-1,216,-1,-1,-1,218,-1,220,222,224,226,228,230,-1,-1,-1,-1,-1,232,234,-1,-1,-1,-1,236,238,-1,-1,-1,-1,240,242,-1,244,-1,-1,246,248,250,252,-1,-1,-1,-1,-1,-1,-1,254,-1,256,258,260,262,264,266,268,270,-1,-1,272,274,-1,-1,-1,276,278,-1,-1,280,282,-1,-1,284,-1,-1,286,-1,-1,-1,288,290,292,294,296,298,-1,-1,-1,300,302,304,-1,-1,-1,-1,-1,-1,-1,-1,306,-1,-1,308,-1,310,312,314,316,318,320,-1,-1,322,324,326,328,330,332,-1,-1,334,336,338,-1,-1,-1,340,342,-1,-1,-1,-1,-1,-1,-1,-1,-1,-1,-1,-1,-1,-1,-1,-1,-1,-1,-1,-1,-1,-1,-1,-1,-1,-1,-1,-1,-1,-1,-1,-1,-1,-1,-1,-1,-1,-1,-1,-1,-1,-1,-1,-1,-1,-1,-1,-1,-1,-1,-1,-1,-1,-1,-1,-1,-1,-1,-1,-1,-1,-1,-1,-1,-1,-1,-1,-1,-1,-1,-1,-1,-1,-1,-1,-1,-1,-1,-1,-1,-1,-1],"split_conditions":[-2.515063E-1,-3.3875012E-1,2.3119888E-1,-8.9281887E-1,1E0,-3.2649314E-1,1E0,-9.1205823E-1,-6.145319E-1,1E0,-2.345659E-1,-3.3262163E-1,-3.142362E-1,3.9621943E-1,1.8307332E0,-1.2518942E0,1E0,1E0,-7.5814325E-1,-1.3651015E-1,-1.05867736E-1,-6.555332E-1,2.8958913E-2,-2.3226692E-1,-2.229421E-1,4.725078E-1,1E0,8.563042E-1,1.9225434E0,3.0671246E-2,2.3822968E0,-1.300922E0,-1.159967E0,-8.9923203E-1,-7.0645916E-1,-5.7857573E-1,-7.738725E-1,-8.8640577E-1,-5.978151E-1,-8.8640577E-1,-5.465101E-1,-9.1205823E-1,-5.3368384E-1,1.6905901E0,-2.713368E-1,-5.978151E-1,-4.9520507E-1,1E0,-1.6172253E-1,-1.8737504E-1,-5.269939E-2,-2.066144E-1,3.449144E-1,1.6468786E0,2.313744E0,5.74394E-1,3.1086916E-1,2.0758724E0,-1.0793511E-1,-1.3070506E0,-1.2006489E0,1E0,-1.5341314E0,4.16186E-1,-7.616155E-1,3.4328267E-1,1.5679685E0,-6.1705446E-1,-5.3368384E-1,-2.4952169E-1,-8.799926E-1,1E0,-5.77761E-1,-6.1705446E-1,-5.7216257E-1,-2.345659E-1,-2.345659E-1,-8.9281887E-1,2.595171E-1,-1.4033386E-1,-3.3487692E-1,-7.260776E-1,-7.5225316E-2,-2.9585072E-1,-1.8497456E-2,-1.3940475E-2,-1.3651015E-1,1.1853304E0,1.2518528E-1,-6.0811736E-2,-1.4250658E-1,-3.3875012E-1,-1.6138713E-1,-2.066144E-1,-1.296569E-1,-1.1590346E-1,3.0671246E-2,5.0085217E-1,2.2947815E-1,9.2984605E-1,1.7265489E0,6.2955034E-1,1E0,-9.825836E-2,2.3778753E0,-9.5351085E-2,7.5212E-1,2.4345584E-1,1.3404545E0,7.0404947E-1,8.387251E-1,-1.3193076E0,1E0,-1.207062E0,-1.2764082E0,-1.0852127E0,-1.5341314E0,-4.5792818E-1,-1.2904327E0,-9.822409E-1,3.2710525E-1,-9.4547004E-1,-5.978151E-1,-5.6574947E-1,-5.080313E-1,-1.1212231E-1,-5.3855814E-2,2.4489552E-2,-2.2840516E-1,-5.90018E-1,-8.799926E-1,-4.122919E-1,-6.010671E-1,7.4590904E-1,-5.90018E-1,-6.1260384E-2,4.9803707E-1,6.975867E-1,-3.9900818E-1,2.0739174E-2,-3.2325927E-2,-2.345659E-1,-3.028113E-1,2.8958913E-2,-3.2325927E-2,-2.8357193E-1,2.6602098E-1,6.5992177E-1,1.5041023E0,7.3398095E-1,-8.115116E-2,-5.6574947E-1,-8.748228E-2,2.0672002E-1,3.4786183E-2,-1.3555595E-1,4.3013006E-1,-1.3607003E-1,-5.269939E-2,1.01313535E-2,-8.7687805E-2,-8.088195E-2,-1.8956933E-2,4.211819E-1,3.898063E-1,6.11138E-2,1.7176002E-1,-7.0173025E-2,-1.7618911E-1,5.74394E-1,8.387251E-1,1.1850339E0,8.900301E-1,-6.915204E-2,-9.441116E-2,4.8379764E-1,-6.278076E-2,-9.8720446E-2,1.0028867E-1,-1.2986079E-1,1.6468786E0,-1.15528144E-1,1.550582E0,7.0404947E-1,9.0285635E-1,-1.3673902E0,-1.2198883E0,1E0,-1.2904327E0,-1.3673902E0,-1.478955E-1,3.0049604E-1,-1.1814096E0,-1.0980389E0,-1.23865895E-1,1.3276646E-1,7.153988E-4,1E0,-6.145319E-1,2.4905054E-1,-1.5645573E-1,-8.8640577E-1,-7.6455635E-1,3.059043E-1,5.224709E-3,-5.7216257E-1,-1.3129918E-1,1.2610087E-1,1E0,1.986158E-1,-2.2116123E-1,6.5487236E-1,-4.122919E-1,-6.747726E-1,-6.747726E-1,-4.9520507E-1,-5.77761E-1,-5.080313E-1,4.9345526E-1,-2.6125023E-1,-2.939477E-2,-4.2466068E-1,-4.9520507E-1,-3.220507E-1,1.1894687E-1,-7.995951E-3,3.0158198E-2,-1.1762112E-1,-5.596256E-2,-1.6854426E-1,-2.7074952E-2,-1.9936222E-1,-5.080313E-1,-5.119112E-2,-2.596789E-1,-1.6172253E-1,-1.7963378E-1,1.0250072E-1,1.7604253E-1,-3.3460014E-2,1.1431869E-2,6.663212E-1,6.2955034E-1,-1.0948627E-2,-2.9880464E-2,4.4752443E-1,7.7459383E-1,5.180688E-1,7.5212E-1,2.0145876E0,1.7020351E0,5.6665093E-2,-9.460034E-2,1.1850339E0,1.7694483E0,9.285089E-1,-8.1855886E-2,3.9001253E-2,3.1252888E-1,2.1371574E0,2.1371574E0,9.9957384E-2,1.9420049E-1,1.05812825E-1,3.7419263E-2,1.0463673E-1,2.755455E-1,2.9403424E-1,6.68204E-1,1.6875026E-1,6.414679E-2,1.4650135E-1,7.839785E-2,-7.6816276E-2,6.162405E-2,9.599158E-1,1.3046566E-1,3.3368077E-2,2.8653088E-1,-2.2137831E-1,-7.5088955E-2,8.021922E-2,-5.811109E-2,-1.4888941E-1,-8.719113E-2,-6.4283505E-2,9.796561E-2,4.6369982E-1,-1.3628489E-1,-2.7308378E-1,-4.0708594E-2,1.9240549E-1,-1.4723429E-1,5.316571E-2,4.375287E-1,-2.735842E-1,2.3444246E-4,3.3237725E-1,1.3863071E-2,4.201219E-2,1.7129469E-1,2.4491446E-1,1.8501753E-2,-4.0388405E-3,-1.6574548E-1,5.154595E-1,-2.6740426E-2,-3.602359E-2,6.785583E-2,1.4072887E-2,-7.037741E-2,-3.8209002E-2,4.980496E-3,-2.2819903E-2,-1.0283518E-1,-2.3003772E-1,-1.1631501E-1,-4.1287653E-2,-9.628233E-2,-1.0956843E-1,-8.093048E-2,-2.1697138E-2,-9.2028335E-2,9.260177E-3,-4.2506013E-2,-7.5865015E-2,-1.1575581E-1,-6.0095232E-2,-7.695854E-2,1.3520855E-1,-2.535812E-2,-2.9664785E-2,-1.5699595E-1,1.1665186E-2,9.943004E-2,-4.9567293E-2,-1.8317558E-1,8.275539E-2,2.2653593E-2,-7.592135E-2,8.774659E-3,5.454711E-2,1.13628246E-1],"split_indices":[3,4,4,3,1,4,1,3,4,2,4,4,4,3,4,4,1,2,3,4,4,3,4,3,0,0,1,4,3,3,4,4,4,3,4,3,4,3,3,3,3,3,3,0,4,3,3,1,3,3,3,3,3,4,3,4,4,4,0,4,3,1,3,0,4,0,0,3,3,0,3,1,4,3,3,4,4,3,0,0,3,3,4,4,0,4,4,0,0,0,0,4,0,3,3,0,3,4,3,4,4,4,2,0,3,0,4,4,4,3,3,4,1,3,4,3,3,0,3,4,0,4,3,3,3,0,0,0,0,4,3,4,0,0,4,0,0,0,3,0,4,4,3,4,4,3,0,0,0,0,0,3,4,0,0,0,0,3,3,0,0,0,0,4,3,0,3,0,0,4,3,3,3,0,0,0,0,0,0,0,4,0,3,3,3,3,3,2,3,3,0,0,3,3,0,0,0,2,4,0,0,3,3,0,0,3,0,0,1,0,0,0,4,3,3,3,4,3,0,0,0,3,3,3,0,0,0,0,0,0,0,0,3,0,0,3,0,4,4,3,3,4,4,0,0,3,3,3,4,4,4,0,0,3,4,3,0,0,0,4,4,0,0,0,0,0,0,0,0,0,0,0,0,0,0,0,0,0,0,0,0,0,0,0,0,0,0,0,0,0,0,0,0,0,0,0,0,0,0,0,0,0,0,0,0,0,0,0,0,0,0,0,0,0,0,0,0,0,0,0,0,0,0,0,0,0,0,0,0,0,0,0,0,0,0,0,0,0,0,0,0,0,0],"split_type":[0,0,0,0,0,0,0,0,0,0,0,0,0,0,0,0,0,0,0,0,0,0,0,0,0,0,0,0,0,0,0,0,0,0,0,0,0,0,0,0,0,0,0,0,0,0,0,0,0,0,0,0,0,0,0,0,0,0,0,0,0,0,0,0,0,0,0,0,0,0,0,0,0,0,0,0,0,0,0,0,0,0,0,0,0,0,0,0,0,0,0,0,0,0,0,0,0,0,0,0,0,0,0,0,0,0,0,0,0,0,0,0,0,0,0,0,0,0,0,0,0,0,0,0,0,0,0,0,0,0,0,0,0,0,0,0,0,0,0,0,0,0,0,0,0,0,0,0,0,0,0,0,0,0,0,0,0,0,0,0,0,0,0,0,0,0,0,0,0,0,0,0,0,0,0,0,0,0,0,0,0,0,0,0,0,0,0,0,0,0,0,0,0,0,0,0,0,0,0,0,0,0,0,0,0,0,0,0,0,0,0,0,0,0,0,0,0,0,0,0,0,0,0,0,0,0,0,0,0,0,0,0,0,0,0,0,0,0,0,0,0,0,0,0,0,0,0,0,0,0,0,0,0,0,0,0,0,0,0,0,0,0,0,0,0,0,0,0,0,0,0,0,0,0,0,0,0,0,0,0,0,0,0,0,0,0,0,0,0,0,0,0,0,0,0,0,0,0,0,0,0,0,0,0,0,0,0,0,0,0,0,0,0,0,0,0,0,0,0,0,0,0,0,0,0,0,0,0,0,0,0,0,0,0,0,0,0,0,0,0,0,0,0],"sum_hessian":[3.689E3,1.735E3,1.954E3,1.569E3,1.66E2,7.13E2,1.241E3,7.99E2,7.7E2,1.14E2,5.2E1,2.26E2,4.87E2,1.118E3,1.23E2,7.55E2,4.4E1,4.15E2,3.55E2,2.5E1,8.9E1,2E1,3.2E1,2.11E2,1.5E1,9E0,4.78E2,1.79E2,9.39E2,7.1E1,5.2E1,2.13E2,5.42E2,3.4E1,1E1,3.91E2,2.4E1,2.6E1,3.29E2,1.4E1,1.1E1,6.3E1,2.6E1,8E0,1.2E1,2.6E1,6E0,1.96E2,1.5E1,4.59E2,1.9E1,1.61E2,1.8E1,6.89E2,2.5E2,1.5E1,5.6E1,4.5E1,7E0,8.5E1,1.28E2,1.83E2,3.59E2,2.2E1,1.2E1,3E0,7E0,1.86E2,2.05E2,4E0,2E1,6E0,2E1,1.9E1,3.1E2,4E0,1E1,6E0,5E0,4E0,5.9E1,1.7E1,9E0,9E0,3E0,9E0,1.7E1,3E0,3E0,1.75E2,2.1E1,1.3E1,2E0,4E0,4.55E2,1.1E1,8E0,1.1E1,1.5E2,9E0,9E0,6.03E2,8.6E1,1.17E2,1.33E2,6E0,9E0,7E0,4.9E1,2.2E1,2.3E1,6.6E1,1.9E1,6.6E1,6.2E1,1.79E2,4E0,3E0,3.56E2,8E0,4E0,1.69E2,1.7E1,1.16E2,8.9E1,1.5E1,5E0,3E0,3E0,6E0,1.4E1,1.7E1,2E0,3E0,3.07E2,2E0,2E0,4E0,6E0,2E0,4E0,5.1E1,8E0,4E0,1.3E1,5E0,4E0,6E0,3E0,7E0,2E0,1.2E1,5E0,7E0,6E0,2E0,2E0,6.7E1,3.88E2,5E0,3E0,8E0,3E0,3.4E1,1.16E2,3E0,6E0,7E0,2E0,2.19E2,3.84E2,6.1E1,2.5E1,6.8E1,6.5E1,3E0,6E0,4E0,3E0,3.1E1,1.8E1,3E0,1.9E1,9E0,1.4E1,4.4E1,2.2E1,8E0,1.1E1,5.8E1,8E0,8E0,5.4E1,1.58E2,2.1E1,2E0,2E0,6E0,3.5E2,6E0,2E0,6.3E1,1.06E2,6E0,1.1E1,7.4E1,4.2E1,1E1,7.9E1,3E0,3E0,3E0,1.1E1,1.2E1,5E0,2.8E1,2.79E2,4E0,2E0,2E0,2E0,2.7E1,2.4E1,6E0,2E0,2E0,2E0,8E0,5E0,2E0,3E0,2E0,1E1,2E0,3E0,5E1,1.7E1,1.82E2,2.06E2,1.4E1,2E1,1.1E1,1.05E2,4E0,2E0,8.4E1,1.35E2,3.9E1,3.45E2,2.5E1,3.6E1,2E0,2.3E1,4E0,1.4E1,1.7E1,2E0,3E0,6E0,7E0,7E0,1.5E1,2.9E1,1.7E1,5E0,6E0,2E0,6E0,5E0,1.4E1,4.4E1,2.5E1,2.9E1,1.51E2,7E0,2E0,4E0,3.36E2,1.4E1,3E0,6E1,2.5E1,8.1E1,1E1,6.4E1,7.4E1,5E0,7E0,4E0,7E0,5E0,3E0,2E0,2.5E1,3E0,4E0,2.75E2,2E0,2E0,2.1E1,6E0,1.7E1,7E0,3E0,3E0,5E0,5E0,3.5E1,1.5E1,1.79E2,3E0,1.62E2,4.4E1,5E0,9E0,6E0,1.4E1,9E0,2E0,7.9E1,2.6E1,1.8E1,6.6E1,1E1,1.25E2,9E0,3E1,6.9E1,2.76E2,7E0,1.8E1,3.1E1,5E0,2E0,2E0,1.2E1,2E0,9E0,8E0,2E0,5E0,5E0,2E0],"tree_param":{"num_deleted":"0","num_feature":"5","num_nodes":"343","size_leaf_vector":"0"}},{"base_weights":[-9.99032E-3,-3.2577377E-2,3.0988497E-1,2.5194367E-2,-1.2537916E-1,7.0173794E-1,-1.3310581E-1,2.2341359E-1,4.4198274E-3,-5.4983635E-2,-1.3090697E-1,5.670111E-1,2.7864907E0,-5.918759E-1,-8.6442955E-2,-5.210297E-2,3.0437028E-1,-1.555016E-2,7.804892E-2,-1.6807829E-1,2.2515703E-2,-1.3530749E-1,-4.5960218E-2,7.0415634E-1,9.095987E-2,1.6099659E0,6.811454E-1,-4.8831034E-2,-3.0111626E-1,-1.9663814E-1,-4.8682146E-2,5.380203E-2,-6.966435E-2,3.2852852E-1,1.24220036E-1,2.1059332E-2,-1.0632054E-1,3.9275768E-1,6.0851723E-2,-6.61728E-2,-1.6693105E-1,-2.3302928E-2,1.1989997E-1,-1.0339767E-1,-1.329442E-1,7.173346E-2,-1.26262E-1,3.4639063E-1,1.4200325E0,-6.512072E-1,2.3018585E-1,-1.270993E-1,-2.6709837E-1,1.4406297E-1,-7.911702E-2,5.7005413E-2,1.0864973E-2,4.2564863E-1,2.8296602E-1,-1.2931634E-1,2.1676579E-1,8.677137E-3,3.886095E-1,-1.8069842E-1,-6.500325E-2,2.7244162E-2,2.5717914E-1,-2.0998271E-2,-5.071788E-2,-6.911918E-2,5.3921044E-2,-5.72941E-2,9.716132E-2,-7.0095636E-2,-1.379588E-1,-7.409342E-2,4.9896646E-1,-2.7496869E-2,-1.8954943E-1,6.363017E-1,-1.7770843E-1,2.884698E0,1.1185373E0,1.8641775E-2,-4.5277992E-1,7.5543624E-1,-9.23253E-2,-2.353791E-1,6.327682E-2,-1.3372828E-1,-1.6171913E-1,-3.1834456E-1,-5.8651045E-2,2.638243E-1,6.923522E-1,3.0702567E-1,1.3596E-1,2.7460063E-1,-6.5576814E-2,4.2843893E-2,-6.0241796E-2,1.915187E-1,7.41118E-2,-1.6661906E-1,-1.6123955E-1,4.1484928E-1,-9.9414974E-2,8.998747E-2,-3.530516E-2,3.2553872E-1,1.9407064E-1,2.7804777E-2,-6.785463E-2,-1.6454053E-1,-8.12935E-3,-1.6080388E-1,-1.2822089E-1,-1.1120805E-2,-7.937999E-2,2.984167E-1,1.00371204E-1,-5.888926E-2,-2.4966481E-1,1.3801628E-1,1.4195776E0,-2.4785334E-1,1.0100627E-1,4.8396522E-1,1.4391668E0,-5.70311E-1,1.4941436E0,1.6205272E-1,4.7184402E-1,-1.6590708E-1,3.6492538E-2,-1.2448003E-1,-1.4629672E-1,-3.531608E-2,-9.2077725E-2,3.0697709E-2,-2.1403003E-1,-2.0356307E-2,-1.8585362E-1,1.5531717E-1,1.3842523E-1,1.8182774E-1,3.3071467E-1,1.0741206E-1,1.5247995E-1,7.147951E-2,-1.47723975E-2,3.9367583E-2,1.3005053E-1,1.3300021E-2,2.5475547E-1,-1.2317755E-1,9.469724E-2,-1.371938E-1,-9.252621E-2,1.8539171E-1,8.965309E-2,-1.2932722E-1,-4.9807834E-3,-5.9744753E-2,1.09282754E-1,-2.1330116E-2,-6.488989E-2,2.372409E-1,2.9706594E-2,-1.0752784E-1,-1.8233281E-1,4.4440065E-2,-8.284135E-2,-1.2636065E-1,-2.0875376E-1,-1.263392E-1,-1.0464241E-1,-3.6831018E-2,5.4174038E-3,-1.4325881E-1,-4.235479E-2,3.5042036E-1,-2.2210096E-1,3.5557446E-1,6.808532E-1,-3.2782685E-2,-1.2792319E-1,4.2106438E-1,-1.017668E0,8.349987E-1,1.1803873E0,-1.5776724E-1,-7.130262E-2,4.7948435E-2,-2.2403657E-2,-2.1951106E-1,4.283015E-2,-3.804709E-2,6.991016E-2,-1.0846682E-1,-6.256028E-2,7.0560366E-2,-3.3974554E-2,2.2004815E-2,-4.8235927E-2,1.7244786E-1,6.375522E-2,-5.963528E-2,2.6437942E-2,8.3891205E-2,-9.985681E-2,-5.8872934E-2,-1.7675199E-2,-5.3370308E-2,-3.3815768E-2,1.3968912E-1,3.7441395E-2,-1.3428183E-2,2.788116E-2,2.1567337E-2,1.0352331E-1,-1.3631229E-1,9.2892855E-2,-5.641486E-2,1.1537093E-2,-8.2964174E-2,-4.476735E-2,-4.188674E-2,2.7741998E-2,-5.970357E-2,-2.0626774E-2,-7.816713E-2,-1.1412865E-1,-4.0996328E-2,-5.2752443E-2,2.9821994E-4,-2.986244E-2,1.2331557E-2,-1.9156322E-3,1.950688E-2,2.3474646E-1,-1.3642035E-1,-4.460354E-3,3.20317E-1,5.88402E-1,4.6895337E-3,-5.6027424E-2,-1.1105161E-1,-2.7540041E-2,-2.9175092E-2,-6.809009E-3],"categories":[],"categories_nodes":[],"categories_segments":[],"categories_sizes":[],"default_left":[0,0,0,0,0,0,0,0,0,0,0,0,0,0,0,0,0,0,0,0,0,0,0,0,0,0,0,0,0,0,0,0,0,0,0,0,0,0,0,0,0,0,0,0,0,0,0,0,0,0,0,0,0,0,0,0,0,0,0,0,0,0,0,0,0,0,0,0,0,0,0,0,0,0,0,0,0,0,0,0,0,0,0,0,0,0,0,0,0,0,0,0,0,0,0,0,0,0,0,0,0,0,0,0,0,0,0,0,0,0,0,0,0,0,0,0,0,0,0,0,0,0,0,0,0,0,0,0,0,0,0,0,0,0,0,0,0,0,0,0,0,0,0,0,0,0,0,0,0,0,0,0,0,0,0,0,0,0,0,0,0,0,0,0,0,0,0,0,0,0,0,0,0,0,0,0,0,0,0,0,0,0,0,0,0,0,0,0,0,0,0,0,0,0,0,0,0,0,0,0,0,0,0,0,0,0,0,0,0,0,0,0,0,0,0,0,0,0,0,0,0,0,0,0,0,0,0,0,0,0,0,0,0,0,0,0,0,0,0,0,0,0,0,0,0,0,0,0,0,0,0],"id":4,"left_children":[1,3,5,7,9,11,13,15,17,19,21,23,25,27,29,31,33,35,37,39,41,43,45,47,49,-1,-1,-1,-1,51,53,55,-1,57,59,61,63,-1,65,67,-1,69,71,-1,73,75,77,79,81,83,85,87,89,-1,91,-1,-1,93,95,-1,97,99,101,103,105,107,109,-1,-1,111,-1,-1,-1,113,115,117,119,-1,121,123,125,127,129,-1,-1,131,133,135,-1,-1,137,139,141,143,145,147,149,151,-1,153,155,-1,-1,157,-1,159,161,163,165,-1,167,-1,-1,169,171,173,175,177,-1,-1,-1,-1,179,181,183,185,-1,-1,-1,187,189,-1,-1,191,193,195,-1,-1,-1,-1,-1,197,199,-1,201,-1,-1,-1,-1,-1,-1,-1,-1,203,205,207,209,211,-1,-1,-1,213,-1,-1,215,217,-1,219,221,223,225,-1,227,229,231,233,-1,235,237,-1,-1,239,241,-1,-1,-1,-1,-1,-1,-1,243,-1,245,-1,-1,247,-1,249,-1,-1,-1,-1,-1,-1,-1,-1,-1,-1,-1,-1,-1,-1,-1,-1,-1,-1,-1,-1,-1,-1,-1,-1,-1,-1,-1,-1,-1,-1,-1,-1,-1,-1,-1,-1,-1,-1,-1,-1,-1,-1,-1,-1,-1,-1,-1,-1,-1,-1,-1,-1,-1],"loss_changes":[2.8043259E1,1.9437946E1,4.4531742E1,9.202548E0,5.3408813E-1,3.6618637E1,2.5391474E0,4.7445E0,2.9772468E0,9.0655476E-1,4.7562027E-1,8.358124E0,3.882038E0,7.3967314E-1,4.5230478E-1,6.4277077E-1,6.7293644E-1,5.29587E0,6.6550894E0,1.039179E0,2.794389E-1,3.2226562E-1,6.233729E-1,2.5119705E1,3.2497673E0,0E0,0E0,0E0,0E0,1.03244305E-1,1.0737048E0,5.993642E-2,0E0,5.167608E-1,9.3979824E-1,5.166652E0,1.3957305E0,0E0,2.7971797E0,1.9046947E-2,0E0,3.20801E-1,6.8212247E-1,0E0,3.697834E-1,1.7191255E0,1.2894094E-1,1.0445139E1,1.1345818E1,1.7300928E0,4.474123E0,5.314957E-1,3.802383E-2,0E0,3.681148E-1,0E0,0E0,1.716341E0,3.15485E-1,0E0,4.4134587E-1,2.5927908E0,5.897865E-1,4.432311E-1,4.9289575E0,1.4317136E0,2.0201445E0,0E0,0E0,4.855762E-1,0E0,0E0,0E0,5.3123075E-1,2.2720528E-1,1.6224527E-1,2.4178648E-1,0E0,9.043872E-3,1.6977055E1,8.170375E-1,1.6192741E0,1.9248047E1,0E0,0E0,1.0080018E0,1.6719134E-1,1.2795764E-1,0E0,0E0,1.4872521E-2,5.5483073E-1,3.5668468E-1,3.9888978E-1,1.3562775E-1,1.4319897E-1,1.24825865E-1,1.1042845E-1,0E0,4.604479E0,3.5708542E0,0E0,0E0,2.6334E-1,0E0,8.1609964E-2,7.1893835E-1,8.5685587E-1,3.21128E-1,0E0,3.9740396E-1,0E0,0E0,1.6912043E-2,5.080447E-1,5.169811E-1,1.6422653E-1,6.5775416E-3,0E0,0E0,0E0,0E0,5.5660933E-2,2.219559E0,1.0358162E0,2.3640442E-1,0E0,0E0,0E0,2.1899254E1,2.0039864E0,0E0,0E0,2.0967674E-1,6.070247E-2,1.9954383E-1,0E0,0E0,0E0,0E0,0E0,2.068676E-1,3.0571222E-4,0E0,1.506998E-1,0E0,0E0,0E0,0E0,0E0,0E0,0E0,0E0,3.6200092E0,1.4450307E0,1.2849386E0,4.250976E0,9.4756365E-2,0E0,0E0,0E0,2.6534557E-2,0E0,0E0,6.031039E-1,1.8730964E-1,0E0,1.639657E-1,1.0545712E0,5.4334417E-2,2.2698462E-2,0E0,1.2379059E-1,3.2455683E-1,8.311272E-2,8.917618E-2,0E0,8.58368E-3,2.7412619E-3,0E0,0E0,1.2552235E0,2.7221447E-1,0E0,0E0,0E0,0E0,0E0,0E0,0E0,8.0773544E-1,0E0,5.302667E-2,0E0,0E0,3.3421844E-2,0E0,3.8370676E-2,0E0,0E0,0E0,0E0,0E0,0E0,0E0,0E0,0E0,0E0,0E0,0E0,0E0,0E0,0E0,0E0,0E0,0E0,0E0,0E0,0E0,0E0,0E0,0E0,0E0,0E0,0E0,0E0,0E0,0E0,0E0,0E0,0E0,0E0,0E0,0E0,0E0,0E0,0E0,0E0,0E0,0E0,0E0,0E0,0E0,0E0,0E0,0E0,0E0,0E0,0E0,0E0,0E0],"parents":[2147483647,0,0,1,1,2,2,3,3,4,4,5,5,6,6,7,7,8,8,9,9,10,10,11,11,12,12,13,13,14,14,15,15,16,16,17,17,18,18,19,19,20,20,21,21,22,22,23,23,24,24,29,29,30,30,31,31,33,33,34,34,35,35,36,36,38,38,39,39,41,41,42,42,44,44,45,45,46,46,47,47,48,48,49,49,50,50,51,51,52,52,54,54,57,57,58,58,60,60,61,61,62,62,63,63,64,64,65,65,66,66,69,69,73,73,74,74,75,75,76,76,78,78,79,79,80,80,81,81,82,82,85,85,86,86,87,87,90,90,91,91,92,92,93,93,94,94,95,95,96,96,97,97,99,99,100,100,103,103,105,105,106,106,107,107,108,108,110,110,113,113,114,114,115,115,116,116,117,117,122,122,123,123,124,124,125,125,129,129,130,130,133,133,134,134,135,135,141,141,142,142,144,144,153,153,154,154,155,155,156,156,157,157,161,161,164,164,165,165,167,167,168,168,169,169,170,170,172,172,173,173,174,174,175,175,177,177,178,178,181,181,182,182,190,190,192,192,195,195,197,197],"right_children":[2,4,6,8,10,12,14,16,18,20,22,24,26,28,30,32,34,36,38,40,42,44,46,48,50,-1,-1,-1,-1,52,54,56,-1,58,60,62,64,-1,66,68,-1,70,72,-1,74,76,78,80,82,84,86,88,90,-1,92,-1,-1,94,96,-1,98,100,102,104,106,108,110,-1,-1,112,-1,-1,-1,114,116,118,120,-1,122,124,126,128,130,-1,-1,132,134,136,-1,-1,138,140,142,144,146,148,150,152,-1,154,156,-1,-1,158,-1,160,162,164,166,-1,168,-1,-1,170,172,174,176,178,-1,-1,-1,-1,180,182,184,186,-1,-1,-1,188,190,-1,-1,192,194,196,-1,-1,-1,-1,-1,198,200,-1,202,-1,-1,-1,-1,-1,-1,-1,-1,204,206,208,210,212,-1,-1,-1,214,-1,-1,216,218,-1,220,222,224,226,-1,228,230,232,234,-1,236,238,-1,-1,240,242,-1,-1,-1,-1,-1,-1,-1,244,-1,246,-1,-1,248,-1,250,-1,-1,-1,-1,-1,-1,-1,-1,-1,-1,-1,-1,-1,-1,-1,-1,-1,-1,-1,-1,-1,-1,-1,-1,-1,-1,-1,-1,-1,-1,-1,-1,-1,-1,-1,-1,-1,-1,-1,-1,-1,-1,-1,-1,-1,-1,-1,-1,-1,-1,-1,-1,-1],"split_conditions":[1E0,-1.05867736E-1,6.2955034E-1,-1.2641512E0,-1.3940475E-2,5.4375154E-1,8.0727637E-1,-1.3193076E0,-3.3875012E-1,-7.5225316E-2,1E0,-1.05867736E-1,1E0,1E0,1.6530071E0,-1.3683354E0,1E0,-4.3680587E-1,-3.3262163E-1,-8.748228E-2,1E0,2.8958913E-2,7.5212E-1,-3.2649314E-1,-7.5225316E-2,1.6099659E0,6.811454E-1,-4.8831034E-2,-3.0111626E-1,1.4630241E0,1.7265489E0,-1.4480057E0,-6.966435E-2,-1.300922E0,-1.313179E0,-4.9196222E-1,-4.122919E-1,3.9275768E-1,1E0,1E0,-1.6693105E-1,-3.2325927E-2,-6.9096826E-2,-1.0339767E-1,2.3732737E-1,7.0922065E-1,1.6468786E0,-3.8777798E-1,-2.9585072E-1,-8.748228E-2,-1.3940475E-2,1.3404545E0,1.6468786E0,1.4406297E-1,1.8307332E0,5.7005413E-2,1.0864973E-2,-1.3070506E0,1E0,-1.2931634E-1,-1.2886652E0,-6.880737E-1,-4.4293433E-1,1E0,-3.7552103E-1,-1.9166651E-1,-3.2649314E-1,-2.0998271E-2,-5.071788E-2,-6.9096826E-2,5.3921044E-2,-5.72941E-2,9.716132E-2,1.7604253E-1,6.2955034E-1,6.2955034E-1,7.2760606E-1,-2.7496869E-2,2.0758724E0,-6.145319E-1,-3.3875012E-1,1E0,-2.652083E-1,1.8641775E-2,-4.5277992E-1,-3.2325927E-2,1E0,1.1566E0,6.327682E-2,-1.3372828E-1,1E0,1.7694483E0,2.1984422E0,-1.313179E0,1E0,-1.2764082E0,-1.2702796E0,-1.300922E0,-6.5576814E-2,-7.80001E-1,-6.145319E-1,1.915187E-1,7.41118E-2,-4.184204E-1,-1.6123955E-1,-3.8777798E-1,1E0,-3.2649314E-1,1E0,3.2553872E-1,-1.7328106E-1,2.7804777E-2,-6.785463E-2,1.0250072E-1,1.8829949E-1,6.050364E-1,2.688721E0,2.4345584E-1,-7.937999E-2,2.984167E-1,1.00371204E-1,-5.888926E-2,2.1371574E0,-6.2066036E-1,1E0,1E0,1.0100627E-1,4.8396522E-1,1.4391668E0,-2.713368E-1,-2.2230893E-1,1.6205272E-1,4.7184402E-1,2.0668495E-1,2.0668495E-1,1E0,-1.4629672E-1,-3.531608E-2,-9.2077725E-2,3.0697709E-2,-2.1403003E-1,2.1371574E0,1E0,1.5531717E-1,1E0,1.8182774E-1,3.3071467E-1,1.0741206E-1,1.5247995E-1,7.147951E-2,-1.47723975E-2,3.9367583E-2,1.3005053E-1,-9.944979E-1,-7.4323004E-1,1E0,-4.980907E-1,1E0,-9.252621E-2,1.8539171E-1,8.965309E-2,1E0,-4.9807834E-3,-5.9744753E-2,-3.142362E-1,-1.3651015E-1,-6.488989E-2,-2.9585072E-1,-1.3651015E-1,1E0,1.515286E-1,4.4440065E-2,1E0,5.0085217E-1,1E0,8.5017574E-1,-1.0464241E-1,2.0668495E-1,3.1086916E-1,-1.4325881E-1,-4.235479E-2,-1.0557828E0,1E0,3.5557446E-1,6.808532E-1,-3.2782685E-2,-1.2792319E-1,4.2106438E-1,-1.017668E0,8.349987E-1,-1.7328106E-1,-1.5776724E-1,4.211819E-1,4.7948435E-2,-2.2403657E-2,8.563042E-1,4.283015E-2,1E0,6.991016E-2,-1.0846682E-1,-6.256028E-2,7.0560366E-2,-3.3974554E-2,2.2004815E-2,-4.8235927E-2,1.7244786E-1,6.375522E-2,-5.963528E-2,2.6437942E-2,8.3891205E-2,-9.985681E-2,-5.8872934E-2,-1.7675199E-2,-5.3370308E-2,-3.3815768E-2,1.3968912E-1,3.7441395E-2,-1.3428183E-2,2.788116E-2,2.1567337E-2,1.0352331E-1,-1.3631229E-1,9.2892855E-2,-5.641486E-2,1.1537093E-2,-8.2964174E-2,-4.476735E-2,-4.188674E-2,2.7741998E-2,-5.970357E-2,-2.0626774E-2,-7.816713E-2,-1.1412865E-1,-4.0996328E-2,-5.2752443E-2,2.9821994E-4,-2.986244E-2,1.2331557E-2,-1.9156322E-3,1.950688E-2,2.3474646E-1,-1.3642035E-1,-4.460354E-3,3.20317E-1,5.88402E-1,4.6895337E-3,-5.6027424E-2,-1.1105161E-1,-2.7540041E-2,-2.9175092E-2,-6.809009E-3],"split_indices":[0,4,4,4,4,4,4,4,4,4,1,4,1,1,4,4,2,4,4,4,2,4,4,4,4,0,0,0,0,4,4,4,0,4,4,4,4,0,2,2,0,4,4,0,4,4,4,4,4,4,4,4,4,0,4,0,0,4,1,0,4,4,4,1,4,4,4,0,0,4,0,0,0,4,4,4,4,0,4,4,4,1,4,0,0,4,1,4,0,0,1,4,4,4,1,4,4,4,0,4,4,0,0,4,0,4,1,4,1,0,4,0,0,4,4,4,4,4,0,0,0,0,4,4,1,1,0,0,0,4,4,0,0,4,4,1,0,0,0,0,0,4,1,0,1,0,0,0,0,0,0,0,0,4,4,1,4,2,0,0,0,2,0,0,4,4,0,4,4,2,4,0,2,4,2,4,0,4,4,0,0,4,1,0,0,0,0,0,0,0,4,0,4,0,0,4,0,1,0,0,0,0,0,0,0,0,0,0,0,0,0,0,0,0,0,0,0,0,0,0,0,0,0,0,0,0,0,0,0,0,0,0,0,0,0,0,0,0,0,0,0,0,0,0,0,0,0,0,0,0,0],"split_type":[0,0,0,0,0,0,0,0,0,0,0,0,0,0,0,0,0,0,0,0,0,0,0,0,0,0,0,0,0,0,0,0,0,0,0,0,0,0,0,0,0,0,0,0,0,0,0,0,0,0,0,0,0,0,0,0,0,0,0,0,0,0,0,0,0,0,0,0,0,0,0,0,0,0,0,0,0,0,0,0,0,0,0,0,0,0,0,0,0,0,0,0,0,0,0,0,0,0,0,0,0,0,0,0,0,0,0,0,0,0,0,0,0,0,0,0,0,0,0,0,0,0,0,0,0,0,0,0,0,0,0,0,0,0,0,0,0,0,0,0,0,0,0,0,0,0,0,0,0,0,0,0,0,0,0,0,0,0,0,0,0,0,0,0,0,0,0,0,0,0,0,0,0,0,0,0,0,0,0,0,0,0,0,0,0,0,0,0,0,0,0,0,0,0,0,0,0,0,0,0,0,0,0,0,0,0,0,0,0,0,0,0,0,0,0,0,0,0,0,0,0,0,0,0,0,0,0,0,0,0,0,0,0,0,0,0,0,0,0,0,0,0,0,0,0,0,0,0,0,0,0],"sum_hessian":[3.879E3,3.624E3,2.55E2,2.234E3,1.39E3,1.35E2,1.2E2,2.11E2,2.023E3,1.02E2,1.288E3,1.28E2,7E0,1E1,1.1E2,4.8E1,1.63E2,1.592E3,4.31E2,4.1E1,6.1E1,1.224E3,6.4E1,9.9E1,2.9E1,2E0,5E0,3E0,7E0,2.7E1,8.3E1,2.6E1,2.2E1,1.43E2,2E1,1.135E3,4.57E2,7E0,4.24E2,3E1,1.1E1,4.2E1,1.9E1,2.1E1,1.203E3,2.6E1,3.8E1,6.7E1,3.2E1,4E0,2.5E1,1.5E1,1.2E1,5E0,7.8E1,5E0,2.1E1,4.3E1,1E2,3E0,1.7E1,1.099E3,3.6E1,1.62E2,2.95E2,3.63E2,6.1E1,2.6E1,4E0,3.3E1,9E0,6E0,1.3E1,9E1,1.113E3,2E1,6E0,2.1E1,1.7E1,4.3E1,2.4E1,4E0,2.8E1,2E0,2E0,9E0,1.6E1,1.1E1,4E0,6E0,6E0,5E0,7.3E1,2.8E1,1.5E1,8.5E1,1.5E1,1.5E1,2E0,7.35E2,3.64E2,2.4E1,1.2E1,1.54E2,8E0,1.9E1,2.76E2,1.81E2,1.82E2,5E0,5.6E1,1.4E1,1.9E1,3.5E1,5.5E1,3.28E2,7.85E2,1.4E1,6E0,2E0,4E0,1.2E1,5E0,2.7E1,1.6E1,2.1E1,3E0,2E0,2E0,5E0,2.3E1,6E0,3E0,1E1,6E0,7E0,4E0,4E0,2E0,2E0,3E0,5.7E1,1.6E1,1.3E1,1.5E1,7E0,8E0,5.9E1,2.6E1,1.2E1,3E0,4E0,1.1E1,6.46E2,8.9E1,2.59E2,1.05E2,1.08E2,4.6E1,1.4E1,5E0,2.05E2,7.1E1,1.3E1,1.68E2,1.65E2,1.7E1,4.4E1,1.2E1,1E1,2.5E1,2.1E1,3.4E1,1.93E2,1.35E2,7.76E2,9E0,5E0,9E0,2E0,3E0,1.7E1,1E1,7E0,9E0,7E0,1.4E1,3E0,2E0,6E0,1.7E1,2E0,8E0,3E0,3E0,5E0,2E0,5.3E1,4E0,2E0,1.4E1,1.3E1,2E0,4.93E2,1.53E2,3E1,5.9E1,2.28E2,3.1E1,7.9E1,2.6E1,9.7E1,1.1E1,1.86E2,1.9E1,9E0,1.59E2,1.46E2,1.9E1,5E0,3.9E1,4E0,8E0,8E0,2E0,1.7E1,8E0,3E1,4E0,1.47E2,4.6E1,1.18E2,1.7E1,1.5E2,6.26E2,3E0,2E0,2E0,7E0,8E0,9E0,6E0,4E0,9E0,8E0,4E0,4E0,3E0,2E0,1.9E1,3.4E1],"tree_param":{"num_deleted":"0","num_feature":"5","num_nodes":"251","size_leaf_vector":"0"}},{"base_weights":[-3.744067E-3,-2.3597136E-2,2.545752E-1,2.2105439E-1,-3.59695E-2,5.3475404E-1,1.0217563E-1,2.3331957E-1,2.0902908E-1,-1.865262E-2,-6.732677E-2,3.9381918E-1,8.679927E-1,-2.65932E-1,1.4726865E-1,2.6761055E-2,2.344024E-1,-2.3003954E-1,-1.5629783E-2,-9.088295E-2,-6.2655844E-2,7.443626E-1,1.8253148E-1,1.2253094E0,3.614497E-1,-5.843702E-1,1.8820024E-1,4.1989356E-1,5.6676313E-2,2.5239873E-1,1.8988913E-1,-1.3477238E-1,-1.4479597E-1,1.4540206E-1,-1.9674612E-2,-7.0765294E-2,-1.690815E-1,3.2208058E-1,-6.602215E-2,1.086803E0,-2.322515E-2,-3.3206165E-2,4.0958473E-1,5.369829E-1,2.7963707E-1,-4.083693E-1,8.782539E-1,-8.4364235E-1,-2.786554E-1,3.164037E-1,-2.450391E-1,1.5767998E-1,8.955988E-1,-1.7794812E-1,1.317522E-1,1.1597795E-1,2.5557318E-1,-6.619292E-2,-1.0340673E-2,-1.5937324E-1,-1.2071173E-2,-8.614072E-2,-6.571673E-3,-6.9635294E-2,-1.972094E-2,1.597904E-1,1.3652438E-2,-9.613266E-2,-6.421484E-2,3.357018E-2,1.3853288E0,-4.9488228E-2,9.264878E-3,1.2001025E-1,-3.3171633E-1,7.9817694E-1,1.5122685E-1,-2.3522232E-1,5.2733535E-1,-1.7288586E-1,-4.4439942E-1,-3.4927737E-2,-1.6013105E-1,-7.0025125E-3,-1.4177158E-1,6.160618E-1,-6.774722E-2,6.6797876E-1,6.0301846E-1,-3.0336595E-1,-1.0939997E-1,1.6762714E-1,-4.9749054E-2,1.967454E-1,-5.3429212E-2,2.8137952E-1,2.2053592E-2,-1.3537492E-1,-1.21574976E-1,2.7301406E-2,-2.8783746E-2,-7.8630336E-2,-5.68867E-2,-9.27057E-3,9.043145E-3,-3.763043E-2,-7.6031245E-2,-2.0472234E-2,4.2852353E-2,6.0359395E-1,1.7157127E-1,1.773768E-3,2.4882875E-1,-4.3302688E-1,4.3263566E-1,9.9012844E-2,5.082442E-1,-1.3872026E-1,2.6525063E-2,4.0838847E-1,5.7929784E-2,8.995652E-3,-7.0270024E-2,1.3444938E-1,3.333822E-1,6.5843663E-3,1.0994134E-1,1.0018083E-1,1.3075596E-1,-8.419184E-2,-6.733582E-2,1.674986E-2,1.6692851E-1,-3.2733187E-2,2.2618634E-1,-2.1001397E-2,-8.0867395E-2,5.066477E-4,-2.3978619E-2,-6.681639E-2,1.5019464E-1,-1.034026E-1,-6.642322E-2,1.9522619E-1,-1.2802227E-1,3.816677E-1,2.4568057E-2,-4.3965027E-2,-1.1742027E-1,6.35628E-2,-4.4464756E-2,-1.8095931E-2,3.490874E-2,2.1720272E-1,8.364858E-2,1.892808E-1,8.746483E-2,3.3465996E-2,-9.052145E-2,-7.871711E-2,-3.6993885E-4,1.1141462E-2,-4.292799E-2,-8.224364E-2,-1.2242416E-2,9.865617E-2,4.292574E-2,-3.0647635E-2,-6.759295E-2,9.600112E-3,-1.7278707E-2,-1.8912027E-2,2.4674302E-2,-1.51061285E-2,-5.44832E-2,4.0091317E-2,1.5428321E-1,-3.8654055E-2,-5.031693E-2,-2.8855933E-2,-5.654435E-3,-1.2212044E-1,-2.3304325E-2,-7.0669375E-2,1.1886674E-2,1.9935563E-2,-2.4147935E-2,1.6944425E-1,4.0772792E-2,-4.7121257E-2,6.418942E-2],"categories":[],"categories_nodes":[],"categories_segments":[],"categories_sizes":[],"default_left":[0,0,0,0,0,0,0,0,0,0,0,0,0,0,0,0,0,0,0,0,0,0,0,0,0,0,0,0,0,0,0,0,0,0,0,0,0,0,0,0,0,0,0,0,0,0,0,0,0,0,0,0,0,0,0,0,0,0,0,0,0,0,0,0,0,0,0,0,0,0,0,0,0,0,0,0,0,0,0,0,0,0,0,0,0,0,0,0,0,0,0,0,0,0,0,0,0,0,0,0,0,0,0,0,0,0,0,0,0,0,0,0,0,0,0,0,0,0,0,0,0,0,0,0,0,0,0,0,0,0,0,0,0,0,0,0,0,0,0,0,0,0,0,0,0,0,0,0,0,0,0,0,0,0,0,0,0,0,0,0,0,0,0,0,0,0,0,0,0,0,0,0,0,0,0,0,0,0,0,0,0,0,0,0,0,0,0,0,0,0,0],"id":5,"left_children":[1,3,5,7,9,11,13,-1,15,17,19,21,23,25,27,-1,29,31,33,35,37,39,41,43,45,47,49,51,53,-1,55,-1,57,-1,59,61,63,65,67,69,71,73,75,-1,-1,-1,77,79,81,-1,83,85,87,89,91,93,95,-1,-1,97,99,101,103,-1,-1,-1,-1,-1,105,107,109,-1,-1,111,-1,-1,113,-1,-1,-1,-1,-1,-1,-1,-1,115,117,119,-1,-1,121,123,-1,125,-1,127,-1,129,-1,131,133,135,-1,137,-1,139,141,-1,-1,-1,-1,143,-1,-1,145,-1,-1,147,149,-1,-1,151,-1,153,155,157,-1,-1,-1,159,-1,161,-1,163,165,-1,167,169,171,173,175,177,179,-1,181,-1,-1,183,-1,-1,-1,185,-1,187,189,-1,-1,-1,-1,-1,-1,-1,-1,-1,-1,-1,-1,-1,-1,-1,-1,-1,-1,-1,-1,-1,-1,-1,-1,-1,-1,-1,-1,-1,-1,-1,-1,-1,-1,-1,-1],"loss_changes":[1.9832518E1,1.0877613E1,1.1730322E1,6.3167953E-1,1.8552961E0,4.213764E0,3.026999E0,0E0,5.937691E-1,1.4047344E0,1.2810135E-1,5.0487165E0,4.6250095E0,3.002239E0,3.9525366E0,0E0,2.4046612E0,2.3367965E-1,3.341059E0,3.0109596E-1,1.3397188E0,6.859419E0,2.2178779E0,4.7819138E-2,1.0184039E1,7.1607494E-1,2.5442731E0,4.848238E0,2.1724308E0,0E0,6.0148144E-1,0E0,4.2471886E-2,0E0,2.2839088E0,1.5735465E-1,1.5405178E-2,1.8693918E-1,3.0274868E-1,5.613003E0,4.4821076E-2,3.026881E0,8.7120495E0,0E0,0E0,0E0,7.228256E0,1.797967E-1,1.2800562E-1,0E0,1.4313391E-1,2.8316932E0,9.4307137E-1,1.1107273E0,8.753754E-1,1.2960825E0,3.3622313E-1,0E0,0E0,3.439467E-1,1.3444569E0,4.3146133E-2,2.7296706E-3,0E0,0E0,0E0,0E0,0E0,3.1158495E-1,3.665465E-2,1.0084629E0,0E0,0E0,1.2454987E0,0E0,0E0,7.412368E0,0E0,0E0,0E0,0E0,0E0,0E0,0E0,0E0,1.8564692E0,1.3080457E-1,2.068173E0,0E0,0E0,2.2128737E-1,4.0612626E-1,0E0,7.111385E-1,0E0,2.5811195E-3,0E0,1.4948857E-1,0E0,2.4992354E0,1.4514258E0,2.5340915E-3,0E0,4.3262625E-3,0E0,1.7094102E0,1.7511702E-1,0E0,0E0,0E0,0E0,1.1986206E0,0E0,0E0,3.2326179E0,0E0,0E0,1.4847492E-1,1.817098E-1,0E0,0E0,2.4906155E-2,0E0,2.7610695E-1,1.05050564E-1,2.8820094E-1,0E0,0E0,0E0,3.748556E-1,0E0,8.21311E-1,0E0,5.1331294E-1,2.7023077E-2,0E0,2.6358306E-2,2.054502E-2,2.6869753E-2,5.3713334E-1,4.5558637E-1,1.4814973E-2,1.5291643E-1,0E0,1.6772135E-1,0E0,0E0,8.3475605E-2,0E0,0E0,0E0,2.8855605E-2,0E0,5.75433E-1,7.1534765E-1,0E0,0E0,0E0,0E0,0E0,0E0,0E0,0E0,0E0,0E0,0E0,0E0,0E0,0E0,0E0,0E0,0E0,0E0,0E0,0E0,0E0,0E0,0E0,0E0,0E0,0E0,0E0,0E0,0E0,0E0,0E0,0E0,0E0,0E0,0E0,0E0],"parents":[2147483647,0,0,1,1,2,2,3,3,4,4,5,5,6,6,8,8,9,9,10,10,11,11,12,12,13,13,14,14,16,16,17,17,18,18,19,19,20,20,21,21,22,22,23,23,24,24,25,25,26,26,27,27,28,28,30,30,32,32,34,34,35,35,36,36,37,37,38,38,39,39,40,40,41,41,42,42,46,46,47,47,48,48,50,50,51,51,52,52,53,53,54,54,55,55,56,56,59,59,60,60,61,61,62,62,68,68,69,69,70,70,73,73,76,76,85,85,86,86,87,87,90,90,91,91,93,93,95,95,97,97,99,99,100,100,101,101,103,103,105,105,106,106,111,111,114,114,117,117,118,118,121,121,123,123,124,124,125,125,129,129,131,131,133,133,134,134,136,136,137,137,138,138,139,139,140,140,141,141,142,142,144,144,147,147,151,151,153,153,154,154],"right_children":[2,4,6,8,10,12,14,-1,16,18,20,22,24,26,28,-1,30,32,34,36,38,40,42,44,46,48,50,52,54,-1,56,-1,58,-1,60,62,64,66,68,70,72,74,76,-1,-1,-1,78,80,82,-1,84,86,88,90,92,94,96,-1,-1,98,100,102,104,-1,-1,-1,-1,-1,106,108,110,-1,-1,112,-1,-1,114,-1,-1,-1,-1,-1,-1,-1,-1,116,118,120,-1,-1,122,124,-1,126,-1,128,-1,130,-1,132,134,136,-1,138,-1,140,142,-1,-1,-1,-1,144,-1,-1,146,-1,-1,148,150,-1,-1,152,-1,154,156,158,-1,-1,-1,160,-1,162,-1,164,166,-1,168,170,172,174,176,178,180,-1,182,-1,-1,184,-1,-1,-1,186,-1,188,190,-1,-1,-1,-1,-1,-1,-1,-1,-1,-1,-1,-1,-1,-1,-1,-1,-1,-1,-1,-1,-1,-1,-1,-1,-1,-1,-1,-1,-1,-1,-1,-1,-1,-1,-1,-1],"split_conditions":[1E0,-1.2764082E0,-1.9166651E-1,-1.4480057E0,1.8829949E-1,-3.3262163E-1,-7.5225316E-2,2.3331957E-1,-1.3683354E0,-1.2641512E0,5.0085217E-1,1E0,-2.652083E-1,1E0,7.5212E-1,2.6761055E-2,-1.3193076E0,-1.2702796E0,-1.2580227E0,3.1086916E-1,5.3762305E-1,-5.4711854E-1,-5.4711854E-1,-2.713368E-1,-2.5295135E-1,-1.3651015E-1,-1.7328106E-1,5.4375154E-1,1.6530071E0,2.5239873E-1,-1.2947936E0,-1.3477238E-1,1E0,1.4540206E-1,-1.2028663E0,2.4345584E-1,1E0,1E0,5.4375154E-1,-1.0496542E0,-4.122919E-1,-5.90018E-1,-5.1034766E-1,5.369829E-1,2.7963707E-1,-4.083693E-1,1E0,-1.7328106E-1,-1.05867736E-1,3.164037E-1,-1.3651015E-1,-1.3940475E-2,7.2760606E-1,8.0727637E-1,2.3822968E0,-1.300922E0,1E0,-6.619292E-2,-1.0340673E-2,-1.2151233E0,-6.880737E-1,1E0,1E0,-6.9635294E-2,-1.972094E-2,1.597904E-1,1.3652438E-2,-9.613266E-2,7.5212E-1,-1.2151233E0,-6.145319E-1,-4.9488228E-2,9.264878E-3,-6.145319E-1,-3.3171633E-1,7.9817694E-1,-4.613198E-1,-2.3522232E-1,5.2733535E-1,-1.7288586E-1,-4.4439942E-1,-3.4927737E-2,-1.6013105E-1,-7.0025125E-3,-1.4177158E-1,1E0,2.7409828E-1,6.2955034E-1,6.0301846E-1,-3.0336595E-1,1.0340303E0,2.1371574E0,-4.9749054E-2,-1.313179E0,-5.3429212E-2,-1.2886652E0,2.2053592E-2,-1.2396373E0,-1.21574976E-1,-7.0645916E-1,1.7604253E-1,2.0668495E-1,-5.68867E-2,2.7409828E-1,9.043145E-3,7.2147757E-1,8.563042E-1,-2.0472234E-2,4.2852353E-2,6.0359395E-1,1.7157127E-1,-1.2886652E0,2.4882875E-1,-4.3302688E-1,-3.8777798E-1,9.9012844E-2,5.082442E-1,2.3119888E-1,4.211819E-1,4.0838847E-1,5.7929784E-2,8.563042E-1,-7.0270024E-2,2.0145876E0,1E0,1E0,1.0994134E-1,1.0018083E-1,1.3075596E-1,-1.2518942E0,-6.733582E-2,-7.4323004E-1,1.6692851E-1,-6.819452E-1,1E0,-2.1001397E-2,1E0,1E0,1E0,6.2955034E-1,1E0,1E0,1E0,1.9522619E-1,-1.0619112E0,3.816677E-1,2.4568057E-2,1.8829949E-1,-1.1742027E-1,6.35628E-2,-4.4464756E-2,1E0,3.490874E-2,1E0,2.0758724E0,1.892808E-1,8.746483E-2,3.3465996E-2,-9.052145E-2,-7.871711E-2,-3.6993885E-4,1.1141462E-2,-4.292799E-2,-8.224364E-2,-1.2242416E-2,9.865617E-2,4.292574E-2,-3.0647635E-2,-6.759295E-2,9.600112E-3,-1.7278707E-2,-1.8912027E-2,2.4674302E-2,-1.51061285E-2,-5.44832E-2,4.0091317E-2,1.5428321E-1,-3.8654055E-2,-5.031693E-2,-2.8855933E-2,-5.654435E-3,-1.2212044E-1,-2.3304325E-2,-7.0669375E-2,1.1886674E-2,1.9935563E-2,-2.4147935E-2,1.6944425E-1,4.0772792E-2,-4.7121257E-2,6.418942E-2],"split_indices":[0,4,4,4,4,4,4,0,4,4,4,1,4,1,4,0,4,4,4,4,4,4,4,4,4,4,4,4,4,0,4,0,1,0,4,4,2,2,4,4,4,4,4,0,0,0,1,4,4,0,4,4,4,4,4,4,2,0,0,4,4,2,1,0,0,0,0,0,4,4,4,0,0,4,0,0,4,0,0,0,0,0,0,0,0,1,4,4,0,0,4,4,0,4,0,4,0,4,0,4,4,4,0,4,0,4,4,0,0,0,0,4,0,0,4,0,0,4,4,0,0,4,0,4,1,2,0,0,0,4,0,4,0,4,1,0,1,2,2,4,1,2,2,0,4,0,0,4,0,0,0,1,0,1,4,0,0,0,0,0,0,0,0,0,0,0,0,0,0,0,0,0,0,0,0,0,0,0,0,0,0,0,0,0,0,0,0,0,0,0,0],"split_type":[0,0,0,0,0,0,0,0,0,0,0,0,0,0,0,0,0,0,0,0,0,0,0,0,0,0,0,0,0,0,0,0,0,0,0,0,0,0,0,0,0,0,0,0,0,0,0,0,0,0,0,0,0,0,0,0,0,0,0,0,0,0,0,0,0,0,0,0,0,0,0,0,0,0,0,0,0,0,0,0,0,0,0,0,0,0,0,0,0,0,0,0,0,0,0,0,0,0,0,0,0,0,0,0,0,0,0,0,0,0,0,0,0,0,0,0,0,0,0,0,0,0,0,0,0,0,0,0,0,0,0,0,0,0,0,0,0,0,0,0,0,0,0,0,0,0,0,0,0,0,0,0,0,0,0,0,0,0,0,0,0,0,0,0,0,0,0,0,0,0,0,0,0,0,0,0,0,0,0,0,0,0,0,0,0,0,0,0,0,0,0],"sum_hessian":[3.865E3,3.59E3,2.75E2,1.72E2,3.418E3,9.6E1,1.79E2,4E0,1.68E2,2.203E3,1.215E3,6.9E1,2.7E1,1.9E1,1.6E2,2.6E1,1.42E2,3E1,2.173E3,1.98E2,1.017E3,2.5E1,4.4E1,1.5E1,1.2E1,1.1E1,8E0,3.9E1,1.21E2,1.3E1,1.29E2,1.2E1,1.8E1,2.2E1,2.151E3,1.59E2,3.9E1,8E0,1.009E3,1.7E1,8E0,2.3E1,2.1E1,1.1E1,4E0,3E0,9E0,5E0,6E0,3E0,5E0,2.6E1,1.3E1,2.9E1,9.2E1,6.2E1,6.7E1,1.5E1,3E0,1.1E2,2.041E3,1.28E2,3.1E1,3.7E1,2E0,6E0,2E0,9E0,1E3,4E0,1.3E1,2E0,6E0,2E1,3E0,2E0,1.9E1,2E0,7E0,3E0,2E0,3E0,3E0,2E0,3E0,8E0,1.8E1,1.1E1,2E0,2E0,2.7E1,8.1E1,1.1E1,4.7E1,1.5E1,5.9E1,8E0,9.6E1,1.4E1,6.08E2,1.433E3,1.15E2,1.3E1,2.9E1,2E0,3.09E2,6.91E2,2E0,2E0,1.1E1,2E0,1.7E1,3E0,3E0,1.6E1,6E0,2E0,1E1,8E0,6E0,5E0,1E1,1.7E1,6.9E1,1.2E1,1.4E1,3.3E1,3.9E1,2E1,3.9E1,5.7E1,5.93E2,1.5E1,1.412E3,2.1E1,1.1E1,1.04E2,1.8E1,1.1E1,2.68E2,4.1E1,1.77E2,5.14E2,3E0,1.4E1,6E0,1E1,7E0,3E0,4E0,4E0,8E0,2E0,2.5E1,4.4E1,4E0,8E0,1.1E1,3E0,1.6E1,2.3E1,5.45E2,4.8E1,1.6E1,1.396E3,1.7E1,4E0,1.01E2,3E0,1.2E1,6E0,9E0,2E0,1.9E2,7.8E1,3.5E1,6E0,1.4E2,3.7E1,4.63E2,5.1E1,3E0,1.1E1,2E0,5E0,3E0,5E0,8E0,1.7E1,1.2E1,3.2E1],"tree_param":{"num_deleted":"0","num_feature":"5","num_nodes":"191","size_leaf_vector":"0"}},{"base_weights":[-1.246422E-3,1.007212E-1,-3.1582322E-2,4.4050395E-2,1.2482673E0,-1.4045243E-2,-4.1378822E-2,-4.044444E-1,7.693719E-2,2.4210439E0,8.905929E-1,-3.3295974E-2,2.938825E-1,-5.2160734E-1,-3.2516263E-2,-2.0556636E-1,-1.1331066E0,4.7899656E-2,4.04808E-1,8.5017586E-1,1.668834E0,1.8574581E0,3.2273033E-1,-3.627065E-2,3.833813E-1,5.0461262E-2,8.7970763E-1,1.53713105E-2,-1.3902167E0,2.4664933E-2,-4.1235466E-2,-5.0480765E-1,-9.7096026E-2,-6.9771373E-1,-9.2485934E-2,3.1276982E-2,5.244984E-1,4.817705E-1,1.0102715E-1,4.3694073E-1,1.8239997E-1,2.9801676E-1,9.282144E-1,-6.2280107E-1,1.0252368E0,-1.1056485E-2,-7.448079E-2,-1.13929816E-1,7.092595E-2,7.971807E-1,-2.0265193E-1,-9.637141E-1,2.0024395E-1,2.6649907E-1,-1.6909799E-2,-1.7800483E-1,-3.797975E-2,-2.4283929E-1,-5.938077E-2,1.8214914E-1,-1.6115189E-1,2.1013974E-1,2.0255834E-2,9.580188E-1,-9.3806356E-2,4.1466066E-1,1.0028268E0,-2.4250309E-1,3.4903738E-1,-1.1469623E0,1.8007255E-1,1.6387441E0,3.6354184E-2,-2.0368682E-2,3.1069544E-1,-3.1815013E-1,-5.9347007E-2,-1.974371E-1,4.1203997E-3,4.3659517E-1,9.485867E-2,7.0199065E-2,-3.615939E-1,-4.2008273E-2,1.5165257E-1,-1.0480254E-1,3.2248458E-1,-1.2176382E-1,2.0078992E-2,-2.8424302E-1,-1.2726733E-1,-4.4679023E-2,9.108943E-3,9.1468744E-2,1.755796E-2,-1.176586E-2,-8.3259605E-2,-4.1673086E-3,3.2930246E-1,-2.3770815E-2,5.472412E-2,-1.8009253E-1,1.5162748E-1,5.181234E-1,1.4116558E-1,4.9896765E-1,1.6958354E-1,3.6475426E-1,2.3983587E-2,-7.759526E-2,-5.9574175E-1,9.5824236E-1,1.13192394E-1,2.2227402E-1,-1.44893E-1,-5.578421E-2,9.305523E-2,2.3663248E-1,-6.70405E-2,-1.3585804E-1,-1.3358134E-1,-6.074307E-1,-1.8484081E-1,4.2301828E-1,-4.4560455E-2,1.0345327E-1,1.3451397E-2,-7.93796E-3,-4.711146E-1,2.4662557E-1,-4.5711074E-2,2.2821213E-1,-3.0305456E-2,2.6177293E-2,-4.2134307E-2,7.620781E-2,1.6165374E-1,4.645293E-2,-1.6180137E-1,3.9966977E-1,3.6207795E-2,8.568635E-1,-4.745216E-1,2.6038057E-1,4.0397525E-1,1.7326875E-1,-6.919033E-2,1.0181574E-1,-3.811662E-2,-4.167601E-2,-2.1251717E-1,3.8645795E-1,3.25915E-2,3.0921754E-1,2.3596676E-3,-4.118406E-1,-5.133511E-2,6.583203E-2,-8.386865E-2,-1.0230032E-1,-3.0265346E-1,-2.06089E-1,6.622042E-2,5.989746E-1,1.2862563E-1,1.3614297E-2,-7.4759744E-2,2.0366983E-2,-7.7581145E-2,-1.582747E-1,2.7407944E-1,-7.7585042E-3,-3.3609912E-1,4.1958928E-2,1.2245812E-1,-1.09002374E-1,-4.3820795E-2,7.6359674E-2,4.2091462E-1,2.8423244E-2,-9.008418E-2,-4.374434E-2,3.284487E-2,-1.15266554E-1,-5.174467E-2,-1.4563355E-1,1.8070797E-2,8.451953E-2,4.5072848E-1,-9.996376E-2,-2.3220137E-1,1.7086904E-1,-1.1335694E-1,-6.7029744E-2,7.337434E-2,-2.1134747E-2,2.4655633E-1,4.571931E-3,-1.7981628E-1,6.054759E-2,7.926498E-1,-1.080028E-3,4.1563055E-1,-2.389518E-2,2.3298798E-2,1.1436905E-1,-9.951573E-2,1.6807787E-1,2.9009205E-1,1.7107584E-1,-4.1346624E-2,-1.0460196E-2,2.1182701E-2,3.2282006E-2,-9.165662E-2,-4.33661E-2,3.8193762E-2,-7.286548E-2,1.0058911E-1,-7.545327E-3,-2.009957E-2,7.381546E-2,-6.830189E-2,6.521379E-2,1.9279008E-1,8.117475E-2,-9.9561345E-3,-8.663654E-2,-2.8708506E-2],"categories":[],"categories_nodes":[],"categories_segments":[],"categories_sizes":[],"default_left":[0,0,0,0,0,0,1,0,0,0,0,0,0,0,0,0,0,0,0,0,0,0,0,0,0,0,0,0,0,0,0,0,0,0,0,0,0,0,0,0,0,0,0,0,0,0,0,0,0,0,0,0,0,0,0,0,0,0,0,0,0,0,0,0,0,0,0,0,0,0,0,0,0,0,0,0,0,0,0,0,0,0,0,0,0,0,0,0,0,0,0,0,0,0,0,0,0,0,0,0,0,0,0,0,0,0,0,0,0,0,0,0,0,0,0,0,0,0,0,0,0,0,0,0,0,0,0,0,0,0,0,0,0,0,0,0,0,0,0,0,0,0,0,0,0,0,0,0,0,0,0,0,0,0,0,0,0,0,0,0,0,0,0,0,0,0,0,0,0,0,0,0,0,0,0,0,0,0,0,0,0,0,0,0,0,0,0,0,0,0,0,0,0,0,0,0,0,0,0,0,0,0,0,0,0,0,0,0,0,0,0,0,0,0,0,0,0,0,0,0,0,0,0,0,0,0,0,0,0],"id":6,"left_children":[1,3,5,7,9,11,13,15,17,19,21,23,25,27,29,31,33,35,37,39,-1,41,43,45,-1,47,-1,49,51,53,55,57,59,-1,-1,61,63,65,67,-1,-1,-1,-1,69,71,73,75,77,-1,79,81,-1,83,85,87,89,91,-1,-1,93,95,97,99,-1,101,103,105,-1,107,109,-1,111,113,115,-1,-1,117,119,-1,-1,-1,-1,121,-1,-1,-1,123,-1,125,-1,127,129,131,-1,-1,133,-1,-1,135,137,139,-1,141,143,145,-1,-1,-1,147,-1,-1,-1,-1,-1,-1,149,151,153,155,-1,157,159,161,163,165,-1,167,169,171,173,175,177,179,-1,-1,-1,-1,181,183,-1,185,187,189,191,-1,-1,193,-1,-1,195,197,199,201,-1,-1,-1,203,-1,-1,-1,-1,-1,205,207,209,-1,-1,211,-1,213,-1,215,-1,-1,-1,217,219,221,223,225,227,-1,-1,-1,-1,-1,-1,-1,-1,-1,-1,-1,-1,-1,-1,-1,-1,-1,-1,-1,-1,-1,-1,-1,-1,-1,-1,-1,-1,-1,-1,-1,-1,-1,-1,-1,-1,-1,-1,-1,-1,-1,-1,-1,-1,-1,-1,-1,-1],"loss_changes":[1.176383E1,5.6653236E1,5.029707E-1,1.2302748E1,1.5042194E1,6.2458663E0,7.98442E0,8.027223E0,7.3685646E0,2.1208878E1,1.7519077E1,2.9583426E0,2.8645336E1,1.5879808E1,9.218838E-1,1.4440899E0,6.2112894E0,5.640151E0,1.4242516E0,7.464743E-2,0E0,4.4527283E0,1.525184E1,9.520153E-1,0E0,1.1880033E0,0E0,3.9115083E0,2.1552692E1,2.4677827E0,7.07026E-1,3.472972E-1,6.554089E-1,0E0,0E0,1.3578929E0,2.7982328E1,1.3325672E0,2.667401E0,0E0,0E0,0E0,0E0,6.140498E0,7.8273506E0,4.395475E0,4.24037E0,2.6138824E-1,0E0,5.652673E-1,1.145328E0,0E0,3.6746475E-1,1.1496847E0,2.2393086E0,9.0941143E-1,4.947331E-1,0E0,0E0,3.4986213E-2,2.0115149E-1,1.0547224E0,9.907259E-1,0E0,1.7303636E0,1.2284999E0,1.7907858E-1,0E0,1.9906453E0,1.9951181E0,0E0,7.5310917E0,1.4432774E0,2.379219E0,0E0,0E0,8.948312E-1,9.084177E-2,0E0,0E0,0E0,0E0,4.5260346E-1,0E0,0E0,0E0,1.2365625E0,0E0,2.9217556E-1,0E0,1.432348E0,4.2375255E-1,1.6995369E0,0E0,0E0,6.46891E-2,0E0,0E0,1.9302464E-1,2.7894135E0,6.3643374E0,0E0,5.705595E0,3.9201689E0,8.8992476E-1,0E0,0E0,0E0,2.4425198E-1,0E0,0E0,0E0,0E0,0E0,0E0,9.8840356E-1,2.4887762E0,1.2331192E0,5.6464047E0,0E0,3.0675402E-1,6.884873E-2,7.806326E-1,1.269763E0,9.585963E-2,0E0,2.6643112E-1,2.9219544E0,1.5328417E0,1.0064304E-2,1.5888858E-1,8.457295E-1,5.888518E-1,0E0,0E0,0E0,0E0,1.0702145E0,3.603487E-1,0E0,1.3089539E0,8.075547E-1,2.1560311E-2,2.2070885E0,0E0,0E0,2.5442854E-1,0E0,0E0,3.0805743E0,1.969124E0,8.70019E0,4.194216E0,0E0,0E0,0E0,3.4601742E-1,0E0,0E0,0E0,0E0,0E0,4.8638445E-1,5.6413174E-2,8.073943E-1,0E0,0E0,2.7123174E-1,0E0,4.080149E-1,0E0,6.231244E-2,0E0,0E0,0E0,1.0743499E0,2.124238E-1,5.126973E-1,1.2612343E-1,7.958867E-1,1.7674237E-1,0E0,0E0,0E0,0E0,0E0,0E0,0E0,0E0,0E0,0E0,0E0,0E0,0E0,0E0,0E0,0E0,0E0,0E0,0E0,0E0,0E0,0E0,0E0,0E0,0E0,0E0,0E0,0E0,0E0,0E0,0E0,0E0,0E0,0E0,0E0,0E0,0E0,0E0,0E0,0E0,0E0,0E0,0E0,0E0,0E0,0E0,0E0,0E0],"parents":[2147483647,0,0,1,1,2,2,3,3,4,4,5,5,6,6,7,7,8,8,9,9,10,10,11,11,12,12,13,13,14,14,15,15,16,16,17,17,18,18,19,19,21,21,22,22,23,23,25,25,27,27,28,28,29,29,30,30,31,31,32,32,35,35,36,36,37,37,38,38,43,43,44,44,45,45,46,46,47,47,49,49,50,50,52,52,53,53,54,54,55,55,56,56,59,59,60,60,61,61,62,62,64,64,65,65,66,66,68,68,69,69,71,71,72,72,73,73,76,76,77,77,82,82,86,86,88,88,90,90,91,91,92,92,95,95,98,98,99,99,100,100,102,102,103,103,104,104,108,108,115,115,116,116,117,117,118,118,120,120,121,121,122,122,123,123,124,124,126,126,127,127,128,128,129,129,130,130,131,131,132,132,137,137,138,138,140,140,141,141,142,142,143,143,146,146,149,149,150,150,151,151,152,152,156,156,162,162,163,163,164,164,167,167,169,169,171,171,175,175,176,176,177,177,178,178,179,179,180,180],"right_children":[2,4,6,8,10,12,14,16,18,20,22,24,26,28,30,32,34,36,38,40,-1,42,44,46,-1,48,-1,50,52,54,56,58,60,-1,-1,62,64,66,68,-1,-1,-1,-1,70,72,74,76,78,-1,80,82,-1,84,86,88,90,92,-1,-1,94,96,98,100,-1,102,104,106,-1,108,110,-1,112,114,116,-1,-1,118,120,-1,-1,-1,-1,122,-1,-1,-1,124,-1,126,-1,128,130,132,-1,-1,134,-1,-1,136,138,140,-1,142,144,146,-1,-1,-1,148,-1,-1,-1,-1,-1,-1,150,152,154,156,-1,158,160,162,164,166,-1,168,170,172,174,176,178,180,-1,-1,-1,-1,182,184,-1,186,188,190,192,-1,-1,194,-1,-1,196,198,200,202,-1,-1,-1,204,-1,-1,-1,-1,-1,206,208,210,-1,-1,212,-1,214,-1,216,-1,-1,-1,218,220,222,224,226,228,-1,-1,-1,-1,-1,-1,-1,-1,-1,-1,-1,-1,-1,-1,-1,-1,-1,-1,-1,-1,-1,-1,-1,-1,-1,-1,-1,-1,-1,-1,-1,-1,-1,-1,-1,-1,-1,-1,-1,-1,-1,-1,-1,-1,-1,-1,-1,-1],"split_conditions":[-8.8640577E-1,-5.4711854E-1,-2.713368E-1,-1.3738034E0,-1.0980389E0,-3.2649314E-1,-5.6574947E-1,-1.159967E0,-9.248845E-1,1E0,-3.142362E-1,-1.8737504E-1,1E0,1E0,-1.7328106E-1,-1.2886652E0,1E0,-6.758167E-1,-6.880737E-1,-1.4186952E0,1.668834E0,-9.248845E-1,-2.345659E-1,-3.7976882E-1,3.833813E-1,-2.9585072E-1,8.7970763E-1,-2.345659E-1,-2.345659E-1,-2.066144E-1,-2.9639816E-1,1E0,-1.2457657E0,-6.9771373E-1,