{"learner":{"attributes":{"best_iteration":"76","best_ntree_limit":"77","scikit_learn":"{\"objective\": \"reg:squarederror\", \"max_leaves\": null, \"max_bin\": null, \"grow_policy\": null, \"learning_rate\": 0.2, \"verbosity\": null, \"booster\": null, \"tree_method\": \"hist\", \"gamma\": null, \"min_child_weight\": 3.0, \"max_delta_step\": null, \"subsample\": 0.7000000000000001, \"sampling_method\": null, \"colsample_bytree\": 0.6000000000000001, \"colsample_bylevel\": null, \"colsample_bynode\": null, \"reg_alpha\": null, \"reg_lambda\": null, \"scale_pos_weight\": null, \"base_score\": null, \"missing\": NaN, \"num_parallel_tree\": null, \"random_state\": 2020, \"n_jobs\": null, \"monotone_constraints\": null, \"interaction_constraints\": null, \"importance_type\": null, \"gpu_id\": null, \"validate_parameters\": null, \"predictor\": null, \"enable_categorical\": false, \"max_cat_to_onehot\": null, \"eval_metric\": null, \"early_stopping_rounds\": null, \"callbacks\": null, \"_estimator_type\": \"regressor\"}"},"feature_names":["FEATURE","DISPLAY","TPR_ONLY","PRICE","BASE_PRICE"],"feature_types":["int","int","int","float","float"],"gradient_booster":{"model":{"gbtree_model_param":{"num_parallel_tree":"1","num_trees":"77","size_leaf_vector":"0"},"tree_info":[0,0,0,0,0,0,0,0,0,0,0,0,0,0,0,0,0,0,0,0,0,0,0,0,0,0,0,0,0,0,0,0,0,0,0,0,0,0,0,0,0,0,0,0,0,0,0,0,0,0,0,0,0,0,0,0,0,0,0,0,0,0,0,0,0,0,0,0,0,0,0,0,0,0,0,0,0],"trees":[{"base_weights":[-6.8368316E-1,-3.6534214E-1,-8.212357E-1,-4.595298E-1,4.559735E-1,-7.191508E-1,-9.1693777E-1,-1.9739713E-3,-1.09489106E-1,1.7114042E-1,-6.891305E-2,-1.4793664E-1,5.257991E-2,-1.9004719E-1,-1.6087839E-1],"categories":[],"categories_nodes":[],"categories_segments":[],"categories_sizes":[],"default_left":[0,0,0,0,0,0,0,0,0,0,0,0,0,0,0],"id":0,"left_children":[1,3,5,7,9,11,13,-1,-1,-1,-1,-1,-1,-1,-1],"loss_changes":[2.1597217E2,1.15627365E2,3.302661E1,5.2928192E1,4.957457E1,3.392859E1,5.8912354E0,0E0,0E0,0E0,0E0,0E0,0E0,0E0,0E0],"parents":[2147483647,0,0,1,1,2,2,3,3,4,4,5,5,6,6],"right_children":[2,4,6,8,10,12,14,-1,-1,-1,-1,-1,-1,-1,-1],"split_conditions":[-5.7216257E-1,-5.77761E-1,4.9910624E-2,-1.2702796E0,1E0,6.050364E-1,1.8307332E0,-1.9739713E-3,-1.09489106E-1,1.7114042E-1,-6.891305E-2,-1.4793664E-1,5.257991E-2,-1.9004719E-1,-1.6087839E-1],"split_indices":[3,4,3,4,2,4,4,0,0,0,0,0,0,0,0],"split_type":[0,0,0,0,0,0,0,0,0,0,0,0,0,0,0],"sum_hessian":[4.938E3,1.491E3,3.447E3,1.338E3,1.53E2,1.672E3,1.775E3,2.19E2,1.119E3,1.02E2,5.1E1,1.638E3,3.4E1,1.364E3,4.11E2],"tree_param":{"num_deleted":"0","num_feature":"5","num_nodes":"15","size_leaf_vector":"0"}},{"base_weights":[-5.334952E-1,-5.936916E-1,1.9528462E-1,-6.075006E-1,-6.72853E-2,-3.656402E-2,8.2285926E-2,-1.2483684E-1,-1.0755458E-1],"categories":[],"categories_nodes":[],"categories_segments":[],"categories_sizes":[],"default_left":[0,0,0,0,0,0,0,0,0],"id":1,"left_children":[1,3,5,7,-1,-1,-1,-1,-1],"loss_changes":[2.1990442E2,1.6236938E1,3.1376057E1,4.772461E0,0E0,0E0,0E0,0E0,0E0],"parents":[2147483647,0,0,1,1,2,2,3,3],"right_children":[2,4,6,8,-1,-1,-1,-1,-1],"split_conditions":[1E0,1E0,1E0,1E0,-6.72853E-2,-3.656402E-2,8.2285926E-2,-1.2483684E-1,-1.0755458E-1],"split_indices":[0,1,1,2,0,0,0,0,0],"split_type":[0,0,0,0,0,0,0,0,0],"sum_hessian":[5.009E3,4.627E3,3.82E2,4.39E3,2.37E2,1.39E2,2.43E2,3.536E3,8.54E2],"tree_param":{"num_deleted":"0","num_feature":"5","num_nodes":"9","size_leaf_vector":"0"}},{"base_weights":[-4.30988E-1,-4.8165038E-1,4.0070347E-2,-2.5661898E-1,-5.607796E-1,3.6905843E-1,-4.118897E-1,3.3760276E-3,-6.643108E-2,-9.700621E-2,-1.3188855E-1,4.0183865E-2,1.2303733E-1,-1.216399E-1,-4.5241836E-2],"categories":[],"categories_nodes":[],"categories_segments":[],"categories_sizes":[],"default_left":[0,1,0,0,0,0,0,0,0,0,0,0,0,0,0],"id":2,"left_children":[1,3,5,7,9,11,13,-1,-1,-1,-1,-1,-1,-1,-1],"loss_changes":[1.2144403E2,8.1659424E1,7.37533E1,2.4734596E1,2.5075317E1,1.175354E1,7.4806595E0,0E0,0E0,0E0,0E0,0E0,0E0,0E0,0E0],"parents":[2147483647,0,0,1,1,2,2,3,3,4,4,5,5,6,6],"right_children":[2,4,6,8,10,12,14,-1,-1,-1,-1,-1,-1,-1,-1],"split_conditions":[1E0,-6.880737E-1,7.2760606E-1,-1.2580227E0,2.3732737E-1,-3.5713556E-1,1.6897781E0,3.3760276E-3,-6.643108E-2,-9.700621E-2,-1.3188855E-1,4.0183865E-2,1.2303733E-1,-1.216399E-1,-4.5241836E-2],"split_indices":[1,4,4,4,4,4,4,0,0,0,0,0,0,0,0],"split_type":[0,0,0,0,0,0,0,0,0,0,0,0,0,0,0],"sum_hessian":[5.087E3,4.593E3,4.94E2,1.196E3,3.397E3,2.86E2,2.08E2,2.59E2,9.37E2,1.925E3,1.472E3,1.71E2,1.15E2,1E2,1.08E2],"tree_param":{"num_deleted":"0","num_feature":"5","num_nodes":"15","size_leaf_vector":"0"}},{"base_weights":[-3.4829542E-1,-1.2472166E-1,-4.4259185E-1,-1.8701191E-1,4.6416512E-1,-3.7330785E-1,-5.0690657E-1,2.1138512E-2,-5.036522E-2,4.050065E-1,5.796379E-2,-9.08094E-2,-5.2067854E-2,-9.844347E-2,-1.14497304E-1],"categories":[],"categories_nodes":[],"categories_segments":[],"categories_sizes":[],"default_left":[0,0,0,0,0,0,0,0,0,0,0,0,0,0,0],"id":3,"left_children":[1,3,5,7,9,11,13,-1,-1,-1,-1,-1,-1,-1,-1],"loss_changes":[1.0438605E2,5.404588E1,1.5335449E1,2.527755E1,3.778362E1,1.5214172E1,1.4560547E0,0E0,0E0,0E0,0E0,0E0,0E0,0E0,0E0],"parents":[2147483647,0,0,1,1,2,2,3,3,4,4,5,5,6,6],"right_children":[2,4,6,8,10,12,14,-1,-1,-1,-1,-1,-1,-1,-1],"split_conditions":[-5.7857573E-1,-5.409901E-1,5.0187428E-3,-1.2702796E0,-1.0082551E0,-3.2649314E-1,1.9225434E0,2.1138512E-2,-5.036522E-2,4.050065E-1,5.796379E-2,-9.08094E-2,-5.2067854E-2,-9.844347E-2,-1.14497304E-1],"split_indices":[3,4,3,4,3,4,3,0,0,0,0,0,0,0,0],"split_type":[0,0,0,0,0,0,0,0,0,0,0,0,0,0,0],"sum_hessian":[4.953E3,1.47E3,3.483E3,1.33E3,1.4E2,1.68E3,1.803E3,2.41E2,1.089E3,1.3E1,1.27E2,9.78E2,7.02E2,1.48E3,3.23E2],"tree_param":{"num_deleted":"0","num_feature":"5","num_nodes":"15","size_leaf_vector":"0"}},{"base_weights":[-2.8069118E-1,-3.180437E-1,2.0338897E-1,2.3386741E-2,-3.4382787E-1,6.228222E-1,-1.20407134E-1,-2.5665512E-2,8.273684E-3,-5.7592936E-2,-8.49605E-2,6.439899E-2,2.2898805E-1,-7.1500406E-2,-1.1715303E-2],"categories":[],"categories_nodes":[],"categories_segments":[],"categories_sizes":[],"default_left":[0,0,0,0,1,0,0,0,0,0,0,0,0,0,0],"id":4,"left_children":[1,3,5,7,9,11,13,-1,-1,-1,-1,-1,-1,-1,-1],"loss_changes":[9.078021E1,4.101468E1,4.89669E1,9.001183E-1,1.9468933E1,2.4290913E1,2.9696422E0,0E0,0E0,0E0,0E0,0E0,0E0,0E0,0E0],"parents":[2147483647,0,0,1,1,2,2,3,3,4,4,5,5,6,6],"right_children":[2,4,6,8,10,12,14,-1,-1,-1,-1,-1,-1,-1,-1],"split_conditions":[1E0,-1.2396373E0,-8.748228E-2,-1.313179E0,-8.748228E-2,-3.5713556E-1,5.0085217E-1,-2.5665512E-2,8.273684E-3,-5.7592936E-2,-8.49605E-2,6.439899E-2,2.2898805E-1,-7.1500406E-2,-1.1715303E-2],"split_indices":[0,4,4,4,4,4,4,0,0,0,0,0,0,0,0],"split_type":[0,0,0,0,0,0,0,0,0,0,0,0,0,0,0],"sum_hessian":[5.016E3,4.657E3,3.59E2,3.27E2,4.33E3,1.56E2,2.03E2,3.4E1,2.93E2,2.565E3,1.765E3,1E2,5.6E1,4.1E1,1.62E2],"tree_param":{"num_deleted":"0","num_feature":"5","num_nodes":"15","size_leaf_vector":"0"}},{"base_weights":[-2.1983755E-1,-2.4914853E-1,6.613168E-2,-1.2305089E-1,-2.9200637E-1,3.2644162E-1,-1.527463E-1,-3.001967E-2,2.0550406E-2,-5.0588924E-2,-6.828754E-2,4.577498E-2,2.1175873E-1,-4.312746E-2,5.576208E-3],"categories":[],"categories_nodes":[],"categories_segments":[],"categories_sizes":[],"default_left":[0,0,0,0,0,0,1,0,0,0,0,0,0,0,0],"id":5,"left_children":[1,3,5,7,9,11,13,-1,-1,-1,-1,-1,-1,-1,-1],"loss_changes":[4.2320633E1,2.4704834E1,2.6828636E1,7.1183243E0,6.5095215E0,1.51201E1,2.9141297E0,0E0,0E0,0E0,0E0,0E0,0E0,0E0,0E0],"parents":[2147483647,0,0,1,1,2,2,3,3,4,4,5,5,6,6],"right_children":[2,4,6,8,10,12,14,-1,-1,-1,-1,-1,-1,-1,-1],"split_conditions":[1E0,-6.942022E-1,-8.748228E-2,-7.861294E-1,2.3732737E-1,-1.9166651E-1,2.0758724E0,-3.001967E-2,2.0550406E-2,-5.0588924E-2,-6.828754E-2,4.577498E-2,2.1175873E-1,-4.312746E-2,5.576208E-3],"split_indices":[1,4,4,4,4,4,4,0,0,0,0,0,0,0,0],"split_type":[0,0,0,0,0,0,0,0,0,0,0,0,0,0,0],"sum_hessian":[5.046E3,4.577E3,4.69E2,1.162E3,3.415E3,2.14E2,2.55E2,1.038E3,1.24E2,1.911E3,1.504E3,1.9E2,2.4E1,1.89E2,6.6E1],"tree_param":{"num_deleted":"0","num_feature":"5","num_nodes":"15","size_leaf_vector":"0"}},{"base_weights":[-1.7636491E-1,-2.0136072E-1,6.2011372E-2,4.224764E-2,-2.1803345E-1,2.6856914E-1,-1.3308972E-1,2.4634438E-2,-4.9730944E-3,-1.0333141E-1,-4.207585E-2,1.6581189E-2,1.3820545E-1,6.0533574E-3,-3.5150032E-2],"categories":[],"categories_nodes":[],"categories_segments":[],"categories_sizes":[],"default_left":[0,1,0,0,0,0,0,0,0,0,0,0,0,0,0],"id":6,"left_children":[1,3,5,7,9,11,13,-1,-1,-1,-1,-1,-1,-1,-1],"loss_changes":[3.0036896E1,1.8534256E1,1.9339273E1,1.5943747E0,9.649078E0,1.8218052E1,1.7266283E0,0E0,0E0,0E0,0E0,0E0,0E0,0E0,0E0],"parents":[2147483647,0,0,1,1,2,2,3,3,4,4,5,5,6,6],"right_children":[2,4,6,8,10,12,14,-1,-1,-1,-1,-1,-1,-1,-1],"split_conditions":[1E0,-1.2396373E0,-8.748228E-2,-1.2886652E0,-1.2151233E0,-3.5713556E-1,7.5212E-1,2.4634438E-2,-4.9730944E-3,-1.0333141E-1,-4.207585E-2,1.6581189E-2,1.3820545E-1,6.0533574E-3,-3.5150032E-2],"split_indices":[1,4,4,4,4,4,4,0,0,0,0,0,0,0,0],"split_type":[0,0,0,0,0,0,0,0,0,0,0,0,0,0,0],"sum_hessian":[5.038E3,4.56E3,4.78E2,2.92E2,4.268E3,2.32E2,2.46E2,1.32E2,1.6E2,1.05E2,4.163E3,1.62E2,7E1,5.1E1,1.95E2],"tree_param":{"num_deleted":"0","num_feature":"5","num_nodes":"15","size_leaf_vector":"0"}},{"base_weights":[-1.4466433E-1,-5.700629E-2,-2.1164773E-1,-8.7265335E-2,1.8873838E-1,-1.9245617E-1,-2.5873443E-1,-9.500616E-2,-1.4441629E-2,9.248563E-2,1.1497243E-2,-5.0880153E-2,-3.442042E-2,-5.2854177E-2,-2.4659595E-2],"categories":[],"categories_nodes":[],"categories_segments":[],"categories_sizes":[],"default_left":[0,0,0,0,0,0,0,0,0,0,0,0,0,0,0],"id":7,"left_children":[1,3,5,7,9,11,13,-1,-1,-1,-1,-1,-1,-1,-1],"loss_changes":[2.935785E1,1.6137718E1,2.5121078E0,1.124015E1,8.522943E0,2.5005646E0,5.8078E-1,0E0,0E0,0E0,0E0,0E0,0E0,0E0,0E0],"parents":[2147483647,0,0,1,1,2,2,3,3,4,4,5,5,6,6],"right_children":[2,4,6,8,10,12,14,-1,-1,-1,-1,-1,-1,-1,-1],"split_conditions":[-3.1563756E-1,1E0,1.0311189E0,-1.3738034E0,-8.9923203E-1,-2.4509317E-1,1E0,-9.500616E-2,-1.4441629E-2,9.248563E-2,1.1497243E-2,-5.0880153E-2,-3.442042E-2,-5.2854177E-2,-2.4659595E-2],"split_indices":[3,1,3,3,3,3,2,0,0,0,0,0,0,0,0],"split_type":[0,0,0,0,0,0,0,0,0,0,0,0,0,0,0],"sum_hessian":[5.001E3,2.167E3,2.834E3,1.93E3,2.37E2,2.017E3,8.17E2,7.1E1,1.859E3,7.6E1,1.61E2,4.96E2,1.521E3,7.84E2,3.3E1],"tree_param":{"num_deleted":"0","num_feature":"5","num_nodes":"15","size_leaf_vector":"0"}},{"base_weights":[-1.1303546E-1,-1.359888E-1,1.7068526E-1,-1.7764967E-2,-1.7060368E-1,4.2871207E-1,-9.2420936E-2,-7.510389E-2,1.2595443E-3,-2.9242698E-2,-4.1986372E-2,1.5490082E-1,5.6931645E-2,-6.1497938E-2,-1.0793186E-2],"categories":[],"categories_nodes":[],"categories_segments":[],"categories_sizes":[],"default_left":[0,0,0,0,0,0,0,0,0,0,0,0,0,0,0],"id":8,"left_children":[1,3,5,7,9,11,13,-1,-1,-1,-1,-1,-1,-1,-1],"loss_changes":[3.252629E1,1.8895233E1,2.5429903E1,9.0155E0,3.3956375E0,9.194126E0,1.5217135E0,0E0,0E0,0E0,0E0,0E0,0E0,0E0,0E0],"parents":[2147483647,0,0,1,1,2,2,3,3,4,4,5,5,6,6],"right_children":[2,4,6,8,10,12,14,-1,-1,-1,-1,-1,-1,-1,-1],"split_conditions":[1E0,-8.8640577E-1,-2.4509317E-1,-1.3738034E0,3.898063E-1,-8.9923203E-1,2.936094E-1,-7.510389E-2,1.2595443E-3,-2.9242698E-2,-4.1986372E-2,1.5490082E-1,5.6931645E-2,-6.1497938E-2,-1.0793186E-2],"split_indices":[0,3,3,3,3,3,3,0,0,0,0,0,0,0,0],"split_type":[0,0,0,0,0,0,0,0,0,0,0,0,0,0,0],"sum_hessian":[4.99E3,4.617E3,3.73E2,1.046E3,3.571E3,1.88E2,1.85E2,6.5E1,9.81E2,2.207E3,1.364E3,5.4E1,1.34E2,2.7E1,1.58E2],"tree_param":{"num_deleted":"0","num_feature":"5","num_nodes":"15","size_leaf_vector":"0"}},{"base_weights":[-8.783345E-2,-1.0665036E-1,1.490693E-1,-9.561105E-3,-1.358806E-1,3.3393878E-1,-4.6898905E-2,-9.107258E-3,5.4366287E-2,-9.3518876E-2,-2.6378173E-2,5.1766373E-2,2.6732776E-1,-3.4022186E-2,8.5459575E-3],"categories":[],"categories_nodes":[],"categories_segments":[],"categories_sizes":[],"default_left":[0,0,0,0,0,0,1,0,0,0,0,0,0,0,0],"id":9,"left_children":[1,3,5,7,9,11,13,-1,-1,-1,-1,-1,-1,-1,-1],"loss_changes":[2.2344906E1,1.3169601E1,1.3383994E1,1.0894763E1,4.659088E0,1.3962885E1,1.9950687E0,0E0,0E0,0E0,0E0,0E0,0E0,0E0,0E0],"parents":[2147483647,0,0,1,1,2,2,3,3,4,4,5,5,6,6],"right_children":[2,4,6,8,10,12,14,-1,-1,-1,-1,-1,-1,-1,-1],"split_conditions":[1E0,-8.8640577E-1,-2.4509317E-1,-9.248845E-1,-9.761124E-1,5.4375154E-1,1.7020351E0,-9.107258E-3,5.4366287E-2,-9.3518876E-2,-2.6378173E-2,5.1766373E-2,2.6732776E-1,-3.4022186E-2,8.5459575E-3],"split_indices":[0,3,3,3,4,4,4,0,0,0,0,0,0,0,0],"split_type":[0,0,0,0,0,0,0,0,0,0,0,0,0,0,0],"sum_hessian":[5.008E3,4.64E3,3.68E2,1.074E3,3.566E3,1.89E2,1.79E2,9.53E2,1.21E2,4.1E1,3.525E3,1.77E2,1.2E1,7.5E1,1.04E2],"tree_param":{"num_deleted":"0","num_feature":"5","num_nodes":"15","size_leaf_vector":"0"}},{"base_weights":[-6.9963366E-2,1.6303688E-2,-9.418443E-2,-1.612519E-2,8.0854666E-1,-1.3013135E-1,-7.5965844E-2,-8.442909E-3,6.0212415E-2,4.1720888E-1,8.180626E-2,-2.0341894E-2,-3.7257735E-2,2.1236999E-2,-2.1175971E-2],"categories":[],"categories_nodes":[],"categories_segments":[],"categories_sizes":[],"default_left":[0,0,0,0,0,0,0,0,0,0,0,0,0,0,0],"id":10,"left_children":[1,3,5,7,9,11,13,-1,-1,-1,-1,-1,-1,-1,-1],"loss_changes":[1.0411322E1,2.8093903E1,2.5376854E0,8.709956E0,2.1093084E1,2.06715E0,1.40911E1,0E0,0E0,0E0,0E0,0E0,0E0,0E0,0E0],"parents":[2147483647,0,0,1,1,2,2,3,3,4,4,5,5,6,6],"right_children":[2,4,6,8,10,12,14,-1,-1,-1,-1,-1,-1,-1,-1],"split_conditions":[-8.9281887E-1,-5.90018E-1,-3.5713556E-1,-9.1205823E-1,-1.0980389E0,-3.8777798E-1,-1.3607003E-1,-8.442909E-3,6.0212415E-2,4.1720888E-1,8.180626E-2,-2.0341894E-2,-3.7257735E-2,2.1236999E-2,-2.1175971E-2],"split_indices":[3,4,4,3,3,4,3,0,0,0,0,0,0,0,0],"split_type":[0,0,0,0,0,0,0,0,0,0,0,0,0,0,0],"sum_hessian":[4.981E3,1.092E3,3.889E3,1.05E3,4.2E1,1.306E3,2.583E3,9.71E2,7.9E1,9E0,3.3E1,8.69E2,4.37E2,3.64E2,2.219E3],"tree_param":{"num_deleted":"0","num_feature":"5","num_nodes":"15","size_leaf_vector":"0"}},{"base_weights":[-5.301529E-2,2.9960237E-2,-7.769952E-2,-4.5152507E-3,3.744298E-1,-6.730947E-2,-1.1374702E-1,-7.1141355E-2,3.0509678E-3,-1.6264905E-1,8.83892E-2,-1.4064373E-2,1.2439022E-2,-2.1356171E-2,-3.4978986E-2],"categories":[],"categories_nodes":[],"categories_segments":[],"categories_sizes":[],"default_left":[0,0,0,0,0,0,0,0,0,0,0,0,0,0,0],"id":11,"left_children":[1,3,5,7,9,11,13,-1,-1,-1,-1,-1,-1,-1,-1],"loss_changes":[1.0304708E1,1.3706314E1,1.444418E0,7.295668E0,8.779077E0,1.1794138E0,3.5021114E-1,0E0,0E0,0E0,0E0,0E0,0E0,0E0,0E0],"parents":[2147483647,0,0,1,1,2,2,3,3,4,4,5,5,6,6],"right_children":[2,4,6,8,10,12,14,-1,-1,-1,-1,-1,-1,-1,-1],"split_conditions":[-8.8640577E-1,1E0,9.285089E-1,-1.463587E0,-1.463587E0,8.900301E-1,2.3778753E0,-7.1141355E-2,3.0509678E-3,-1.6264905E-1,8.83892E-2,-1.4064373E-2,1.2439022E-2,-2.1356171E-2,-3.4978986E-2],"split_indices":[3,1,3,3,3,3,3,0,0,0,0,0,0,0,0],"split_type":[0,0,0,0,0,0,0,0,0,0,0,0,0,0,0],"sum_hessian":[5.029E3,1.153E3,3.876E3,1.049E3,1.04E2,3.011E3,8.65E2,5.5E1,9.94E2,5E0,9.9E1,2.943E3,6.8E1,7.79E2,8.6E1],"tree_param":{"num_deleted":"0","num_feature":"5","num_nodes":"15","size_leaf_vector":"0"}},{"base_weights":[-4.7995303E-2,1.4282128E-1,-5.424491E-2,-2.3172177E-2,1.9159313E-1,-1.8224435E-1,-4.3408662E-2,-1.2520093E-2,1.790885E-2,6.464862E-2,3.023989E-2,-1.911097E-2,-9.013939E-2,1.8223112E-2,-1.2563394E-2],"categories":[],"categories_nodes":[],"categories_segments":[],"categories_sizes":[],"default_left":[1,1,0,0,0,0,0,0,0,0,0,0,0,0,0],"id":12,"left_children":[1,3,5,7,9,11,13,-1,-1,-1,-1,-1,-1,-1,-1],"loss_changes":[5.976351E0,1.2916727E0,6.715041E0,1.7004152E-1,6.052184E-1,8.753757E0,1.1676392E1,0E0,0E0,0E0,0E0,0E0,0E0,0E0,0E0],"parents":[2147483647,0,0,1,1,2,2,3,3,4,4,5,5,6,6],"right_children":[2,4,6,8,10,12,14,-1,-1,-1,-1,-1,-1,-1,-1],"split_conditions":[-1.2886652E0,-1.313179E0,-1.149344E0,-1.2391276E0,-1.2263014E0,-1.1557571E0,-8.9281887E-1,-1.2520093E-2,1.790885E-2,6.464862E-2,3.023989E-2,-1.911097E-2,-9.013939E-2,1.8223112E-2,-1.2563394E-2],"split_indices":[4,4,3,3,3,3,3,0,0,0,0,0,0,0,0],"split_type":[0,0,0,0,0,0,0,0,0,0,0,0,0,0,0],"sum_hessian":[5.004E3,1.58E2,4.846E3,3.6E1,1.22E2,3.77E2,4.469E3,2.7E1,9E0,2.7E1,9.5E1,2.86E2,9.1E1,5.63E2,3.906E3],"tree_param":{"num_deleted":"0","num_feature":"5","num_nodes":"15","size_leaf_vector":"0"}},{"base_weights":[-3.707488E-2,-4.9831573E-2,1.2528935E-1,-3.514208E-2,-8.349003E-2,5.3305423E-1,4.6258572E-2,-5.009654E-2,-6.3206116E-3,-3.6669433E-2,-1.4599971E-2,-8.966904E-2,1.3475755E-1,2.5181198E-2,-3.1402078E-3],"categories":[],"categories_nodes":[],"categories_segments":[],"categories_sizes":[],"default_left":[0,0,0,0,0,0,0,0,0,0,0,0,0,0,0],"id":13,"left_children":[1,3,5,7,9,11,13,-1,-1,-1,-1,-1,-1,-1,-1],"loss_changes":[1.03479E1,2.2862568E0,1.1705597E1,2.4498405E0,1.4594278E0,8.450918E0,1.5120633E0,0E0,0E0,0E0,0E0,0E0,0E0,0E0,0E0],"parents":[2147483647,0,0,1,1,2,2,3,3,4,4,5,5,6,6],"right_children":[2,4,6,8,10,12,14,-1,-1,-1,-1,-1,-1,-1,-1],"split_conditions":[1E0,3.898063E-1,-8.9923203E-1,-1.463587E0,3.9621943E-1,-1.463587E0,-1.2324377E-1,-5.009654E-2,-6.3206116E-3,-3.6669433E-2,-1.4599971E-2,-8.966904E-2,1.3475755E-1,2.5181198E-2,-3.1402078E-3],"split_indices":[0,3,3,3,3,3,3,0,0,0,0,0,0,0,0],"split_type":[0,0,0,0,0,0,0,0,0,0,0,0,0,0,0],"sum_hessian":[4.992E3,4.629E3,3.63E2,3.224E3,1.405E3,5.8E1,3.05E2,5.1E1,3.173E3,1.32E2,1.273E3,7E0,5.1E1,1.33E2,1.72E2],"tree_param":{"num_deleted":"0","num_feature":"5","num_nodes":"15","size_leaf_vector":"0"}},{"base_weights":[-3.1465407E-2,-4.346626E-2,1.1620047E-1,-2.1517049E-1,-4.1296624E-2,2.2926763E-1,2.5119146E-3,-9.124994E-2,-3.767347E-2,6.8381377E-3,-9.489653E-3,-9.039986E-2,5.4062195E-2,-2.3176547E-2,6.898699E-3],"categories":[],"categories_nodes":[],"categories_segments":[],"categories_sizes":[],"default_left":[0,0,0,0,0,0,0,0,0,0,0,0,0,0,0],"id":14,"left_children":[1,3,5,7,9,11,13,-1,-1,-1,-1,-1,-1,-1,-1],"loss_changes":[8.792975E0,1.699933E0,4.794131E0,2.823732E-1,2.1056857E0,5.350974E0,7.12063E-1,0E0,0E0,0E0,0E0,0E0,0E0,0E0,0E0],"parents":[2147483647,0,0,1,1,2,2,3,3,4,4,5,5,6,6],"right_children":[2,4,6,8,10,12,14,-1,-1,-1,-1,-1,-1,-1,-1],"split_conditions":[1E0,-1.3738034E0,-2.515063E-1,1E0,-1.1749964E0,-1.463587E0,2.936094E-1,-9.124994E-2,-3.767347E-2,6.8381377E-3,-9.489653E-3,-9.039986E-2,5.4062195E-2,-2.3176547E-2,6.898699E-3],"split_indices":[0,3,3,2,3,3,3,0,0,0,0,0,0,0,0],"split_type":[0,0,0,0,0,0,0,0,0,0,0,0,0,0,0],"sum_hessian":[4.958E3,4.586E3,3.72E2,5.6E1,4.53E3,1.86E2,1.86E2,4E0,5.2E1,3.41E2,4.189E3,1E1,1.76E2,3.9E1,1.47E2],"tree_param":{"num_deleted":"0","num_feature":"5","num_nodes":"15","size_leaf_vector":"0"}},{"base_weights":[-2.6295211E-2,-3.617267E-2,1.0121704E-1,-3.3136677E-2,-1.7612105E-2,-3.3865143E-3,3.445774E-2,-7.0845657E-3,-4.7401884E-3],"categories":[],"categories_nodes":[],"categories_segments":[],"categories_sizes":[],"default_left":[0,0,0,0,0,0,0,0,0],"id":15,"left_children":[1,3,5,7,-1,-1,-1,-1,-1],"loss_changes":[6.2532864E0,7.2267103E-1,3.0006783E0,9.3061924E-2,0E0,0E0,0E0,0E0,0E0],"parents":[2147483647,0,0,1,1,2,2,3,3],"right_children":[2,4,6,8,-1,-1,-1,-1,-1],"split_conditions":[1E0,1E0,1E0,1E0,-1.7612105E-2,-3.3865143E-3,3.445774E-2,-7.0845657E-3,-4.7401884E-3],"split_indices":[0,1,1,2,0,0,0,0,0],"split_type":[0,0,0,0,0,0,0,0,0],"sum_hessian":[4.961E3,4.605E3,3.56E2,4.352E3,2.53E2,1.34E2,2.22E2,3.501E3,8.51E2],"tree_param":{"num_deleted":"0","num_feature":"5","num_nodes":"9","size_leaf_vector":"0"}},{"base_weights":[-2.1377683E-2,-7.297825E-2,-1.5099951E-2,-4.669673E-3,-7.118529E-2,3.4950998E-1,-1.9666597E-2,-3.5484266E-2,4.567269E-3,4.6701383E-2,3.5403442E-1,9.7561395E-3,-5.6685335E-3],"categories":[],"categories_nodes":[],"categories_segments":[],"categories_sizes":[],"default_left":[0,0,0,0,0,0,0,0,0,0,0,0,0],"id":16,"left_children":[1,3,5,7,-1,9,11,-1,-1,-1,-1,-1,-1],"loss_changes":[1.612416E0,1.0435345E1,7.4030027E0,2.075797E0,0E0,8.650717E0,2.6072125E0,0E0,0E0,0E0,0E0,0E0,0E0],"parents":[2147483647,0,0,1,1,2,2,3,3,5,5,6,6],"right_children":[2,4,6,8,-1,10,12,-1,-1,-1,-1,-1,-1],"split_conditions":[-1.149344E0,-1.1557571E0,-1.1172783E0,-1.3738034E0,-7.118529E-2,1E0,-8.9281887E-1,-3.5484266E-2,4.567269E-3,4.6701383E-2,3.5403442E-1,9.7561395E-3,-5.6685335E-3],"split_indices":[3,3,3,3,0,1,3,0,0,0,0,0,0],"split_type":[0,0,0,0,0,0,0,0,0,0,0,0,0],"sum_hessian":[4.98E3,5.39E2,4.441E3,4.35E2,1.04E2,5.4E1,4.387E3,5.9E1,3.76E2,5.1E1,3E0,4.93E2,3.894E3],"tree_param":{"num_deleted":"0","num_feature":"5","num_nodes":"13","size_leaf_vector":"0"}},{"base_weights":[-1.7000435E-2,-2.4851846E-2,8.3762944E-2,-1.8001033E-2,-5.772346E-2,6.0078996E-1,3.3220004E-2,-1.0908695E-2,-2.4309093E-3,-1.6369304E-2,-8.433584E-3,3.2868426E-2,2.300397E-1,-3.992593E-2,1.4163623E-2],"categories":[],"categories_nodes":[],"categories_segments":[],"categories_sizes":[],"default_left":[0,0,0,0,0,0,0,0,0,0,0,0,0,0,0],"id":17,"left_children":[1,3,5,7,9,11,13,-1,-1,-1,-1,-1,-1,-1,-1],"loss_changes":[3.9395595E0,1.0389221E0,9.387587E0,8.1610155E-1,2.952454E-1,7.4841948E0,2.8944356E0,0E0,0E0,0E0,0E0,0E0,0E0,0E0,0E0],"parents":[2147483647,0,0,1,1,2,2,3,3,4,4,5,5,6,6],"right_children":[2,4,6,8,10,12,14,-1,-1,-1,-1,-1,-1,-1,-1],"split_conditions":[1E0,9.285089E-1,-9.633633E-1,-1.1301045E0,1.447972E0,-1.149344E0,-8.8640577E-1,-1.0908695E-2,-2.4309093E-3,-1.6369304E-2,-8.433584E-3,3.2868426E-2,2.300397E-1,-3.992593E-2,1.4163623E-2],"split_indices":[0,3,3,3,3,3,3,0,0,0,0,0,0,0,0],"split_type":[0,0,0,0,0,0,0,0,0,0,0,0,0,0,0],"sum_hessian":[4.976E3,4.617E3,3.59E2,3.822E3,7.95E2,3.1E1,3.28E2,5.26E2,3.296E3,3.1E2,4.85E2,1.8E1,1.3E1,4.5E1,2.83E2],"tree_param":{"num_deleted":"0","num_feature":"5","num_nodes":"15","size_leaf_vector":"0"}},{"base_weights":[-1.1875643E-2,1.6262831E-2,-1.9847564E-2,-1.2104502E-2,1.2587757E-1,-1.18614696E-1,-1.3730279E-2,-4.778493E-3,3.4757745E-2,1.9150376E-2,4.6426006E-2,-4.108455E-2,7.055048E-3,3.7409116E-2,-3.7873897E-3],"categories":[],"categories_nodes":[],"categories_segments":[],"categories_sizes":[],"default_left":[0,0,0,0,0,0,0,0,0,0,0,0,0,0,0],"id":18,"left_children":[1,3,5,7,9,11,13,-1,-1,-1,-1,-1,-1,-1,-1],"loss_changes":[1.1113684E0,3.4032927E0,2.3305326E0,1.9105856E0,6.979821E-1,3.0129955E0,3.8045208E0,0E0,0E0,0E0,0E0,0E0,0E0,0E0,0E0],"parents":[2147483647,0,0,1,1,2,2,3,3,4,4,5,5,6,6],"right_children":[2,4,6,8,10,12,14,-1,-1,-1,-1,-1,-1,-1,-1],"split_conditions":[-8.9281887E-1,-9.761895E-1,-7.324907E-1,1E0,1E0,1E0,-6.362938E-1,-4.778493E-3,3.4757745E-2,1.9150376E-2,4.6426006E-2,-4.108455E-2,7.055048E-3,3.7409116E-2,-3.7873897E-3],"split_indices":[3,3,3,1,2,2,3,0,0,0,0,0,0,0,0],"split_type":[0,0,0,0,0,0,0,0,0,0,0,0,0,0,0],"sum_hessian":[4.952E3,1.093E3,3.859E3,8.69E2,2.24E2,2.24E2,3.635E3,8.18E2,5.1E1,1.76E2,4.8E1,1.43E2,8.1E1,9.1E1,3.544E3],"tree_param":{"num_deleted":"0","num_feature":"5","num_nodes":"15","size_leaf_vector":"0"}},{"base_weights":[-1.3288046E-2,6.348132E-2,-1.8707504E-2,4.127986E-2,1.287859E-1,-4.052068E-2,-1.4173735E-2,1.918467E-2,-1.0365034E-2,3.0636653E-2,2.001146E-2,7.9998575E-2,-3.1999927E-3],"categories":[],"categories_nodes":[],"categories_segments":[],"categories_sizes":[],"default_left":[0,0,0,0,0,0,0,0,0,0,0,0,0],"id":19,"left_children":[1,3,5,7,9,-1,11,-1,-1,-1,-1,-1,-1],"loss_changes":[2.0756047E0,4.7168672E-1,3.8806956E0,1.2616041E0,4.2847753E-2,0E0,3.4455795E0,0E0,0E0,0E0,0E0,0E0,0E0],"parents":[2147483647,0,0,1,1,2,2,3,3,4,4,6,6],"right_children":[2,4,6,8,10,-1,12,-1,-1,-1,-1,-1,-1],"split_conditions":[-1.2396373E0,-1.2641512E0,-1.2151233E0,-1.2886652E0,-1.2580227E0,-4.052068E-2,-1.2089949E0,1.918467E-2,-1.0365034E-2,3.0636653E-2,2.001146E-2,7.9998575E-2,-3.1999927E-3],"split_indices":[4,4,4,4,4,0,4,0,0,0,0,0,0],"split_type":[0,0,0,0,0,0,0,0,0,0,0,0,0],"sum_hessian":[4.985E3,3.28E2,4.657E3,2.46E2,8.2E1,1.11E2,4.546E3,1.55E2,9.1E1,4.2E1,4E1,1.9E1,4.527E3],"tree_param":{"num_deleted":"0","num_feature":"5","num_nodes":"13","size_leaf_vector":"0"}},{"base_weights":[-8.156873E-3,-1.2831636E-1,-6.6630044E-3,-6.368467E-2,-8.0124356E-2,2.208305E-3,-2.6442636E-2,-5.0399836E-2,-7.249883E-3,7.495949E-5,1.9817445E-2,-1.5203717E-2,-2.9103882E-3],"categories":[],"categories_nodes":[],"categories_segments":[],"categories_sizes":[],"default_left":[0,0,0,0,0,0,0,0,0,0,0,0,0],"id":20,"left_children":[1,3,5,-1,7,9,11,-1,-1,-1,-1,-1,-1],"loss_changes":[8.916317E-1,5.333464E-1,8.6197305E-1,0E0,3.67915E-1,6.024778E-1,8.95512E-1,0E0,0E0,0E0,0E0,0E0,0E0],"parents":[2147483647,0,0,1,1,2,2,4,4,5,5,6,6],"right_children":[2,4,6,-1,8,10,12,-1,-1,-1,-1,-1,-1],"split_conditions":[-1.463587E0,1E0,3.898063E-1,-6.368467E-2,-1.5341314E0,3.2567504E-1,6.463313E-1,-5.0399836E-2,-7.249883E-3,7.495949E-5,1.9817445E-2,-1.5203717E-2,-2.9103882E-3],"split_indices":[3,2,3,0,3,3,3,0,0,0,0,0,0],"split_type":[0,0,0,0,0,0,0,0,0,0,0,0,0],"sum_hessian":[4.971E3,6E1,4.911E3,1.1E1,4.9E1,3.391E3,1.52E3,9E0,4E1,3.329E3,6.2E1,2.93E2,1.227E3],"tree_param":{"num_deleted":"0","num_feature":"5","num_nodes":"13","size_leaf_vector":"0"}},{"base_weights":[-4.354768E-3,-2.340358E-2,1.3459043E-2,-4.9850764E-3,-9.662101E-2,1.2687565E0,7.711033E-3,-2.9392473E-3,9.7776376E-2,-8.325175E-2,-1.4577749E-2,-9.178803E-2,4.3799448E-1,4.3968618E-2,-2.495675E-3],"categories":[],"categories_nodes":[],"categories_segments":[],"categories_sizes":[],"default_left":[1,1,0,1,0,0,0,0,0,0,0,0,0,0,0],"id":21,"left_children":[1,3,5,7,9,11,13,-1,-1,-1,-1,-1,-1,-1,-1],"loss_changes":[1.7295504E0,3.32101E0,1.8995743E1,9.45055E0,3.7245936E0,2.0104046E1,1.1236582E1,0E0,0E0,0E0,0E0,0E0,0E0,0E0,0E0],"parents":[2147483647,0,0,1,1,2,2,3,3,4,4,5,5,6,6],"right_children":[2,4,6,8,10,12,14,-1,-1,-1,-1,-1,-1,-1,-1],"split_conditions":[-3.2649314E-1,-3.8777798E-1,-1.0082551E0,-4.184204E-1,-6.491201E-1,-1.2391276E0,-2.4682286E-1,-2.9392473E-3,9.7776376E-2,-8.325175E-2,-1.4577749E-2,-9.178803E-2,4.3799448E-1,4.3968618E-2,-2.495675E-3],"split_indices":[4,4,3,4,3,3,4,0,0,0,0,0,0,0,0],"split_type":[0,0,0,0,0,0,0,0,0,0,0,0,0,0,0],"sum_hessian":[5.095E3,2.462E3,2.633E3,1.968E3,4.94E2,1.1E1,2.622E3,1.931E3,3.7E1,3.3E1,4.61E2,4E0,7E0,2.27E2,2.395E3],"tree_param":{"num_deleted":"0","num_feature":"5","num_nodes":"15","size_leaf_vector":"0"}},{"base_weights":[-5.860575E-3,-8.977109E-3,3.3867724E-2,-1.4562458E-3,-7.451452E-3,-1.0121985E-2,1.6791709E-2],"categories":[],"categories_nodes":[],"categories_segments":[],"categories_sizes":[],"default_left":[0,0,0,0,0,0,0],"id":22,"left_children":[1,3,5,-1,-1,-1,-1],"loss_changes":[6.1442435E-1,2.2034347E-1,1.5318403E0,0E0,0E0,0E0,0E0],"parents":[2147483647,0,0,1,1,2,2],"right_children":[2,4,6,-1,-1,-1,-1],"split_conditions":[1E0,1E0,1E0,-1.4562458E-3,-7.451452E-3,-1.0121985E-2,1.6791709E-2],"split_indices":[0,1,1,0,0,0,0],"split_type":[0,0,0,0,0,0,0],"sum_hessian":[4.959E3,4.599E3,3.6E2,4.34E3,2.59E2,1.34E2,2.26E2],"tree_param":{"num_deleted":"0","num_feature":"5","num_nodes":"7","size_leaf_vector":"0"}},{"base_weights":[-4.4951038E-4,7.669248E-2,-5.6802183E-3,-1.00220345E-1,8.755809E-2,-1.2943743E-1,2.855924E-4,4.28088E-2,1.4467624E-2,-2.7669487E-3,-3.5668597E-2,4.4743594E-2,-5.519787E-4],"categories":[],"categories_nodes":[],"categories_segments":[],"categories_sizes":[],"default_left":[0,0,0,0,0,0,0,0,0,0,0,0,0],"id":23,"left_children":[1,3,5,-1,7,9,11,-1,-1,-1,-1,-1,-1],"loss_changes":[2.01434E0,2.0340304E0,3.451646E0,0E0,5.851517E-1,1.2130597E0,3.0361502E0,0E0,0E0,0E0,0E0,0E0,0E0],"parents":[2147483647,0,0,1,1,2,2,4,4,5,5,6,6],"right_children":[2,4,6,-1,8,10,12,-1,-1,-1,-1,-1,-1],"split_conditions":[-1.2396373E0,-1.463587E0,-1.149344E0,-1.00220345E-1,-1.3289114E0,-1.3289114E0,-1.1172783E0,4.28088E-2,1.4467624E-2,-2.7669487E-3,-3.5668597E-2,4.4743594E-2,-5.519787E-4],"split_indices":[4,3,3,0,3,3,3,0,0,0,0,0,0],"split_type":[0,0,0,0,0,0,0,0,0,0,0,0,0],"sum_hessian":[4.99E3,3.16E2,4.674E3,5E0,3.11E2,2.14E2,4.46E3,3.2E1,2.79E2,6.4E1,1.5E2,5.9E1,4.401E3],"tree_param":{"num_deleted":"0","num_feature":"5","num_nodes":"13","size_leaf_vector":"0"}},{"base_weights":[-6.7603344E-4,-7.4945246E-3,8.2511336E-2,4.9456824E-2,-1.1870605E-2,-2.1939379E-1,9.812925E-2,-1.2670514E-2,1.26019595E-2,-2.532047E-2,-1.7496854E-3,-6.323135E-3,-1.07356526E-1,4.354398E-2,6.8270736E-3],"categories":[],"categories_nodes":[],"categories_segments":[],"categories_sizes":[],"default_left":[0,0,1,0,0,1,0,0,0,0,0,0,0,0,0],"id":24,"left_children":[1,3,5,7,9,11,13,-1,-1,-1,-1,-1,-1,-1,-1],"loss_changes":[2.8451884E0,1.155988E0,1.813278E0,5.1005876E-1,1.541357E0,1.1154039E0,2.7629793E0,0E0,0E0,0E0,0E0,0E0,0E0,0E0,0E0],"parents":[2147483647,0,0,1,1,2,2,3,3,4,4,5,5,6,6],"right_children":[2,4,6,8,10,12,14,-1,-1,-1,-1,-1,-1,-1,-1],"split_conditions":[1E0,-1.2396373E0,-1.0006263E0,-1.313179E0,-1.2151233E0,-1.1967379E0,-1.7940953E-1,-1.2670514E-2,1.26019595E-2,-2.532047E-2,-1.7496854E-3,-6.323135E-3,-1.07356526E-1,4.354398E-2,6.8270736E-3],"split_indices":[0,4,4,4,4,4,4,0,0,0,0,0,0,0,0],"split_type":[0,0,0,0,0,0,0,0,0,0,0,0,0,0,0],"sum_hessian":[5.014E3,4.635E3,3.79E2,3.3E2,4.305E3,1.8E1,3.61E2,3.5E1,2.95E2,1.13E2,4.192E3,1.2E1,6E0,1.25E2,2.36E2],"tree_param":{"num_deleted":"0","num_feature":"5","num_nodes":"15","size_leaf_vector":"0"}},{"base_weights":[-4.4160784E-4,1.1473352E-2,-1.85464E-2,-1.1147302E-2,9.1218494E-2,-2.4217698E-1,-9.577566E-3,7.3467003E-4,-1.4479793E-2,1.635834E-1,1.512364E-2,5.6991573E-2,-5.347962E-2,1.0529613E-1,-2.8140296E-3],"categories":[],"categories_nodes":[],"categories_segments":[],"categories_sizes":[],"default_left":[0,0,0,0,0,0,0,0,0,0,0,0,0,0,0],"id":25,"left_children":[1,3,5,7,9,11,13,-1,-1,-1,-1,-1,-1,-1,-1],"loss_changes":[1.0859208E0,5.477618E0,4.0050807E0,2.1480958E0,7.545087E0,1.0999064E0,4.6361322E0,0E0,0E0,0E0,0E0,0E0,0E0,0E0,0E0],"parents":[2147483647,0,0,1,1,2,2,3,3,4,4,5,5,6,6],"right_children":[2,4,6,8,10,12,14,-1,-1,-1,-1,-1,-1,-1,-1],"split_conditions":[-8.748228E-2,-3.5713556E-1,-3.2325927E-2,-3.8777798E-1,-9.633633E-1,-7.0683825E-1,-1.3940475E-2,7.3467003E-4,-1.4479793E-2,1.635834E-1,1.512364E-2,5.6991573E-2,-5.347962E-2,1.0529613E-1,-2.8140296E-3],"split_indices":[4,4,4,4,3,3,4,0,0,0,0,0,0,0,0],"split_type":[0,0,0,0,0,0,0,0,0,0,0,0,0,0,0],"sum_hessian":[5.032E3,3.035E3,1.997E3,2.365E3,6.7E2,7.6E1,1.921E3,1.905E3,4.6E2,1.3E1,6.57E2,3E0,7.3E1,1.5E1,1.906E3],"tree_param":{"num_deleted":"0","num_feature":"5","num_nodes":"15","size_leaf_vector":"0"}},{"base_weights":[-1.3058612E-3,-3.2833025E-3,2.4393518E-2,-1.0927853E-3,-8.070011E-3,5.9775288E-5,7.379414E-3,-1.05751504E-4,-7.0248096E-4],"categories":[],"categories_nodes":[],"categories_segments":[],"categories_sizes":[],"default_left":[0,0,0,0,0,0,0,0,0],"id":26,"left_children":[1,3,5,7,-1,-1,-1,-1,-1],"loss_changes":[2.5605547E-1,3.7978777E-1,1.0844569E-1,6.0275313E-3,0E0,0E0,0E0,0E0,0E0],"parents":[2147483647,0,0,1,1,2,2,3,3],"right_children":[2,4,6,8,-1,-1,-1,-1,-1],"split_conditions":[1E0,1E0,1E0,1E0,-8.070011E-3,5.9775288E-5,7.379414E-3,-1.05751504E-4,-7.0248096E-4],"split_indices":[0,1,1,2,0,0,0,0,0],"split_type":[0,0,0,0,0,0,0,0,0],"sum_hessian":[5.036E3,4.677E3,3.59E2,4.417E3,2.6E2,1.23E2,2.36E2,3.583E3,8.34E2],"tree_param":{"num_deleted":"0","num_feature":"5","num_nodes":"9","size_leaf_vector":"0"}},{"base_weights":[-2.1645296E-3,-8.936343E-4,-1.0952927E-1,-4.969376E-3,8.7424345E-2,-6.8471536E-2,-5.6493122E-2,1.8090711E-4,-7.608201E-3,5.3778388E-2,-2.4338658E-3,6.788686E-3,-1.5177734E-2],"categories":[],"categories_nodes":[],"categories_segments":[],"categories_sizes":[],"default_left":[1,1,0,0,0,0,0,0,0,0,0,0,0],"id":27,"left_children":[1,3,5,7,9,11,-1,-1,-1,-1,-1,-1,-1],"loss_changes":[6.881526E-1,1.7952015E0,3.995812E-1,9.260709E-1,3.9793372E0,3.979759E-2,0E0,0E0,0E0,0E0,0E0,0E0,0E0],"parents":[2147483647,0,0,1,1,2,2,3,3,4,4,5,5],"right_children":[2,4,6,8,10,12,-1,-1,-1,-1,-1,-1,-1],"split_conditions":[2.3822968E0,2.0758724E0,1E0,8.5017574E-1,1.1144896E0,1.1144896E0,-5.6493122E-2,1.8090711E-4,-7.608201E-3,5.3778388E-2,-2.4338658E-3,6.788686E-3,-1.5177734E-2],"split_indices":[4,4,0,4,3,3,0,0,0,0,0,0,0],"split_type":[0,0,0,0,0,0,0,0,0,0,0,0,0],"sum_hessian":[5.043E3,4.985E3,5.8E1,4.766E3,2.19E2,4.8E1,1E1,4.048E3,7.18E2,7.7E1,1.42E2,3E0,4.5E1],"tree_param":{"num_deleted":"0","num_feature":"5","num_nodes":"13","size_leaf_vector":"0"}},{"base_weights":[2.0502068E-3,-1.551226E-3,4.6212237E-2,-3.691205E-4,-6.736982E-2,3.9106083E-1,1.1093649E-2,-9.39432E-3,2.6231393E-4,-1.2728736E-2,-2.0792067E-2,-2.4423053E-2,1.0028922E-1,-5.6693364E-2,5.2560763E-3],"categories":[],"categories_nodes":[],"categories_segments":[],"categories_sizes":[],"default_left":[0,0,0,0,0,0,0,0,0,0,0,0,0,0,0],"id":28,"left_children":[1,3,5,7,9,11,13,-1,-1,-1,-1,-1,-1,-1,-1],"loss_changes":[7.9943985E-1,3.6161056E-1,4.585577E0,3.5776877E-1,4.56357E-3,2.0438814E0,1.5507764E0,0E0,0E0,0E0,0E0,0E0,0E0,0E0,0E0],"parents":[2147483647,0,0,1,1,2,2,3,3,4,4,5,5,6,6],"right_children":[2,4,6,8,10,12,14,-1,-1,-1,-1,-1,-1,-1,-1],"split_conditions":[1E0,2.3778753E0,-9.633633E-1,-1.2263014E0,2.9550567E0,-1.463587E0,-9.248845E-1,-9.39432E-3,2.6231393E-4,-1.2728736E-2,-2.0792067E-2,-2.4423053E-2,1.0028922E-1,-5.6693364E-2,5.2560763E-3],"split_indices":[0,3,3,3,3,3,3,0,0,0,0,0,0,0,0],"split_type":[0,0,0,0,0,0,0,0,0,0,0,0,0,0,0],"sum_hessian":[5.025E3,4.647E3,3.78E2,4.566E3,8.1E1,3.4E1,3.44E2,1.58E2,4.408E3,7.6E1,5E0,6E0,2.8E1,1.6E1,3.28E2],"tree_param":{"num_deleted":"0","num_feature":"5","num_nodes":"15","size_leaf_vector":"0"}},{"base_weights":[-2.0841507E-3,-5.600446E-3,4.045834E-2,2.0902371E-2,-1.118914E-2,-1.9706367E-1,6.13208E-2,-4.0263296E-4,1.837613E-2,-2.4430342E-2,-1.0005304E-3,-5.9483062E-2,-1.9385224E-2,7.24858E-2,3.1711552E-3],"categories":[],"categories_nodes":[],"categories_segments":[],"categories_sizes":[],"default_left":[0,0,0,0,1,0,0,0,0,0,0,0,0,0,0],"id":29,"left_children":[1,3,5,7,9,11,13,-1,-1,-1,-1,-1,-1,-1,-1],"loss_changes":[7.4654084E-1,6.8290126E-1,1.9000509E0,1.3062689E0,2.6127753E0,2.8269076E-1,4.799405E0,0E0,0E0,0E0,0E0,0E0,0E0,0E0,0E0],"parents":[2147483647,0,0,1,1,2,2,3,3,4,4,5,5,6,6],"right_children":[2,4,6,8,10,12,14,-1,-1,-1,-1,-1,-1,-1,-1],"split_conditions":[1E0,-9.883694E-1,-6.513028E-1,-1.0680397E0,-8.2290035E-1,-1.0680397E0,-4.0003496E-1,-4.0263296E-4,1.837613E-2,-2.4430342E-2,-1.0005304E-3,-5.9483062E-2,-1.9385224E-2,7.24858E-2,3.1711552E-3],"split_indices":[0,4,4,4,4,4,4,0,0,0,0,0,0,0,0],"split_type":[0,0,0,0,0,0,0,0,0,0,0,0,0,0,0],"sum_hessian":[4.988E3,4.608E3,3.8E2,8.02E2,3.806E3,3E1,3.5E2,6.07E2,1.95E2,2E2,3.606E3,1.4E1,1.6E1,4.5E1,3.05E2],"tree_param":{"num_deleted":"0","num_feature":"5","num_nodes":"15","size_leaf_vector":"0"}},{"base_weights":[-3.3413484E-3,-1.6780322E-2,4.086944E-3,1.3342835E-3,-1.0476998E-1,6.754838E-2,-3.5574944E-3,-1.0749185E-3,9.245328E-2,-2.6854534E-2,-9.683901E-3,4.8978957E-3,3.38091E-2,-2.821744E-2,3.9341726E-4],"categories":[],"categories_nodes":[],"categories_segments":[],"categories_sizes":[],"default_left":[0,0,0,0,0,0,0,0,0,0,0,0,0,0,0],"id":30,"left_children":[1,3,5,7,9,11,13,-1,-1,-1,-1,-1,-1,-1,-1],"loss_changes":[4.944199E-1,2.8101816E0,1.5477955E0,4.5265727E0,4.939084E-1,1.4948918E0,2.164171E0,0E0,0E0,0E0,0E0,0E0,0E0,0E0,0E0],"parents":[2147483647,0,0,1,1,2,2,3,3,4,4,5,5,6,6],"right_children":[2,4,6,8,10,12,14,-1,-1,-1,-1,-1,-1,-1,-1],"split_conditions":[-5.529232E-1,-5.7857573E-1,-3.1563756E-1,-6.042282E-1,1E0,-4.310738E-1,-3.028113E-1,-1.0749185E-3,9.245328E-2,-2.6854534E-2,-9.683901E-3,4.8978957E-3,3.38091E-2,-2.821744E-2,3.9341726E-4],"split_indices":[3,3,3,3,2,3,3,0,0,0,0,0,0,0,0],"split_type":[0,0,0,0,0,0,0,0,0,0,0,0,0,0,0],"sum_hessian":[4.951E3,1.762E3,3.189E3,1.462E3,3E2,3.42E2,2.847E3,1.442E3,2E1,1.96E2,1.04E2,2.41E2,1.01E2,1.09E2,2.738E3],"tree_param":{"num_deleted":"0","num_feature":"5","num_nodes":"15","size_leaf_vector":"0"}},{"base_weights":[2.1052512E-3,3.971355E-3,-7.548241E-2,2.064218E-4,1.06337406E-1,-4.524587E-2,-1.7571498E-1,2.149428E-3,-3.2411094E-3,8.2339525E-2,1.14198215E-2,-3.563718E-2,-7.435661E-3,-1.8493408E-2,-4.7229774E-2],"categories":[],"categories_nodes":[],"categories_segments":[],"categories_sizes":[],"default_left":[1,1,0,0,0,0,0,0,0,0,0,0,0,0,0],"id":31,"left_children":[1,3,5,7,9,11,13,-1,-1,-1,-1,-1,-1,-1,-1],"loss_changes":[7.2741824E-1,1.8903716E0,3.4967053E-1,8.1878144E-1,2.5926554E0,9.2045605E-2,1.1400092E-1,0E0,0E0,0E0,0E0,0E0,0E0,0E0,0E0],"parents":[2147483647,0,0,1,1,2,2,3,3,4,4,5,5,6,6],"right_children":[2,4,6,8,10,12,14,-1,-1,-1,-1,-1,-1,-1,-1],"split_conditions":[2.1371574E0,2.0758724E0,1E0,-6.552564E-2,7.7459383E-1,3.9621943E-1,2.2290847E0,2.149428E-3,-3.2411094E-3,8.2339525E-2,1.14198215E-2,-3.563718E-2,-7.435661E-3,-1.8493408E-2,-4.7229774E-2],"split_indices":[4,4,1,3,3,3,4,0,0,0,0,0,0,0,0],"split_type":[0,0,0,0,0,0,0,0,0,0,0,0,0,0,0],"sum_hessian":[5.021E3,4.904E3,1.17E2,4.731E3,1.73E2,9.1E1,2.6E1,2.881E3,1.85E3,2.3E1,1.5E2,4E0,8.7E1,1.2E1,1.4E1],"tree_param":{"num_deleted":"0","num_feature":"5","num_nodes":"15","size_leaf_vector":"0"}},{"base_weights":[-1.4719649E-3,-3.6105788E-3,1.7301394E-3,-4.769232E-3,8.292891E-3,-8.7872904E-4,-1.982012E-3,5.3532575E-3,-3.5096885E-4],"categories":[],"categories_nodes":[],"categories_segments":[],"categories_sizes":[],"default_left":[0,0,0,0,0,0,0,0,0],"id":32,"left_children":[1,3,-1,5,7,-1,-1,-1,-1],"loss_changes":[1.08100384E-1,5.6890137E-2,0E0,7.210575E-3,6.7982346E-2,0E0,0E0,0E0,0E0],"parents":[2147483647,0,0,1,1,3,3,4,4],"right_children":[2,4,-1,6,8,-1,-1,-1,-1],"split_conditions":[1E0,1E0,1.7301394E-3,1E0,1E0,-8.7872904E-4,-1.982012E-3,5.3532575E-3,-3.5096885E-4],"split_indices":[2,0,0,1,1,0,0,0,0],"split_type":[0,0,0,0,0,0,0,0,0],"sum_hessian":[4.991E3,4.121E3,8.7E2,3.756E3,3.65E2,3.502E3,2.54E2,1.28E2,2.37E2],"tree_param":{"num_deleted":"0","num_feature":"5","num_nodes":"9","size_leaf_vector":"0"}},{"base_weights":[-3.153966E-5,-3.0245274E-2,3.6711644E-3,9.5075223E-4,-1.7222872E-1,1.09087914E-1,-7.323674E-4,-1.2951846E-3,9.373909E-2,-3.298037E-2,-4.6808686E-2,1.2119506E-2,5.1077195E-2,-4.7895912E-2,2.602278E-4],"categories":[],"categories_nodes":[],"categories_segments":[],"categories_sizes":[],"default_left":[0,0,0,0,0,0,0,0,0,0,0,0,0,0,0],"id":33,"left_children":[1,3,5,7,9,11,13,-1,-1,-1,-1,-1,-1,-1,-1],"loss_changes":[5.574599E-1,2.4097137E0,2.0606904E0,1.5558184E0,5.7907104E-3,1.2472649E0,2.0694869E0,0E0,0E0,0E0,0E0,0E0,0E0,0E0,0E0],"parents":[2147483647,0,0,1,1,2,2,3,3,4,4,5,5,6,6],"right_children":[2,4,6,8,10,12,14,-1,-1,-1,-1,-1,-1,-1,-1],"split_conditions":[-1.149344E0,-1.1557571E0,-1.0852127E0,-1.1621702E0,1E0,-1.104452E0,-1.0531471E0,-1.2951846E-3,9.373909E-2,-3.298037E-2,-4.6808686E-2,1.2119506E-2,5.1077195E-2,-4.7895912E-2,2.602278E-4],"split_indices":[3,3,3,3,2,3,3,0,0,0,0,0,0,0,0],"split_type":[0,0,0,0,0,0,0,0,0,0,0,0,0,0,0],"sum_hessian":[4.981E3,5.43E2,4.438E3,4.46E2,9.7E1,1.77E2,4.261E3,4.4E2,6E0,9E1,7E0,1.34E2,4.3E1,3.5E1,4.226E3],"tree_param":{"num_deleted":"0","num_feature":"5","num_nodes":"15","size_leaf_vector":"0"}},{"base_weights":[-1.5813528E-3,-9.514722E-2,-5.443455E-4,-5.579091E-2,-8.145173E-2,1.8623024E-2,-5.6414953E-3,-3.753329E-2,-5.240702E-3,3.9805943E-4,2.1945817E-2,-1.6830614E-2,4.9447403E-6],"categories":[],"categories_nodes":[],"categories_segments":[],"categories_sizes":[],"default_left":[0,0,0,0,0,0,0,0,0,0,0,0,0],"id":34,"left_children":[1,3,5,7,-1,9,11,-1,-1,-1,-1,-1,-1],"loss_changes":[4.8683718E-1,6.5287423E-1,4.850827E-1,1.9017518E-1,0E0,1.5802836E0,1.7447578E0,0E0,0E0,0E0,0E0,0E0,0E0],"parents":[2147483647,0,0,1,1,2,2,3,3,5,5,6,6],"right_children":[2,4,6,8,-1,10,12,-1,-1,-1,-1,-1,-1],"split_conditions":[-1.463587E0,1E0,-8.9281887E-1,-1.5341314E0,-8.145173E-2,-9.569501E-1,-6.94012E-1,-3.753329E-2,-5.240702E-3,3.9805943E-4,2.1945817E-2,-1.6830614E-2,4.9447403E-6],"split_indices":[3,1,3,3,0,3,3,0,0,0,0,0,0],"split_type":[0,0,0,0,0,0,0,0,0,0,0,0,0],"sum_hessian":[5.017E3,5.4E1,4.963E3,4.9E1,5E0,1.042E3,3.921E3,8E0,4.1E1,8.82E2,1.6E2,2.63E2,3.658E3],"tree_param":{"num_deleted":"0","num_feature":"5","num_nodes":"13","size_leaf_vector":"0"}},{"base_weights":[2.9594635E-3,-1.0271305E-2,1.4929751E-2,5.0574057E-3,-7.314974E-2,1.5401188E-1,-6.9756745E-3,-8.566224E-4,8.808652E-2,-6.993552E-2,-9.390295E-3,2.0515047E-2,1.6058326E-1,-5.5027872E-2,-8.4357255E-4],"categories":[],"categories_nodes":[],"categories_segments":[],"categories_sizes":[],"default_left":[1,0,0,0,0,0,0,0,0,0,0,0,0,0,0],"id":35,"left_children":[1,3,5,7,9,11,13,-1,-1,-1,-1,-1,-1,-1,-1],"loss_changes":[7.891831E-1,2.2817922E0,7.9711185E0,7.744749E0,3.3450546E0,1.1800017E1,1.6709507E0,0E0,0E0,0E0,0E0,0E0,0E0,0E0,0E0],"parents":[2147483647,0,0,1,1,2,2,3,3,4,4,5,5,6,6],"right_children":[2,4,6,8,10,12,14,-1,-1,-1,-1,-1,-1,-1,-1],"split_conditions":[-3.2649314E-1,-3.8777798E-1,-1.3607003E-1,-4.184204E-1,-5.8498883E-1,6.050364E-1,-2.5907984E-1,-8.566224E-4,8.808652E-2,-6.993552E-2,-9.390295E-3,2.0515047E-2,1.6058326E-1,-5.5027872E-2,-8.4357255E-4],"split_indices":[4,4,3,4,3,4,4,0,0,0,0,0,0,0,0],"split_type":[0,0,0,0,0,0,0,0,0,0,0,0,0,0,0],"sum_hessian":[4.981E3,2.366E3,2.615E3,1.903E3,4.63E2,3.55E2,2.26E3,1.864E3,3.9E1,3.9E1,4.24E2,3.3E2,2.5E1,2.2E1,2.238E3],"tree_param":{"num_deleted":"0","num_feature":"5","num_nodes":"15","size_leaf_vector":"0"}},{"base_weights":[4.4045591E-4,1.9675853E-2,-4.934974E-3,5.7443907E-3,1.8531074E-1,-5.755367E-2,-1.5807634E-3,4.813797E-3,-8.262652E-3,2.3327064E-2,7.307293E-2,-1.8552578E-3,-4.09446E-2,3.3389654E-2,-1.1589442E-3],"categories":[],"categories_nodes":[],"categories_segments":[],"categories_sizes":[],"default_left":[0,0,0,0,0,0,0,0,0,0,0,0,0,0,0],"id":36,"left_children":[1,3,5,7,9,11,13,-1,-1,-1,-1,-1,-1,-1,-1],"loss_changes":[5.188475E-1,2.5279953E0,6.9211924E-1,8.7365437E-1,1.0084345E0,1.667764E0,2.62009E0,0E0,0E0,0E0,0E0,0E0,0E0,0E0,0E0],"parents":[2147483647,0,0,1,1,2,2,3,3,4,4,5,5,6,6],"right_children":[2,4,6,8,10,12,14,-1,-1,-1,-1,-1,-1,-1,-1],"split_conditions":[-8.9281887E-1,-9.1205823E-1,-7.324907E-1,-1.0852127E0,1E0,-7.709695E-1,-6.362938E-1,4.813797E-3,-8.262652E-3,2.3327064E-2,7.307293E-2,-1.8552578E-3,-4.09446E-2,3.3389654E-2,-1.1589442E-3],"split_indices":[3,3,3,3,2,3,3,0,0,0,0,0,0,0,0],"split_type":[0,0,0,0,0,0,0,0,0,0,0,0,0,0,0],"sum_hessian":[5.016E3,1.095E3,3.921E3,1.011E3,8.4E1,2.34E2,3.687E3,7.28E2,2.83E2,6.2E1,2.2E1,1.77E2,5.7E1,8.9E1,3.598E3],"tree_param":{"num_deleted":"0","num_feature":"5","num_nodes":"15","size_leaf_vector":"0"}},{"base_weights":[-2.8581286E-3,-1.4646429E-2,7.9093445E-3,-5.769788E-3,-5.2516498E-2,1.2728162E-1,-5.368915E-3,-2.4414726E-3,7.528807E-2,-5.038354E-3,-7.351383E-2,1.9877044E-2,8.8272996E-2,6.715478E-3,-2.6726692E-3],"categories":[],"categories_nodes":[],"categories_segments":[],"categories_sizes":[],"default_left":[1,1,0,1,0,0,0,0,0,0,0,0,0,0,0],"id":37,"left_children":[1,3,5,7,9,11,13,-1,-1,-1,-1,-1,-1,-1,-1],"loss_changes":[6.331168E-1,8.000916E-1,4.1329246E0,4.7533727E0,3.8818855E0,2.2429633E0,7.3119557E-1,0E0,0E0,0E0,0E0,0E0,0E0,0E0,0E0],"parents":[2147483647,0,0,1,1,2,2,3,3,4,4,5,5,6,6],"right_children":[2,4,6,8,10,12,14,-1,-1,-1,-1,-1,-1,-1,-1],"split_conditions":[-3.5713556E-1,-3.8777798E-1,-2.4682286E-1,-4.184204E-1,1E0,1E0,-8.748228E-2,-2.4414726E-3,7.528807E-2,-5.038354E-3,-7.351383E-2,1.9877044E-2,8.8272996E-2,6.715478E-3,-2.6726692E-3],"split_indices":[4,4,4,4,0,0,4,0,0,0,0,0,0,0,0],"split_type":[0,0,0,0,0,0,0,0,0,0,0,0,0,0,0],"sum_hessian":[4.986E3,2.38E3,2.606E3,1.929E3,4.51E2,2.6E2,2.346E3,1.898E3,3.1E1,4.16E2,3.5E1,2.4E2,2E1,3.99E2,1.947E3],"tree_param":{"num_deleted":"0","num_feature":"5","num_nodes":"15","size_leaf_vector":"0"}},{"base_weights":[-2.591202E-3,-4.917472E-3,2.7735997E-2,-2.5044015E-2,-5.134993E-4,4.5762965E-1,-4.7190553E-3,2.8231123E-3,-1.3617212E-2,1.9386938E-2,-1.2398828E-3,3.4454986E-2,1.8915705E-1,1.1501712E-2,-1.2871319E-2],"categories":[],"categories_nodes":[],"categories_segments":[],"categories_sizes":[],"default_left":[0,0,0,0,0,0,0,0,0,0,0,0,0,0,0],"id":38,"left_children":[1,3,5,7,9,11,13,-1,-1,-1,-1,-1,-1,-1,-1],"loss_changes":[3.525299E-1,4.1126168E-1,4.9691505E0,1.4049894E0,2.1105456E0,3.3195033E0,1.2357869E0,0E0,0E0,0E0,0E0,0E0,0E0,0E0,0E0],"parents":[2147483647,0,0,1,1,2,2,3,3,4,4,5,5,6,6],"right_children":[2,4,6,8,10,12,14,-1,-1,-1,-1,-1,-1,-1,-1],"split_conditions":[1E0,-9.8260266E-1,-1.0082551E0,-1.1557571E0,-8.9281887E-1,-1.1236914E0,-1.2324377E-1,2.8231123E-3,-1.3617212E-2,1.9386938E-2,-1.2398828E-3,3.4454986E-2,1.8915705E-1,1.1501712E-2,-1.2871319E-2],"split_indices":[0,3,3,3,3,3,3,0,0,0,0,0,0,0,0],"split_type":[0,0,0,0,0,0,0,0,0,0,0,0,0,0,0],"sum_hessian":[4.994E3,4.639E3,3.55E2,8.32E2,3.807E3,2.4E1,3.31E2,4.36E2,3.96E2,2.09E2,3.598E3,1.6E1,8E0,1.62E2,1.69E2],"tree_param":{"num_deleted":"0","num_feature":"5","num_nodes":"15","size_leaf_vector":"0"}},{"base_weights":[5.083559E-4,-1.0344557E-4,8.4176315E-3,2.0063077E-3,-7.026917E-3,-8.31646E-3,7.702789E-3,4.083966E-4,3.7112724E-4],"categories":[],"categories_nodes":[],"categories_segments":[],"categories_sizes":[],"default_left":[0,0,0,0,0,0,0,0,0],"id":39,"left_children":[1,3,5,7,-1,-1,-1,-1,-1],"loss_changes":[2.412766E-2,3.4218627E-1,5.403247E-1,1.9684434E-5,0E0,0E0,0E0,0E0,0E0],"parents":[2147483647,0,0,1,1,2,2,3,3],"right_children":[2,4,6,8,-1,-1,-1,-1,-1],"split_conditions":[1E0,1E0,1E0,1E0,-7.026917E-3,-8.31646E-3,7.702789E-3,4.083966E-4,3.7112724E-4],"split_indices":[0,1,1,2,0,0,0,0,0],"split_type":[0,0,0,0,0,0,0,0,0],"sum_hessian":[4.985E3,4.628E3,3.57E2,4.366E3,2.62E2,1.34E2,2.23E2,3.52E3,8.46E2],"tree_param":{"num_deleted":"0","num_feature":"5","num_nodes":"9","size_leaf_vector":"0"}},{"base_weights":[5.0706333E-3,2.700772E-2,-4.0801037E-3,1.9868994E-2,3.2708967E-1,-7.48137E-2,2.2081041E-3,1.9845397E-3,2.262674E-2,7.740028E-2,3.3327557E-2,-7.818724E-3,-2.3175972E-2,6.065574E-2,-9.277615E-6],"categories":[],"categories_nodes":[],"categories_segments":[],"categories_sizes":[],"default_left":[0,0,0,0,0,0,0,0,0,0,0,0,0,0,0],"id":40,"left_children":[1,3,5,7,9,11,13,-1,-1,-1,-1,-1,-1,-1,-1],"loss_changes":[9.9979794E-1,3.1339705E0,1.5635935E0,1.3281832E0,2.6235127E-1,4.1646612E-1,2.191734E0,0E0,0E0,0E0,0E0,0E0,0E0,0E0,0E0],"parents":[2147483647,0,0,1,1,2,2,3,3,4,4,5,5,6,6],"right_children":[2,4,6,8,10,12,14,-1,-1,-1,-1,-1,-1,-1,-1],"split_conditions":[-5.7857573E-1,-6.042282E-1,-5.529232E-1,1E0,1E0,-5.6574947E-1,-5.208576E-1,1.9845397E-3,2.262674E-2,7.740028E-2,3.3327557E-2,-7.818724E-3,-2.3175972E-2,6.065574E-2,-9.277615E-6],"split_indices":[3,3,3,1,1,3,3,0,0,0,0,0,0,0,0],"split_type":[0,0,0,0,0,0,0,0,0,0,0,0,0,0,0],"sum_hessian":[4.979E3,1.465E3,3.514E3,1.432E3,3.3E1,2.86E2,3.228E3,1.295E3,1.37E2,2.3E1,1E1,1.54E2,1.32E2,2.3E1,3.205E3],"tree_param":{"num_deleted":"0","num_feature":"5","num_nodes":"15","size_leaf_vector":"0"}},{"base_weights":[1.1053549E-3,-1.5959313E-2,1.6724106E-2,-2.528475E-2,2.2557372E-2,1.3859631E-1,4.4887317E-3,-5.374534E-3,4.2016886E-2,1.3829224E-2,-9.217868E-3,1.3365542E-2,1.754046E-1,2.3378363E-2,-2.5805752E-4],"categories":[],"categories_nodes":[],"categories_segments":[],"categories_sizes":[],"default_left":[1,0,0,0,0,0,0,0,0,0,0,0,0,0,0],"id":41,"left_children":[1,3,5,7,9,11,13,-1,-1,-1,-1,-1,-1,-1,-1],"loss_changes":[1.3318449E0,8.58304E-1,3.8897939E0,7.2436166E-1,1.4935312E0,1.2554401E1,1.5409536E0,0E0,0E0,0E0,0E0,0E0,0E0,0E0,0E0],"parents":[2147483647,0,0,1,1,2,2,3,3,4,4,5,5,6,6],"right_children":[2,4,6,8,10,12,14,-1,-1,-1,-1,-1,-1,-1,-1],"split_conditions":[-3.5713556E-1,1E0,-2.515063E-1,-2.4509317E-1,-6.942022E-1,5.4375154E-1,-2.652083E-1,-5.374534E-3,4.2016886E-2,1.3829224E-2,-9.217868E-3,1.3365542E-2,1.754046E-1,2.3378363E-2,-2.5805752E-4],"split_indices":[4,2,3,3,4,4,4,0,0,0,0,0,0,0,0],"split_type":[0,0,0,0,0,0,0,0,0,0,0,0,0,0,0],"sum_hessian":[4.995E3,2.387E3,2.608E3,1.922E3,4.65E2,2.37E2,2.371E3,1.91E3,1.2E1,2.77E2,1.88E2,2.17E2,2E1,1.15E2,2.256E3],"tree_param":{"num_deleted":"0","num_feature":"5","num_nodes":"15","size_leaf_vector":"0"}},{"base_weights":[1.3636207E-3,-3.1265488E-3,3.2377273E-2,2.9371346E-3,-6.440838E-2,4.9387865E-2,-4.378629E-2,-4.0303727E-4,1.0658756E-2,-9.684238E-3,-2.736019E-2,5.2518835E-3,1.9777816E-2,-4.9737943E-3,-2.452491E-2],"categories":[],"categories_nodes":[],"categories_segments":[],"categories_sizes":[],"default_left":[1,0,0,0,0,0,0,0,0,0,0,0,0,0,0],"id":42,"left_children":[1,3,5,7,9,11,13,-1,-1,-1,-1,-1,-1,-1,-1],"loss_changes":[6.903961E-1,1.6095612E0,8.144957E-1,9.831723E-1,4.4474387E-1,5.847298E-1,1.6846243E-1,0E0,0E0,0E0,0E0,0E0,0E0,0E0,0E0],"parents":[2147483647,0,0,1,1,2,2,3,3,4,4,5,5,6,6],"right_children":[2,4,6,8,10,12,14,-1,-1,-1,-1,-1,-1,-1,-1],"split_conditions":[1.3465829E0,7.888909E-1,2.1371574E0,6.050364E-1,1E0,2.0758724E0,1E0,-4.0303727E-4,1.0658756E-2,-9.684238E-3,-2.736019E-2,5.2518835E-3,1.9777816E-2,-4.9737943E-3,-2.452491E-2],"split_indices":[4,4,4,4,1,4,1,0,0,0,0,0,0,0,0],"split_type":[0,0,0,0,0,0,0,0,0,0,0,0,0,0,0],"sum_hessian":[4.956E3,4.33E3,6.26E2,3.941E3,3.89E2,5.12E2,1.14E2,3.589E3,3.52E2,3.2E2,6.9E1,3.5E2,1.62E2,9.3E1,2.1E1],"tree_param":{"num_deleted":"0","num_feature":"5","num_nodes":"15","size_leaf_vector":"0"}},{"base_weights":[-8.74984E-4,-8.7406546E-2,1.122431E-4,-3.535101E-2,-9.083634E-2,9.189982E-2,-6.0964195E-4,-2.8674705E-2,-3.5523858E-3,8.221361E-3,3.1042784E-2,-3.8115393E-2,4.7366488E-5],"categories":[],"categories_nodes":[],"categories_segments":[],"categories_sizes":[],"default_left":[0,0,0,0,0,0,0,0,0,0,0,0,0],"id":43,"left_children":[1,3,5,7,-1,9,11,-1,-1,-1,-1,-1,-1],"loss_changes":[4.3166894E-1,1.0722269E0,3.3115762E-1,9.435424E-2,0E0,1.1904034E-1,7.974645E-1,0E0,0E0,0E0,0E0,0E0,0E0],"parents":[2147483647,0,0,1,1,2,2,3,3,5,5,6,6],"right_children":[2,4,6,8,-1,10,12,-1,-1,-1,-1,-1,-1],"split_conditions":[-1.463587E0,1E0,-1.3289114E0,-1.5341314E0,-9.083634E-2,1E0,-1.2840196E0,-2.8674705E-2,-3.5523858E-3,8.221361E-3,3.1042784E-2,-3.8115393E-2,4.7366488E-5],"split_indices":[3,1,3,3,0,1,3,0,0,0,0,0,0],"split_type":[0,0,0,0,0,0,0,0,0,0,0,0,0],"sum_hessian":[5.052E3,5.6E1,4.996E3,5E1,6E0,3.8E1,4.958E3,6E0,4.4E1,2.2E1,1.6E1,2.1E1,4.937E3],"tree_param":{"num_deleted":"0","num_feature":"5","num_nodes":"13","size_leaf_vector":"0"}},{"base_weights":[-3.7622813E-3,-7.8381775E-3,2.3649516E-2,3.8612287E-3,-3.5626113E-2,3.6739375E-2,-2.8690603E-2,-1.4325859E-3,9.234409E-3,-4.105937E-2,-4.894193E-3,2.7476436E-2,6.2373527E-3,-3.779515E-3,-1.3142399E-2],"categories":[],"categories_nodes":[],"categories_segments":[],"categories_sizes":[],"default_left":[1,1,0,1,0,0,0,0,0,0,0,0,0,0,0],"id":44,"left_children":[1,3,5,7,9,11,13,-1,-1,-1,-1,-1,-1,-1,-1],"loss_changes":[5.6273407E-1,1.4253863E0,4.477554E-1,1.4397681E0,2.453597E0,2.8742492E-1,4.6252444E-2,0E0,0E0,0E0,0E0,0E0,0E0,0E0,0E0],"parents":[2147483647,0,0,1,1,2,2,3,3,4,4,5,5,6,6],"right_children":[2,4,6,8,10,12,14,-1,-1,-1,-1,-1,-1,-1,-1],"split_conditions":[1.3465829E0,-8.748228E-2,2.1371574E0,-3.2649314E-1,-3.2325927E-2,1.4630241E0,1E0,-1.4325859E-3,9.234409E-3,-4.105937E-2,-4.894193E-3,2.7476436E-2,6.2373527E-3,-3.779515E-3,-1.3142399E-2],"split_indices":[4,4,4,4,4,4,1,0,0,0,0,0,0,0,0],"split_type":[0,0,0,0,0,0,0,0,0,0,0,0,0,0,0],"sum_hessian":[5.034E3,4.383E3,6.51E2,3.085E3,1.298E3,5.21E2,1.3E2,2.448E3,6.37E2,7.9E1,1.219E3,2.6E1,4.95E2,1.04E2,2.6E1],"tree_param":{"num_deleted":"0","num_feature":"5","num_nodes":"15","size_leaf_vector":"0"}},{"base_weights":[-9.7230345E-4,-6.382564E-2,1.258464E-3,-1.7798921E-2,-1.2578337E-1,-8.182521E-3,6.0321954E-3,8.9807244E-4,-3.669706E-2,-1.8745514E-2,-2.9859671E-2,1.6252717E-3,-8.163016E-3,1.4561161E-2,-3.041928E-4],"categories":[],"categories_nodes":[],"categories_segments":[],"categories_sizes":[],"default_left":[0,0,0,0,0,0,0,0,0,0,0,0,0,0,0],"id":45,"left_children":[1,3,5,7,9,11,13,-1,-1,-1,-1,-1,-1,-1,-1],"loss_changes":[7.1179223E-1,4.93959E-1,2.2102131E-1,3.7382E-1,4.1787148E-2,8.7686586E-1,1.6427842E0,0E0,0E0,0E0,0E0,0E0,0E0,0E0,0E0],"parents":[2147483647,0,0,1,1,2,2,3,3,4,4,5,5,6,6],"right_children":[2,4,6,8,10,12,14,-1,-1,-1,-1,-1,-1,-1,-1],"split_conditions":[-1.2263014E0,-1.3289114E0,-5.529232E-1,1E0,-1.2455409E0,-8.286876E-1,-3.1563756E-1,8.9807244E-4,-3.669706E-2,-1.8745514E-2,-2.9859671E-2,1.6252717E-3,-8.163016E-3,1.4561161E-2,-3.041928E-4],"split_indices":[3,3,3,0,3,3,3,0,0,0,0,0,0,0,0],"split_type":[0,0,0,0,0,0,0,0,0,0,0,0,0,0,0],"sum_hessian":[5.075E3,1.73E2,4.902E3,1E2,7.3E1,1.646E3,3.256E3,8.9E1,1.1E1,3.3E1,4E1,1.098E3,5.48E2,3.3E2,2.926E3],"tree_param":{"num_deleted":"0","num_feature":"5","num_nodes":"15","size_leaf_vector":"0"}},{"base_weights":[-2.2171043E-5,6.694986E-2,-2.1785921E-3,8.575262E-3,1.0873407E-1,4.63435E-3,-1.2260921E-2,9.556006E-3,-1.5915418E-2,2.8058425E-2,1.5376623E-2,3.180117E-4,4.9846563E-2,-2.3277527E-2,-8.5412787E-4],"categories":[],"categories_nodes":[],"categories_segments":[],"categories_sizes":[],"default_left":[0,0,1,0,0,1,0,0,0,0,0,0,0,0,0],"id":46,"left_children":[1,3,5,7,9,11,13,-1,-1,-1,-1,-1,-1,-1,-1],"loss_changes":[7.3148817E-1,3.844512E-1,3.3712023E-1,2.353537E-1,8.168805E-2,2.1806219E0,1.6460345E0,0E0,0E0,0E0,0E0,0E0,0E0,0E0,0E0],"parents":[2147483647,0,0,1,1,2,2,3,3,4,4,5,5,6,6],"right_children":[2,4,6,8,10,12,14,-1,-1,-1,-1,-1,-1,-1,-1],"split_conditions":[-1.2886652E0,-1.300922E0,-8.748228E-2,-1.3070506E0,-1.2947936E0,-1.3651015E-1,7.7986784E-2,9.556006E-3,-1.5915418E-2,2.8058425E-2,1.5376623E-2,3.180117E-4,4.9846563E-2,-2.3277527E-2,-8.5412787E-4],"split_indices":[4,4,4,4,4,4,4,0,0,0,0,0,0,0,0],"split_type":[0,0,0,0,0,0,0,0,0,0,0,0,0,0,0],"sum_hessian":[5.063E3,1.57E2,4.906E3,6.6E1,9.1E1,2.928E3,1.978E3,4.6E1,2E1,4.4E1,4.7E1,2.893E3,3.5E1,1.4E2,1.838E3],"tree_param":{"num_deleted":"0","num_feature":"5","num_nodes":"15","size_leaf_vector":"0"}},{"base_weights":[2.0795366E-4,-2.7474577E-2,3.5622225E-3,-4.1694343E-3,-1.3651812E-1,1.9391036E-1,1.1120714E-3,3.630658E-3,-1.1779459E-2,-2.6286129E-2,-3.7845876E-2,2.933014E-2,1.5432465E-1,-9.549088E-3,7.052821E-4],"categories":[],"categories_nodes":[],"categories_segments":[],"categories_sizes":[],"default_left":[0,0,0,0,0,0,0,0,0,0,0,0,0,0,0],"id":47,"left_children":[1,3,5,7,9,11,13,-1,-1,-1,-1,-1,-1,-1,-1],"loss_changes":[4.5879984E-1,1.3564718E0,2.0551286E0,5.398278E-1,3.3724308E-4,1.4157817E0,5.135242E-1,0E0,0E0,0E0,0E0,0E0,0E0,0E0,0E0],"parents":[2147483647,0,0,1,1,2,2,3,3,4,4,5,5,6,6],"right_children":[2,4,6,8,10,12,14,-1,-1,-1,-1,-1,-1,-1,-1],"split_conditions":[-1.149344E0,-1.1557571E0,-1.1172783E0,1E0,1E0,1E0,-1.0339077E0,3.630658E-3,-1.1779459E-2,-2.6286129E-2,-3.7845876E-2,2.933014E-2,1.5432465E-1,-9.549088E-3,7.052821E-4],"split_indices":[3,3,3,2,2,0,3,0,0,0,0,0,0,0,0],"split_type":[0,0,0,0,0,0,0,0,0,0,0,0,0,0,0],"sum_hessian":[4.939E3,5.33E2,4.406E3,4.4E2,9.3E1,5.5E1,4.351E3,3.13E2,1.27E2,8.8E1,5E0,5.2E1,3E0,2.04E2,4.147E3],"tree_param":{"num_deleted":"0","num_feature":"5","num_nodes":"15","size_leaf_vector":"0"}},{"base_weights":[-1.4597959E-3,6.4867854E-2,-3.7855715E-3,2.0894256E-1,3.9580025E-2,-4.453992E-2,-2.2687123E-4,1.0232685E-2,7.512127E-2,7.181299E-3,2.7051521E-2,-4.4807396E-3,-3.4996152E-2,1.7812125E-2,-6.4907956E-4],"categories":[],"categories_nodes":[],"categories_segments":[],"categories_sizes":[],"default_left":[0,0,0,0,0,0,0,0,0,0,0,0,0,0,0],"id":48,"left_children":[1,3,5,7,9,11,13,-1,-1,-1,-1,-1,-1,-1,-1],"loss_changes":[7.6955634E-1,6.07454E-1,6.989016E-1,6.381844E-1,4.6107218E-2,1.1135297E0,1.1950564E0,0E0,0E0,0E0,0E0,0E0,0E0,0E0,0E0],"parents":[2147483647,0,0,1,1,2,2,3,3,4,4,5,5,6,6],"right_children":[2,4,6,8,10,12,14,-1,-1,-1,-1,-1,-1,-1,-1],"split_conditions":[-1.2886652E0,-1.2840196E0,-1.149344E0,-1.300922E0,-1.207062E0,-8.657997E-1,-1.0980389E0,1.0232685E-2,7.512127E-2,7.181299E-3,2.7051521E-2,-4.4807396E-3,-3.4996152E-2,1.7812125E-2,-6.4907956E-4],"split_indices":[4,3,3,4,3,4,3,0,0,0,0,0,0,0,0],"split_type":[0,0,0,0,0,0,0,0,0,0,0,0,0,0,0],"sum_hessian":[4.986E3,1.68E2,4.818E3,2.4E1,1.44E2,3.86E2,4.432E3,1.3E1,1.1E1,1.4E2,4E0,3.31E2,5.5E1,1.44E2,4.288E3],"tree_param":{"num_deleted":"0","num_feature":"5","num_nodes":"15","size_leaf_vector":"0"}},{"base_weights":[-3.0845099E-3,1.4239482E-3,-6.14244E-2,3.4543755E-3,-3.4458E-2,-1.4142844E-1,-3.6363855E-2,3.117842E-4,6.9558807E-3,-1.3021866E-2,-4.1549033E-3,-1.2819107E-2,-5.5312872E-2,1.1732198E-1,-1.1894692E-2],"categories":[],"categories_nodes":[],"categories_segments":[],"categories_sizes":[],"default_left":[0,0,0,0,0,0,0,0,0,0,0,0,0,0,0],"id":49,"left_children":[1,3,5,7,9,11,13,-1,-1,-1,-1,-1,-1,-1,-1],"loss_changes":[1.3273013E0,3.4144795E-1,7.20647E-1,2.632746E-1,1.03921026E-1,8.8101244E-1,4.022767E0,0E0,0E0,0E0,0E0,0E0,0E0,0E0,0E0],"parents":[2147483647,0,0,1,1,2,2,3,3,4,4,5,5,6,6],"right_children":[2,4,6,8,10,12,14,-1,-1,-1,-1,-1,-1,-1,-1],"split_conditions":[1E0,2.2496128E0,-8.8640577E-1,1.447972E0,2.313744E0,-8.9923203E-1,-8.286876E-1,3.117842E-4,6.9558807E-3,-1.3021866E-2,-4.1549033E-3,-1.2819107E-2,-5.5312872E-2,1.1732198E-1,-1.1894692E-2],"split_indices":[0,3,3,3,3,3,3,0,0,0,0,0,0,0,0],"split_type":[0,0,0,0,0,0,0,0,0,0,0,0,0,0,0],"sum_hessian":[5.045E3,4.684E3,3.61E2,4.434E3,2.5E2,8.5E1,2.76E2,4.182E3,2.52E2,7.6E1,1.74E2,5.5E1,3E1,9E0,2.67E2],"tree_param":{"num_deleted":"0","num_feature":"5","num_nodes":"15","size_leaf_vector":"0"}},{"base_weights":[1.3308013E-3,1.1449353E-2,-5.9146527E-3,3.4996883E-3,1.6361672E-1,-1.8519253E-2,-2.5583184E-3,2.44347E-3,-4.3063983E-3,2.8689338E-2,7.166859E-2,4.321067E-2,-1.0825971E-3],"categories":[],"categories_nodes":[],"categories_segments":[],"categories_sizes":[],"default_left":[0,0,0,0,0,0,0,0,0,0,0,0,0],"id":50,"left_children":[1,3,5,7,9,-1,11,-1,-1,-1,-1,-1,-1],"loss_changes":[3.6458242E-1,2.5095122E0,8.428853E-1,4.3080664E-1,3.5314322E-1,0E0,1.7429307E0,0E0,0E0,0E0,0E0,0E0,0E0],"parents":[2147483647,0,0,1,1,2,2,3,3,4,4,6,6],"right_children":[2,4,6,8,10,-1,12,-1,-1,-1,-1,-1,-1],"split_conditions":[-3.1563756E-1,-4.310738E-1,-3.028113E-1,-5.7857573E-1,1E0,-1.8519253E-2,-2.6433253E-1,2.44347E-3,-4.3063983E-3,2.8689338E-2,7.166859E-2,4.321067E-2,-1.0825971E-3],"split_indices":[3,3,3,3,1,0,3,0,0,0,0,0,0],"split_type":[0,0,0,0,0,0,0,0,0,0,0,0,0],"sum_hessian":[4.971E3,2.074E3,2.897E3,1.972E3,1.02E2,1.07E2,2.79E3,1.463E3,5.09E2,9.4E1,8E0,3.5E1,2.755E3],"tree_param":{"num_deleted":"0","num_feature":"5","num_nodes":"13","size_leaf_vector":"0"}},{"base_weights":[1.1090115E-3,-1.8430087E-3,2.1432577E-2,2.9494215E-3,-4.519049E-2,5.1073074E-1,1.4386213E-2,1.846076E-4,2.4400165E-2,-5.960138E-3,-2.0173227E-2,5.8897633E-2,1.2496543E-1,1.6017677E-2,-7.8762864E-4],"categories":[],"categories_nodes":[],"categories_segments":[],"categories_sizes":[],"default_left":[1,0,0,0,0,0,0,0,0,0,0,0,0,0,0],"id":51,"left_children":[1,3,5,7,9,11,13,-1,-1,-1,-1,-1,-1,-1,-1],"loss_changes":[3.008573E-1,9.098258E-1,2.1854358E0,9.5135295E-1,3.705752E-1,3.8048267E-2,7.5639594E-1,0E0,0E0,0E0,0E0,0E0,0E0,0E0,0E0],"parents":[2147483647,0,0,1,1,2,2,3,3,4,4,5,5,6,6],"right_children":[2,4,6,8,10,12,14,-1,-1,-1,-1,-1,-1,-1,-1],"split_conditions":[1.3465829E0,7.5212E-1,4.5393756E-1,7.2760606E-1,1E0,1E0,1.1144896E0,1.846076E-4,2.4400165E-2,-5.960138E-3,-2.0173227E-2,5.8897633E-2,1.2496543E-1,1.6017677E-2,-7.8762864E-4],"split_indices":[4,4,3,4,1,1,3,0,0,0,0,0,0,0,0],"split_type":[0,0,0,0,0,0,0,0,0,0,0,0,0,0,0],"sum_hessian":[5.013E3,4.378E3,6.35E2,3.943E3,4.35E2,8E0,6.27E2,3.878E3,6.5E1,3.42E2,9.3E1,4E0,4E0,1.36E2,4.91E2],"tree_param":{"num_deleted":"0","num_feature":"5","num_nodes":"15","size_leaf_vector":"0"}},{"base_weights":[3.1631156E-3,2.0790305E-2,2.2931168E-4,1.2330805E-2,1.4609288E-1,-1.24528565E-1,2.6022077E-3,5.2318666E-3,-4.432139E-3,1.3981781E-2,1.0993522E-1,-1.3527468E-2,-4.4449266E-2,2.768801E-3,-5.317463E-4],"categories":[],"categories_nodes":[],"categories_segments":[],"categories_sizes":[],"default_left":[0,0,0,0,0,0,0,0,0,0,0,0,0,0,0],"id":52,"left_children":[1,3,5,7,9,11,13,-1,-1,-1,-1,-1,-1,-1,-1],"loss_changes":[2.5841367E-1,7.5397646E-1,1.2688447E0,3.196704E-1,1.3451685E0,4.2971063E-1,2.4878977E-1,0E0,0E0,0E0,0E0,0E0,0E0,0E0,0E0],"parents":[2147483647,0,0,1,1,2,2,3,3,4,4,5,5,6,6],"right_children":[2,4,6,8,10,12,14,-1,-1,-1,-1,-1,-1,-1,-1],"split_conditions":[-1.0852127E0,-1.104452E0,-1.0339077E0,1E0,1E0,-1.0467339E0,-3.1563756E-1,5.2318666E-3,-4.432139E-3,1.3981781E-2,1.0993522E-1,-1.3527468E-2,-4.4449266E-2,2.768801E-3,-5.317463E-4],"split_indices":[3,3,3,2,1,3,3,0,0,0,0,0,0,0,0],"split_type":[0,0,0,0,0,0,0,0,0,0,0,0,0,0,0],"sum_hessian":[4.996E3,7.12E2,4.284E3,6.68E2,4.4E1,7.9E1,4.205E3,4.77E2,1.91E2,3.8E1,6E0,5.1E1,2.8E1,1.34E3,2.865E3],"tree_param":{"num_deleted":"0","num_feature":"5","num_nodes":"15","size_leaf_vector":"0"}},{"base_weights":[2.0442868E-3,1.0823912E-3,1.4212331E-2,2.4014092E-3,-4.3339487E-3,2.5602437E-3,2.9906668E-3,3.642357E-4,9.7084645E-4],"categories":[],"categories_nodes":[],"categories_segments":[],"categories_sizes":[],"default_left":[0,0,0,0,0,0,0,0,0],"id":53,"left_children":[1,3,5,7,-1,-1,-1,-1,-1],"loss_changes":[5.895132E-2,1.4020096E-1,1.944229E-4,6.2746014E-3,0E0,0E0,0E0,0E0,0E0],"parents":[2147483647,0,0,1,1,2,2,3,3],"right_children":[2,4,6,8,-1,-1,-1,-1,-1],"split_conditions":[1E0,1E0,1E0,1E0,-4.3339487E-3,2.5602437E-3,2.9906668E-3,3.642357E-4,9.7084645E-4],"split_indices":[0,1,1,2,0,0,0,0,0],"split_type":[0,0,0,0,0,0,0,0,0],"sum_hessian":[5.037E3,4.669E3,3.68E2,4.414E3,2.55E2,1.33E2,2.35E2,3.571E3,8.43E2],"tree_param":{"num_deleted":"0","num_feature":"5","num_nodes":"9","size_leaf_vector":"0"}},{"base_weights":[-6.6393946E-4,-5.0510825E-3,2.7735619E-2,-1.5613949E-3,-4.235173E-2,1.53642865E-2,8.102641E-2,-3.1822086E-3,6.5478357E-4,-2.4380095E-2,-3.656679E-3,8.9523895E-3,-6.682616E-4,2.3837034E-2,-1.0143573E-2],"categories":[],"categories_nodes":[],"categories_segments":[],"categories_sizes":[],"default_left":[1,0,0,0,0,0,0,0,0,0,0,0,0,0,0],"id":54,"left_children":[1,3,5,7,9,11,13,-1,-1,-1,-1,-1,-1,-1,-1],"loss_changes":[6.238523E-1,5.644708E-1,4.404714E-1,2.753025E-1,7.0809E-1,2.998455E-1,6.394717E-1,0E0,0E0,0E0,0E0,0E0,0E0,0E0,0E0],"parents":[2147483647,0,0,1,1,2,2,3,3,4,4,5,5,6,6],"right_children":[2,4,6,8,10,12,14,-1,-1,-1,-1,-1,-1,-1,-1],"split_conditions":[1.3465829E0,1E0,1E0,-8.2290035E-1,-6.145319E-1,1.7694483E0,2.1371574E0,-3.1822086E-3,6.5478357E-4,-2.4380095E-2,-3.656679E-3,8.9523895E-3,-6.682616E-4,2.3837034E-2,-1.0143573E-2],"split_indices":[4,1,1,4,4,4,4,0,0,0,0,0,0,0,0],"split_type":[0,0,0,0,0,0,0,0,0,0,0,0,0,0,0],"sum_hessian":[5.005E3,4.336E3,6.69E2,3.966E3,3.7E2,5.44E2,1.25E2,9.99E2,2.967E3,8.5E1,2.85E2,2.11E2,3.33E2,9.7E1,2.8E1],"tree_param":{"num_deleted":"0","num_feature":"5","num_nodes":"15","size_leaf_vector":"0"}},{"base_weights":[-4.519834E-3,1.4545383E-2,-1.1898507E-2,6.5732826E-3,3.3675316E-1,-4.296933E-2,-9.241173E-3,2.2229904E-3,-1.02117874E-1,5.3761967E-2,1.5582515E-1,4.7576245E-2,-2.0686714E-3],"categories":[],"categories_nodes":[],"categories_segments":[],"categories_sizes":[],"default_left":[0,0,0,0,0,0,0,0,0,0,0,0,0],"id":55,"left_children":[1,3,5,7,9,-1,11,-1,-1,-1,-1,-1,-1],"loss_changes":[7.103056E-1,3.6170466E0,1.961071E0,3.2375991E0,8.1247616E-1,0E0,9.8137414E-1,0E0,0E0,0E0,0E0,0E0,0E0],"parents":[2147483647,0,0,1,1,2,2,3,3,4,4,6,6],"right_children":[2,4,6,8,10,-1,12,-1,-1,-1,-1,-1,-1],"split_conditions":[-6.362938E-1,-6.747726E-1,-7.2484463E-1,-3.2325927E-2,1E0,-4.296933E-2,-6.042282E-1,2.2229904E-3,-1.02117874E-1,5.3761967E-2,1.5582515E-1,4.7576245E-2,-2.0686714E-3],"split_indices":[3,3,4,4,0,0,3,0,0,0,0,0,0],"split_type":[0,0,0,0,0,0,0,0,0,0,0,0,0],"sum_hessian":[5.047E3,1.408E3,3.639E3,1.375E3,3.3E1,4.6E1,3.593E3,1.364E3,1.1E1,3E1,3E0,1.5E1,3.578E3],"tree_param":{"num_deleted":"0","num_feature":"5","num_nodes":"13","size_leaf_vector":"0"}},{"base_weights":[2.787543E-3,-1.398421E-2,7.1193734E-3,-1.5279544E-3,-1.7290565E-1,1.795561E-1,2.8276364E-3,-2.423629E-3,8.157122E-3,-3.593154E-2,-1.3062854E-2,1.6950851E-2,7.978551E-2,-9.320724E-3,1.2744436E-3],"categories":[],"categories_nodes":[],"categories_segments":[],"categories_sizes":[],"default_left":[1,1,0,0,0,0,0,0,0,0,0,0,0,0,0],"id":56,"left_children":[1,3,5,7,9,11,13,-1,-1,-1,-1,-1,-1,-1,-1],"loss_changes":[3.6525047E-1,2.042648E0,2.9560044E0,4.2978236E-1,4.275036E-2,1.9834807E0,6.8345284E-1,0E0,0E0,0E0,0E0,0E0,0E0,0E0,0E0],"parents":[2147483647,0,0,1,1,2,2,3,3,4,4,5,5,6,6],"right_children":[2,4,6,8,10,12,14,-1,-1,-1,-1,-1,-1,-1,-1],"split_conditions":[-8.045149E-1,-8.657997E-1,-7.4323004E-1,1E0,-8.2290035E-1,-7.616155E-1,-6.513028E-1,-2.423629E-3,8.157122E-3,-3.593154E-2,-1.3062854E-2,1.6950851E-2,7.978551E-2,-9.320724E-3,1.2744436E-3],"split_indices":[4,4,4,2,4,4,4,0,0,0,0,0,0,0,0],"split_type":[0,0,0,0,0,0,0,0,0,0,0,0,0,0,0],"sum_hessian":[5.025E3,1.031E3,3.994E3,9.57E2,7.4E1,9.6E1,3.898E3,7.66E2,1.91E2,6.9E1,5E0,6.8E1,2.8E1,2.6E2,3.638E3],"tree_param":{"num_deleted":"0","num_feature":"5","num_nodes":"15","size_leaf_vector":"0"}},{"base_weights":[8.953885E-4,3.1938704E-3,-2.6297808E-2,2.4250501E-3,3.2502972E-3,-1.018137E-2,-2.2570863E-3,1.8123368E-4,1.7201819E-3],"categories":[],"categories_nodes":[],"categories_segments":[],"categories_sizes":[],"default_left":[0,0,0,0,0,0,0,0,0],"id":57,"left_children":[1,3,5,7,-1,-1,-1,-1,-1],"loss_changes":[3.1597453E-1,4.675219E-2,1.449849E-1,4.1294094E-2,0E0,0E0,0E0,0E0,0E0],"parents":[2147483647,0,0,1,1,2,2,3,3],"right_children":[2,4,6,8,-1,-1,-1,-1,-1],"split_conditions":[1E0,1E0,1E0,1E0,3.2502972E-3,-1.018137E-2,-2.2570863E-3,1.8123368E-4,1.7201819E-3],"split_indices":[0,1,1,2,0,0,0,0,0],"split_type":[0,0,0,0,0,0,0,0,0],"sum_hessian":[5.053E3,4.66E3,3.93E2,4.402E3,2.58E2,1.48E2,2.45E2,3.534E3,8.68E2],"tree_param":{"num_deleted":"0","num_feature":"5","num_nodes":"9","size_leaf_vector":"0"}},{"base_weights":[2.2994245E-3,3.1210291E-3,-8.303381E-3,4.6322164E-3,-7.412703E-4,-5.519932E-3,1.0595589E-3,7.714577E-4,3.0883227E-3],"categories":[],"categories_nodes":[],"categories_segments":[],"categories_sizes":[],"default_left":[0,0,0,0,0,0,0,0,0],"id":58,"left_children":[1,3,5,7,-1,-1,-1,-1,-1],"loss_changes":[4.3599904E-2,4.7921084E-2,9.462896E-2,3.1787902E-2,0E0,0E0,0E0,0E0,0E0],"parents":[2147483647,0,0,1,1,2,2,3,3],"right_children":[2,4,6,8,-1,-1,-1,-1,-1],"split_conditions":[1E0,1E0,1E0,1E0,-7.412703E-4,-5.519932E-3,1.0595589E-3,7.714577E-4,3.0883227E-3],"split_indices":[0,2,1,1,0,0,0,0,0],"split_type":[0,0,0,0,0,0,0,0,0],"sum_hessian":[5.001E3,4.642E3,3.59E2,3.801E3,8.41E2,1.48E2,2.11E2,3.548E3,2.53E2],"tree_param":{"num_deleted":"0","num_feature":"5","num_nodes":"9","size_leaf_vector":"0"}},{"base_weights":[5.274535E-4,2.8708896E-2,-2.3419557E-3,3.7319425E-2,-1.258082E-1,-1.01051465E-1,-1.9896342E-4,6.474583E-3,6.193179E-2,-1.4644325E-2,-6.1888754E-2,2.3509135E-2,-3.307772E-4],"categories":[],"categories_nodes":[],"categories_segments":[],"categories_sizes":[],"default_left":[0,0,0,0,0,0,0,0,0,0,0,0,0],"id":59,"left_children":[1,3,5,7,-1,9,11,-1,-1,-1,-1,-1,-1],"loss_changes":[4.025278E-1,2.6287193E0,9.556893E-1,6.0291946E-1,0E0,5.3409636E-1,7.5789547E-1,0E0,0E0,0E0,0E0,0E0,0E0],"parents":[2147483647,0,0,1,1,2,2,3,3,5,5,6,6],"right_children":[2,4,6,8,-1,10,12,-1,-1,-1,-1,-1,-1],"split_conditions":[-1.1557571E0,-5.90018E-1,-1.149344E0,-1.1621702E0,-1.258082E-1,-7.861294E-1,-1.1172783E0,6.474583E-3,6.193179E-2,-1.4644325E-2,-6.1888754E-2,2.3509135E-2,-3.307772E-4],"split_indices":[3,4,3,3,0,4,3,0,0,0,0,0,0],"split_type":[0,0,0,0,0,0,0,0,0,0,0,0,0],"sum_hessian":[4.976E3,4.59E2,4.517E3,4.54E2,5E0,9.5E1,4.422E3,4.47E2,7E0,8.5E1,1E1,5.3E1,4.369E3],"tree_param":{"num_deleted":"0","num_feature":"5","num_nodes":"13","size_leaf_vector":"0"}},{"base_weights":[-3.1759383E-3,-1.2486803E-2,5.4070614E-3,-9.638856E-3,-5.6827433E-2,1.0494752E-1,3.0145133E-3,-2.4238746E-3,6.3554704E-2,1.3861613E-2,-6.1883905E-4],"categories":[],"categories_nodes":[],"categories_segments":[],"categories_sizes":[],"default_left":[0,0,0,0,0,0,0,0,0,0,0],"id":60,"left_children":[1,3,5,7,-1,-1,9,-1,-1,-1,-1],"loss_changes":[4.0204078E-1,1.8640686E0,3.251344E0,1.9440817E0,0E0,0E0,1.0559659E0,0E0,0E0,0E0,0E0],"parents":[2147483647,0,0,1,1,2,2,3,3,6,6],"right_children":[2,4,6,8,-1,-1,10,-1,-1,-1,-1],"split_conditions":[-3.2649314E-1,-3.3262163E-1,-3.2036468E-1,-3.5713556E-1,-5.6827433E-2,1.0494752E-1,-2.4682286E-1,-2.4238746E-3,6.3554704E-2,1.3861613E-2,-6.1883905E-4],"split_indices":[4,4,4,4,0,0,4,0,0,0,0],"split_type":[0,0,0,0,0,0,0,0,0,0,0],"sum_hessian":[5.029E3,2.412E3,2.617E3,2.388E3,2.4E1,1.1E1,2.606E3,2.371E3,1.7E1,2.19E2,2.387E3],"tree_param":{"num_deleted":"0","num_feature":"5","num_nodes":"11","size_leaf_vector":"0"}},{"base_weights":[-5.2687433E-3,-7.580763E-3,3.4362268E-2,-3.6617133E-3,-4.7781743E-2,6.717124E-2,-1.2036219E-2,-1.0989635E-3,3.5577614E-3,-2.6019037E-2,-5.581212E-3,6.7010946E-3,3.1492066E-2,-3.7773632E-5,-3.439037E-2],"categories":[],"categories_nodes":[],"categories_segments":[],"categories_sizes":[],"default_left":[1,0,0,0,0,0,0,0,0,0,0,0,0,0,0],"id":61,"left_children":[1,3,5,7,9,11,13,-1,-1,-1,-1,-1,-1,-1,-1],"loss_changes":[4.6206403E-1,7.5023407E-1,4.2400417E-1,1.7079039E-1,6.884128E-1,4.901874E-1,2.1973841E-1,0E0,0E0,0E0,0E0,0E0,0E0,0E0,0E0],"parents":[2147483647,0,0,1,1,2,2,3,3,4,4,5,5,6,6],"right_children":[2,4,6,8,10,12,14,-1,-1,-1,-1,-1,-1,-1,-1],"split_conditions":[2.0758724E0,1E0,2.1371574E0,1.3465829E0,-6.145319E-1,1E0,1E0,-1.0989635E-3,3.5577614E-3,-2.6019037E-2,-5.581212E-3,6.7010946E-3,3.1492066E-2,-3.7773632E-5,-3.439037E-2],"split_indices":[4,1,4,4,4,1,2,0,0,0,0,0,0,0,0],"split_type":[0,0,0,0,0,0,0,0,0,0,0,0,0,0,0],"sum_hessian":[5.039E3,4.762E3,2.77E2,4.34E3,4.22E2,1.62E2,1.15E2,3.999E3,3.41E2,8.1E1,3.41E2,1.19E2,4.3E1,1.08E2,7E0],"tree_param":{"num_deleted":"0","num_feature":"5","num_nodes":"15","size_leaf_vector":"0"}},{"base_weights":[-2.6370434E-3,1.5374868E-3,-3.8967546E-2,1.4089918E-2,-2.916825E-3,-1.3260593E-1,-2.7974574E-2,-1.3522988E-3,2.3250757E-2,-1.5546533E-2,1.9952706E-4,6.2187794E-3,-7.670679E-2,1.3263127E-1,-7.11495E-3],"categories":[],"categories_nodes":[],"categories_segments":[],"categories_sizes":[],"default_left":[0,0,0,0,0,0,1,0,0,0,0,0,0,0,0],"id":62,"left_children":[1,3,5,7,9,11,13,-1,-1,-1,-1,-1,-1,-1,-1],"loss_changes":[7.4608916E-1,2.4678269E-1,5.18178E-1,2.4633675E0,9.542273E-1,2.1889997E0,2.413578E0,0E0,0E0,0E0,0E0,0E0,0E0,0E0,0E0],"parents":[2147483647,0,0,1,1,2,2,3,3,4,4,5,5,6,6],"right_children":[2,4,6,8,10,12,14,-1,-1,-1,-1,-1,-1,-1,-1],"split_conditions":[1E0,-6.880737E-1,-6.942022E-1,-8.2290035E-1,-6.513028E-1,-1.2702796E0,-6.758167E-1,-1.3522988E-3,2.3250757E-2,-1.5546533E-2,1.9952706E-4,6.2187794E-3,-7.670679E-2,1.3263127E-1,-7.11495E-3],"split_indices":[1,4,4,4,4,4,4,0,0,0,0,0,0,0,0],"split_type":[0,0,0,0,0,0,0,0,0,0,0,0,0,0,0],"sum_hessian":[4.918E3,4.412E3,5.06E2,1.155E3,3.257E3,5.2E1,4.54E2,9.6E2,1.95E2,1.61E2,3.096E3,3.2E1,2E1,4E0,4.5E2],"tree_param":{"num_deleted":"0","num_feature":"5","num_nodes":"15","size_leaf_vector":"0"}},{"base_weights":[7.7598123E-3,5.7905532E-2,4.2241635E-3,-2.5780315E-3,7.068383E-2,-9.854406E-3,9.949903E-3,7.7548176E-3,-2.2710145E-2,2.6614213E-2,1.1589767E-2,-3.6128893E-4,-3.2121755E-2,2.3961252E-2,1.3944342E-3],"categories":[],"categories_nodes":[],"categories_segments":[],"categories_sizes":[],"default_left":[0,0,1,0,0,0,0,0,0,0,0,0,0,0,0],"id":63,"left_children":[1,3,5,7,9,11,13,-1,-1,-1,-1,-1,-1,-1,-1],"loss_changes":[8.802155E-1,2.5291312E-1,3.741295E-1,2.7056226E-1,2.0680404E-1,1.6279119E0,1.0783426E0,0E0,0E0,0E0,0E0,0E0,0E0,0E0,0E0],"parents":[2147483647,0,0,1,1,2,2,3,3,4,4,5,5,6,6],"right_children":[2,4,6,8,10,12,14,-1,-1,-1,-1,-1,-1,-1,-1],"split_conditions":[-1.2396373E0,-1.300922E0,-5.409901E-1,-1.3070506E0,-1.2947936E0,-5.90018E-1,-4.3680587E-1,7.7548176E-3,-2.2710145E-2,2.6614213E-2,1.1589767E-2,-3.6128893E-4,-3.2121755E-2,2.3961252E-2,1.3944342E-3],"split_indices":[4,4,4,4,4,4,4,0,0,0,0,0,0,0,0],"split_type":[0,0,0,0,0,0,0,0,0,0,0,0,0,0,0],"sum_hessian":[4.965E3,3.26E2,4.639E3,5.7E1,2.69E2,1.341E3,3.298E3,4.2E1,1.5E1,4.4E1,2.25E2,1.274E3,6.7E1,8.6E1,3.212E3],"tree_param":{"num_deleted":"0","num_feature":"5","num_nodes":"15","size_leaf_vector":"0"}},{"base_weights":[1.7685924E-3,3.3069085E-4,1.9194799E-2,-1.6044109E-3,1.79651E-3,9.790181E-3,2.6711353E-4,-1.5921735E-4,-2.5245077E-3],"categories":[],"categories_nodes":[],"categories_segments":[],"categories_sizes":[],"default_left":[0,0,0,0,0,0,0,0,0],"id":64,"left_children":[1,3,5,7,-1,-1,-1,-1,-1],"loss_changes":[1.2623166E-1,7.794947E-2,2.0400034E-1,3.387811E-2,0E0,0E0,0E0,0E0,0E0],"parents":[2147483647,0,0,1,1,2,2,3,3],"right_children":[2,4,6,8,-1,-1,-1,-1,-1],"split_conditions":[1E0,1E0,1E0,1E0,1.79651E-3,9.790181E-3,2.6711353E-4,-1.5921735E-4,-2.5245077E-3],"split_indices":[0,2,1,1,0,0,0,0,0],"split_type":[0,0,0,0,0,0,0,0,0],"sum_hessian":[5.037E3,4.654E3,3.83E2,3.804E3,8.5E2,1.43E2,2.4E2,3.545E3,2.59E2],"tree_param":{"num_deleted":"0","num_feature":"5","num_nodes":"9","size_leaf_vector":"0"}},{"base_weights":[-3.959713E-3,-4.313165E-2,-1.8863329E-3,-2.1665763E-2,-2.1331833E-1,3.9207112E-2,-3.9219544E-3,-4.953925E-2,-3.286045E-3,-4.9805578E-2,-8.175731E-3,2.4222783E-3,3.7035596E-2,-1.540007E-2,-3.3788104E-4],"categories":[],"categories_nodes":[],"categories_segments":[],"categories_sizes":[],"default_left":[1,0,0,0,0,0,0,0,0,0,0,0,0,0,0],"id":65,"left_children":[1,3,5,7,9,11,13,-1,-1,-1,-1,-1,-1,-1,-1],"loss_changes":[4.0552294E-1,9.123336E-1,3.969927E-1,2.6100987E-1,1.6223681E-1,8.8371885E-1,7.374761E-1,0E0,0E0,0E0,0E0,0E0,0E0,0E0,0E0],"parents":[2147483647,0,0,1,1,2,2,3,3,4,4,5,5,6,6],"right_children":[2,4,6,8,10,12,14,-1,-1,-1,-1,-1,-1,-1,-1],"split_conditions":[-1.2641512E0,-1.1878227E0,-1.1967379E0,-1.463587E0,-1.0531471E0,-1.1301045E0,-1.0680397E0,-4.953925E-2,-3.286045E-3,-4.9805578E-2,-8.175731E-3,2.4222783E-3,3.7035596E-2,-1.540007E-2,-3.3788104E-4],"split_indices":[4,3,4,3,3,3,4,0,0,0,0,0,0,0,0],"split_type":[0,0,0,0,0,0,0,0,0,0,0,0,0,0,0],"sum_hessian":[4.993E3,2.5E2,4.743E3,2.23E2,2.7E1,2.23E2,4.52E3,4E0,2.19E2,2.2E1,5E0,1.89E2,3.4E1,1.33E2,4.387E3],"tree_param":{"num_deleted":"0","num_feature":"5","num_nodes":"15","size_leaf_vector":"0"}},{"base_weights":[4.7116063E-4,-3.243047E-2,4.6248473E-3,-1.7832348E-2,-9.213256E-2,9.6396334E-2,1.2991745E-3,-1.3498731E-2,-1.6914512E-3,-1.911602E-2,4.452017E-3,6.8839304E-3,4.2770687E-2,-1.8809304E-2,6.207748E-4],"categories":[],"categories_nodes":[],"categories_segments":[],"categories_sizes":[],"default_left":[0,0,0,0,0,0,0,0,0,0,0,0,0,0,0],"id":66,"left_children":[1,3,5,7,9,11,13,-1,-1,-1,-1,-1,-1,-1,-1],"loss_changes":[6.7786217E-1,4.829324E-1,1.3439841E0,2.0800874E-1,4.511416E-2,1.1136978E0,7.3176277E-1,0E0,0E0,0E0,0E0,0E0,0E0,0E0,0E0],"parents":[2147483647,0,0,1,1,2,2,3,3,4,4,5,5,6,6],"right_children":[2,4,6,8,10,12,14,-1,-1,-1,-1,-1,-1,-1,-1],"split_conditions":[-1.1301045E0,-1.1557571E0,-1.0852127E0,-1.3738034E0,1E0,-1.104452E0,-1.0339077E0,-1.3498731E-2,-1.6914512E-3,-1.911602E-2,4.452017E-3,6.8839304E-3,4.2770687E-2,-1.8809304E-2,6.207748E-4],"split_indices":[3,3,3,3,1,3,3,0,0,0,0,0,0,0,0],"split_type":[0,0,0,0,0,0,0,0,0,0,0,0,0,0,0],"sum_hessian":[4.958E3,5.55E2,4.403E3,4.47E2,1.08E2,1.53E2,4.25E3,7E1,3.77E2,1.05E2,3E0,1.01E2,5.2E1,7.8E1,4.172E3],"tree_param":{"num_deleted":"0","num_feature":"5","num_nodes":"15","size_leaf_vector":"0"}},{"base_weights":[1.1344852E-3,-1.6061865E-3,3.5687696E-2,9.722793E-3,-4.6776966E-3,1.291468E-1,-1.3506487E-2,1.0298257E-3,3.1181682E-2,-6.2336638E-3,1.0426161E-4,1.5164058E-2,1.1818937E-1,-6.26421E-2,-1.4306869E-3],"categories":[],"categories_nodes":[],"categories_segments":[],"categories_sizes":[],"default_left":[0,0,0,0,0,0,0,0,0,0,0,0,0,0,0],"id":67,"left_children":[1,3,5,7,9,11,13,-1,-1,-1,-1,-1,-1,-1,-1],"loss_changes":[4.7421527E-1,1.6150391E-1,1.6936772E0,6.6111505E-1,5.0284976E-1,3.0827196E0,4.5853603E-1,0E0,0E0,0E0,0E0,0E0,0E0,0E0,0E0],"parents":[2147483647,0,0,1,1,2,2,3,3,4,4,5,5,6,6],"right_children":[2,4,6,8,10,12,14,-1,-1,-1,-1,-1,-1,-1,-1],"split_conditions":[1E0,-8.9281887E-1,-5.7857573E-1,-8.9923203E-1,-5.529232E-1,-6.747726E-1,-5.7216257E-1,1.0298257E-3,3.1181682E-2,-6.2336638E-3,1.0426161E-4,1.5164058E-2,1.1818937E-1,-6.26421E-2,-1.4306869E-3],"split_indices":[0,3,3,3,3,3,3,0,0,0,0,0,0,0,0],"split_type":[0,0,0,0,0,0,0,0,0,0,0,0,0,0,0],"sum_hessian":[5.006E3,4.639E3,3.67E2,9.89E2,3.65E3,1.26E2,2.41E2,9.6E2,2.9E1,5.98E2,3.052E3,1.14E2,1.2E1,4E0,2.37E2],"tree_param":{"num_deleted":"0","num_feature":"5","num_nodes":"15","size_leaf_vector":"0"}},{"base_weights":[-2.4346278E-4,1.8006774E-2,-5.551201E-3,6.95327E-3,1.3371919E-1,-4.3713182E-2,-2.0522678E-3,-1.2537824E-4,2.6104068E-2,4.1565742E-2,-1.6470186E-2,-5.849113E-3,-3.4431733E-2,4.7225985E-4,-8.280382E-3],"categories":[],"categories_nodes":[],"categories_segments":[],"categories_sizes":[],"default_left":[0,0,0,0,0,0,0,0,0,0,0,0,0,0,0],"id":68,"left_children":[1,3,5,7,9,11,13,-1,-1,-1,-1,-1,-1,-1,-1],"loss_changes":[4.884089E-1,1.4520454E0,5.214637E-1,9.723332E-1,1.6023873E0,6.0448736E-1,6.2167084E-1,0E0,0E0,0E0,0E0,0E0,0E0,0E0,0E0],"parents":[2147483647,0,0,1,1,2,2,3,3,4,4,5,5,6,6],"right_children":[2,4,6,8,10,12,14,-1,-1,-1,-1,-1,-1,-1,-1],"split_conditions":[-8.8640577E-1,1E0,-6.298807E-1,-8.9923203E-1,-8.9923203E-1,-6.362938E-1,1E0,-1.2537824E-4,2.6104068E-2,4.1565742E-2,-1.6470186E-2,-5.849113E-3,-3.4431733E-2,4.7225985E-4,-8.280382E-3],"split_indices":[3,1,3,3,3,3,1,0,0,0,0,0,0,0,0],"split_type":[0,0,0,0,0,0,0,0,0,0,0,0,0,0,0],"sum_hessian":[5.04E3,1.135E3,3.905E3,1.037E3,9.8E1,3.27E2,3.578E3,9.78E2,5.9E1,7.3E1,2.5E1,2.95E2,3.2E1,3.218E3,3.6E2],"tree_param":{"num_deleted":"0","num_feature":"5","num_nodes":"15","size_leaf_vector":"0"}},{"base_weights":[3.130964E-3,-7.474887E-4,4.067892E-2,5.8917914E-2,-1.7538867E-3,1.1664284E-1,-5.139516E-3,3.2989107E-4,5.151522E-2,1.0665085E-3,-1.2960291E-3,-9.962786E-3,2.8833449E-2,-3.5500243E-2,1.7336218E-3],"categories":[],"categories_nodes":[],"categories_segments":[],"categories_sizes":[],"default_left":[0,0,0,0,0,0,0,0,0,0,0,0,0,0,0],"id":69,"left_children":[1,3,5,7,9,11,13,-1,-1,-1,-1,-1,-1,-1,-1],"loss_changes":[7.357429E-1,2.7511922E-1,1.6468985E0,8.642157E-1,1.5091735E-1,8.227103E-1,7.059907E-1,0E0,0E0,0E0,0E0,0E0,0E0,0E0,0E0],"parents":[2147483647,0,0,1,1,2,2,3,3,4,4,5,5,6,6],"right_children":[2,4,6,8,10,12,14,-1,-1,-1,-1,-1,-1,-1,-1],"split_conditions":[1E0,-1.3289114E0,-5.208576E-1,-1.3738034E0,-3.220507E-1,-1.2134752E0,-4.310738E-1,3.2989107E-4,5.151522E-2,1.0665085E-3,-1.2960291E-3,-9.962786E-3,2.8833449E-2,-3.5500243E-2,1.7336218E-3],"split_indices":[1,3,3,3,3,3,3,0,0,0,0,0,0,0,0],"split_type":[0,0,0,0,0,0,0,0,0,0,0,0,0,0,0],"sum_hessian":[5.051E3,4.579E3,4.72E2,7.5E1,4.504E3,1.77E2,2.95E2,5.9E1,1.6E1,1.802E3,2.702E3,2.5E1,1.52E2,2.1E1,2.74E2],"tree_param":{"num_deleted":"0","num_feature":"5","num_nodes":"15","size_leaf_vector":"0"}},{"base_weights":[-4.2600106E-3,-8.485046E-3,9.260848E-3,-7.076328E-3,-6.258829E-2,4.7545597E-2,-8.131321E-3,-2.5282876E-4,-2.9390783E-3,-1.1423256E-2,-1.9935926E-2,6.3838563E-3,2.0940356E-2,-3.529241E-3,-3.5688325E-4],"categories":[],"categories_nodes":[],"categories_segments":[],"categories_sizes":[],"default_left":[0,0,0,0,0,0,0,0,0,0,0,0,0,0,0],"id":70,"left_children":[1,3,5,7,9,11,13,-1,-1,-1,-1,-1,-1,-1,-1],"loss_changes":[2.840525E-1,2.882642E-1,7.8875875E-1,1.6352001E-1,1.3791263E-2,3.2712007E-1,4.918641E-2,0E0,0E0,0E0,0E0,0E0,0E0,0E0,0E0],"parents":[2147483647,0,0,1,1,2,2,3,3,4,4,5,5,6,6],"right_children":[2,4,6,8,10,12,14,-1,-1,-1,-1,-1,-1,-1,-1],"split_conditions":[6.463313E-1,5.180688E-1,9.669876E-1,-3.220507E-1,1E0,9.0285635E-1,1.447972E0,-2.5282876E-4,-2.9390783E-3,-1.1423256E-2,-1.9935926E-2,6.3838563E-3,2.0940356E-2,-3.529241E-3,-3.5688325E-4],"split_indices":[3,3,3,3,2,3,3,0,0,0,0,0,0,0,0],"split_type":[0,0,0,0,0,0,0,0,0,0,0,0,0,0,0],"sum_hessian":[4.97E3,3.787E3,1.183E3,3.692E3,9.5E1,3.69E2,8.14E2,2.095E3,1.597E3,8.5E1,1E1,2.91E2,7.8E1,3.25E2,4.89E2],"tree_param":{"num_deleted":"0","num_feature":"5","num_nodes":"15","size_leaf_vector":"0"}},{"base_weights":[-3.496824E-3,-1.838276E-2,-7.635691E-4,-5.353526E-3,-1.11862585E-1,1.6522571E-1,-1.6303783E-3,-2.489359E-3,4.37692E-2,-1.6132385E-2,-6.0492408E-2,4.1218076E-2,2.1125114E-2,3.6935569E-3,-1.1091618E-3],"categories":[],"categories_nodes":[],"categories_segments":[],"categories_sizes":[],"default_left":[0,0,0,0,0,0,0,0,0,0,0,0,0,0,0],"id":71,"left_children":[1,3,5,7,9,11,13,-1,-1,-1,-1,-1,-1,-1,-1],"loss_changes":[2.0378743E-1,9.457643E-1,6.093179E-1,1.0889037E0,5.4055166E-1,3.1813443E-2,3.3155712E-1,0E0,0E0,0E0,0E0,0E0,0E0,0E0,0E0],"parents":[2147483647,0,0,1,1,2,2,3,3,4,4,5,5,6,6],"right_children":[2,4,6,8,10,12,14,-1,-1,-1,-1,-1,-1,-1,-1],"split_conditions":[-1.0339077E0,-1.0980389E0,-1.0082551E0,-1.104452E0,1E0,1E0,-5.7857573E-1,-2.489359E-3,4.37692E-2,-1.6132385E-2,-6.0492408E-2,4.1218076E-2,2.1125114E-2,3.6935569E-3,-1.1091618E-3],"split_indices":[3,3,3,3,1,2,3,0,0,0,0,0,0,0,0],"split_type":[0,0,0,0,0,0,0,0,0,0,0,0,0,0,0],"sum_hessian":[5.008E3,7.76E2,4.232E3,6.82E2,9.4E1,2.1E1,4.211E3,6.62E2,2E1,8.2E1,1.2E1,1.1E1,1E1,6.86E2,3.525E3],"tree_param":{"num_deleted":"0","num_feature":"5","num_nodes":"15","size_leaf_vector":"0"}},{"base_weights":[9.603212E-5,-1.4374752E-2,3.8760714E-3,8.970149E-4,-7.480848E-2,1.3373156E-1,6.890502E-4,-1.0732246E-3,4.2187147E-2,-4.4577293E-2,-7.2465315E-3,1.7584529E-2,8.864992E-2,9.154855E-3,-3.9220703E-4],"categories":[],"categories_nodes":[],"categories_segments":[],"categories_sizes":[],"default_left":[1,0,0,0,0,0,0,0,0,0,0,0,0,0,0],"id":72,"left_children":[1,3,5,7,9,11,13,-1,-1,-1,-1,-1,-1,-1,-1],"loss_changes":[2.7361107E-1,9.5622236E-1,1.6412457E0,1.0903671E0,1.18578E0,1.3080035E0,4.6271512E-1,0E0,0E0,0E0,0E0,0E0,0E0,0E0,0E0],"parents":[2147483647,0,0,1,1,2,2,3,3,4,4,5,5,6,6],"right_children":[2,4,6,8,10,12,14,-1,-1,-1,-1,-1,-1,-1,-1],"split_conditions":[-8.045149E-1,-9.822409E-1,-7.4323004E-1,-8.9923203E-1,-9.761124E-1,-7.4935853E-1,-8.286876E-1,-1.0732246E-3,4.2187147E-2,-4.4577293E-2,-7.2465315E-3,1.7584529E-2,8.864992E-2,9.154855E-3,-3.9220703E-4],"split_indices":[4,4,4,3,4,4,3,0,0,0,0,0,0,0,0],"split_type":[0,0,0,0,0,0,0,0,0,0,0,0,0,0,0],"sum_hessian":[5E3,1.035E3,3.965E3,8.27E2,2.08E2,9.4E1,3.871E3,8.04E2,2.3E1,4.2E1,1.66E2,8.3E1,1.1E1,2.14E2,3.657E3],"tree_param":{"num_deleted":"0","num_feature":"5","num_nodes":"15","size_leaf_vector":"0"}},{"base_weights":[-3.375284E-4,4.910731E-2,-1.9063334E-3,-1.5897969E-2,9.8780625E-2,-7.036736E-2,-8.097633E-4,-3.4059506E-2,5.4570413E-3,7.741595E-2,1.3022444E-2,-5.3231698E-2,-8.107947E-3,-6.9189153E-4,4.0287897E-3],"categories":[],"categories_nodes":[],"categories_segments":[],"categories_sizes":[],"default_left":[0,0,0,0,0,0,1,0,0,0,0,0,0,0,0],"id":73,"left_children":[1,3,5,7,9,11,13,-1,-1,-1,-1,-1,-1,-1,-1],"loss_changes":[3.9096537E-1,5.020697E-1,3.6667126E-1,4.580341E-1,8.289748E-1,4.3888885E-1,2.6706982E-1,0E0,0E0,0E0,0E0,0E0,0E0,0E0,0E0],"parents":[2147483647,0,0,1,1,2,2,3,3,4,4,5,5,6,6],"right_children":[2,4,6,8,10,12,14,-1,-1,-1,-1,-1,-1,-1,-1],"split_conditions":[-1.2886652E0,-1.300922E0,-1.2702796E0,-1.2840196E0,-1.3289114E0,-1.3289114E0,1.6468786E0,-3.4059506E-2,5.4570413E-3,7.741595E-2,1.3022444E-2,-5.3231698E-2,-8.107947E-3,-6.9189153E-4,4.0287897E-3],"split_indices":[4,4,4,3,3,3,4,0,0,0,0,0,0,0,0],"split_type":[0,0,0,0,0,0,0,0,0,0,0,0,0,0,0],"sum_hessian":[5.038E3,1.54E2,4.884E3,6.7E1,8.7E1,7.6E1,4.808E3,1.4E1,5.3E1,8E0,7.9E1,9E0,6.7E1,4.269E3,5.39E2],"tree_param":{"num_deleted":"0","num_feature":"5","num_nodes":"15","size_leaf_vector":"0"}},{"base_weights":[2.3851288E-3,1.0139634E-2,-3.097176E-3,8.236457E-3,8.0883086E-2,-6.38446E-2,-3.4265508E-4,-1.0426383E-3,6.612193E-3,-3.0983256E-3,-1.45310825E-2,3.1157328E-2,-5.853792E-4],"categories":[],"categories_nodes":[],"categories_segments":[],"categories_sizes":[],"default_left":[0,0,0,0,0,0,0,0,0,0,0,0,0],"id":74,"left_children":[1,3,5,7,-1,9,11,-1,-1,-1,-1,-1,-1],"loss_changes":[2.1412465E-1,1.5619544E0,4.9376908E-1,6.93643E-1,0E0,5.340618E-2,1.1398714E0,0E0,0E0,0E0,0E0,0E0,0E0],"parents":[2147483647,0,0,1,1,2,2,3,3,5,5,6,6],"right_children":[2,4,6,8,-1,10,12,-1,-1,-1,-1,-1,-1],"split_conditions":[-3.220507E-1,-3.4129006E-1,-3.028113E-1,-6.94012E-1,8.0883086E-2,-3.1563756E-1,-2.6433253E-1,-1.0426383E-3,6.612193E-3,-3.0983256E-3,-1.45310825E-2,3.1157328E-2,-5.853792E-4],"split_indices":[3,3,3,3,0,3,3,0,0,0,0,0,0],"split_type":[0,0,0,0,0,0,0,0,0,0,0,0,0],"sum_hessian":[5.035E3,2.085E3,2.95E3,2.076E3,9E0,1.27E2,2.823E3,1.347E3,7.29E2,2E1,1.07E2,4.5E1,2.778E3],"tree_param":{"num_deleted":"0","num_feature":"5","num_nodes":"13","size_leaf_vector":"0"}},{"base_weights":[-3.0890245E-3,6.940068E-2,-3.8029465E-3,4.7456272E-2,6.0882248E-2,-1.015845E-1,-3.327894E-3,-1.7342653E-2,1.2459785E-2,-4.2411033E-2,-4.233019E-3,1.6691951E-2,-7.819606E-4],"categories":[],"categories_nodes":[],"categories_segments":[],"categories_sizes":[],"default_left":[0,0,0,0,0,0,0,0,0,0,0,0,0],"id":75,"left_children":[1,3,5,7,-1,9,11,-1,-1,-1,-1,-1,-1],"loss_changes":[2.600072E-1,2.3825501E-1,2.3057176E-1,9.700799E-2,0E0,2.0872746E-1,2.502127E-1,0E0,0E0,0E0,0E0,0E0,0E0],"parents":[2147483647,0,0,1,1,2,2,3,3,5,5,6,6],"right_children":[2,4,6,8,-1,10,12,-1,-1,-1,-1,-1,-1],"split_conditions":[-1.3070506E0,1E0,-1.300922E0,-1.3289114E0,6.0882248E-2,-1.3289114E0,-1.2947936E0,-1.7342653E-2,1.2459785E-2,-4.2411033E-2,-4.233019E-3,1.6691951E-2,-7.819606E-4],"split_indices":[4,1,4,3,0,3,4,0,0,0,0,0,0],"split_type":[0,0,0,0,0,0,0,0,0,0,0,0,0],"sum_hessian":[5.018E3,4.8E1,4.97E3,4.5E1,3E0,2.3E1,4.947E3,4E0,4.1E1,9E0,1.4E1,3.2E1,4.915E3],"tree_param":{"num_deleted":"0","num_feature":"5","num_nodes":"13","size_leaf_vector":"0"}},{"base_weights":[-8.9387316E-4,7.5248755E-3,-1.027682E-2,1.047837E-3,2.1261816E-1,-7.333428E-2,-2.5871175E-3,5.742433E-4,-2.5434995E-2,2.5619954E-1,2.8096318E-2,-2.814708E-2,9.706882E-2,-7.653971E-3,4.3795892E-4],"categories":[],"categories_nodes":[],"categories_segments":[],"categories_sizes":[],"default_left":[0,0,0,0,0,1,1,0,0,0,0,0,0,0,0],"id":76,"left_children":[1,3,5,7,9,11,13,-1,-1,-1,-1,-1,-1,-1,-1],"loss_changes":[3.9654157E-1,3.514716E0,1.1509464E0,6.00293E-1,6.0626507E0,9.783438E0,3.6093348E-1,0E0,0E0,0E0,0E0,0E0,0E0,0E0,0E0],"parents":[2147483647,0,0,1,1,2,2,3,3,4,4,5,5,6,6],"right_children":[2,4,6,8,10,12,14,-1,-1,-1,-1,-1,-1,-1,-1],"split_conditions":[-2.4682286E-1,-2.5295135E-1,-9.117814E-2,-2.652083E-1,-1.0980389E0,6.050364E-1,-1.3651015E-1,5.742433E-4,-2.5434995E-2,2.5619954E-1,2.8096318E-2,-2.814708E-2,9.706882E-2,-7.653971E-3,4.3795892E-4],"split_indices":[4,4,3,4,3,4,4,0,0,0,0,0,0,0,0],"split_type":[0,0,0,0,0,0,0,0,0,0,0,0,0,0,0],"sum_hessian":[5.018E3,2.645E3,2.373E3,2.565E3,8E1,2.57E2,2.116E3,2.53E3,3.5E1,4E0,7.6E1,2.3E2,2.7E1,2.49E2,1.867E3],"tree_param":{"num_deleted":"0","num_feature":"5","num_nodes":"15","size_leaf_vector":"0"}}]},"name":"gbtree"},"learner_model_param":{"base_score":"5E-1","num_class":"0","num_feature":"5","num_target":"1"},"objective":{"name":"reg:squarederror","reg_loss_param":{"scale_pos_weight":"1"}}},"version":[1,6,1]}