{"learner":{"attributes":{"best_iteration":"22","best_ntree_limit":"23","scikit_learn":"{\"objective\": \"reg:squarederror\", \"max_leaves\": null, \"max_bin\": null, \"grow_policy\": null, \"learning_rate\": 0.2, \"verbosity\": null, \"booster\": null, \"tree_method\": \"hist\", \"gamma\": null, \"min_child_weight\": 2.0, \"max_delta_step\": null, \"subsample\": 0.6000000000000001, \"sampling_method\": null, \"colsample_bytree\": 0.8, \"colsample_bylevel\": null, \"colsample_bynode\": null, \"reg_alpha\": null, \"reg_lambda\": null, \"scale_pos_weight\": null, \"base_score\": null, \"missing\": NaN, \"num_parallel_tree\": null, \"random_state\": 2020, \"n_jobs\": null, \"monotone_constraints\": null, \"interaction_constraints\": null, \"importance_type\": null, \"gpu_id\": null, \"validate_parameters\": null, \"predictor\": null, \"enable_categorical\": false, \"max_cat_to_onehot\": null, \"eval_metric\": null, \"early_stopping_rounds\": null, \"callbacks\": null, \"_estimator_type\": \"regressor\"}"},"feature_names":["FEATURE","DISPLAY","TPR_ONLY","PRICE","BASE_PRICE"],"feature_types":["int","int","int","float","float"],"gradient_booster":{"model":{"gbtree_model_param":{"num_parallel_tree":"1","num_trees":"23","size_leaf_vector":"0"},"tree_info":[0,0,0,0,0,0,0,0,0,0,0,0,0,0,0,0,0,0,0,0,0,0,0],"trees":[{"base_weights":[-3.19238E-1,-5.1315933E-1,6.384116E-1,-2.8126788E-1,-8.632673E-1,1.6927496E0,-1.2658751E-1,6.6037863E-1,-3.206792E-1,-6.3080984E-1,-8.8600284E-1,1.3635111E0,4.279637E0,1.58318E-1,-3.5469076E-1,1.4142315E-1,-2.5474435E-2,-8.360735E-2,-1.3761455E-2,-1.6585429E-1,-1.0767496E-1,-1.9185759E-1,-1.7263721E-1,3.8182807E-1,1.5297864E-1,2.451713E0,6.8994844E-1,-3.2355364E-2,1.8051346E-1,-1.2826082E-1,-6.6991122E-3],"categories":[],"categories_nodes":[],"categories_segments":[],"categories_sizes":[],"default_left":[0,0,0,0,0,0,0,0,0,0,0,0,0,0,0,0,0,0,0,0,0,0,0,0,0,0,0,0,0,0,0],"id":0,"left_children":[1,3,5,7,9,11,13,15,17,19,21,23,25,27,29,-1,-1,-1,-1,-1,-1,-1,-1,-1,-1,-1,-1,-1,-1,-1,-1],"loss_changes":[8.467876E2,3.075373E2,6.196582E2,8.49003E1,7.421509E0,2.692647E2,2.9040745E1,3.4772453E0,5.3698135E1,2.085125E0,1.4677734E0,9.260718E1,1.9609125E2,4.7553852E1,2.2809107E1,0E0,0E0,0E0,0E0,0E0,0E0,0E0,0E0,0E0,0E0,0E0,0E0,0E0,0E0,0E0,0E0],"parents":[2147483647,0,0,1,1,2,2,3,3,4,4,5,5,6,6,7,7,8,8,9,9,10,10,11,11,12,12,13,13,14,14],"right_children":[2,4,6,8,10,12,14,16,18,20,22,24,26,28,30,-1,-1,-1,-1,-1,-1,-1,-1,-1,-1,-1,-1,-1,-1,-1,-1],"split_conditions":[1E0,5.0187428E-3,-5.7216257E-1,-1.2702796E0,1.8829949E-1,-3.6939254E-1,-2.4509317E-1,-1.207062E0,-3.6939254E-1,1.0121563E-1,6.335051E-1,-1.2947936E0,-1.104452E0,-3.6939254E-1,1.3404545E0,1.4142315E-1,-2.5474435E-2,-8.360735E-2,-1.3761455E-2,-1.6585429E-1,-1.0767496E-1,-1.9185759E-1,-1.7263721E-1,3.8182807E-1,1.5297864E-1,2.451713E0,6.8994844E-1,-3.2355364E-2,1.8051346E-1,-1.2826082E-1,-6.6991122E-3],"split_indices":[1,3,3,4,4,4,3,3,4,3,3,4,3,4,4,0,0,0,0,0,0,0,0,0,0,0,0,0,0,0,0],"split_type":[0,0,0,0,0,0,0,0,0,0,0,0,0,0,0,0,0,0,0,0,0,0,0,0,0,0,0,0,0,0,0],"sum_hessian":[4.557E3,3.79E3,7.67E2,2.281E3,1.509E3,3.22E2,4.45E2,9.1E1,2.19E3,1.37E2,1.372E3,2.87E2,3.5E1,1.98E2,2.47E2,8.6E1,5E0,1.579E3,6.11E2,4.1E1,9.6E1,3.16E2,1.056E3,1.49E2,1.38E2,2E0,3.3E1,1.39E2,5.9E1,1.3E2,1.17E2],"tree_param":{"num_deleted":"0","num_feature":"5","num_nodes":"31","size_leaf_vector":"0"}},{"base_weights":[-2.5911975E-1,-4.1548777E-1,5.192167E-1,-2.3570716E-1,-6.773788E-1,1.4224057E0,-1.103967E-1,-2.704471E-1,8.8391817E-1,-4.9873492E-1,-7.10429E-1,1.0087873E0,2.9863915E0,-3.254058E-1,3.318247E-1,7.5778714E-3,-6.0140785E-2,2.3988019E-1,-1.13469146E-1,-1.1094991E-1,4.9565442E-2,-1.4397661E-1,-3.398377E-2,2.51128E-1,-2.5869155E-2,-7.418336E-2,6.194206E-1,-3.103648E-2,-1.1467429E-1,3.1074083E-1,-5.2175014E-3],"categories":[],"categories_nodes":[],"categories_segments":[],"categories_sizes":[],"default_left":[0,0,0,0,0,0,0,0,0,0,0,0,0,0,0,0,0,0,0,0,0,0,0,0,0,0,0,0,0,0,0],"id":1,"left_children":[1,3,5,7,9,11,13,15,17,19,21,23,25,27,29,-1,-1,-1,-1,-1,-1,-1,-1,-1,-1,-1,-1,-1,-1,-1,-1],"loss_changes":[5.6298865E2,1.8115668E2,4.402998E2,8.911577E1,8.897583E0,2.026994E2,4.356028E1,2.0694412E1,3.2272026E1,1.050845E1,6.6228027E0,7.124304E1,2.5680481E1,1.2911564E1,6.5639366E1,0E0,0E0,0E0,0E0,0E0,0E0,0E0,0E0,0E0,0E0,0E0,0E0,0E0,0E0,0E0,0E0],"parents":[2147483647,0,0,1,1,2,2,3,3,4,4,5,5,6,6,7,7,8,8,9,9,10,10,11,11,12,12,13,13,14,14],"right_children":[2,4,6,8,10,12,14,16,18,20,22,24,26,28,30,-1,-1,-1,-1,-1,-1,-1,-1,-1,-1,-1,-1,-1,-1,-1,-1],"split_conditions":[1E0,-3.9873138E-2,-5.7216257E-1,1E0,3.3208817E-1,1E0,1E0,-1.2006489E0,-3.5411632E-1,3.2567504E-1,1E0,-8.9281887E-1,-1.3802165E0,-4.6286263E-2,-4.6286263E-2,7.5778714E-3,-6.0140785E-2,2.3988019E-1,-1.13469146E-1,-1.1094991E-1,4.9565442E-2,-1.4397661E-1,-3.398377E-2,2.51128E-1,-2.5869155E-2,-7.418336E-2,6.194206E-1,-3.103648E-2,-1.1467429E-1,3.1074083E-1,-5.2175014E-3],"split_indices":[1,3,3,0,3,0,0,3,3,3,0,3,3,3,3,0,0,0,0,0,0,0,0,0,0,0,0,0,0,0,0],"split_type":[0,0,0,0,0,0,0,0,0,0,0,0,0,0,0,0,0,0,0,0,0,0,0,0,0,0,0,0,0,0,0],"sum_hessian":[4.623E3,3.85E3,7.73E2,2.284E3,1.566E3,3.17E2,4.56E2,2.216E3,6.8E1,2.47E2,1.319E3,2.52E2,6.5E1,3.07E2,1.49E2,1.98E2,2.018E3,5.6E1,1.2E1,2.3E2,1.7E1,1.296E3,2.3E1,2.07E2,4.5E1,2E0,6.3E1,1.83E2,1.24E2,3.3E1,1.16E2],"tree_param":{"num_deleted":"0","num_feature":"5","num_nodes":"31","size_leaf_vector":"0"}},{"base_weights":[-1.9554415E-1,-2.7491012E-1,8.920593E-1,8.4748626E-1,-3.467181E-1,2.0059602E0,1.3506839E-1,4.029716E-1,1.1694478E0,-2.023489E-1,-5.551596E-1,1.2460899E0,3.1436818E0,6.7208165E-1,-7.604599E-2,-1.2554041E-2,9.189767E-2,1.7243698E-1,2.7662283E-1,-5.2374717E-2,-1.02297845E-5,-1.0266503E-1,-1.1881515E-1,1.0197275E-1,3.582039E-1,9.3172836E-1,3.855843E-1,3.934112E-2,6.054211E-1,-8.227705E-2,1.7059553E-2],"categories":[],"categories_nodes":[],"categories_segments":[],"categories_sizes":[],"default_left":[0,0,0,0,0,0,0,0,0,0,0,0,0,0,0,0,0,0,0,0,0,0,0,0,0,0,0,0,0,0,0],"id":2,"left_children":[1,3,5,7,9,11,13,15,17,19,21,23,25,27,29,-1,-1,-1,-1,-1,-1,-1,-1,-1,-1,-1,-1,-1,-1,-1,-1],"loss_changes":[4.0482104E2,3.5242215E2,2.68714E2,3.7168396E1,1.2347772E2,1.07605835E2,2.1705011E1,2.9769306E0,8.78656E0,2.9237251E1,2.4301758E0,3.0780937E1,8.495172E1,5.9858738E1,7.501566E0,0E0,0E0,0E0,0E0,0E0,0E0,0E0,0E0,0E0,0E0,0E0,0E0,0E0,0E0,0E0,0E0],"parents":[2147483647,0,0,1,1,2,2,3,3,4,4,5,5,6,6,7,7,8,8,9,9,10,10,11,11,12,12,13,13,14,14],"right_children":[2,4,6,8,10,12,14,16,18,20,22,24,26,28,30,-1,-1,-1,-1,-1,-1,-1,-1,-1,-1,-1,-1,-1,-1,-1,-1],"split_conditions":[1E0,-1.2702796E0,-1.1199622E-1,1E0,-1.1199622E-1,-3.6939254E-1,6.418073E-1,-1.3315645E0,-1.300922E0,-3.6939254E-1,7.766339E-1,1E0,-2.4682286E-1,4.8859522E-1,1.7020351E0,-1.2554041E-2,9.189767E-2,1.7243698E-1,2.7662283E-1,-5.2374717E-2,-1.02297845E-5,-1.0266503E-1,-1.1881515E-1,1.0197275E-1,3.582039E-1,9.3172836E-1,3.855843E-1,3.934112E-2,6.054211E-1,-8.227705E-2,1.7059553E-2],"split_indices":[0,4,4,1,4,4,4,4,4,4,4,1,4,4,4,0,0,0,0,0,0,0,0,0,0,0,0,0,0,0,0],"split_type":[0,0,0,0,0,0,0,0,0,0,0,0,0,0,0,0,0,0,0,0,0,0,0,0,0,0,0,0,0,0,0],"sum_hessian":[4.686E3,4.368E3,3.18E2,2.62E2,4.106E3,1.28E2,1.9E2,1.11E2,1.51E2,2.427E3,1.679E3,7.8E1,5E1,5.3E1,1.37E2,1.2E1,9.9E1,6.4E1,8.7E1,1.875E3,5.52E2,8.16E2,8.63E2,3.4E1,4.4E1,2.1E1,2.9E1,4.5E1,8E0,4.4E1,9.3E1],"tree_param":{"num_deleted":"0","num_feature":"5","num_nodes":"31","size_leaf_vector":"0"}},{"base_weights":[-1.6769542E-1,-2.7540058E-1,3.8786393E-1,-1.5496835E-1,-4.4179434E-1,1.0556194E0,-9.6696936E-2,-2.1074314E-1,3.380036E-2,1.0004784E0,-4.5152506E-1,6.3978434E-1,2.5832553E0,2.0689012E-1,-2.2262192E-1,6.331409E-2,-4.7865566E-2,1.4278075E-1,-3.381874E-2,-2.2130089E-2,8.000744E-1,-8.381286E-2,-9.649143E-2,2.0417789E-1,7.5286417E-3,1.723362E0,3.8948852E-1,1.2659358E-2,3.7324864E-1,-6.324189E-2,2.6735857E-3],"categories":[],"categories_nodes":[],"categories_segments":[],"categories_sizes":[],"default_left":[0,0,0,0,0,0,0,0,0,0,0,0,0,0,0,0,0,0,0,0,0,0,0,0,0,0,0,0,0,0,0],"id":3,"left_children":[1,3,5,7,9,11,13,15,17,19,21,23,25,27,29,-1,-1,-1,-1,-1,-1,-1,-1,-1,-1,-1,-1,-1,-1,-1,-1],"loss_changes":[2.7152567E2,7.608038E1,2.3857181E2,2.3233078E1,2.2836548E1,1.952731E2,1.6408155E1,2.574524E1,6.966714E1,3.7108593E1,1.3893127E0,5.6183945E1,2.3640921E2,2.990415E1,6.6961956E0,0E0,0E0,0E0,0E0,0E0,0E0,0E0,0E0,0E0,0E0,0E0,0E0,0E0,0E0,0E0,0E0],"parents":[2147483647,0,0,1,1,2,2,3,3,4,4,5,5,6,6,7,7,8,8,9,9,10,10,11,11,12,12,13,13,14,14],"right_children":[2,4,6,8,10,12,14,16,18,20,22,24,26,28,30,-1,-1,-1,-1,-1,-1,-1,-1,-1,-1,-1,-1,-1,-1,-1,-1],"split_conditions":[1E0,-1.1199622E-1,-5.7216257E-1,-3.6939254E-1,-5.978151E-1,-5.5324703E-1,-3.7976882E-1,-1.2702796E0,-2.066144E-1,3.5989705E-1,7.5212E-1,-1.2947936E0,-1.0339077E0,-3.845441E-2,1.7020351E0,6.331409E-2,-4.7865566E-2,1.4278075E-1,-3.381874E-2,-2.2130089E-2,8.000744E-1,-8.381286E-2,-9.649143E-2,2.0417789E-1,7.5286417E-3,1.723362E0,3.8948852E-1,1.2659358E-2,3.7324864E-1,-6.324189E-2,2.6735857E-3],"split_indices":[1,4,3,4,3,4,3,4,3,4,4,4,3,4,4,0,0,0,0,0,0,0,0,0,0,0,0,0,0,0,0],"split_type":[0,0,0,0,0,0,0,0,0,0,0,0,0,0,0,0,0,0,0,0,0,0,0,0,0,0,0,0,0,0,0],"sum_hessian":[4.535E3,3.799E3,7.36E2,2.205E3,1.594E3,3.09E2,4.27E2,1.702E3,5.03E2,1E1,1.584E3,2.44E2,6.5E1,1.25E2,3.02E2,8.7E1,1.615E3,1.15E2,3.88E2,8E0,2E0,7.8E2,8.04E2,1.49E2,9.5E1,5E0,6E1,1.16E2,9E0,2.16E2,8.6E1],"tree_param":{"num_deleted":"0","num_feature":"5","num_nodes":"31","size_leaf_vector":"0"}},{"base_weights":[-1.2566543E-1,-1.777566E-1,5.6086963E-1,5.6511605E-1,-2.2154976E-1,1.1956512E0,5.9584793E-2,2.6024118E-1,7.764954E-1,-1.31193E-1,-3.4986317E-1,6.7303354E-1,2.0999985E0,4.039558E-1,-7.70663E-2,4.528467E-2,1.3640402E-1,3.1598565E-1,1.2812948E-1,-3.732355E-2,9.848212E-3,-1.1534188E-1,-6.841509E-2,2.1521719E-1,-1.3976994E-2,4.9662286E-1,2.567466E-1,-2.935245E-2,6.225324E-1,-4.773343E-2,2.648074E-2],"categories":[],"categories_nodes":[],"categories_segments":[],"categories_sizes":[],"default_left":[0,0,0,0,0,0,0,0,0,0,0,0,0,0,0,0,0,0,0,0,0,0,0,0,0,0,0,0,0,0,0],"id":4,"left_children":[1,3,5,7,9,11,13,15,17,19,21,23,25,27,29,-1,-1,-1,-1,-1,-1,-1,-1,-1,-1,-1,-1,-1,-1,-1,-1],"loss_changes":[1.6782538E2,1.4196799E2,1.0525507E2,1.5457878E1,4.7698135E1,6.759032E1,8.784044E0,1.2862034E0,1.4595512E1,2.419043E1,2.807724E0,2.82221E1,1.3386719E1,7.951869E1,4.567571E0,0E0,0E0,0E0,0E0,0E0,0E0,0E0,0E0,0E0,0E0,0E0,0E0,0E0,0E0,0E0,0E0],"parents":[2147483647,0,0,1,1,2,2,3,3,4,4,5,5,6,6,7,7,8,8,9,9,10,10,11,11,12,12,13,13,14,14],"right_children":[2,4,6,8,10,12,14,16,18,20,22,24,26,28,30,-1,-1,-1,-1,-1,-1,-1,-1,-1,-1,-1,-1,-1,-1,-1,-1],"split_conditions":[1E0,-1.2702796E0,-1.1199622E-1,1E0,-1.1199622E-1,-3.6939254E-1,6.418073E-1,1E0,-1.3193076E0,-3.6939254E-1,-3.845441E-2,-4.184204E-1,-2.2843741E-1,4.8859522E-1,2.0758724E0,4.528467E-2,1.3640402E-1,3.1598565E-1,1.2812948E-1,-3.732355E-2,9.848212E-3,-1.1534188E-1,-6.841509E-2,2.1521719E-1,-1.3976994E-2,4.9662286E-1,2.567466E-1,-2.935245E-2,6.225324E-1,-4.773343E-2,2.648074E-2],"split_indices":[0,4,4,1,4,4,4,2,4,4,4,4,4,4,4,0,0,0,0,0,0,0,0,0,0,0,0,0,0,0,0],"split_type":[0,0,0,0,0,0,0,0,0,0,0,0,0,0,0,0,0,0,0,0,0,0,0,0,0,0,0,0,0,0,0],"sum_hessian":[4.689E3,4.359E3,3.3E2,2.42E2,4.117E3,1.45E2,1.85E2,1E2,1.42E2,2.417E3,1.7E3,9.3E1,5.2E1,5.2E1,1.33E2,9.4E1,6E0,1.9E1,1.23E2,1.849E3,5.68E2,5.4E1,1.646E3,6E1,3.3E1,3.4E1,1.8E1,4.4E1,8E0,7.5E1,5.8E1],"tree_param":{"num_deleted":"0","num_feature":"5","num_nodes":"31","size_leaf_vector":"0"}},{"base_weights":[-1.1234461E-1,-1.796059E-1,2.2108033E-1,-9.944846E-2,-3.142659E-1,4.4516256E-1,-8.6087085E-2,-1.142195E-1,4.636934E-1,-3.2033023E-1,-1.23790495E-1,2.962781E-1,2.2580938E0,-2.3716176E-1,1.02571085E-1,4.7091532E-2,-2.5898686E-2,1.6902406E-2,2.5114974E-1,-6.3075475E-2,-8.539401E-2,-6.587999E-2,6.461916E-2,1.2594445E-1,2.209617E-2,7.407347E-1,2.3736921E-1,-5.5342454E-2,8.128401E-2,1.0017411E-1,-7.1911477E-3],"categories":[],"categories_nodes":[],"categories_segments":[],"categories_sizes":[],"default_left":[0,0,0,0,0,0,0,0,0,0,0,0,0,0,0,0,0,0,0,0,0,0,0,0,0,0,0,0,0,0,0],"id":5,"left_children":[1,3,5,7,9,11,13,15,17,19,21,23,25,27,29,-1,-1,-1,-1,-1,-1,-1,-1,-1,-1,-1,-1,-1,-1,-1,-1],"loss_changes":[1.0391968E2,4.1579613E1,5.3588657E1,2.0166351E1,1.6213837E0,1.20793785E2,9.401309E0,1.2619101E1,1.8514496E1,6.0110474E-1,4.3330946E0,2.5764828E1,4.825583E1,4.770541E0,8.128757E0,0E0,0E0,0E0,0E0,0E0,0E0,0E0,0E0,0E0,0E0,0E0,0E0,0E0,0E0,0E0,0E0],"parents":[2147483647,0,0,1,1,2,2,3,3,4,4,5,5,6,6,7,7,8,8,9,9,10,10,11,11,12,12,13,13,14,14],"right_children":[2,4,6,8,10,12,14,16,18,20,22,24,26,28,30,-1,-1,-1,-1,-1,-1,-1,-1,-1,-1,-1,-1,-1,-1,-1,-1],"split_conditions":[1E0,1.8829949E-1,-2.2843741E-1,1E0,1E0,-3.6939254E-1,1E0,-1.2702796E0,-2.652083E-1,2.3822968E0,1.7020351E0,-1.2947936E0,-2.9585072E-1,2.0758724E0,6.418073E-1,4.7091532E-2,-2.5898686E-2,1.6902406E-2,2.5114974E-1,-6.3075475E-2,-8.539401E-2,-6.587999E-2,6.461916E-2,1.2594445E-1,2.209617E-2,7.407347E-1,2.3736921E-1,-5.5342454E-2,8.128401E-2,1.0017411E-1,-7.1911477E-3],"split_indices":[1,4,4,0,0,4,0,4,4,4,4,4,4,4,4,0,0,0,0,0,0,0,0,0,0,0,0,0,0,0,0],"split_type":[0,0,0,0,0,0,0,0,0,0,0,0,0,0,0,0,0,0,0,0,0,0,0,0,0,0,0,0,0,0,0],"sum_hessian":[4.631E3,3.854E3,7.77E2,2.417E3,1.437E3,4.49E2,3.28E2,2.356E3,6.1E1,1.392E3,4.5E1,4.16E2,3.3E1,1.82E2,1.46E2,9.8E1,2.258E3,4.2E1,1.9E1,1.334E3,5.8E1,3.1E1,1.4E1,1.48E2,2.68E2,1.3E1,2E1,1.72E2,1E1,3.7E1,1.09E2],"tree_param":{"num_deleted":"0","num_feature":"5","num_nodes":"31","size_leaf_vector":"0"}},{"base_weights":[-9.269181E-2,1.6217057E-1,-1.6148975E-1,7.677158E-2,1.5287031E0,-5.840823E-1,-1.4660783E-1,4.7395012E-1,-4.2600147E-2,3.4742832E-1,2.4130802E0,-1.3332017E-1,-4.244031E-1,1.9813585E-1,-1.6912374E-1,4.0937155E-2,1.3954768E-1,-2.9008081E-2,1.2410082E-1,3.512759E-1,2.2839967E-3,1.5370213E0,3.2594147E-1,-9.2113897E-4,-1.1896037E-1,2.6492128E-2,7.3244506E-1,-2.0670597E-2,-4.3885987E-2],"categories":[],"categories_nodes":[],"categories_segments":[],"categories_sizes":[],"default_left":[0,0,0,0,0,0,0,0,0,0,0,0,0,0,0,0,0,0,0,0,0,0,0,0,0,0,0,0,0],"id":6,"left_children":[1,3,5,7,9,11,13,15,17,19,21,-1,23,25,27,-1,-1,-1,-1,-1,-1,-1,-1,-1,-1,-1,-1,-1,-1],"loss_changes":[8.140152E1,1.1506603E2,2.2900635E1,4.4113247E1,5.975377E1,1.3509789E0,2.7449661E1,1.2812695E1,4.8726856E1,1.2288844E1,1.2376428E2,0E0,3.2162428E0,4.888344E1,1.0948891E1,0E0,0E0,0E0,0E0,0E0,0E0,0E0,0E0,0E0,0E0,0E0,0E0,0E0,0E0],"parents":[2147483647,0,0,1,1,2,2,3,3,4,4,5,5,6,6,7,7,8,8,9,9,10,10,12,12,13,13,14,14],"right_children":[2,4,6,8,10,12,14,16,18,20,22,-1,24,26,28,-1,-1,-1,-1,-1,-1,-1,-1,-1,-1,-1,-1,-1,-1],"split_conditions":[-8.8640577E-1,-5.5324703E-1,-8.106434E-1,-1.2947936E0,1E0,-9.761124E-1,-5.7857573E-1,-1.300922E0,-9.184714E-1,-3.816495E-1,-1.104452E0,-1.3332017E-1,-7.709695E-1,-3.845441E-2,-1.1199622E-1,4.0937155E-2,1.3954768E-1,-2.9008081E-2,1.2410082E-1,3.512759E-1,2.2839967E-3,1.5370213E0,3.2594147E-1,-9.2113897E-4,-1.1896037E-1,2.6492128E-2,7.3244506E-1,-2.0670597E-2,-4.3885987E-2],"split_indices":[3,4,4,4,1,4,3,4,3,4,3,0,3,4,4,0,0,0,0,0,0,0,0,0,0,0,0,0,0],"split_type":[0,0,0,0,0,0,0,0,0,0,0,0,0,0,0,0,0,0,0,0,0,0,0,0,0,0,0,0,0],"sum_hessian":[4.64E3,9.86E2,3.654E3,9.29E2,5.7E1,1.23E2,3.531E3,2.14E2,7.15E2,2.5E1,3.2E1,7.9E1,4.4E1,2.16E2,3.315E3,9.8E1,1.16E2,6.2E2,9.5E1,4E0,2.1E1,3E0,2.9E1,1.3E1,3.1E1,2.13E2,3E0,1.438E3,1.877E3],"tree_param":{"num_deleted":"0","num_feature":"5","num_nodes":"29","size_leaf_vector":"0"}},{"base_weights":[-5.5616766E-2,1.6045763E-1,-1.1384397E-1,3.899162E-2,8.314998E-1,-3.1804854E-1,-8.711513E-2,2.780194E-1,-6.6297896E-2,-2.0931624E-2,1.0447822E0,-5.4497445E-1,-2.5538573E-1,2.0659438E-1,-1.4468782E-1,4.3829378E-2,2.0754579E-1,-7.066074E-2,1.4444724E-2,1.0259533E-1,-1.8180689E-1,2.7401528E-1,4.646004E-3,-1.0064991E-1,-1.2666588E-1,1.2419982E-2,-7.341663E-2,3.2132402E-2,3.7564236E-1,-3.2614153E-2,-2.7599044E-3],"categories":[],"categories_nodes":[],"categories_segments":[],"categories_sizes":[],"default_left":[0,0,0,0,0,0,0,0,0,0,0,0,0,0,0,0,0,0,0,0,0,0,0,0,0,0,0,0,0,0,0],"id":7,"left_children":[1,3,5,7,9,11,13,15,17,19,21,23,25,27,29,-1,-1,-1,-1,-1,-1,-1,-1,-1,-1,-1,-1,-1,-1,-1,-1],"loss_changes":[5.8018555E1,7.976471E1,1.9796299E1,2.090714E1,2.7293144E1,5.8331413E0,5.436058E1,1.11329975E1,2.2965006E1,1.5165441E1,3.9844788E1,1.307106E-2,1.1760826E1,4.016201E1,6.4629745E0,0E0,0E0,0E0,0E0,0E0,0E0,0E0,0E0,0E0,0E0,0E0,0E0,0E0,0E0,0E0,0E0],"parents":[2147483647,0,0,1,1,2,2,3,3,4,4,5,5,6,6,7,7,8,8,9,9,10,10,11,11,12,12,13,13,14,14],"right_children":[2,4,6,8,10,12,14,16,18,20,22,24,26,28,30,-1,-1,-1,-1,-1,-1,-1,-1,-1,-1,-1,-1,-1,-1,-1,-1],"split_conditions":[-8.8640577E-1,-7.861294E-1,-6.2066036E-1,-1.2702796E0,-1.1429307E0,-9.761124E-1,-3.1563756E-1,-1.1685833E0,-1.1429307E0,-1.1878227E0,-8.9281887E-1,1E0,-7.4323004E-1,4.8859522E-1,1E0,4.3829378E-2,2.0754579E-1,-7.066074E-2,1.4444724E-2,1.0259533E-1,-1.8180689E-1,2.7401528E-1,4.646004E-3,-1.0064991E-1,-1.2666588E-1,1.2419982E-2,-7.341663E-2,3.2132402E-2,3.7564236E-1,-3.2614153E-2,-2.7599044E-3],"split_indices":[3,4,4,4,3,4,3,3,3,3,3,1,4,4,1,0,0,0,0,0,0,0,0,0,0,0,0,0,0,0,0],"split_type":[0,0,0,0,0,0,0,0,0,0,0,0,0,0,0,0,0,0,0,0,0,0,0,0,0,0,0,0,0,0,0],"sum_hessian":[4.609E3,9.78E2,3.631E3,8.29E2,1.49E2,4.19E2,3.212E3,2.53E2,5.76E2,3E1,1.19E2,8.9E1,3.3E2,5.26E2,2.686E3,2.36E2,1.7E1,1.87E2,3.89E2,1.9E1,1.1E1,9E1,2.9E1,6.5E1,2.4E1,8.6E1,2.44E2,5.13E2,1.3E1,2.355E3,3.31E2],"tree_param":{"num_deleted":"0","num_feature":"5","num_nodes":"31","size_leaf_vector":"0"}},{"base_weights":[-6.0710274E-2,7.6481245E-2,-1.1612179E-1,2.193014E-2,7.4287647E-1,-9.184151E-2,-1.8908812E-1,-1.03455365E-1,4.3443136E-2,-1.7616107E-1,8.55886E-1,-2.2771524E-1,-7.412008E-2,-1.9588082E-1,2.4839174E-2,5.9497226E-2,-4.2391286E-4,1.884593E-1,-1.7413606E-1,-6.301438E-2,-4.7887857E-3,1.316453E-2,-2.1828718E-2,-4.81293E-2,-3.3336643E-2,2.6149381E-2,-1.5055589E-2],"categories":[],"categories_nodes":[],"categories_segments":[],"categories_sizes":[],"default_left":[0,0,0,0,0,0,0,0,0,0,0,0,0,0,0,0,0,0,0,0,0,0,0,0,0,0,0],"id":8,"left_children":[1,3,5,7,9,11,13,-1,15,-1,17,19,21,23,25,-1,-1,-1,-1,-1,-1,-1,-1,-1,-1,-1,-1],"loss_changes":[3.492482E1,4.804184E1,5.7794495E0,1.420922E1,1.9103016E1,5.899275E0,1.19063E0,0E0,1.36242695E1,0E0,1.4844627E1,5.030076E0,1.0667481E1,9.937649E-1,2.8552493E-1,0E0,0E0,0E0,0E0,0E0,0E0,0E0,0E0,0E0,0E0,0E0,0E0],"parents":[2147483647,0,0,1,1,2,2,3,3,4,4,5,5,6,6,8,8,10,10,11,11,12,12,13,13,14,14],"right_children":[2,4,6,8,10,12,14,-1,16,-1,18,20,22,24,26,-1,-1,-1,-1,-1,-1,-1,-1,-1,-1,-1,-1],"split_conditions":[-5.7857573E-1,1E0,9.669876E-1,-1.3802165E0,-1.3802165E0,-5.593363E-1,1E0,-1.03455365E-1,-1.207062E0,-1.7616107E-1,-5.978151E-1,1E0,-2.6433253E-1,1.3581883E0,1.0695976E0,5.9497226E-2,-4.2391286E-4,1.884593E-1,-1.7413606E-1,-6.301438E-2,-4.7887857E-3,1.316453E-2,-2.1828718E-2,-4.81293E-2,-3.3336643E-2,2.6149381E-2,-1.5055589E-2],"split_indices":[3,0,3,3,3,3,2,0,3,0,3,1,3,3,3,0,0,0,0,0,0,0,0,0,0,0,0],"split_type":[0,0,0,0,0,0,0,0,0,0,0,0,0,0,0,0,0,0,0,0,0,0,0,0,0,0,0],"sum_hessian":[4.592E3,1.321E3,3.271E3,1.222E3,9.9E1,2.456E3,8.15E2,4.6E1,1.176E3,6E0,9.3E1,2.82E2,2.174E3,7.9E2,2.5E1,1.78E2,9.98E2,8.9E1,4E0,1.97E2,8.5E1,4.35E2,1.739E3,3.09E2,4.81E2,1.2E1,1.3E1],"tree_param":{"num_deleted":"0","num_feature":"5","num_nodes":"27","size_leaf_vector":"0"}},{"base_weights":[-3.4808766E-2,-5.4248203E-2,2.3501754E-1,-5.8592963E-3,-1.2940502E-1,4.7267994E-1,1.0657049E-2,-3.7470274E-2,1.1162829E-1,-3.3535174E-1,-1.21355854E-1,9.722922E-2,8.8328236E-1,-5.2392864E-1,9.4587244E-2,3.7449237E-2,-1.229425E-2,1.5685858E-1,3.2968298E-3,-1.0697909E-1,-4.304665E-2,1.1555349E-1,-2.5468245E-2,8.574278E-2,-1.1386824E-1,7.780048E-1,1.3923547E-1,-2.2498274E-1,-8.1516884E-2,1.8366109E-1,1.2721598E-2],"categories":[],"categories_nodes":[],"categories_segments":[],"categories_sizes":[],"default_left":[0,0,0,0,0,0,0,0,0,0,0,0,0,0,0,0,0,0,0,0,0,0,0,0,0,0,0,0,0,0,0],"id":9,"left_children":[1,3,5,7,9,11,13,15,17,19,21,23,25,27,29,-1,-1,-1,-1,-1,-1,-1,-1,-1,-1,-1,-1,-1,-1,-1,-1],"loss_changes":[2.427213E1,1.5691846E1,1.657812E1,9.756878E0,2.7608166E0,2.3192429E1,7.2732854E0,1.1175877E1,3.563512E1,1.3949122E0,6.885956E0,1.7920715E1,3.7797367E1,1.0797672E0,3.5141327E0,0E0,0E0,0E0,0E0,0E0,0E0,0E0,0E0,0E0,0E0,0E0,0E0,0E0,0E0,0E0,0E0],"parents":[2147483647,0,0,1,1,2,2,3,3,4,4,5,5,6,6,7,7,8,8,9,9,10,10,11,11,12,12,13,13,14,14],"right_children":[2,4,6,8,10,12,14,16,18,20,22,24,26,28,30,-1,-1,-1,-1,-1,-1,-1,-1,-1,-1,-1,-1,-1,-1,-1,-1],"split_conditions":[1E0,-1.1199622E-1,-2.4509317E-1,-3.5713556E-1,-3.845441E-2,-3.6939254E-1,4.211819E-1,-1.2947936E0,-4.5031318E-1,-2.4509317E-1,-1.3940475E-2,-4.184204E-1,-1.0339077E0,-1.9779499E-1,4.8859522E-1,3.7449237E-2,-1.229425E-2,1.5685858E-1,3.2968298E-3,-1.0697909E-1,-4.304665E-2,1.1555349E-1,-2.5468245E-2,8.574278E-2,-1.1386824E-1,7.780048E-1,1.3923547E-1,-2.2498274E-1,-8.1516884E-2,1.8366109E-1,1.2721598E-2],"split_indices":[0,4,3,4,4,4,4,4,3,3,4,4,3,4,4,0,0,0,0,0,0,0,0,0,0,0,0,0,0,0,0],"split_type":[0,0,0,0,0,0,0,0,0,0,0,0,0,0,0,0,0,0,0,0,0,0,0,0,0,0,0,0,0,0,0],"sum_hessian":[4.624E3,4.314E3,3.1E2,2.625E3,1.689E3,1.5E2,1.6E2,2.069E3,5.56E2,6.2E1,1.627E3,7.9E1,7.1E1,2.1E1,1.39E2,1.99E2,1.87E3,6.8E1,4.88E2,2.2E1,4E1,1.3E1,1.614E3,5.3E1,2.6E1,3E0,6.8E1,2E0,1.9E1,4E0,1.35E2],"tree_param":{"num_deleted":"0","num_feature":"5","num_nodes":"31","size_leaf_vector":"0"}},{"base_weights":[-4.1757453E-2,-6.9252394E-2,9.792409E-2,-2.3983473E-1,-5.9487063E-2,3.320006E-1,5.1508946E-3,1.7869456E-2,-4.3055606E-1,6.82526E-2,-8.0771565E-2,1.8349834E-1,1.6196797E0,-3.366171E-1,6.0027663E-2,5.34047E-2,-2.0174755E-2,-9.822263E-2,-3.1288665E-2,-4.4758E-3,7.7210374E-2,-7.939494E-2,-1.3542131E-2,5.8115788E-2,-1.0309293E-1,1.2054913E0,1.2129611E-1,-1.12661E-2,-1.04444616E-1,1.0774197E-1,3.5171842E-3],"categories":[],"categories_nodes":[],"categories_segments":[],"categories_sizes":[],"default_left":[0,0,0,0,0,0,0,0,0,0,0,0,0,0,0,0,0,0,0,0,0,0,0,0,0,0,0,0,0,0,0],"id":10,"left_children":[1,3,5,7,9,11,13,15,17,19,21,23,25,27,29,-1,-1,-1,-1,-1,-1,-1,-1,-1,-1,-1,-1,-1,-1,-1,-1],"loss_changes":[1.7604116E1,6.3640537E0,1.6372173E1,1.0181679E1,9.855997E0,4.0624577E1,1.0166729E1,2.6600323E0,1.8985062E0,1.4928416E1,1.2800592E1,1.459494E1,9.459549E1,3.8722973E0,9.4781475E0,0E0,0E0,0E0,0E0,0E0,0E0,0E0,0E0,0E0,0E0,0E0,0E0,0E0,0E0,0E0,0E0],"parents":[2147483647,0,0,1,1,2,2,3,3,4,4,5,5,6,6,7,7,8,8,9,9,10,10,11,11,12,12,13,13,14,14],"right_children":[2,4,6,8,10,12,14,16,18,20,22,24,26,28,30,-1,-1,-1,-1,-1,-1,-1,-1,-1,-1,-1,-1,-1,-1,-1,-1],"split_conditions":[1E0,-1.2151233E0,-8.9281887E-1,-1.2702796E0,-8.9281887E-1,-5.5324703E-1,-6.145319E-1,-1.2327145E0,1E0,-9.569501E-1,-8.799926E-1,-6.758167E-1,-1.104452E0,-7.709695E-1,-4.184204E-1,5.34047E-2,-2.0174755E-2,-9.822263E-2,-3.1288665E-2,-4.4758E-3,7.7210374E-2,-7.939494E-2,-1.3542131E-2,5.8115788E-2,-1.0309293E-1,1.2054913E0,1.2129611E-1,-1.12661E-2,-1.04444616E-1,1.0774197E-1,3.5171842E-3],"split_indices":[1,4,3,4,3,4,4,3,2,3,3,4,3,3,4,0,0,0,0,0,0,0,0,0,0,0,0,0,0,0,0],"split_type":[0,0,0,0,0,0,0,0,0,0,0,0,0,0,0,0,0,0,0,0,0,0,0,0,0,0,0,0,0,0,0],"sum_hessian":[4.581E3,3.828E3,7.53E2,2.06E2,3.622E3,2.13E2,5.4E2,8.8E1,1.18E2,5.17E2,3.105E3,1.92E2,2.1E1,7.4E1,4.66E2,2.8E1,6E1,9.6E1,2.2E1,4.03E2,1.14E2,1.22E2,2.983E3,1.67E2,2.5E1,3E0,1.8E1,3E1,4.4E1,3.7E1,4.29E2],"tree_param":{"num_deleted":"0","num_feature":"5","num_nodes":"31","size_leaf_vector":"0"}},{"base_weights":[-3.0948834E-2,6.736274E-2,-5.7925127E-2,-1.7211871E-2,5.5536604E-1,-2.3409249E-1,-2.4979308E-2,-8.2084864E-2,1.896356E-1,3.957986E-1,1.2498955E0,-3.504117E-1,-1.7743583E-1,3.0803394E-1,-7.070202E-2,-3.4715854E-2,2.741848E-3,1.6945879E-1,2.4994342E-2,9.592026E-2,-6.746019E-2,2.8766966E-1,2.6606603E-2,-6.196614E-2,-1.0720513E-1,7.970141E-2,-4.756285E-2,4.9893063E-2,4.0593243E-1,-6.7669204E-3,-1.8947598E-2],"categories":[],"categories_nodes":[],"categories_segments":[],"categories_sizes":[],"default_left":[0,0,0,0,0,0,0,0,0,0,0,0,0,0,0,0,0,0,0,0,0,0,0,0,0,0,0,0,0,0,0],"id":11,"left_children":[1,3,5,7,9,11,13,15,17,19,21,23,25,27,29,-1,-1,-1,-1,-1,-1,-1,-1,-1,-1,-1,-1,-1,-1,-1,-1],"loss_changes":[1.2253869E1,4.1075886E1,2.1033573E1,1.1408139E1,1.5796459E1,3.700861E0,4.653802E1,5.6730905E0,8.527043E0,7.5954914E0,5.4915047E0,1.2349491E0,1.3517736E1,3.67012E1,2.377863E0,0E0,0E0,0E0,0E0,0E0,0E0,0E0,0E0,0E0,0E0,0E0,0E0,0E0,0E0,0E0,0E0],"parents":[2147483647,0,0,1,1,2,2,3,3,4,4,5,5,6,6,7,7,8,8,9,9,10,10,11,11,12,12,13,13,14,14],"right_children":[2,4,6,8,10,12,14,16,18,20,22,24,26,28,30,-1,-1,-1,-1,-1,-1,-1,-1,-1,-1,-1,-1,-1,-1,-1,-1],"split_conditions":[-8.8640577E-1,-9.3771076E-1,-5.77761E-1,1E0,1E0,-7.004251E-1,-3.1563756E-1,-1.0864252E0,-1.3193076E0,-3.816495E-1,-1.3651015E-1,-6.758167E-1,-6.362938E-1,5.4375154E-1,1.8829949E-1,-3.4715854E-2,2.741848E-3,1.6945879E-1,2.4994342E-2,9.592026E-2,-6.746019E-2,2.8766966E-1,2.6606603E-2,-6.196614E-2,-1.0720513E-1,7.970141E-2,-4.756285E-2,4.9893063E-2,4.0593243E-1,-6.7669204E-3,-1.8947598E-2],"split_indices":[3,3,4,1,1,3,3,4,4,4,4,4,3,4,4,0,0,0,0,0,0,0,0,0,0,0,0,0,0,0,0],"split_type":[0,0,0,0,0,0,0,0,0,0,0,0,0,0,0,0,0,0,0,0,0,0,0,0,0,0,0,0,0,0,0],"sum_hessian":[4.618E3,9.94E2,3.624E3,8.48E2,1.46E2,5.7E2,3.054E3,6.46E2,2.02E2,1.2E2,2.6E1,1.85E2,3.85E2,3.68E2,2.686E3,3.3E2,3.16E2,1.7E1,1.85E2,1.08E2,1.2E1,2.2E1,4E0,1.54E2,3.1E1,3.6E1,3.49E2,3.57E2,1.1E1,1.061E3,1.625E3],"tree_param":{"num_deleted":"0","num_feature":"5","num_nodes":"31","size_leaf_vector":"0"}},{"base_weights":[-1.7783739E-2,-4.2360184E-1,-1.2738095E-2,-1.5992983E-1,-3.0555257E-1,8.429839E-1,-1.9690858E-2,-1.130937E-3,-3.268392E-1,-2.8503856E-1,1.028145E0,2.6677359E-2,-5.5781547E-2,-6.837972E-2,-3.589992E-2,-7.6061726E-2,-1.2599786E-2,3.80825E-1,1.08684205E-1,-6.0198526E-3,4.143755E-2,-3.0272547E-2,-8.605361E-3],"categories":[],"categories_nodes":[],"categories_segments":[],"categories_sizes":[],"default_left":[0,0,0,0,0,0,0,0,0,0,0,0,0,0,0,0,0,0,0,0,0,0,0],"id":12,"left_children":[1,3,5,-1,7,9,11,-1,13,15,17,19,21,-1,-1,-1,-1,-1,-1,-1,-1,-1,-1],"loss_changes":[9.503722E0,2.2860146E0,2.7313513E1,0E0,2.8542376E-1,8.021091E0,7.619083E0,0E0,3.1820774E-2,1.0296336E-1,1.2552731E1,2.0432035E1,3.114417E0,0E0,0E0,0E0,0E0,0E0,0E0,0E0,0E0,0E0,0E0],"parents":[2147483647,0,0,1,1,2,2,4,4,5,5,6,6,8,8,9,9,10,10,11,11,12,12],"right_children":[2,4,6,-1,8,10,12,-1,14,16,18,20,22,-1,-1,-1,-1,-1,-1,-1,-1,-1,-1],"split_conditions":[-1.3802165E0,1E0,-1.2840196E0,-1.5992983E-1,-1.2641512E0,-1.3070506E0,-2.6433253E-1,-1.130937E-3,-7.1258765E-1,1E0,1E0,-4.674483E-1,-2.4509317E-1,-6.837972E-2,-3.589992E-2,-7.6061726E-2,-1.2599786E-2,3.80825E-1,1.08684205E-1,-6.0198526E-3,4.143755E-2,-3.0272547E-2,-8.605361E-3],"split_indices":[3,2,3,0,4,4,3,0,4,1,2,4,3,0,0,0,0,0,0,0,0,0,0],"split_type":[0,0,0,0,0,0,0,0,0,0,0,0,0,0,0,0,0,0,0,0,0,0,0],"sum_hessian":[4.643E3,5.6E1,4.587E3,1.2E1,4.4E1,3.6E1,4.551E3,3E0,4.1E1,5E0,3.1E1,1.992E3,2.559E3,3.6E1,5E0,3E0,2E0,1E1,2.1E1,1.516E3,4.76E2,3E2,2.259E3],"tree_param":{"num_deleted":"0","num_feature":"5","num_nodes":"23","size_leaf_vector":"0"}},{"base_weights":[-1.5624877E-2,-3.4079198E-2,2.4087507E-1,2.4623647E-2,-5.0516337E-2,4.4184613E-1,3.307553E-2,-1.804732E-2,3.9996058E-1,-2.052037E-1,-4.074969E-2,-9.869201E-2,4.7585922E-1,-2.2832663E-1,1.2762786E-1,-1.4719975E-2,1.0155956E-2,4.2458102E-2,1.413694E-1,-3.3014398E-2,-6.045698E-2,8.189889E-2,-9.537139E-3,2.3276642E-1,7.495193E-2,-6.226619E-2,-1.2739422E-2,6.2451657E-2,-1.7165134E-3],"categories":[],"categories_nodes":[],"categories_segments":[],"categories_sizes":[],"default_left":[0,0,0,0,0,0,0,0,0,0,0,0,0,0,0,0,0,0,0,0,0,0,0,0,0,0,0,0,0],"id":13,"left_children":[1,3,5,7,9,11,13,15,17,19,21,-1,23,25,27,-1,-1,-1,-1,-1,-1,-1,-1,-1,-1,-1,-1,-1,-1],"loss_changes":[2.1791925E1,4.144553E0,1.288975E1,1.5062249E1,5.060293E0,5.2294044E0,3.8107169E0,3.234613E0,5.37891E0,7.2541237E-1,9.878507E0,0E0,1.0136017E1,5.404327E-1,2.84447E0,0E0,0E0,0E0,0E0,0E0,0E0,0E0,0E0,0E0,0E0,0E0,0E0,0E0,0E0],"parents":[2147483647,0,0,1,1,2,2,3,3,4,4,5,5,6,6,7,7,8,8,9,9,10,10,12,12,13,13,14,14],"right_children":[2,4,6,8,10,12,14,16,18,20,22,-1,24,26,28,-1,-1,-1,-1,-1,-1,-1,-1,-1,-1,-1,-1,-1,-1],"split_conditions":[1E0,-8.8640577E-1,-2.4509317E-1,-9.184714E-1,-7.004251E-1,-1.3802165E0,4.5393756E-1,-1.1429307E0,1E0,-7.6455635E-1,-6.362938E-1,-9.869201E-2,-9.633633E-1,1E0,9.669876E-1,-1.4719975E-2,1.0155956E-2,4.2458102E-2,1.413694E-1,-3.3014398E-2,-6.045698E-2,8.189889E-2,-9.537139E-3,2.3276642E-1,7.495193E-2,-6.226619E-2,-1.2739422E-2,6.2451657E-2,-1.7165134E-3],"split_indices":[0,3,3,3,3,3,3,3,2,3,3,0,3,1,3,0,0,0,0,0,0,0,0,0,0,0,0,0,0],"split_type":[0,0,0,0,0,0,0,0,0,0,0,0,0,0,0,0,0,0,0,0,0,0,0,0,0,0,0,0,0],"sum_hessian":[4.601E3,4.293E3,3.08E2,9.39E2,3.354E3,1.56E2,1.52E2,8.44E2,9.5E1,1.98E2,3.156E3,5E0,1.51E2,4E1,1.12E2,4.67E2,3.77E2,6E1,3.5E1,1.42E2,5.6E1,4.7E1,3.109E3,1.8E1,1.33E2,2.6E1,1.4E1,4.7E1,6.5E1],"tree_param":{"num_deleted":"0","num_feature":"5","num_nodes":"29","size_leaf_vector":"0"}},{"base_weights":[-1.1414771E-2,1.5606959E-1,-1.9599933E-2,1.0202214E-1,7.359157E-1,-1.4745648E-1,-1.1383604E-2,3.2092047E-1,4.9065173E-2,7.741626E-1,5.7325393E-2,-3.4378573E-2,-3.1728438E-1,7.305971E-2,-3.4553368E-2,-2.9156297E-2,1.333933E-1,-2.762022E-2,3.5321966E-2,9.140443E-2,1.7535399E-1,-4.4705074E-2,1.3005148E-2,-5.2852254E-2,-1.4123835E-1,1.9285725E-3,8.930984E-2,-4.2321198E-2,-3.9872765E-3],"categories":[],"categories_nodes":[],"categories_segments":[],"categories_sizes":[],"default_left":[0,0,0,0,0,0,0,0,0,0,0,0,0,0,0,0,0,0,0,0,0,0,0,0,0,0,0,0,0],"id":14,"left_children":[1,3,5,7,9,11,13,15,17,19,-1,21,23,25,27,-1,-1,-1,-1,-1,-1,-1,-1,-1,-1,-1,-1,-1,-1],"loss_changes":[6.2666407E0,6.6001706E0,4.5754E0,2.2563236E0,8.741379E-2,5.039687E0,8.014521E0,6.2342443E0,3.8200476E0,1.199522E-1,0E0,3.0040543E0,1.9785938E0,2.0886326E1,8.313534E0,0E0,0E0,0E0,0E0,0E0,0E0,0E0,0E0,0E0,0E0,0E0,0E0,0E0,0E0],"parents":[2147483647,0,0,1,1,2,2,3,3,4,4,5,5,6,6,7,7,8,8,9,9,11,11,12,12,13,13,14,14],"right_children":[2,4,6,8,10,12,14,16,18,20,-1,22,24,26,28,-1,-1,-1,-1,-1,-1,-1,-1,-1,-1,-1,-1,-1,-1],"split_conditions":[-1.2947936E0,-1.1685833E0,-1.1429307E0,-1.3193076E0,-1.1236914E0,-1.1749964E0,-5.7216257E-1,-1.2327145E0,-1.300922E0,-1.1301045E0,5.7325393E-2,-1.3802165E0,-9.3321306E-1,-5.5324703E-1,-5.593363E-1,-2.9156297E-2,1.333933E-1,-2.762022E-2,3.5321966E-2,9.140443E-2,1.7535399E-1,-4.4705074E-2,1.3005148E-2,-5.2852254E-2,-1.4123835E-1,1.9285725E-3,8.930984E-2,-4.2321198E-2,-3.9872765E-3],"split_indices":[4,3,3,4,3,3,3,3,4,3,0,3,4,4,3,0,0,0,0,0,0,0,0,0,0,0,0,0,0],"split_type":[0,0,0,0,0,0,0,0,0,0,0,0,0,0,0,0,0,0,0,0,0,0,0,0,0,0,0,0,0],"sum_hessian":[4.568E3,2.12E2,4.356E3,1.95E2,1.7E1,2.62E2,4.094E3,3.7E1,1.58E2,1.5E1,2E0,1.58E2,1.04E2,8.81E2,3.213E3,1.6E1,2.1E1,6.4E1,9.4E1,5E0,1E1,5.4E1,1.04E2,9.3E1,1.1E1,7.54E2,1.27E2,2.44E2,2.969E3],"tree_param":{"num_deleted":"0","num_feature":"5","num_nodes":"29","size_leaf_vector":"0"}},{"base_weights":[-2.0010592E-2,1.16121605E-1,-2.6960758E-2,-9.585398E-2,1.4050487E-1,-7.251069E-2,-7.255452E-3,4.2189848E-1,1.0624291E-1,-2.7752694E-2,-1.875448E-1,8.705744E-2,-5.259907E-2,4.1202888E-2,1.0069437E-1,-7.010872E-3,3.7388198E-2,-1.5363268E-2,4.526956E-2,-4.3525677E-2,-1.7506203E-2,-2.5623965E-3,5.5264235E-2,-1.6539617E-2,3.907356E-3],"categories":[],"categories_nodes":[],"categories_segments":[],"categories_sizes":[],"default_left":[0,0,0,0,0,0,0,0,0,0,0,0,0,0,0,0,0,0,0,0,0,0,0,0,0],"id":15,"left_children":[1,3,5,-1,7,9,11,13,15,17,19,21,23,-1,-1,-1,-1,-1,-1,-1,-1,-1,-1,-1,-1],"loss_changes":[4.3430805E0,3.3047612E0,3.9173899E0,0E0,2.0280118E0,6.7807765E0,1.3039314E1,3.0131674E-1,2.2072196E0,1.1861129E1,1.0911884E0,1.8716183E1,4.472153E0,0E0,0E0,0E0,0E0,0E0,0E0,0E0,0E0,0E0,0E0,0E0,0E0],"parents":[2147483647,0,0,1,1,2,2,4,4,5,5,6,6,7,7,8,8,9,9,10,10,11,11,12,12],"right_children":[2,4,6,-1,8,10,12,14,16,18,20,22,24,-1,-1,-1,-1,-1,-1,-1,-1,-1,-1,-1,-1],"split_conditions":[-1.2947936E0,-1.3315645E0,-5.5324703E-1,-9.585398E-2,-1.3193076E0,-6.819452E-1,-1.9166651E-1,1E0,-1.300922E0,-7.983864E-1,-6.145319E-1,-3.5713556E-1,1.3404545E0,4.1202888E-2,1.0069437E-1,-7.010872E-3,3.7388198E-2,-1.5363268E-2,4.526956E-2,-4.3525677E-2,-1.7506203E-2,-2.5623965E-3,5.5264235E-2,-1.6539617E-2,3.907356E-3],"split_indices":[4,4,4,0,4,4,4,1,4,4,4,4,4,0,0,0,0,0,0,0,0,0,0,0,0],"split_type":[0,0,0,0,0,0,0,0,0,0,0,0,0,0,0,0,0,0,0,0,0,0,0,0,0],"sum_hessian":[4.586E3,2.22E2,4.364E3,8E0,2.14E2,1.317E3,3.047E3,2.2E1,1.92E2,9.49E2,3.68E2,9.89E2,2.058E3,7E0,1.5E1,7E1,1.22E2,7.96E2,1.53E2,2.82E2,8.6E1,6.48E2,3.41E2,1.452E3,6.06E2],"tree_param":{"num_deleted":"0","num_feature":"5","num_nodes":"25","size_leaf_vector":"0"}},{"base_weights":[-9.888982E-3,5.2416764E-2,-2.690702E-2,2.543E-3,5.137226E-1,-2.058141E-1,-1.869389E-2,1.3472394E-2,-7.973363E-1,1.5773726E-1,9.874167E-1,-2.339203E-1,3.5041726E-1,3.2540536E-1,-2.2627315E-2,-8.317098E-4,3.0885085E-1,-1.9768985E-1,2.1097107E-2,4.5236364E-2,-3.5945185E-2,1.6981004E-1,2.4402504E-1,-3.9665863E-2,-2.984614E-1,2.5519663E-1,-9.2023775E-2,8.517104E-3,2.2826485E-1,-6.592753E-2,-3.274006E-3],"categories":[],"categories_nodes":[],"categories_segments":[],"categories_sizes":[],"default_left":[0,0,0,0,0,0,0,0,0,0,0,0,0,0,0,0,0,0,0,0,0,0,0,0,0,0,0,0,0,0,0],"id":16,"left_children":[1,3,5,7,9,11,13,15,17,19,21,23,25,27,29,-1,-1,-1,-1,-1,-1,-1,-1,-1,-1,-1,-1,-1,-1,-1,-1],"loss_changes":[4.862984E0,2.2637638E1,5.288883E0,7.782554E0,1.6032549E1,2.5520706E0,4.6701303E0,2.3702875E1,2.174758E0,1.3341119E0,2.8421402E-1,6.4669046E0,6.5887403E0,8.950961E0,6.5396233E0,0E0,0E0,0E0,0E0,0E0,0E0,0E0,0E0,0E0,0E0,0E0,0E0,0E0,0E0,0E0,0E0],"parents":[2147483647,0,0,1,1,2,2,3,3,4,4,5,5,6,6,7,7,8,8,9,9,10,10,11,11,12,12,13,13,14,14],"right_children":[2,4,6,8,10,12,14,16,18,20,22,24,26,28,30,-1,-1,-1,-1,-1,-1,-1,-1,-1,-1,-1,-1,-1,-1,-1,-1],"split_conditions":[-8.9281887E-1,-9.184714E-1,-8.799926E-1,-2.2843741E-1,-7.983864E-1,-2.4682286E-1,-7.709695E-1,-3.6939254E-1,4.4449773E-3,1E0,-5.90018E-1,-3.6939254E-1,-8.8640577E-1,-3.6939254E-1,-7.004251E-1,-8.317098E-4,3.0885085E-1,-1.9768985E-1,2.1097107E-2,4.5236364E-2,-3.5945185E-2,1.6981004E-1,2.4402504E-1,-3.9665863E-2,-2.984614E-1,2.5519663E-1,-9.2023775E-2,8.517104E-3,2.2826485E-1,-6.592753E-2,-3.274006E-3],"split_indices":[3,3,3,4,4,4,3,4,4,2,4,4,3,4,3,0,0,0,0,0,0,0,0,0,0,0,0,0,0,0,0],"split_type":[0,0,0,0,0,0,0,0,0,0,0,0,0,0,0,0,0,0,0,0,0,0,0,0,0,0,0,0,0,0,0],"sum_hessian":[4.584E3,9.83E2,3.601E3,8.88E2,9.5E1,1.57E2,3.444E3,8.77E2,1.1E1,5.5E1,4E1,1.5E2,7E0,3.8E1,3.406E3,8.68E2,9E0,9E0,2E0,4.6E1,9E0,2.8E1,1.2E1,1.47E2,3E0,3E0,4E0,2.9E1,9E0,6.7E1,3.339E3],"tree_param":{"num_deleted":"0","num_feature":"5","num_nodes":"31","size_leaf_vector":"0"}},{"base_weights":[-3.8029952E-3,-2.2376107E-2,2.4528658E-1,2.9216436E-1,-2.4740817E-2,1.4950756E0,1.611497E-1,-6.1830647E-2,4.7289944E-1,-2.4566887E-1,-2.124823E-2,8.036759E-1,8.119511E-1,-2.9516342E-1,2.5579682E-1,6.298522E-2,1.1889918E-1,-1.155435E-2,-1.4148529E-1,2.363889E-2,-4.8967013E-3,-9.042748E-2,2.729219E-1,-9.322404E-2,7.688273E-2,2.7629238E-1,2.8123159E-2],"categories":[],"categories_nodes":[],"categories_segments":[],"categories_sizes":[],"default_left":[0,0,0,0,0,0,0,0,0,0,0,0,0,0,0,0,0,0,0,0,0,0,0,0,0,0,0],"id":17,"left_children":[1,3,5,7,9,11,13,-1,15,17,19,21,-1,23,25,-1,-1,-1,-1,-1,-1,-1,-1,-1,-1,-1,-1],"loss_changes":[2.126828E1,3.1891909E0,3.330299E1,3.6239314E0,3.2718081E0,3.2201656E1,1.303212E1,0E0,2.930026E-1,5.685483E0,1.8895423E0,1.2592267E1,0E0,6.220454E0,3.20899E1,0E0,0E0,0E0,0E0,0E0,0E0,0E0,0E0,0E0,0E0,0E0,0E0],"parents":[2147483647,0,0,1,1,2,2,3,3,4,4,5,5,6,6,8,8,9,9,10,10,11,11,13,13,14,14],"right_children":[2,4,6,8,10,12,14,-1,16,18,20,22,-1,24,26,-1,-1,-1,-1,-1,-1,-1,-1,-1,-1,-1,-1],"split_conditions":[1E0,-1.3193076E0,-1.0339077E0,-1.3315645E0,-1.300922E0,-3.9390647E-1,-7.324907E-1,-6.1830647E-2,-1.2198883E0,-1.2006489E0,-1.2947936E0,-1.3802165E0,8.119511E-1,-2.9585072E-1,-5.7857573E-1,6.298522E-2,1.1889918E-1,-1.155435E-2,-1.4148529E-1,2.363889E-2,-4.8967013E-3,-9.042748E-2,2.729219E-1,-9.322404E-2,7.688273E-2,2.7629238E-1,2.8123159E-2],"split_indices":[0,4,3,4,4,4,3,0,3,3,4,3,0,4,3,0,0,0,0,0,0,0,0,0,0,0,0],"split_type":[0,0,0,0,0,0,0,0,0,0,0,0,0,0,0,0,0,0,0,0,0,0,0,0,0,0,0],"sum_hessian":[4.595E3,4.277E3,3.18E2,3.1E1,4.246E3,1.9E1,2.99E2,7E0,2.4E1,6.5E1,4.181E3,1.6E1,3E0,5.1E1,2.48E2,1.2E1,1.2E1,4.7E1,1.8E1,9.4E1,4.087E3,5E0,1.1E1,4.1E1,1E1,2.2E1,2.26E2],"tree_param":{"num_deleted":"0","num_feature":"5","num_nodes":"27","size_leaf_vector":"0"}},{"base_weights":[-5.1297247E-3,1.3645142E-2,-3.3376567E-2,-2.1923635E-2,1.449714E-1,-3.7297666E-1,-1.9835392E-2,1.2402671E-3,-1.4750728E-1,2.0059235E0,1.09180704E-1,-6.1067957E-1,-1.4446652E-1,7.112314E-1,-2.7806906E-2,-3.9715627E-3,2.9008908E-2,-1.3366619E-1,-1.8512005E-2,8.803486E-1,1.6127126E-3,5.094845E-2,-4.1979062E-3,-1.6988298E-1,-5.0330784E-2,-4.0179554E-2,-2.3830596E-2,8.812296E-2,3.2317802E-1,-7.421968E-2,-4.14954E-3],"categories":[],"categories_nodes":[],"categories_segments":[],"categories_sizes":[],"default_left":[0,0,0,0,0,0,0,0,0,0,0,0,0,0,0,0,0,0,0,0,0,0,0,0,0,0,0,0,0,0,0],"id":18,"left_children":[1,3,5,7,9,11,13,15,17,19,21,23,25,27,29,-1,-1,-1,-1,-1,-1,-1,-1,-1,-1,-1,-1,-1,-1,-1,-1],"loss_changes":[2.4267185E0,1.2844072E1,8.394215E0,6.2952747E0,3.8811394E1,3.7140045E0,1.026489E1,5.5490212E0,9.58235E0,5.261614E1,1.0919268E1,2.7004519E0,2.8915942E-2,3.9395123E0,4.208957E0,0E0,0E0,0E0,0E0,0E0,0E0,0E0,0E0,0E0,0E0,0E0,0E0,0E0,0E0,0E0,0E0],"parents":[2147483647,0,0,1,1,2,2,3,3,4,4,5,5,6,6,7,7,8,8,9,9,10,10,11,11,12,12,13,13,14,14],"right_children":[2,4,6,8,10,12,14,16,18,20,22,24,26,28,30,-1,-1,-1,-1,-1,-1,-1,-1,-1,-1,-1,-1,-1,-1,-1,-1],"split_conditions":[-1.1199622E-1,-3.6939254E-1,-3.845441E-2,-3.7552103E-1,-1.104452E0,-2.4509317E-1,-1.3940475E-2,-4.674483E-1,-6.875988E-1,1E0,-1.3607003E-1,1E0,5.6323748E-2,1E0,7.7986784E-2,-3.9715627E-3,2.9008908E-2,-1.3366619E-1,-1.8512005E-2,8.803486E-1,1.6127126E-3,5.094845E-2,-4.1979062E-3,-1.6988298E-1,-5.0330784E-2,-4.0179554E-2,-2.3830596E-2,8.812296E-2,3.2317802E-1,-7.421968E-2,-4.14954E-3],"split_indices":[4,4,4,4,3,3,4,4,3,2,3,2,3,1,4,0,0,0,0,0,0,0,0,0,0,0,0,0,0,0,0],"split_type":[0,0,0,0,0,0,0,0,0,0,0,0,0,0,0,0,0,0,0,0,0,0,0,0,0,0,0,0,0,0,0],"sum_hessian":[4.574E3,2.748E3,1.826E3,2.163E3,5.85E2,6.9E1,1.757E3,1.827E3,3.36E2,1E1,5.75E2,3.3E1,3.6E1,1.8E1,1.739E3,1.594E3,2.33E2,3.1E1,3.05E2,4E0,6E0,2.71E2,3.04E2,1.9E1,1.4E1,9E0,2.7E1,1.5E1,3E0,3.4E1,1.705E3],"tree_param":{"num_deleted":"0","num_feature":"5","num_nodes":"31","size_leaf_vector":"0"}},{"base_weights":[-5.1371222E-3,1.3943897E-1,-1.3428589E-2,-6.325538E-2,1.5574351E-1,-1.5630957E-1,-8.250034E-3,4.6693945E-1,1.1950771E-1,-1.9331682E-1,3.0224008E-2,1.187854E-1,-1.1112172E-2,5.471171E-2,1.05389096E-1,-1.4870492E-2,4.183581E-2,-4.87622E-2,-1.018794E-3,-5.685402E-2,-1.7370444E-3],"categories":[],"categories_nodes":[],"categories_segments":[],"categories_sizes":[],"default_left":[0,0,0,0,0,0,0,0,0,0,0,0,0,0,0,0,0,0,0,0,0],"id":19,"left_children":[1,3,5,-1,7,9,11,13,15,17,-1,-1,19,-1,-1,-1,-1,-1,-1,-1,-1],"loss_changes":[5.547281E0,1.914248E0,3.2365875E0,0E0,2.684371E0,1.7699146E0,7.286722E0,1.4594984E-1,3.8225842E0,1.300827E0,0E0,0E0,2.785197E0,0E0,0E0,0E0,0E0,0E0,0E0,0E0,0E0],"parents":[2147483647,0,0,1,1,2,2,4,4,5,5,6,6,7,7,8,8,9,9,12,12],"right_children":[2,4,6,-1,8,10,12,14,16,18,-1,-1,20,-1,-1,-1,-1,-1,-1,-1,-1],"split_conditions":[-1.2702796E0,-1.3315645E0,-1.1844809E0,-6.325538E-2,-1.3193076E0,1E0,-1.1722239E0,1E0,-1.300922E0,1E0,3.0224008E-2,1.187854E-1,-1.135453E0,5.471171E-2,1.05389096E-1,-1.4870492E-2,4.183581E-2,-4.87622E-2,-1.018794E-3,-5.685402E-2,-1.7370444E-3],"split_indices":[4,4,4,0,4,1,4,1,4,2,0,0,4,0,0,0,0,0,0,0,0],"split_type":[0,0,0,0,0,0,0,0,0,0,0,0,0,0,0,0,0,0,0,0,0],"sum_hessian":[4.625E3,2.5E2,4.375E3,8E0,2.42E2,1.52E2,4.223E3,2.4E1,2.18E2,1.36E2,1.6E1,1.9E1,4.204E3,7E0,1.7E1,6.9E1,1.49E2,1.07E2,2.9E1,3.6E1,4.168E3],"tree_param":{"num_deleted":"0","num_feature":"5","num_nodes":"21","size_leaf_vector":"0"}},{"base_weights":[4.600327E-4,2.8134113E-2,-3.253873E-2,2.6924117E-3,1.944521E-1,-4.9750355E-1,-2.5349043E-2,-2.1251069E-1,8.784669E-3,9.986341E-2,1.3557903E0,-2.1586688E-1,-2.9450214E-1,9.592199E-1,-3.2024745E-2,-3.0860255E-2,-5.7566363E-2,4.532651E-3,-1.8733265E-2,8.419161E-2,-3.2111984E-3,7.134782E-1,1.7841084E-1,-8.8612825E-2,2.684522E-2,3.9882135E-2,5.61778E-1,-8.0283366E-2,-4.9030087E-3],"categories":[],"categories_nodes":[],"categories_segments":[],"categories_sizes":[],"default_left":[0,0,0,0,0,0,0,0,0,0,0,0,0,0,0,0,0,0,0,0,0,0,0,0,0,0,0,0,0],"id":20,"left_children":[1,3,5,7,9,11,13,15,17,19,21,23,-1,25,27,-1,-1,-1,-1,-1,-1,-1,-1,-1,-1,-1,-1,-1,-1],"loss_changes":[4.2144685E0,1.0620321E1,7.0243025E0,2.857383E0,3.6444477E1,8.469263E0,1.366247E1,2.1865106E-1,3.0150754E0,1.1508078E1,2.2457668E1,2.1275148E0,0E0,1.9115427E1,5.707421E0,0E0,0E0,0E0,0E0,0E0,0E0,0E0,0E0,0E0,0E0,0E0,0E0,0E0,0E0],"parents":[2147483647,0,0,1,1,2,2,3,3,4,4,5,5,6,6,7,7,8,8,9,9,10,10,11,11,13,13,14,14],"right_children":[2,4,6,8,10,12,14,16,18,20,22,24,-1,26,28,-1,-1,-1,-1,-1,-1,-1,-1,-1,-1,-1,-1,-1,-1],"split_conditions":[-1.9166651E-1,-3.6939254E-1,-7.004251E-1,-1.3802165E0,1E0,-8.47927E-1,-5.6574947E-1,-1.2151233E0,-2.515063E-1,-2.066144E-1,-1.104452E0,1E0,-2.9450214E-1,-6.9096826E-2,-5.593363E-1,-3.0860255E-2,-5.7566363E-2,4.532651E-3,-1.8733265E-2,8.419161E-2,-3.2111984E-3,7.134782E-1,1.7841084E-1,-8.8612825E-2,2.684522E-2,3.9882135E-2,5.61778E-1,-8.0283366E-2,-4.9030087E-3],"split_indices":[4,4,3,3,0,3,3,4,3,3,3,0,0,4,3,0,0,0,0,0,0,0,0,0,0,0,0,0,0],"split_type":[0,0,0,0,0,0,0,0,0,0,0,0,0,0,0,0,0,0,0,0,0,0,0,0,0,0,0,0,0],"sum_hessian":[4.613E3,2.509E3,2.104E3,2.177E3,3.32E2,3.1E1,2.073E3,5.9E1,2.118E3,3.08E2,2.4E1,2.5E1,6E0,1.3E1,2.06E3,3.5E1,2.4E1,1.866E3,2.52E2,8.1E1,2.27E2,3E0,2.1E1,1.5E1,1E1,1E1,3E0,4E1,2.02E3],"tree_param":{"num_deleted":"0","num_feature":"5","num_nodes":"29","size_leaf_vector":"0"}},{"base_weights":[-1.4230266E-3,3.137556E-2,-2.4398113E-2,4.0021813E-3,4.0913942E-1,5.2241523E-2,-2.584061E-2,-3.860363E-3,4.0571943E-1,4.4414106E-1,-1.6263954E-1,-2.2882111E-2,-1.5397535E-1,2.4557638E-3,-9.7927764E-2,9.930243E-2,2.7302328E-2,-8.289884E-3,5.5495324E-4,-2.6909903E-2,-4.8306968E-2],"categories":[],"categories_nodes":[],"categories_segments":[],"categories_sizes":[],"default_left":[0,0,0,0,0,0,0,0,0,0,0,0,0,0,0,0,0,0,0,0,0],"id":21,"left_children":[1,3,5,7,9,-1,11,13,-1,15,-1,17,19,-1,-1,-1,-1,-1,-1,-1,-1],"loss_changes":[3.5469735E0,2.004893E1,1.147126E0,2.8804338E1,5.9658527E0,0E0,1.0408597E0,1.4141652E1,0E0,1.9944134E0,0E0,1.2834804E0,7.295847E-2,0E0,0E0,0E0,0E0,0E0,0E0,0E0,0E0],"parents":[2147483647,0,0,1,1,2,2,3,3,4,4,6,6,7,7,9,9,11,11,12,12],"right_children":[2,4,6,8,10,-1,12,14,-1,16,-1,18,20,-1,-1,-1,-1,-1,-1,-1,-1],"split_conditions":[-3.1563756E-1,-4.6955258E-1,-4.980907E-1,3.5989705E-1,3.5989705E-1,5.2241523E-2,2.3822968E0,-1.3651015E-1,4.0571943E-1,1E0,-1.6263954E-1,6.6557074E-1,1E0,2.4557638E-3,-9.7927764E-2,9.930243E-2,2.7302328E-2,-8.289884E-3,5.5495324E-4,-2.6909903E-2,-4.8306968E-2],"split_indices":[3,3,4,4,4,0,4,4,0,1,0,3,1,0,0,0,0,0,0,0,0],"split_type":[0,0,0,0,0,0,0,0,0,0,0,0,0,0,0,0,0,0,0,0,0],"sum_hessian":[4.705E3,1.938E3,2.767E3,1.808E3,1.3E2,1.3E1,2.754E3,1.802E3,6E0,1.27E2,3E0,2.693E3,6.1E1,1.745E3,5.7E1,1.08E2,1.9E1,1.562E3,1.131E3,5.2E1,9E0],"tree_param":{"num_deleted":"0","num_feature":"5","num_nodes":"21","size_leaf_vector":"0"}},{"base_weights":[-6.684019E-3,9.610235E-2,-1.2212197E-2,-1.7960957E-1,1.7434914E-1,-1.6758205E-1,-3.2572416E-3,-2.7457866E-1,-1.5610205E-1,8.127533E-1,9.9324584E-2,-1.9943766E-1,-1.120934E-2,9.523895E-2,-1.6605739E-2,-6.344566E-2,-2.839191E-2,-2.1030761E-2,-4.3520954E-2,1.1257734E-1,2.7996048E-1,1.0426403E-2,3.9435647E-2,-3.0680357E-2,-6.0746904E-2,-2.3347275E-2,1.3680599E-2,3.528896E-3,7.9381004E-2,-2.001979E-2,4.241453E-4],"categories":[],"categories_nodes":[],"categories_segments":[],"categories_sizes":[],"default_left":[0,0,0,0,0,0,0,0,0,0,0,0,0,0,0,0,0,0,0,0,0,0,0,0,0,0,0,0,0,0,0],"id":22,"left_children":[1,3,5,7,9,11,13,15,17,19,21,23,25,27,29,-1,-1,-1,-1,-1,-1,-1,-1,-1,-1,-1,-1,-1,-1,-1,-1],"loss_changes":[2.5939677E0,5.0579576E0,6.0253057E0,7.322717E-2,8.636344E0,1.1733627E0,5.3869047E0,5.8717728E-3,1.14990115E-1,1.9990654E0,7.47067E-1,8.944802E-1,3.524365E-1,1.14393215E1,5.6414385E0,0E0,0E0,0E0,0E0,0E0,0E0,0E0,0E0,0E0,0E0,0E0,0E0,0E0,0E0,0E0,0E0],"parents":[2147483647,0,0,1,1,2,2,3,3,4,4,5,5,6,6,7,7,8,8,9,9,10,10,11,11,12,12,13,13,14,14],"right_children":[2,4,6,8,10,12,14,16,18,20,22,24,26,28,30,-1,-1,-1,-1,-1,-1,-1,-1,-1,-1,-1,-1,-1,-1,-1,-1],"split_conditions":[-1.207062E0,-1.3802165E0,-1.1429307E0,1E0,-1.3673902E0,1E0,-8.9281887E-1,-1.5277183E0,-1.5277183E0,1E0,-1.2134752E0,-1.1557571E0,-1.1749964E0,-9.184714E-1,-5.593363E-1,-6.344566E-2,-2.839191E-2,-2.1030761E-2,-4.3520954E-2,1.1257734E-1,2.7996048E-1,1.0426403E-2,3.9435647E-2,-3.0680357E-2,-6.0746904E-2,-2.3347275E-2,1.3680599E-2,3.528896E-3,7.9381004E-2,-2.001979E-2,4.241453E-4],"split_indices":[3,3,3,2,3,2,3,3,3,1,3,3,3,3,3,0,0,0,0,0,0,0,0,0,0,0,0,0,0,0,0],"split_type":[0,0,0,0,0,0,0,0,0,0,0,0,0,0,0,0,0,0,0,0,0,0,0,0,0,0,0,0,0,0,0],"sum_hessian":[4.562E3,2.32E2,4.33E3,5.1E1,1.81E2,2.35E2,4.095E3,8E0,4.3E1,1.8E1,1.63E2,1.95E2,4E1,4.88E2,3.607E3,5E0,3E0,2.5E1,1.8E1,1.4E1,4E0,1.11E2,5.2E1,1.37E2,5.8E1,1.7E1,2.3E1,3.89E2,9.9E1,6.6E2,2.947E3],"tree_param":{"num_deleted":"0","num_feature":"5","num_nodes":"31","size_leaf_vector":"0"}}]},"name":"gbtree"},"learner_model_param":{"base_score":"5E-1","num_class":"0","num_feature":"5","num_target":"1"},"objective":{"name":"reg:squarederror","reg_loss_param":{"scale_pos_weight":"1"}}},"version":[1,6,1]}