{"learner":{"attributes":{"best_iteration":"35","best_ntree_limit":"36","scikit_learn":"{\"objective\": \"reg:squarederror\", \"max_leaves\": null, \"max_bin\": null, \"grow_policy\": null, \"learning_rate\": 0.21, \"verbosity\": null, \"booster\": null, \"tree_method\": \"hist\", \"gamma\": null, \"min_child_weight\": 2.0, \"max_delta_step\": null, \"subsample\": 0.8, \"sampling_method\": null, \"colsample_bytree\": 0.5, \"colsample_bylevel\": null, \"colsample_bynode\": null, \"reg_alpha\": null, \"reg_lambda\": null, \"scale_pos_weight\": null, \"base_score\": null, \"missing\": NaN, \"num_parallel_tree\": null, \"random_state\": 2020, \"n_jobs\": null, \"monotone_constraints\": null, \"interaction_constraints\": null, \"importance_type\": null, \"gpu_id\": null, \"validate_parameters\": null, \"predictor\": null, \"enable_categorical\": false, \"max_cat_to_onehot\": null, \"eval_metric\": null, \"early_stopping_rounds\": null, \"callbacks\": null, \"_estimator_type\": \"regressor\"}"},"feature_names":["FEATURE","DISPLAY","TPR_ONLY","PRICE","BASE_PRICE"],"feature_types":["int","int","int","float","float"],"gradient_booster":{"model":{"gbtree_model_param":{"num_parallel_tree":"1","num_trees":"36","size_leaf_vector":"0"},"tree_info":[0,0,0,0,0,0,0,0,0,0,0,0,0,0,0,0,0,0,0,0,0,0,0,0,0,0,0,0,0,0,0,0,0,0,0,0],"trees":[{"base_weights":[-6.7866486E-1,-3.1315556E-1,-8.741554E-1,-2.251567E-1,-4.806224E-1,-7.529587E-1,-9.74367E-1,-2.4279086E-1,9.580645E-1,-5.6050754E-1,-3.0339616E-3,-7.7391493E-1,-6.1556417E-1,-9.103664E-1,-2.091784E-1,-3.864013E-2,-9.354598E-2,2.6281798E-1,-8.0196515E-2,-9.912861E-2,-1.450336E-1,2.6256029E-2,-8.7399736E-2,-1.7059857E-1,-1.5517342E-1,-1.2268567E-1,-1.5035674E-1,-2.0615461E-1,-1.6977665E-1],"categories":[],"categories_nodes":[],"categories_segments":[],"categories_sizes":[],"default_left":[0,0,0,0,0,0,0,0,0,0,0,0,0,0,0,0,0,0,0,0,0,0,0,0,0,0,0,0,0],"id":0,"left_children":[1,3,5,7,9,11,13,15,17,19,21,23,25,27,-1,-1,-1,-1,-1,-1,-1,-1,-1,-1,-1,-1,-1,-1,-1],"loss_changes":[3.7793018E2,2.7096085E1,4.1143555E1,2.5521137E1,2.422496E1,4.029663E0,1.7121582E0,1.4156212E1,7.5556984E0,5.9365387E0,4.919734E0,1.2219849E0,2.4905396E-1,2.7604675E0,0E0,0E0,0E0,0E0,0E0,0E0,0E0,0E0,0E0,0E0,0E0,0E0,0E0,0E0,0E0],"parents":[2147483647,0,0,1,1,2,2,3,3,4,4,5,5,6,6,7,7,8,8,9,9,10,10,11,11,12,12,13,13],"right_children":[2,4,6,8,10,12,14,16,18,20,22,24,26,28,-1,-1,-1,-1,-1,-1,-1,-1,-1,-1,-1,-1,-1,-1,-1],"split_conditions":[-3.477032E-1,-5.7216257E-1,5.6323748E-2,-6.042282E-1,-4.3748695E-1,-1.42206345E-2,7.7459383E-1,1E0,1E0,-5.080313E-1,1E0,-2.3868003E-1,5.0187428E-3,6.463313E-1,-2.091784E-1,-3.864013E-2,-9.354598E-2,2.6281798E-1,-8.0196515E-2,-9.912861E-2,-1.450336E-1,2.6256029E-2,-8.7399736E-2,-1.7059857E-1,-1.5517342E-1,-1.2268567E-1,-1.5035674E-1,-2.0615461E-1,-1.6977665E-1],"split_indices":[3,3,3,3,3,3,3,2,2,3,2,3,3,3,0,0,0,0,0,0,0,0,0,0,0,0,0,0,0],"split_type":[0,0,0,0,0,0,0,0,0,0,0,0,0,0,0,0,0,0,0,0,0,0,0,0,0,0,0,0,0],"sum_hessian":[5.292E3,1.845E3,3.447E3,1.211E3,6.34E2,1.564E3,1.883E3,1.194E3,1.7E1,5.43E2,9.1E1,1.353E3,2.11E2,4.88E2,1.395E3,9.27E2,2.67E2,1.4E1,3E0,3.26E2,2.17E2,7E1,2.1E1,6.34E2,7.19E2,1.66E2,4.5E1,2.82E2,2.06E2],"tree_param":{"num_deleted":"0","num_feature":"5","num_nodes":"29","size_leaf_vector":"0"}},{"base_weights":[-5.378024E-1,-6.0381025E-1,3.8225416E-2,-1.279009E-1,-1.1922381E-1],"categories":[],"categories_nodes":[],"categories_segments":[],"categories_sizes":[],"default_left":[0,0,0,0,0],"id":1,"left_children":[1,3,-1,-1,-1],"loss_changes":[2.5535681E2,5.847168E-1,0E0,0E0,0E0],"parents":[2147483647,0,0,1,1],"right_children":[2,4,-1,-1,-1],"split_conditions":[1E0,1E0,3.8225416E-2,-1.279009E-1,-1.1922381E-1],"split_indices":[1,2,0,0,0],"split_type":[0,0,0,0,0],"sum_hessian":[5.371E3,4.92E3,4.51E2,4.282E3,6.38E2],"tree_param":{"num_deleted":"0","num_feature":"5","num_nodes":"5","size_leaf_vector":"0"}},{"base_weights":[-4.2570704E-1,2.630607E-1,-4.7049156E-1,3.1122923E-1,2.3068042E-2,-3.5508084E-1,-6.450149E-1,1.2509729E-1,3.776752E-1,-6.347081E-1,-3.3244878E-1,-5.446779E-1,-6.654918E-1,3.326571E-2,2.3226721E-2,7.367458E-2,1.0361002E-1,-6.0297698E-2,-1.6366667E-1,-8.112758E-2,-5.289267E-2,-1.428204E-1,-3.4625348E-2,-1.5300962E-1,-1.2937538E-1],"categories":[],"categories_nodes":[],"categories_segments":[],"categories_sizes":[],"default_left":[0,0,0,0,0,0,0,0,0,0,0,0,0,0,0,0,0,0,0,0,0,0,0,0,0],"id":2,"left_children":[1,3,5,7,-1,9,11,13,15,17,19,21,23,-1,-1,-1,-1,-1,-1,-1,-1,-1,-1,-1,-1],"loss_changes":[1.6552075E2,2.386467E0,1.011853E2,3.0323143E0,0E0,1.8983429E1,3.7528687E0,1.4827251E-2,3.9530182E-1,1.1139351E1,1.2092316E1,1.763176E1,4.7265015E0,0E0,0E0,0E0,0E0,0E0,0E0,0E0,0E0,0E0,0E0,0E0,0E0],"parents":[2147483647,0,0,1,1,2,2,3,3,5,5,6,6,7,7,8,8,9,9,10,10,11,11,12,12],"right_children":[2,4,6,8,-1,10,12,14,16,18,20,22,24,-1,-1,-1,-1,-1,-1,-1,-1,-1,-1,-1,-1],"split_conditions":[-1.4418772E0,-1.4480057E0,-8.748228E-2,-1.4602627E0,2.3068042E-2,-1.2212518E0,5.253661E-1,-1.4970336E0,1E0,-1.2764082E0,-3.6939254E-1,4.8246673E-1,1.2485272E0,3.326571E-2,2.3226721E-2,7.367458E-2,1.0361002E-1,-6.0297698E-2,-1.6366667E-1,-8.112758E-2,-5.289267E-2,-1.428204E-1,-3.4625348E-2,-1.5300962E-1,-1.2937538E-1],"split_indices":[4,4,4,4,0,4,4,4,2,4,4,4,4,0,0,0,0,0,0,0,0,0,0,0,0],"split_type":[0,0,0,0,0,0,0,0,0,0,0,0,0,0,0,0,0,0,0,0,0,0,0,0,0],"sum_hessian":[5.361E3,3.27E2,5.034E3,2.48E2,7.9E1,3.032E3,2.002E3,6.6E1,1.82E2,2.25E2,2.807E3,3.44E2,1.658E3,1.7E1,4.9E1,1.51E2,3.1E1,6.7E1,1.58E2,1.68E3,1.127E3,2.53E2,9.1E1,7.22E2,9.36E2],"tree_param":{"num_deleted":"0","num_feature":"5","num_nodes":"25","size_leaf_vector":"0"}},{"base_weights":[-3.3004662E-1,-7.441612E-2,-4.7012505E-1,-2.6509255E-2,-2.523753E-1,-4.124087E-1,-5.203773E-1,4.0196694E-2,-1.1509419E-1,1.793421E-2,-3.071447E-1,-4.322372E-1,-3.0726358E-1,-5.019134E-1,-5.5645055E-1,-1.278816E-2,1.319835E-1,-3.513232E-2,6.356213E-2,-3.8301237E-2,8.2485676E-2,-4.795353E-2,-7.4963756E-2,-8.5408755E-2,-1.02375664E-1,-5.9978448E-2,-9.165205E-2,-1.06621295E-1,-8.93175E-2,-1.13252886E-1,-1.2721393E-1],"categories":[],"categories_nodes":[],"categories_segments":[],"categories_sizes":[],"default_left":[0,0,0,0,0,0,0,0,0,0,0,0,0,0,0,0,0,0,0,0,0,0,0,0,0,0,0,0,0,0,0],"id":3,"left_children":[1,3,5,7,9,11,13,15,17,19,21,23,25,27,29,-1,-1,-1,-1,-1,-1,-1,-1,-1,-1,-1,-1,-1,-1,-1,-1],"loss_changes":[1.8971326E2,1.5995611E1,9.713379E0,8.750156E0,5.8977757E0,3.1987915E0,9.3692017E-1,5.0292496E1,1.3920981E1,5.177848E0,1.2179871E0,1.6951294E0,5.9414864E-1,3.2577515E-1,1.8855286E-1,0E0,0E0,0E0,0E0,0E0,0E0,0E0,0E0,0E0,0E0,0E0,0E0,0E0,0E0,0E0,0E0],"parents":[2147483647,0,0,1,1,2,2,3,3,4,4,5,5,6,6,7,7,8,8,9,9,10,10,11,11,12,12,13,13,14,14],"right_children":[2,4,6,8,10,12,14,16,18,20,22,24,26,28,30,-1,-1,-1,-1,-1,-1,-1,-1,-1,-1,-1,-1,-1,-1,-1,-1],"split_conditions":[-3.477032E-1,1E0,7.5563125E-2,-6.94012E-1,-1.5277183E0,-1.42206345E-2,1.6724315E0,-9.184714E-1,-4.3748695E-1,-1.5341314E0,-8.9281887E-1,-1.1041752E-1,5.6323748E-2,1.3517752E0,2.1854815E0,-1.278816E-2,1.319835E-1,-3.513232E-2,6.356213E-2,-3.8301237E-2,8.2485676E-2,-4.795353E-2,-7.4963756E-2,-8.5408755E-2,-1.02375664E-1,-5.9978448E-2,-9.165205E-2,-1.06621295E-1,-8.93175E-2,-1.13252886E-1,-1.2721393E-1],"split_indices":[3,2,3,3,3,3,3,3,3,3,3,3,3,3,3,0,0,0,0,0,0,0,0,0,0,0,0,0,0,0,0],"split_type":[0,0,0,0,0,0,0,0,0,0,0,0,0,0,0,0,0,0,0,0,0,0,0,0,0,0,0,0,0,0,0],"sum_hessian":[5.298E3,1.876E3,3.422E3,1.479E3,3.97E2,1.597E3,1.825E3,8.44E2,6.35E2,6.7E1,3.3E2,1.341E3,2.56E2,1.217E3,6.08E2,7.21E2,1.23E2,5.65E2,7E1,4.4E1,2.3E1,1.3E2,2E2,9.23E2,4.18E2,2.22E2,3.4E1,1.126E3,9.1E1,4.6E2,1.48E2],"tree_param":{"num_deleted":"0","num_feature":"5","num_nodes":"31","size_leaf_vector":"0"}},{"base_weights":[-2.620284E-1,-3.357373E-1,9.5273085E-2,-7.2311364E-2,-5.8644455E-2],"categories":[],"categories_nodes":[],"categories_segments":[],"categories_sizes":[],"default_left":[0,0,0,0,0],"id":4,"left_children":[1,3,-1,-1,-1],"loss_changes":[2.8127933E2,2.2514648E0,0E0,0E0,0E0],"parents":[2147483647,0,0,1,1],"right_children":[2,4,-1,-1,-1],"split_conditions":[1E0,1E0,9.5273085E-2,-7.2311364E-2,-5.8644455E-2],"split_indices":[0,2,0,0,0],"split_type":[0,0,0,0,0],"sum_hessian":[5.328E3,4.831E3,4.97E2,4.188E3,6.43E2],"tree_param":{"num_deleted":"0","num_feature":"5","num_nodes":"5","size_leaf_vector":"0"}},{"base_weights":[-2.138596E-1,2.6746005E-1,-2.4370864E-1,1.3357536E-1,2.9868338E-1,-1.6951707E-1,-3.5639507E-1,9.522596E-2,2.9923394E-1,2.7552292E-1,4.024337E-1,-2.3414458E-1,-6.032267E-2,-9.677326E-2,-3.508299E-1,3.1461194E-2,-7.045813E-3,5.5986876E-3,9.474813E-2,6.320729E-2,4.626188E-2,1.20625086E-1,7.1778186E-2,-9.037589E-2,-4.3503236E-2,3.2192763E-2,-3.4318108E-2,-5.095805E-2,-7.675137E-2],"categories":[],"categories_nodes":[],"categories_segments":[],"categories_sizes":[],"default_left":[0,0,0,0,0,0,0,0,0,0,0,0,0,0,0,0,0,0,0,0,0,0,0,0,0,0,0,0,0],"id":5,"left_children":[1,3,5,7,9,11,13,15,17,19,21,23,25,-1,27,-1,-1,-1,-1,-1,-1,-1,-1,-1,-1,-1,-1,-1,-1],"loss_changes":[7.6957E1,1.2685452E0,4.2075928E1,3.590325E-1,4.9705505E-1,2.1446098E1,1.0006714E0,3.6354965E-1,4.4355726E-1,2.2902584E-1,2.624612E-1,1.0024628E1,2.4955898E1,0E0,2.9276276E0,0E0,0E0,0E0,0E0,0E0,0E0,0E0,0E0,0E0,0E0,0E0,0E0,0E0,0E0],"parents":[2147483647,0,0,1,1,2,2,3,3,4,4,5,5,6,6,7,7,8,8,9,9,10,10,11,11,12,12,14,14],"right_children":[2,4,6,8,10,12,14,16,18,20,22,24,26,-1,28,-1,-1,-1,-1,-1,-1,-1,-1,-1,-1,-1,-1,-1,-1],"split_conditions":[-1.4418772E0,-1.4602627E0,-8.748228E-2,1E0,1E0,-3.6939254E-1,3.5087395E-2,-1.4663912E0,-1.4663912E0,-1.4480057E0,-1.4541342E0,-1.2212518E0,-2.345659E-1,-9.677326E-2,5.253661E-1,3.1461194E-2,-7.045813E-3,5.5986876E-3,9.474813E-2,6.320729E-2,4.626188E-2,1.20625086E-1,7.1778186E-2,-9.037589E-2,-4.3503236E-2,3.2192763E-2,-3.4318108E-2,-5.095805E-2,-7.675137E-2],"split_indices":[4,4,4,2,2,4,4,4,4,4,4,4,4,0,4,0,0,0,0,0,0,0,0,0,0,0,0,0,0],"split_type":[0,0,0,0,0,0,0,0,0,0,0,0,0,0,0,0,0,0,0,0,0,0,0,0,0,0,0,0,0],"sum_hessian":[5.351E3,3.12E2,5.039E3,6E1,2.52E2,3.04E3,1.999E3,5E1,1E1,2.09E2,4.3E1,1.909E3,1.131E3,9.7E1,1.902E3,3.5E1,1.5E1,4E0,6E0,1.4E2,6.9E1,9E0,3.4E1,2.29E2,1.68E3,3.68E2,7.63E2,2.29E2,1.673E3],"tree_param":{"num_deleted":"0","num_feature":"5","num_nodes":"29","size_leaf_vector":"0"}},{"base_weights":[-1.6810405E-1,-2.1266754E-1,6.9845706E-2,-4.583604E-2,-3.6978554E-2],"categories":[],"categories_nodes":[],"categories_segments":[],"categories_sizes":[],"default_left":[0,0,0,0,0],"id":6,"left_children":[1,3,-1,-1,-1],"loss_changes":[1.1899933E2,9.641571E-1,0E0,0E0,0E0],"parents":[2147483647,0,0,1,1],"right_children":[2,4,-1,-1,-1],"split_conditions":[1E0,1E0,6.9845706E-2,-4.583604E-2,-3.6978554E-2],"split_indices":[1,2,0,0,0],"split_type":[0,0,0,0,0],"sum_hessian":[5.329E3,4.894E3,4.35E2,4.24E3,6.54E2],"tree_param":{"num_deleted":"0","num_feature":"5","num_nodes":"5","size_leaf_vector":"0"}},{"base_weights":[-1.3121097E-1,3.541366E-2,-2.1891327E-1,6.601403E-2,-8.0608666E-2,-1.7951937E-1,-2.5338706E-1,5.354777E-2,3.3981755E-1,5.8975413E-2,-1.0932546E-1,-1.958393E-1,-9.3683995E-2,-2.5083357E-1,-6.209001E-2,2.2482175E-2,-1.2486226E-2,1.2170817E-1,2.1904035E-2,-6.149811E-2,2.9942121E-2,-4.342456E-2,-1.711259E-2,-3.7355114E-2,-5.1690664E-2,-1.2977822E-2,-3.5302516E-2,-5.3487975E-2,-4.6759892E-2],"categories":[],"categories_nodes":[],"categories_segments":[],"categories_sizes":[],"default_left":[0,0,0,0,0,0,0,0,0,0,0,0,0,0,0,0,0,0,0,0,0,0,0,0,0,0,0,0,0],"id":7,"left_children":[1,3,5,7,9,11,13,15,17,19,21,23,25,27,-1,-1,-1,-1,-1,-1,-1,-1,-1,-1,-1,-1,-1,-1,-1],"loss_changes":[7.764855E1,6.5130687E0,4.6819153E0,4.934511E0,1.5416677E0,2.2621994E0,1.2599945E-1,8.405612E0,3.4967184E0,1.9831187E0,8.4586334E-1,1.1911583E0,6.1133003E-1,1.3464355E-1,0E0,0E0,0E0,0E0,0E0,0E0,0E0,0E0,0E0,0E0,0E0,0E0,0E0,0E0,0E0],"parents":[2147483647,0,0,1,1,2,2,3,3,4,4,5,5,6,6,7,7,8,8,9,9,10,10,11,11,12,12,13,13],"right_children":[2,4,6,8,10,12,14,16,18,20,22,24,26,28,-1,-1,-1,-1,-1,-1,-1,-1,-1,-1,-1,-1,-1,-1,-1],"split_conditions":[-3.477032E-1,1E0,7.5563125E-2,-4.3748695E-1,-1.5277183E0,-1.42206345E-2,2.5061378E0,-5.7216257E-1,-3.7976882E-1,-1.5469577E0,-1.1429307E0,-7.193877E-2,5.0187428E-3,2.057219E0,-6.209001E-2,2.2482175E-2,-1.2486226E-2,1.2170817E-1,2.1904035E-2,-6.149811E-2,2.9942121E-2,-4.342456E-2,-1.711259E-2,-3.7355114E-2,-5.1690664E-2,-1.2977822E-2,-3.5302516E-2,-5.3487975E-2,-4.6759892E-2],"split_indices":[3,2,3,3,3,3,3,3,3,3,3,3,3,3,0,0,0,0,0,0,0,0,0,0,0,0,0,0,0],"split_type":[0,0,0,0,0,0,0,0,0,0,0,0,0,0,0,0,0,0,0,0,0,0,0,0,0,0,0,0,0],"sum_hessian":[5.312E3,1.832E3,3.48E3,1.45E3,3.82E2,1.627E3,1.853E3,1.388E3,6.2E1,6.5E1,3.17E2,1.366E3,2.61E2,1.754E3,9.9E1,9.42E2,4.46E2,3E1,3.2E1,1.2E1,5.3E1,6.9E1,2.48E2,1.01E3,3.56E2,1.84E2,7.7E1,1.535E3,2.19E2],"tree_param":{"num_deleted":"0","num_feature":"5","num_nodes":"29","size_leaf_vector":"0"}},{"base_weights":[-1.0331671E-1,-3.2322295E-2,4.240684E-1,2.9151218E-2,1.398088E-1],"categories":[],"categories_nodes":[],"categories_segments":[],"categories_sizes":[],"default_left":[0,0,0,0,0],"id":8,"left_children":[1,-1,3,-1,-1],"loss_changes":[1.420303E2,0E0,3.2034645E1,0E0,0E0],"parents":[2147483647,0,0,2,2],"right_children":[2,-1,4,-1,-1],"split_conditions":[1E0,-3.2322295E-2,1E0,2.9151218E-2,1.398088E-1],"split_indices":[0,0,1,0,0],"split_type":[0,0,0,0,0],"sum_hessian":[5.319E3,4.854E3,4.65E2,2.14E2,2.51E2],"tree_param":{"num_deleted":"0","num_feature":"5","num_nodes":"5","size_leaf_vector":"0"}},{"base_weights":[-8.389048E-2,4.0576972E-2,-1.5107511E-1,-3.455459E-2,6.318232E-1,-1.0815418E-1,-1.8624817E-1,2.630851E-1,-1.0715637E-1,1.7050462E0,3.5501602E-1,-1.2268398E-1,-3.418491E-2,-3.2726014E-1,-1.834309E-1,1.2078696E-1,3.6526058E-2,-3.470784E-2,4.1650068E-2,1.3890618E-1,4.2905286E-1,5.556399E-2,3.4225848E-1,-2.36628E-2,-4.981691E-2,-2.4388446E-3,-2.7865462E-2,-1.138095E-1,-5.9532475E-2,-3.7376687E-2,-5.066298E-2],"categories":[],"categories_nodes":[],"categories_segments":[],"categories_sizes":[],"default_left":[0,0,0,0,0,0,0,0,0,0,0,0,0,0,0,0,0,0,0,0,0,0,0,0,0,0,0,0,0,0,0],"id":9,"left_children":[1,3,5,7,9,11,13,15,17,19,21,23,25,27,29,-1,-1,-1,-1,-1,-1,-1,-1,-1,-1,-1,-1,-1,-1,-1,-1],"loss_changes":[4.461899E1,8.3133995E1,5.2108307E0,3.592103E1,6.2077682E1,1.6756535E0,6.9597626E-1,8.970375E0,2.3753185E1,1.3818901E1,1.9049952E1,1.4697495E0,5.721103E-1,1.8467164E-1,5.4535675E-1,0E0,0E0,0E0,0E0,0E0,0E0,0E0,0E0,0E0,0E0,0E0,0E0,0E0,0E0,0E0,0E0],"parents":[2147483647,0,0,1,1,2,2,3,3,4,4,5,5,6,6,7,7,8,8,9,9,10,10,11,11,12,12,13,13,14,14],"right_children":[2,4,6,8,10,12,14,16,18,20,22,24,26,28,30,-1,-1,-1,-1,-1,-1,-1,-1,-1,-1,-1,-1,-1,-1,-1,-1],"split_conditions":[-3.477032E-1,-3.6939254E-1,-7.8119906E-3,-1.4418772E0,-8.671664E-1,-1.548956E-1,-7.835189E-2,-1.5277183E0,-5.4711854E-1,-2.652083E-1,4.211819E-1,-1.6715257E-1,-8.748228E-2,3.5087395E-2,2.2290847E0,1.2078696E-1,3.6526058E-2,-3.470784E-2,4.1650068E-2,1.3890618E-1,4.2905286E-1,5.556399E-2,3.4225848E-1,-2.36628E-2,-4.981691E-2,-2.4388446E-3,-2.7865462E-2,-1.138095E-1,-5.9532475E-2,-3.7376687E-2,-5.066298E-2],"split_indices":[3,4,4,4,3,4,3,3,4,4,4,4,4,4,4,0,0,0,0,0,0,0,0,0,0,0,0,0,0,0,0],"split_type":[0,0,0,0,0,0,0,0,0,0,0,0,0,0,0,0,0,0,0,0,0,0,0,0,0,0,0,0,0,0,0],"sum_hessian":[5.334E3,1.87E3,3.464E3,1.66E3,2.1E2,1.562E3,1.902E3,3.25E2,1.335E3,4.2E1,1.68E2,1.305E3,2.57E2,3.5E1,1.867E3,7.1E1,2.54E2,1.122E3,2.13E2,1.1E1,3.1E1,1.58E2,1E1,1.202E3,1.03E2,2.1E2,4.7E1,4E0,3.1E1,1.71E3,1.57E2],"tree_param":{"num_deleted":"0","num_feature":"5","num_nodes":"31","size_leaf_vector":"0"}},{"base_weights":[-6.339054E-2,-9.1499336E-2,2.5488812E-1,8.62374E-2,-1.0896432E-1,7.3442024E-1,-2.7734935E-1,-6.873093E-2,9.8683566E-2,-3.2380775E-1,-1.0194897E-1,-8.563452E-2,1.0295634E0,-2.2479498E-1,-3.3467886E-1,1.802231E-2,6.9386125E-2,-5.344572E-2,-7.79408E-2,3.587125E-2,-2.2530552E-2,-2.0893579E-4,-1.3571195E-1,9.4733524E-1,1.7830066E-1,-6.779556E-2,-3.0173896E-2,-6.3406944E-2,-7.953267E-2],"categories":[],"categories_nodes":[],"categories_segments":[],"categories_sizes":[],"default_left":[0,0,0,0,0,0,0,0,0,0,0,0,0,0,0,0,0,0,0,0,0,0,0,0,0,0,0,0,0],"id":10,"left_children":[1,3,5,7,9,11,13,-1,15,17,19,21,23,25,27,-1,-1,-1,-1,-1,-1,-1,-1,-1,-1,-1,-1,-1,-1],"loss_changes":[4.751097E1,1.5151531E1,1.1020565E2,2.2814639E0,6.661976E0,5.5029793E1,5.4241467E-1,0E0,1.2384448E0,3.648529E-1,6.285179E0,2.8938096E0,1.0112349E2,8.2834244E-1,2.4097443E-2,0E0,0E0,0E0,0E0,0E0,0E0,0E0,0E0,0E0,0E0,0E0,0E0,0E0,0E0],"parents":[2147483647,0,0,1,1,2,2,3,3,4,4,5,5,6,6,8,8,9,9,10,10,11,11,12,12,13,13,14,14],"right_children":[2,4,6,8,10,12,14,-1,16,18,20,22,24,26,28,-1,-1,-1,-1,-1,-1,-1,-1,-1,-1,-1,-1,-1,-1],"split_conditions":[1E0,-1.207062E0,-3.7976882E-1,-1.5469577E0,-1.1429307E0,-1.1429307E0,1.0182927E0,-6.873093E-2,-1.2391276E0,-1.1557571E0,-1.0467339E0,-1.1878227E0,-1.0210814E0,5.373082E-1,1.2106864E0,1.802231E-2,6.9386125E-2,-5.344572E-2,-7.79408E-2,3.587125E-2,-2.2530552E-2,-2.0893579E-4,-1.3571195E-1,9.4733524E-1,1.7830066E-1,-6.779556E-2,-3.0173896E-2,-6.3406944E-2,-7.953267E-2],"split_indices":[1,3,3,3,3,3,3,0,3,3,3,3,3,3,3,0,0,0,0,0,0,0,0,0,0,0,0,0,0],"split_type":[0,0,0,0,0,0,0,0,0,0,0,0,0,0,0,0,0,0,0,0,0,0,0,0,0,0,0,0,0],"sum_hessian":[5.307E3,4.877E3,4.3E2,4.36E2,4.441E3,2.26E2,2.04E2,1.2E1,4.24E2,1.39E2,4.302E3,6E1,1.66E2,1.09E2,9.5E1,4.03E2,2.1E1,5.9E1,8E1,8.2E1,4.22E3,5.3E1,7E0,7E0,1.59E2,4.8E1,6.1E1,5.9E1,3.6E1],"tree_param":{"num_deleted":"0","num_feature":"5","num_nodes":"29","size_leaf_vector":"0"}},{"base_weights":[-5.290605E-2,-1.4960069E-2,3.143686E-2],"categories":[],"categories_nodes":[],"categories_segments":[],"categories_sizes":[],"default_left":[0,0,0],"id":11,"left_children":[1,-1,-1],"loss_changes":[1.9781555E1,0E0,0E0],"parents":[2147483647,0,0],"right_children":[2,-1,-1],"split_conditions":[1E0,-1.4960069E-2,3.143686E-2],"split_indices":[1,0,0],"split_type":[0,0,0],"sum_hessian":[5.322E3,4.881E3,4.41E2],"tree_param":{"num_deleted":"0","num_feature":"5","num_nodes":"3","size_leaf_vector":"0"}},{"base_weights":[-3.9272733E-2,1.7522264E-1,-5.531399E-2,1.5335834E-1,6.2020725E-1,-7.142641E-2,1.14899136E-1,1.7652233E-1,1.0105768E-1,1.5767689E-1,5.3669546E-2,-2.7373955E-1,-6.272535E-2,4.3947166E-1,-2.403162E-1,2.0829363E-2,4.0343273E-2,1.905561E-2,2.3766803E-2,-1.2298492E-2,-6.37859E-2,-8.940732E-3,-1.932993E-2,-5.513459E-4,2.6953697E-1,-7.3354095E-2,-3.3643E-2],"categories":[],"categories_nodes":[],"categories_segments":[],"categories_sizes":[],"default_left":[0,0,0,0,0,0,0,0,0,0,0,0,0,0,0,0,0,0,0,0,0,0,0,0,0,0,0],"id":12,"left_children":[1,3,5,7,9,11,13,15,17,-1,-1,19,21,23,25,-1,-1,-1,-1,-1,-1,-1,-1,-1,-1,-1,-1],"loss_changes":[1.829397E1,3.5047178E0,1.3570092E1,4.1102982E-1,6.1789465E-1,7.936035E0,4.9451077E1,2.7509546E-1,3.6067963E-3,0E0,0E0,1.1830053E0,2.5562325E0,8.358821E1,1.7339487E0,0E0,0E0,0E0,0E0,0E0,0E0,0E0,0E0,0E0,0E0,0E0,0E0],"parents":[2147483647,0,0,1,1,2,2,3,3,4,4,5,5,6,6,7,7,8,8,11,11,12,12,13,13,14,14],"right_children":[2,4,6,8,10,12,14,16,18,-1,-1,20,22,24,26,-1,-1,-1,-1,-1,-1,-1,-1,-1,-1,-1,-1],"split_conditions":[-1.313179E0,1E0,1E0,-1.4480057E0,-1.4480057E0,-1.2212518E0,5.253661E-1,-1.4663912E0,-1.4418772E0,1.5767689E-1,5.3669546E-2,-1.2764082E0,-8.748228E-2,-3.6939254E-1,1.7694483E0,2.0829363E-2,4.0343273E-2,1.905561E-2,2.3766803E-2,-1.2298492E-2,-6.37859E-2,-8.940732E-3,-1.932993E-2,-5.513459E-4,2.6953697E-1,-7.3354095E-2,-3.3643E-2],"split_indices":[4,1,1,4,4,4,4,4,4,0,0,4,4,4,4,0,0,0,0,0,0,0,0,0,0,0,0],"split_type":[0,0,0,0,0,0,0,0,0,0,0,0,0,0,0,0,0,0,0,0,0,0,0,0,0,0,0],"sum_hessian":[5.313E3,3.69E2,4.944E3,3.53E2,1.6E1,4.517E3,4.27E2,2.43E2,1.1E2,1.1E1,5E0,1.85E2,4.332E3,2.23E2,2.04E2,4.2E1,2.01E2,6.4E1,4.6E1,2.3E1,1.62E2,2.569E3,1.763E3,1.47E2,7.6E1,8.5E1,1.19E2],"tree_param":{"num_deleted":"0","num_feature":"5","num_nodes":"27","size_leaf_vector":"0"}},{"base_weights":[-3.029093E-2,6.2118076E-2,-5.7652295E-2,5.2001674E-2,6.343498E-1,-2.7476018E-2,-7.6588444E-2,3.7765235E-3,1.0808278E-1,1.9444707E-1,-1.7031884E-2,-1.6013473E-1,-1.5289062E-2,-1.246156E-1,-7.109792E-2,1.3979613E-2,-3.3203315E-2,1.4952591E-1,1.2228702E-2,-2.8853714E-2,-5.7718713E-2,5.5133067E-3,-8.610942E-3,-2.1102617E-2,-2.8027097E-2,-3.0496456E-3,-1.7598419E-2],"categories":[],"categories_nodes":[],"categories_segments":[],"categories_sizes":[],"default_left":[0,0,0,0,0,0,1,0,0,0,0,0,0,0,0,0,0,0,0,0,0,0,0,0,0,0,0],"id":13,"left_children":[1,3,5,7,9,11,13,15,17,-1,-1,19,21,23,25,-1,-1,-1,-1,-1,-1,-1,-1,-1,-1,-1,-1],"loss_changes":[1.3434636E1,6.9947696E0,2.3401566E0,3.2287884E0,4.4560804E0,2.55518E0,6.5512276E-1,6.546887E0,1.657771E1,0E0,0E0,3.0912662E-1,1.550102E0,4.1444063E-2,1.6245813E0,0E0,0E0,0E0,0E0,0E0,0E0,0E0,0E0,0E0,0E0,0E0,0E0],"parents":[2147483647,0,0,1,1,2,2,3,3,4,4,5,5,6,6,7,7,8,8,11,11,12,12,13,13,14,14],"right_children":[2,4,6,8,10,12,14,16,18,-1,-1,20,22,24,26,-1,-1,-1,-1,-1,-1,-1,-1,-1,-1,-1,-1],"split_conditions":[-5.7216257E-1,-6.042282E-1,-1.1041752E-1,-1.1236914E0,1E0,-5.6574947E-1,-4.6286263E-2,-1.207062E0,-1.0467339E0,1.9444707E-1,-1.7031884E-2,1E0,-3.1563756E-1,-7.193877E-2,7.5563125E-2,1.3979613E-2,-3.3203315E-2,1.4952591E-1,1.2228702E-2,-2.8853714E-2,-5.7718713E-2,5.5133067E-3,-8.610942E-3,-2.1102617E-2,-2.8027097E-2,-3.0496456E-3,-1.7598419E-2],"split_indices":[3,3,3,3,2,3,3,3,3,0,0,2,3,3,3,0,0,0,0,0,0,0,0,0,0,0,0],"split_type":[0,0,0,0,0,0,0,0,0,0,0,0,0,0,0,0,0,0,0,0,0,0,0,0,0,0,0],"sum_hessian":[5.311E3,1.213E3,4.098E3,1.193E3,2E1,1.581E3,2.517E3,6.42E2,5.51E2,1.4E1,6E0,1.32E2,1.449E3,2.56E2,2.261E3,4.63E2,1.79E2,4.1E1,5.1E2,1.12E2,2E1,5.54E2,8.95E2,7.2E1,1.84E2,4.15E2,1.846E3],"tree_param":{"num_deleted":"0","num_feature":"5","num_nodes":"27","size_leaf_vector":"0"}},{"base_weights":[-1.6838806E-2,-4.6977155E-2,2.8445494E-1,5.421285E-2,-5.7163734E-2,6.799206E-1,-1.2378354E-1,3.9106324E-2,6.895787E-2,-1.0142481E-1,-4.174574E-2,2.3363513E-1,7.6033026E-1,-6.9895804E-2,-1.7575757E-1,-5.21528E-2,1.0571022E-2,-1.939481E-2,-5.7646595E-2,4.457437E-2,-1.0087324E-2,8.194967E-2,-6.966314E-2,4.6454266E-1,1.21111535E-1,-3.9746385E-2,2.8292483E-3,-3.0631538E-2,-4.841086E-2],"categories":[],"categories_nodes":[],"categories_segments":[],"categories_sizes":[],"default_left":[0,0,0,0,1,0,0,0,0,1,0,0,0,0,0,0,0,0,0,0,0,0,0,0,0,0,0,0,0],"id":14,"left_children":[1,3,5,7,9,11,13,15,-1,17,19,21,23,25,27,-1,-1,-1,-1,-1,-1,-1,-1,-1,-1,-1,-1,-1,-1],"loss_changes":[4.833069E1,4.990011E0,7.8223206E1,1.821876E0,2.9956713E0,8.650238E0,6.570978E-1,1.3717575E0,0E0,1.7561598E0,5.2211456E0,3.5823903E0,5.4168488E1,1.1868277E0,1.6448188E-1,0E0,0E0,0E0,0E0,0E0,0E0,0E0,0E0,0E0,0E0,0E0,0E0,0E0,0E0],"parents":[2147483647,0,0,1,1,2,2,3,3,4,4,5,5,6,6,7,7,9,9,10,10,11,11,12,12,13,13,14,14],"right_children":[2,4,6,8,10,12,14,16,-1,18,20,22,24,26,28,-1,-1,-1,-1,-1,-1,-1,-1,-1,-1,-1,-1,-1,-1],"split_conditions":[1E0,-1.207062E0,-3.477032E-1,-1.2391276E0,-4.3748695E-1,-1.405869E0,8.387251E-1,-1.5469577E0,6.895787E-2,-4.4390008E-1,-3.477032E-1,-1.5277183E0,-1.0210814E0,2.6154378E-1,1.2106864E0,-5.21528E-2,1.0571022E-2,-1.939481E-2,-5.7646595E-2,4.457437E-2,-1.0087324E-2,8.194967E-2,-6.966314E-2,4.6454266E-1,1.21111535E-1,-3.9746385E-2,2.8292483E-3,-3.0631538E-2,-4.841086E-2],"split_indices":[0,3,3,3,3,3,3,3,0,3,3,3,3,3,3,0,0,0,0,0,0,0,0,0,0,0,0,0,0],"split_type":[0,0,0,0,0,0,0,0,0,0,0,0,0,0,0,0,0,0,0,0,0,0,0,0,0,0,0,0,0],"sum_hessian":[5.32E3,4.837E3,4.83E2,4.42E2,4.395E3,2.45E2,2.38E2,4.2E2,2.2E1,1.134E3,3.261E3,3.8E1,2.07E2,1.18E2,1.2E2,1.5E1,4.05E2,1.079E3,5.5E1,7.8E1,3.183E3,3E1,8E0,2.2E1,1.85E2,4.8E1,7E1,8E1,4E1],"tree_param":{"num_deleted":"0","num_feature":"5","num_nodes":"29","size_leaf_vector":"0"}},{"base_weights":[-2.2350334E-2,-4.4141766E-2,2.0240723E-1,-8.008147E-3,-4.4184633E-2,2.9476793E-3,7.770965E-2],"categories":[],"categories_nodes":[],"categories_segments":[],"categories_sizes":[],"default_left":[0,0,0,0,0,0,0],"id":15,"left_children":[1,3,5,-1,-1,-1,-1],"loss_changes":[2.5766405E1,4.781473E0,1.467868E1,0E0,0E0,0E0,0E0],"parents":[2147483647,0,0,1,1,2,2],"right_children":[2,4,6,-1,-1,-1,-1],"split_conditions":[1E0,1E0,1E0,-8.008147E-3,-4.4184633E-2,2.9476793E-3,7.770965E-2],"split_indices":[0,1,1,0,0,0,0],"split_type":[0,0,0,0,0,0,0],"sum_hessian":[5.258E3,4.794E3,4.64E2,4.628E3,1.66E2,2.19E2,2.45E2],"tree_param":{"num_deleted":"0","num_feature":"5","num_nodes":"7","size_leaf_vector":"0"}},{"base_weights":[-1.7158099E-2,4.4415817E-2,-3.1743053E-2,5.2625216E-3,2.2587632E-1,-3.6712688E-1,-2.9619401E-2,-2.8749573E-1,1.1296051E-2,3.1701198E-1,1.3020569E-1,-1.1490807E-1,-1.1652027E-2,7.025351E-2,-3.0978909E-2,-1.158209E-1,-9.979264E-3,1.017402E-2,-7.0884414E-3,4.833679E-2,9.771103E-2,5.6305084E-2,-8.643085E-3,-3.4643037E-3,-1.22896945E-2],"categories":[],"categories_nodes":[],"categories_segments":[],"categories_sizes":[],"default_left":[0,0,0,0,0,0,0,0,0,0,0,0,0,0,0,0,0,0,0,0,0,0,0,0,0],"id":16,"left_children":[1,3,5,7,9,11,13,15,17,19,21,-1,-1,-1,23,-1,-1,-1,-1,-1,-1,-1,-1,-1,-1],"loss_changes":[4.7826433E0,7.245683E0,3.0553126E0,1.4869946E0,1.5368633E0,1.4846725E0,2.1288028E0,1.0509329E0,1.3807662E0,1.0774965E0,2.1380363E0,0E0,0E0,0E0,1.6999035E0,0E0,0E0,0E0,0E0,0E0,0E0,0E0,0E0,0E0,0E0],"parents":[2147483647,0,0,1,1,2,2,3,3,4,4,5,5,6,6,7,7,8,8,9,9,10,10,14,14],"right_children":[2,4,6,8,10,12,14,16,18,20,22,-1,-1,-1,24,-1,-1,-1,-1,-1,-1,-1,-1,-1,-1],"split_conditions":[-8.0944824E-1,-9.697764E-1,-7.45317E-1,-1.5469577E0,-8.9281887E-1,1E0,-7.1325135E-1,1E0,-1.207062E0,-9.184714E-1,1E0,-1.1490807E-1,-1.1652027E-2,7.025351E-2,7.1046257E-1,-1.158209E-1,-9.979264E-3,1.017402E-2,-7.0884414E-3,4.833679E-2,9.771103E-2,5.6305084E-2,-8.643085E-3,-3.4643037E-3,-1.22896945E-2],"split_indices":[3,3,3,3,3,2,3,2,3,3,2,0,0,0,3,0,0,0,0,0,0,0,0,0,0],"split_type":[0,0,0,0,0,0,0,0,0,0,0,0,0,0,0,0,0,0,0,0,0,0,0,0,0],"sum_hessian":[5.323E3,1.019E3,4.304E3,8.39E2,1.8E2,2.6E1,4.278E3,1.6E1,8.23E2,9.1E1,8.9E1,1.6E1,1E1,1.5E1,4.263E3,7E0,9E0,4.51E2,3.72E2,5.9E1,3.2E1,4.9E1,4E1,2.795E3,1.468E3],"tree_param":{"num_deleted":"0","num_feature":"5","num_nodes":"25","size_leaf_vector":"0"}},{"base_weights":[-1.3949054E-2,-2.522064E-2,9.675619E-2,-4.442825E-3,-2.7979169E-2,6.1799567E-3,3.280881E-2],"categories":[],"categories_nodes":[],"categories_segments":[],"categories_sizes":[],"default_left":[0,0,0,0,0,0,0],"id":17,"left_children":[1,3,5,-1,-1,-1,-1],"loss_changes":[6.643358E0,2.1180022E0,1.96557E0,0E0,0E0,0E0,0E0],"parents":[2147483647,0,0,1,1,2,2],"right_children":[2,4,6,-1,-1,-1,-1],"split_conditions":[1E0,1E0,1E0,-4.442825E-3,-2.7979169E-2,6.1799567E-3,3.280881E-2],"split_indices":[0,1,1,0,0,0,0],"split_type":[0,0,0,0,0,0,0],"sum_hessian":[5.321E3,4.83E3,4.91E2,4.656E3,1.74E2,2.31E2,2.6E2],"tree_param":{"num_deleted":"0","num_feature":"5","num_nodes":"7","size_leaf_vector":"0"}},{"base_weights":[-1.2156058E-2,3.781429E-2,-2.5290204E-2,7.61228E-3,2.3896965E-1,-1.9812198E-2,-9.371073E-2,5.808351E-2,-3.0118227E-2,-8.157909E-2,4.862398E-1,-1.115932E-1,-1.0824149E-2,2.5479943E-1,-1.8786648E-1,-2.099544E-2,1.4938992E-2,-3.0796183E-2,1.5560248E-3,2.8956975E-3,-1.2556863E-1,4.3214566E-1,7.0368804E-2,-1.8122291E-2,-3.213652E-2,5.152057E-2,-2.7286934E-3,-4.2012896E-2,1.275109E-1,-5.8704973E-3,-4.552959E-2],"categories":[],"categories_nodes":[],"categories_segments":[],"categories_sizes":[],"default_left":[0,0,0,0,0,1,0,0,0,0,0,1,0,0,0,0,0,0,0,0,0,0,0,0,0,0,0,0,0,0,0],"id":18,"left_children":[1,3,5,7,9,11,13,15,17,19,21,23,25,27,29,-1,-1,-1,-1,-1,-1,-1,-1,-1,-1,-1,-1,-1,-1,-1,-1],"loss_changes":[3.5030684E0,6.7478347E0,1.582082E0,1.8432122E0,1.1532676E1,3.2275765E0,1.0318722E1,8.613708E-1,2.423802E0,3.1599207E0,1.878931E1,3.5262823E-1,1.985074E0,1.0860964E1,1.1370611E0,0E0,0E0,0E0,0E0,0E0,0E0,0E0,0E0,0E0,0E0,0E0,0E0,0E0,0E0,0E0,0E0],"parents":[2147483647,0,0,1,1,2,2,3,3,4,4,5,5,6,6,7,7,8,8,9,9,10,10,11,11,12,12,13,13,14,14],"right_children":[2,4,6,8,10,12,14,16,18,20,22,24,26,28,30,-1,-1,-1,-1,-1,-1,-1,-1,-1,-1,-1,-1,-1,-1,-1,-1],"split_conditions":[-6.811857E-1,1E0,1E0,-1.207062E0,-1.1429307E0,-5.593363E-1,-5.272707E-1,-1.5405446E0,-1.1429307E0,-1.1749964E0,-1.0210814E0,-5.6574947E-1,-5.272707E-1,-5.6574947E-1,-2.3868003E-1,-2.099544E-2,1.4938992E-2,-3.0796183E-2,1.5560248E-3,2.8956975E-3,-1.2556863E-1,4.3214566E-1,7.0368804E-2,-1.8122291E-2,-3.213652E-2,5.152057E-2,-2.7286934E-3,-4.2012896E-2,1.275109E-1,-5.8704973E-3,-4.552959E-2],"split_indices":[3,1,1,3,3,3,3,3,3,3,3,3,3,3,3,0,0,0,0,0,0,0,0,0,0,0,0,0,0,0,0],"split_type":[0,0,0,0,0,0,0,0,0,0,0,0,0,0,0,0,0,0,0,0,0,0,0,0,0,0,0,0,0,0,0],"sum_hessian":[5.335E3,1.11E3,4.225E3,9.66E2,1.44E2,3.913E3,3.12E2,4.13E2,5.53E2,6.3E1,8.1E1,3.48E2,3.565E3,6.6E1,2.46E2,3.1E1,3.82E2,1.34E2,4.19E2,5.4E1,9E0,6E0,7.5E1,2.18E2,1.3E2,2.9E1,3.536E3,2.9E1,3.7E1,3.8E1,2.08E2],"tree_param":{"num_deleted":"0","num_feature":"5","num_nodes":"31","size_leaf_vector":"0"}},{"base_weights":[-8.438426E-3,-2.1131963E-2,1.183823E-1,-3.4589546E-3,-2.9512752E-2,5.426495E-3,4.2130396E-2],"categories":[],"categories_nodes":[],"categories_segments":[],"categories_sizes":[],"default_left":[0,0,0,0,0,0,0],"id":19,"left_children":[1,3,5,-1,-1,-1,-1],"loss_changes":[8.492605E0,2.6661825E0,3.6478634E0,0E0,0E0,0E0,0E0],"parents":[2147483647,0,0,1,1,2,2],"right_children":[2,4,6,-1,-1,-1,-1],"split_conditions":[1E0,1E0,1E0,-3.4589546E-3,-2.9512752E-2,5.426495E-3,4.2130396E-2],"split_indices":[0,1,1,0,0,0,0],"split_type":[0,0,0,0,0,0,0],"sum_hessian":[5.273E3,4.794E3,4.79E2,4.615E3,1.79E2,2.26E2,2.53E2],"tree_param":{"num_deleted":"0","num_feature":"5","num_nodes":"7","size_leaf_vector":"0"}},{"base_weights":[-7.497818E-3,-1.7139183E-2,8.913322E-2,-4.8118595E-2,-5.4513053E-3,2.9789957E-1,-1.6547182E-1,-2.5444767E-2,-1.21324174E-1,5.4011323E-2,-6.4345687E-3,4.7403935E-1,2.2510958E-1,-9.799007E-2,-1.5164585E-1,-1.7833024E-2,-2.9693684E-3,-4.479643E-2,-2.332495E-2,1.9862682E-3,-3.121055E-3,3.8788337E-2,2.1490239E-1,-2.848432E-2,8.568258E-2,4.6812158E-2,-3.322507E-2],"categories":[],"categories_nodes":[],"categories_segments":[],"categories_sizes":[],"default_left":[0,1,0,1,0,0,0,1,0,0,0,0,0,0,0,0,0,0,0,0,0,0,0,0,0,0,0],"id":20,"left_children":[1,3,5,7,9,11,13,15,17,-1,19,21,23,-1,25,-1,-1,-1,-1,-1,-1,-1,-1,-1,-1,-1,-1],"loss_changes":[4.9085546E0,1.734118E0,2.5456413E1,2.1746368E0,9.0011454E-1,3.2652702E0,8.2858896E-1,6.7316943E-1,2.6869726E-1,0E0,4.645096E-1,1.1889828E1,1.245996E1,0E0,5.4703236E-1,0E0,0E0,0E0,0E0,0E0,0E0,0E0,0E0,0E0,0E0,0E0,0E0],"parents":[2147483647,0,0,1,1,2,2,3,3,4,4,5,5,6,6,7,7,8,8,10,10,11,11,12,12,14,14],"right_children":[2,4,6,8,10,12,14,16,18,-1,20,22,24,-1,26,-1,-1,-1,-1,-1,-1,-1,-1,-1,-1,-1,-1],"split_conditions":[1E0,-5.593363E-1,-2.3868003E-1,-6.362938E-1,-5.465101E-1,-8.9923203E-1,-9.117814E-2,-1.405869E0,-6.2346756E-1,5.4011323E-2,-1.1041752E-1,-1.1301045E0,-7.45317E-1,-9.799007E-2,-7.193877E-2,-1.7833024E-2,-2.9693684E-3,-4.479643E-2,-2.332495E-2,1.9862682E-3,-3.121055E-3,3.8788337E-2,2.1490239E-1,-2.848432E-2,8.568258E-2,4.6812158E-2,-3.322507E-2],"split_indices":[0,3,3,3,3,3,3,3,3,0,3,3,3,0,3,0,0,0,0,0,0,0,0,0,0,0,0],"split_type":[0,0,0,0,0,0,0,0,0,0,0,0,0,0,0,0,0,0,0,0,0,0,0,0,0,0,0],"sum_hessian":[5.266E3,4.789E3,4.77E2,1.311E3,3.478E3,2.62E2,2.15E2,1.002E3,3.09E2,1.2E1,3.466E3,7.5E1,1.87E2,8E0,2.07E2,1.59E2,8.43E2,2.9E1,2.8E2,1.201E3,2.265E3,5E1,2.5E1,6.3E1,1.24E2,3E0,2.04E2],"tree_param":{"num_deleted":"0","num_feature":"5","num_nodes":"27","size_leaf_vector":"0"}},{"base_weights":[-1.054994E-2,6.288689E-2,-1.743766E-2,-1.6138768E-2,1.18677884E-1,-1.444144E-1,-1.3511286E-2,8.406051E-2,-1.8526235E-1,1.3096066E-1,-2.1131355E-1,-1.7653295E-1,6.675915E-2,8.065301E-2,-2.0414455E-2,-1.0436514E-2,2.8879102E-2,-5.473372E-2,-5.6267874E-3,2.5746526E-2,4.3615397E-2,-1.7210152E-2,-5.3559687E-2,-6.910873E-2,-3.1492516E-2,3.0262123E-3,1.7482076E-2,3.6511805E-2,9.904561E-3,-2.0191152E-2,-3.767823E-3],"categories":[],"categories_nodes":[],"categories_segments":[],"categories_sizes":[],"default_left":[0,0,0,0,0,0,0,0,0,0,0,0,0,0,0,0,0,0,0,0,0,0,0,0,0,0,0,0,0,0,0],"id":21,"left_children":[1,3,5,7,9,11,13,15,17,19,21,23,25,27,29,-1,-1,-1,-1,-1,-1,-1,-1,-1,-1,-1,-1,-1,-1,-1,-1],"loss_changes":[2.6955585E0,2.0167918E0,2.4265256E0,3.235325E0,1.1139336E0,1.0020432E0,3.0736976E0,8.649044E-1,8.4107184E-1,1.4064169E-1,3.5670847E-2,4.6540546E-1,1.6063705E-2,1.0000598E0,8.229126E-1,0E0,0E0,0E0,0E0,0E0,0E0,0E0,0E0,0E0,0E0,0E0,0E0,0E0,0E0,0E0,0E0],"parents":[2147483647,0,0,1,1,2,2,3,3,4,4,5,5,6,6,7,7,8,8,9,9,10,10,11,11,12,12,13,13,14,14],"right_children":[2,4,6,8,10,12,14,16,18,20,22,24,26,28,30,-1,-1,-1,-1,-1,-1,-1,-1,-1,-1,-1,-1,-1,-1,-1,-1],"split_conditions":[-1.207062E0,-1.405869E0,-1.1429307E0,-1.5277183E0,1E0,1E0,-8.9281887E-1,-1.5405446E0,-1.508479E0,-1.2391276E0,-1.2776065E0,-1.1878227E0,-1.1878227E0,-1.0467339E0,-7.1325135E-1,-1.0436514E-2,2.8879102E-2,-5.473372E-2,-5.6267874E-3,2.5746526E-2,4.3615397E-2,-1.7210152E-2,-5.3559687E-2,-6.910873E-2,-3.1492516E-2,3.0262123E-3,1.7482076E-2,3.6511805E-2,9.904561E-3,-2.0191152E-2,-3.767823E-3],"split_indices":[3,3,3,3,2,2,3,3,3,3,3,3,3,3,3,0,0,0,0,0,0,0,0,0,0,0,0,0,0,0,0],"split_type":[0,0,0,0,0,0,0,0,0,0,0,0,0,0,0,0,0,0,0,0,0,0,0,0,0,0,0,0,0,0,0],"sum_hessian":[5.326E3,4.56E2,4.87E3,1.89E2,2.67E2,1.45E2,4.725E3,1.19E2,7E1,2.58E2,9E0,1.26E2,1.9E1,3.22E2,4.403E3,3.4E1,8.5E1,4.7E1,2.3E1,2.35E2,2.3E1,3E0,6E0,1.7E1,1.09E2,5E0,1.4E1,8.4E1,2.38E2,1.38E2,4.265E3],"tree_param":{"num_deleted":"0","num_feature":"5","num_nodes":"31","size_leaf_vector":"0"}},{"base_weights":[-1.3463318E-3,-4.583156E-3,7.3982794E-3,-9.165863E-4,-1.27066E-3],"categories":[],"categories_nodes":[],"categories_segments":[],"categories_sizes":[],"default_left":[0,0,0,0,0],"id":22,"left_children":[1,3,-1,-1,-1],"loss_changes":[6.2325245E-1,1.5240759E-3,0E0,0E0,0E0],"parents":[2147483647,0,0,1,1],"right_children":[2,4,-1,-1,-1],"split_conditions":[1E0,1E0,7.3982794E-3,-9.165863E-4,-1.27066E-3],"split_indices":[1,2,0,0,0],"split_type":[0,0,0,0,0],"sum_hessian":[5.262E3,4.835E3,4.27E2,4.212E3,6.23E2],"tree_param":{"num_deleted":"0","num_feature":"5","num_nodes":"5","size_leaf_vector":"0"}},{"base_weights":[-1.7130948E-3,1.3448703E-1,-8.442012E-3,3.0321798E-1,6.044109E-2,-2.7222398E-1,-3.2858283E-3,9.946827E-3,4.383826E-1,5.1612623E-2,7.356016E-2,3.3685988E-1,-3.4610555E-1,1.3967093E-2,-2.9425748E-2,2.0900952E-2,-4.9271032E-2,1.4655928E-1,7.882056E-2,-3.8741075E-2,1.2258171E-2,1.2100614E-1,2.47308E-2,-5.8623485E-2,-1.1407499E-1,-6.369542E-3,1.8816467E-2,-4.6884775E-2,-3.9364407E-3],"categories":[],"categories_nodes":[],"categories_segments":[],"categories_sizes":[],"default_left":[0,0,0,0,0,0,0,0,0,0,0,0,0,0,0,0,0,0,0,0,0,0,0,0,0,0,0,0,0],"id":23,"left_children":[1,3,5,7,9,11,13,15,17,19,-1,21,23,25,27,-1,-1,-1,-1,-1,-1,-1,-1,-1,-1,-1,-1,-1,-1],"loss_changes":[4.8667235E0,3.1051335E0,6.881252E0,3.0082707E0,4.2972666E-1,4.4815974E0,2.2391253E0,5.7107735E-1,5.888653E-1,2.8366852E-1,0E0,5.0900686E-1,9.9637794E-1,1.0024074E1,4.0826116E0,0E0,0E0,0E0,0E0,0E0,0E0,0E0,0E0,0E0,0E0,0E0,0E0,0E0,0E0],"parents":[2147483647,0,0,1,1,2,2,3,3,4,4,5,5,6,6,7,7,8,8,9,9,11,11,12,12,13,13,14,14],"right_children":[2,4,6,8,10,12,14,16,18,20,-1,22,24,26,28,-1,-1,-1,-1,-1,-1,-1,-1,-1,-1,-1,-1,-1,-1],"split_conditions":[-1.4480057E0,-1.508479E0,-1.508479E0,-1.4663912E0,-1.3738034E0,-1.4418772E0,-8.748228E-2,-1.4970336E0,-1.5405446E0,-1.4970336E0,7.356016E-2,-1.5341314E0,-1.2212518E0,-3.6939254E-1,3.5087395E-2,2.0900952E-2,-4.9271032E-2,1.4655928E-1,7.882056E-2,-3.8741075E-2,1.2258171E-2,1.2100614E-1,2.47308E-2,-5.8623485E-2,-1.1407499E-1,-6.369542E-3,1.8816467E-2,-4.6884775E-2,-3.9364407E-3],"split_indices":[4,3,3,4,3,4,4,4,3,4,0,3,4,4,4,0,0,0,0,0,0,0,0,0,0,0,0,0,0],"split_type":[0,0,0,0,0,0,0,0,0,0,0,0,0,0,0,0,0,0,0,0,0,0,0,0,0,0,0,0,0],"sum_hessian":[5.308E3,2.49E2,5.059E3,7.5E1,1.74E2,9.6E1,4.963E3,2.4E1,5.1E1,1.7E2,4E0,1E1,8.6E1,2.99E3,1.973E3,1.8E1,6E0,8E0,4.3E1,4E0,1.66E2,4E0,6E0,6.6E1,2E1,1.886E3,1.104E3,1.02E2,1.871E3],"tree_param":{"num_deleted":"0","num_feature":"5","num_nodes":"29","size_leaf_vector":"0"}},{"base_weights":[-3.6614868E-4,1.10559046E-1,-8.700588E-3,1.5779063E-1,8.267224E-2,-6.0058266E-2,5.6436006E-3,1.20259516E-1,3.4850967E-1,9.9544086E-2,1.6252264E-2,-3.768301E-2,-3.218003E-1,9.049135E-2,3.4341002E-3,1.4936977E-2,3.4635235E-2,1.77525E-2,8.451956E-2,1.7621908E-2,5.7585865E-2,1.6676672E-2,-3.0937454E-2,-1.0561443E-2,1.933331E-1,-7.0905425E-2,-4.8797186E-2,6.5756612E-3,-4.720338E-3],"categories":[],"categories_nodes":[],"categories_segments":[],"categories_sizes":[],"default_left":[0,0,0,0,0,0,0,0,0,0,0,0,0,0,0,0,0,0,0,0,0,0,0,0,0,0,0,0,0],"id":24,"left_children":[1,3,5,7,9,11,13,15,17,19,21,23,25,-1,27,-1,-1,-1,-1,-1,-1,-1,-1,-1,-1,-1,-1,-1,-1],"loss_changes":[4.921147E0,4.7693062E-1,3.6476624E0,9.387202E-1,2.6285028E-1,6.318799E0,3.6358235E0,2.4285316E-1,2.7937126E-1,4.9026668E-1,5.179365E-1,1.2094023E1,4.1989326E-2,0E0,2.783338E0,0E0,0E0,0E0,0E0,0E0,0E0,0E0,0E0,0E0,0E0,0E0,0E0,0E0,0E0],"parents":[2147483647,0,0,1,1,2,2,3,3,4,4,5,5,6,6,7,7,8,8,9,9,10,10,11,11,12,12,14,14],"right_children":[2,4,6,8,10,12,14,16,18,20,22,24,26,-1,28,-1,-1,-1,-1,-1,-1,-1,-1,-1,-1,-1,-1,-1,-1],"split_conditions":[-1.313179E0,-1.4541342E0,-5.4711854E-1,1E0,1E0,-5.593755E-1,-5.2260464E-1,-1.4602627E0,-1.4663912E0,-1.337693E0,-1.4418772E0,-5.90018E-1,1E0,9.049135E-2,-8.748228E-2,1.4936977E-2,3.4635235E-2,1.77525E-2,8.451956E-2,1.7621908E-2,5.7585865E-2,1.6676672E-2,-3.0937454E-2,-1.0561443E-2,1.933331E-1,-7.0905425E-2,-4.8797186E-2,6.5756612E-3,-4.720338E-3],"split_indices":[4,4,4,2,2,4,4,4,4,4,4,4,2,0,4,0,0,0,0,0,0,0,0,0,0,0,0,0,0],"split_type":[0,0,0,0,0,0,0,0,0,0,0,0,0,0,0,0,0,0,0,0,0,0,0,0,0,0,0,0,0],"sum_hessian":[5.321E3,3.71E2,4.95E3,1.36E2,2.35E2,1.08E3,3.87E3,1.15E2,2.1E1,1.87E2,4.8E1,9.96E2,8.4E1,1.9E1,3.851E3,5.6E1,5.9E1,4E0,1.7E1,1.73E2,1.4E1,3.5E1,1.3E1,9.84E2,1.2E1,6.9E1,1.5E1,1.855E3,1.996E3],"tree_param":{"num_deleted":"0","num_feature":"5","num_nodes":"29","size_leaf_vector":"0"}},{"base_weights":[-3.7006696E-3,1.3149692E-1,-7.112867E-3,8.058238E-2,1.7823146E-1,-1.4084734E-1,-3.6487512E-3,-2.366071E-1,1.229433E-1,1.4823884E-1,1.2514831E-1,9.114801E-2,-3.0262807E-1,-4.141564E-2,4.9326187E-3,3.4164697E-2,-8.333234E-2,4.2651594E-2,1.8389815E-2,5.5535235E-2,2.1016274E-2,3.3934034E-2,-8.44329E-3,-1.9471878E-2,-7.2068326E-2,-1.721653E-3,-1.1153278E-2,1.0503282E-1,-9.5355645E-4],"categories":[],"categories_nodes":[],"categories_segments":[],"categories_sizes":[],"default_left":[0,0,0,0,0,0,0,0,0,0,0,0,0,0,0,0,0,0,0,0,0,0,0,0,0,0,0,0,0],"id":25,"left_children":[1,3,5,7,9,11,13,15,17,-1,19,21,23,25,27,-1,-1,-1,-1,-1,-1,-1,-1,-1,-1,-1,-1,-1,-1],"loss_changes":[2.4736154E0,2.9972744E-1,2.4219341E0,9.0245783E-1,1.816356E0,4.981858E0,1.6524234E0,5.7633966E-1,1.46671E-1,0E0,1.9356143E-1,5.154083E-1,6.321602E-1,3.662926E-1,1.9495178E1,0E0,0E0,0E0,0E0,0E0,0E0,0E0,0E0,0E0,0E0,0E0,0E0,0E0,0E0],"parents":[2147483647,0,0,1,1,2,2,3,3,4,4,5,5,6,6,7,7,8,8,10,10,11,11,12,12,13,13,14,14],"right_children":[2,4,6,8,10,12,14,16,18,-1,20,22,24,26,28,-1,-1,-1,-1,-1,-1,-1,-1,-1,-1,-1,-1,-1,-1],"split_conditions":[-1.4541342E0,-1.4602627E0,-1.405869E0,-1.5341314E0,-1.5341314E0,-1.337693E0,-6.2066036E-1,-1.5405446E0,-1.508479E0,1.4823884E-1,-1.5277183E0,-1.4480057E0,-1.5469577E0,-1.1557571E0,-8.9281887E-1,3.4164697E-2,-8.333234E-2,4.2651594E-2,1.8389815E-2,5.5535235E-2,2.1016274E-2,3.3934034E-2,-8.44329E-3,-1.9471878E-2,-7.2068326E-2,-1.721653E-3,-1.1153278E-2,1.0503282E-1,-9.5355645E-4],"split_indices":[4,4,3,3,3,4,4,3,3,0,3,4,3,3,3,0,0,0,0,0,0,0,0,0,0,0,0,0,0],"split_type":[0,0,0,0,0,0,0,0,0,0,0,0,0,0,0,0,0,0,0,0,0,0,0,0,0,0,0,0,0],"sum_hessian":[5.359E3,1.31E2,5.228E3,6.4E1,6.7E1,1.31E2,5.097E3,7E0,5.7E1,5E0,6.2E1,5.4E1,7.7E1,9.43E2,4.154E3,2E0,5E0,1.6E1,4.1E1,8E0,5.4E1,3.5E1,1.9E1,1.3E1,6.4E1,2.46E2,6.97E2,7.7E1,4.077E3],"tree_param":{"num_deleted":"0","num_feature":"5","num_nodes":"29","size_leaf_vector":"0"}},{"base_weights":[-1.5210164E-3,-5.4244394E-3,7.910479E-3,-1.5707526E-3,1.632053E-3],"categories":[],"categories_nodes":[],"categories_segments":[],"categories_sizes":[],"default_left":[0,0,0,0,0],"id":26,"left_children":[1,3,-1,-1,-1],"loss_changes":[8.207623E-1,1.3238856E-1,0E0,0E0,0E0],"parents":[2147483647,0,0,1,1],"right_children":[2,4,-1,-1,-1],"split_conditions":[1E0,1E0,7.910479E-3,-1.5707526E-3,1.632053E-3],"split_indices":[0,2,0,0,0],"split_type":[0,0,0,0,0],"sum_hessian":[5.363E3,4.878E3,4.85E2,4.221E3,6.57E2],"tree_param":{"num_deleted":"0","num_feature":"5","num_nodes":"5","size_leaf_vector":"0"}},{"base_weights":[4.1429964E-3,3.157139E-2,-1.1363649E-2,-2.9771575E-3,2.9609698E-1,-8.262501E-3,-7.55326E-2,6.935188E-2,-2.3324225E-2,2.0543694E0,1.868817E-1,-1.4112641E-2,1.9861868E-2,-2.1132489E-1,-2.2920486E-2,2.8537054E-2,7.266298E-3,-5.335984E-2,-2.1042337E-3,6.864369E-1,-1.13900766E-1,5.84555E-2,-3.9902806E-2,-8.368594E-4,-9.274309E-3,2.863569E-2,2.9831384E-3,-4.5819398E-2,-1.8511651E-2,-1.5951911E-2,-3.2372836E-3],"categories":[],"categories_nodes":[],"categories_segments":[],"categories_sizes":[],"default_left":[0,0,0,0,0,1,0,0,0,0,0,0,0,0,0,0,0,0,0,0,0,0,0,0,0,0,0,0,0,0,0],"id":27,"left_children":[1,3,5,7,9,11,13,15,17,19,21,23,25,27,29,-1,-1,-1,-1,-1,-1,-1,-1,-1,-1,-1,-1,-1,-1,-1,-1],"loss_changes":[2.2834892E0,1.7721352E1,6.819371E-1,2.527027E0,4.2630844E1,5.3879195E-1,1.1239586E0,8.6701846E-1,4.111498E0,4.276765E1,7.3621325E0,8.245901E-1,3.6972082E-1,1.796031E-2,4.460644E-2,0E0,0E0,0E0,0E0,0E0,0E0,0E0,0E0,0E0,0E0,0E0,0E0,0E0,0E0,0E0,0E0],"parents":[2147483647,0,0,1,1,2,2,3,3,4,4,5,5,6,6,7,7,8,8,9,9,10,10,11,11,12,12,13,13,14,14],"right_children":[2,4,6,8,10,12,14,16,18,20,22,24,26,28,30,-1,-1,-1,-1,-1,-1,-1,-1,-1,-1,-1,-1,-1,-1,-1,-1],"split_conditions":[-3.1563756E-1,-3.6939254E-1,2.259727E0,-1.313179E0,-9.697764E-1,1.447972E0,1.6724315E0,-1.3930427E0,-1.405869E0,-2.345659E-1,-8.748228E-2,6.663212E-1,1.4607983E0,2.688721E0,2.057219E0,2.8537054E-2,7.266298E-3,-5.335984E-2,-2.1042337E-3,6.864369E-1,-1.13900766E-1,5.84555E-2,-3.9902806E-2,-8.368594E-4,-9.274309E-3,2.863569E-2,2.9831384E-3,-4.5819398E-2,-1.8511651E-2,-1.5951911E-2,-3.2372836E-3],"split_indices":[3,4,4,4,3,3,3,3,3,4,4,4,3,4,3,0,0,0,0,0,0,0,0,0,0,0,0,0,0,0,0],"split_type":[0,0,0,0,0,0,0,0,0,0,0,0,0,0,0,0,0,0,0,0,0,0,0,0,0,0,0,0,0,0,0],"sum_hessian":[5.367E3,1.938E3,3.429E3,1.715E3,2.23E2,3.272E3,1.57E2,3.76E2,1.339E3,1.2E1,2.11E2,2.709E3,5.63E2,4.3E1,1.14E2,1.28E2,2.48E2,7.2E1,1.267E3,8E0,4E0,1.7E2,4.1E1,2.027E3,6.82E2,2.5E1,5.38E2,4E1,3E0,1.3E1,1.01E2],"tree_param":{"num_deleted":"0","num_feature":"5","num_nodes":"31","size_leaf_vector":"0"}},{"base_weights":[-1.0856373E-3,2.1624327E-2,-7.96835E-3,8.129725E-3,4.1902307E-1,-1.7763369E-2,-5.172841E-3,1.7930768E-2,-5.1877417E-2,4.9910665E-1,-4.1255202E-2,6.9061797E-3,-1.1949852E-2,2.470123E-3,4.4491414E-2,-4.2669125E-2,1.2372998E-3,7.6700434E-2,1.3340156E-1,9.98911E-3,-2.5150398E-2,-1.1049149E-3,2.247611E-2,-1.3374785E-2,-3.2805844E-4],"categories":[],"categories_nodes":[],"categories_segments":[],"categories_sizes":[],"default_left":[0,0,0,0,0,0,0,0,0,0,0,0,0,0,0,0,0,0,0,0,0,0,0,0,0],"id":28,"left_children":[1,3,5,7,9,-1,11,13,15,17,19,21,23,-1,-1,-1,-1,-1,-1,-1,-1,-1,-1,-1,-1],"loss_changes":[8.393801E-1,6.694653E0,8.822372E-1,7.119825E-1,1.5318809E0,0E0,3.2563838E-1,1.2415905E0,1.4871695E0,4.05838E-1,5.451008E-2,1.7426801E0,1.369333E0,0E0,0E0,0E0,0E0,0E0,0E0,0E0,0E0,0E0,0E0,0E0,0E0],"parents":[2147483647,0,0,1,1,2,2,3,3,4,4,6,6,7,7,8,8,9,9,10,10,11,11,12,12],"right_children":[2,4,6,8,10,-1,12,14,16,18,20,22,24,-1,-1,-1,-1,-1,-1,-1,-1,-1,-1,-1,-1],"split_conditions":[-5.7216257E-1,-6.2346756E-1,-5.6574947E-1,-8.671664E-1,1E0,-1.7763369E-2,-1.1041752E-1,-8.8640577E-1,-7.45317E-1,-6.042282E-1,-6.042282E-1,-1.2324377E-1,-1.42206345E-2,2.470123E-3,4.4491414E-2,-4.2669125E-2,1.2372998E-3,7.6700434E-2,1.3340156E-1,9.98911E-3,-2.5150398E-2,-1.1049149E-3,2.247611E-2,-1.3374785E-2,-3.2805844E-4],"split_indices":[3,3,3,3,2,0,3,3,3,3,3,3,3,0,0,0,0,0,0,0,0,0,0,0,0],"split_type":[0,0,0,0,0,0,0,0,0,0,0,0,0,0,0,0,0,0,0,0,0,0,0,0,0],"sum_hessian":[5.368E3,1.248E3,4.12E3,1.208E3,4E1,1.44E2,3.976E3,1.039E3,1.69E2,3.4E1,6E0,1.429E3,2.547E3,1.008E3,3.1E1,4.6E1,1.23E2,1.9E1,1.5E1,3E0,3E0,1.275E3,1.54E2,4.25E2,2.122E3],"tree_param":{"num_deleted":"0","num_feature":"5","num_nodes":"25","size_leaf_vector":"0"}},{"base_weights":[2.9131144E-3,4.788572E-2,-5.525519E-4,-4.5056592E-4,5.0983567E-2,-8.291227E-2,2.7105457E-3,5.7281997E-2,1.8307028E-2,-1.1956858E-2,-8.6753316E-2,1.2236343E-2,-1.5338151E-2,1.0965444E-2,3.009291E-2,-6.321897E-2,7.306684E-3,-2.3619514E-2,-1.7002983E-2,1.2049719E-3,4.702665E-2,-7.5745927E-3,6.7165523E-4],"categories":[],"categories_nodes":[],"categories_segments":[],"categories_sizes":[],"default_left":[0,0,0,0,0,0,0,0,0,0,0,0,0,0,0,0,0,0,0,0,0,0,0],"id":29,"left_children":[1,3,5,-1,7,9,11,13,15,-1,17,19,21,-1,-1,-1,-1,-1,-1,-1,-1,-1,-1],"loss_changes":[8.2343507E-1,5.8695316E-2,1.3187014E0,0E0,7.221997E-2,1.3717651E-2,8.116889E-1,1.22365E-1,3.211109E-1,0E0,1.4856219E-2,4.249652E0,6.2688696E-1,0E0,0E0,0E0,0E0,0E0,0E0,0E0,0E0,0E0,0E0],"parents":[2147483647,0,0,1,1,2,2,4,4,5,5,6,6,7,7,8,8,10,10,11,11,12,12],"right_children":[2,4,6,-1,8,10,12,14,16,-1,18,20,22,-1,-1,-1,-1,-1,-1,-1,-1,-1,-1],"split_conditions":[-1.313179E0,-1.4970336E0,-1.2212518E0,-4.5056592E-4,1E0,-1.2764082E0,5.253661E-1,-1.337693E0,-1.4663912E0,-1.1956858E-2,-1.2580227E0,4.8246673E-1,1.3465829E0,1.0965444E-2,3.009291E-2,-6.321897E-2,7.306684E-3,-2.3619514E-2,-1.7002983E-2,1.2049719E-3,4.702665E-2,-7.5745927E-3,6.7165523E-4],"split_indices":[4,4,4,0,2,4,4,4,4,0,4,4,4,0,0,0,0,0,0,0,0,0,0],"split_type":[0,0,0,0,0,0,0,0,0,0,0,0,0,0,0,0,0,0,0,0,0,0,0],"sum_hessian":[5.282E3,3.77E2,4.905E3,2.2E1,3.55E2,1.86E2,4.719E3,2.97E2,5.8E1,2.6E1,1.6E2,3.089E3,1.63E3,2.82E2,1.5E1,2E0,5.6E1,2.6E1,1.34E2,2.998E3,9.1E1,7.69E2,8.61E2],"tree_param":{"num_deleted":"0","num_feature":"5","num_nodes":"23","size_leaf_vector":"0"}},{"base_weights":[1.2958689E-3,2.3320997E-2,-4.097185E-3,-6.214377E-3,2.1911906E-1,-2.5929457E-1,-7.040805E-4,-1.8656757E-2,7.9005145E-2,1.611437E-1,4.9946895E-1,-1.1295372E-1,-1.5427783E-1,1.5859946E-3,-2.7392E-2,-3.309041E-3,-1.9313704E-2,3.761857E-2,-7.414294E-3,6.9516376E-2,-1.3929208E-2,1.4130437E-1,1.4658307E-3,-4.954207E-3,-3.3256035E-2,-2.3730309E-3,3.1997582E-3,3.8951427E-2,-2.4024518E-2],"categories":[],"categories_nodes":[],"categories_segments":[],"categories_sizes":[],"default_left":[0,0,0,0,0,0,0,0,0,0,0,0,0,1,0,0,0,0,0,0,0,0,0,0,0,0,0,0,0],"id":30,"left_children":[1,3,5,7,9,11,13,15,17,19,21,23,-1,25,27,-1,-1,-1,-1,-1,-1,-1,-1,-1,-1,-1,-1,-1,-1],"loss_changes":[6.3106936E-1,6.0445642E0,3.6955276E0,9.653172E-1,2.1462283E0,3.8126493E0,2.575308E-1,1.6732803E-1,1.3340716E0,4.4660945E0,1.959549E0,1.7480695E-1,0E0,6.8287146E-1,6.189164E0,0E0,0E0,0E0,0E0,0E0,0E0,0E0,0E0,0E0,0E0,0E0,0E0,0E0,0E0],"parents":[2147483647,0,0,1,1,2,2,3,3,4,4,5,5,6,6,7,7,8,8,9,9,10,10,11,11,13,13,14,14],"right_children":[2,4,6,8,10,12,14,16,18,20,22,24,-1,26,28,-1,-1,-1,-1,-1,-1,-1,-1,-1,-1,-1,-1,-1,-1],"split_conditions":[-8.0944824E-1,1E0,-6.94012E-1,-9.697764E-1,-8.8640577E-1,1E0,1E0,-9.8260266E-1,-8.9281887E-1,-1.001842E0,-8.671664E-1,-7.45317E-1,-1.5427783E-1,-1.42206345E-2,-3.7976882E-1,-3.309041E-3,-1.9313704E-2,3.761857E-2,-7.414294E-3,6.9516376E-2,-1.3929208E-2,1.4130437E-1,1.4658307E-3,-4.954207E-3,-3.3256035E-2,-2.3730309E-3,3.1997582E-3,3.8951427E-2,-2.4024518E-2],"split_indices":[3,0,3,3,3,0,0,3,3,3,3,3,0,3,3,0,0,0,0,0,0,0,0,0,0,0,0,0,0],"split_type":[0,0,0,0,0,0,0,0,0,0,0,0,0,0,0,0,0,0,0,0,0,0,0,0,0,0,0,0,0],"sum_hessian":[5.311E3,1.044E3,4.267E3,9.08E2,1.36E2,5.5E1,4.212E3,7.93E2,1.15E2,1.14E2,2.2E1,4.3E1,1.2E1,3.88E3,3.32E2,7.64E2,2.9E1,6.1E1,5.4E1,6.5E1,4.9E1,1.6E1,6E0,1.5E1,2.8E1,1.996E3,1.884E3,9.6E1,2.36E2],"tree_param":{"num_deleted":"0","num_feature":"5","num_nodes":"29","size_leaf_vector":"0"}},{"base_weights":[3.3536183E-3,2.8476212E-2,-4.145476E-3,-3.8523765E-3,6.5733147E-1,3.212927E-2,-8.691094E-3,-1.4392884E-2,3.4812787E-1,1.0286341E0,2.2495162E-1,-4.781647E-3,1.0720498E-1,-1.03345424E-1,-5.7515544E-3,-1.8293571E-3,-1.2477429E-1,-1.2527571E-2,2.3114724E-1,-1.1961807E-1,2.6823255E-1,1.775798E-2,2.9682997E-1,1.7459465E-3,-5.0442484E-3,1.2209817E-1,1.1445235E-2,-3.2448903E-2,2.711883E-1,5.685924E-2,-1.5037446E-3],"categories":[],"categories_nodes":[],"categories_segments":[],"categories_sizes":[],"default_left":[0,0,0,0,0,0,0,0,0,0,0,0,0,0,0,0,0,0,0,0,0,0,0,0,0,0,0,0,0,0,0],"id":31,"left_children":[1,3,5,7,9,11,13,15,17,19,21,23,25,27,29,-1,-1,-1,-1,-1,-1,-1,-1,-1,-1,-1,-1,-1,-1,-1,-1],"loss_changes":[1.0055913E0,2.4947447E1,6.7814666E-1,4.33835E0,9.401236E0,1.2696825E0,1.0160953E0,3.7335804E0,1.0499807E1,1.3445171E1,4.7193193E0,7.779795E-2,3.742248E0,8.050476E0,1.383211E0,0E0,0E0,0E0,0E0,0E0,0E0,0E0,0E0,0E0,0E0,0E0,0E0,0E0,0E0,0E0,0E0],"parents":[2147483647,0,0,1,1,2,2,3,3,4,4,5,5,6,6,7,7,8,8,9,9,10,10,11,11,12,12,13,13,14,14],"right_children":[2,4,6,8,10,12,14,16,18,20,22,24,26,28,30,-1,-1,-1,-1,-1,-1,-1,-1,-1,-1,-1,-1,-1,-1,-1,-1],"split_conditions":[-5.7216257E-1,-2.652083E-1,-4.3680587E-1,-6.2346756E-1,-8.671664E-1,-5.90018E-1,-5.593363E-1,-2.8972226E-1,-6.819452E-1,-1.1301045E0,-6.9096826E-2,-6.2066036E-1,-5.593755E-1,3.5087395E-2,-5.465101E-1,-1.8293571E-3,-1.2477429E-1,-1.2527571E-2,2.3114724E-1,-1.1961807E-1,2.6823255E-1,1.775798E-2,2.9682997E-1,1.7459465E-3,-5.0442484E-3,1.2209817E-1,1.1445235E-2,-3.2448903E-2,2.711883E-1,5.685924E-2,-1.5037446E-3],"split_indices":[3,4,4,3,3,4,3,4,4,3,4,4,4,4,3,0,0,0,0,0,0,0,0,0,0,0,0,0,0,0,0],"split_type":[0,0,0,0,0,0,0,0,0,0,0,0,0,0,0,0,0,0,0,0,0,0,0,0,0,0,0,0,0,0,0],"sum_hessian":[5.336E3,1.226E3,4.11E3,1.167E3,5.9E1,4.57E2,3.653E3,1.134E3,3.3E1,3.1E1,2.8E1,3.07E2,1.5E2,1.09E2,3.544E3,1.124E3,1E1,2.2E1,1.1E1,4E0,2.7E1,2.6E1,2E0,1.83E2,1.24E2,1.4E1,1.36E2,1.06E2,3E0,1.7E1,3.527E3],"tree_param":{"num_deleted":"0","num_feature":"5","num_nodes":"31","size_leaf_vector":"0"}},{"base_weights":[2.5901335E-4,-5.3888806E-3,1.1954146E-2,-1.0814379E-3,-1.4600605E-3],"categories":[],"categories_nodes":[],"categories_segments":[],"categories_sizes":[],"default_left":[0,0,0,0,0],"id":32,"left_children":[1,3,-1,-1,-1],"loss_changes":[1.7054838E0,1.7766953E-3,0E0,0E0,0E0],"parents":[2147483647,0,0,1,1],"right_children":[2,4,-1,-1,-1],"split_conditions":[1E0,1E0,1.1954146E-2,-1.0814379E-3,-1.4600605E-3],"split_indices":[0,2,0,0,0],"split_type":[0,0,0,0,0],"sum_hessian":[5.327E3,4.845E3,4.82E2,4.206E3,6.39E2],"tree_param":{"num_deleted":"0","num_feature":"5","num_nodes":"5","size_leaf_vector":"0"}},{"base_weights":[-2.5924707E-3,1.8311076E-2,-4.7234455E-3,-9.481225E-3,3.087349E-1,-8.143974E-2,-1.9555062E-3,-2.0579126E-2,4.354535E-2,5.8981054E-2,5.7310885E-1,-2.9488271E-2,-1.467045E-1,2.3058325E-2,-4.6293642E-3,-1.4316235E-3,-1.4068107E-2,3.1317417E-2,-5.6301825E-2,-8.708657E-3,1.135251E-2,-3.4589686E-3,3.7182406E-2,-1.7659139E-4,-1.0543152E-2],"categories":[],"categories_nodes":[],"categories_segments":[],"categories_sizes":[],"default_left":[0,0,0,0,0,0,0,0,0,0,0,0,0,0,0,0,0,0,0,0,0,0,0,0,0],"id":33,"left_children":[1,3,5,7,9,11,13,15,-1,17,-1,19,-1,21,23,-1,-1,-1,-1,-1,-1,-1,-1,-1,-1],"loss_changes":[2.3688734E-1,3.974128E0,1.0244105E0,1.0871786E0,2.5832233E1,5.365818E0,3.1164974E-1,2.7355164E-1,0E0,1.2194443E0,0E0,1.5840258E-1,0E0,2.7423315E0,7.266962E-1,0E0,0E0,0E0,0E0,0E0,0E0,0E0,0E0,0E0,0E0],"parents":[2147483647,0,0,1,1,2,2,3,3,4,4,5,5,6,6,7,7,9,9,11,11,13,13,14,14],"right_children":[2,4,6,8,10,12,14,16,-1,18,-1,20,-1,22,24,-1,-1,-1,-1,-1,-1,-1,-1,-1,-1],"split_conditions":[-1.207062E0,1E0,-1.1301045E0,-1.2391276E0,-1.405869E0,1E0,-6.811857E-1,-1.3738034E0,4.354535E-2,-1.5277183E0,5.7310885E-1,-1.1429307E0,-1.467045E-1,1E0,1E0,-1.4316235E-3,-1.4068107E-2,3.1317417E-2,-5.6301825E-2,-8.708657E-3,1.135251E-2,-3.4589686E-3,3.7182406E-2,-1.7659139E-4,-1.0543152E-2],"split_indices":[3,0,3,3,3,0,3,3,0,3,0,3,0,0,0,0,0,0,0,0,0,0,0,0,0],"split_type":[0,0,0,0,0,0,0,0,0,0,0,0,0,0,0,0,0,0,0,0,0,0,0,0,0],"sum_hessian":[5.315E3,4.91E2,4.824E3,4.49E2,4.2E1,1.67E2,4.657E3,4.28E2,2.1E1,3.9E1,3E0,1.55E2,1.2E1,4.49E2,4.208E3,3.31E2,9.7E1,3.1E1,8E0,1.36E2,1.9E1,3.58E2,9.1E1,3.886E3,3.22E2],"tree_param":{"num_deleted":"0","num_feature":"5","num_nodes":"25","size_leaf_vector":"0"}},{"base_weights":[-2.192474E-4,1.9805746E-2,-6.1230734E-3,1.1264855E-2,2.6010597E-1,-3.47565E-3,-3.295707E-2,2.3196843E-2,-3.040418E-2,3.6191487E-1,-1.534061E-1,-1.1971632E-2,-1.8419155E-3,-5.1638953E-2,3.9529648E-2,6.090645E-4,1.6962998E-2,-3.191985E-2,9.5953036E-4,5.1168732E-2,1.04046494E-1,2.313773E-3,-4.9865436E-2,7.561226E-3,-1.5330795E-3,-1.6701153E-2,-5.515026E-3,2.1536158E-2,-7.3701194E-3],"categories":[],"categories_nodes":[],"categories_segments":[],"categories_sizes":[],"default_left":[0,0,0,0,0,0,0,0,0,0,0,0,0,0,0,0,0,0,0,0,0,0,0,0,0,0,0,0,0],"id":34,"left_children":[1,3,5,7,9,11,13,15,17,19,21,-1,23,25,27,-1,-1,-1,-1,-1,-1,-1,-1,-1,-1,-1,-1,-1,-1],"loss_changes":[6.360486E-1,2.511233E0,2.9506058E-1,5.893835E-1,1.8236871E0,3.307459E-1,5.0715363E-1,1.0761025E0,1.1233784E0,4.1621113E-1,1.269924E-1,0E0,7.588635E-1,2.0811945E-1,3.6574224E-1,0E0,0E0,0E0,0E0,0E0,0E0,0E0,0E0,0E0,0E0,0E0,0E0,0E0,0E0],"parents":[2147483647,0,0,1,1,2,2,3,3,4,4,5,5,6,6,7,7,8,8,9,9,10,10,12,12,13,13,14,14],"right_children":[2,4,6,8,10,12,14,16,18,20,22,-1,24,26,28,-1,-1,-1,-1,-1,-1,-1,-1,-1,-1,-1,-1,-1,-1],"split_conditions":[-5.7216257E-1,-6.2346756E-1,1E0,-8.9923203E-1,1E0,-5.6574947E-1,8.194857E-1,-1.1108651E0,-8.8640577E-1,-6.042282E-1,-6.042282E-1,-1.1971632E-2,-3.1563756E-1,-2.9639816E-1,1.2235126E0,6.090645E-4,1.6962998E-2,-3.191985E-2,9.5953036E-4,5.1168732E-2,1.04046494E-1,2.313773E-3,-4.9865436E-2,7.561226E-3,-1.5330795E-3,-1.6701153E-2,-5.515026E-3,2.1536158E-2,-7.3701194E-3],"split_indices":[3,3,2,3,2,3,3,3,3,3,3,0,3,3,3,0,0,0,0,0,0,0,0,0,0,0,0,0,0],"split_type":[0,0,0,0,0,0,0,0,0,0,0,0,0,0,0,0,0,0,0,0,0,0,0,0,0,0,0,0,0],"sum_hessian":[5.378E3,1.224E3,4.154E3,1.183E3,4.1E1,3.782E3,3.72E2,9.2E2,2.63E2,3.3E1,8E0,1.11E2,3.671E3,2.96E2,7.6E1,6.81E2,2.39E2,5.8E1,2.05E2,1.9E1,1.4E1,3E0,5E0,4.62E2,3.209E3,1.4E2,1.56E2,4.1E1,3.5E1],"tree_param":{"num_deleted":"0","num_feature":"5","num_nodes":"29","size_leaf_vector":"0"}},{"base_weights":[2.1517365E-3,-1.4144653E-2,1.4122266E-2,-6.249888E-3,-8.423523E-2,9.864676E-1,9.340313E-3,-1.3842697E-2,7.314529E-2,-1.6940098E-1,-7.101754E-2,1.5727164E0,-1.05120376E-1,1.8620782E-1,1.2839227E-3,-4.218865E-4,-1.6383607E-2,2.1018317E-1,2.4359033E-3,-2.345214E-2,-1.1945601E-2,3.7773204E-1,7.779543E-2,2.3600709E-2,2.5007725E-1,3.405064E-2,-6.936047E-4],"categories":[],"categories_nodes":[],"categories_segments":[],"categories_sizes":[],"default_left":[0,0,0,0,0,0,0,0,0,0,0,0,0,0,0,0,0,0,0,0,0,0,0,0,0,0,0],"id":35,"left_children":[1,3,5,7,9,11,13,15,17,-1,19,21,-1,23,25,-1,-1,-1,-1,-1,-1,-1,-1,-1,-1,-1,-1],"loss_changes":[1.0378112E0,1.246168E0,1.4251445E1,1.2223511E0,2.119869E0,1.3863898E1,4.3500223E0,1.4047749E0,1.0094675E1,0E0,1.2294757E-1,2.3225784E0,0E0,9.730211E0,2.1557727E0,0E0,0E0,0E0,0E0,0E0,0E0,0E0,0E0,0E0,0E0,0E0,0E0],"parents":[2147483647,0,0,1,1,2,2,3,3,4,4,5,5,6,6,7,7,8,8,10,10,11,11,13,13,14,14],"right_children":[2,4,6,8,10,12,14,16,18,-1,20,22,-1,24,26,-1,-1,-1,-1,-1,-1,-1,-1,-1,-1,-1,-1],"split_conditions":[-3.6939254E-1,-3.7552103E-1,-9.569501E-1,-4.3067738E-1,-8.0944824E-1,-2.345659E-1,-5.272707E-1,-4.3680587E-1,-9.3771076E-1,-1.6940098E-1,-4.3748695E-1,-9.697764E-1,-1.05120376E-1,4.211819E-1,-2.8972226E-1,-4.218865E-4,-1.6383607E-2,2.1018317E-1,2.4359033E-3,-2.345214E-2,-1.1945601E-2,3.7773204E-1,7.779543E-2,2.3600709E-2,2.5007725E-1,3.405064E-2,-6.936047E-4],"split_indices":[4,4,3,4,3,4,3,4,3,0,3,3,0,4,4,0,0,0,0,0,0,0,0,0,0,0,0],"split_type":[0,0,0,0,0,0,0,0,0,0,0,0,0,0,0,0,0,0,0,0,0,0,0,0,0,0,0],"sum_hessian":[5.318E3,2.252E3,3.066E3,2.025E3,2.27E2,1.4E1,3.052E3,1.849E3,1.76E2,3E0,2.24E2,1E1,4E0,1.32E2,2.92E3,1.562E3,2.87E2,1E1,1.66E2,5.6E1,1.68E2,8E0,2E0,1.24E2,8E0,8E1,2.84E3],"tree_param":{"num_deleted":"0","num_feature":"5","num_nodes":"27","size_leaf_vector":"0"}}]},"name":"gbtree"},"learner_model_param":{"base_score":"5E-1","num_class":"0","num_feature":"5","num_target":"1"},"objective":{"name":"reg:squarederror","reg_loss_param":{"scale_pos_weight":"1"}}},"version":[1,6,1]}