{"learner":{"attributes":{"best_iteration":"17","best_ntree_limit":"18","scikit_learn":"{\"objective\": \"reg:squarederror\", \"max_leaves\": null, \"max_bin\": null, \"grow_policy\": null, \"learning_rate\": 0.48, \"verbosity\": null, \"booster\": null, \"tree_method\": \"hist\", \"gamma\": null, \"min_child_weight\": 1.0, \"max_delta_step\": null, \"subsample\": 0.4, \"sampling_method\": null, \"colsample_bytree\": 1.0, \"colsample_bylevel\": null, \"colsample_bynode\": null, \"reg_alpha\": null, \"reg_lambda\": null, \"scale_pos_weight\": null, \"base_score\": null, \"missing\": NaN, \"num_parallel_tree\": null, \"random_state\": 2020, \"n_jobs\": null, \"monotone_constraints\": null, \"interaction_constraints\": null, \"importance_type\": null, \"gpu_id\": null, \"validate_parameters\": null, \"predictor\": null, \"enable_categorical\": false, \"max_cat_to_onehot\": null, \"eval_metric\": null, \"early_stopping_rounds\": null, \"callbacks\": null, \"_estimator_type\": \"regressor\"}"},"feature_names":["FEATURE","DISPLAY","TPR_ONLY","PRICE","BASE_PRICE"],"feature_types":["int","int","int","float","float"],"gradient_booster":{"model":{"gbtree_model_param":{"num_parallel_tree":"1","num_trees":"18","size_leaf_vector":"0"},"tree_info":[0,0,0,0,0,0,0,0,0,0,0,0,0,0,0,0,0,0],"trees":[{"base_weights":[-6.836396E-1,-4.3541148E-1,-8.4144765E-1,-5.406681E-1,3.6620942E-1,-7.085288E-1,-9.6074605E-1,-1.6202806E-1,-6.1786133E-1,-7.194132E-2,8.201642E-1,-4.3484172E-1,-6.646878E-1,-4.8049226E-1,-6.5081036E-1,-1.24625685E-2,-3.0049777E-1,-8.075108E-1,-5.8253646E-1,-1.3798854E-1,9.655165E-1,-4.881074E-3,8.9525706E-1,-4.2891952E-1,-6.9050413E-1,-7.6719016E-1,-5.7570636E-1,-6.8469234E-2,1.122709E-1,-1.7218943E-1,-4.249833E-2,-2.0303649E-1,-4.4013613E-1,-2.9018262E-1,-1.8476962E-1,-3.2694545E-2,-3.7382492E-1,3.0920845E-1,-2.354207E-1,6.7084235E-1,3.2253268E-1,-2.3409905E-1,6.53961E-2,-2.9821557E-1,-3.5472277E-1,-3.9729193E-1,-2.6349226E-1,-2.1112907E-1,-3.8165945E-1],"categories":[],"categories_nodes":[],"categories_segments":[],"categories_sizes":[],"default_left":[0,0,0,0,0,0,0,0,0,0,0,0,0,0,0,0,0,0,0,0,0,0,0,0,0,0,0,0,0,0,0,0,0,0,0,0,0,0,0,0,0,0,0,0,0,0,0,0,0],"id":0,"left_children":[1,3,5,7,9,11,13,15,17,19,21,-1,23,-1,25,27,29,31,33,35,-1,37,39,41,43,45,47,-1,-1,-1,-1,-1,-1,-1,-1,-1,-1,-1,-1,-1,-1,-1,-1,-1,-1,-1,-1,-1,-1],"loss_changes":[1.0485071E2,8.8455154E1,2.5340576E1,2.6936218E1,2.432488E1,6.1478577E0,1.0109741E1,3.2684803E0,4.6746826E0,8.946677E0,3.7216682E0,0E0,3.6114502E0,0E0,4.4986343E-1,2.502877E0,9.803195E-1,4.577751E0,2.5986938E0,2.7231126E0,0E0,2.2069805E0,5.230667E0,2.2592335E0,1.4780884E0,3.4202576E-2,1.6176414E0,0E0,0E0,0E0,0E0,0E0,0E0,0E0,0E0,0E0,0E0,0E0,0E0,0E0,0E0,0E0,0E0,0E0,0E0,0E0,0E0,0E0,0E0],"parents":[2147483647,0,0,1,1,2,2,3,3,4,4,5,5,6,6,7,7,8,8,9,9,10,10,12,12,14,14,15,15,16,16,17,17,18,18,19,19,21,21,22,22,23,23,24,24,25,25,26,26],"right_children":[2,4,6,8,10,12,14,16,18,20,22,-1,24,-1,26,28,30,32,34,36,-1,38,40,42,44,46,48,-1,-1,-1,-1,-1,-1,-1,-1,-1,-1,-1,-1,-1,-1,-1,-1,-1,-1,-1,-1,-1,-1],"split_conditions":[-3.1563756E-1,1E0,3.9053947E-1,-1.4541342E0,1E0,-3.0922443E-1,1E0,-1.4725196E0,-1.2273803E0,1.6701944E-2,-1.5341314E0,-4.3484172E-1,-2.771588E-1,-4.8049226E-1,1.7081635E0,1E0,-1.4602627E0,-1.2947936E0,-3.7976882E-1,-1.3651015E-1,9.655165E-1,-1.490905E0,-4.3680587E-1,1E0,-2.4069437E-1,1.1593814E0,2.1371574E0,-6.8469234E-2,1.122709E-1,-1.7218943E-1,-4.249833E-2,-2.0303649E-1,-4.4013613E-1,-2.9018262E-1,-1.8476962E-1,-3.2694545E-2,-3.7382492E-1,3.0920845E-1,-2.354207E-1,6.7084235E-1,3.2253268E-1,-2.3409905E-1,6.53961E-2,-2.9821557E-1,-3.5472277E-1,-3.9729193E-1,-2.6349226E-1,-2.1112907E-1,-3.8165945E-1],"split_indices":[3,0,4,4,1,3,0,4,4,4,3,0,3,0,4,1,4,4,3,4,0,4,4,0,4,3,4,0,0,0,0,0,0,0,0,0,0,0,0,0,0,0,0,0,0,0,0,0,0],"split_type":[0,0,0,0,0,0,0,0,0,0,0,0,0,0,0,0,0,0,0,0,0,0,0,0,0,0,0,0,0,0,0,0,0,0,0,0,0,0,0,0,0,0,0,0,0,0,0,0,0],"sum_hessian":[2.685E3,1.045E3,1.64E3,9.24E2,1.21E2,7.79E2,8.61E2,1.57E2,7.67E2,6.2E1,5.9E1,1.38E2,6.41E2,7.6E2,1.01E2,7.6E1,8.1E1,1.17E2,6.5E2,6.1E1,1E0,5E0,5.4E1,6.5E1,5.76E2,3.6E1,6.5E1,5E1,2.6E1,6.3E1,1.8E1,2.7E1,9E1,5.83E2,6.7E1,5.6E1,5E0,2E0,3E0,1.5E1,3.9E1,5.9E1,6E0,2.43E2,3.33E2,2.6E1,1E1,4.2E1,2.3E1],"tree_param":{"num_deleted":"0","num_feature":"5","num_nodes":"49","size_leaf_vector":"0"}},{"base_weights":[-3.5926798E-1,-1.703454E-1,-4.1247404E-1,-2.3194902E-1,1.0656104E0,-3.4466684E-1,-4.8899546E-1,-2.5003123E-1,1.2296809E0,2.1501417E0,3.4364077E-1,-3.581909E-1,-1.0777771E-1,-5.086175E-1,-3.3834577E-1,-4.0446315E-2,-3.1895596E-1,2.7408206E-1,1.2436178E0,1.1387707E0,3.6353483E0,-2.3386862E-2,7.1326697E-1,-5.3295666E-1,-3.372247E-1,-1.859635E-1,3.0956617E-1,-4.381045E-1,-5.21524E-1,-4.2723554E-1,-2.7932498E-1,2.1925306E-2,-6.755565E-2,-1.7227489E-1,-6.779404E-2,6.1986125E-1,1.6925454E-2,2.0133018E-1,2.1924028E0,6.1085448E-2,-1.3496377E-1,-2.0022696E-1,5.259991E-1,-2.424026E-1,-3.3050424E-1,4.3761615E-2,-1.6527176E-1,9.5276244E-2,-1.5321836E-1,-8.838682E-2,2.627807E-1,-2.2942202E-1,-5.9495527E-2,-2.6810238E-1,-2.368509E-1,-2.5178453E-1,-1.7736228E-1,-7.8324385E-2,-1.6578642E-1],"categories":[],"categories_nodes":[],"categories_segments":[],"categories_sizes":[],"default_left":[0,0,0,0,0,0,0,0,0,0,0,0,0,0,0,0,0,0,0,0,0,0,0,0,0,0,0,0,0,0,0,0,0,0,0,0,0,0,0,0,0,0,0,0,0,0,0,0,0,0,0,0,0,0,0,0,0,0,0],"id":1,"left_children":[1,3,5,7,9,11,13,15,17,19,21,23,25,27,29,31,33,-1,-1,35,37,39,41,43,45,47,49,51,53,55,57,-1,-1,-1,-1,-1,-1,-1,-1,-1,-1,-1,-1,-1,-1,-1,-1,-1,-1,-1,-1,-1,-1,-1,-1,-1,-1,-1,-1],"loss_changes":[2.6657532E1,4.4864822E1,1.0592834E1,1.5081545E1,2.1185087E1,3.4950714E0,2.7012024E0,7.975506E0,4.796688E0,1.2383213E1,2.4586155E0,3.6420135E0,2.04802E0,5.5236816E-1,4.8399258E-1,1.1984421E0,2.902855E0,0E0,0E0,1.3016891E0,1.0075153E1,4.2413515E-1,4.3491964E0,1.3067436E-1,2.868843E0,2.7270818E0,1.2753024E0,1.6812611E0,4.7302246E-1,5.3372383E-2,4.9611187E-1,0E0,0E0,0E0,0E0,0E0,0E0,0E0,0E0,0E0,0E0,0E0,0E0,0E0,0E0,0E0,0E0,0E0,0E0,0E0,0E0,0E0,0E0,0E0,0E0,0E0,0E0,0E0,0E0],"parents":[2147483647,0,0,1,1,2,2,3,3,4,4,5,5,6,6,7,7,8,8,9,9,10,10,11,11,12,12,13,13,14,14,15,15,16,16,19,19,20,20,21,21,22,22,23,23,24,24,25,25,26,26,27,27,28,28,29,29,30,30],"right_children":[2,4,6,8,10,12,14,16,18,20,22,24,26,28,30,32,34,-1,-1,36,38,40,42,44,46,48,50,52,54,56,58,-1,-1,-1,-1,-1,-1,-1,-1,-1,-1,-1,-1,-1,-1,-1,-1,-1,-1,-1,-1,-1,-1,-1,-1,-1,-1,-1,-1],"split_conditions":[-5.7216257E-1,-3.816495E-1,5.0187428E-3,-5.9140193E-1,-8.47927E-1,1E0,1E0,-1.4602627E0,1E0,-2.652083E-1,1E0,-5.593363E-1,5.9601333E-2,4.8246673E-1,1E0,-1.4725196E0,-7.003307E-1,2.7408206E-1,1.2436178E0,1E0,1E0,1E0,-7.324907E-1,-3.5713556E-1,-5.144445E-1,-3.7552103E-1,1E0,6.2067884E-1,1.0217733E0,4.0904567E-1,9.5416135E-1,2.1925306E-2,-6.755565E-2,-1.7227489E-1,-6.779404E-2,6.1986125E-1,1.6925454E-2,2.0133018E-1,2.1924028E0,6.1085448E-2,-1.3496377E-1,-2.0022696E-1,5.259991E-1,-2.424026E-1,-3.3050424E-1,4.3761615E-2,-1.6527176E-1,9.5276244E-2,-1.5321836E-1,-8.838682E-2,2.627807E-1,-2.2942202E-1,-5.9495527E-2,-2.6810238E-1,-2.368509E-1,-2.5178453E-1,-1.7736228E-1,-7.8324385E-2,-1.6578642E-1],"split_indices":[3,4,3,3,3,0,0,4,1,4,0,3,4,4,1,4,4,0,0,2,0,1,3,4,3,4,1,3,4,3,3,0,0,0,0,0,0,0,0,0,0,0,0,0,0,0,0,0,0,0,0,0,0,0,0,0,0,0,0],"split_type":[0,0,0,0,0,0,0,0,0,0,0,0,0,0,0,0,0,0,0,0,0,0,0,0,0,0,0,0,0,0,0,0,0,0,0,0,0,0,0,0,0,0,0,0,0,0,0,0,0,0,0,0,0,0,0,0,0,0,0],"sum_hessian":[2.658E3,5.85E2,2.073E3,5.58E2,2.7E1,1.102E3,9.71E2,5.52E2,6E0,1E1,1.7E1,1.042E3,6E1,8.57E2,1.14E2,1.37E2,4.15E2,5E0,1E0,7E0,3E0,9E0,8E0,1.09E2,9.33E2,5.1E1,9E0,1.38E2,7.19E2,4.3E1,7.1E1,7.4E1,6.3E1,3.38E2,7.7E1,6E0,1E0,1E0,2E0,6E0,3E0,2E0,6E0,9.6E1,1.3E1,1.5E1,9.18E2,1.3E1,3.8E1,3E0,6E0,1.22E2,1.6E1,3.02E2,4.17E2,1.3E1,3E1,2.7E1,4.4E1],"tree_param":{"num_deleted":"0","num_feature":"5","num_nodes":"59","size_leaf_vector":"0"}},{"base_weights":[-1.6554429E-1,-7.507889E-2,-2.2401913E-1,-1.0457702E-1,1.6128916E-1,-1.902147E-1,-2.7012977E-1,-9.5075786E-2,-4.1438282E-1,7.9683954E-1,1.696877E-2,-2.0296326E-1,-3.3229057E-2,-2.8185186E-1,-2.01467E-1,-1.17099755E-1,1.7528947E-1,-1.9835497E-1,-5.062721E-1,1.3402804E0,5.0928175E-1,8.6789393E-1,-1.11856766E-1,-1.7476672E-1,-2.324613E-1,1.3065852E-1,-1.4421539E-1,-2.733496E-1,-1.7274939E-1,-1.2073538E-1,-1.5489413E-1,-1.2666801E-2,-6.780007E-2,-1.0658299E-1,2.2984497E-1,-1.428159E-1,-6.5457016E-2,-3.5051194E-1,-1.5109213E-1,1.5301093E-1,6.995533E-1,-3.5703566E-2,3.4081677E-1,3.9376456E-2,7.34289E-1,-1.8572018E-1,8.265676E-2,-1.0464935E-1,-2.488423E-2,-1.5690407E-1,-8.6652026E-2,8.425828E-2,-1.5924971E-1,-1.1862161E-1,2.463737E-2,-1.4069267E-1,-1.03504434E-1,-3.4058224E-2,-1.1486274E-1],"categories":[],"categories_nodes":[],"categories_segments":[],"categories_sizes":[],"default_left":[0,0,0,0,0,0,0,0,0,0,0,0,0,0,0,0,0,0,0,0,0,0,0,0,0,0,0,0,0,0,0,0,0,0,0,0,0,0,0,0,0,0,0,0,0,0,0,0,0,0,0,0,0,0,0,0,0,0,0],"id":2,"left_children":[1,3,5,7,9,11,13,15,17,19,21,23,25,27,29,31,33,35,37,39,41,43,45,47,49,51,53,55,-1,-1,57,-1,-1,-1,-1,-1,-1,-1,-1,-1,-1,-1,-1,-1,-1,-1,-1,-1,-1,-1,-1,-1,-1,-1,-1,-1,-1,-1,-1],"loss_changes":[1.4366547E1,7.4703784E0,2.52211E0,2.7599058E0,1.0901502E1,1.9065399E0,5.034065E-1,5.522498E0,4.5539618E-1,2.755374E0,1.0839928E1,6.946335E-1,1.3466605E0,2.944374E-1,2.058649E-1,1.869318E0,8.549268E0,2.0902574E-2,5.8501005E-1,3.7290955E-1,1.9275742E0,6.6363363E0,6.7860804E0,2.4131718E0,2.044777E0,6.808464E-1,8.9813775E-1,5.5036163E-1,0E0,0E0,3.8685226E-1,0E0,0E0,0E0,0E0,0E0,0E0,0E0,0E0,0E0,0E0,0E0,0E0,0E0,0E0,0E0,0E0,0E0,0E0,0E0,0E0,0E0,0E0,0E0,0E0,0E0,0E0,0E0,0E0],"parents":[2147483647,0,0,1,1,2,2,3,3,4,4,5,5,6,6,7,7,8,8,9,9,10,10,11,11,12,12,13,13,14,14,15,15,16,16,17,17,18,18,19,19,20,20,21,21,22,22,23,23,24,24,25,25,26,26,27,27,30,30],"right_children":[2,4,6,8,10,12,14,16,18,20,22,24,26,28,30,32,34,36,38,40,42,44,46,48,50,52,54,56,-1,-1,58,-1,-1,-1,-1,-1,-1,-1,-1,-1,-1,-1,-1,-1,-1,-1,-1,-1,-1,-1,-1,-1,-1,-1,-1,-1,-1,-1,-1],"split_conditions":[-3.1563756E-1,-3.816495E-1,7.7459383E-1,-4.3680587E-1,-5.7216257E-1,1E0,1E0,1E0,1E0,-8.9281887E-1,-3.7552103E-1,-2.0392348E-1,-1.42206345E-2,2.5061378E0,1.8307332E0,-1.2947936E0,-7.861294E-1,-7.324907E-1,-4.3067738E-1,1E0,1E0,1E0,-5.593363E-1,-3.5713556E-1,-1.42206345E-2,4.8246673E-1,1.4630241E0,1.8307332E0,-1.7274939E-1,-1.2073538E-1,1.9533029E0,-1.2666801E-2,-6.780007E-2,-1.0658299E-1,2.2984497E-1,-1.428159E-1,-6.5457016E-2,-3.5051194E-1,-1.5109213E-1,1.5301093E-1,6.995533E-1,-3.5703566E-2,3.4081677E-1,3.9376456E-2,7.34289E-1,-1.8572018E-1,8.265676E-2,-1.0464935E-1,-2.488423E-2,-1.5690407E-1,-8.6652026E-2,8.425828E-2,-1.5924971E-1,-1.1862161E-1,2.463737E-2,-1.4069267E-1,-1.03504434E-1,-3.4058224E-2,-1.1486274E-1],"split_indices":[3,4,3,4,3,1,1,0,0,3,4,4,3,3,4,4,4,3,4,1,0,1,3,4,3,4,4,4,0,0,4,0,0,0,0,0,0,0,0,0,0,0,0,0,0,0,0,0,0,0,0,0,0,0,0,0,0,0,0],"split_type":[0,0,0,0,0,0,0,0,0,0,0,0,0,0,0,0,0,0,0,0,0,0,0,0,0,0,0,0,0,0,0,0,0,0,0,0,0,0,0,0,0,0,0,0,0,0,0,0,0,0,0,0,0,0,0,0,0,0,0],"sum_hessian":[2.718E3,1.068E3,1.65E3,9.5E2,1.18E2,9.55E2,6.95E2,9.23E2,2.7E1,2.1E1,9.7E1,8.83E2,7.2E1,5.91E2,1.04E2,8.54E2,6.9E1,9E0,1.8E1,6E0,1.5E1,1.2E1,8.5E1,4.55E2,4.28E2,2.9E1,4.3E1,5.37E2,5.4E1,4.8E1,5.6E1,1.8E2,6.74E2,3E1,3.9E1,2E0,7E0,7E0,1.1E1,1E0,5E0,4E0,1.1E1,6E0,6E0,4.3E1,4.2E1,3.36E2,1.19E2,1.5E2,2.78E2,2.7E1,2E0,2.8E1,1.5E1,3.97E2,1.4E2,2.9E1,2.7E1],"tree_param":{"num_deleted":"0","num_feature":"5","num_nodes":"59","size_leaf_vector":"0"}},{"base_weights":[-9.978972E-2,-1.1787745E-1,2.2032665E-2,-9.301414E-2,-1.5980102E-1,1.7272373E-1,-7.606218E-2,-1.0216536E-1,8.645091E-2,-4.767093E-1,-1.5660411E-1,1.2042783E-1,1.2508663E0,-1.3093407E-1,-7.088705E-3,-1.5873069E-1,-9.1600195E-2,4.4210415E-2,-2.8454773E-2,-2.3682131E-1,-1.4618865E-1,4.2733278E-2,2.7120945E-1,-1.3986653E-1,9.509756E-1,-1.8150958E-1,-9.079354E-2,4.7691263E-2,-2.1718602E-1,-3.530224E-2,-1.21678814E-1,-2.3166208E-1,-4.209211E-2,-9.152794E-2,4.280757E-2,-1.5005632E-1,-1.0369303E-1,-1.9036675E-2,-7.353725E-2,1.2758586E-1,-4.0211704E-2,6.654132E-1,5.8222994E-2,-8.643114E-2,-1.4272763E-2,-4.9097523E-2,-1.4988802E-1,-2.264978E-2,-8.081817E-2,-1.0344748E-1,5.734934E-2,-1.2343095E-1,-6.922178E-2],"categories":[],"categories_nodes":[],"categories_segments":[],"categories_sizes":[],"default_left":[0,0,0,0,0,0,0,0,0,0,0,0,0,0,0,0,0,0,0,0,0,0,0,0,0,0,0,0,0,0,0,0,0,0,0,0,0,0,0,0,0,0,0,0,0,0,0,0,0,0,0,0,0],"id":3,"left_children":[1,3,5,7,9,11,13,15,17,-1,19,21,23,25,27,29,31,-1,33,35,37,39,41,43,-1,45,47,49,51,-1,-1,-1,-1,-1,-1,-1,-1,-1,-1,-1,-1,-1,-1,-1,-1,-1,-1,-1,-1,-1,-1,-1,-1],"loss_changes":[5.680994E0,2.3241882E0,4.950331E0,2.32615E0,2.066351E0,7.291842E0,7.67367E-1,7.880659E-1,4.744941E-2,0E0,6.605129E-1,1.4762039E0,6.371292E0,2.1292448E-1,1.0576881E0,1.6766133E0,1.6907196E0,0E0,9.3342006E-2,8.0620766E-2,5.4609776E-1,2.4209793E0,7.0197954E0,7.927105E-3,0E0,4.756496E-1,2.1194291E-1,1.405063E0,1.8323421E-2,0E0,0E0,0E0,0E0,0E0,0E0,0E0,0E0,0E0,0E0,0E0,0E0,0E0,0E0,0E0,0E0,0E0,0E0,0E0,0E0,0E0,0E0,0E0,0E0],"parents":[2147483647,0,0,1,1,2,2,3,3,4,4,5,5,6,6,7,7,8,8,10,10,11,11,12,12,13,13,14,14,15,15,16,16,18,18,19,19,20,20,21,21,22,22,23,23,25,25,26,26,27,27,28,28],"right_children":[2,4,6,8,10,12,14,16,18,-1,20,22,24,26,28,30,32,-1,34,36,38,40,42,44,-1,46,48,50,52,-1,-1,-1,-1,-1,-1,-1,-1,-1,-1,-1,-1,-1,-1,-1,-1,-1,-1,-1,-1,-1,-1,-1,-1],"split_conditions":[1E0,-8.748228E-2,-5.7216257E-1,-1.42206345E-2,-7.709695E-1,-6.6194636E-1,1E0,-1.2273803E0,-1.3651015E-1,-4.767093E-1,2.3589127E-1,-6.758167E-1,1E0,1.6701944E-2,2.1371574E0,-1.2947936E0,-1.3930427E0,4.4210415E-2,5.0187428E-3,-6.9096826E-2,3.9053947E-1,-1.4725196E0,-1.0723864E0,-5.9140193E-1,9.509756E-1,-2.4069437E-1,1.1593814E0,-3.5713556E-1,2.3822968E0,-3.530224E-2,-1.21678814E-1,-2.3166208E-1,-4.209211E-2,-9.152794E-2,4.280757E-2,-1.5005632E-1,-1.0369303E-1,-1.9036675E-2,-7.353725E-2,1.2758586E-1,-4.0211704E-2,6.654132E-1,5.8222994E-2,-8.643114E-2,-1.4272763E-2,-4.9097523E-2,-1.4988802E-1,-2.264978E-2,-8.081817E-2,-1.0344748E-1,5.734934E-2,-1.2343095E-1,-6.922178E-2],"split_indices":[1,4,3,3,3,3,0,4,4,0,3,4,0,4,4,4,3,0,3,4,4,4,3,3,0,4,3,4,4,0,0,0,0,0,0,0,0,0,0,0,0,0,0,0,0,0,0,0,0,0,0,0,0],"split_type":[0,0,0,0,0,0,0,0,0,0,0,0,0,0,0,0,0,0,0,0,0,0,0,0,0,0,0,0,0,0,0,0,0,0,0,0,0,0,0,0,0,0,0,0,0,0,0,0,0,0,0,0,0],"sum_hessian":[2.576E3,2.243E3,3.33E2,1.41E3,8.33E2,1.31E2,2.02E2,1.342E3,6.8E1,2E0,8.31E2,1.26E2,5E0,1.12E2,9E1,2.09E2,1.133E3,6.5E1,3E0,9.3E1,7.38E2,8.4E1,4.2E1,2E0,3E0,4.8E1,6.4E1,7.2E1,1.8E1,1.11E2,9.8E1,1E1,1.123E3,1E0,2E0,1.7E1,7.6E1,4.6E1,6.92E2,3E1,5.4E1,4E0,3.8E1,1E0,1E0,3.1E1,1.7E1,4.2E1,2.2E1,1.5E1,5.7E1,1E1,8E0],"tree_param":{"num_deleted":"0","num_feature":"5","num_nodes":"53","size_leaf_vector":"0"}},{"base_weights":[-5.6755897E-2,-2.5984758E-1,-5.4779176E-2,-2.1104802E-1,-3.5516074E-1,-3.617539E-2,-7.220845E-2,-1.3481037E-1,-1.1201927E-1,-5.7759713E-2,1.05766624E-1,-1.07649855E-1,-6.166702E-2,-3.028435E-2,-9.0579264E-2,-4.4692107E-2,-1.02056876E-1,1.3973316E0,7.253146E-2,-8.278434E-2,-1.9956714E-1,3.0427078E-2,-7.176228E-2,-5.0737146E-2,1.0091204E-2,-2.9161502E-2,7.395408E-2,-4.0918253E-2,-1.5430136E-1,9.7485535E-2,3.7200153E-3,-3.5574883E-2,-1.2000389E-1,-9.7871974E-2,2.0735411E-2,-1.758822E-2,3.650963E-2,-4.8646167E-2,-2.7081566E-2],"categories":[],"categories_nodes":[],"categories_segments":[],"categories_sizes":[],"default_left":[0,0,0,0,0,0,0,0,0,0,0,0,0,0,0,0,0,0,0,0,0,0,0,0,0,0,0,0,0,0,0,0,0,0,0,0,0,0,0],"id":4,"left_children":[1,3,5,7,-1,9,11,-1,13,15,17,19,21,23,-1,25,27,-1,29,31,33,35,37,-1,-1,-1,-1,-1,-1,-1,-1,-1,-1,-1,-1,-1,-1,-1,-1],"loss_changes":[1.079731E0,4.5294976E-1,8.7286377E-1,1.4136112E-1,0E0,4.0134583E0,5.137906E-1,0E0,6.950171E-2,6.530218E-1,1.5918676E1,7.1029043E-1,1.0025558E0,2.9308897E-2,0E0,2.815426E0,9.2417765E-1,0E0,1.4532166E0,3.4682798E-1,7.928252E-2,3.3027983E-1,4.3455172E-1,0E0,0E0,0E0,0E0,0E0,0E0,0E0,0E0,0E0,0E0,0E0,0E0,0E0,0E0,0E0,0E0],"parents":[2147483647,0,0,1,1,2,2,3,3,5,5,6,6,8,8,9,9,10,10,11,11,12,12,13,13,15,15,16,16,18,18,19,19,20,20,21,21,22,22],"right_children":[2,4,6,8,-1,10,12,-1,14,16,18,20,22,24,-1,26,28,-1,30,32,34,36,38,-1,-1,-1,-1,-1,-1,-1,-1,-1,-1,-1,-1,-1,-1,-1,-1],"split_conditions":[-1.5469577E0,-1.2273803E0,-2.515063E-1,-1.6134747E0,-3.5516074E-1,-3.816495E-1,-5.269939E-2,-1.3481037E-1,-1.4602627E0,-4.3680587E-1,-1.1236914E0,-5.9112515E-2,5.0187428E-3,-1.4725196E0,-9.0579264E-2,-4.1824755E-1,1E0,1.3973316E0,-3.7552103E-1,1E0,1E0,-1.4876711E-1,7.5212E-1,-5.0737146E-2,1.0091204E-2,-2.9161502E-2,7.395408E-2,-4.0918253E-2,-1.5430136E-1,9.7485535E-2,3.7200153E-3,-3.5574883E-2,-1.2000389E-1,-9.7871974E-2,2.0735411E-2,-1.758822E-2,3.650963E-2,-4.8646167E-2,-2.7081566E-2],"split_indices":[3,4,3,4,0,4,3,0,4,4,3,3,3,4,0,3,0,0,4,0,0,4,4,0,0,0,0,0,0,0,0,0,0,0,0,0,0,0,0],"split_type":[0,0,0,0,0,0,0,0,0,0,0,0,0,0,0,0,0,0,0,0,0,0,0,0,0,0,0,0,0,0,0,0,0,0,0,0,0,0,0],"sum_hessian":[2.724E3,2.5E1,2.699E3,2.4E1,1E0,1.307E3,1.392E3,1.3E1,1.1E1,1.135E3,1.72E2,3.17E2,1.075E3,6E0,5E0,8.78E2,2.57E2,1E0,1.71E2,2.51E2,6.6E1,1.06E2,9.69E2,2E0,4E0,8.13E2,6.5E1,2.4E2,1.7E1,5.6E1,1.15E2,2.4E2,1.1E1,6.5E1,1E0,4.3E1,6.3E1,3.29E2,6.4E2],"tree_param":{"num_deleted":"0","num_feature":"5","num_nodes":"39","size_leaf_vector":"0"}},{"base_weights":[-2.4232037E-2,-3.4740258E-2,4.0039286E-2,-3.880336E-2,4.9960244E-2,-3.4903806E-2,9.159275E-2,-1.5381213E-1,-3.4436177E-2,4.6893644E-1,-2.932199E-3,6.1888117E-2,-1.547037E-1,1.3938824E0,4.0736657E-2,-1.4125119E-2,-1.8534516E-1,-4.1466644E-3,-4.3608945E-2,9.6457705E-2,1.0958886E0,-5.671128E-1,4.0981095E-2,1.3959378E-2,2.7369943E-1,-4.476373E-1,-5.9619E-2,1.915228E-1,-7.399748E-3,3.741278E-3,-8.2300045E-2,-6.310714E-2,-1.10065885E-1,-1.5154472E-2,3.721412E-1,-1.0821863E-1,-1.6749231E-2,2.9704952E-1,-2.1216676E-1,-1.0930573E-1,-4.5299014E-1,-7.5276226E-2,6.1557423E-2,-9.419466E-3,2.2459196E-1,-3.075484E-3,1.5080272E-1,-1.6071135E-1,-2.8736398E-1,1.4061984E-1,-9.7313896E-2,6.4829126E-2,3.4456292E-1,2.4494939E-2,-4.026795E-2],"categories":[],"categories_nodes":[],"categories_segments":[],"categories_sizes":[],"default_left":[0,0,0,0,0,0,0,0,0,0,0,0,0,0,0,0,0,0,0,0,0,0,0,0,0,0,0,0,0,0,0,0,0,0,0,0,0,0,0,0,0,0,0,0,0,0,0,0,0,0,0,0,0,0,0],"id":5,"left_children":[1,3,5,7,9,11,13,15,17,19,21,23,25,-1,27,29,31,33,35,37,-1,39,41,43,45,47,49,51,53,-1,-1,-1,-1,-1,-1,-1,-1,-1,-1,-1,-1,-1,-1,-1,-1,-1,-1,-1,-1,-1,-1,-1,-1,-1,-1],"loss_changes":[1.8303128E0,8.031125E-1,1.4752192E0,1.1107354E0,2.3725672E0,1.8184978E0,3.2205147E1,3.5416698E-1,5.949497E-1,7.888631E0,2.4016438E0,8.793902E-1,1.9230574E0,0E0,1.6200188E0,5.651495E-2,1.2615013E-1,1.0691242E1,2.5974464E0,3.3677897E0,0E0,6.7983985E-1,1.5736291E0,1.1068081E0,1.8340063E-1,8.924079E-2,2.7842453E0,1.5077636E0,7.640933E-1,0E0,0E0,0E0,0E0,0E0,0E0,0E0,0E0,0E0,0E0,0E0,0E0,0E0,0E0,0E0,0E0,0E0,0E0,0E0,0E0,0E0,0E0,0E0,0E0,0E0,0E0],"parents":[2147483647,0,0,1,1,2,2,3,3,4,4,5,5,6,6,7,7,8,8,9,9,10,10,11,11,12,12,14,14,15,15,16,16,17,17,18,18,19,19,21,21,22,22,23,23,24,24,25,25,26,26,27,27,28,28],"right_children":[2,4,6,8,10,12,14,16,18,20,22,24,26,-1,28,30,32,34,36,38,-1,40,42,44,46,48,50,52,54,-1,-1,-1,-1,-1,-1,-1,-1,-1,-1,-1,-1,-1,-1,-1,-1,-1,-1,-1,-1,-1,-1,-1,-1,-1,-1],"split_conditions":[1E0,1E0,-3.816495E-1,-1.4602627E0,-1.207062E0,-1.2947936E0,-1.0274945E0,-1.5469577E0,-5.593755E-1,-1.5277183E0,-1.0274945E0,-1.4602627E0,-6.513028E-1,1.3938824E0,-4.567263E-1,-1.4725196E0,-1.5277183E0,-4.823788E-1,-4.980907E-1,-1.2947936E0,1.0958886E0,-1.0802966E0,-3.7552103E-1,1E0,-1.3994558E0,-6.758167E-1,-5.593755E-1,1.6701944E-2,1E0,3.741278E-3,-8.2300045E-2,-6.310714E-2,-1.10065885E-1,-1.5154472E-2,3.721412E-1,-1.0821863E-1,-1.6749231E-2,2.9704952E-1,-2.1216676E-1,-1.0930573E-1,-4.5299014E-1,-7.5276226E-2,6.1557423E-2,-9.419466E-3,2.2459196E-1,-3.075484E-3,1.5080272E-1,-1.6071135E-1,-2.8736398E-1,1.4061984E-1,-9.7313896E-2,6.4829126E-2,3.4456292E-1,2.4494939E-2,-4.026795E-2],"split_indices":[1,0,4,4,3,4,3,3,4,3,3,4,4,0,3,4,3,3,4,4,0,4,4,0,3,4,4,4,0,0,0,0,0,0,0,0,0,0,0,0,0,0,0,0,0,0,0,0,0,0,0,0,0,0,0],"split_type":[0,0,0,0,0,0,0,0,0,0,0,0,0,0,0,0,0,0,0,0,0,0,0,0,0,0,0,0,0,0,0,0,0,0,0,0,0,0,0,0,0,0,0,0,0,0,0,0,0,0,0,0,0,0,0],"sum_hessian":[2.707E3,2.327E3,3.8E2,2.221E3,1.06E2,1.55E2,2.25E2,8E1,2.141E3,1.1E1,9.5E1,8.6E1,6.9E1,3E0,2.22E2,1.5E1,6.5E1,4.98E2,1.643E3,1E1,1E0,6E0,8.9E1,7.1E1,1.5E1,1.6E1,5.3E1,5.3E1,1.69E2,1.4E1,1E0,3.1E1,3.4E1,4.82E2,1.6E1,7.4E1,1.569E3,5E0,5E0,4E0,2E0,2.7E1,6.2E1,6.7E1,4E0,2E0,1.3E1,1.1E1,5E0,1.5E1,3.8E1,4.9E1,4E0,9.6E1,7.3E1],"tree_param":{"num_deleted":"0","num_feature":"5","num_nodes":"55","size_leaf_vector":"0"}},{"base_weights":[-1.151454E-2,1.3064174E-2,-3.7407152E-2,-2.1293624E-4,3.814379E-1,-4.4421816E-1,-3.5296567E-2,3.7447675E-3,-1.1097083E-1,1.0783635E0,2.0320947E-1,-1.4342669E-1,-3.0967288E-2,-3.0851613E-3,2.0578897E-1,2.3469235E-1,-8.174028E-2,-2.8378898E-1,-4.507092E-2,4.7511843E-1,-3.2600615E-2,1.2362929E-2,-1.7689802E-2,6.1003696E-2,3.6611304E-1,-2.290264E-2,1.3211559E-1,-1.633826E-1,-7.505004E-2,2.742205E-1,-6.466309E-2,-1.3715035E-2,-4.2222597E-2],"categories":[],"categories_nodes":[],"categories_segments":[],"categories_sizes":[],"default_left":[0,0,0,0,0,0,0,0,0,0,0,0,0,0,0,0,0,0,0,0,0,0,0,0,0,0,0,0,0,0,0,0,0],"id":6,"left_children":[1,3,5,7,9,-1,11,13,-1,-1,15,17,19,21,23,25,-1,27,29,-1,31,-1,-1,-1,-1,-1,-1,-1,-1,-1,-1,-1,-1],"loss_changes":[1.6755121E0,6.6077385E0,2.3701868E0,1.193813E0,1.5167364E1,0E0,5.947591E-1,1.7724876E0,0E0,0E0,5.57358E-1,6.63676E-1,2.0863795E0,1.2115427E0,1.7439457E0,4.8262954E-1,0E0,9.1014385E-2,1.7345576E0,0E0,2.7197742E-1,0E0,0E0,0E0,0E0,0E0,0E0,0E0,0E0,0E0,0E0,0E0,0E0],"parents":[2147483647,0,0,1,1,2,2,3,3,4,4,6,6,7,7,10,10,11,11,12,12,13,13,14,14,15,15,17,17,18,18,20,20],"right_children":[2,4,6,8,10,-1,12,14,-1,-1,16,18,20,22,24,26,-1,28,30,-1,32,-1,-1,-1,-1,-1,-1,-1,-1,-1,-1,-1,-1],"split_conditions":[-2.4069437E-1,-2.5295135E-1,-7.324907E-1,-1.4889628E-1,-8.47927E-1,-4.4421816E-1,-3.3487692E-1,-3.5713556E-1,-1.1097083E-1,1.0783635E0,-1.1683065E-1,-1.8553802E-1,-3.1563756E-1,-5.593755E-1,1E0,-5.529232E-1,-8.174028E-2,1E0,-1.3651015E-1,4.7511843E-1,2.1371574E0,1.2362929E-2,-1.7689802E-2,6.1003696E-2,3.6611304E-1,-2.290264E-2,1.3211559E-1,-1.633826E-1,-7.505004E-2,2.742205E-1,-6.466309E-2,-1.3715035E-2,-4.2222597E-2],"split_indices":[4,4,3,3,3,0,3,4,0,0,3,4,3,4,1,3,0,2,4,0,4,0,0,0,0,0,0,0,0,0,0,0,0],"split_type":[0,0,0,0,0,0,0,0,0,0,0,0,0,0,0,0,0,0,0,0,0,0,0,0,0,0,0,0,0,0,0,0,0],"sum_hessian":[2.631E3,1.35E3,1.281E3,1.304E3,4.6E1,2E0,1.279E3,1.283E3,2.1E1,3E0,4.3E1,4.8E1,1.231E3,1.242E3,4.1E1,4E1,3E0,1.9E1,2.9E1,1E0,1.23E3,6.7E2,5.72E2,3.7E1,4E0,5E0,3.5E1,1.2E1,7E0,3E0,2.6E1,1.148E3,8.2E1],"tree_param":{"num_deleted":"0","num_feature":"5","num_nodes":"33","size_leaf_vector":"0"}},{"base_weights":[1.5840171E-3,-7.1789427E-3,8.6553976E-2,5.6797776E-2,-1.2343871E-2,3.2831845E-1,-3.4843463E-2,6.798536E-2,-2.1986221E-1,-1.6514665E-1,-1.0555175E-2,2.9131612E-1,8.1588304E-1,-2.2623159E-1,-1.3743909E-3,-2.628981E-2,7.713411E-2,-3.268055E-2,-6.012535E-1,-7.2228305E-2,-8.343564E-3,2.0933555E-1,7.589232E-1,2.715462E-1,-3.977165E-1,1.5115401E-1,-2.576794E-2,5.9746753E-2,2.65193E-2,1.665717E-2,-2.20027E-2,-2.3700165E-2,-4.151274E-1,-2.0697962E-2,-5.000677E-2,1.9843377E-2,-5.7250285E-3,-1.23470835E-1,1.227111E-1,6.4204836E-1,-2.0490201E-2,3.049167E-1,-7.6817915E-2,-6.983035E-2,-2.5571096E-1,3.8507766E-1,3.583806E-2,-5.186386E-2,2.3723567E-2],"categories":[],"categories_nodes":[],"categories_segments":[],"categories_sizes":[],"default_left":[0,0,0,0,0,0,0,0,0,0,0,0,0,0,0,0,0,0,0,0,0,0,0,0,0,0,0,0,0,0,0,0,0,0,0,0,0,0,0,0,0,0,0,0,0,0,0,0,0],"id":7,"left_children":[1,3,5,7,9,11,13,15,-1,17,19,21,-1,23,25,-1,27,29,31,33,35,37,39,41,43,45,47,-1,-1,-1,-1,-1,-1,-1,-1,-1,-1,-1,-1,-1,-1,-1,-1,-1,-1,-1,-1,-1,-1],"loss_changes":[1.9990965E0,8.0498034E-1,7.378187E0,1.0794357E0,6.140418E-1,3.7675323E0,1.075827E0,2.0525265E-1,0E0,1.4823542E0,3.032898E-1,3.0229096E0,0E0,2.2420325E0,5.39677E-1,0E0,1.6613925E-1,2.021044E-2,8.301327E-1,6.71221E-2,3.8364875E-1,1.6215293E0,5.623593E0,1.200422E0,5.695555E-1,9.361595E-1,7.787071E-1,0E0,0E0,0E0,0E0,0E0,0E0,0E0,0E0,0E0,0E0,0E0,0E0,0E0,0E0,0E0,0E0,0E0,0E0,0E0,0E0,0E0,0E0],"parents":[2147483647,0,0,1,1,2,2,3,3,4,4,5,5,6,6,7,7,9,9,10,10,11,11,13,13,14,14,16,16,17,17,18,18,19,19,20,20,21,21,22,22,23,23,24,24,25,25,26,26],"right_children":[2,4,6,8,10,12,14,16,-1,18,20,22,-1,24,26,-1,28,30,32,34,36,38,40,42,44,46,48,-1,-1,-1,-1,-1,-1,-1,-1,-1,-1,-1,-1,-1,-1,-1,-1,-1,-1,-1,-1,-1,-1],"split_conditions":[1E0,-1.2947936E0,-5.7216257E-1,-1.3224983E0,-1.463587E0,1.6701944E-2,-3.3262163E-1,-1.6134747E0,-2.1986221E-1,-1.2273803E0,-1.2151233E0,-7.324907E-1,8.1588304E-1,-5.4711854E-1,-4.4390008E-1,-2.628981E-2,-1.5277183E0,-1.2702796E0,1E0,-1.1557571E0,-8.9281887E-1,-1.5405446E0,-4.8583373E-1,1E0,1E0,-2.652083E-1,1.8307332E0,5.9746753E-2,2.65193E-2,1.665717E-2,-2.20027E-2,-2.3700165E-2,-4.151274E-1,-2.0697962E-2,-5.000677E-2,1.9843377E-2,-5.7250285E-3,-1.23470835E-1,1.227111E-1,6.4204836E-1,-2.0490201E-2,3.049167E-1,-7.6817915E-2,-6.983035E-2,-2.5571096E-1,3.8507766E-1,3.583806E-2,-5.186386E-2,2.3723567E-2],"split_indices":[0,4,3,3,3,4,4,4,0,4,4,3,0,4,3,0,3,4,1,3,3,3,4,1,1,4,4,0,0,0,0,0,0,0,0,0,0,0,0,0,0,0,0,0,0,0,0,0,0],"split_type":[0,0,0,0,0,0,0,0,0,0,0,0,0,0,0,0,0,0,0,0,0,0,0,0,0,0,0,0,0,0,0,0,0,0,0,0,0,0,0,0,0,0,0,0,0,0,0,0,0],"sum_hessian":[2.683E3,2.433E3,2.5E2,1.81E2,2.252E3,8.3E1,1.67E2,1.78E2,3E0,2.5E1,2.227E3,8.2E1,1E0,2.4E1,1.43E2,1.2E1,1.66E2,2E1,5E0,7.6E1,2.151E3,7.1E1,1.1E1,6E0,1.8E1,1.9E1,1.24E2,5.1E1,1.15E2,3E0,1.7E1,2E0,3E0,4.1E1,3.5E1,1.44E2,2.007E3,6E0,6.5E1,6E0,5E0,3E0,3E0,7E0,1.1E1,1E0,1.8E1,5.9E1,6.5E1],"tree_param":{"num_deleted":"0","num_feature":"5","num_nodes":"49","size_leaf_vector":"0"}},{"base_weights":[2.1762524E-3,-3.3463726E-3,6.019003E-2,6.144819E-3,-1.4064382E-2,1.3196288E-1,-1.5888317E-2,-1.1760604E-2,5.9622537E-2,-7.084969E-2,-2.6808132E-3,2.3005975E-2,6.162706E-1,-2.1636195E-1,1.2057418E-2,-2.1868795E-3,-3.234241E-2,-3.645002E-1,6.447907E-2,-1.8558923E-2,-9.1706865E-2,1.192022E-1,-5.1389392E-3,-2.7531596E-2,5.3144073E-1,7.026576E-1,3.4658903E-1,-2.6011235E-1,-8.558879E-2,9.391934E-2,-3.6736492E-2,-6.8522734E-3,5.512967E-2,1.1468479E-1,2.1413436E-2,-3.9697208E-2,1.720205E-2,-5.3489078E-2,-1.5965473E-2,4.673913E-2,1.2290983E-1,-5.1725155E-4,-2.4647582E-2,1.7624622E-2,-8.323414E-2,5.710679E-1,8.323146E-2,2.189225E-1,2.475613E-2,-8.529366E-2,-2.4044812E-1,5.7993E-2,-1.2646404E-1,2.8465458E-3,8.295022E-2,4.0750105E-2,-2.9199928E-2],"categories":[],"categories_nodes":[],"categories_segments":[],"categories_sizes":[],"default_left":[0,0,0,0,0,0,0,0,0,0,0,0,0,0,0,0,0,0,0,0,0,0,0,0,0,0,0,0,0,0,0,0,0,0,0,0,0,0,0,0,0,0,0,0,0,0,0,0,0,0,0,0,0,0,0,0,0],"id":8,"left_children":[1,3,5,7,9,11,13,15,17,19,21,23,25,27,29,31,-1,-1,33,35,37,39,41,43,45,-1,47,49,51,53,55,-1,-1,-1,-1,-1,-1,-1,-1,-1,-1,-1,-1,-1,-1,-1,-1,-1,-1,-1,-1,-1,-1,-1,-1,-1,-1],"loss_changes":[8.5884213E-1,2.4911335E-1,1.2743604E0,1.2445471E0,7.4319243E-1,6.3180623E0,6.412804E-1,5.1849306E-1,1.345626E0,2.0770043E-1,2.8793257E-1,2.558442E0,4.5214424E0,5.7836592E-2,4.0688094E-1,1.178807E0,0E0,0E0,1.1157522E0,1.9835842E-1,1.5426195E-1,3.1829238E-2,1.7654677E-1,8.592433E-1,1.9149427E0,0E0,5.5794644E-1,1.09464645E-1,2.1540847E-1,2.6276258E-1,1.9274478E-1,0E0,0E0,0E0,0E0,0E0,0E0,0E0,0E0,0E0,0E0,0E0,0E0,0E0,0E0,0E0,0E0,0E0,0E0,0E0,0E0,0E0,0E0,0E0,0E0,0E0,0E0],"parents":[2147483647,0,0,1,1,2,2,3,3,4,4,5,5,6,6,7,7,8,8,9,9,10,10,11,11,12,12,13,13,14,14,15,15,18,18,19,19,20,20,21,21,22,22,23,23,24,24,26,26,27,27,28,28,29,29,30,30],"right_children":[2,4,6,8,10,12,14,16,18,20,22,24,26,28,30,32,-1,-1,34,36,38,40,42,44,46,-1,48,50,52,54,56,-1,-1,-1,-1,-1,-1,-1,-1,-1,-1,-1,-1,-1,-1,-1,-1,-1,-1,-1,-1,-1,-1,-1,-1,-1,-1],"split_conditions":[1E0,-2.4069437E-1,-1.3651015E-1,-4.3067738E-1,-4.6286263E-2,-5.529232E-1,3.3538312E-1,-3.1563756E-1,-1.1557571E0,-1.9166651E-1,-1.6715257E-1,-3.5713556E-1,-4.674483E-1,-3.9259505E-1,7.7459383E-1,-4.1824755E-1,-3.234241E-2,-3.645002E-1,-4.184204E-1,-8.476502E-2,1E0,1E0,2.1854815E0,-4.3680587E-1,-1.0274945E0,7.026576E-1,-2.515063E-1,1E0,-6.552564E-2,1.4630241E0,1.2791697E0,-6.8522734E-3,5.512967E-2,1.1468479E-1,2.1413436E-2,-3.9697208E-2,1.720205E-2,-5.3489078E-2,-1.5965473E-2,4.673913E-2,1.2290983E-1,-5.1725155E-4,-2.4647582E-2,1.7624622E-2,-8.323414E-2,5.710679E-1,8.323146E-2,2.189225E-1,2.475613E-2,-8.529366E-2,-2.4044812E-1,5.7993E-2,-1.2646404E-1,2.8465458E-3,8.295022E-2,4.0750105E-2,-2.9199928E-2],"split_indices":[0,4,4,4,3,3,4,3,3,4,4,4,4,3,3,3,0,0,4,3,2,1,3,4,3,0,3,1,3,4,4,0,0,0,0,0,0,0,0,0,0,0,0,0,0,0,0,0,0,0,0,0,0,0,0,0,0],"split_type":[0,0,0,0,0,0,0,0,0,0,0,0,0,0,0,0,0,0,0,0,0,0,0,0,0,0,0,0,0,0,0,0,0,0,0,0,0,0,0,0,0,0,0,0,0,0,0,0,0,0,0,0,0,0,0,0,0],"sum_hessian":[2.679E3,2.447E3,2.32E2,1.298E3,1.149E3,1.19E2,1.13E2,9.73E2,3.25E2,1.91E2,9.58E2,9.8E1,2.1E1,1.3E1,1E2,8.31E2,1.42E2,1E0,3.24E2,5.5E1,1.36E2,1.8E1,9.4E2,9E1,8E0,4E0,1.7E1,9E0,4E0,3.7E1,6.3E1,7.54E2,7.7E1,3.2E1,2.92E2,2.5E1,3E1,1.01E2,3.5E1,1.7E1,1E0,8.65E2,7.5E1,6.3E1,2.7E1,2E0,6E0,1.2E1,5E0,8E0,1E0,2E0,2E0,1.8E1,1.9E1,1E1,5.3E1],"tree_param":{"num_deleted":"0","num_feature":"5","num_nodes":"57","size_leaf_vector":"0"}},{"base_weights":[-9.014282E-4,-1.0968267E-1,4.911338E-3,-7.051585E-2,-3.820064E-1,-2.051959E-3,5.1090736E-2,4.9963754E-2,-9.779378E-2,-1.1471362E-1,-4.8027185E-1,1.2812246E-1,-4.549799E-3,1.4314179E-1,-1.8693091E-2,-4.424092E-2,1.1368397E-1,-1.3775912E-1,-1.7337697E-2,-2.2620272E-3,-1.762388E-1,-1.297849E-2,9.440453E-1,-2.7371828E-2,3.9719427E-3,-4.2041566E-2,2.8592953E-1,4.7761805E-2,-3.381209E-2,-2.8308267E-2,-8.50136E-3,9.119748E-2,1.5696727E-2,-8.140431E-2,1.7675683E-2,1.7688738E-1,-1.9294726E-2,-7.107003E-2,3.9060343E-2,3.1524904E-2,-5.9163805E-2,8.302681E-3,-3.146614E-2,1.8673667E-1,1.5060922E-4,7.6785823E-3,-1.9127972E-1,9.208405E-1,1.061458E-1,-1.05325036E-1,3.777649E-2,-1.2174332E-1,-1.1230967E-2],"categories":[],"categories_nodes":[],"categories_segments":[],"categories_sizes":[],"default_left":[0,0,0,0,0,0,0,0,0,0,0,0,0,0,0,0,0,0,0,0,0,0,0,0,0,0,0,0,0,0,0,0,0,0,0,0,0,0,0,0,0,0,0,0,0,0,0,0,0,0,0,0,0],"id":9,"left_children":[1,3,5,7,9,11,13,15,17,19,-1,21,23,25,27,29,31,33,35,37,-1,39,-1,41,43,45,47,49,51,-1,-1,-1,-1,-1,-1,-1,-1,-1,-1,-1,-1,-1,-1,-1,-1,-1,-1,-1,-1,-1,-1,-1,-1],"loss_changes":[1.7078025E0,1.4343122E0,8.2458687E-1,4.0254468E-1,2.6959438E0,7.2535324E-1,2.1610308E0,1.4309254E-1,3.159417E-1,3.682195E-1,0E0,1.092174E1,4.2563847E-1,3.846098E0,1.9452342E-1,2.8645378E-3,8.030458E-2,3.730433E-1,3.147092E-1,1.3399298E-1,0E0,3.55058E-1,0E0,1.0159558E0,2.2452285E0,1.3304273E0,8.249144E0,3.1486735E-1,3.5347897E-1,0E0,0E0,0E0,0E0,0E0,0E0,0E0,0E0,0E0,0E0,0E0,0E0,0E0,0E0,0E0,0E0,0E0,0E0,0E0,0E0,0E0,0E0,0E0,0E0],"parents":[2147483647,0,0,1,1,2,2,3,3,4,4,5,5,6,6,7,7,8,8,9,9,11,11,12,12,13,13,14,14,15,15,16,16,17,17,18,18,19,19,21,21,23,23,24,24,25,25,26,26,27,27,28,28],"right_children":[2,4,6,8,10,12,14,16,18,20,-1,22,24,26,28,30,32,34,36,38,-1,40,-1,42,44,46,48,50,52,-1,-1,-1,-1,-1,-1,-1,-1,-1,-1,-1,-1,-1,-1,-1,-1,-1,-1,-1,-1,-1,-1,-1,-1],"split_conditions":[-1.3994558E0,1E0,1E0,-1.5469577E0,-1.5341314E0,-1.207062E0,-4.4390008E-1,-1.5533708E0,1E0,-1.2702796E0,-4.8027185E-1,1E0,-3.7976882E-1,-5.9614646E-1,-1.4876711E-1,1E0,1E0,-1.4663912E0,-1.490905E0,-1.490905E0,-1.762388E-1,-1.3802165E0,9.440453E-1,-6.819452E-1,-3.5411632E-1,1E0,-5.593755E-1,-5.1647615E-1,-2.4509317E-1,-2.8308267E-2,-8.50136E-3,9.119748E-2,1.5696727E-2,-8.140431E-2,1.7675683E-2,1.7688738E-1,-1.9294726E-2,-7.107003E-2,3.9060343E-2,3.1524904E-2,-5.9163805E-2,8.302681E-3,-3.146614E-2,1.8673667E-1,1.5060922E-4,7.6785823E-3,-1.9127972E-1,9.208405E-1,1.061458E-1,-1.05325036E-1,3.777649E-2,-1.2174332E-1,-1.1230967E-2],"split_indices":[3,0,1,3,3,3,3,3,2,4,0,0,3,4,4,2,2,4,4,4,0,3,0,4,3,0,4,4,3,0,0,0,0,0,0,0,0,0,0,0,0,0,0,0,0,0,0,0,0,0,0,0,0],"split_type":[0,0,0,0,0,0,0,0,0,0,0,0,0,0,0,0,0,0,0,0,0,0,0,0,0,0,0,0,0,0,0,0,0,0,0,0,0,0,0,0,0,0,0,0,0,0,0,0,0,0,0,0,0],"sum_hessian":[2.699E3,1.36E2,2.563E3,1.2E2,1.6E1,2.228E3,3.35E2,2.2E1,9.8E1,1.2E1,4E0,4.1E1,2.187E3,1.44E2,1.91E2,9E0,1.3E1,6.5E1,3.3E1,9E0,3E0,3.9E1,2E0,5.94E2,1.593E3,6.3E1,8.1E1,3.5E1,1.56E2,5E0,4E0,6E0,7E0,5.5E1,1E1,1E0,3.2E1,3E0,6E0,2.3E1,1.6E1,2.74E2,3.2E2,1.4E1,1.579E3,5.5E1,8E0,2E0,7.9E1,3E0,3.2E1,6E0,1.5E2],"tree_param":{"num_deleted":"0","num_feature":"5","num_nodes":"53","size_leaf_vector":"0"}},{"base_weights":[1.4098187E-3,1.24693245E-1,-1.2865037E-3,1.7179869E-1,-6.234326E-2,4.4871774E-3,-5.638066E-2,1.2695871E-1,3.3705208E-1,-1.1000361E-1,1.1730567E-1,-9.4998635E-2,7.2168643E-3,-1.57946E-1,3.610341E-2,1.48085E-1,1.01865605E-1,2.6779544E-1,6.414719E-2,3.935681E-2,-1.5226331E-1,-3.5273578E-2,1.1973366E-1,-6.450497E-2,-1.7705055E-1,2.1675138E-3,6.922202E-2,6.278017E-2,-2.4277955E-1,6.315845E-1,-8.8585345E-3,3.8644128E-2,1.0062457E-1,-3.203187E-3,3.154009E-2,-1.3682945E-1,-4.4433177E-2,2.137853E-2,-5.190954E-2,-1.2265726E-2,3.0138216E-3,1.0817055E-1,-1.4197518E-2,-4.1470513E-2,2.590839E-1,-3.1489247E-1,-5.3708028E-2,3.9660004E-1,8.721119E-2,-8.689688E-2,7.4830344E-3],"categories":[],"categories_nodes":[],"categories_segments":[],"categories_sizes":[],"default_left":[0,0,0,0,0,0,0,0,0,0,0,0,0,0,0,0,0,0,0,0,0,0,0,0,0,0,0,0,0,0,0,0,0,0,0,0,0,0,0,0,0,0,0,0,0,0,0,0,0,0,0],"id":10,"left_children":[1,3,5,7,9,11,13,15,17,19,21,23,25,27,29,-1,31,-1,-1,33,35,-1,-1,37,-1,39,41,43,45,47,49,-1,-1,-1,-1,-1,-1,-1,-1,-1,-1,-1,-1,-1,-1,-1,-1,-1,-1,-1,-1],"loss_changes":[8.6974984E-1,5.0409496E-1,8.1489706E-1,2.9065633E-1,1.15649626E-1,6.304452E-1,2.2882442E0,1.371342E-1,3.297627E-1,6.911188E-2,9.396446E-2,4.939623E-1,7.067976E-1,2.1873398E0,3.432665E0,0E0,6.1377734E-2,0E0,0E0,4.0774094E-3,3.703031E-2,0E0,0E0,2.7605972E-1,0E0,2.382423E-1,2.629085E0,2.3947215E0,4.470067E0,6.380892E-1,5.0795114E-1,0E0,0E0,0E0,0E0,0E0,0E0,0E0,0E0,0E0,0E0,0E0,0E0,0E0,0E0,0E0,0E0,0E0,0E0,0E0,0E0],"parents":[2147483647,0,0,1,1,2,2,3,3,4,4,5,5,6,6,7,7,8,8,9,9,10,10,11,11,12,12,13,13,14,14,16,16,19,19,20,20,23,23,25,25,26,26,27,27,28,28,29,29,30,30],"right_children":[2,4,6,8,10,12,14,16,18,20,22,24,26,28,30,-1,32,-1,-1,34,36,-1,-1,38,-1,40,42,44,46,48,50,-1,-1,-1,-1,-1,-1,-1,-1,-1,-1,-1,-1,-1,-1,-1,-1,-1,-1,-1,-1],"split_conditions":[-1.490905E0,-1.4122821E0,1E0,1E0,-1.6012177E0,-1.4663912E0,-5.4009694E-1,-1.5533708E0,-1.5277183E0,-1.3930427E0,-1.3994558E0,-1.3738034E0,1E0,-6.513028E-1,-4.310738E-1,1.48085E-1,1E0,2.6779544E-1,6.414719E-2,-1.3994558E0,-1.3802165E0,-3.5273578E-2,1.1973366E-1,-1.5277183E0,-1.7705055E-1,-9.633633E-1,-5.529232E-1,-1.0067549E0,-5.1647615E-1,-3.5713556E-1,-1.4263864E-1,3.8644128E-2,1.0062457E-1,-3.203187E-3,3.154009E-2,-1.3682945E-1,-4.4433177E-2,2.137853E-2,-5.190954E-2,-1.2265726E-2,3.0138216E-3,1.0817055E-1,-1.4197518E-2,-4.1470513E-2,2.590839E-1,-3.1489247E-1,-5.3708028E-2,3.9660004E-1,8.721119E-2,-8.689688E-2,7.4830344E-3],"split_indices":[4,3,0,1,4,4,3,3,3,3,3,3,1,4,3,0,0,0,0,3,3,0,0,3,0,3,3,4,4,4,4,0,0,0,0,0,0,0,0,0,0,0,0,0,0,0,0,0,0,0,0],"split_type":[0,0,0,0,0,0,0,0,0,0,0,0,0,0,0,0,0,0,0,0,0,0,0,0,0,0,0,0,0,0,0,0,0,0,0,0,0,0,0,0,0,0,0,0,0,0,0,0,0,0,0],"sum_hessian":[2.615E3,5.5E1,2.56E3,4.4E1,1.1E1,2.318E3,2.42E2,3.6E1,8E0,9E0,2E0,6.1E1,2.257E3,1.15E2,1.27E2,3E0,3.3E1,3E0,5E0,2E0,7E0,1E0,1E0,5.6E1,5E0,2.088E3,1.69E2,3.2E1,8.3E1,8E0,1.19E2,2.9E1,4E0,1E0,1E0,1E0,6E0,1.6E1,4E1,2.69E2,1.819E3,6.5E1,1.04E2,2.5E1,7E0,1.9E1,6.4E1,5E0,3E0,1.4E1,1.05E2],"tree_param":{"num_deleted":"0","num_feature":"5","num_nodes":"51","size_leaf_vector":"0"}},{"base_weights":[2.0569102E-3,1.9420687E-2,-6.5321587E-3,1.3661461E-2,7.25854E-1,-8.292875E-2,6.073307E-4,5.8389227E-3,3.604278E-1,6.3982975E-1,4.025034E-1,1.4376579E-1,-1.0918196E-1,2.7223637E-2,-7.2707273E-3,-5.5162627E-3,7.181674E-2,1.8819687E-1,-5.0220992E-2,5.2346017E-2,2.1090354E-1,8.985136E-2,-1.2182457E-1,-9.407184E-2,-3.1027123E-1,1.2591195E-2,1.7016518E-1,-6.706257E-2,-3.1444414E-3,2.2781142E-3,-1.2026901E-1,4.8821336E-1,1.918743E-2,-8.911481E-2,-2.0776544E-2,1.9968509E-4,-3.3539245E-1,1.022595E-2,-9.801041E-2,2.4426264E-1,4.5224827E-2,-1.3423872E-2,-4.971336E-2,6.0718108E-2,-2.3218011E-3],"categories":[],"categories_nodes":[],"categories_segments":[],"categories_sizes":[],"default_left":[0,0,0,0,0,0,0,0,0,0,0,0,0,0,0,0,0,0,0,0,0,0,0,0,0,0,0,0,0,0,0,0,0,0,0,0,0,0,0,0,0,0,0,0,0],"id":11,"left_children":[1,3,5,7,9,11,13,15,17,-1,19,21,23,25,27,29,31,-1,-1,-1,-1,-1,-1,33,35,37,39,41,43,-1,-1,-1,-1,-1,-1,-1,-1,-1,-1,-1,-1,-1,-1,-1,-1],"loss_changes":[3.9116848E-1,3.5215502E0,9.5728457E-1,2.3361506E0,8.376703E-1,9.084157E-1,3.3695176E-1,6.3271284E-1,3.206737E-1,0E0,1.7016172E-2,3.2373577E-1,3.8100743E-1,7.654687E-1,3.0571976E-1,1.8143061E0,3.6918592E0,0E0,0E0,0E0,0E0,0E0,0E0,5.8268046E-1,1.0865053E0,6.3519967E-1,8.266817E-1,1.11286014E-1,2.5537622E-1,0E0,0E0,0E0,0E0,0E0,0E0,0E0,0E0,0E0,0E0,0E0,0E0,0E0,0E0,0E0,0E0],"parents":[2147483647,0,0,1,1,2,2,3,3,4,4,5,5,6,6,7,7,8,8,10,10,11,11,12,12,13,13,14,14,15,15,16,16,23,23,24,24,25,25,26,26,27,27,28,28],"right_children":[2,4,6,8,10,12,14,16,18,-1,20,22,24,26,28,30,32,-1,-1,-1,-1,-1,-1,34,36,38,40,42,44,-1,-1,-1,-1,-1,-1,-1,-1,-1,-1,-1,-1,-1,-1,-1,-1],"split_conditions":[-4.4390008E-1,1.6701944E-2,-3.1563756E-1,-4.823788E-1,1E0,-5.4711854E-1,-1.3607003E-1,-4.980907E-1,-2.4069437E-1,6.3982975E-1,-5.6574947E-1,1E0,1E0,-3.019792E-1,-2.0392348E-1,-5.9614646E-1,-1.0723864E0,1.8819687E-1,-5.0220992E-2,5.2346017E-2,2.1090354E-1,8.985136E-2,-1.2182457E-1,-4.1824755E-1,-3.7976882E-1,-3.3262163E-1,-2.8359377E-1,-1.1683065E-1,-1.9166651E-1,2.2781142E-3,-1.2026901E-1,4.8821336E-1,1.918743E-2,-8.911481E-2,-2.0776544E-2,1.9968509E-4,-3.3539245E-1,1.022595E-2,-9.801041E-2,2.4426264E-1,4.5224827E-2,-1.3423872E-2,-4.971336E-2,6.0718108E-2,-2.3218011E-3],"split_indices":[3,4,3,3,1,4,3,4,4,0,3,1,0,4,4,4,3,0,0,0,0,0,0,3,3,4,4,3,4,0,0,0,0,0,0,0,0,0,0,0,0,0,0,0,0],"split_type":[0,0,0,0,0,0,0,0,0,0,0,0,0,0,0,0,0,0,0,0,0,0,0,0,0,0,0,0,0,0,0,0,0,0,0,0,0,0,0,0,0,0,0,0,0],"sum_hessian":[2.621E3,8.67E2,1.754E3,8.61E2,6E0,1.49E2,1.605E3,8.43E2,1.8E1,1E0,5E0,1.5E1,1.34E2,3.66E2,1.239E3,7.2E2,1.23E2,1.7E1,1E0,1E0,4E0,1.4E1,1E0,1.26E2,8E0,3.33E2,3.3E1,7.9E1,1.16E3,6.92E2,2.8E1,3E0,1.2E2,4.4E1,8.2E1,5E0,3E0,3.21E2,1.2E1,5E0,2.8E1,3.9E1,4E1,1.4E1,1.146E3],"tree_param":{"num_deleted":"0","num_feature":"5","num_nodes":"45","size_leaf_vector":"0"}},{"base_weights":[-4.0362556E-3,-9.2349425E-3,4.6778817E-2,-1.1570172E-1,-7.330633E-3,2.0793107E-1,-4.64935E-2,-1.3301234E-1,-2.550504E-2,-2.4747455E-2,-3.0623518E-3,1.6190544E-1,7.145787E-1,-3.2978457E-1,-3.37132E-2,-8.6967915E-2,-1.4628772E-1,1.3382271E-1,-1.4786623E-1,3.6426564E-3,-1.8418969E-1,6.263849E-2,-1.2833842E-2,2.1538645E-1,-3.9982796E-1,-9.635202E-2,1.0752853E-3,-1.1450324E-1,-2.8945398E-2,1.01618975E-1,1.7900553E-2,-9.900517E-2,-1.928782E-2,5.4311086E-3,-3.5024133E-2,-1.418164E-1,-7.923268E-2,1.461212E-2,1.6548033E-1,-3.8369575E-1,-5.697771E-3,2.424803E-2,2.1206823E-1,-2.9220584E-1,7.2631896E-2,1.5496562E-2,-1.15715E-1,3.21759E-2,-1.3511988E-2],"categories":[],"categories_nodes":[],"categories_segments":[],"categories_sizes":[],"default_left":[0,0,0,0,0,0,0,0,0,0,0,0,0,0,0,0,0,0,0,0,0,0,0,0,0,0,0,0,0,0,0,0,0,0,0,0,0,0,0,0,0,0,0,0,0,0,0,0,0],"id":12,"left_children":[1,3,5,7,9,11,13,15,17,19,21,23,-1,-1,25,27,-1,29,31,33,35,37,39,41,43,45,47,-1,-1,-1,-1,-1,-1,-1,-1,-1,-1,-1,-1,-1,-1,-1,-1,-1,-1,-1,-1,-1,-1],"loss_changes":[6.9731677E-1,4.8452497E-1,3.6922734E0,6.218469E-2,1.7484598E-1,5.0643306E0,1.2539347E0,2.5028574E-1,1.7575215E-1,2.096479E0,1.2148168E0,2.72982E0,0E0,0E0,3.356865E-1,1.0282977E-1,0E0,2.2177227E-2,2.3152404E-2,2.3240331E-1,1.00155115E-1,2.2148516E0,1.2386296E0,3.001427E0,1.0133392E0,1.0316846E0,1.946505E-1,0E0,0E0,0E0,0E0,0E0,0E0,0E0,0E0,0E0,0E0,0E0,0E0,0E0,0E0,0E0,0E0,0E0,0E0,0E0,0E0,0E0,0E0],"parents":[2147483647,0,0,1,1,2,2,3,3,4,4,5,5,6,6,7,7,8,8,9,9,10,10,11,11,14,14,15,15,17,17,18,18,19,19,20,20,21,21,22,22,23,23,24,24,25,25,26,26],"right_children":[2,4,6,8,10,12,14,16,18,20,22,24,-1,-1,26,28,-1,30,32,34,36,38,40,42,44,46,48,-1,-1,-1,-1,-1,-1,-1,-1,-1,-1,-1,-1,-1,-1,-1,-1,-1,-1,-1,-1,-1,-1],"split_conditions":[1E0,-1.4970336E0,-5.7216257E-1,-1.5277183E0,-6.758167E-1,-6.362938E-1,-6.513028E-1,-1.6012177E0,1E0,-7.4935853E-1,-4.8583373E-1,-6.875988E-1,7.145787E-1,-3.2978457E-1,-2.4509317E-1,-1.5533708E0,-1.4628772E-1,-1.463587E0,-1.3738034E0,-8.3515733E-1,-7.324907E-1,-4.1824755E-1,-1.1557571E0,-8.9281887E-1,-3.816495E-1,-5.529232E-1,7.1046257E-1,-1.1450324E-1,-2.8945398E-2,1.01618975E-1,1.7900553E-2,-9.900517E-2,-1.928782E-2,5.4311086E-3,-3.5024133E-2,-1.418164E-1,-7.923268E-2,1.461212E-2,1.6548033E-1,-3.8369575E-1,-5.697771E-3,2.424803E-2,2.1206823E-1,-2.9220584E-1,7.2631896E-2,1.5496562E-2,-1.15715E-1,3.21759E-2,-1.3511988E-2],"split_indices":[0,4,3,3,4,3,4,4,1,4,4,3,0,0,3,3,0,3,3,4,3,3,3,3,4,3,3,0,0,0,0,0,0,0,0,0,0,0,0,0,0,0,0,0,0,0,0,0,0],"split_type":[0,0,0,0,0,0,0,0,0,0,0,0,0,0,0,0,0,0,0,0,0,0,0,0,0,0,0,0,0,0,0,0,0,0,0,0,0,0,0,0,0,0,0,0,0,0,0,0,0],"sum_hessian":[2.637E3,2.393E3,2.44E2,4.1E1,2.352E3,8.9E1,1.55E2,3.4E1,7E0,4.62E2,1.89E3,8.7E1,2E0,2E0,1.53E2,2.8E1,6E0,3E0,4E0,3.93E2,6.9E1,2.44E2,1.646E3,8E1,7E0,5.4E1,9.9E1,3E0,2.5E1,1E0,2E0,2E0,2E0,3.58E2,3.5E1,8E0,6.1E1,2.2E2,2.4E1,1E0,1.645E3,4.7E1,3.3E1,5E0,2E0,2.9E1,2.5E1,3E1,6.9E1],"tree_param":{"num_deleted":"0","num_feature":"5","num_nodes":"49","size_leaf_vector":"0"}},{"base_weights":[-9.1801694E-4,-5.1520327E-3,3.6544815E-2,-1.554427E-3,-5.0445043E-2,6.407344E-2,-2.0753745E-2,1.9276585E-2,-8.2209045E-3,3.0437058E-2,-1.4024922E-1,1.2169809E-1,4.59711E-2,-1.2907568E-1,6.735754E-3,8.182672E-3,3.2713774E-1,-3.5889197E-2,3.5121366E-3,-7.802858E-2,2.0257317E-1,-7.3176587E-1,-5.162345E-2,6.53601E-2,-3.70908E-2,1.2430904E-1,-8.8735076E-4,1.8684195E-3,1.6016474E-1,-2.1061448E-3,-2.585403E-2,7.298275E-2,-1.4061954E-4,2.5522202E-2,-1.3713439E-1,2.7635524E-1,2.065895E-2,-7.318216E-2,-8.195666E-1,-1.3145666E-1,-6.3449363E-3,-5.959396E-2,3.5924688E-2,-1.9940246E-2,2.528482E-2,8.4533304E-2,3.2318767E-2,3.6674119E-3,-2.3244917E-2],"categories":[],"categories_nodes":[],"categories_segments":[],"categories_sizes":[],"default_left":[0,0,0,0,0,0,0,0,0,0,0,0,0,0,0,0,0,0,0,0,0,0,0,0,0,0,0,0,0,0,0,0,0,0,0,0,0,0,0,0,0,0,0,0,0,0,0,0,0],"id":13,"left_children":[1,3,5,7,9,11,13,15,17,19,21,-1,23,-1,25,27,-1,29,31,33,35,37,39,41,43,45,47,-1,-1,-1,-1,-1,-1,-1,-1,-1,-1,-1,-1,-1,-1,-1,-1,-1,-1,-1,-1,-1,-1],"loss_changes":[4.295678E-1,3.9637017E-1,4.3510124E-1,3.1330913E-1,1.3044443E0,6.262777E-1,6.157577E-1,4.013265E0,5.549242E-1,1.7895374E0,4.418231E0,0E0,2.778176E-1,0E0,7.3604725E-2,7.513668E-1,0E0,2.8795242E-1,6.7883855E-1,1.6227059E0,2.17793E0,5.9569407E0,6.365248E-1,2.590978E-1,1.5374757E-2,2.9002577E-3,3.1991787E-2,0E0,0E0,0E0,0E0,0E0,0E0,0E0,0E0,0E0,0E0,0E0,0E0,0E0,0E0,0E0,0E0,0E0,0E0,0E0,0E0,0E0,0E0],"parents":[2147483647,0,0,1,1,2,2,3,3,4,4,5,5,6,6,7,7,8,8,9,9,10,10,12,12,14,14,15,15,17,17,18,18,19,19,20,20,21,21,22,22,23,23,24,24,25,25,26,26],"right_children":[2,4,6,8,10,12,14,16,18,20,22,-1,24,-1,26,28,-1,30,32,34,36,38,40,42,44,46,48,-1,-1,-1,-1,-1,-1,-1,-1,-1,-1,-1,-1,-1,-1,-1,-1,-1,-1,-1,-1,-1,-1],"split_conditions":[1.8307332E0,1E0,2.1371574E0,-5.7216257E-1,-3.7552103E-1,7.7459383E-1,7.361151E-1,-5.9140193E-1,-3.0922443E-1,-8.8640577E-1,-5.7216257E-1,1.2169809E-1,2.1854815E0,-1.2907568E-1,1.0182927E0,-3.5713556E-1,3.2713774E-1,-5.593755E-1,-3.028113E-1,1E0,-8.47927E-1,-7.709695E-1,-2.652083E-1,9.285089E-1,1E0,1E0,1E0,1.8684195E-3,1.6016474E-1,-2.1061448E-3,-2.585403E-2,7.298275E-2,-1.4061954E-4,2.5522202E-2,-1.3713439E-1,2.7635524E-1,2.065895E-2,-7.318216E-2,-8.195666E-1,-1.3145666E-1,-6.3449363E-3,-5.959396E-2,3.5924688E-2,-1.9940246E-2,2.528482E-2,8.4533304E-2,3.2318767E-2,3.6674119E-3,-2.3244917E-2],"split_indices":[4,0,4,3,4,3,3,3,3,3,3,0,3,0,3,4,0,4,3,1,3,3,4,3,1,0,2,0,0,0,0,0,0,0,0,0,0,0,0,0,0,0,0,0,0,0,0,0,0],"split_type":[0,0,0,0,0,0,0,0,0,0,0,0,0,0,0,0,0,0,0,0,0,0,0,0,0,0,0,0,0,0,0,0,0,0,0,0,0,0,0,0,0,0,0,0,0,0,0,0,0],"sum_hessian":[2.706E3,2.432E3,2.74E2,2.254E3,1.78E2,1.85E2,8.9E1,5.46E2,1.708E3,9.4E1,8.4E1,1.5E1,1.7E2,8E0,8.1E1,5.38E2,8E0,5.08E2,1.2E3,5.8E1,3.6E1,1E1,7.4E1,1.38E2,3.2E1,4E0,7.7E1,5.32E2,6E0,1.85E2,3.23E2,2.9E1,1.171E3,3.6E1,2.2E1,1E1,2.6E1,7E0,3E0,1E1,6.4E1,6E0,1.32E2,3.1E1,1E0,1E0,3E0,6.6E1,1.1E1],"tree_param":{"num_deleted":"0","num_feature":"5","num_nodes":"49","size_leaf_vector":"0"}},{"base_weights":[-4.3421777E-4,-1.5338325E-2,8.128711E-3,-1.1612556E-2,-2.7238524E-1,1.843986E-2,-9.772305E-3,4.538524E-3,-2.8804213E-2,-1.623236E-1,-1.5828574E-1,1.0973539E-2,1.4593104E-1,-4.079829E-2,7.617295E-3,-1.8309513E-2,1.8642578E-1,-3.3216402E-1,-1.5988637E-2,3.2098457E-2,-3.4387183E-1,3.1411648E-2,4.426604E-3,2.6368466E-1,1.2254885E-1,-6.796677E-2,9.29416E-3,1.12943344E-1,-8.353842E-3,-7.536679E-3,-2.8293908E-1,1.1871844E-1,-5.6864183E-2,-5.5799413E-2,-2.6839358E-1,-1.5527052E-2,3.767982E-2,-7.480596E-2,-2.1790802E-1,5.92065E-3,6.576691E-2,-1.12833595E-2,6.6211205E-3,5.1799834E-2,9.130757E-2,-2.8251238E-2,-7.518808E-2,4.182015E-2,-4.8034876E-3,8.030853E-2,3.596362E-2,3.449525E-2,-5.243804E-3],"categories":[],"categories_nodes":[],"categories_segments":[],"categories_sizes":[],"default_left":[0,0,0,0,0,0,0,0,0,0,0,0,0,0,0,0,0,0,0,0,0,0,0,0,0,0,0,0,0,0,0,0,0,0,0,0,0,0,0,0,0,0,0,0,0,0,0,0,0,0,0,0,0],"id":14,"left_children":[1,3,5,7,9,11,13,15,17,-1,19,21,23,25,27,29,31,33,35,-1,37,39,41,-1,43,45,47,49,51,-1,-1,-1,-1,-1,-1,-1,-1,-1,-1,-1,-1,-1,-1,-1,-1,-1,-1,-1,-1,-1,-1,-1,-1],"loss_changes":[3.438129E-1,9.382534E-1,3.1599662E-1,2.6946467E-1,5.1562548E-2,1.032151E0,3.3805624E-1,2.0854523E0,1.8219227E0,0E0,3.1549805E-1,1.3728073E-1,4.9863803E-1,3.068422E-1,6.7717856E-1,6.551094E-1,1.0691806E0,8.661978E-1,7.0122755E-1,0E0,1.2059033E-2,4.9994022E-1,2.041614E-1,0E0,3.690684E-2,1.0872394E-1,1.2105208E-1,9.701288E-2,7.296306E-2,0E0,0E0,0E0,0E0,0E0,0E0,0E0,0E0,0E0,0E0,0E0,0E0,0E0,0E0,0E0,0E0,0E0,0E0,0E0,0E0,0E0,0E0,0E0,0E0],"parents":[2147483647,0,0,1,1,2,2,3,3,4,4,5,5,6,6,7,7,8,8,10,10,11,11,12,12,13,13,14,14,15,15,16,16,17,17,18,18,20,20,21,21,22,22,24,24,25,25,26,26,27,27,28,28],"right_children":[2,4,6,8,10,12,14,16,18,-1,20,22,24,26,28,30,32,34,36,-1,38,40,42,-1,44,46,48,50,52,-1,-1,-1,-1,-1,-1,-1,-1,-1,-1,-1,-1,-1,-1,-1,-1,-1,-1,-1,-1,-1,-1,-1,-1],"split_conditions":[-3.220507E-1,-3.5411632E-1,8.5017574E-1,-8.8640577E-1,-3.3487692E-1,7.5212E-1,1.1850339E0,-9.50537E-1,-8.47927E-1,-1.623236E-1,-4.4906282E-1,-2.771588E-1,2.3589127E-1,1.4630241E0,1.2791697E0,-3.3262163E-1,-4.3067738E-1,1E0,1E0,3.2098457E-2,1E0,-3.028113E-1,-2.5295135E-1,2.6368466E-1,1E0,1E0,1E0,1.0340303E0,1.2235126E0,-7.536679E-3,-2.8293908E-1,1.1871844E-1,-5.6864183E-2,-5.5799413E-2,-2.6839358E-1,-1.5527052E-2,3.767982E-2,-7.480596E-2,-2.1790802E-1,5.92065E-3,6.576691E-2,-1.12833595E-2,6.6211205E-3,5.1799834E-2,9.130757E-2,-2.8251238E-2,-7.518808E-2,4.182015E-2,-4.8034876E-3,8.030853E-2,3.596362E-2,3.449525E-2,-5.243804E-3],"split_indices":[3,3,4,3,3,4,3,3,3,0,4,3,3,4,4,4,4,0,1,0,2,3,4,0,1,0,0,4,3,0,0,0,0,0,0,0,0,0,0,0,0,0,0,0,0,0,0,0,0,0,0,0,0],"split_type":[0,0,0,0,0,0,0,0,0,0,0,0,0,0,0,0,0,0,0,0,0,0,0,0,0,0,0,0,0,0,0,0,0,0,0,0,0,0,0,0,0,0,0,0,0,0,0,0,0,0,0,0,0],"sum_hessian":[2.692E3,9.82E2,1.71E3,9.69E2,1.3E1,1.085E3,6.25E2,5E2,4.69E2,7E0,6E0,1.026E3,5.9E1,2.24E2,4.01E2,4.45E2,5.5E1,1.8E1,4.51E2,3E0,3E0,2.48E2,7.78E2,2E0,5.7E1,1.45E2,7.9E1,5.2E1,3.49E2,4.44E2,1E0,4.6E1,9E0,1E1,8E0,3.85E2,6.6E1,2E0,1E0,2.11E2,3.7E1,1.95E2,5.83E2,4.9E1,8E0,1.33E2,1.2E1,1.5E1,6.4E1,2E1,3.2E1,1E1,3.39E2],"tree_param":{"num_deleted":"0","num_feature":"5","num_nodes":"53","size_leaf_vector":"0"}},{"base_weights":[-2.5401057E-3,1.8589841E-2,-1.2647885E-2,1.0556204E-2,1.6139403E-1,-1.0321308E-1,-6.43512E-3,-3.7946433E-2,2.4648078E-2,6.024239E-1,6.6788055E-2,-3.5468552E-1,-5.6448262E-2,-2.5765605E-2,4.309947E-3,1.2502282E-2,-8.4846824E-2,3.1091385E-2,-8.050413E-2,1.4985082E-1,3.910134E-1,-1.1698142E-1,8.137255E-2,-2.1329455E-1,-1.01268604E-1,-2.3290027E-2,-2.405817E-1,1.7641862E-1,-2.9114727E-2,4.3553337E-2,-5.948625E-4,-2.8724454E-2,4.6371356E-2,-1.626058E-2,-7.930019E-2,1.2190041E-2,1.6019943E-1,-3.3141647E-2,-1.1832701E-1,1.1132116E-1,3.4097105E-2,-1.7046519E-2,-6.012851E-2,-2.6214293E-1,-5.0708004E-3,-2.71088E-3,-1.715923E-1,1.3210526E-1,1.0835568E-2,3.88043E-3,-2.0705614E-2,-6.653524E-3,3.975353E-2,-1.1926631E-2,1.2651327E-3],"categories":[],"categories_nodes":[],"categories_segments":[],"categories_sizes":[],"default_left":[0,0,0,0,0,0,0,0,0,0,0,0,0,0,0,0,0,0,0,0,0,0,0,0,0,0,0,0,0,0,0,0,0,0,0,0,0,0,0,0,0,0,0,0,0,0,0,0,0,0,0,0,0,0,0],"id":15,"left_children":[1,3,5,7,9,11,13,15,17,19,21,23,25,27,29,31,33,35,37,-1,-1,-1,39,-1,41,43,45,47,49,51,53,-1,-1,-1,-1,-1,-1,-1,-1,-1,-1,-1,-1,-1,-1,-1,-1,-1,-1,-1,-1,-1,-1,-1,-1],"loss_changes":[5.709124E-1,9.906564E-1,1.0166255E0,5.6139964E-1,1.8790722E0,1.3441459E0,3.5175958E-1,4.3878272E-1,4.334107E-1,2.3836017E-1,1.9644193E-1,3.6406708E-1,5.9884524E-1,4.1480583E-1,2.096381E-1,5.533904E-1,3.8762861E-1,1.0257888E0,5.3365186E-2,0E0,0E0,0E0,4.2660534E-2,0E0,5.0196685E-3,5.5978686E-1,4.099458E-1,1.4578658E-1,3.1122398E-1,2.739402E-1,7.598505E-2,0E0,0E0,0E0,0E0,0E0,0E0,0E0,0E0,0E0,0E0,0E0,0E0,0E0,0E0,0E0,0E0,0E0,0E0,0E0,0E0,0E0,0E0,0E0,0E0],"parents":[2147483647,0,0,1,1,2,2,3,3,4,4,5,5,6,6,7,7,8,8,9,9,10,10,11,11,12,12,13,13,14,14,15,15,16,16,17,17,18,18,22,22,24,24,25,25,26,26,27,27,28,28,29,29,30,30],"right_children":[2,4,6,8,10,12,14,16,18,20,22,24,26,28,30,32,34,36,38,-1,-1,-1,40,-1,42,44,46,48,50,52,54,-1,-1,-1,-1,-1,-1,-1,-1,-1,-1,-1,-1,-1,-1,-1,-1,-1,-1,-1,-1,-1,-1,-1,-1],"split_conditions":[-4.3680587E-1,-4.4293433E-1,-5.144445E-1,-1.3802165E0,-5.529232E-1,-4.3067738E-1,-5.269939E-2,-1.4725196E0,-3.9259505E-1,1E0,-5.4009694E-1,-7.324907E-1,-5.529232E-1,-4.567263E-1,4.9910624E-2,-1.4970336E0,1E0,-4.980907E-1,-4.4906282E-1,1.4985082E-1,3.910134E-1,-1.1698142E-1,-3.7976882E-1,-2.1329455E-1,1E0,-1.1557571E0,1E0,-2.652083E-1,-4.184204E-1,-1.4876711E-1,4.9241632E-1,-2.8724454E-2,4.6371356E-2,-1.626058E-2,-7.930019E-2,1.2190041E-2,1.6019943E-1,-3.3141647E-2,-1.1832701E-1,1.1132116E-1,3.4097105E-2,-1.7046519E-2,-6.012851E-2,-2.6214293E-1,-5.0708004E-3,-2.71088E-3,-1.715923E-1,1.3210526E-1,1.0835568E-2,3.88043E-3,-2.0705614E-2,-6.653524E-3,3.975353E-2,-1.1926631E-2,1.2651327E-3],"split_indices":[4,4,3,3,3,4,3,4,3,1,3,3,3,3,3,4,1,4,4,0,0,0,3,0,1,3,1,4,4,4,3,0,0,0,0,0,0,0,0,0,0,0,0,0,0,0,0,0,0,0,0,0,0,0,0],"split_type":[0,0,0,0,0,0,0,0,0,0,0,0,0,0,0,0,0,0,0,0,0,0,0,0,0,0,0,0,0,0,0,0,0,0,0,0,0,0,0,0,0,0,0,0,0,0,0,0,0,0,0,0,0,0,0],"sum_hessian":[2.671E3,8.64E2,1.807E3,8.19E2,4.5E1,1.15E2,1.692E3,1.84E2,6.35E2,7E0,3.8E1,1.7E1,9.8E1,6.04E2,1.088E3,8.9E1,9.5E1,5.99E2,3.6E1,4E0,3E0,1E0,3.7E1,1.2E1,5E0,8.4E1,1.4E1,9E0,5.95E2,1.2E2,9.68E2,4.8E1,4.1E1,5.9E1,3.6E1,5.89E2,1E1,3.5E1,1E0,1E0,3.6E1,2E0,3E0,1E0,8.3E1,5E0,9E0,5E0,4E0,1.63E2,4.32E2,4.9E1,7.1E1,1.13E2,8.55E2],"tree_param":{"num_deleted":"0","num_feature":"5","num_nodes":"55","size_leaf_vector":"0"}},{"base_weights":[-2.4212045E-3,1.4844714E-1,-4.0978645E-3,2.3310464E-2,1.959608E-1,-7.419362E-2,-1.7615597E-3,2.2080901E-1,-1.8448746E-2,-3.9041247E-2,-2.0677543E-1,6.0533594E-2,-5.1016784E-3,1.2852447E-1,4.5186363E-2,4.0465392E-2,-5.374849E-2,-5.534325E-2,1.4407066E-1,-1.2028941E-1,-2.8757235E-1,2.1467468E-2,8.8385534E-1,-2.6213014E-2,1.531862E-3,-3.295347E-2,6.910256E-2,-1.3944618E-2,-1.1474019E-1,8.2263E-2,1.804254E-3,-4.0354934E-2,-1.5924929E-1,-8.270446E-2,1.4757627E-2,6.469273E-1,-1.4068591E-2,-6.16367E-3,-5.307789E-2,6.2412906E-2,-6.676273E-4],"categories":[],"categories_nodes":[],"categories_segments":[],"categories_sizes":[],"default_left":[0,0,0,0,0,0,0,0,0,0,0,0,0,0,0,0,0,0,0,0,0,0,0,0,0,0,0,0,0,0,0,0,0,0,0,0,0,0,0,0,0],"id":16,"left_children":[1,3,5,-1,7,9,11,13,15,17,19,21,23,-1,25,-1,-1,27,29,31,-1,33,35,37,39,-1,-1,-1,-1,-1,-1,-1,-1,-1,-1,-1,-1,-1,-1,-1,-1],"loss_changes":[6.9041646E-1,1.3285863E-1,4.4170743E-1,0E0,1.1062753E-1,3.9739645E-1,5.43796E-1,1.3632065E-1,3.827015E-2,2.169297E-1,5.3869814E-1,4.2588367E0,3.473465E-1,0E0,6.610731E-2,0E0,0E0,3.0699265E-1,2.2347786E-2,9.465268E-2,0E0,2.3540345E-1,2.5812597E0,6.675695E-1,7.0923656E-1,0E0,0E0,0E0,0E0,0E0,0E0,0E0,0E0,0E0,0E0,0E0,0E0,0E0,0E0,0E0,0E0],"parents":[2147483647,0,0,1,1,2,2,4,4,5,5,6,6,7,7,8,8,9,9,10,10,11,11,12,12,14,14,17,17,18,18,19,19,21,21,22,22,23,23,24,24],"right_children":[2,4,6,-1,8,10,12,14,16,18,20,22,24,-1,26,-1,-1,28,30,32,-1,34,36,38,40,-1,-1,-1,-1,-1,-1,-1,-1,-1,-1,-1,-1,-1,-1,-1,-1],"split_conditions":[-1.6012177E0,-1.5469577E0,-1.463587E0,2.3310464E-2,1E0,-1.5277183E0,-1.1878227E0,1E0,-1.5341314E0,-5.9614646E-1,1E0,-1.2273803E0,-4.980907E-1,1.2852447E-1,-1.5341314E0,4.0465392E-2,-5.374849E-2,-1.2273803E0,1E0,-1.2273803E0,-2.8757235E-1,-1.4970336E0,1E0,-5.593755E-1,-6.362938E-1,-3.295347E-2,6.910256E-2,-1.3944618E-2,-1.1474019E-1,8.2263E-2,1.804254E-3,-4.0354934E-2,-1.5924929E-1,-8.270446E-2,1.4757627E-2,6.469273E-1,-1.4068591E-2,-6.16367E-3,-5.307789E-2,6.2412906E-2,-6.676273E-4],"split_indices":[4,3,3,0,0,3,3,1,3,4,0,4,4,0,3,0,0,4,1,4,0,4,2,4,3,0,0,0,0,0,0,0,0,0,0,0,0,0,0,0,0],"split_type":[0,0,0,0,0,0,0,0,0,0,0,0,0,0,0,0,0,0,0,0,0,0,0,0,0,0,0,0,0,0,0,0,0,0,0,0,0,0,0,0,0],"sum_hessian":[2.726E3,2.9E1,2.697E3,1E1,1.9E1,8.6E1,2.611E3,1.7E1,2E0,6.9E1,1.7E1,1.32E2,2.479E3,1.3E1,4E0,1E0,1E0,6.4E1,5E0,1.5E1,2E0,1.27E2,5E0,5.92E2,1.887E3,2E0,2E0,5.7E1,7E0,4E0,1E0,1.4E1,1E0,5E0,1.22E2,3E0,2E0,5.12E2,8E1,4.1E1,1.846E3],"tree_param":{"num_deleted":"0","num_feature":"5","num_nodes":"41","size_leaf_vector":"0"}},{"base_weights":[1.449504E-3,3.3889975E-2,-1.7266141E-3,1.9191958E-2,2.9019427E-1,-5.8776494E-2,2.370408E-3,2.340319E-2,-1.4122602E-1,-6.512239E-2,8.717254E-1,-4.7757424E-2,-3.061858E-1,7.763027E-2,4.5596453E-4,-6.525704E-4,6.274911E-2,-9.244453E-2,2.7745875E-2,3.06661E-2,-1.9252452E-1,5.6228226E-1,-7.849409E-2,-2.9329887E-2,-1.0187522E-1,4.903374E-4,2.9358938E-1,-1.1294694E-1,2.9356382E-3,2.8576104E-2,-1.6183054E-2,1.2563274E-2,6.0296245E-2,6.322452E-2,-2.5338791E-2,-1.08094655E-1,-2.268156E-2,-3.610836E-2,6.7947656E-3,2.8622143E-2,-5.3609505E-2,-1.8700233E-2,6.4592846E-2,3.827013E-1,1.8212456E-2,5.3059882E-3,-1.7358719E-1,1.0404198E-1,9.861044E-4],"categories":[],"categories_nodes":[],"categories_segments":[],"categories_sizes":[],"default_left":[0,0,0,0,0,0,0,0,0,0,0,0,0,0,0,0,0,0,0,0,0,0,0,0,0,0,0,0,0,0,0,0,0,0,0,0,0,0,0,0,0,0,0,0,0,0,0,0,0],"id":17,"left_children":[1,3,5,7,9,11,13,15,17,19,21,23,-1,25,27,29,31,-1,-1,33,35,-1,-1,37,39,41,43,45,47,-1,-1,-1,-1,-1,-1,-1,-1,-1,-1,-1,-1,-1,-1,-1,-1,-1,-1,-1,-1],"loss_changes":[2.7845848E-1,9.023173E-1,5.7559395E-1,1.5800776E-1,2.742929E0,1.022444E0,3.310621E-1,2.1205604E-1,7.2473764E-2,1.157369E-1,1.7428703E0,1.59565E-1,0E0,9.494231E-1,6.3078684E-1,2.8059053E-1,1.9216445E-1,0E0,0E0,5.755301E-2,8.344308E-3,0E0,0E0,2.4654967E-1,7.16269E-2,2.3268113E-1,1.9013066E0,1.4842316E0,4.1315493E-1,0E0,0E0,0E0,0E0,0E0,0E0,0E0,0E0,0E0,0E0,0E0,0E0,0E0,0E0,0E0,0E0,0E0,0E0,0E0,0E0],"parents":[2147483647,0,0,1,1,2,2,3,3,4,4,5,5,6,6,7,7,8,8,9,9,10,10,11,11,13,13,14,14,15,15,16,16,19,19,20,20,23,23,24,24,25,25,26,26,27,27,28,28],"right_children":[2,4,6,8,10,12,14,16,18,20,22,24,-1,26,28,30,32,-1,-1,34,36,-1,-1,38,40,42,44,46,48,-1,-1,-1,-1,-1,-1,-1,-1,-1,-1,-1,-1,-1,-1,-1,-1,-1,-1,-1,-1],"split_conditions":[-1.1878227E0,-1.2273803E0,-9.761895E-1,-1.207062E0,-1.3930427E0,-5.4711854E-1,-8.9281887E-1,-1.4602627E0,-1.2825366E0,1E0,1E0,-1.0802966E0,-3.061858E-1,1E0,-8.47927E-1,-1.5341314E0,-1.3802165E0,-9.244453E-2,2.7745875E-2,-1.5341314E0,1E0,5.6228226E-1,-7.849409E-2,-1.2273803E0,-1.1557571E0,-9.1205823E-1,-9.50537E-1,-4.3067738E-1,-8.3515733E-1,2.8576104E-2,-1.6183054E-2,1.2563274E-2,6.0296245E-2,6.322452E-2,-2.5338791E-2,-1.08094655E-1,-2.268156E-2,-3.610836E-2,6.7947656E-3,2.8622143E-2,-5.3609505E-2,-1.8700233E-2,6.4592846E-2,3.827013E-1,1.8212456E-2,5.3059882E-3,-1.7358719E-1,1.0404198E-1,9.861044E-4],"split_indices":[3,4,3,3,3,4,3,4,4,1,2,4,0,2,3,3,3,0,0,3,0,0,0,4,3,3,3,4,4,0,0,0,0,0,0,0,0,0,0,0,0,0,0,0,0,0,0,0,0],"split_type":[0,0,0,0,0,0,0,0,0,0,0,0,0,0,0,0,0,0,0,0,0,0,0,0,0,0,0,0,0,0,0,0,0,0,0,0,0,0,0,0,0,0,0,0,0,0,0,0,0],"sum_hessian":[2.701E3,2.4E2,2.461E3,2.28E2,1.2E1,1.64E2,2.297E3,2.23E2,5E0,8E0,4E0,1.62E2,2E0,5.6E1,2.241E3,1.39E2,8.4E1,4E0,1E0,5E0,3E0,3E0,1E0,1.22E2,4E1,4.2E1,1.4E1,4.7E1,2.194E3,4.9E1,9E1,5.4E1,3E1,2E0,3E0,2E0,1E0,5.9E1,6.3E1,2E0,3.8E1,3.3E1,9E0,4E0,1E1,3.2E1,1.5E1,8E0,2.186E3],"tree_param":{"num_deleted":"0","num_feature":"5","num_nodes":"49","size_leaf_vector":"0"}}]},"name":"gbtree"},"learner_model_param":{"base_score":"5E-1","num_class":"0","num_feature":"5","num_target":"1"},"objective":{"name":"reg:squarederror","reg_loss_param":{"scale_pos_weight":"1"}}},"version":[1,6,1]}