{"learner":{"attributes":{"best_iteration":"39","best_ntree_limit":"40","scikit_learn":"{\"objective\": \"reg:squarederror\", \"max_leaves\": null, \"max_bin\": null, \"grow_policy\": null, \"learning_rate\": 0.31, \"verbosity\": null, \"booster\": null, \"tree_method\": \"hist\", \"gamma\": null, \"min_child_weight\": 2.0, \"max_delta_step\": null, \"subsample\": 0.6000000000000001, \"sampling_method\": null, \"colsample_bytree\": 0.9, \"colsample_bylevel\": null, \"colsample_bynode\": null, \"reg_alpha\": null, \"reg_lambda\": null, \"scale_pos_weight\": null, \"base_score\": null, \"missing\": NaN, \"num_parallel_tree\": null, \"random_state\": 2020, \"n_jobs\": null, \"monotone_constraints\": null, \"interaction_constraints\": null, \"importance_type\": null, \"gpu_id\": null, \"validate_parameters\": null, \"predictor\": null, \"enable_categorical\": false, \"max_cat_to_onehot\": null, \"eval_metric\": null, \"early_stopping_rounds\": null, \"callbacks\": null, \"_estimator_type\": \"regressor\"}"},"feature_names":["FEATURE","DISPLAY","TPR_ONLY","PRICE","BASE_PRICE"],"feature_types":["int","int","int","float","float"],"gradient_booster":{"model":{"gbtree_model_param":{"num_parallel_tree":"1","num_trees":"40","size_leaf_vector":"0"},"tree_info":[0,0,0,0,0,0,0,0,0,0,0,0,0,0,0,0,0,0,0,0,0,0,0,0,0,0,0,0,0,0,0,0,0,0,0,0,0,0,0,0],"trees":[{"base_weights":[-3.6550617E-1,-5.209983E-2,-7.504077E-1,-2.128122E-1,1.2154552E0,-4.629807E-1,-8.151871E-1,7.828058E-2,-8.791595E-2,5.910322E-1,1.8356356E-1,-1.773332E-1,-5.3158116E-2,-2.7715212E-1,-1.8722528E-1],"categories":[],"categories_nodes":[],"categories_segments":[],"categories_sizes":[],"default_left":[0,0,0,0,0,0,0,0,0,0,0,0,0,0,0],"id":0,"left_children":[1,3,5,7,9,11,13,-1,-1,-1,-1,-1,-1,-1,-1],"loss_changes":[4.9346057E2,4.5983243E2,3.380774E1,6.6049675E1,1.08287384E2,1.07111435E1,2.439447E1,0E0,0E0,0E0,0E0,0E0,0E0,0E0,0E0],"parents":[2147483647,0,0,1,1,2,2,3,3,4,4,5,5,6,6],"right_children":[2,4,6,8,10,12,14,-1,-1,-1,-1,-1,-1,-1,-1],"split_conditions":[-1.1683065E-1,1E0,4.9910624E-2,-1.4418772E0,-5.7857573E-1,-1.4876711E-1,1.8307332E0,7.828058E-2,-8.791595E-2,5.910322E-1,1.8356356E-1,-1.773332E-1,-5.3158116E-2,-2.7715212E-1,-1.8722528E-1],"split_indices":[3,1,3,4,3,4,4,0,0,0,0,0,0,0,0],"split_type":[0,0,0,0,0,0,0,0,0,0,0,0,0,0,0],"sum_hessian":[4.09E3,2.255E3,1.835E3,2.002E3,2.53E2,3.39E2,1.496E3,2.64E2,1.738E3,1.19E2,1.34E2,2.46E2,9.3E1,1.087E3,4.09E2],"tree_param":{"num_deleted":"0","num_feature":"5","num_nodes":"15","size_leaf_vector":"0"}},{"base_weights":[-2.775224E-1,-3.6699888E-1,6.244441E-1,-2.0437677E-1,-6.408651E-1,1.23625E0,-7.2724246E-3,-6.0946215E-3,-7.247646E-2,-1.9271533E-1,-2.5904962E-1,3.1683043E-2,6.386255E-1,-3.523878E-2,2.3212072E-2],"categories":[],"categories_nodes":[],"categories_segments":[],"categories_sizes":[],"default_left":[0,0,0,0,0,0,0,0,0,0,0,0,0,0,0],"id":1,"left_children":[1,3,5,7,9,11,13,-1,-1,-1,-1,-1,-1,-1,-1],"loss_changes":[3.3434708E2,1.6763876E2,1.4455547E2,1.2846924E1,4.7281494E0,1.7729962E2,1.6255697E0,0E0,0E0,0E0,0E0,0E0,0E0,0E0,0E0],"parents":[2147483647,0,0,1,1,2,2,3,3,4,4,5,5,6,6],"right_children":[2,4,6,8,10,12,14,-1,-1,-1,-1,-1,-1,-1,-1],"split_conditions":[1E0,4.9910624E-2,-3.1563756E-1,-1.3673902E0,2.313744E0,1E0,1E0,-6.0946215E-3,-7.247646E-2,-1.9271533E-1,-2.5904962E-1,3.1683043E-2,6.386255E-1,-3.523878E-2,2.3212072E-2],"split_indices":[0,3,3,3,3,1,1,0,0,0,0,0,0,0,0],"split_type":[0,0,0,0,0,0,0,0,0,0,0,0,0,0,0],"sum_hessian":[4.139E3,3.766E3,3.73E2,2.364E3,1.402E3,1.89E2,1.84E2,3.25E2,2.039E3,1.28E3,1.22E2,8E1,1.09E2,8E1,1.04E2],"tree_param":{"num_deleted":"0","num_feature":"5","num_nodes":"15","size_leaf_vector":"0"}},{"base_weights":[-1.7407358E-1,-2.3077933E-1,3.9462727E-1,-9.407755E-2,-4.4951257E-1,7.776018E-1,5.665144E-2,4.6509214E-2,-3.8894508E-2,-9.1889985E-2,-1.4631091E-1,1.9246905E-1,1.0429386E0,-3.601673E-2,6.3674785E-2],"categories":[],"categories_nodes":[],"categories_segments":[],"categories_sizes":[],"default_left":[0,0,0,0,0,0,0,0,0,0,0,0,0,0,0],"id":2,"left_children":[1,3,5,7,9,11,13,-1,-1,-1,-1,-1,-1,-1,-1],"loss_changes":[1.3582549E2,1.144196E2,4.940055E1,1.8078592E1,4.921112E0,7.048247E1,5.2685633E0,0E0,0E0,0E0,0E0,0E0,0E0,0E0,0E0],"parents":[2147483647,0,0,1,1,2,2,3,3,4,4,5,5,6,6],"right_children":[2,4,6,8,10,12,14,-1,-1,-1,-1,-1,-1,-1,-1],"split_conditions":[1E0,-8.748228E-2,-2.2843741E-1,-1.4418772E0,4.211819E-1,-2.652083E-1,1.7081635E0,4.6509214E-2,-3.8894508E-2,-9.1889985E-2,-1.4631091E-1,1.9246905E-1,1.0429386E0,-3.601673E-2,6.3674785E-2],"split_indices":[0,4,4,4,4,4,4,0,0,0,0,0,0,0,0],"split_type":[0,0,0,0,0,0,0,0,0,0,0,0,0,0,0],"sum_hessian":[4.208E3,3.827E3,3.81E2,2.356E3,1.471E3,1.78E2,2.03E2,2.68E2,2.088E3,1.9E2,1.281E3,1.69E2,9E0,9.4E1,1.09E2],"tree_param":{"num_deleted":"0","num_feature":"5","num_nodes":"15","size_leaf_vector":"0"}},{"base_weights":[-1.4248829E-1,-1.4298543E-2,-2.6110575E-1,-2.0857623E-1,1.443236E-1,-1.7686898E-1,-3.044319E-1,5.8996648E-2,-1.1809652E-1,8.559666E-3,2.1501327E-1,-6.17692E-2,2.6610075E-2,-1.2827808E-1,-7.073259E-2],"categories":[],"categories_nodes":[],"categories_segments":[],"categories_sizes":[],"default_left":[0,0,0,0,0,0,0,0,0,0,0,0,0,0,0],"id":3,"left_children":[1,3,5,7,9,11,13,-1,-1,-1,-1,-1,-1,-1,-1],"loss_changes":[6.1593918E1,6.0061115E1,7.6250305E0,6.030664E1,6.876658E1,4.233862E0,1.1482452E1,0E0,0E0,0E0,0E0,0E0,0E0,0E0,0E0],"parents":[2147483647,0,0,1,1,2,2,3,3,4,4,5,5,6,6],"right_children":[2,4,6,8,10,12,14,-1,-1,-1,-1,-1,-1,-1,-1],"split_conditions":[-2.515063E-1,-6.696882E-1,4.211819E-1,-1.4418772E0,1E0,4.9241632E-1,9.972594E-1,5.8996648E-2,-1.1809652E-1,8.559666E-3,2.1501327E-1,-6.17692E-2,2.6610075E-2,-1.2827808E-1,-7.073259E-2],"split_indices":[3,4,4,4,1,3,4,0,0,0,0,0,0,0,0],"split_type":[0,0,0,0,0,0,0,0,0,0,0,0,0,0,0],"sum_hessian":[4.05E3,1.947E3,2.103E3,8.75E2,1.072E3,7.16E2,1.387E3,2.64E2,6.11E2,8.85E2,1.87E2,6.6E2,5.6E1,5.68E2,8.19E2],"tree_param":{"num_deleted":"0","num_feature":"5","num_nodes":"15","size_leaf_vector":"0"}},{"base_weights":[-9.044393E-2,-1.3412099E-1,3.2785144E-1,-4.0535707E-2,-2.0794792E-1,5.858228E-1,3.7948072E-2,-2.1966055E-2,1.9728036E-1,-4.9564213E-2,-7.546362E-2,3.507992E-2,2.8908986E-1,-2.5264847E-1,4.1246675E-2],"categories":[],"categories_nodes":[],"categories_segments":[],"categories_sizes":[],"default_left":[0,0,0,0,0,0,0,0,0,0,0,0,0,0,0],"id":4,"left_children":[1,3,5,7,9,11,13,-1,-1,-1,-1,-1,-1,-1,-1],"loss_changes":[7.670452E1,2.6246208E1,2.9668114E1,3.446728E1,3.583435E0,3.431005E1,1.5358955E1,0E0,0E0,0E0,0E0,0E0,0E0,0E0,0E0],"parents":[2147483647,0,0,1,1,2,2,3,3,4,4,5,5,6,6],"right_children":[2,4,6,8,10,12,14,-1,-1,-1,-1,-1,-1,-1,-1],"split_conditions":[1E0,-3.7552103E-1,-8.748228E-2,-3.816495E-1,5.1310915E-1,1E0,2.3732737E-1,-2.1966055E-2,1.9728036E-1,-4.9564213E-2,-7.546362E-2,3.507992E-2,2.8908986E-1,-2.5264847E-1,4.1246675E-2],"split_indices":[0,4,4,4,4,1,4,0,0,0,0,0,0,0,0],"split_type":[0,0,0,0,0,0,0,0,0,0,0,0,0,0,0],"sum_hessian":[4.195E3,3.799E3,3.96E2,1.676E3,2.123E3,2.09E2,1.87E2,1.605E3,7.1E1,9.04E2,1.219E3,8.9E1,1.2E2,1.8E1,1.69E2],"tree_param":{"num_deleted":"0","num_feature":"5","num_nodes":"15","size_leaf_vector":"0"}},{"base_weights":[-6.3043915E-2,-8.890589E-2,1.8667549E-1,1.2820502E-1,-1.0514379E-1,-4.3545106E-1,2.8765556E-1,5.993481E-2,2.7777715E-2,-1.8747124E-1,-2.615468E-2,1.0229968E-1,-2.1851064E-1,2.037711E-1,1.3461032E-2],"categories":[],"categories_nodes":[],"categories_segments":[],"categories_sizes":[],"default_left":[0,0,0,0,0,0,0,0,0,0,0,0,0,0,0],"id":5,"left_children":[1,3,5,7,9,11,13,-1,-1,-1,-1,-1,-1,-1,-1],"loss_changes":[2.6902237E1,1.3314909E1,2.4688812E1,6.4388466E-1,3.638846E1,1.1575203E1,3.0397736E1,0E0,0E0,0E0,0E0,0E0,0E0,0E0,0E0],"parents":[2147483647,0,0,1,1,2,2,3,3,4,4,5,5,6,6],"right_children":[2,4,6,8,10,12,14,-1,-1,-1,-1,-1,-1,-1,-1],"split_conditions":[1E0,-1.4418772E0,-6.3904583E-1,-1.4847766E0,-1.2212518E0,-1.4725196E0,-2.2843741E-1,5.993481E-2,2.7777715E-2,-1.8747124E-1,-2.615468E-2,1.0229968E-1,-2.1851064E-1,2.037711E-1,1.3461032E-2],"split_indices":[0,4,4,4,4,4,4,0,0,0,0,0,0,0,0],"split_type":[0,0,0,0,0,0,0,0,0,0,0,0,0,0,0],"sum_hessian":[4.162E3,3.772E3,3.9E2,2.62E2,3.51E3,5.4E1,3.36E2,9.6E1,1.66E2,1.39E2,3.371E3,1.4E1,4E1,1.33E2,2.03E2],"tree_param":{"num_deleted":"0","num_feature":"5","num_nodes":"15","size_leaf_vector":"0"}},{"base_weights":[-3.8308557E-2,1.7981213E-2,-1.2174992E-1,-1.7269224E-1,6.2227406E-2,-4.1445524E-1,-1.066821E-1,2.2697965E-2,-1.907068E-1,1.1060712E-2,9.917843E-2,-1.9860716E-1,-5.3511005E-2,-2.7068187E-2,-7.859593E-2],"categories":[],"categories_nodes":[],"categories_segments":[],"categories_sizes":[],"default_left":[0,0,1,0,0,0,0,0,0,0,0,0,0,0,0],"id":6,"left_children":[1,3,5,7,9,11,13,-1,-1,-1,-1,-1,-1,-1,-1],"loss_changes":[1.9611729E1,2.1051563E1,7.3741302E0,5.1187443E1,1.3842461E1,4.3753967E0,4.5308914E0,0E0,0E0,0E0,0E0,0E0,0E0,0E0,0E0],"parents":[2147483647,0,0,1,1,2,2,3,3,4,4,5,5,6,6],"right_children":[2,4,6,8,10,12,14,-1,-1,-1,-1,-1,-1,-1,-1],"split_conditions":[-8.748228E-2,-1.149344E0,-7.193877E-2,-1.2886652E0,1E0,4.7344364E-2,2.0758724E0,2.2697965E-2,-1.907068E-1,1.1060712E-2,9.917843E-2,-1.9860716E-1,-5.3511005E-2,-2.7068187E-2,-7.859593E-2],"split_indices":[4,3,3,4,1,4,4,0,0,0,0,0,0,0,0],"split_type":[0,0,0,0,0,0,0,0,0,0,0,0,0,0,0],"sum_hessian":[4.174E3,2.493E3,1.681E3,4.69E2,2.024E3,8.1E1,1.6E3,3.02E2,1.67E2,1.836E3,1.88E2,4.1E1,4E1,1.415E3,1.85E2],"tree_param":{"num_deleted":"0","num_feature":"5","num_nodes":"15","size_leaf_vector":"0"}},{"base_weights":[-2.4033668E-2,2.8641362E-2,-8.1013374E-2,1.1972358E-2,6.302435E-1,-1.07339494E-1,8.74456E-3,-3.6490925E-2,1.8689446E-2,1.9742421E0,6.2451087E-2,-1.7191336E-2,-4.5123376E-2,5.6315605E-2,-4.240668E-2],"categories":[],"categories_nodes":[],"categories_segments":[],"categories_sizes":[],"default_left":[0,0,0,0,0,0,0,0,0,0,0,0,0,0,0],"id":7,"left_children":[1,3,5,7,9,11,13,-1,-1,-1,-1,-1,-1,-1,-1],"loss_changes":[1.2428148E1,2.1572943E1,4.700901E0,1.3134125E1,1.4142645E2,3.0417519E0,1.1400171E1,0E0,0E0,0E0,0E0,0E0,0E0,0E0,0E0],"parents":[2147483647,0,0,1,1,2,2,3,3,4,4,5,5,6,6],"right_children":[2,4,6,8,10,12,14,-1,-1,-1,-1,-1,-1,-1,-1],"split_conditions":[-2.4069437E-1,-2.5295135E-1,1.8307332E0,-1.001842E0,-1.0403208E0,5.1310915E-1,1.9533029E0,-3.6490925E-2,1.8689446E-2,1.9742421E0,6.2451087E-2,-1.7191336E-2,-4.5123376E-2,5.6315605E-2,-4.240668E-2],"split_indices":[4,4,4,3,3,4,4,0,0,0,0,0,0,0,0],"split_type":[0,0,0,0,0,0,0,0,0,0,0,0,0,0,0],"sum_hessian":[4.139E3,2.151E3,1.988E3,2.094E3,5.7E1,1.537E3,4.51E2,5.68E2,1.526E3,3E0,5.4E1,6.53E2,8.84E2,2.06E2,2.45E2],"tree_param":{"num_deleted":"0","num_feature":"5","num_nodes":"15","size_leaf_vector":"0"}},{"base_weights":[-2.0379558E-2,-4.421238E-2,2.1699125E-1,-3.0533394E-1,-4.103322E-2,5.9502643E-1,7.461084E-2,-1.5450557E-1,-7.539868E-2,-4.5416937E-3,-1.9635266E-2,-9.821275E-2,3.6549073E-1,-1.7209846E-1,3.5854235E-2],"categories":[],"categories_nodes":[],"categories_segments":[],"categories_sizes":[],"default_left":[0,0,0,0,0,0,0,0,0,0,0,0,0,0,0],"id":8,"left_children":[1,3,5,7,9,11,13,-1,-1,-1,-1,-1,-1,-1,-1],"loss_changes":[2.3373898E1,3.1038427E0,2.0247559E1,4.1842222E-1,2.1824045E0,5.522037E1,7.1731443E0,0E0,0E0,0E0,0E0,0E0,0E0,0E0,0E0],"parents":[2147483647,0,0,1,1,2,2,3,3,4,4,5,5,6,6],"right_children":[2,4,6,8,10,12,14,-1,-1,-1,-1,-1,-1,-1,-1],"split_conditions":[1E0,-1.5405446E0,-8.735795E-1,-1.5597839E0,-2.515063E-1,-1.1236914E0,-7.0683825E-1,-1.5450557E-1,-7.539868E-2,-4.5416937E-3,-1.9635266E-2,-9.821275E-2,3.6549073E-1,-1.7209846E-1,3.5854235E-2],"split_indices":[0,3,3,3,3,3,3,0,0,0,0,0,0,0,0],"split_type":[0,0,0,0,0,0,0,0,0,0,0,0,0,0,0],"sum_hessian":[4.129E3,3.753E3,3.76E2,4.4E1,3.709E3,1.02E2,2.74E2,9E0,3.5E1,1.7E3,2.009E3,4E1,6.2E1,1.6E1,2.58E2],"tree_param":{"num_deleted":"0","num_feature":"5","num_nodes":"15","size_leaf_vector":"0"}},{"base_weights":[-2.4218429E-2,9.6273564E-2,-3.232999E-2,2.8338306E-2,1.937847E-1,-4.8357886E-1,-2.4743464E-2,3.6708876E-2,-8.800338E-2,1.1596094E-1,4.7467194E-2,-8.983146E-2,-3.786899E-1,-4.9201168E-2,-4.133512E-3],"categories":[],"categories_nodes":[],"categories_segments":[],"categories_sizes":[],"default_left":[0,0,0,0,0,0,0,0,0,0,0,0,0,0,0],"id":9,"left_children":[1,3,5,7,9,11,13,-1,-1,-1,-1,-1,-1,-1,-1],"loss_changes":[4.0435944E0,1.7234881E0,1.3250332E1,4.3928347E0,7.271557E-1,8.799588E0,5.8231416E0,0E0,0E0,0E0,0E0,0E0,0E0,0E0,0E0],"parents":[2147483647,0,0,1,1,2,2,3,3,4,4,5,5,6,6],"right_children":[2,4,6,8,10,12,14,-1,-1,-1,-1,-1,-1,-1,-1],"split_conditions":[-1.4418772E0,-1.4541342E0,-1.3673902E0,-1.4725196E0,-1.4379346E0,1E0,-1.0557828E0,3.6708876E-2,-8.800338E-2,1.1596094E-1,4.7467194E-2,-8.983146E-2,-3.786899E-1,-4.9201168E-2,-4.133512E-3],"split_indices":[4,4,3,4,3,1,4,0,0,0,0,0,0,0,0],"split_type":[0,0,0,0,0,0,0,0,0,0,0,0,0,0,0],"sum_hessian":[4.133E3,2.6E2,3.873E3,1.54E2,1.06E2,6.3E1,3.81E3,1.2E2,3.4E1,1.8E1,8.8E1,5.1E1,1.2E1,2.98E2,3.512E3],"tree_param":{"num_deleted":"0","num_feature":"5","num_nodes":"15","size_leaf_vector":"0"}},{"base_weights":[-1.0516013E-2,2.3649443E-2,-4.5723874E-2,-5.6812016E-4,3.0164728E-1,-1.6733979E-1,-2.62419E-2,6.2478525E-3,-8.373333E-2,1.6417303E0,3.5591956E-2,-4.3928493E-2,-1.308581E-1,7.503745E-2,-1.281229E-2],"categories":[],"categories_nodes":[],"categories_segments":[],"categories_sizes":[],"default_left":[0,0,0,0,0,0,0,0,0,0,0,0,0,0,0],"id":10,"left_children":[1,3,5,7,9,11,13,-1,-1,-1,-1,-1,-1,-1,-1],"loss_changes":[4.938956E0,1.4030555E1,4.78637E0,1.0718481E1,1.5521957E2,1.7624321E0,7.0698934E0,0E0,0E0,0E0,0E0,0E0,0E0,0E0,0E0],"parents":[2147483647,0,0,1,1,2,2,3,3,4,4,5,5,6,6],"right_children":[2,4,6,8,10,12,14,-1,-1,-1,-1,-1,-1,-1,-1],"split_conditions":[-2.4069437E-1,-3.6939254E-1,-1.4876711E-1,-3.7552103E-1,-1.0403208E0,1E0,-8.748228E-2,6.2478525E-3,-8.373333E-2,1.6417303E0,3.5591956E-2,-4.3928493E-2,-1.308581E-1,7.503745E-2,-1.281229E-2],"split_indices":[4,4,4,4,3,1,4,0,0,0,0,0,0,0,0],"split_type":[0,0,0,0,0,0,0,0,0,0,0,0,0,0,0],"sum_hessian":[4.104E3,2.083E3,2.021E3,1.917E3,1.66E2,2.78E2,1.743E3,1.781E3,1.36E2,5E0,1.61E2,2.54E2,2.4E1,9.2E1,1.651E3],"tree_param":{"num_deleted":"0","num_feature":"5","num_nodes":"15","size_leaf_vector":"0"}},{"base_weights":[-1.3477491E-2,-4.0274084E-1,-1.0723565E-2,-2.914561E-1,-7.807564E-1,8.8429175E-2,-1.820202E-2,-1.6340382E-1,-5.6922596E-2,-9.7481504E-2,-2.899406E-1,1.1630698E-1,2.244654E-2,-1.2381241E-1,-3.945811E-3],"categories":[],"categories_nodes":[],"categories_segments":[],"categories_sizes":[],"default_left":[0,0,0,0,0,0,0,0,0,0,0,0,0,0,0],"id":11,"left_children":[1,3,5,7,9,11,13,-1,-1,-1,-1,-1,-1,-1,-1],"loss_changes":[4.425196E0,9.923978E-1,3.0447638E0,5.130899E-1,1.3825154E-1,1.2959318E0,7.959072E0,0E0,0E0,0E0,0E0,0E0,0E0,0E0,0E0],"parents":[2147483647,0,0,1,1,2,2,3,3,4,4,5,5,6,6],"right_children":[2,4,6,8,10,12,14,-1,-1,-1,-1,-1,-1,-1,-1],"split_conditions":[-1.5469577E0,1E0,-1.2886652E0,-1.4541342E0,-1.2212518E0,-1.5405446E0,-1.2198883E0,-1.6340382E-1,-5.6922596E-2,-9.7481504E-2,-2.899406E-1,1.1630698E-1,2.244654E-2,-1.2381241E-1,-3.945811E-3],"split_indices":[3,1,4,4,4,3,3,0,0,0,0,0,0,0,0],"split_type":[0,0,0,0,0,0,0,0,0,0,0,0,0,0,0],"sum_hessian":[4.131E3,2.8E1,4.103E3,2.3E1,5E0,2.87E2,3.816E3,6E0,1.7E1,2E0,3E0,1.4E1,2.73E2,5.3E1,3.763E3],"tree_param":{"num_deleted":"0","num_feature":"5","num_nodes":"15","size_leaf_vector":"0"}},{"base_weights":[4.7226734E-3,-8.380493E-3,1.04611024E-1,2.5589412E-2,-3.477387E-2,3.3272073E-1,2.849595E-2,3.669506E-3,8.963394E-2,-8.134635E-2,-8.314546E-3,4.0532324E-2,1.9243852E0,1.1631139E-1,-1.4047993E-2],"categories":[],"categories_nodes":[],"categories_segments":[],"categories_sizes":[],"default_left":[0,0,0,0,0,0,0,0,0,0,0,0,0,0,0],"id":12,"left_children":[1,3,5,7,9,11,13,-1,-1,-1,-1,-1,-1,-1,-1],"loss_changes":[5.4627237E0,3.3092718E0,8.394011E0,5.8464394E0,3.7529864E0,1.4276405E2,9.332052E0,0E0,0E0,0E0,0E0,0E0,0E0,0E0,0E0],"parents":[2147483647,0,0,1,1,2,2,3,3,4,4,5,5,6,6],"right_children":[2,4,6,8,10,12,14,-1,-1,-1,-1,-1,-1,-1,-1],"split_conditions":[1E0,-3.7552103E-1,-5.7216257E-1,-3.8777798E-1,-5.593363E-1,-5.978151E-1,-3.7552103E-1,3.669506E-3,8.963394E-2,-8.134635E-2,-8.314546E-3,4.0532324E-2,1.9243852E0,1.1631139E-1,-1.4047993E-2],"split_indices":[1,4,3,4,3,3,4,0,0,0,0,0,0,0,0],"split_type":[0,0,0,0,0,0,0,0,0,0,0,0,0,0,0],"sum_hessian":[4.172E3,3.689E3,4.83E2,1.613E3,2.076E3,1.2E2,3.63E2,1.534E3,7.9E1,6.9E1,2.007E3,1.17E2,3E0,6.3E1,3E2],"tree_param":{"num_deleted":"0","num_feature":"5","num_nodes":"15","size_leaf_vector":"0"}},{"base_weights":[-1.2782371E-2,-8.748961E-3,-1.14983566E-1,-4.3178335E-2,4.9140695E-3,-4.560607E-2,-1.0482265E-1,3.1908334E-4,-3.9795574E-2,7.1242586E-2,-3.5438659E-3,-2.9110901E-2,-4.829849E-2],"categories":[],"categories_nodes":[],"categories_segments":[],"categories_sizes":[],"default_left":[0,0,0,0,0,0,0,0,0,0,0,0,0],"id":13,"left_children":[1,3,5,7,9,-1,11,-1,-1,-1,-1,-1,-1],"loss_changes":[1.6936274E0,1.8611526E0,3.5512686E-2,4.2333927E0,1.0417313E1,0E0,5.3263783E-2,0E0,0E0,0E0,0E0,0E0,0E0],"parents":[2147483647,0,0,1,1,2,2,3,3,4,4,6,6],"right_children":[2,4,6,8,10,-1,12,-1,-1,-1,-1,-1,-1],"split_conditions":[2.1854815E0,-5.593363E-1,2.313744E0,-8.8640577E-1,-4.4390008E-1,-4.560607E-2,2.9550567E0,3.1908334E-4,-3.9795574E-2,7.1242586E-2,-3.5438659E-3,-2.9110901E-2,-4.829849E-2],"split_indices":[3,3,3,3,3,0,3,0,0,0,0,0,0],"split_type":[0,0,0,0,0,0,0,0,0,0,0,0,0],"sum_hessian":[4.11E3,3.955E3,1.55E2,1.123E3,2.832E3,3.4E1,1.21E2,7.4E2,3.83E2,1.91E2,2.641E3,1.02E2,1.9E1],"tree_param":{"num_deleted":"0","num_feature":"5","num_nodes":"13","size_leaf_vector":"0"}},{"base_weights":[1.1737428E-2,-2.647027E-3,1.6724595E-1,-5.135944E-2,1.7597375E-2,4.9011526E-1,-2.673548E-3,-3.226649E-3,-1.3429677E-1,6.744205E-1,3.9407755E-3,2.9180503E-2,6.172384E-1,-3.405839E-2,4.993759E-2],"categories":[],"categories_nodes":[],"categories_segments":[],"categories_sizes":[],"default_left":[0,0,0,0,0,0,0,0,0,0,0,0,0,0,0],"id":14,"left_children":[1,3,5,7,9,11,13,-1,-1,-1,-1,-1,-1,-1,-1],"loss_changes":[9.194123E0,3.7118003E0,1.9093214E1,1.7274755E1,2.8003582E1,7.11362E1,4.0375805E0,0E0,0E0,0E0,0E0,0E0,0E0,0E0,0E0],"parents":[2147483647,0,0,1,1,2,2,3,3,4,4,5,5,6,6],"right_children":[2,4,6,8,10,12,14,-1,-1,-1,-1,-1,-1,-1,-1],"split_conditions":[1E0,-5.348616E-1,-5.7216257E-1,-5.593755E-1,-8.9923203E-1,-3.8777798E-1,1.8307332E0,-3.226649E-3,-1.3429677E-1,6.744205E-1,3.9407755E-3,2.9180503E-2,6.172384E-1,-3.405839E-2,4.993759E-2],"split_indices":[0,4,3,4,3,4,4,0,0,0,0,0,0,0,0],"split_type":[0,0,0,0,0,0,0,0,0,0,0,0,0,0,0],"sum_hessian":[4.109E3,3.762E3,3.47E2,1.104E3,2.658E3,1.19E2,2.28E2,9.98E2,1.06E2,5E0,2.653E3,9.5E1,2.4E1,1.38E2,9E1],"tree_param":{"num_deleted":"0","num_feature":"5","num_nodes":"15","size_leaf_vector":"0"}},{"base_weights":[5.6427782E-3,9.1196425E-2,-3.0734326E-4,7.14423E-2,3.966242E-1,-1.6984455E-1,6.82195E-3,-1.4892137E-2,3.73357E-2,1.5308674E-1,4.721701E-2,-3.6048077E-2,-2.4750894E-1,-4.031975E-4,2.0596256E-2],"categories":[],"categories_nodes":[],"categories_segments":[],"categories_sizes":[],"default_left":[0,0,0,0,0,0,0,0,0,0,0,0,0,0,0],"id":15,"left_children":[1,3,5,7,9,11,13,-1,-1,-1,-1,-1,-1,-1,-1],"loss_changes":[2.0902061E0,1.5825982E0,4.6424913E0,1.4810055E0,3.0475187E-1,5.125472E0,1.7850283E0,0E0,0E0,0E0,0E0,0E0,0E0,0E0,0E0],"parents":[2147483647,0,0,1,1,2,2,3,3,4,4,5,5,6,6],"right_children":[2,4,6,8,10,12,14,-1,-1,-1,-1,-1,-1,-1,-1],"split_conditions":[-1.4418772E0,1E0,-1.2212518E0,-1.490905E0,1E0,1E0,1E0,-1.4892137E-2,3.73357E-2,1.5308674E-1,4.721701E-2,-3.6048077E-2,-2.4750894E-1,-4.031975E-4,2.0596256E-2],"split_indices":[4,0,4,4,1,1,1,0,0,0,0,0,0,0,0],"split_type":[0,0,0,0,0,0,0,0,0,0,0,0,0,0,0],"sum_hessian":[4.105E3,2.66E2,3.839E3,2.51E2,1.5E1,1.54E2,3.685E3,7.3E1,1.78E2,1E1,5E0,1.43E2,1.1E1,3.244E3,4.41E2],"tree_param":{"num_deleted":"0","num_feature":"5","num_nodes":"15","size_leaf_vector":"0"}},{"base_weights":[4.935698E-3,3.6196742E-2,-1.367311E-2,-2.2871743E-3,4.574493E-1,-1.3997786E-1,-2.3493469E-3,-2.2275837E-3,3.5576445E-1,1.6064458E-1,-7.484619E-2,-2.1723701E-1,-4.071577E-2,7.372701E-2,-2.2292288E-3],"categories":[],"categories_nodes":[],"categories_segments":[],"categories_sizes":[],"default_left":[0,0,0,0,0,0,0,0,0,0,0,0,0,0,0],"id":16,"left_children":[1,3,5,7,9,11,13,-1,-1,-1,-1,-1,-1,-1,-1],"loss_changes":[2.4024613E0,2.4982887E1,3.702576E0,7.967601E0,5.6029453E0,9.3959E-1,2.7658646E0,0E0,0E0,0E0,0E0,0E0,0E0,0E0,0E0],"parents":[2147483647,0,0,1,1,2,2,3,3,4,4,5,5,6,6],"right_children":[2,4,6,8,10,12,14,-1,-1,-1,-1,-1,-1,-1,-1],"split_conditions":[-3.1563756E-1,-4.1824755E-1,-3.0922443E-1,4.7344364E-2,-2.2230893E-1,-6.3904583E-1,-4.184204E-1,-2.2275837E-3,3.5576445E-1,1.6064458E-1,-7.484619E-2,-2.1723701E-1,-4.071577E-2,7.372701E-2,-2.2292288E-3],"split_indices":[3,3,3,4,4,4,4,0,0,0,0,0,0,0,0],"split_type":[0,0,0,0,0,0,0,0,0,0,0,0,0,0,0],"sum_hessian":[4.128E3,1.54E3,2.588E3,1.412E3,1.28E2,2.12E2,2.376E3,1.407E3,5E0,1.18E2,1E1,2E0,2.1E2,4.6E1,2.33E3],"tree_param":{"num_deleted":"0","num_feature":"5","num_nodes":"15","size_leaf_vector":"0"}},{"base_weights":[-1.7087294E-2,-5.5874053E-2,-2.21743E-3,-1.1624911E-2,-4.6876132E-1,2.6537874E0,-7.550031E-3,-1.1680028E-2,5.124956E-1,-1.076069E-1,-2.9297525E-1,-1.2847012E-1,1.3303638E0,1.0676724E-1,-8.064001E-3],"categories":[],"categories_nodes":[],"categories_segments":[],"categories_sizes":[],"default_left":[0,0,0,0,0,0,0,0,0,0,0,0,0,0,0],"id":17,"left_children":[1,3,5,7,9,11,13,-1,-1,-1,-1,-1,-1,-1,-1],"loss_changes":[2.3870602E0,2.0950134E1,4.2411133E1,4.5040417E1,6.1033573E0,3.1927452E1,1.9425589E1,0E0,0E0,0E0,0E0,0E0,0E0,0E0,0E0],"parents":[2147483647,0,0,1,1,2,2,3,3,4,4,5,5,6,6],"right_children":[2,4,6,8,10,12,14,-1,-1,-1,-1,-1,-1,-1,-1],"split_conditions":[-5.348616E-1,-5.593755E-1,-1.0403208E0,-5.77761E-1,1E0,1E0,-4.3680587E-1,-1.1680028E-2,5.124956E-1,-1.076069E-1,-2.9297525E-1,-1.2847012E-1,1.3303638E0,1.0676724E-1,-8.064001E-3],"split_indices":[4,4,3,4,1,1,4,0,0,0,0,0,0,0,0],"split_type":[0,0,0,0,0,0,0,0,0,0,0,0,0,0,0],"sum_hessian":[4.138E3,1.146E3,2.992E3,1.036E3,1.1E2,5E0,2.987E3,1.021E3,1.5E1,8.9E1,2.1E1,2E0,3E0,1.48E2,2.839E3],"tree_param":{"num_deleted":"0","num_feature":"5","num_nodes":"15","size_leaf_vector":"0"}},{"base_weights":[-8.80371E-5,-3.2259114E-2,1.2536637E-2,4.3796445E-3,-4.0432552E-1,1.4162276E0,2.9736962E-3,-1.0954168E-2,1.6523866E-2,3.5141688E-3,-2.1268651E-1,-6.8235286E-2,6.613042E-1,8.461894E-2,-2.9845457E-3],"categories":[],"categories_nodes":[],"categories_segments":[],"categories_sizes":[],"default_left":[0,0,0,0,0,0,0,0,0,0,0,0,0,0,0],"id":18,"left_children":[1,3,5,7,9,11,13,-1,-1,-1,-1,-1,-1,-1,-1],"loss_changes":[1.6717088E0,1.581495E1,3.9675396E1,2.0556507E0,1.2187925E1,2.3935066E1,9.994956E0,0E0,0E0,0E0,0E0,0E0,0E0,0E0,0E0],"parents":[2147483647,0,0,1,1,2,2,3,3,4,4,5,5,6,6],"right_children":[2,4,6,8,10,12,14,-1,-1,-1,-1,-1,-1,-1,-1],"split_conditions":[-5.348616E-1,1E0,-8.9281887E-1,-9.569501E-1,-1.1749964E0,1E0,-4.3680587E-1,-1.0954168E-2,1.6523866E-2,3.5141688E-3,-2.1268651E-1,-6.8235286E-2,6.613042E-1,8.461894E-2,-2.9845457E-3],"split_indices":[4,1,3,3,3,1,4,0,0,0,0,0,0,0,0],"split_type":[0,0,0,0,0,0,0,0,0,0,0,0,0,0,0],"sum_hessian":[4.114E3,1.159E3,2.955E3,1.056E3,1.03E2,1.9E1,2.936E3,5.83E2,4.73E2,4.2E1,6.1E1,6E0,1.3E1,1.3E2,2.806E3],"tree_param":{"num_deleted":"0","num_feature":"5","num_nodes":"15","size_leaf_vector":"0"}},{"base_weights":[3.0463187E-3,-4.2872135E-2,1.1178612E-2,-2.3822747E-2,-3.727344E-1,1.3210545E-1,-6.1250577E-4,3.4790196E-2,-1.2935161E-2,1.9057183E-2,-1.8983473E-1,1.355504E-2,3.7030128E-1,-6.209547E-2,2.2127302E-3],"categories":[],"categories_nodes":[],"categories_segments":[],"categories_sizes":[],"default_left":[0,0,0,0,0,0,0,0,0,0,0,0,0,0,0],"id":19,"left_children":[1,3,5,7,9,11,13,-1,-1,-1,-1,-1,-1,-1,-1],"loss_changes":[1.5486883E0,3.9121332E0,5.0233946E0,1.4442213E0,3.5754132E0,2.9337124E1,4.9711227E0,0E0,0E0,0E0,0E0,0E0,0E0,0E0,0E0],"parents":[2147483647,0,0,1,1,2,2,3,3,4,4,5,5,6,6],"right_children":[2,4,6,8,10,12,14,-1,-1,-1,-1,-1,-1,-1,-1],"split_conditions":[-1.0557828E0,1E0,-6.2066036E-1,-1.5215476E0,-1.4725196E0,-6.696882E-1,-6.145319E-1,3.4790196E-2,-1.2935161E-2,1.9057183E-2,-1.8983473E-1,1.355504E-2,3.7030128E-1,-6.209547E-2,2.2127302E-3],"split_indices":[4,0,4,4,4,4,4,0,0,0,0,0,0,0,0],"split_type":[0,0,0,0,0,0,0,0,0,0,0,0,0,0,0],"sum_hessian":[4.145E3,6.23E2,3.522E3,5.9E2,3.3E1,3.12E2,3.21E3,6.8E1,5.22E2,1.2E1,2.1E1,2.89E2,2.3E1,1.19E2,3.091E3],"tree_param":{"num_deleted":"0","num_feature":"5","num_nodes":"15","size_leaf_vector":"0"}},{"base_weights":[5.4293294E-3,5.1811494E-2,-4.8306617E-3,9.642706E-3,1.0607297E0,-2.4151358E-1,-9.176835E-4,-5.9249285E-3,8.317523E-2,4.40364E-1,-1.0056418E-1,5.687116E-3,-2.1612714E-1,4.0194076E-2,-1.7719268E-3],"categories":[],"categories_nodes":[],"categories_segments":[],"categories_sizes":[],"default_left":[0,0,0,0,0,0,0,0,0,0,0,0,0,0,0],"id":20,"left_children":[1,3,5,7,9,11,13,-1,-1,-1,-1,-1,-1,-1,-1],"loss_changes":[1.9651612E0,3.1813324E1,3.1319673E0,5.3530464E0,1.5411888E1,6.525351E0,2.085836E0,0E0,0E0,0E0,0E0,0E0,0E0,0E0,0E0],"parents":[2147483647,0,0,1,1,2,2,3,3,4,4,5,5,6,6],"right_children":[2,4,6,8,10,12,14,-1,-1,-1,-1,-1,-1,-1,-1],"split_conditions":[-8.8640577E-1,-4.980907E-1,-7.517301E-1,-9.569501E-1,1E0,1E0,-5.7216257E-1,-5.9249285E-3,8.317523E-2,4.40364E-1,-1.0056418E-1,5.687116E-3,-2.1612714E-1,4.0194076E-2,-1.7719268E-3],"split_indices":[3,4,3,3,2,0,3,0,0,0,0,0,0,0,0],"split_type":[0,0,0,0,0,0,0,0,0,0,0,0,0,0,0],"sum_hessian":[4.128E3,7.47E2,3.381E3,7.18E2,2.9E1,5.4E1,3.327E3,6.47E2,7.1E1,2.3E1,6E0,3.5E1,1.9E1,1.17E2,3.21E3],"tree_param":{"num_deleted":"0","num_feature":"5","num_nodes":"15","size_leaf_vector":"0"}},{"base_weights":[4.6603843E-3,4.930445E-2,-8.386212E-3,1.940948E-2,7.1308273E-1,-1.2803157E-1,6.104174E-3,-2.3783732E-3,4.0072176E-1,5.1820034E-1,1.0155051E-2,-1.0965008E-2,-1.297904E-1,2.0208228E-1,-1.1129631E-3],"categories":[],"categories_nodes":[],"categories_segments":[],"categories_sizes":[],"default_left":[0,0,0,0,0,0,0,0,0,0,0,0,0,0,0],"id":21,"left_children":[1,3,5,7,9,11,13,-1,-1,-1,-1,-1,-1,-1,-1],"loss_changes":[2.4519587E0,1.88773E1,5.6492004E0,3.1457024E1,2.6681845E1,9.465088E0,1.8201258E1,0E0,0E0,0E0,0E0,0E0,0E0,0E0,0E0],"parents":[2147483647,0,0,1,1,2,2,3,3,4,4,5,5,6,6],"right_children":[2,4,6,8,10,12,14,-1,-1,-1,-1,-1,-1,-1,-1],"split_conditions":[-5.7216257E-1,-3.8777798E-1,-4.9520507E-1,-5.978151E-1,-8.735795E-1,-3.7552103E-1,-4.4390008E-1,-2.3783732E-3,4.0072176E-1,5.1820034E-1,1.0155051E-2,-1.0965008E-2,-1.297904E-1,2.0208228E-1,-1.1129631E-3],"split_indices":[3,4,3,3,3,4,3,0,0,0,0,0,0,0,0],"split_type":[0,0,0,0,0,0,0,0,0,0,0,0,0,0,0],"sum_hessian":[4.208E3,9.51E2,3.257E3,9.11E2,4E1,3.51E2,2.906E3,8.93E2,1.8E1,1.6E1,2.4E1,2.67E2,8.4E1,4.2E1,2.864E3],"tree_param":{"num_deleted":"0","num_feature":"5","num_nodes":"15","size_leaf_vector":"0"}},{"base_weights":[1.2296224E-3,1.4283992E-1,-2.098527E-3,-8.699622E-2,2.367589E-1,-7.557782E-3,5.2620117E-2,2.246918E-3,-2.0282502E-1,4.9350485E-2,1.608969E-1,1.8937351E-2,-3.72479E-3,3.271628E-2,-2.5036256E-3],"categories":[],"categories_nodes":[],"categories_segments":[],"categories_sizes":[],"default_left":[0,0,0,0,0,0,0,0,0,0,0,0,0,0,0],"id":22,"left_children":[1,3,5,7,9,11,13,-1,-1,-1,-1,-1,-1,-1,-1],"loss_changes":[1.9293318E0,2.0496788E0,1.1952897E0,1.5016992E0,1.3842332E0,1.1139666E0,1.1667444E0,0E0,0E0,0E0,0E0,0E0,0E0,0E0,0E0],"parents":[2147483647,0,0,1,1,2,2,3,3,4,4,5,5,6,6],"right_children":[2,4,6,8,10,12,14,-1,-1,-1,-1,-1,-1,-1,-1],"split_conditions":[-1.5341314E0,-1.5469577E0,1E0,1E0,1E0,-1.1878227E0,-4.4390008E-1,2.246918E-3,-2.0282502E-1,4.9350485E-2,1.608969E-1,1.8937351E-2,-3.72479E-3,3.271628E-2,-2.5036256E-3],"split_indices":[3,3,2,0,0,3,3,0,0,0,0,0,0,0,0],"split_type":[0,0,0,0,0,0,0,0,0,0,0,0,0,0,0],"sum_hessian":[4.092E3,9.3E1,3.999E3,2.7E1,6.6E1,3.637E3,3.62E2,2.4E1,3E0,5.3E1,1.3E1,2.21E2,3.416E3,1.93E2,1.69E2],"tree_param":{"num_deleted":"0","num_feature":"5","num_nodes":"15","size_leaf_vector":"0"}},{"base_weights":[-2.6095915E-3,-1.4257158E-2,4.2761307E-2,-2.628851E-3,-8.3996795E-2,1.487166E-1,1.6597284E-3,-4.052599E-3,5.1206995E-2,-1.11381195E-1,-2.1016778E-2,5.7867683E-2,-2.5847038E-2,6.6748457E-3,-1.4191435E-2],"categories":[],"categories_nodes":[],"categories_segments":[],"categories_sizes":[],"default_left":[0,0,0,0,0,0,0,0,0,0,0,0,0,0,0],"id":23,"left_children":[1,3,5,7,9,11,13,-1,-1,-1,-1,-1,-1,-1,-1],"loss_changes":[2.1937208E0,2.67836E0,3.6927338E0,4.9656477E0,2.080771E0,2.1032376E0,5.779184E-1,0E0,0E0,0E0,0E0,0E0,0E0,0E0,0E0],"parents":[2147483647,0,0,1,1,2,2,3,3,4,4,5,5,6,6],"right_children":[2,4,6,8,10,12,14,-1,-1,-1,-1,-1,-1,-1,-1],"split_conditions":[9.972594E-1,5.4375154E-1,1.2235126E0,3.3538312E-1,4.9910624E-2,2.0758724E0,1.9533029E0,-4.052599E-3,5.1206995E-2,-1.11381195E-1,-2.1016778E-2,5.7867683E-2,-2.5847038E-2,6.6748457E-3,-1.4191435E-2],"split_indices":[4,4,3,4,3,4,4,0,0,0,0,0,0,0,0],"split_type":[0,0,0,0,0,0,0,0,0,0,0,0,0,0,0],"sum_hessian":[4.149E3,3.302E3,8.47E2,2.831E3,4.71E2,2.36E2,6.11E2,2.666E3,1.65E2,2.5E1,4.46E2,2.03E2,3.3E1,4.31E2,1.8E2],"tree_param":{"num_deleted":"0","num_feature":"5","num_nodes":"15","size_leaf_vector":"0"}},{"base_weights":[4.3936312E-4,-3.605051E-2,8.0815945E-3,-1.6289813E-2,-2.840568E-1,8.7782794E-1,4.2634374E-3,-1.0280871E-3,-7.551372E-2,-3.8145997E-2,-9.3617685E-2,-1.4184685E-1,3.8744062E-1,9.82709E-2,-7.0453377E-4],"categories":[],"categories_nodes":[],"categories_segments":[],"categories_sizes":[],"default_left":[0,0,0,0,0,0,0,0,0,0,0,0,0,0,0],"id":24,"left_children":[1,3,5,7,9,11,13,-1,-1,-1,-1,-1,-1,-1,-1],"loss_changes":[1.157856E0,3.519031E0,1.139666E1,1.9661026E0,1.15890026E-1,8.023006E0,6.989515E0,0E0,0E0,0E0,0E0,0E0,0E0,0E0,0E0],"parents":[2147483647,0,0,1,1,2,2,3,3,4,4,5,5,6,6],"right_children":[2,4,6,8,10,12,14,-1,-1,-1,-1,-1,-1,-1,-1],"split_conditions":[-7.003307E-1,-7.67744E-1,-6.819452E-1,1E0,-1.001842E0,-1.2198883E0,-8.9281887E-1,-1.0280871E-3,-7.551372E-2,-3.8145997E-2,-9.3617685E-2,-1.4184685E-1,3.8744062E-1,9.82709E-2,-7.0453377E-4],"split_indices":[4,4,4,0,3,3,3,0,0,0,0,0,0,0,0],"split_type":[0,0,0,0,0,0,0,0,0,0,0,0,0,0,0],"sum_hessian":[4.15E3,7.18E2,3.432E3,6.66E2,5.2E1,1.4E1,3.418E3,6.31E2,3.5E1,6E0,4.6E1,3E0,1.1E1,6.9E1,3.349E3],"tree_param":{"num_deleted":"0","num_feature":"5","num_nodes":"15","size_leaf_vector":"0"}},{"base_weights":[-5.744267E-3,-9.938565E-2,-4.5661177E-4,-1.933198E-3,-2.1592748E-1,3.557975E-2,-1.0842795E-2,-2.3135988E-2,3.7628137E-2,-5.153495E-2,-1.7816219E-1,2.9630046E-3,3.7981993E-1,-9.485775E-2,-1.0118936E-4],"categories":[],"categories_nodes":[],"categories_segments":[],"categories_sizes":[],"default_left":[0,0,0,0,0,0,0,0,0,0,0,0,0,0,0],"id":25,"left_children":[1,3,5,7,9,11,13,-1,-1,-1,-1,-1,-1,-1,-1],"loss_changes":[2.0751004E0,2.5436146E0,1.4855297E0,1.1117328E0,1.7227812E0,2.7477722E1,9.563042E0,0E0,0E0,0E0,0E0,0E0,0E0,0E0,0E0],"parents":[2147483647,0,0,1,1,2,2,3,3,4,4,5,5,6,6],"right_children":[2,4,6,8,10,12,14,-1,-1,-1,-1,-1,-1,-1,-1],"split_conditions":[-1.3802165E0,-1.4725196E0,-5.593755E-1,-1.490905E0,1E0,-5.77761E-1,-5.348616E-1,-2.3135988E-2,3.7628137E-2,-5.153495E-2,-1.7816219E-1,2.9630046E-3,3.7981993E-1,-9.485775E-2,-1.0118936E-4],"split_indices":[3,4,4,4,0,4,4,0,0,0,0,0,0,0,0],"split_type":[0,0,0,0,0,0,0,0,0,0,0,0,0,0,0],"sum_hessian":[4.19E3,2.23E2,3.967E3,1.22E2,1.01E2,8.87E2,3.08E3,7.7E1,4.5E1,9E1,1.1E1,8.69E2,1.8E1,1.05E2,2.975E3],"tree_param":{"num_deleted":"0","num_feature":"5","num_nodes":"15","size_leaf_vector":"0"}},{"base_weights":[4.076624E-3,-2.335374E-3,3.445838E-2,6.5183775E-3,-6.667689E-2,6.768396E-2,-2.8103976E-2,7.6861195E-3,-6.2877843E-3,-6.756809E-2,4.9086674E-3,1.2853196E-2,7.780511E-2,-1.989118E-3,-2.0474367E-2],"categories":[],"categories_nodes":[],"categories_segments":[],"categories_sizes":[],"default_left":[0,0,0,0,0,0,0,0,0,0,0,0,0,0,0],"id":26,"left_children":[1,3,5,7,9,11,13,-1,-1,-1,-1,-1,-1,-1,-1],"loss_changes":[8.2275367E-1,1.987422E0,1.5318036E0,1.5027603E0,5.2711496E0,2.3015232E0,2.1023189E-1,0E0,0E0,0E0,0E0,0E0,0E0,0E0,0E0],"parents":[2147483647,0,0,1,1,2,2,3,3,4,4,5,5,6,6],"right_children":[2,4,6,8,10,12,14,-1,-1,-1,-1,-1,-1,-1,-1],"split_conditions":[1.4630241E0,1E0,1.9533029E0,-2.7746528E-1,-4.3067738E-1,1E0,2.3822968E0,7.6861195E-3,-6.2877843E-3,-6.756809E-2,4.9086674E-3,1.2853196E-2,7.780511E-2,-1.989118E-3,-2.0474367E-2],"split_indices":[4,1,4,4,4,1,4,0,0,0,0,0,0,0,0],"split_type":[0,0,0,0,0,0,0,0,0,0,0,0,0,0,0],"sum_hessian":[4.222E3,3.487E3,7.35E2,3.066E3,4.21E2,4.8E2,2.55E2,1.823E3,1.243E3,1.48E2,2.73E2,4.21E2,5.9E1,1.63E2,9.2E1],"tree_param":{"num_deleted":"0","num_feature":"5","num_nodes":"15","size_leaf_vector":"0"}},{"base_weights":[-2.8930793E-3,5.5557787E-3,-9.153993E-2,1.0299051E-2,-4.7641415E-2,1.4274156E-1,-1.913248E-1,3.41461E-2,2.4211092E-3,-8.203514E-2,2.9209931E-3,1.0362968E-2,6.24248E-1,-2.2826248E-1,-2.6845136E-3],"categories":[],"categories_nodes":[],"categories_segments":[],"categories_sizes":[],"default_left":[0,0,0,0,0,0,0,0,0,0,0,0,0,0,0],"id":27,"left_children":[1,3,5,7,9,11,13,-1,-1,-1,-1,-1,-1,-1,-1],"loss_changes":[3.12444E0,9.616111E-1,8.5134325E0,8.684907E-1,3.86574E0,2.2225336E1,2.5379772E1,0E0,0E0,0E0,0E0,0E0,0E0,0E0,0E0],"parents":[2147483647,0,0,1,1,2,2,3,3,4,4,5,5,6,6],"right_children":[2,4,6,8,10,12,14,-1,-1,-1,-1,-1,-1,-1,-1],"split_conditions":[1E0,1E0,-4.3680587E-1,-1.4847766E0,-5.77761E-1,-5.3368384E-1,-2.652083E-1,3.41461E-2,2.4211092E-3,-8.203514E-2,2.9209931E-3,1.0362968E-2,6.24248E-1,-2.2826248E-1,-2.6845136E-3],"split_indices":[0,1,4,4,4,3,4,0,0,0,0,0,0,0,0],"split_type":[0,0,0,0,0,0,0,0,0,0,0,0,0,0,0],"sum_hessian":[4.17E3,3.808E3,3.62E2,3.497E3,3.11E2,1.08E2,2.54E2,8.4E1,3.413E3,6.4E1,2.47E2,1.03E2,5E0,6.3E1,1.91E2],"tree_param":{"num_deleted":"0","num_feature":"5","num_nodes":"15","size_leaf_vector":"0"}},{"base_weights":[1.4096964E-3,-4.823099E-3,5.8976002E-2,5.2465487E-2,-9.500344E-3,2.813613E-1,-9.205915E-4,6.395042E-3,2.5295803E-2,-1.5342166E-2,1.2467735E-3,-3.2411493E-2,6.2012136E-1,-2.1440306E-1,1.450658E-2],"categories":[],"categories_nodes":[],"categories_segments":[],"categories_sizes":[],"default_left":[0,0,0,0,1,0,0,0,0,0,0,0,0,0,0],"id":28,"left_children":[1,3,5,7,9,11,13,-1,-1,-1,-1,-1,-1,-1,-1],"loss_changes":[1.5058051E0,1.0152357E0,5.461509E0,2.6358604E-1,1.8939388E0,5.7924828E1,1.0710612E1,0E0,0E0,0E0,0E0,0E0,0E0,0E0,0E0],"parents":[2147483647,0,0,1,1,2,2,3,3,4,4,5,5,6,6],"right_children":[2,4,6,8,10,12,14,-1,-1,-1,-1,-1,-1,-1,-1],"split_conditions":[1E0,-1.2886652E0,-5.593755E-1,-1.4602627E0,-4.3748695E-1,-8.735795E-1,-4.8583373E-1,6.395042E-3,2.5295803E-2,-1.5342166E-2,1.2467735E-3,-3.2411493E-2,6.2012136E-1,-2.1440306E-1,1.450658E-2],"split_indices":[0,4,4,4,3,3,4,0,0,0,0,0,0,0,0],"split_type":[0,0,0,0,0,0,0,0,0,0,0,0,0,0,0],"sum_hessian":[4.195E3,3.786E3,4.09E2,2.85E2,3.501E3,8.6E1,3.23E2,1.37E2,1.48E2,8.84E2,2.617E3,7.1E1,1.5E1,2E1,3.03E2],"tree_param":{"num_deleted":"0","num_feature":"5","num_nodes":"15","size_leaf_vector":"0"}},{"base_weights":[7.1682916E-3,4.6480056E-2,-4.183316E-3,2.1154163E-2,5.530927E-1,-1.2017967E-1,5.207344E-3,1.1714056E-2,-2.4159375E-1,3.7286365E-1,4.305368E-2,-1.9138627E-2,-6.889676E-2,7.7175505E-2,-2.3942337E-4],"categories":[],"categories_nodes":[],"categories_segments":[],"categories_sizes":[],"default_left":[0,0,0,0,0,0,0,0,0,0,0,0,0,0,0],"id":29,"left_children":[1,3,5,7,9,11,13,-1,-1,-1,-1,-1,-1,-1,-1],"loss_changes":[1.8423214E0,1.1856438E1,3.4906864E0,1.1772946E1,1.1673767E1,1.4178965E0,4.321745E0,0E0,0E0,0E0,0E0,0E0,0E0,0E0,0E0],"parents":[2147483647,0,0,1,1,2,2,3,3,4,4,5,5,6,6],"right_children":[2,4,6,8,10,12,14,-1,-1,-1,-1,-1,-1,-1,-1],"split_conditions":[-5.7216257E-1,-3.8777798E-1,-6.145319E-1,-4.0616345E-1,-3.142362E-1,-6.2066036E-1,-5.4711854E-1,1.1714056E-2,-2.4159375E-1,3.7286365E-1,4.305368E-2,-1.9138627E-2,-6.889676E-2,7.7175505E-2,-2.3942337E-4],"split_indices":[3,4,4,4,4,4,4,0,0,0,0,0,0,0,0],"split_type":[0,0,0,0,0,0,0,0,0,0,0,0,0,0,0],"sum_hessian":[4.127E3,9.24E2,3.203E3,8.81E2,4.3E1,2.39E2,2.964E3,8.64E2,1.7E1,1.6E1,2.7E1,1.53E2,8.6E1,7E1,2.894E3],"tree_param":{"num_deleted":"0","num_feature":"5","num_nodes":"15","size_leaf_vector":"0"}},{"base_weights":[2.9798865E-3,-1.5729079E-1,6.204469E-3,-1.0133725E-1,-6.5519977E-1,4.119337E-2,-4.3371795E-3,-3.8888637E-2,7.950566E-2,-2.4112375E-2,-2.587597E-1,1.007122E-2,3.679485E-1,-1.002311E-1,-4.9334823E-5],"categories":[],"categories_nodes":[],"categories_segments":[],"categories_sizes":[],"default_left":[0,0,0,0,0,0,0,0,0,0,0,0,0,0,0],"id":30,"left_children":[1,3,5,7,9,11,13,-1,-1,-1,-1,-1,-1,-1,-1],"loss_changes":[2.1224647E0,2.1902454E0,1.4847624E0,6.705509E-1,7.642884E-1,9.257479E0,4.1234674E0,0E0,0E0,0E0,0E0,0E0,0E0,0E0,0E0],"parents":[2147483647,0,0,1,1,2,2,3,3,4,4,5,5,6,6],"right_children":[2,4,6,8,10,12,14,-1,-1,-1,-1,-1,-1,-1,-1],"split_conditions":[-1.490905E0,1E0,-6.0227495E-1,-1.4379346E0,-1.5215476E0,-6.145319E-1,-9.3771076E-1,-3.8888637E-2,7.950566E-2,-2.4112375E-2,-2.587597E-1,1.007122E-2,3.679485E-1,-1.002311E-1,-4.9334823E-5],"split_indices":[4,2,4,3,4,4,3,0,0,0,0,0,0,0,0],"split_type":[0,0,0,0,0,0,0,0,0,0,0,0,0,0,0],"sum_hessian":[4.104E3,8E1,4.024E3,7.3E1,7E0,9.31E2,3.093E3,6.9E1,4E0,2E0,5E0,9.25E2,6E0,3.9E1,3.054E3],"tree_param":{"num_deleted":"0","num_feature":"5","num_nodes":"15","size_leaf_vector":"0"}},{"base_weights":[3.6873722E-3,5.757528E-2,-7.7635087E-3,3.1519014E-2,1.0295979E0,-1.2531835E-1,3.6225182E-3,1.6032068E-2,-1.1161726E-1,-2.4595696E-1,4.8627442E-1,-1.281502E-3,-1.5303583E-1,3.449903E-2,-7.466371E-4],"categories":[],"categories_nodes":[],"categories_segments":[],"categories_sizes":[],"default_left":[0,0,1,0,0,0,0,0,0,0,0,0,0,0,0],"id":31,"left_children":[1,3,5,7,9,11,13,-1,-1,-1,-1,-1,-1,-1,-1],"loss_changes":[2.5668163E0,1.8431133E1,4.592788E0,5.6417527E0,1.9914993E1,1.3523205E1,2.0320165E0,0E0,0E0,0E0,0E0,0E0,0E0,0E0,0E0],"parents":[2147483647,0,0,1,1,2,2,3,3,4,4,5,5,6,6],"right_children":[2,4,6,8,10,12,14,-1,-1,-1,-1,-1,-1,-1,-1],"split_conditions":[-8.9281887E-1,-4.980907E-1,-5.6574947E-1,-6.145319E-1,1E0,1E0,-5.080313E-1,1.6032068E-2,-1.1161726E-1,-2.4595696E-1,4.8627442E-1,-1.281502E-3,-1.5303583E-1,3.449903E-2,-7.466371E-4],"split_indices":[3,4,3,4,1,1,3,0,0,0,0,0,0,0,0],"split_type":[0,0,0,0,0,0,0,0,0,0,0,0,0,0,0],"sum_hessian":[4.158E3,7.28E2,3.43E3,7.1E2,1.8E1,3.02E2,3.128E3,6.76E2,3.4E1,4E0,1.4E1,2.28E2,7.4E1,1.65E2,2.963E3],"tree_param":{"num_deleted":"0","num_feature":"5","num_nodes":"15","size_leaf_vector":"0"}},{"base_weights":[-2.2004785E-3,-3.8739815E-2,5.7235863E-3,-2.4409553E-2,-2.507352E-1,8.6051637E-1,3.474431E-3,2.5083616E-2,-1.1188541E-2,-4.6755645E-2,-9.078505E-2,3.23814E-1,1.14489205E-1,2.7043873E-3,-1.3309979E-2],"categories":[],"categories_nodes":[],"categories_segments":[],"categories_sizes":[],"default_left":[0,0,0,0,0,0,0,0,0,0,0,0,0,0,0],"id":32,"left_children":[1,3,5,7,9,11,13,-1,-1,-1,-1,-1,-1,-1,-1],"loss_changes":[1.2087619E0,2.2541142E0,6.5933194E0,8.617774E-1,1.5361619E-1,4.2784214E-1,8.3429885E-1,0E0,0E0,0E0,0E0,0E0,0E0,0E0,0E0],"parents":[2147483647,0,0,1,1,2,2,3,3,4,4,5,5,6,6],"right_children":[2,4,6,8,10,12,14,-1,-1,-1,-1,-1,-1,-1,-1],"split_conditions":[-7.003307E-1,-7.67744E-1,-6.819452E-1,-1.5215476E0,-7.4323004E-1,1E0,1E0,2.5083616E-2,-1.1188541E-2,-4.6755645E-2,-9.078505E-2,3.23814E-1,1.14489205E-1,2.7043873E-3,-1.3309979E-2],"split_indices":[4,4,4,4,4,1,0,0,0,0,0,0,0,0,0],"split_type":[0,0,0,0,0,0,0,0,0,0,0,0,0,0,0],"sum_hessian":[4.173E3,7.43E2,3.43E3,6.97E2,4.6E1,8E0,3.422E3,6.9E1,6.28E2,1.5E1,3.1E1,5E0,3E0,3.075E3,3.47E2],"tree_param":{"num_deleted":"0","num_feature":"5","num_nodes":"15","size_leaf_vector":"0"}},{"base_weights":[-4.4204094E-3,-1.0644957E-2,4.6614125E-2,-1.2317817E-1,-8.344157E-3,4.3899697E-1,1.0485712E-2,-1.6849626E-2,-2.1209776E-1,6.808884E-2,-2.997787E-3,2.079489E-1,-1.9527226E-3,2.6717221E-2,-1.3208641E-2],"categories":[],"categories_nodes":[],"categories_segments":[],"categories_sizes":[],"default_left":[0,0,0,0,0,0,0,0,0,0,0,0,0,0,0],"id":33,"left_children":[1,3,5,7,9,11,13,-1,-1,-1,-1,-1,-1,-1,-1],"loss_changes":[1.3178608E0,9.561864E-1,6.3888493E0,2.8200355E0,1.097794E0,3.9266715E0,1.66761E0,0E0,0E0,0E0,0E0,0E0,0E0,0E0,0E0],"parents":[2147483647,0,0,1,1,2,2,3,3,4,4,5,5,6,6],"right_children":[2,4,6,8,10,12,14,-1,-1,-1,-1,-1,-1,-1,-1],"split_conditions":[1.8307332E0,-1.490905E0,8.387251E-1,1E0,-1.4847766E0,2.0758724E0,1.9533029E0,-1.6849626E-2,-2.1209776E-1,6.808884E-2,-2.997787E-3,2.079489E-1,-1.9527226E-3,2.6717221E-2,-1.3208641E-2],"split_indices":[4,4,3,2,4,4,4,0,0,0,0,0,0,0,0],"split_type":[0,0,0,0,0,0,0,0,0,0,0,0,0,0,0],"sum_hessian":[4.146E3,3.696E3,4.5E2,7.3E1,3.623E3,3.7E1,4.13E2,6.6E1,7E0,2E1,3.603E3,2.4E1,1.3E1,1.7E2,2.43E2],"tree_param":{"num_deleted":"0","num_feature":"5","num_nodes":"15","size_leaf_vector":"0"}},{"base_weights":[-1.27118835E-2,2.3836557E-2,-2.3231687E-2,8.700458E-3,8.3088017E-1,-4.410084E-1,-2.1915391E-2,4.792634E-3,-6.0983196E-2,5.9393764E-2,7.213239E-1,-2.3461694E-2,3.0607948E-4],"categories":[],"categories_nodes":[],"categories_segments":[],"categories_sizes":[],"default_left":[0,0,0,0,0,0,1,0,0,0,0,0,0],"id":34,"left_children":[1,3,5,7,9,-1,11,-1,-1,-1,-1,-1,-1],"loss_changes":[1.5892351E0,1.1279885E1,5.879776E0,1.2638633E0,1.5812235E1,0E0,3.949249E0,0E0,0E0,0E0,0E0,0E0,0E0],"parents":[2147483647,0,0,1,1,2,2,3,3,4,4,6,6],"right_children":[2,4,6,8,10,-1,12,-1,-1,-1,-1,-1,-1],"split_conditions":[-5.7857573E-1,-5.978151E-1,-5.7216257E-1,-6.362938E-1,1E0,-4.410084E-1,-2.5791943E-1,4.792634E-3,-6.0983196E-2,5.9393764E-2,7.213239E-1,-2.3461694E-2,3.0607948E-4],"split_indices":[3,3,3,3,1,0,3,0,0,0,0,0,0],"split_type":[0,0,0,0,0,0,0,0,0,0,0,0,0],"sum_hessian":[4.131E3,9.23E2,3.208E3,9.07E2,1.6E1,2E0,3.206E3,8.79E2,2.8E1,1.2E1,4E0,9.57E2,2.249E3],"tree_param":{"num_deleted":"0","num_feature":"5","num_nodes":"13","size_leaf_vector":"0"}},{"base_weights":[3.6160136E-3,8.767523E-3,-4.8377067E-2,3.305979E-2,1.17233285E-4,2.1553579E-1,-1.04590245E-1,-3.6037012E-3,8.168307E-2,-2.007713E-1,5.4232404E-4,-2.7607594E-4,4.4255987E-1,-1.7820464E-1,-2.1717655E-2],"categories":[],"categories_nodes":[],"categories_segments":[],"categories_sizes":[],"default_left":[0,0,0,0,0,0,0,0,0,0,0,0,0,0,0],"id":35,"left_children":[1,3,5,7,9,11,13,-1,-1,-1,-1,-1,-1,-1,-1],"loss_changes":[1.1111684E0,7.9304624E-1,5.570975E0,1.020725E1,2.9446115E0,1.7314745E1,4.977809E0,0E0,0E0,0E0,0E0,0E0,0E0,0E0,0E0],"parents":[2147483647,0,0,1,1,2,2,3,3,4,4,5,5,6,6],"right_children":[2,4,6,8,10,12,14,-1,-1,-1,-1,-1,-1,-1,-1],"split_conditions":[1E0,-5.3368384E-1,-8.9281887E-1,-6.696882E-1,-6.3904583E-1,-4.980907E-1,-5.77761E-1,-3.6037012E-3,8.168307E-2,-2.007713E-1,5.4232404E-4,-2.7607594E-4,4.4255987E-1,-1.7820464E-1,-2.1717655E-2],"split_indices":[0,3,3,4,4,4,4,0,0,0,0,0,0,0,0],"split_type":[0,0,0,0,0,0,0,0,0,0,0,0,0,0,0],"sum_hessian":[4.146E3,3.773E3,3.73E2,9.9E2,2.783E3,6.5E1,3.08E2,8.3E2,1.6E2,6E0,2.777E3,5.6E1,9E0,2E1,2.88E2],"tree_param":{"num_deleted":"0","num_feature":"5","num_nodes":"15","size_leaf_vector":"0"}},{"base_weights":[-2.5962186E-3,-7.087547E-2,2.3445531E-3,-2.3132192E-2,-1.5144935E-1,1.4102504E-1,-4.706133E-4,2.359806E-3,-5.7972655E-2,-9.9664815E-2,-2.5237104E-2,2.3920385E-3,5.323401E-1,-3.0985216E-2,5.4371386E-4],"categories":[],"categories_nodes":[],"categories_segments":[],"categories_sizes":[],"default_left":[1,1,0,0,0,0,0,0,0,0,0,0,0,0,0],"id":36,"left_children":[1,3,5,7,9,11,13,-1,-1,-1,-1,-1,-1,-1,-1],"loss_changes":[1.3998405E0,1.0736179E0,1.5109477E0,8.9320123E-1,1.212487E0,1.6166103E1,8.397872E-1,0E0,0E0,0E0,0E0,0E0,0E0,0E0,0E0],"parents":[2147483647,0,0,1,1,2,2,3,3,4,4,5,5,6,6],"right_children":[2,4,6,8,10,12,14,-1,-1,-1,-1,-1,-1,-1,-1],"split_conditions":[-1.3738034E0,-1.4122821E0,-1.1878227E0,1E0,-1.3866296E0,1E0,-1.149344E0,2.359806E-3,-5.7972655E-2,-9.9664815E-2,-2.5237104E-2,2.3920385E-3,5.323401E-1,-3.0985216E-2,5.4371386E-4],"split_indices":[3,3,3,0,3,0,3,0,0,0,0,0,0,0,0],"split_type":[0,0,0,0,0,0,0,0,0,0,0,0,0,0,0],"sum_hessian":[4.148E3,2.79E2,3.869E3,1.76E2,1.03E2,7.6E1,3.793E3,1.49E2,2.7E1,2.9E1,7.4E1,7.1E1,5E0,8.2E1,3.711E3],"tree_param":{"num_deleted":"0","num_feature":"5","num_nodes":"15","size_leaf_vector":"0"}},{"base_weights":[3.1405503E-3,3.896578E-2,-7.170719E-3,2.7349656E-2,7.0010144E-1,-3.4039192E-2,8.786805E-3,6.0142004E-3,1.0811686E-1,3.866184E-1,-3.8838407E-1,2.763522E-3,-5.2293237E-2,6.805959E-2,1.1716365E-3],"categories":[],"categories_nodes":[],"categories_segments":[],"categories_sizes":[],"default_left":[0,0,0,0,0,0,0,0,0,0,0,0,0,0,0],"id":37,"left_children":[1,3,5,7,9,11,13,-1,-1,-1,-1,-1,-1,-1,-1],"loss_changes":[1.5355208E0,7.115417E0,1.3843181E0,2.3284364E0,1.865646E1,6.959257E0,2.1373026E0,0E0,0E0,0E0,0E0,0E0,0E0,0E0,0E0],"parents":[2147483647,0,0,1,1,2,2,3,3,4,4,5,5,6,6],"right_children":[2,4,6,8,10,12,14,-1,-1,-1,-1,-1,-1,-1,-1],"split_conditions":[-5.7216257E-1,-5.978151E-1,-2.1944067E-1,-2.7746528E-1,-5.593755E-1,-3.7552103E-1,-2.7746528E-1,6.0142004E-3,1.0811686E-1,3.866184E-1,-3.8838407E-1,2.763522E-3,-5.2293237E-2,6.805959E-2,1.1716365E-3],"split_indices":[3,3,3,4,4,4,4,0,0,0,0,0,0,0,0],"split_type":[0,0,0,0,0,0,0,0,0,0,0,0,0,0,0],"sum_hessian":[4.155E3,9.28E2,3.227E3,9.13E2,1.5E1,1.202E3,2.025E3,8.92E2,2.1E1,1.2E1,3E0,9.12E2,2.9E2,4.6E1,1.979E3],"tree_param":{"num_deleted":"0","num_feature":"5","num_nodes":"15","size_leaf_vector":"0"}},{"base_weights":[3.1704667E-3,-2.4486461E-3,5.953341E-2,1.4249555E-2,-8.471946E-3,2.338582E-1,3.0655315E-2,-9.5424947E-4,5.8442503E-2,-3.835567E-2,1.202897E-3,-1.7429598E-2,1.6655073E-1,-4.3731937E-1,1.9371042E-2],"categories":[],"categories_nodes":[],"categories_segments":[],"categories_sizes":[],"default_left":[0,0,0,0,0,0,0,0,0,0,0,0,0,0,0],"id":38,"left_children":[1,3,5,7,9,11,13,-1,-1,-1,-1,-1,-1,-1,-1],"loss_changes":[1.3065734E0,3.7749043E-1,1.8756098E0,3.005274E0,3.9269686E0,4.694829E0,1.4861942E1,0E0,0E0,0E0,0E0,0E0,0E0,0E0,0E0],"parents":[2147483647,0,0,1,1,2,2,3,3,4,4,5,5,6,6],"right_children":[2,4,6,8,10,12,14,-1,-1,-1,-1,-1,-1,-1,-1],"split_conditions":[1E0,-5.3368384E-1,-9.8260266E-1,1E0,-4.1824755E-1,-1.508479E0,-9.3771076E-1,-9.5424947E-4,5.8442503E-2,-3.835567E-2,1.202897E-3,-1.7429598E-2,1.6655073E-1,-4.3731937E-1,1.9371042E-2],"split_indices":[0,3,3,1,3,3,3,0,0,0,0,0,0,0,0],"split_type":[0,0,0,0,0,0,0,0,0,0,0,0,0,0,0],"sum_hessian":[4.124E3,3.751E3,3.73E2,9.94E2,2.757E3,5.2E1,3.21E2,9.05E2,8.9E1,2.66E2,2.491E3,2.7E1,2.5E1,6E0,3.15E2],"tree_param":{"num_deleted":"0","num_feature":"5","num_nodes":"15","size_leaf_vector":"0"}},{"base_weights":[-2.0894199E-3,7.1617654E-3,-6.729275E-2,-3.519584E-2,1.529441E-2,-2.3403443E-1,-3.6543604E-2,2.2722624E-2,-2.0857517E-2,1.1205951E-1,3.8876852E-3,-3.8520895E-2,-1.6632381E-1,2.163367E-1,-1.7730055E-2],"categories":[],"categories_nodes":[],"categories_segments":[],"categories_sizes":[],"default_left":[0,0,0,0,0,0,0,0,0,0,0,0,0,0,0],"id":39,"left_children":[1,3,5,7,9,11,13,-1,-1,-1,-1,-1,-1,-1,-1],"loss_changes":[2.500176E0,1.2509984E0,2.6319373E0,2.0414395E0,2.8989906E0,2.5897956E0,6.6520853E0,0E0,0E0,0E0,0E0,0E0,0E0,0E0,0E0],"parents":[2147483647,0,0,1,1,2,2,3,3,4,4,5,5,6,6],"right_children":[2,4,6,8,10,12,14,-1,-1,-1,-1,-1,-1,-1,-1],"split_conditions":[1E0,-9.633633E-1,-8.9281887E-1,-1.508479E0,-9.3771076E-1,-1.0403208E0,-8.8640577E-1,2.2722624E-2,-2.0857517E-2,1.1205951E-1,3.8876852E-3,-3.8520895E-2,-1.6632381E-1,2.163367E-1,-1.7730055E-2],"split_indices":[1,3,3,3,3,3,3,0,0,0,0,0,0,0,0],"split_type":[0,0,0,0,0,0,0,0,0,0,0,0,0,0,0],"sum_hessian":[4.143E3,3.629E3,5.14E2,5.84E2,3.045E3,7.9E1,4.35E2,1.33E2,4.51E2,2.3E1,3.022E3,5.9E1,2E1,1.1E1,4.24E2],"tree_param":{"num_deleted":"0","num_feature":"5","num_nodes":"15","size_leaf_vector":"0"}}]},"name":"gbtree"},"learner_model_param":{"base_score":"5E-1","num_class":"0","num_feature":"5","num_target":"1"},"objective":{"name":"reg:squarederror","reg_loss_param":{"scale_pos_weight":"1"}}},"version":[1,6,1]}