{"learner":{"attributes":{"best_iteration":"56","best_ntree_limit":"57","scikit_learn":"{\"objective\": \"reg:squarederror\", \"max_leaves\": null, \"max_bin\": null, \"grow_policy\": null, \"learning_rate\": 0.14, \"verbosity\": null, \"booster\": null, \"tree_method\": \"hist\", \"gamma\": null, \"min_child_weight\": 2.0, \"max_delta_step\": null, \"subsample\": 0.4, \"sampling_method\": null, \"colsample_bytree\": 0.2, \"colsample_bylevel\": null, \"colsample_bynode\": null, \"reg_alpha\": null, \"reg_lambda\": null, \"scale_pos_weight\": null, \"base_score\": null, \"missing\": NaN, \"num_parallel_tree\": null, \"random_state\": 2020, \"n_jobs\": null, \"monotone_constraints\": null, \"interaction_constraints\": null, \"importance_type\": null, \"gpu_id\": null, \"validate_parameters\": null, \"predictor\": null, \"enable_categorical\": false, \"max_cat_to_onehot\": null, \"eval_metric\": null, \"early_stopping_rounds\": null, \"callbacks\": null, \"_estimator_type\": \"regressor\"}"},"feature_names":["FEATURE","DISPLAY","TPR_ONLY","PRICE","BASE_PRICE"],"feature_types":["int","int","int","float","float"],"gradient_booster":{"model":{"gbtree_model_param":{"num_parallel_tree":"1","num_trees":"57","size_leaf_vector":"0"},"tree_info":[0,0,0,0,0,0,0,0,0,0,0,0,0,0,0,0,0,0,0,0,0,0,0,0,0,0,0,0,0,0,0,0,0,0,0,0,0,0,0,0,0,0,0,0,0,0,0,0,0,0,0,0,0,0,0,0,0],"trees":[{"base_weights":[-6.6883904E-1,-4.936874E-1,-8.712214E-1,-2.0922887E-1,-5.373008E-1,-7.796397E-1,-9.3808585E-1,-3.2678857E-2,-3.251406E-1,-1.3710111E-1,-5.0875276E-1,-7.8671575E-1,1.7490476E-2,-9.22061E-1,-1.4735375E-1,-8.990646E-2,1.2301982E-2,-1.1202111E-1,-1.9165957E-2,-5.5778626E-2,-8.159027E-2,-1.2182425E-1,-1.035556E-1,-1.4474183E-1,-1.263827E-1],"categories":[],"categories_nodes":[],"categories_segments":[],"categories_sizes":[],"default_left":[0,0,0,0,0,0,0,0,0,0,0,0,0,0,0,0,0,0,0,0,0,0,0,0,0],"id":0,"left_children":[1,3,5,7,9,11,13,15,17,-1,19,21,-1,23,-1,-1,-1,-1,-1,-1,-1,-1,-1,-1,-1],"loss_changes":[9.51012E1,1.7839386E1,6.916931E0,3.9594326E0,1.5324829E1,3.5098877E0,3.444214E-1,5.7876005E0,1.0352173E1,0E0,9.406708E0,1.4328003E0,0E0,4.432373E-1,0E0,0E0,0E0,0E0,0E0,0E0,0E0,0E0,0E0,0E0,0E0],"parents":[2147483647,0,0,1,1,2,2,3,3,4,4,5,5,6,6,7,7,8,8,10,10,11,11,13,13],"right_children":[2,4,6,8,10,12,14,16,18,-1,20,22,-1,24,-1,-1,-1,-1,-1,-1,-1,-1,-1,-1,-1],"split_conditions":[-1.040044E-1,-1.354564E0,7.7459383E-1,-1.5277183E0,-1.1365176E0,7.425282E-1,2.313744E0,-1.5533708E0,-1.4186952E0,-1.3710111E-1,-5.080313E-1,-1.42206345E-2,1.7490476E-2,8.900301E-1,-1.4735375E-1,-8.990646E-2,1.2301982E-2,-1.1202111E-1,-1.9165957E-2,-5.5778626E-2,-8.159027E-2,-1.2182425E-1,-1.035556E-1,-1.4474183E-1,-1.263827E-1],"split_indices":[3,3,3,3,3,3,3,3,3,0,3,3,0,3,0,0,0,0,0,0,0,0,0,0,0],"split_type":[0,0,0,0,0,0,0,0,0,0,0,0,0,0,0,0,0,0,0,0,0,0,0,0,0],"sum_hessian":[2.694E3,1.446E3,1.248E3,1.93E2,1.253E3,5.32E2,7.16E2,7.7E1,1.16E2,7.4E1,1.179E3,5.28E2,4E0,6.36E2,8E1,1.2E1,6.5E1,3.2E1,8.4E1,4.76E2,7.03E2,1.84E2,3.44E2,8.6E1,5.5E2],"tree_param":{"num_deleted":"0","num_feature":"5","num_nodes":"25","size_leaf_vector":"0"}},{"base_weights":[-5.696151E-1,-8.743387E-2,-1.6517067E-2],"categories":[],"categories_nodes":[],"categories_segments":[],"categories_sizes":[],"default_left":[0,0,0],"id":1,"left_children":[1,-1,-1],"loss_changes":[6.621796E1,0E0,0E0],"parents":[2147483647,0,0],"right_children":[2,-1,-1],"split_conditions":[1E0,-8.743387E-2,-1.6517067E-2],"split_indices":[1,0,0],"split_type":[0,0,0],"sum_hessian":[2.672E3,2.382E3,2.9E2],"tree_param":{"num_deleted":"0","num_feature":"5","num_nodes":"3","size_leaf_vector":"0"}},{"base_weights":[-5.074349E-1,-7.002205E-2,-7.964421E-2],"categories":[],"categories_nodes":[],"categories_segments":[],"categories_sizes":[],"default_left":[0,0,0],"id":2,"left_children":[1,-1,-1],"loss_changes":[9.3725586E-1,0E0,0E0],"parents":[2147483647,0,0],"right_children":[2,-1,-1],"split_conditions":[1E0,-7.002205E-2,-7.964421E-2],"split_indices":[2,0,0],"split_type":[0,0,0],"sum_hessian":[2.731E3,2.45E3,2.81E2],"tree_param":{"num_deleted":"0","num_feature":"5","num_nodes":"3","size_leaf_vector":"0"}},{"base_weights":[-4.3148467E-1,-5.93942E-2,-6.9335915E-2],"categories":[],"categories_nodes":[],"categories_segments":[],"categories_sizes":[],"default_left":[0,0,0],"id":3,"left_children":[1,-1,-1],"loss_changes":[9.8532104E-1,0E0,0E0],"parents":[2147483647,0,0],"right_children":[2,-1,-1],"split_conditions":[1E0,-5.93942E-2,-6.9335915E-2],"split_indices":[2,0,0],"split_type":[0,0,0],"sum_hessian":[2.588E3,2.331E3,2.57E2],"tree_param":{"num_deleted":"0","num_feature":"5","num_nodes":"3","size_leaf_vector":"0"}},{"base_weights":[-3.7722105E-1,-5.1765412E-2,-6.1586443E-2],"categories":[],"categories_nodes":[],"categories_segments":[],"categories_sizes":[],"default_left":[0,0,0],"id":4,"left_children":[1,-1,-1],"loss_changes":[1.1181335E0,0E0,0E0],"parents":[2147483647,0,0],"right_children":[2,-1,-1],"split_conditions":[1E0,-5.1765412E-2,-6.1586443E-2],"split_indices":[2,0,0],"split_type":[0,0,0],"sum_hessian":[2.735E3,2.45E3,2.85E2],"tree_param":{"num_deleted":"0","num_feature":"5","num_nodes":"3","size_leaf_vector":"0"}},{"base_weights":[-3.0933705E-1,-1.7597553E-1,-5.137437E-1,2.0720129E-1,-2.1191664E-1,-5.7313615E-1,-4.380837E-1,2.7191907E-1,1.6794276E-1,-4.7330752E-1,-1.6574354E-1,-4.1200745E-1,-6.304259E-1,-3.749955E-1,-8.1798896E-2,2.3126122E-2,4.296524E-2,8.247277E-4,2.7626233E-2,-8.0602854E-2,-5.485558E-2,-1.8092146E-2,-4.366109E-2,-8.681021E-2,-1.0238E-2,-7.456262E-2,-8.970796E-2,-6.264133E-2,-3.8707945E-2],"categories":[],"categories_nodes":[],"categories_segments":[],"categories_sizes":[],"default_left":[0,0,0,0,0,0,0,0,0,0,0,0,0,0,0,0,0,0,0,0,0,0,0,0,0,0,0,0,0],"id":5,"left_children":[1,3,5,7,9,11,13,15,17,19,21,23,25,27,-1,-1,-1,-1,-1,-1,-1,-1,-1,-1,-1,-1,-1,-1,-1],"loss_changes":[7.416577E1,2.2767376E1,4.57959E0,3.1511593E-1,1.8134018E1,5.269638E0,4.1803284E0,1.4342213E-1,4.3220615E-1,1.6605949E0,6.8104362E0,1.12360935E1,1.040802E-1,2.2740974E0,0E0,0E0,0E0,0E0,0E0,0E0,0E0,0E0,0E0,0E0,0E0,0E0,0E0,0E0,0E0],"parents":[2147483647,0,0,1,1,2,2,3,3,4,4,5,5,6,6,7,7,8,8,9,9,10,10,11,11,12,12,13,13],"right_children":[2,4,6,8,10,12,14,16,18,20,22,24,26,28,-1,-1,-1,-1,-1,-1,-1,-1,-1,-1,-1,-1,-1,-1,-1],"split_conditions":[-8.748228E-2,-1.4418772E0,1.4630241E0,-1.4847766E0,-1.0190119E0,3.782825E-1,1.9533029E0,-1.6073463E0,-1.4663912E0,-1.2151233E0,-2.345659E-1,2.3732737E-1,4.8859522E-1,1.8000908E0,-8.1798896E-2,2.3126122E-2,4.296524E-2,8.247277E-4,2.7626233E-2,-8.0602854E-2,-5.485558E-2,-1.8092146E-2,-4.366109E-2,-8.681021E-2,-1.0238E-2,-7.456262E-2,-8.970796E-2,-6.264133E-2,-3.8707945E-2],"split_indices":[4,4,4,4,4,4,4,4,4,4,4,4,4,4,0,0,0,0,0,0,0,0,0,0,0,0,0,0,0],"split_type":[0,0,0,0,0,0,0,0,0,0,0,0,0,0,0,0,0,0,0,0,0,0,0,0,0,0,0,0,0],"sum_hessian":[2.723E3,1.649E3,1.074E3,1.41E2,1.508E3,5.98E2,4.76E2,5.1E1,9E1,2.25E2,1.283E3,1.59E2,4.39E2,3.35E2,1.41E2,1.4E1,3.7E1,1.4E1,7.6E1,9.7E1,1.28E2,1.028E3,2.55E2,9.8E1,6.1E1,4.7E1,3.92E2,1.91E2,1.44E2],"tree_param":{"num_deleted":"0","num_feature":"5","num_nodes":"29","size_leaf_vector":"0"}},{"base_weights":[-2.5976318E-1,-4.347252E-2,1.932074E-2],"categories":[],"categories_nodes":[],"categories_segments":[],"categories_sizes":[],"default_left":[0,0,0],"id":6,"left_children":[1,-1,-1],"loss_changes":[5.3441864E1,0E0,0E0],"parents":[2147483647,0,0],"right_children":[2,-1,-1],"split_conditions":[1E0,-4.347252E-2,1.932074E-2],"split_indices":[1,0,0],"split_type":[0,0,0],"sum_hessian":[2.644E3,2.345E3,2.99E2],"tree_param":{"num_deleted":"0","num_feature":"5","num_nodes":"3","size_leaf_vector":"0"}},{"base_weights":[-2.2378038E-1,-3.0520052E-2,-3.738479E-2],"categories":[],"categories_nodes":[],"categories_segments":[],"categories_sizes":[],"default_left":[0,0,0],"id":7,"left_children":[1,-1,-1],"loss_changes":[6.150665E-1,0E0,0E0],"parents":[2147483647,0,0],"right_children":[2,-1,-1],"split_conditions":[1E0,-3.0520052E-2,-3.738479E-2],"split_indices":[2,0,0],"split_type":[0,0,0],"sum_hessian":[2.692E3,2.38E3,3.12E2],"tree_param":{"num_deleted":"0","num_feature":"5","num_nodes":"3","size_leaf_vector":"0"}},{"base_weights":[-2.0933695E-1,-3.4612413E-2,1.5722428E-2],"categories":[],"categories_nodes":[],"categories_segments":[],"categories_sizes":[],"default_left":[0,0,0],"id":8,"left_children":[1,-1,-1],"loss_changes":[3.2790207E1,0E0,0E0],"parents":[2147483647,0,0],"right_children":[2,-1,-1],"split_conditions":[1E0,-3.4612413E-2,1.5722428E-2],"split_indices":[1,0,0],"split_type":[0,0,0],"sum_hessian":[2.687E3,2.404E3,2.83E2],"tree_param":{"num_deleted":"0","num_feature":"5","num_nodes":"3","size_leaf_vector":"0"}},{"base_weights":[-1.625923E-1,-3.8688686E-2,-3.4806985E-1,3.9277494E-1,-7.9574816E-2,-4.0529528E-1,-2.7632183E-1,3.2179746E-1,4.444054E-1,-9.850381E-2,2.938006E-1,-3.0070484E-1,-6.500412E-2,-2.2117826E-1,-3.980013E-1,5.649952E-2,7.89229E-3,7.6957844E-2,5.0542872E-2,-9.087791E-3,-4.6447325E-2,2.147005E-2,4.51005E-2,-5.9067138E-2,-2.580286E-2,-3.8629994E-2,-2.0090403E-2,-5.092938E-2,-6.24413E-2],"categories":[],"categories_nodes":[],"categories_segments":[],"categories_sizes":[],"default_left":[0,0,0,0,0,0,0,0,0,0,0,0,0,0,0,0,0,0,0,0,0,0,0,0,0,0,0,0,0],"id":9,"left_children":[1,3,5,7,9,11,13,15,17,19,21,23,-1,25,27,-1,-1,-1,-1,-1,-1,-1,-1,-1,-1,-1,-1,-1,-1],"loss_changes":[6.2311928E1,2.8732965E1,4.346924E0,3.737011E-1,1.0538493E1,3.5764694E0,3.1662407E0,1.3445926E0,4.951582E-1,1.1073585E1,2.3722649E-1,3.025978E0,0E0,1.3893261E0,8.417511E-2,0E0,0E0,0E0,0E0,0E0,0E0,0E0,0E0,0E0,0E0,0E0,0E0,0E0,0E0],"parents":[2147483647,0,0,1,1,2,2,3,3,4,4,5,5,6,6,7,7,8,8,9,9,10,10,11,11,13,13,14,14],"right_children":[2,4,6,8,10,12,14,16,18,20,22,24,-1,26,28,-1,-1,-1,-1,-1,-1,-1,-1,-1,-1,-1,-1,-1,-1],"split_conditions":[-8.748228E-2,-1.4418772E0,1.4630241E0,-1.4663912E0,-1.4876711E-1,4.8859522E-1,1.8981465E0,-1.4847766E0,-1.4541342E0,-2.345659E-1,-1.4263864E-1,2.3732737E-1,-6.500412E-2,1.8000908E0,2.3822968E0,5.649952E-2,7.89229E-3,7.6957844E-2,5.0542872E-2,-9.087791E-3,-4.6447325E-2,2.147005E-2,4.51005E-2,-5.9067138E-2,-2.580286E-2,-3.8629994E-2,-2.0090403E-2,-5.092938E-2,-6.24413E-2],"split_indices":[4,4,4,4,4,4,4,4,4,4,4,4,0,4,4,0,0,0,0,0,0,0,0,0,0,0,0,0,0],"split_type":[0,0,0,0,0,0,0,0,0,0,0,0,0,0,0,0,0,0,0,0,0,0,0,0,0,0,0,0,0],"sum_hessian":[2.711E3,1.626E3,1.085E3,1.4E2,1.486E3,6.01E2,4.84E2,6.2E1,7.8E1,1.415E3,7.1E1,2.19E2,3.82E2,3.35E2,1.49E2,4.7E1,1.5E1,3.2E1,4.6E1,1.238E3,1.77E2,1.3E1,5.8E1,1.06E2,1.13E2,1.95E2,1.4E2,9.2E1,5.7E1],"tree_param":{"num_deleted":"0","num_feature":"5","num_nodes":"29","size_leaf_vector":"0"}},{"base_weights":[-1.4846893E-1,-3.3046592E-2,-2.8836757E-1,-2.9965264E-3,-9.525473E-2,-1.7268915E-1,-3.1065455E-1,-3.208263E-2,2.6274836E-1,-1.3317016E-1,1.19160965E-1,-2.6794103E-1,2.3524374E-2,-3.0006778E-1,-5.5020805E-2,-2.55998E-3,-4.8274647E-2,5.2980866E-2,2.0168494E-2,-2.3963217E-2,-1.063153E-2,3.2960605E-2,6.5449704E-3,-2.9001184E-2,-5.3797346E-2,-5.1223766E-2,-4.0594418E-2],"categories":[],"categories_nodes":[],"categories_segments":[],"categories_sizes":[],"default_left":[0,0,0,0,0,0,0,0,0,0,0,0,0,0,0,0,0,0,0,0,0,0,0,0,0,0,0],"id":10,"left_children":[1,3,5,7,9,11,13,15,17,19,21,23,-1,25,-1,-1,-1,-1,-1,-1,-1,-1,-1,-1,-1,-1,-1],"loss_changes":[4.2393623E1,2.6915905E0,3.0065842E0,7.5214868E0,3.828681E0,6.34115E0,7.486725E-1,3.77781E0,1.2636156E0,8.5463476E-1,5.8676994E-1,9.952526E-1,0E0,4.8265076E-1,0E0,0E0,0E0,0E0,0E0,0E0,0E0,0E0,0E0,0E0,0E0,0E0,0E0],"parents":[2147483647,0,0,1,1,2,2,3,3,4,4,5,5,6,6,7,7,8,8,9,9,10,10,11,11,13,13],"right_children":[2,4,6,8,10,12,14,16,18,20,22,24,-1,26,-1,-1,-1,-1,-1,-1,-1,-1,-1,-1,-1,-1,-1],"split_conditions":[-9.759127E-2,-3.1563756E-1,4.9910624E-2,-4.2466068E-1,-2.0020129E-1,-1.42206345E-2,2.0764585E0,-4.310738E-1,-3.5411632E-1,-2.6433253E-1,-1.3607003E-1,-3.3460014E-2,2.3524374E-2,3.9621943E-1,-5.5020805E-2,-2.55998E-3,-4.8274647E-2,5.2980866E-2,2.0168494E-2,-2.3963217E-2,-1.063153E-2,3.2960605E-2,6.5449704E-3,-2.9001184E-2,-5.3797346E-2,-5.1223766E-2,-4.0594418E-2],"split_indices":[3,3,3,3,3,3,3,3,3,3,3,3,0,3,0,0,0,0,0,0,0,0,0,0,0,0,0],"split_type":[0,0,0,0,0,0,0,0,0,0,0,0,0,0,0,0,0,0,0,0,0,0,0,0,0,0,0],"sum_hessian":[2.625E3,1.439E3,1.186E3,9.71E2,4.68E2,1.93E2,9.93E2,8.76E2,9.5E1,3.98E2,7E1,1.51E2,4.2E1,8.84E2,1.09E2,8.4E2,3.6E1,4.7E1,4.8E1,2.38E2,1.6E2,2.6E1,4.4E1,1.01E2,5E1,1.13E2,7.71E2],"tree_param":{"num_deleted":"0","num_feature":"5","num_nodes":"27","size_leaf_vector":"0"}},{"base_weights":[-1.3204625E-1,-2.3701513E-2,2.2078602E-2],"categories":[],"categories_nodes":[],"categories_segments":[],"categories_sizes":[],"default_left":[0,0,0],"id":11,"left_children":[1,-1,-1],"loss_changes":[2.8402248E1,0E0,0E0],"parents":[2147483647,0,0],"right_children":[2,-1,-1],"split_conditions":[1E0,-2.3701513E-2,2.2078602E-2],"split_indices":[1,0,0],"split_type":[0,0,0],"sum_hessian":[2.628E3,2.329E3,2.99E2],"tree_param":{"num_deleted":"0","num_feature":"5","num_nodes":"3","size_leaf_vector":"0"}},{"base_weights":[-1.1185575E-1,-1.9275682E-2,1.4087445E-2],"categories":[],"categories_nodes":[],"categories_segments":[],"categories_sizes":[],"default_left":[0,0,0],"id":12,"left_children":[1,-1,-1],"loss_changes":[1.4567699E1,0E0,0E0],"parents":[2147483647,0,0],"right_children":[2,-1,-1],"split_conditions":[1E0,-1.9275682E-2,1.4087445E-2],"split_indices":[1,0,0],"split_type":[0,0,0],"sum_hessian":[2.651E3,2.364E3,2.87E2],"tree_param":{"num_deleted":"0","num_feature":"5","num_nodes":"3","size_leaf_vector":"0"}},{"base_weights":[-1.0186178E-1,-1.3718743E-2,-1.8816998E-2],"categories":[],"categories_nodes":[],"categories_segments":[],"categories_sizes":[],"default_left":[0,0,0],"id":13,"left_children":[1,-1,-1],"loss_changes":[3.289795E-1,0E0,0E0],"parents":[2147483647,0,0],"right_children":[2,-1,-1],"split_conditions":[1E0,-1.3718743E-2,-1.8816998E-2],"split_indices":[2,0,0],"split_type":[0,0,0],"sum_hessian":[2.715E3,2.43E3,2.85E2],"tree_param":{"num_deleted":"0","num_feature":"5","num_nodes":"3","size_leaf_vector":"0"}},{"base_weights":[-8.156024E-2,4.341951E-3,-2.2377661E-1,1.3770062E-1,-1.3735888E-2,-2.8534758E-1,-2.138556E-1,-4.3588795E-2,1.6284114E-1,-4.8372973E-2,1.96161E-3,-3.586579E-2,-4.4961832E-2,1.749456E-2,-2.3058167E-1,3.828237E-2,1.5925335E-2,1.5484664E-2,-2.824427E-3,-4.513298E-2,-3.152955E-2],"categories":[],"categories_nodes":[],"categories_segments":[],"categories_sizes":[],"default_left":[0,0,0,0,0,0,0,0,0,0,0,0,0,0,0,0,0,0,0,0,0],"id":14,"left_children":[1,3,5,7,9,11,13,-1,15,-1,17,-1,-1,-1,19,-1,-1,-1,-1,-1,-1],"loss_changes":[3.2961624E1,4.059329E0,5.59597E-1,2.3198562E0,7.7244377E0,6.1836243E-2,5.01017E0,0E0,1.0059156E0,0E0,3.4100232E0,0E0,0E0,0E0,3.4053802E-1,0E0,0E0,0E0,0E0,0E0,0E0],"parents":[2147483647,0,0,1,1,2,2,3,3,4,4,5,5,6,6,8,8,10,10,14,14],"right_children":[2,4,6,8,10,12,14,-1,16,-1,18,-1,-1,-1,20,-1,-1,-1,-1,-1,-1],"split_conditions":[4.9910624E-2,-1.2263014E0,4.9241632E-1,-1.5533708E0,-1.1429307E0,3.898063E-1,4.9882942E-1,-4.3588795E-2,-1.5277183E0,-4.8372973E-2,-7.004251E-1,-3.586579E-2,-4.4961832E-2,1.749456E-2,6.2067884E-1,3.828237E-2,1.5925335E-2,1.5484664E-2,-2.824427E-3,-4.513298E-2,-3.152955E-2],"split_indices":[3,3,3,3,3,3,3,0,3,0,3,0,0,0,3,0,0,0,0,0,0],"split_type":[0,0,0,0,0,0,0,0,0,0,0,0,0,0,0,0,0,0,0,0,0],"sum_hessian":[2.697E3,1.682E3,1.015E3,2E2,1.482E3,1.37E2,8.78E2,1E1,1.9E2,6.6E1,1.416E3,8E1,5.7E1,4.1E1,8.37E2,5.7E1,1.33E2,2.39E2,1.177E3,4.3E1,7.94E2],"tree_param":{"num_deleted":"0","num_feature":"5","num_nodes":"21","size_leaf_vector":"0"}},{"base_weights":[-7.5522855E-2,-1.414634E-2,2.2110375E-2],"categories":[],"categories_nodes":[],"categories_segments":[],"categories_sizes":[],"default_left":[0,0,0],"id":15,"left_children":[1,-1,-1],"loss_changes":[1.6014038E1,0E0,0E0],"parents":[2147483647,0,0],"right_children":[2,-1,-1],"split_conditions":[1E0,-1.414634E-2,2.2110375E-2],"split_indices":[0,0,0],"split_type":[0,0,0],"sum_hessian":[2.684E3,2.42E3,2.64E2],"tree_param":{"num_deleted":"0","num_feature":"5","num_nodes":"3","size_leaf_vector":"0"}},{"base_weights":[-6.1215706E-2,-8.497252E-3,-9.11992E-3],"categories":[],"categories_nodes":[],"categories_segments":[],"categories_sizes":[],"default_left":[0,0,0],"id":16,"left_children":[1,-1,-1],"loss_changes":[1.6469955E-3,0E0,0E0],"parents":[2147483647,0,0],"right_children":[2,-1,-1],"split_conditions":[1E0,-8.497252E-3,-9.11992E-3],"split_indices":[2,0,0],"split_type":[0,0,0],"sum_hessian":[2.736E3,2.43E3,3.06E2],"tree_param":{"num_deleted":"0","num_feature":"5","num_nodes":"3","size_leaf_vector":"0"}},{"base_weights":[-5.4485973E-2,-1.1414405E-2,3.3330835E-2],"categories":[],"categories_nodes":[],"categories_segments":[],"categories_sizes":[],"default_left":[0,0,0],"id":17,"left_children":[1,-1,-1],"loss_changes":[2.15019E1,0E0,0E0],"parents":[2147483647,0,0],"right_children":[2,-1,-1],"split_conditions":[1E0,-1.1414405E-2,3.3330835E-2],"split_indices":[0,0,0],"split_type":[0,0,0],"sum_hessian":[2.714E3,2.485E3,2.29E2],"tree_param":{"num_deleted":"0","num_feature":"5","num_nodes":"3","size_leaf_vector":"0"}},{"base_weights":[-4.5852594E-2,3.8010154E-2,-1.4263763E-1,1.7432702E-1,1.8568227E-2,-8.4919356E-2,-1.7108001E-1,9.759595E-2,4.6970006E-2,-1.609734E-1,4.8530336E-2,-1.1528704E-1,1.5788773E-1,-1.6408509E-1,-3.2686718E-2,2.95205E-2,-8.2503185E-3,-3.5423923E-2,-1.4322003E-2,3.496388E-2,1.1464187E-3,-9.528831E-3,-2.8912831E-2,2.9249482E-2,-6.5433923E-3,-2.4613742E-2,-1.4100633E-2],"categories":[],"categories_nodes":[],"categories_segments":[],"categories_sizes":[],"default_left":[0,0,0,0,0,0,0,0,0,0,0,0,0,0,0,0,0,0,0,0,0,0,0,0,0,0,0],"id":18,"left_children":[1,3,5,7,9,11,13,15,-1,17,19,21,23,25,-1,-1,-1,-1,-1,-1,-1,-1,-1,-1,-1,-1,-1],"loss_changes":[2.1611965E1,3.7786877E0,2.0145473E0,2.1685786E0,6.7321196E0,3.041333E0,3.2263947E-1,2.1753607E0,0E0,9.409218E-1,8.6996E0,1.558507E0,4.9016762E-1,5.374012E-1,0E0,0E0,0E0,0E0,0E0,0E0,0E0,0E0,0E0,0E0,0E0,0E0,0E0],"parents":[2147483647,0,0,1,1,2,2,3,3,4,4,5,5,6,6,7,7,9,9,10,10,11,11,12,12,13,13],"right_children":[2,4,6,8,10,12,14,16,-1,18,20,22,24,26,-1,-1,-1,-1,-1,-1,-1,-1,-1,-1,-1,-1,-1],"split_conditions":[-1.040044E-1,-1.354564E0,5.8220005E-1,-1.3866296E0,-9.633633E-1,3.9621943E-1,2.5061378E0,-1.5277183E0,4.6970006E-2,-1.1429307E0,-5.7216257E-1,4.9910624E-2,4.9882942E-1,2.057219E0,-3.2686718E-2,2.95205E-2,-8.2503185E-3,-3.5423923E-2,-1.4322003E-2,3.496388E-2,1.1464187E-3,-9.528831E-3,-2.8912831E-2,2.9249482E-2,-6.5433923E-3,-2.4613742E-2,-1.4100633E-2],"split_indices":[3,3,3,3,3,3,3,3,0,3,3,3,3,3,0,0,0,0,0,0,0,0,0,0,0,0,0],"split_type":[0,0,0,0,0,0,0,0,0,0,0,0,0,0,0,0,0,0,0,0,0,0,0,0,0,0,0],"sum_hessian":[2.661E3,1.426E3,1.235E3,1.77E2,1.249E3,4.09E2,8.26E2,1.21E2,5.6E1,1.78E2,1.071E3,3.64E2,4.5E1,7.46E2,8E1,7E1,5.1E1,6.8E1,1.1E2,1.78E2,8.93E2,2.41E2,1.23E2,3.6E1,9E0,6.28E2,1.18E2],"tree_param":{"num_deleted":"0","num_feature":"5","num_nodes":"27","size_leaf_vector":"0"}},{"base_weights":[-4.8818424E-2,-8.745622E-3,1.030518E-2],"categories":[],"categories_nodes":[],"categories_segments":[],"categories_sizes":[],"default_left":[0,0,0],"id":19,"left_children":[1,-1,-1],"loss_changes":[4.4950156E0,0E0,0E0],"parents":[2147483647,0,0],"right_children":[2,-1,-1],"split_conditions":[1E0,-8.745622E-3,1.030518E-2],"split_indices":[1,0,0],"split_type":[0,0,0],"sum_hessian":[2.686E3,2.417E3,2.69E2],"tree_param":{"num_deleted":"0","num_feature":"5","num_nodes":"3","size_leaf_vector":"0"}},{"base_weights":[-2.8469093E-2,5.2550852E-2,-1.21625684E-1,8.052027E-2,-1.1380655E-2,-6.492848E-2,-1.3557892E-1,-1.0127916E-2,1.4544244E-1,-4.2110916E-2,1.2420063E-1,-1.4397195E-1,3.1039216E-2,-2.2234488E-1,-1.2415104E-1,1.4478145E-2,-1.571791E-2,5.680249E-2,1.8274793E-2,-1.2462707E-2,-2.0337445E-3,2.8872136E-2,7.5592455E-3,-1.5150164E-2,-2.8314577E-2,-2.680209E-2,-3.6817197E-2,1.3993419E-2,-1.9000031E-2],"categories":[],"categories_nodes":[],"categories_segments":[],"categories_sizes":[],"default_left":[0,0,0,0,0,0,0,0,0,0,0,0,0,0,0,0,0,0,0,0,0,0,0,0,0,0,0,0,0],"id":20,"left_children":[1,3,5,7,9,11,13,15,17,19,21,23,-1,25,27,-1,-1,-1,-1,-1,-1,-1,-1,-1,-1,-1,-1,-1,-1],"loss_changes":[2.0218708E1,2.563303E0,9.769192E-1,5.868894E0,1.8259679E0,5.650806E0,9.629555E-1,4.8478236E0,2.20158E0,4.6063977E-1,4.553374E-1,3.8443708E-1,0E0,9.405756E-2,2.3069687E0,0E0,0E0,0E0,0E0,0E0,0E0,0E0,0E0,0E0,0E0,0E0,0E0,0E0,0E0],"parents":[2147483647,0,0,1,1,2,2,3,3,4,4,5,5,6,6,7,7,8,8,9,9,10,10,11,11,13,13,14,14],"right_children":[2,4,6,8,10,12,14,16,18,20,22,24,-1,26,28,-1,-1,-1,-1,-1,-1,-1,-1,-1,-1,-1,-1,-1,-1],"split_conditions":[-1.040044E-1,-3.1563756E-1,4.9910624E-2,-9.50537E-1,-2.0020129E-1,-1.42206345E-2,4.9241632E-1,-1.2263014E0,-8.9281887E-1,-3.0922443E-1,-1.3607003E-1,-3.3460014E-2,3.1039216E-2,3.898063E-1,4.9882942E-1,1.4478145E-2,-1.571791E-2,5.680249E-2,1.8274793E-2,-1.2462707E-2,-2.0337445E-3,2.8872136E-2,7.5592455E-3,-1.5150164E-2,-2.8314577E-2,-2.680209E-2,-3.6817197E-2,1.3993419E-2,-1.9000031E-2],"split_indices":[3,3,3,3,3,3,3,3,3,3,3,3,0,3,3,0,0,0,0,0,0,0,0,0,0,0,0,0,0],"split_type":[0,0,0,0,0,0,0,0,0,0,0,0,0,0,0,0,0,0,0,0,0,0,0,0,0,0,0,0,0],"sum_hessian":[2.677E3,1.432E3,1.245E3,9.96E2,4.36E2,2.47E2,9.98E2,4.16E2,5.8E2,3.56E2,8E1,1.94E2,5.3E1,1.14E2,8.84E2,1.97E2,2.19E2,3E1,5.5E2,1.31E2,2.25E2,3.6E1,4.4E1,1.22E2,7.2E1,6.8E1,4.6E1,4.3E1,8.41E2],"tree_param":{"num_deleted":"0","num_feature":"5","num_nodes":"29","size_leaf_vector":"0"}},{"base_weights":[-2.480137E-2,-3.3542172E-3,-4.441584E-3],"categories":[],"categories_nodes":[],"categories_segments":[],"categories_sizes":[],"default_left":[0,0,0],"id":21,"left_children":[1,-1,-1],"loss_changes":[1.5163302E-2,0E0,0E0],"parents":[2147483647,0,0],"right_children":[2,-1,-1],"split_conditions":[1E0,-3.3542172E-3,-4.441584E-3],"split_indices":[2,0,0],"split_type":[0,0,0],"sum_hessian":[2.728E3,2.436E3,2.92E2],"tree_param":{"num_deleted":"0","num_feature":"5","num_nodes":"3","size_leaf_vector":"0"}},{"base_weights":[-3.2027226E-2,-7.074139E-3,1.837396E-2],"categories":[],"categories_nodes":[],"categories_segments":[],"categories_sizes":[],"default_left":[0,0,0],"id":22,"left_children":[1,-1,-1],"loss_changes":[7.981737E0,0E0,0E0],"parents":[2147483647,0,0],"right_children":[2,-1,-1],"split_conditions":[1E0,-7.074139E-3,1.837396E-2],"split_indices":[1,0,0],"split_type":[0,0,0],"sum_hessian":[2.639E3,2.371E3,2.68E2],"tree_param":{"num_deleted":"0","num_feature":"5","num_nodes":"3","size_leaf_vector":"0"}},{"base_weights":[-1.718086E-2,3.2839656E-2,-1.0283443E-1,2.5738442E-2,2.589007E-1,-1.18166395E-1,-8.453939E-2,3.9992195E-2,-9.622173E-2,2.4267457E-2,3.852036E-2,-9.298158E-2,-1.4328642E-1,2.0277333E-2,-9.208124E-2,1.1187908E-2,1.7844817E-3,-8.830351E-3,-2.2366792E-2,-1.9126866E-2,-7.8046815E-3,-2.471354E-2,-1.5463617E-2,-3.0753579E-2,-1.21100405E-2],"categories":[],"categories_nodes":[],"categories_segments":[],"categories_sizes":[],"default_left":[0,0,0,0,0,0,0,0,0,0,0,0,0,0,0,0,0,0,0,0,0,0,0,0,0],"id":23,"left_children":[1,3,5,7,9,11,13,15,17,-1,-1,19,21,-1,23,-1,-1,-1,-1,-1,-1,-1,-1,-1,-1],"loss_changes":[1.1609914E1,2.740018E0,2.702284E-1,2.8895762E0,2.4582624E-2,3.2893705E-1,8.0737495E-1,1.6163843E0,3.5641015E-1,0E0,0E0,4.359665E-1,2.7406168E-1,0E0,2.978649E-1,0E0,0E0,0E0,0E0,0E0,0E0,0E0,0E0,0E0,0E0],"parents":[2147483647,0,0,1,1,2,2,3,3,4,4,5,5,6,6,7,7,8,8,11,11,12,12,14,14],"right_children":[2,4,6,8,10,12,14,16,18,-1,-1,20,22,-1,24,-1,-1,-1,-1,-1,-1,-1,-1,-1,-1],"split_conditions":[4.9910624E-2,-1.42206345E-2,1.0567714E0,-9.759127E-2,-7.807509E-3,7.7459383E-1,1.140142E0,-5.7216257E-1,-3.3460014E-2,2.4267457E-2,3.852036E-2,3.9621943E-1,9.5416135E-1,2.0277333E-2,1.2106864E0,1.1187908E-2,1.7844817E-3,-8.830351E-3,-2.2366792E-2,-1.9126866E-2,-7.8046815E-3,-2.471354E-2,-1.5463617E-2,-3.0753579E-2,-1.21100405E-2],"split_indices":[3,3,3,3,3,3,3,3,3,0,0,3,3,0,3,0,0,0,0,0,0,0,0,0,0],"split_type":[0,0,0,0,0,0,0,0,0,0,0,0,0,0,0,0,0,0,0,0,0,0,0,0,0],"sum_hessian":[2.708E3,1.71E3,9.98E2,1.659E3,5.1E1,5.4E2,4.58E2,1.486E3,1.73E2,1E1,4.1E1,2.72E2,2.68E2,1.4E1,4.44E2,6.02E2,8.84E2,1.15E2,5.8E1,1.24E2,1.48E2,1.31E2,1.37E2,1.7E1,4.27E2],"tree_param":{"num_deleted":"0","num_feature":"5","num_nodes":"25","size_leaf_vector":"0"}},{"base_weights":[-2.051376E-2,-2.504533E-3,-5.7049454E-3],"categories":[],"categories_nodes":[],"categories_segments":[],"categories_sizes":[],"default_left":[0,0,0],"id":24,"left_children":[1,-1,-1],"loss_changes":[1.4026129E-1,0E0,0E0],"parents":[2147483647,0,0],"right_children":[2,-1,-1],"split_conditions":[1E0,-2.504533E-3,-5.7049454E-3],"split_indices":[2,0,0],"split_type":[0,0,0],"sum_hessian":[2.654E3,2.351E3,3.03E2],"tree_param":{"num_deleted":"0","num_feature":"5","num_nodes":"3","size_leaf_vector":"0"}},{"base_weights":[-5.664172E-3,5.1263206E-2,-7.57312E-2,2.1666662E-1,4.290987E-2,-3.7651673E-2,-1.0404313E-1,2.6768418E-2,5.4662187E-2,-3.8791474E-2,4.794E-2,-1.0506164E-1,2.0805006E-3,-1.4373249E-1,-8.088001E-2,-1.49579225E-2,1.4157315E-2,2.1832084E-2,5.4600583E-3,-1.0024836E-2,-2.322752E-2,2.590287E-2,-5.021844E-3,-2.1984605E-2,-1.690125E-2,-8.889524E-3,-1.9152248E-2],"categories":[],"categories_nodes":[],"categories_segments":[],"categories_sizes":[],"default_left":[0,0,0,0,0,0,0,0,0,0,0,0,0,0,0,0,0,0,0,0,0,0,0,0,0,0,0],"id":25,"left_children":[1,3,5,7,9,11,13,15,-1,-1,17,19,21,23,25,-1,-1,-1,-1,-1,-1,-1,-1,-1,-1,-1,-1],"loss_changes":[1.0713629E1,2.0383372E0,1.2941213E0,2.332552E0,2.286039E0,1.379566E0,6.2271214E-1,3.5851738E-1,0E0,0E0,1.3369367E0,3.7694836E-1,2.2630215E0,5.846882E-2,4.1709805E-1,0E0,0E0,0E0,0E0,0E0,0E0,0E0,0E0,0E0,0E0,0E0,0E0],"parents":[2147483647,0,0,1,1,2,2,3,3,4,4,5,5,6,6,7,7,10,10,11,11,12,12,13,13,14,14],"right_children":[2,4,6,8,10,12,14,16,-1,-1,18,20,22,24,26,-1,-1,-1,-1,-1,-1,-1,-1,-1,-1,-1,-1],"split_conditions":[-1.040044E-1,-1.5277183E0,7.7459383E-1,-1.5405446E0,-1.463587E0,-1.42206345E-2,1.0567714E0,-1.5533708E0,5.4662187E-2,-3.8791474E-2,-1.354564E0,-3.3460014E-2,4.9910624E-2,1.0311189E0,2.0764585E0,-1.49579225E-2,1.4157315E-2,2.1832084E-2,5.4600583E-3,-1.0024836E-2,-2.322752E-2,2.590287E-2,-5.021844E-3,-2.1984605E-2,-1.690125E-2,-8.889524E-3,-1.9152248E-2],"split_indices":[3,3,3,3,3,3,3,3,0,0,3,3,3,3,3,0,0,0,0,0,0,0,0,0,0,0,0],"split_type":[0,0,0,0,0,0,0,0,0,0,0,0,0,0,0,0,0,0,0,0,0,0,0,0,0,0,0],"sum_hessian":[2.684E3,1.481E3,1.203E3,7E1,1.411E3,5.14E2,6.89E2,3.4E1,3.6E1,2.1E1,1.39E3,1.9E2,3.24E2,2.52E2,4.37E2,1.2E1,2.2E1,1.05E2,1.285E3,1.24E2,6.6E1,5.5E1,2.69E2,1.56E2,9.6E1,3.35E2,1.02E2],"tree_param":{"num_deleted":"0","num_feature":"5","num_nodes":"27","size_leaf_vector":"0"}},{"base_weights":[-1.2662858E-2,-5.256718E-3,3.0075703E-2],"categories":[],"categories_nodes":[],"categories_segments":[],"categories_sizes":[],"default_left":[0,0,0],"id":26,"left_children":[1,-1,-1],"loss_changes":[1.5615721E1,0E0,0E0],"parents":[2147483647,0,0],"right_children":[2,-1,-1],"split_conditions":[1E0,-5.256718E-3,3.0075703E-2],"split_indices":[0,0,0],"split_type":[0,0,0],"sum_hessian":[2.756E3,2.485E3,2.71E2],"tree_param":{"num_deleted":"0","num_feature":"5","num_nodes":"3","size_leaf_vector":"0"}},{"base_weights":[-1.7160552E-2,1.9160251E-1,-2.8841432E-2,1.0498682E-1,1.7452633E-1,-1.2503019E-1,-8.228919E-3,1.5621392E-1,5.0385017E-2,-2.3483388E-1,-8.82783E-2,6.3349105E-2,-7.6715834E-2,2.721742E-2,5.1648123E-3,-8.26234E-3,-3.7712652E-2,2.4643756E-4,-1.2894483E-2,6.5705236E-3,4.28267E-2,-1.6612394E-2,-3.1466559E-3],"categories":[],"categories_nodes":[],"categories_segments":[],"categories_sizes":[],"default_left":[0,0,0,0,0,0,0,0,0,0,0,0,0,0,0,0,0,0,0,0,0,0,0],"id":27,"left_children":[1,3,5,-1,7,9,11,13,-1,15,17,19,21,-1,-1,-1,-1,-1,-1,-1,-1,-1,-1],"loss_changes":[6.6724854E0,1.2515054E0,5.1341443E0,0E0,4.2580032E-1,1.8234892E0,1.0466065E1,5.8988214E-1,0E0,6.764369E-1,1.1863971E-1,4.142841E0,2.4793987E0,0E0,0E0,0E0,0E0,0E0,0E0,0E0,0E0,0E0,0E0],"parents":[2147483647,0,0,1,1,2,2,4,4,5,5,6,6,7,7,9,9,10,10,11,11,12,12],"right_children":[2,4,6,-1,8,10,12,14,-1,16,18,20,22,-1,-1,-1,-1,-1,-1,-1,-1,-1,-1],"split_conditions":[-1.4418772E0,-1.6134747E0,-6.513028E-1,1.0498682E-1,-1.4480057E0,-1.2151233E0,-8.748228E-2,-1.4541342E0,5.0385017E-2,-1.2947936E0,-1.2028663E0,-1.4876711E-1,1.4630241E0,2.721742E-2,5.1648123E-3,-8.26234E-3,-3.7712652E-2,2.4643756E-4,-1.2894483E-2,6.5705236E-3,4.28267E-2,-1.6612394E-2,-3.1466559E-3],"split_indices":[4,4,4,0,4,4,4,4,0,4,4,4,4,0,0,0,0,0,0,0,0,0,0],"split_type":[0,0,0,0,0,0,0,0,0,0,0,0,0,0,0,0,0,0,0,0,0,0,0],"sum_hessian":[2.733E3,1.44E2,2.589E3,3E0,1.41E2,4.56E2,2.133E3,1.3E2,1.1E1,1.13E2,3.43E2,1.043E3,1.09E3,9.8E1,3.2E1,1.9E1,9.4E1,1.4E1,3.29E2,9.78E2,6.5E1,6.14E2,4.76E2],"tree_param":{"num_deleted":"0","num_feature":"5","num_nodes":"23","size_leaf_vector":"0"}},{"base_weights":[-7.270563E-3,-1.1628754E-3,1.6953556E-4],"categories":[],"categories_nodes":[],"categories_segments":[],"categories_sizes":[],"default_left":[0,0,0],"id":28,"left_children":[1,-1,-1],"loss_changes":[2.3832917E-2,0E0,0E0],"parents":[2147483647,0,0],"right_children":[2,-1,-1],"split_conditions":[1E0,-1.1628754E-3,1.6953556E-4],"split_indices":[2,0,0],"split_type":[0,0,0],"sum_hessian":[2.711E3,2.416E3,2.95E2],"tree_param":{"num_deleted":"0","num_feature":"5","num_nodes":"3","size_leaf_vector":"0"}},{"base_weights":[-6.8750507E-3,-7.7059545E-4,-2.522937E-3],"categories":[],"categories_nodes":[],"categories_segments":[],"categories_sizes":[],"default_left":[0,0,0],"id":29,"left_children":[1,-1,-1],"loss_changes":[4.0420204E-2,0E0,0E0],"parents":[2147483647,0,0],"right_children":[2,-1,-1],"split_conditions":[1E0,-7.7059545E-4,-2.522937E-3],"split_indices":[2,0,0],"split_type":[0,0,0],"sum_hessian":[2.651E3,2.362E3,2.89E2],"tree_param":{"num_deleted":"0","num_feature":"5","num_nodes":"3","size_leaf_vector":"0"}},{"base_weights":[-1.4519182E-2,-4.631673E-3,2.083823E-2],"categories":[],"categories_nodes":[],"categories_segments":[],"categories_sizes":[],"default_left":[0,0,0],"id":30,"left_children":[1,-1,-1],"loss_changes":[8.053751E0,0E0,0E0],"parents":[2147483647,0,0],"right_children":[2,-1,-1],"split_conditions":[1E0,-4.631673E-3,2.083823E-2],"split_indices":[0,0,0],"split_type":[0,0,0],"sum_hessian":[2.653E3,2.383E3,2.7E2],"tree_param":{"num_deleted":"0","num_feature":"5","num_nodes":"3","size_leaf_vector":"0"}},{"base_weights":[-8.378017E-3,3.8118612E-2,-6.0777016E-2,3.2584593E-2,4.2314474E-2,-3.3756196E-2,-7.3366284E-2,-5.8586534E-2,4.1238505E-2,-5.522864E-2,2.1225158E-2,-1.8686323E-1,-6.787878E-2,-5.902622E-3,-4.480777E-2,3.185723E-2,4.272511E-3,-1.43676195E-2,-2.0095534E-3,-1.0896246E-2,-3.2541554E-2,1.5511991E-2,-1.0083806E-2],"categories":[],"categories_nodes":[],"categories_segments":[],"categories_sizes":[],"default_left":[0,0,0,0,0,0,0,0,0,0,0,0,0,0,0,0,0,0,0,0,0,0,0],"id":31,"left_children":[1,3,5,7,-1,9,11,13,15,17,-1,19,21,-1,-1,-1,-1,-1,-1,-1,-1,-1,-1],"loss_changes":[6.5244966E0,2.064286E0,4.2580032E-1,1.0998968E0,0E0,1.6084247E0,5.2169037E-1,5.061543E-1,2.531729E0,6.979089E-1,0E0,1.7571318E-1,6.157901E-1,0E0,0E0,0E0,0E0,0E0,0E0,0E0,0E0,0E0,0E0],"parents":[2147483647,0,0,1,1,2,2,3,3,5,5,6,6,7,7,8,8,9,9,11,11,12,12],"right_children":[2,4,6,8,-1,10,12,14,16,18,-1,20,22,-1,-1,-1,-1,-1,-1,-1,-1,-1,-1],"split_conditions":[-1.040044E-1,-1.2324377E-1,4.9882942E-1,-1.3866296E0,4.2314474E-2,3.9621943E-1,6.2067884E-1,-1.3930427E0,-1.354564E0,-1.42206345E-2,2.1225158E-2,5.8220005E-1,6.527445E-1,-5.902622E-3,-4.480777E-2,3.185723E-2,4.272511E-3,-1.43676195E-2,-2.0095534E-3,-1.0896246E-2,-3.2541554E-2,1.5511991E-2,-1.0083806E-2],"split_indices":[3,3,3,3,0,3,3,3,3,3,0,3,3,0,0,0,0,0,0,0,0,0,0],"split_type":[0,0,0,0,0,0,0,0,0,0,0,0,0,0,0,0,0,0,0,0,0,0,0],"sum_hessian":[2.676E3,1.418E3,1.258E3,1.39E3,2.8E1,4.01E2,8.57E2,1.2E2,1.27E3,3.6E2,4.1E1,3.8E1,8.19E2,1.14E2,6E0,6.8E1,1.202E3,1.66E2,1.94E2,1.2E1,2.6E1,1.8E1,8.01E2],"tree_param":{"num_deleted":"0","num_feature":"5","num_nodes":"23","size_leaf_vector":"0"}},{"base_weights":[-1.2930013E-2,-1.8474802E-3,-1.5015232E-3],"categories":[],"categories_nodes":[],"categories_segments":[],"categories_sizes":[],"default_left":[0,0,0],"id":32,"left_children":[1,-1,-1],"loss_changes":[1.4529824E-3,0E0,0E0],"parents":[2147483647,0,0],"right_children":[2,-1,-1],"split_conditions":[1E0,-1.8474802E-3,-1.5015232E-3],"split_indices":[2,0,0],"split_type":[0,0,0],"sum_hessian":[2.715E3,2.418E3,2.97E2],"tree_param":{"num_deleted":"0","num_feature":"5","num_nodes":"3","size_leaf_vector":"0"}},{"base_weights":[5.6808502E-3,-1.8833427E-3,2.696802E-2],"categories":[],"categories_nodes":[],"categories_segments":[],"categories_sizes":[],"default_left":[0,0,0],"id":33,"left_children":[1,-1,-1],"loss_changes":[9.631684E0,0E0,0E0],"parents":[2147483647,0,0],"right_children":[2,-1,-1],"split_conditions":[1E0,-1.8833427E-3,2.696802E-2],"split_indices":[0,0,0],"split_type":[0,0,0],"sum_hessian":[2.691E3,2.442E3,2.49E2],"tree_param":{"num_deleted":"0","num_feature":"5","num_nodes":"3","size_leaf_vector":"0"}},{"base_weights":[-1.1904851E-2,-1.9111326E-3,3.499113E-4],"categories":[],"categories_nodes":[],"categories_segments":[],"categories_sizes":[],"default_left":[0,0,0],"id":34,"left_children":[1,-1,-1],"loss_changes":[6.869674E-2,0E0,0E0],"parents":[2147483647,0,0],"right_children":[2,-1,-1],"split_conditions":[1E0,-1.9111326E-3,3.499113E-4],"split_indices":[2,0,0],"split_type":[0,0,0],"sum_hessian":[2.729E3,2.434E3,2.95E2],"tree_param":{"num_deleted":"0","num_feature":"5","num_nodes":"3","size_leaf_vector":"0"}},{"base_weights":[1.2649266E-3,1.8519326E-1,-9.093675E-3,-3.7431376E-4,2.0869751E-1,-9.2856236E-2,1.3483081E-2,1.8364502E-1,4.586413E-2,-7.4063905E-2,-5.4688446E-2,1.11318946E-1,-3.500938E-2,2.9670846E-2,1.4423863E-2,-3.01736E-2,-6.3559045E-3,1.0802836E-2,9.923202E-2,1.2172998E-3,-7.652709E-3],"categories":[],"categories_nodes":[],"categories_segments":[],"categories_sizes":[],"default_left":[0,0,0,0,0,0,0,0,0,0,0,0,0,0,0,0,0,0,0,0,0],"id":35,"left_children":[1,3,5,-1,7,9,11,13,-1,15,-1,17,19,-1,-1,-1,-1,-1,-1,-1,-1],"loss_changes":[5.145833E0,6.36415E-1,4.8367615E0,0E0,3.211274E-1,3.0096393E0,9.563665E0,2.2447324E-1,0E0,2.066347E0,0E0,1.3577496E1,1.1582922E0,0E0,0E0,0E0,0E0,0E0,0E0,0E0,0E0],"parents":[2147483647,0,0,1,1,2,2,4,4,5,5,6,6,7,7,9,9,11,11,12,12],"right_children":[2,4,6,-1,8,10,12,14,-1,16,-1,18,20,-1,-1,-1,-1,-1,-1,-1,-1],"split_conditions":[-1.4418772E0,-1.6073463E0,-5.5324703E-1,-3.7431376E-4,-1.4480057E0,-5.593755E-1,-2.345659E-1,-1.4541342E0,4.586413E-2,-1.2151233E0,-5.4688446E-2,-2.5295135E-1,3.782825E-1,2.9670846E-2,1.4423863E-2,-3.01736E-2,-6.3559045E-3,1.0802836E-2,9.923202E-2,1.2172998E-3,-7.652709E-3],"split_indices":[4,4,4,0,4,4,4,4,0,4,0,4,4,0,0,0,0,0,0,0,0],"split_type":[0,0,0,0,0,0,0,0,0,0,0,0,0,0,0,0,0,0,0,0,0],"sum_hessian":[2.699E3,1.43E2,2.556E3,1.6E1,1.27E2,5.42E2,2.014E3,1.07E2,2E1,5.11E2,3.1E1,6.67E2,1.347E3,7.8E1,2.9E1,8.5E1,4.26E2,6.32E2,3.5E1,4.18E2,9.29E2],"tree_param":{"num_deleted":"0","num_feature":"5","num_nodes":"21","size_leaf_vector":"0"}},{"base_weights":[1.3505502E-4,5.7506524E-2,-3.548806E-2,3.585392E-2,2.6011023E-1,-4.085287E-2,-2.031313E-2,4.7623318E-2,-3.2753136E-2,7.191186E-2,2.1230671E-1,-3.0194048E-2,-7.882412E-2,5.9431504E-2,-3.5291456E-2,4.0160175E-3,1.7806925E-2,2.3653498E-2,3.9532498E-2,-4.4244113E-3,2.7707784E-2,-1.0383589E-2,-1.7498527E-2,1.3975567E-2,3.8710332E-3,-2.9053422E-2,-3.4630415E-3],"categories":[],"categories_nodes":[],"categories_segments":[],"categories_sizes":[],"default_left":[0,0,0,0,0,0,0,0,0,0,0,0,0,0,0,0,0,0,0,0,0,0,0,0,0,0,0],"id":36,"left_children":[1,3,5,7,9,11,13,15,-1,-1,17,19,21,23,25,-1,-1,-1,-1,-1,-1,-1,-1,-1,-1,-1,-1],"loss_changes":[5.4792924E0,4.4960184E0,1.338234E-1,2.9611266E0,1.0908651E0,4.9179387E-1,5.204848E-1,1.3389425E0,0E0,0E0,2.1049452E-1,3.1317025E-1,4.811573E-2,8.5820034E-2,6.6025305E-1,0E0,0E0,0E0,0E0,0E0,0E0,0E0,0E0,0E0,0E0,0E0,0E0],"parents":[2147483647,0,0,1,1,2,2,3,3,4,4,5,5,6,6,7,7,10,10,11,11,12,12,13,13,14,14],"right_children":[2,4,6,8,10,12,14,16,-1,-1,18,20,22,24,26,-1,-1,-1,-1,-1,-1,-1,-1,-1,-1,-1,-1],"split_conditions":[-3.1563756E-1,-4.2466068E-1,1.2106864E0,-4.310738E-1,-4.0542132E-1,7.7459383E-1,1.4800377E0,-5.593363E-1,-3.2753136E-2,7.191186E-2,-3.220507E-1,7.425282E-1,1.1593814E0,1.2235126E0,1.6724315E0,4.0160175E-3,1.7806925E-2,2.3653498E-2,3.9532498E-2,-4.4244113E-3,2.7707784E-2,-1.0383589E-2,-1.7498527E-2,1.3975567E-2,3.8710332E-3,-2.9053422E-2,-3.4630415E-3],"split_indices":[3,3,3,3,3,3,3,3,0,0,3,3,3,3,3,0,0,0,0,0,0,0,0,0,0,0,0],"split_type":[0,0,0,0,0,0,0,0,0,0,0,0,0,0,0,0,0,0,0,0,0,0,0,0,0,0,0],"sum_hessian":[2.679E3,1.026E3,1.653E3,9.28E2,9.8E1,1.22E3,4.33E2,8.9E2,3.8E1,1.4E1,8.4E1,9.54E2,2.66E2,6.8E1,3.65E2,7.2E2,1.7E2,5.4E1,3E1,9.49E2,5E0,2.44E2,2.2E1,2.9E1,3.9E1,2E1,3.45E2],"tree_param":{"num_deleted":"0","num_feature":"5","num_nodes":"27","size_leaf_vector":"0"}},{"base_weights":[-4.1052475E-4,-2.2215454E-3,2.1583477E-2],"categories":[],"categories_nodes":[],"categories_segments":[],"categories_sizes":[],"default_left":[0,0,0],"id":37,"left_children":[1,-1,-1],"loss_changes":[6.492103E0,0E0,0E0],"parents":[2147483647,0,0],"right_children":[2,-1,-1],"split_conditions":[1E0,-2.2215454E-3,2.1583477E-2],"split_indices":[0,0,0],"split_type":[0,0,0],"sum_hessian":[2.715E3,2.469E3,2.46E2],"tree_param":{"num_deleted":"0","num_feature":"5","num_nodes":"3","size_leaf_vector":"0"}},{"base_weights":[7.6532164E-3,6.7521326E-2,-2.781282E-2,5.101311E-2,2.3166987E-1,-7.434223E-3,-4.190082E-2,7.847891E-2,-7.442376E-2,6.0247846E-2,1.6106512E-1,-2.1568896E-2,1.3201128E-1,-9.600326E-2,-3.3645023E-2,8.4199365E-3,5.9395827E-2,-2.9801281E-2,3.56375E-3,7.659341E-3,4.630724E-2,-1.740961E-3,-1.4120994E-2,7.7460194E-3,2.085571E-2,-8.457135E-3,-2.3680339E-2,2.8970698E-2,-6.136943E-3],"categories":[],"categories_nodes":[],"categories_segments":[],"categories_sizes":[],"default_left":[0,0,0,0,0,0,0,0,0,0,0,0,0,0,0,0,0,0,0,0,0,0,0,0,0,0,0,0,0],"id":38,"left_children":[1,3,5,7,9,11,13,15,17,-1,19,21,23,25,27,-1,-1,-1,-1,-1,-1,-1,-1,-1,-1,-1,-1,-1,-1],"loss_changes":[5.6391983E0,2.6654644E0,4.785608E-1,3.1030967E0,1.1931329E0,1.3490516E0,4.371754E-1,4.653657E0,2.2454765E0,0E0,1.2092106E0,4.484994E-1,7.368219E-2,3.282373E-1,2.1100616E0,0E0,0E0,0E0,0E0,0E0,0E0,0E0,0E0,0E0,0E0,0E0,0E0,0E0,0E0],"parents":[2147483647,0,0,1,1,2,2,3,3,4,4,5,5,6,6,7,7,8,8,10,10,11,11,12,12,13,13,14,14],"right_children":[2,4,6,8,10,12,14,16,18,-1,20,22,24,26,28,-1,-1,-1,-1,-1,-1,-1,-1,-1,-1,-1,-1,-1,-1],"split_conditions":[-3.1563756E-1,-4.2466068E-1,4.9910624E-2,-5.080313E-1,-3.8618192E-1,-1.42206345E-2,3.9621943E-1,-5.593363E-1,-5.016182E-1,6.0247846E-2,-3.220507E-1,-3.3460014E-2,-7.807509E-3,3.898063E-1,4.9882942E-1,8.4199365E-3,5.9395827E-2,-2.9801281E-2,3.56375E-3,7.659341E-3,4.630724E-2,-1.740961E-3,-1.4120994E-2,7.7460194E-3,2.085571E-2,-8.457135E-3,-2.3680339E-2,2.8970698E-2,-6.136943E-3],"split_indices":[3,3,3,3,3,3,3,3,3,0,3,3,3,3,3,0,0,0,0,0,0,0,0,0,0,0,0,0,0],"split_type":[0,0,0,0,0,0,0,0,0,0,0,0,0,0,0,0,0,0,0,0,0,0,0,0,0,0,0,0,0],"sum_hessian":[2.654E3,9.87E2,1.667E3,8.98E2,8.9E1,6.82E2,9.85E2,7.37E2,1.61E2,2.2E1,6.7E1,6.2E2,6.2E1,1.29E2,8.56E2,7.01E2,3.6E1,6.7E1,9.4E1,4.2E1,2.5E1,5.57E2,6.3E1,1.2E1,5E1,8.8E1,4.1E1,3.4E1,8.22E2],"tree_param":{"num_deleted":"0","num_feature":"5","num_nodes":"29","size_leaf_vector":"0"}},{"base_weights":[-1.3243415E-2,-2.9391549E-3,9.311853E-3],"categories":[],"categories_nodes":[],"categories_segments":[],"categories_sizes":[],"default_left":[0,0,0],"id":39,"left_children":[1,-1,-1],"loss_changes":[1.6747493E0,0E0,0E0],"parents":[2147483647,0,0],"right_children":[2,-1,-1],"split_conditions":[1E0,-2.9391549E-3,9.311853E-3],"split_indices":[0,0,0],"split_type":[0,0,0],"sum_hessian":[2.706E3,2.467E3,2.39E2],"tree_param":{"num_deleted":"0","num_feature":"5","num_nodes":"3","size_leaf_vector":"0"}},{"base_weights":[9.232863E-3,1.7771142E-3,-2.538646E-3],"categories":[],"categories_nodes":[],"categories_segments":[],"categories_sizes":[],"default_left":[0,0,0],"id":40,"left_children":[1,-1,-1],"loss_changes":[2.5802726E-1,0E0,0E0],"parents":[2147483647,0,0],"right_children":[2,-1,-1],"split_conditions":[1E0,1.7771142E-3,-2.538646E-3],"split_indices":[2,0,0],"split_type":[0,0,0],"sum_hessian":[2.721E3,2.416E3,3.05E2],"tree_param":{"num_deleted":"0","num_feature":"5","num_nodes":"3","size_leaf_vector":"0"}},{"base_weights":[-9.7104255E-3,1.7910878E-1,-2.0584114E-2,6.687397E-2,2.5316334E-1,-9.903291E-2,3.8065745E-3,4.6713706E-2,5.1658876E-2,5.4170713E-2,1.8651778E-1,-2.9298099E-2,-7.643091E-2,7.89263E-2,-2.9145498E-2,-1.625344E-2,1.3856279E-2,2.9313907E-2,2.079856E-2,-8.355265E-3,-2.2466734E-2,6.07019E-3,3.8424775E-2,-6.8623037E-3,8.9504145E-4],"categories":[],"categories_nodes":[],"categories_segments":[],"categories_sizes":[],"default_left":[0,0,0,0,0,0,0,0,0,0,0,0,0,0,0,0,0,0,0,0,0,0,0,0,0],"id":41,"left_children":[1,3,5,7,9,11,13,-1,15,-1,17,-1,19,21,23,-1,-1,-1,-1,-1,-1,-1,-1,-1,-1],"loss_changes":[5.467149E0,1.1882372E0,4.8164554E0,2.2226265E-1,7.034521E-1,1.4715061E0,4.757449E0,0E0,4.6391344E-1,0E0,2.0971298E-2,0E0,6.901009E-1,4.0636115E0,9.43779E-1,0E0,0E0,0E0,0E0,0E0,0E0,0E0,0E0,0E0,0E0],"parents":[2147483647,0,0,1,1,2,2,3,3,4,4,5,5,6,6,8,8,10,10,12,12,13,13,14,14],"right_children":[2,4,6,8,10,12,14,-1,16,-1,18,-1,20,22,24,-1,-1,-1,-1,-1,-1,-1,-1,-1,-1],"split_conditions":[-1.4418772E0,-1.4663912E0,-5.2873313E-1,-1.6134747E0,-1.4541342E0,-1.2151233E0,-2.345659E-1,4.6713706E-2,-1.6073463E0,5.4170713E-2,-1.4480057E0,-2.9298099E-2,-5.593755E-1,-3.3262163E-1,1.4630241E0,-1.625344E-2,1.3856279E-2,2.9313907E-2,2.079856E-2,-8.355265E-3,-2.2466734E-2,6.07019E-3,3.8424775E-2,-6.8623037E-3,8.9504145E-4],"split_indices":[4,4,4,4,4,4,4,0,4,0,4,0,4,4,4,0,0,0,0,0,0,0,0,0,0],"split_type":[0,0,0,0,0,0,0,0,0,0,0,0,0,0,0,0,0,0,0,0,0,0,0,0,0],"sum_hessian":[2.66E3,1.44E2,2.516E3,5.8E1,8.6E1,5.96E2,1.92E3,2E0,5.6E1,2.7E1,5.9E1,1E2,4.96E2,5.85E2,1.335E3,1.2E1,4.4E1,3.4E1,2.5E1,4.15E2,8.1E1,4.96E2,8.9E1,8.56E2,4.79E2],"tree_param":{"num_deleted":"0","num_feature":"5","num_nodes":"25","size_leaf_vector":"0"}},{"base_weights":[-4.162715E-3,-7.9997914E-4,1.2654782E-3],"categories":[],"categories_nodes":[],"categories_segments":[],"categories_sizes":[],"default_left":[0,0,0],"id":42,"left_children":[1,-1,-1],"loss_changes":[5.4901443E-2,0E0,0E0],"parents":[2147483647,0,0],"right_children":[2,-1,-1],"split_conditions":[1E0,-7.9997914E-4,1.2654782E-3],"split_indices":[1,0,0],"split_type":[0,0,0],"sum_hessian":[2.677E3,2.396E3,2.81E2],"tree_param":{"num_deleted":"0","num_feature":"5","num_nodes":"3","size_leaf_vector":"0"}},{"base_weights":[7.741914E-3,4.381392E-2,-1.3281515E-2,2.2035515E-2,2.3377948E-1,-1.0474754E-2,-6.605749E-2,2.9357277E-2,-2.1867875E-2,1.902228E-1,4.6273198E-2,-1.4119384E-2,4.4445243E-2,-7.840479E-3,-1.4828163E-2,2.1182962E-3,3.0742943E-2,3.1572096E-2,1.607941E-2,-4.7152126E-4,-4.333873E-3,1.0183246E-2,-4.326556E-3],"categories":[],"categories_nodes":[],"categories_segments":[],"categories_sizes":[],"default_left":[0,0,0,0,0,0,0,0,0,0,0,0,0,0,0,0,0,0,0,0,0,0,0],"id":43,"left_children":[1,3,5,7,9,11,13,15,-1,17,-1,19,21,-1,-1,-1,-1,-1,-1,-1,-1,-1,-1],"loss_changes":[2.0246377E0,4.0616646E0,2.4920267E-1,1.1568931E0,3.6272287E-1,3.21489E-1,2.813083E-2,2.2944088E0,0E0,1.6561627E-1,0E0,2.721488E-1,2.1542758E-1,0E0,0E0,0E0,0E0,0E0,0E0,0E0,0E0,0E0,0E0],"parents":[2147483647,0,0,1,1,2,2,3,3,4,4,5,5,6,6,7,7,9,9,11,11,12,12],"right_children":[2,4,6,8,10,12,14,16,-1,18,-1,20,22,-1,-1,-1,-1,-1,-1,-1,-1,-1,-1],"split_conditions":[-3.1563756E-1,-4.2466068E-1,2.313744E0,-4.310738E-1,-3.220507E-1,2.057219E0,2.9550567E0,-5.016182E-1,-2.1867875E-2,-3.5411632E-1,4.6273198E-2,7.1046257E-1,2.0764585E0,-7.840479E-3,-1.4828163E-2,2.1182962E-3,3.0742943E-2,3.1572096E-2,1.607941E-2,-4.7152126E-4,-4.333873E-3,1.0183246E-2,-4.326556E-3],"split_indices":[3,3,3,3,3,3,3,3,0,3,0,3,3,0,0,0,0,0,0,0,0,0,0],"split_type":[0,0,0,0,0,0,0,0,0,0,0,0,0,0,0,0,0,0,0,0,0,0,0],"sum_hessian":[2.668E3,9.82E2,1.686E3,8.82E2,1E2,1.602E3,8.4E1,8.48E2,3.4E1,7.1E1,2.9E1,1.503E3,9.9E1,6.9E1,1.5E1,7.9E2,5.8E1,4.7E1,2.4E1,9.18E2,5.85E2,7.2E1,2.7E1],"tree_param":{"num_deleted":"0","num_feature":"5","num_nodes":"23","size_leaf_vector":"0"}},{"base_weights":[1.2581656E-2,-7.243241E-4,2.3997316E-2],"categories":[],"categories_nodes":[],"categories_segments":[],"categories_sizes":[],"default_left":[0,0,0],"id":44,"left_children":[1,-1,-1],"loss_changes":[7.544521E0,0E0,0E0],"parents":[2147483647,0,0],"right_children":[2,-1,-1],"split_conditions":[1E0,-7.243241E-4,2.3997316E-2],"split_indices":[0,0,0],"split_type":[0,0,0],"sum_hessian":[2.674E3,2.406E3,2.68E2],"tree_param":{"num_deleted":"0","num_feature":"5","num_nodes":"3","size_leaf_vector":"0"}},{"base_weights":[-2.6715787E-3,-4.3229313E-4,1.13592934E-4],"categories":[],"categories_nodes":[],"categories_segments":[],"categories_sizes":[],"default_left":[0,0,0],"id":45,"left_children":[1,-1,-1],"loss_changes":[3.9573144E-3,0E0,0E0],"parents":[2147483647,0,0],"right_children":[2,-1,-1],"split_conditions":[1E0,-4.3229313E-4,1.13592934E-4],"split_indices":[1,0,0],"split_type":[0,0,0],"sum_hessian":[2.727E3,2.436E3,2.91E2],"tree_param":{"num_deleted":"0","num_feature":"5","num_nodes":"3","size_leaf_vector":"0"}},{"base_weights":[5.037649E-3,2.8411001E-2,-3.885491E-2,-8.422468E-3,8.9058034E-2,-8.507756E-2,1.4718877E-3,1.3437754E-1,-3.183578E-2,1.7789239E-1,2.2315407E-2,-7.017798E-2,-2.1052235E-1,3.0153425E-2,-1.5621416E-2,4.4274095E-2,1.53555E-2,-1.111897E-2,2.5318358E-3,1.6749782E-2,6.820809E-2,-1.641584E-3,3.0326042E-2,-1.1408959E-2,5.2735973E-3,-3.779307E-2,-2.0972656E-2,9.4409995E-3,2.3204319E-3],"categories":[],"categories_nodes":[],"categories_segments":[],"categories_sizes":[],"default_left":[0,0,0,0,0,0,0,0,0,0,0,0,0,0,0,0,0,0,0,0,0,0,0,0,0,0,0,0,0],"id":46,"left_children":[1,3,5,7,9,11,13,15,17,19,21,23,25,27,-1,-1,-1,-1,-1,-1,-1,-1,-1,-1,-1,-1,-1,-1,-1],"loss_changes":[2.7751813E0,3.9434786E0,1.7522963E0,3.678698E0,3.9506989E0,8.0388117E-1,1.6343654E0,6.61458E-1,2.2462652E0,5.0947285E0,2.5291417E0,4.826231E-1,1.255436E-1,2.0239595E-1,0E0,0E0,0E0,0E0,0E0,0E0,0E0,0E0,0E0,0E0,0E0,0E0,0E0,0E0,0E0],"parents":[2147483647,0,0,1,1,2,2,3,3,4,4,5,5,6,6,7,7,8,8,9,9,10,10,11,11,12,12,13,13],"right_children":[2,4,6,8,10,12,14,16,18,20,22,24,26,28,-1,-1,-1,-1,-1,-1,-1,-1,-1,-1,-1,-1,-1,-1,-1],"split_conditions":[3.782825E-1,-3.816495E-1,1.4630241E0,-1.4418772E0,-2.345659E-1,1.2791697E0,2.259727E0,-1.6073463E0,-6.145319E-1,-2.5295135E-1,2.3732737E-1,1.0217733E0,1.3404545E0,1.7694483E0,-1.5621416E-2,4.4274095E-2,1.53555E-2,-1.111897E-2,2.5318358E-3,1.6749782E-2,6.820809E-2,-1.641584E-3,3.0326042E-2,-1.1408959E-2,5.2735973E-3,-3.779307E-2,-2.0972656E-2,9.4409995E-3,2.3204319E-3],"split_indices":[4,4,4,4,4,4,4,4,4,4,4,4,4,4,0,0,0,0,0,0,0,0,0,0,0,0,0,0,0],"split_type":[0,0,0,0,0,0,0,0,0,0,0,0,0,0,0,0,0,0,0,0,0,0,0,0,0,0,0,0,0],"sum_hessian":[2.703E3,1.764E3,9.39E2,1.098E3,6.66E2,4.37E2,5.02E2,1.54E2,9.44E2,2.85E2,3.81E2,3.92E2,4.5E1,4.01E2,1.01E2,1.7E1,1.37E2,4.83E2,4.61E2,2.41E2,4.4E1,3.25E2,5.6E1,3.55E2,3.7E1,2.1E1,2.4E1,1.06E2,2.95E2],"tree_param":{"num_deleted":"0","num_feature":"5","num_nodes":"29","size_leaf_vector":"0"}},{"base_weights":[-3.0370555E-3,-3.9204446E-4,-7.1718555E-4],"categories":[],"categories_nodes":[],"categories_segments":[],"categories_sizes":[],"default_left":[0,0,0],"id":47,"left_children":[1,-1,-1],"loss_changes":[1.3138801E-3,0E0,0E0],"parents":[2147483647,0,0],"right_children":[2,-1,-1],"split_conditions":[1E0,-3.9204446E-4,-7.1718555E-4],"split_indices":[2,0,0],"split_type":[0,0,0],"sum_hessian":[2.689E3,2.417E3,2.72E2],"tree_param":{"num_deleted":"0","num_feature":"5","num_nodes":"3","size_leaf_vector":"0"}},{"base_weights":[-2.1351382E-4,1.5442382E-1,-8.320395E-3,8.308553E-2,1.3983907E-1,-9.8985344E-2,1.4161847E-2,1.09538995E-1,1.7495885E-1,-7.920018E-2,-2.504835E-2,5.7336558E-2,-2.554951E-2,2.470759E-2,-1.5469701E-3,3.7220348E-2,1.8456995E-2,-1.2797158E-2,6.629537E-2,5.8855163E-3,3.8149633E-2,-2.4181152E-2,-2.1736708E-3],"categories":[],"categories_nodes":[],"categories_segments":[],"categories_sizes":[],"default_left":[0,0,0,0,0,0,0,0,0,0,0,0,0,0,0,0,0,0,0,0,0,0,0],"id":48,"left_children":[1,3,5,-1,7,9,11,13,15,17,-1,19,21,-1,-1,-1,-1,-1,-1,-1,-1,-1,-1],"loss_changes":[3.3722866E0,7.7505827E-1,5.2114277E0,0E0,1.20236635E-1,7.8920984E-1,3.5145297E0,5.912549E-1,1.96226E-1,2.80317E0,0E0,3.2206488E0,1.5727869E0,0E0,0E0,0E0,0E0,0E0,0E0,0E0,0E0,0E0,0E0],"parents":[2147483647,0,0,1,1,2,2,4,4,5,5,6,6,7,7,8,8,9,9,11,11,12,12],"right_children":[2,4,6,-1,8,10,12,14,16,18,-1,20,22,-1,-1,-1,-1,-1,-1,-1,-1,-1,-1],"split_conditions":[-1.4418772E0,-1.6134747E0,-6.0227495E-1,8.308553E-2,-1.4602627E0,-6.2066036E-1,-8.748228E-2,-1.4847766E0,-1.4541342E0,-6.513028E-1,-2.504835E-2,-1.4876711E-1,-1.6835069E-3,2.470759E-2,-1.5469701E-3,3.7220348E-2,1.8456995E-2,-1.2797158E-2,6.629537E-2,5.8855163E-3,3.8149633E-2,-2.4181152E-2,-2.1736708E-3],"split_indices":[4,4,4,0,4,4,4,4,4,4,0,4,4,0,0,0,0,0,0,0,0,0,0],"split_type":[0,0,0,0,0,0,0,0,0,0,0,0,0,0,0,0,0,0,0,0,0,0,0],"sum_hessian":[2.688E3,1.33E2,2.555E3,3E0,1.3E2,5.07E2,2.048E3,7.2E1,5.8E1,4.08E2,9.9E1,9.81E2,1.067E3,4.6E1,2.6E1,1.7E1,4.1E1,4E2,8E0,9.17E2,6.4E1,6.7E1,1E3],"tree_param":{"num_deleted":"0","num_feature":"5","num_nodes":"23","size_leaf_vector":"0"}},{"base_weights":[-6.6114007E-3,-1.3437168E-3,3.191124E-3],"categories":[],"categories_nodes":[],"categories_segments":[],"categories_sizes":[],"default_left":[0,0,0],"id":49,"left_children":[1,-1,-1],"loss_changes":[2.332949E-1,0E0,0E0],"parents":[2147483647,0,0],"right_children":[2,-1,-1],"split_conditions":[1E0,-1.3437168E-3,3.191124E-3],"split_indices":[0,0,0],"split_type":[0,0,0],"sum_hessian":[2.653E3,2.409E3,2.44E2],"tree_param":{"num_deleted":"0","num_feature":"5","num_nodes":"3","size_leaf_vector":"0"}},{"base_weights":[-4.5627593E-3,-8.254463E-4,8.8823517E-4],"categories":[],"categories_nodes":[],"categories_segments":[],"categories_sizes":[],"default_left":[0,0,0],"id":50,"left_children":[1,-1,-1],"loss_changes":[3.8691476E-2,0E0,0E0],"parents":[2147483647,0,0],"right_children":[2,-1,-1],"split_conditions":[1E0,-8.254463E-4,8.8823517E-4],"split_indices":[2,0,0],"split_type":[0,0,0],"sum_hessian":[2.657E3,2.368E3,2.89E2],"tree_param":{"num_deleted":"0","num_feature":"5","num_nodes":"3","size_leaf_vector":"0"}},{"base_weights":[3.6490387E-3,3.101775E-4,2.3414507E-3],"categories":[],"categories_nodes":[],"categories_segments":[],"categories_sizes":[],"default_left":[0,0,0],"id":51,"left_children":[1,-1,-1],"loss_changes":[5.0645888E-2,0E0,0E0],"parents":[2147483647,0,0],"right_children":[2,-1,-1],"split_conditions":[1E0,3.101775E-4,2.3414507E-3],"split_indices":[1,0,0],"split_type":[0,0,0],"sum_hessian":[2.703E3,2.437E3,2.66E2],"tree_param":{"num_deleted":"0","num_feature":"5","num_nodes":"3","size_leaf_vector":"0"}},{"base_weights":[-1.07455235E-2,-8.376026E-4,-7.69881E-3],"categories":[],"categories_nodes":[],"categories_segments":[],"categories_sizes":[],"default_left":[0,0,0],"id":52,"left_children":[1,-1,-1],"loss_changes":[5.658971E-1,0E0,0E0],"parents":[2147483647,0,0],"right_children":[2,-1,-1],"split_conditions":[1E0,-8.376026E-4,-7.69881E-3],"split_indices":[1,0,0],"split_type":[0,0,0],"sum_hessian":[2.686E3,2.426E3,2.6E2],"tree_param":{"num_deleted":"0","num_feature":"5","num_nodes":"3","size_leaf_vector":"0"}},{"base_weights":[-1.5358737E-3,-1.3094795E-3,1.0095177E-2],"categories":[],"categories_nodes":[],"categories_segments":[],"categories_sizes":[],"default_left":[0,0,0],"id":53,"left_children":[1,-1,-1],"loss_changes":[1.5297813E0,0E0,0E0],"parents":[2147483647,0,0],"right_children":[2,-1,-1],"split_conditions":[1E0,-1.3094795E-3,1.0095177E-2],"split_indices":[0,0,0],"split_type":[0,0,0],"sum_hessian":[2.655E3,2.401E3,2.54E2],"tree_param":{"num_deleted":"0","num_feature":"5","num_nodes":"3","size_leaf_vector":"0"}},{"base_weights":[8.892746E-3,1.08893864E-1,2.0367287E-3,6.575499E-2,1.0208674E-1,-6.3291654E-2,2.248401E-2,6.4075843E-4,1.1254934E-1,-4.7979783E-2,-1.4998126E-1,8.894447E-2,-7.648247E-3,2.6719233E-2,1.0874488E-2,-7.7373763E-3,2.0859772E-2,-4.5357723E-2,-3.0149503E-3,8.902386E-3,7.8924954E-2,-3.6987741E-3,4.033688E-3],"categories":[],"categories_nodes":[],"categories_segments":[],"categories_sizes":[],"default_left":[0,0,0,0,0,0,0,0,0,0,0,0,0,0,0,0,0,0,0,0,0,0,0],"id":54,"left_children":[1,3,5,-1,7,9,11,-1,13,15,17,19,21,-1,-1,-1,-1,-1,-1,-1,-1,-1,-1],"loss_changes":[1.8913743E0,3.8674784E-1,3.4517632E0,0E0,1.7802107E-1,8.104701E-1,3.9418044E0,0E0,4.166336E-1,7.618288E-1,2.0492141E0,7.356198E0,9.2814636E-1,0E0,0E0,0E0,0E0,0E0,0E0,0E0,0E0,0E0,0E0],"parents":[2147483647,0,0,1,1,2,2,4,4,5,5,6,6,8,8,9,9,10,10,11,11,12,12],"right_children":[2,4,6,-1,8,10,12,-1,14,16,18,20,22,-1,-1,-1,-1,-1,-1,-1,-1,-1,-1],"split_conditions":[-1.4418772E0,-1.6134747E0,-5.2873313E-1,6.575499E-2,-1.6073463E0,-5.593755E-1,-2.345659E-1,6.4075843E-4,-1.4847766E0,-6.0227495E-1,-5.5324703E-1,-2.5295135E-1,1.4630241E0,2.6719233E-2,1.0874488E-2,-7.7373763E-3,2.0859772E-2,-4.5357723E-2,-3.0149503E-3,8.902386E-3,7.8924954E-2,-3.6987741E-3,4.033688E-3],"split_indices":[4,4,4,0,4,4,4,0,4,4,4,4,4,0,0,0,0,0,0,0,0,0,0],"split_type":[0,0,0,0,0,0,0,0,0,0,0,0,0,0,0,0,0,0,0,0,0,0,0],"sum_hessian":[2.758E3,1.76E2,2.582E3,2E0,1.74E2,6.15E2,1.967E3,1.7E1,1.57E2,5.24E2,9.1E1,6.13E2,1.354E3,4.7E1,1.1E2,5.06E2,1.8E1,3.8E1,5.3E1,5.83E2,3E1,8.94E2,4.6E2],"tree_param":{"num_deleted":"0","num_feature":"5","num_nodes":"23","size_leaf_vector":"0"}},{"base_weights":[-5.672888E-3,2.44191E-2,-1.7096644E-2,-3.0802514E-3,4.7037476E-1,-1.634372E-2,-1.4291143E-2,1.6803876E-2,-7.7486254E-2,9.03579E-2,5.537083E-2,1.0363046E-1,-1.6486222E-2,-2.6498893E-3,1.5343183E-2,-7.818623E-3,-1.3241693E-2,2.8840307E-2,1.0407101E-2,-1.8889684E-2,-1.732056E-3],"categories":[],"categories_nodes":[],"categories_segments":[],"categories_sizes":[],"default_left":[0,0,0,0,0,0,0,0,0,0,0,0,0,0,0,0,0,0,0,0,0],"id":55,"left_children":[1,3,5,7,9,-1,11,13,15,-1,-1,17,19,-1,-1,-1,-1,-1,-1,-1,-1],"loss_changes":[9.0314054E-1,8.867953E0,5.305988E-1,1.0103201E0,2.9514217E-1,0E0,4.8135236E-1,1.7891562E0,4.7993004E-2,0E0,0E0,8.6648434E-2,8.852333E-1,0E0,0E0,0E0,0E0,0E0,0E0,0E0,0E0],"parents":[2147483647,0,0,1,1,2,2,3,3,4,4,6,6,7,7,8,8,11,11,12,12],"right_children":[2,4,6,8,10,-1,12,14,16,-1,-1,18,20,-1,-1,-1,-1,-1,-1,-1,-1],"split_conditions":[-5.080313E-1,-5.593363E-1,-5.016182E-1,-5.7216257E-1,-5.529232E-1,-1.634372E-2,-4.4390008E-1,-9.569501E-1,-5.6574947E-1,9.03579E-2,5.537083E-2,-4.8879194E-1,-4.2466068E-1,-2.6498893E-3,1.5343183E-2,-7.818623E-3,-1.3241693E-2,2.8840307E-2,1.0407101E-2,-1.8889684E-2,-1.732056E-3],"split_indices":[3,3,3,3,3,0,3,3,3,0,0,3,3,0,0,0,0,0,0,0,0],"split_type":[0,0,0,0,0,0,0,0,0,0,0,0,0,0,0,0,0,0,0,0,0],"sum_hessian":[2.625E3,7.22E2,1.903E3,6.81E2,4.1E1,5.1E1,1.852E3,5.38E2,1.43E2,1E1,3.1E1,3.3E1,1.819E3,3.89E2,1.49E2,6.5E1,7.8E1,6E0,2.7E1,6E1,1.759E3],"tree_param":{"num_deleted":"0","num_feature":"5","num_nodes":"21","size_leaf_vector":"0"}},{"base_weights":[-7.0552155E-3,-1.2390772E-3,1.0886288E-3],"categories":[],"categories_nodes":[],"categories_segments":[],"categories_sizes":[],"default_left":[0,0,0],"id":56,"left_children":[1,-1,-1],"loss_changes":[7.1695074E-2,0E0,0E0],"parents":[2147483647,0,0],"right_children":[2,-1,-1],"split_conditions":[1E0,-1.2390772E-3,1.0886288E-3],"split_indices":[2,0,0],"split_type":[0,0,0],"sum_hessian":[2.689E3,2.399E3,2.9E2],"tree_param":{"num_deleted":"0","num_feature":"5","num_nodes":"3","size_leaf_vector":"0"}}]},"name":"gbtree"},"learner_model_param":{"base_score":"5E-1","num_class":"0","num_feature":"5","num_target":"1"},"objective":{"name":"reg:squarederror","reg_loss_param":{"scale_pos_weight":"1"}}},"version":[1,6,1]}